genomestart 726
trait 1 0 0.146221 0.28125 0.0644977 0.561468 0 0.18034 0.191759 
node 1 1 1 1 0
node 2 1 1 1 0
node 3 1 1 1 0
node 4 1 1 1 0
node 5 1 1 1 0
node 6 1 1 1 0
node 7 1 1 1 0
node 8 1 1 1 0
node 9 1 1 1 0
node 10 1 1 1 0
node 11 1 1 1 0
node 12 1 1 1 0
node 13 1 1 1 0
node 14 1 1 1 0
node 15 1 1 1 0
node 16 1 1 1 0
node 17 1 1 1 0
node 18 1 1 1 0
node 19 1 1 3 0
node 20 1 0 2 0
node 21 1 0 2 0
node 22 1 0 2 0
node 23 1 0 2 0
node 24 1 0 0 0
node 26 1 0 0 0
node 28 1 0 0 0
node 32 1 0 0 0
node 37 1 0 0 0
node 39 1 0 0 0
node 43 1 0 0 0
node 53 1 0 0 0
node 62 1 0 0 0
gene 1 1 20 -0.24785 0 1 -0.24785 1
gene 1 2 20 -0.368648 0 2 -0.368648 1
gene 1 3 20 -0.416641 0 3 -0.416641 1
gene 1 4 20 -0.509853 0 4 -0.509853 1
gene 1 5 20 0.0652771 0 5 0.0652771 1
gene 1 6 20 -0.49973 0 6 -0.49973 1
gene 1 7 20 0.493577 0 7 0.493577 1
gene 1 8 20 -0.102354 0 8 -0.102354 0
gene 1 9 20 0.0102517 0 9 0.0102517 1
gene 1 10 20 0.177272 0 10 0.177272 1
gene 1 11 20 -0.2962 0 11 -0.2962 1
gene 1 12 20 2.43121 0 12 2.43121 1
gene 1 13 20 0.010731 0 13 0.010731 1
gene 1 14 20 -1.2042 0 14 -1.2042 1
gene 1 15 20 -0.141014 0 15 -0.141014 1
gene 1 16 20 0.48507 0 16 0.48507 1
gene 1 17 20 1.1132 0 17 1.1132 1
gene 1 18 20 0.356165 0 18 0.356165 1
gene 1 19 20 0.957822 0 19 0.957822 1
gene 1 1 21 -0.575893 0 20 -0.575893 1
gene 1 2 21 0.236357 0 21 0.236357 1
gene 1 3 21 -0.49744 0 22 -0.49744 1
gene 1 4 21 0.677146 0 23 0.677146 1
gene 1 5 21 -0.384731 0 24 -0.384731 1
gene 1 6 21 0.456262 0 25 0.456262 1
gene 1 7 21 0.00551403 0 26 0.00551403 1
gene 1 8 21 0.438551 0 27 0.438551 1
gene 1 9 21 -0.319327 0 28 -0.319327 1
gene 1 10 21 -0.0281858 0 29 -0.0281858 1
gene 1 11 21 0.0532887 0 30 0.0532887 1
gene 1 12 21 0.196867 0 31 0.196867 1
gene 1 13 21 -0.652149 0 32 -0.652149 1
gene 1 14 21 -1.59071 0 33 -1.59071 1
gene 1 15 21 0.477247 0 34 0.477247 0
gene 1 16 21 0.374149 0 35 0.374149 1
gene 1 17 21 -0.30068 0 36 -0.30068 1
gene 1 18 21 -0.244725 0 37 -0.244725 1
gene 1 19 21 1.30458 0 38 1.30458 1
gene 1 1 22 0.634007 0 39 0.634007 1
gene 1 2 22 0.185355 0 40 0.185355 1
gene 1 3 22 -0.00574314 0 41 -0.00574314 1
gene 1 4 22 -0.29712 0 42 -0.29712 1
gene 1 5 22 0.123424 0 43 0.123424 1
gene 1 6 22 -0.319141 0 44 -0.319141 0
gene 1 7 22 0.387619 0 45 0.387619 1
gene 1 8 22 -0.640929 0 46 -0.640929 1
gene 1 9 22 0.133324 0 47 0.133324 1
gene 1 10 22 -0.232495 0 48 -0.232495 1
gene 1 11 22 0.309347 0 49 0.309347 1
gene 1 12 22 -0.168598 0 50 -0.168598 1
gene 1 13 22 -0.139303 0 51 -0.139303 1
gene 1 14 22 -0.222609 0 52 -0.222609 1
gene 1 15 22 0.0206416 0 53 0.0206416 1
gene 1 16 22 -0.0331416 0 54 -0.0331416 1
gene 1 17 22 2.40645 0 55 2.40645 1
gene 1 18 22 0.130033 0 56 0.130033 1
gene 1 19 22 0.680397 0 57 0.680397 1
gene 1 1 23 0.471087 0 58 0.471087 1
gene 1 2 23 0.096727 0 59 0.096727 1
gene 1 3 23 -1.40894 0 60 -1.40894 1
gene 1 4 23 0.447733 0 61 0.447733 1
gene 1 5 23 -0.529742 0 62 -0.529742 1
gene 1 6 23 0.654924 0 63 0.654924 1
gene 1 7 23 -0.148662 0 64 -0.148662 1
gene 1 8 23 0.274937 0 65 0.274937 1
gene 1 9 23 -0.457063 0 66 -0.457063 1
gene 1 10 23 0.3154 0 67 0.3154 1
gene 1 11 23 -0.195683 0 68 -0.195683 1
gene 1 12 23 0.527532 0 69 0.527532 1
gene 1 13 23 -1.11744 0 70 -1.11744 1
gene 1 14 23 0.358772 0 71 0.358772 1
gene 1 15 23 -0.679452 0 72 -0.679452 1
gene 1 16 23 -0.930351 0 73 -0.930351 1
gene 1 17 23 0.493972 0 74 0.493972 0
gene 1 18 23 -0.135268 0 75 -0.135268 1
gene 1 19 23 0.159275 0 76 0.159275 1
gene 1 8 24 -0.733093 0 77 -0.733093 1
gene 1 24 20 1.67449 0 78 1.67449 1
gene 1 15 26 0.366438 0 85 0.366438 1
gene 1 26 20 0.312704 0 86 0.312704 1
gene 1 22 20 2.44441 0 87 2.44441 1
gene 1 2 24 0.340073 0 91 0.340073 1
gene 1 8 28 0.455229 0 93 0.455229 1
gene 1 28 24 0.259863 0 94 0.259863 1
gene 1 6 24 0.182521 0 96 0.182521 1
gene 1 16 26 -0.0531613 0 99 -0.0531613 1
gene 1 13 24 -1.07655 0 100 -1.07655 1
gene 1 23 24 0.574141 0 113 0.574141 1
gene 1 13 32 0.000808994 0 116 0.000808994 1
gene 1 32 21 -0.701097 0 117 -0.701097 1
gene 1 10 37 -0.427659 0 129 -0.427659 1
gene 1 37 20 0.893588 0 130 0.893588 1
gene 1 17 39 0.802923 0 134 0.802923 1
gene 1 39 23 0.376867 0 135 0.376867 1
gene 1 15 43 -0.000345934 0 150 -0.000345934 1
gene 1 43 21 -0.355989 0 151 -0.355989 1
gene 1 3 43 0.483385 0 153 0.483385 1
gene 1 8 32 0.214375 0 154 0.214375 1
gene 1 2 39 1.12444 0 178 1.12444 1
gene 1 6 53 -0.692809 0 191 -0.692809 1
gene 1 53 22 -0.411609 0 192 -0.411609 1
gene 1 13 62 0.377555 0 225 0.377555 1
gene 1 62 20 -0.17784 0 226 -0.17784 1
genomeend 726
genomestart 921
trait 1 0 0.214542 0.626245 0.519469 1 0 0.429468 0.314457 
node 1 1 1 1 0
node 2 1 1 1 0
node 3 1 1 1 0
node 4 1 1 1 0
node 5 1 1 1 0
node 6 1 1 1 0
node 7 1 1 1 0
node 8 1 1 1 0
node 9 1 1 1 0
node 10 1 1 1 0
node 11 1 1 1 0
node 12 1 1 1 0
node 13 1 1 1 0
node 14 1 1 1 0
node 15 1 1 1 0
node 16 1 1 1 0
node 17 1 1 1 0
node 18 1 1 1 0
node 19 1 1 3 0
node 20 1 0 2 0
node 21 1 0 2 0
node 22 1 0 2 0
node 23 1 0 2 0
node 24 1 0 0 0
node 26 1 0 0 0
node 28 1 0 0 0
node 32 1 0 0 0
node 37 1 0 0 0
node 39 1 0 0 0
node 43 1 0 0 0
node 53 1 0 0 0
node 61 1 0 0 0
node 66 1 0 0 0
gene 1 1 20 -0.0316378 0 1 -0.0316378 1
gene 1 2 20 -0.113571 0 2 -0.113571 1
gene 1 3 20 0.490939 0 3 0.490939 1
gene 1 4 20 0.459125 0 4 0.459125 1
gene 1 5 20 0.194405 0 5 0.194405 1
gene 1 6 20 0.340024 0 6 0.340024 1
gene 1 7 20 -0.971795 0 7 -0.971795 1
gene 1 8 20 -0.428717 0 8 -0.428717 1
gene 1 9 20 -0.117759 0 9 -0.117759 1
gene 1 10 20 0.0328166 0 10 0.0328166 1
gene 1 11 20 -0.111463 0 11 -0.111463 1
gene 1 12 20 2.17446 0 12 2.17446 1
gene 1 13 20 -0.236211 0 13 -0.236211 1
gene 1 14 20 0.701232 0 14 0.701232 1
gene 1 15 20 0.478721 0 15 0.478721 1
gene 1 16 20 0.563105 0 16 0.563105 1
gene 1 17 20 1.23426 0 17 1.23426 1
gene 1 18 20 -0.609369 0 18 -0.609369 1
gene 1 19 20 0.0587909 0 19 0.0587909 1
gene 1 1 21 1.06927 0 20 1.06927 1
gene 1 2 21 1.28242 0 21 1.28242 1
gene 1 3 21 -0.0561131 0 22 -0.0561131 1
gene 1 4 21 0.039643 0 23 0.039643 1
gene 1 5 21 -0.729329 0 24 -0.729329 1
gene 1 6 21 -0.0343963 0 25 -0.0343963 1
gene 1 7 21 0.946701 0 26 0.946701 1
gene 1 8 21 -0.144377 0 27 -0.144377 1
gene 1 9 21 -1.16951 0 28 -1.16951 1
gene 1 10 21 0.470397 0 29 0.470397 1
gene 1 11 21 -0.467574 0 30 -0.467574 1
gene 1 12 21 0.0218162 0 31 0.0218162 1
gene 1 13 21 -0.751094 0 32 -0.751094 0
gene 1 14 21 -2.25635 0 33 -2.25635 1
gene 1 15 21 0.108823 0 34 0.108823 1
gene 1 16 21 0.713039 0 35 0.713039 1
gene 1 17 21 -0.492301 0 36 -0.492301 1
gene 1 18 21 -0.0214979 0 37 -0.0214979 1
gene 1 19 21 -0.55561 0 38 -0.55561 1
gene 1 1 22 -1.23296 0 39 -1.23296 1
gene 1 2 22 0.384832 0 40 0.384832 1
gene 1 3 22 -0.0634097 0 41 -0.0634097 1
gene 1 4 22 -0.0224207 0 42 -0.0224207 1
gene 1 5 22 0.276406 0 43 0.276406 1
gene 1 6 22 -0.60916 0 44 -0.60916 1
gene 1 7 22 1.0097 0 45 1.0097 1
gene 1 8 22 0.378827 0 46 0.378827 1
gene 1 9 22 -0.834863 0 47 -0.834863 1
gene 1 10 22 -0.255224 0 48 -0.255224 1
gene 1 11 22 0.040974 0 49 0.040974 1
gene 1 12 22 -1.64409 0 50 -1.64409 1
gene 1 13 22 0.310681 0 51 0.310681 1
gene 1 14 22 -0.0943867 0 52 -0.0943867 1
gene 1 15 22 0.877811 0 53 0.877811 1
gene 1 16 22 0.0284253 0 54 0.0284253 1
gene 1 17 22 0.589428 0 55 0.589428 1
gene 1 18 22 1.21614 0 56 1.21614 1
gene 1 19 22 0.235496 0 57 0.235496 1
gene 1 1 23 0.194353 0 58 0.194353 1
gene 1 2 23 -0.420431 0 59 -0.420431 1
gene 1 3 23 0.272557 0 60 0.272557 1
gene 1 4 23 -1.13333 0 61 -1.13333 1
gene 1 5 23 -0.117206 0 62 -0.117206 1
gene 1 6 23 0.628621 0 63 0.628621 1
gene 1 7 23 0.16527 0 64 0.16527 1
gene 1 8 23 -0.214676 0 65 -0.214676 1
gene 1 9 23 0.856943 0 66 0.856943 1
gene 1 10 23 0.974179 0 67 0.974179 1
gene 1 11 23 -3 0 68 -3 1
gene 1 12 23 -2.72791 0 69 -2.72791 1
gene 1 13 23 -1.53031 0 70 -1.53031 1
gene 1 14 23 0.085167 0 71 0.085167 1
gene 1 15 23 -0.750721 0 72 -0.750721 1
gene 1 16 23 1.46394 0 73 1.46394 1
gene 1 17 23 -0.617955 0 74 -0.617955 0
gene 1 18 23 2.42662 0 75 2.42662 1
gene 1 19 23 -1.98591 0 76 -1.98591 1
gene 1 8 24 -0.448375 0 77 -0.448375 1
gene 1 24 20 1.31407 0 78 1.31407 1
gene 1 15 26 1.69039 0 85 1.69039 1
gene 1 26 20 0.288499 0 86 0.288499 1
gene 1 22 20 2.71749 0 87 2.71749 1
gene 1 2 24 -0.195319 0 91 -0.195319 1
gene 1 8 28 1.40045 0 93 1.40045 1
gene 1 28 24 -0.477168 0 94 -0.477168 1
gene 1 6 24 -0.73003 0 96 -0.73003 1
gene 1 16 26 0.630529 0 99 0.630529 1
gene 1 13 24 0.144682 0 100 0.144682 1
gene 1 23 24 -0.291121 0 113 -0.291121 1
gene 1 13 32 -0.150127 0 116 -0.150127 1
gene 1 32 21 -0.324429 0 117 -0.324429 1
gene 1 10 37 -0.0205112 0 129 -0.0205112 1
gene 1 37 20 1.40253 0 130 1.40253 1
gene 1 17 39 -0.211747 0 134 -0.211747 1
gene 1 39 23 0.02598 0 135 0.02598 1
gene 1 15 43 -0.157846 0 150 -0.157846 1
gene 1 43 21 0.042001 0 151 0.042001 1
gene 1 3 43 0.270444 0 153 0.270444 1
gene 1 8 32 0.788209 0 154 0.788209 1
gene 1 2 39 0.0786164 0 178 0.0786164 1
gene 1 6 53 -0.116995 0 191 -0.116995 1
gene 1 53 22 0.51338 0 192 0.51338 1
gene 1 2 61 0.38839 0 221 0.38839 1
gene 1 61 24 0.27923 0 222 0.27923 1
gene 1 8 66 -0.50502 0 237 -0.50502 1
gene 1 66 22 0.138351 0 238 0.138351 1
gene 1 28 23 0.256807 0 253 0.256807 1
genomeend 921
genomestart 922
trait 1 0 0.0791226 0 0 0.561468 0 0 0.180984 
node 1 1 1 1 0
node 2 1 1 1 0
node 3 1 1 1 0
node 4 1 1 1 0
node 5 1 1 1 0
node 6 1 1 1 0
node 7 1 1 1 0
node 8 1 1 1 0
node 9 1 1 1 0
node 10 1 1 1 0
node 11 1 1 1 0
node 12 1 1 1 0
node 13 1 1 1 0
node 14 1 1 1 0
node 15 1 1 1 0
node 16 1 1 1 0
node 17 1 1 1 0
node 18 1 1 1 0
node 19 1 1 3 0
node 20 1 0 2 0
node 21 1 0 2 0
node 22 1 0 2 0
node 23 1 0 2 0
node 24 1 0 0 0
node 26 1 0 0 0
node 28 1 0 0 0
node 32 1 0 0 0
node 37 1 0 0 0
node 39 1 0 0 0
node 43 1 0 0 0
node 53 1 0 0 0
node 68 1 0 0 0
node 70 1 0 0 0
gene 1 1 20 0.506458 0 1 0.506458 1
gene 1 2 20 -1.60562 0 2 -1.60562 1
gene 1 3 20 1.28327 0 3 1.28327 1
gene 1 4 20 -0.607914 0 4 -0.607914 1
gene 1 5 20 -0.246064 0 5 -0.246064 1
gene 1 6 20 1.28012 0 6 1.28012 1
gene 1 7 20 1.15467 0 7 1.15467 1
gene 1 8 20 0.264816 0 8 0.264816 1
gene 1 9 20 -0.144087 0 9 -0.144087 1
gene 1 10 20 0.272394 0 10 0.272394 1
gene 1 11 20 0.180022 0 11 0.180022 1
gene 1 12 20 2.45791 0 12 2.45791 1
gene 1 13 20 1.11173 0 13 1.11173 1
gene 1 14 20 -0.295118 0 14 -0.295118 1
gene 1 15 20 -0.100193 0 15 -0.100193 1
gene 1 16 20 0.193939 0 16 0.193939 1
gene 1 17 20 0.257906 0 17 0.257906 1
gene 1 18 20 0.507324 0 18 0.507324 0
gene 1 19 20 0.410238 0 19 0.410238 1
gene 1 1 21 0.161753 0 20 0.161753 1
gene 1 2 21 0.855547 0 21 0.855547 1
gene 1 3 21 -0.173361 0 22 -0.173361 1
gene 1 4 21 -0.417027 0 23 -0.417027 1
gene 1 5 21 -0.091493 0 24 -0.091493 1
gene 1 6 21 -0.908951 0 25 -0.908951 1
gene 1 7 21 0.521048 0 26 0.521048 1
gene 1 8 21 0.354691 0 27 0.354691 1
gene 1 9 21 -1.75881 0 28 -1.75881 1
gene 1 10 21 -1.04964 0 29 -1.04964 1
gene 1 11 21 0.928326 0 30 0.928326 1
gene 1 12 21 0.157711 0 31 0.157711 1
gene 1 13 21 -1.42153 0 32 -1.42153 0
gene 1 14 21 -2.23172 0 33 -2.23172 1
gene 1 15 21 0.332755 0 34 0.332755 1
gene 1 16 21 -0.324723 0 35 -0.324723 1
gene 1 17 21 -0.724711 0 36 -0.724711 1
gene 1 18 21 0.445298 0 37 0.445298 0
gene 1 19 21 -0.722425 0 38 -0.722425 1
gene 1 1 22 0.452051 0 39 0.452051 1
gene 1 2 22 -1.13687 0 40 -1.13687 1
gene 1 3 22 1.01825 0 41 1.01825 1
gene 1 4 22 0.49577 0 42 0.49577 1
gene 1 5 22 0.327409 0 43 0.327409 1
gene 1 6 22 1.6251 0 44 1.6251 1
gene 1 7 22 0.935808 0 45 0.935808 1
gene 1 8 22 -0.571507 0 46 -0.571507 1
gene 1 9 22 -0.214767 0 47 -0.214767 1
gene 1 10 22 0.0691874 0 48 0.0691874 1
gene 1 11 22 0.997578 0 49 0.997578 1
gene 1 12 22 -0.14008 0 50 -0.14008 1
gene 1 13 22 0.191463 0 51 0.191463 1
gene 1 14 22 -0.387232 0 52 -0.387232 1
gene 1 15 22 -0.0372177 0 53 -0.0372177 1
gene 1 16 22 0.615671 0 54 0.615671 1
gene 1 17 22 1.37708 0 55 1.37708 1
gene 1 18 22 0.642537 0 56 0.642537 1
gene 1 19 22 0.632705 0 57 0.632705 1
gene 1 1 23 -0.454971 0 58 -0.454971 1
gene 1 2 23 -0.627884 0 59 -0.627884 1
gene 1 3 23 -3 0 60 -3 1
gene 1 4 23 -0.609442 0 61 -0.609442 1
gene 1 5 23 0.534744 0 62 0.534744 1
gene 1 6 23 0.786837 0 63 0.786837 1
gene 1 7 23 -0.0397404 0 64 -0.0397404 1
gene 1 8 23 -0.238126 0 65 -0.238126 1
gene 1 9 23 0.0904376 0 66 0.0904376 1
gene 1 10 23 0.652418 0 67 0.652418 1
gene 1 11 23 -0.20579 0 68 -0.20579 1
gene 1 12 23 0.774576 0 69 0.774576 1
gene 1 13 23 0.413474 0 70 0.413474 1
gene 1 14 23 -0.57098 0 71 -0.57098 1
gene 1 15 23 0.247273 0 72 0.247273 1
gene 1 16 23 -1.0207 0 73 -1.0207 1
gene 1 17 23 -0.748855 0 74 -0.748855 1
gene 1 18 23 1.37275 0 75 1.37275 1
gene 1 19 23 -0.321124 0 76 -0.321124 1
gene 1 8 24 0.21815 0 77 0.21815 1
gene 1 24 20 0.378346 0 78 0.378346 1
gene 1 15 26 1.83728 0 85 1.83728 1
gene 1 26 20 -0.34604 0 86 -0.34604 1
gene 1 22 20 3 0 87 3 1
gene 1 2 24 -0.161685 0 91 -0.161685 1
gene 1 8 28 0.133427 0 93 0.133427 1
gene 1 28 24 -1.54848 0 94 -1.54848 1
gene 1 6 24 0.116575 0 96 0.116575 1
gene 1 16 26 -0.144337 0 99 -0.144337 1
gene 1 13 24 -0.340757 0 100 -0.340757 1
gene 1 23 24 0.272853 0 113 0.272853 1
gene 1 13 32 0.24306 0 116 0.24306 1
gene 1 32 21 -1.18089 0 117 -1.18089 1
gene 1 10 37 0.297779 0 129 0.297779 1
gene 1 37 20 0.399318 0 130 0.399318 1
gene 1 17 39 0.234395 0 134 0.234395 1
gene 1 39 23 0.139662 0 135 0.139662 1
gene 1 15 43 0.365531 0 150 0.365531 1
gene 1 43 21 -0.23094 0 151 -0.23094 1
gene 1 3 43 -0.452807 0 153 -0.452807 1
gene 1 8 32 -0.57127 0 154 -0.57127 1
gene 1 2 39 0.647921 0 178 0.647921 1
gene 1 6 53 -0.0334046 0 191 -0.0334046 1
gene 1 53 22 -0.00422841 0 192 -0.00422841 1
gene 1 18 68 0.75096 0 243 0.75096 1
gene 1 68 21 0.168054 0 244 0.168054 1
gene 1 18 70 0.404431 0 247 0.404431 1
gene 1 70 20 0.0636627 0 248 0.0636627 1
genomeend 922
genomestart 924
trait 1 0 0.151347 0.302734 0.0694246 0.561468 0 0.194116 0.192583 
node 1 1 1 1 0
node 2 1 1 1 0
node 3 1 1 1 0
node 4 1 1 1 0
node 5 1 1 1 0
node 6 1 1 1 0
node 7 1 1 1 0
node 8 1 1 1 0
node 9 1 1 1 0
node 10 1 1 1 0
node 11 1 1 1 0
node 12 1 1 1 0
node 13 1 1 1 0
node 14 1 1 1 0
node 15 1 1 1 0
node 16 1 1 1 0
node 17 1 1 1 0
node 18 1 1 1 0
node 19 1 1 3 0
node 20 1 0 2 0
node 21 1 0 2 0
node 22 1 0 2 0
node 23 1 0 2 0
node 24 1 0 0 0
node 26 1 0 0 0
node 28 1 0 0 0
node 32 1 0 0 0
node 37 1 0 0 0
node 39 1 0 0 0
node 43 1 0 0 0
node 53 1 0 0 0
node 62 1 0 0 0
gene 1 1 20 -0.641323 0 1 -0.641323 1
gene 1 2 20 -0.319353 0 2 -0.319353 1
gene 1 3 20 1.42174 0 3 1.42174 1
gene 1 4 20 0.164551 0 4 0.164551 1
gene 1 5 20 -0.568994 0 5 -0.568994 1
gene 1 6 20 1.20889 0 6 1.20889 1
gene 1 7 20 0.940806 0 7 0.940806 1
gene 1 8 20 -0.637941 0 8 -0.637941 0
gene 1 9 20 0.170017 0 9 0.170017 1
gene 1 10 20 0.340981 0 10 0.340981 1
gene 1 11 20 0.222217 0 11 0.222217 1
gene 1 12 20 2.41631 0 12 2.41631 1
gene 1 13 20 0.34838 0 13 0.34838 1
gene 1 14 20 -0.267957 0 14 -0.267957 1
gene 1 15 20 -0.3836 0 15 -0.3836 1
gene 1 16 20 1.08885 0 16 1.08885 1
gene 1 17 20 1.58113 0 17 1.58113 1
gene 1 18 20 0.609446 0 18 0.609446 1
gene 1 19 20 1.05147 0 19 1.05147 1
gene 1 1 21 0.340901 0 20 0.340901 1
gene 1 2 21 -0.346772 0 21 -0.346772 1
gene 1 3 21 -0.254018 0 22 -0.254018 1
gene 1 4 21 0.302419 0 23 0.302419 1
gene 1 5 21 -0.444812 0 24 -0.444812 1
gene 1 6 21 0.278134 0 25 0.278134 1
gene 1 7 21 0.588822 0 26 0.588822 1
gene 1 8 21 0.793596 0 27 0.793596 1
gene 1 9 21 -1.48843 0 28 -1.48843 1
gene 1 10 21 -0.859407 0 29 -0.859407 1
gene 1 11 21 0.907917 0 30 0.907917 1
gene 1 12 21 0.819557 0 31 0.819557 1
gene 1 13 21 -1.99488 0 32 -1.99488 0
gene 1 14 21 -2.48723 0 33 -2.48723 1
gene 1 15 21 0.482412 0 34 0.482412 0
gene 1 16 21 -1.67081 0 35 -1.67081 1
gene 1 17 21 -0.828711 0 36 -0.828711 1
gene 1 18 21 -0.373496 0 37 -0.373496 1
gene 1 19 21 -1.245 0 38 -1.245 1
gene 1 1 22 0.444153 0 39 0.444153 1
gene 1 2 22 -0.439438 0 40 -0.439438 1
gene 1 3 22 -0.15978 0 41 -0.15978 1
gene 1 4 22 0.562709 0 42 0.562709 1
gene 1 5 22 1.23617 0 43 1.23617 1
gene 1 6 22 2.31817 0 44 2.31817 1
gene 1 7 22 0.980198 0 45 0.980198 1
gene 1 8 22 -1.26907 0 46 -1.26907 1
gene 1 9 22 -0.65334 0 47 -0.65334 1
gene 1 10 22 -0.1342 0 48 -0.1342 1
gene 1 11 22 -0.00631065 0 49 -0.00631065 1
gene 1 12 22 1.16046 0 50 1.16046 1
gene 1 13 22 -1.69702 0 51 -1.69702 1
gene 1 14 22 -1.06019 0 52 -1.06019 1
gene 1 15 22 0.806061 0 53 0.806061 1
gene 1 16 22 0.324465 0 54 0.324465 1
gene 1 17 22 2.36556 0 55 2.36556 1
gene 1 18 22 0.482245 0 56 0.482245 1
gene 1 19 22 0.739827 0 57 0.739827 1
gene 1 1 23 1.349 0 58 1.349 1
gene 1 2 23 -0.41944 0 59 -0.41944 1
gene 1 3 23 -1.56468 0 60 -1.56468 1
gene 1 4 23 0.0858445 0 61 0.0858445 1
gene 1 5 23 -0.508429 0 62 -0.508429 1
gene 1 6 23 -0.523514 0 63 -0.523514 1
gene 1 7 23 0.0921178 0 64 0.0921178 1
gene 1 8 23 -0.688558 0 65 -0.688558 1
gene 1 9 23 0.117261 0 66 0.117261 1
gene 1 10 23 0.277953 0 67 0.277953 1
gene 1 11 23 -0.0605739 0 68 -0.0605739 1
gene 1 12 23 0.617182 0 69 0.617182 1
gene 1 13 23 -1.08942 0 70 -1.08942 1
gene 1 14 23 -0.340218 0 71 -0.340218 1
gene 1 15 23 -0.180436 0 72 -0.180436 1
gene 1 16 23 0.5762 0 73 0.5762 1
gene 1 17 23 -1.23582 0 74 -1.23582 0
gene 1 18 23 1.67154 0 75 1.67154 1
gene 1 19 23 -0.850071 0 76 -0.850071 1
gene 1 8 24 0.590428 0 77 0.590428 1
gene 1 24 20 0.311544 0 78 0.311544 1
gene 1 15 26 0.260346 0 85 0.260346 1
gene 1 26 20 0.86661 0 86 0.86661 1
gene 1 22 20 1.95853 0 87 1.95853 1
gene 1 2 24 -0.0639492 0 91 -0.0639492 1
gene 1 8 28 -0.230155 0 93 -0.230155 1
gene 1 28 24 -0.0967642 0 94 -0.0967642 1
gene 1 6 24 0.459559 0 96 0.459559 1
gene 1 16 26 0.698183 0 99 0.698183 1
gene 1 13 24 0.799778 0 100 0.799778 1
gene 1 23 24 0.853873 0 113 0.853873 1
gene 1 13 32 0.00963189 0 116 0.00963189 1
gene 1 32 21 -0.239196 0 117 -0.239196 1
gene 1 10 37 0.158836 0 129 0.158836 1
gene 1 37 20 1.32018 0 130 1.32018 1
gene 1 17 39 0.540463 0 134 0.540463 1
gene 1 39 23 -0.443533 0 135 -0.443533 1
gene 1 15 43 -0.342603 0 150 -0.342603 1
gene 1 43 21 -0.102652 0 151 -0.102652 1
gene 1 3 43 -0.290188 0 153 -0.290188 1
gene 1 8 32 0.0200528 0 154 0.0200528 1
gene 1 2 39 0.517143 0 178 0.517143 1
gene 1 6 53 0.210252 0 191 0.210252 1
gene 1 53 22 -0.386166 0 192 -0.386166 1
gene 1 13 62 0.352309 0 225 0.352309 1
gene 1 62 20 0.468019 0 226 0.468019 1
genomeend 924
genomestart 926
trait 1 0 0.170697 0.0163828 0.217538 0.77209 0 0.518002 0.0512177 
node 1 1 1 1 0
node 2 1 1 1 0
node 3 1 1 1 0
node 4 1 1 1 0
node 5 1 1 1 0
node 6 1 1 1 0
node 7 1 1 1 0
node 8 1 1 1 0
node 9 1 1 1 0
node 10 1 1 1 0
node 11 1 1 1 0
node 12 1 1 1 0
node 13 1 1 1 0
node 14 1 1 1 0
node 15 1 1 1 0
node 16 1 1 1 0
node 17 1 1 1 0
node 18 1 1 1 0
node 19 1 1 3 0
node 20 1 0 2 0
node 21 1 0 2 0
node 22 1 0 2 0
node 23 1 0 2 0
node 24 1 0 0 0
node 26 1 0 0 0
node 28 1 0 0 0
node 32 1 0 0 0
node 37 1 0 0 0
node 39 1 0 0 0
node 43 1 0 0 0
node 53 1 0 0 0
node 66 1 0 0 0
node 68 1 0 0 0
gene 1 1 20 -0.730255 0 1 -0.730255 1
gene 1 2 20 0.472754 0 2 0.472754 1
gene 1 3 20 -0.738939 0 3 -0.738939 1
gene 1 4 20 0.594923 0 4 0.594923 1
gene 1 5 20 -0.100886 0 5 -0.100886 1
gene 1 6 20 0.166113 0 6 0.166113 1
gene 1 7 20 -1.35034 0 7 -1.35034 1
gene 1 8 20 0.4222 0 8 0.4222 1
gene 1 9 20 0.22599 0 9 0.22599 1
gene 1 10 20 0.288793 0 10 0.288793 0
gene 1 11 20 -0.825494 0 11 -0.825494 1
gene 1 12 20 2.75406 0 12 2.75406 1
gene 1 13 20 -0.0218136 0 13 -0.0218136 1
gene 1 14 20 -0.62707 0 14 -0.62707 1
gene 1 15 20 0.275561 0 15 0.275561 1
gene 1 16 20 0.494408 0 16 0.494408 1
gene 1 17 20 -0.0418152 0 17 -0.0418152 1
gene 1 18 20 0.606883 0 18 0.606883 1
gene 1 19 20 0.566472 0 19 0.566472 1
gene 1 1 21 -0.580679 0 20 -0.580679 1
gene 1 2 21 -0.290877 0 21 -0.290877 1
gene 1 3 21 -0.241798 0 22 -0.241798 1
gene 1 4 21 0.629264 0 23 0.629264 1
gene 1 5 21 -0.286836 0 24 -0.286836 1
gene 1 6 21 0.171777 0 25 0.171777 1
gene 1 7 21 1.12096 0 26 1.12096 1
gene 1 8 21 0.6943 0 27 0.6943 1
gene 1 9 21 -0.261114 0 28 -0.261114 1
gene 1 10 21 -0.942182 0 29 -0.942182 1
gene 1 11 21 0.617404 0 30 0.617404 1
gene 1 12 21 1.8696 0 31 1.8696 1
gene 1 13 21 -1.568 0 32 -1.568 0
gene 1 14 21 0.57125 0 33 0.57125 1
gene 1 15 21 0.0169954 0 34 0.0169954 1
gene 1 16 21 -0.994436 0 35 -0.994436 1
gene 1 17 21 0.107204 0 36 0.107204 1
gene 1 18 21 -0.0216028 0 37 -0.0216028 1
gene 1 19 21 -0.941958 0 38 -0.941958 1
gene 1 1 22 0.883468 0 39 0.883468 1
gene 1 2 22 0.430732 0 40 0.430732 1
gene 1 3 22 0.743838 0 41 0.743838 1
gene 1 4 22 -0.605807 0 42 -0.605807 1
gene 1 5 22 0.76377 0 43 0.76377 1
gene 1 6 22 -0.377101 0 44 -0.377101 1
gene 1 7 22 0.607619 0 45 0.607619 1
gene 1 8 22 1.42785 0 46 1.42785 0
gene 1 9 22 0.172886 0 47 0.172886 1
gene 1 10 22 0.747886 0 48 0.747886 1
gene 1 11 22 -0.172577 0 49 -0.172577 1
gene 1 12 22 0.219591 0 50 0.219591 1
gene 1 13 22 -0.618882 0 51 -0.618882 1
gene 1 14 22 -0.287647 0 52 -0.287647 1
gene 1 15 22 0.859028 0 53 0.859028 1
gene 1 16 22 -0.520251 0 54 -0.520251 1
gene 1 17 22 0.864925 0 55 0.864925 1
gene 1 18 22 0.577658 0 56 0.577658 1
gene 1 19 22 0.798769 0 57 0.798769 1
gene 1 1 23 0.38145 0 58 0.38145 1
gene 1 2 23 -0.89734 0 59 -0.89734 1
gene 1 3 23 -0.704809 0 60 -0.704809 1
gene 1 4 23 -0.98043 0 61 -0.98043 1
gene 1 5 23 -0.478331 0 62 -0.478331 1
gene 1 6 23 1.16165 0 63 1.16165 1
gene 1 7 23 0.316771 0 64 0.316771 1
gene 1 8 23 -0.208314 0 65 -0.208314 1
gene 1 9 23 0.26882 0 66 0.26882 1
gene 1 10 23 0.76834 0 67 0.76834 1
gene 1 11 23 -1.14341 0 68 -1.14341 1
gene 1 12 23 1.12689 0 69 1.12689 1
gene 1 13 23 -0.495761 0 70 -0.495761 1
gene 1 14 23 -0.141889 0 71 -0.141889 1
gene 1 15 23 -0.70021 0 72 -0.70021 1
gene 1 16 23 0.180332 0 73 0.180332 1
gene 1 17 23 -1.6579 0 74 -1.6579 1
gene 1 18 23 0.0932991 0 75 0.0932991 1
gene 1 19 23 -0.686093 0 76 -0.686093 1
gene 1 8 24 -0.732928 0 77 -0.732928 1
gene 1 24 20 0.804117 0 78 0.804117 1
gene 1 15 26 0.833966 0 85 0.833966 1
gene 1 26 20 0.947581 0 86 0.947581 1
gene 1 22 20 2.53595 0 87 2.53595 1
gene 1 2 24 -0.458814 0 91 -0.458814 1
gene 1 8 28 0.206369 0 93 0.206369 1
gene 1 28 24 -1.07804 0 94 -1.07804 1
gene 1 6 24 0.182473 0 96 0.182473 1
gene 1 16 26 0.434886 0 99 0.434886 1
gene 1 13 24 0.0607284 0 100 0.0607284 1
gene 1 23 24 0.306547 0 113 0.306547 1
gene 1 13 32 -0.710983 0 116 -0.710983 1
gene 1 32 21 0.159042 0 117 0.159042 1
gene 1 10 37 0.151232 0 129 0.151232 1
gene 1 37 20 0.905715 0 130 0.905715 1
gene 1 17 39 0.0801735 0 134 0.0801735 1
gene 1 39 23 -0.911704 0 135 -0.911704 1
gene 1 15 43 -0.256624 0 150 -0.256624 1
gene 1 43 21 -0.966711 0 151 -0.966711 1
gene 1 3 43 -0.0995638 0 153 -0.0995638 1
gene 1 8 32 -0.0893473 0 154 -0.0893473 1
gene 1 2 39 -0.227727 0 178 -0.227727 1
gene 1 6 53 -0.083151 0 191 -0.083151 1
gene 1 53 22 1.04005 0 192 1.04005 1
gene 1 8 66 0.439318 0 237 0.439318 1
gene 1 66 22 0.0125296 0 238 0.0125296 1
gene 1 18 68 -0.179683 0 243 -0.179683 1
gene 1 68 21 -0.581679 0 244 -0.581679 1
genomeend 926
genomestart 927
trait 1 0 0.146221 0.28125 0.0644977 0.561468 0 0.18034 0.191759 
node 1 1 1 1 0
node 2 1 1 1 0
node 3 1 1 1 0
node 4 1 1 1 0
node 5 1 1 1 0
node 6 1 1 1 0
node 7 1 1 1 0
node 8 1 1 1 0
node 9 1 1 1 0
node 10 1 1 1 0
node 11 1 1 1 0
node 12 1 1 1 0
node 13 1 1 1 0
node 14 1 1 1 0
node 15 1 1 1 0
node 16 1 1 1 0
node 17 1 1 1 0
node 18 1 1 1 0
node 19 1 1 3 0
node 20 1 0 2 0
node 21 1 0 2 0
node 22 1 0 2 0
node 23 1 0 2 0
node 24 1 0 0 0
node 26 1 0 0 0
node 28 1 0 0 0
node 32 1 0 0 0
node 37 1 0 0 0
node 39 1 0 0 0
node 43 1 0 0 0
node 53 1 0 0 0
node 62 1 0 0 0
gene 1 1 20 -0.183378 0 1 -0.183378 1
gene 1 2 20 -0.669371 0 2 -0.669371 1
gene 1 3 20 -0.822384 0 3 -0.822384 1
gene 1 4 20 0.0890136 0 4 0.0890136 1
gene 1 5 20 0.265552 0 5 0.265552 1
gene 1 6 20 -0.360172 0 6 -0.360172 1
gene 1 7 20 0.609311 0 7 0.609311 1
gene 1 8 20 0.334053 0 8 0.334053 0
gene 1 9 20 0.484176 0 9 0.484176 1
gene 1 10 20 -0.0536134 0 10 -0.0536134 1
gene 1 11 20 0.170917 0 11 0.170917 1
gene 1 12 20 -0.00424127 0 12 -0.00424127 1
gene 1 13 20 0.117325 0 13 0.117325 1
gene 1 14 20 0.10669 0 14 0.10669 1
gene 1 15 20 -0.0543014 0 15 -0.0543014 1
gene 1 16 20 0.0307534 0 16 0.0307534 1
gene 1 17 20 0.499916 0 17 0.499916 1
gene 1 18 20 -0.103526 0 18 -0.103526 1
gene 1 19 20 0.408029 0 19 0.408029 1
gene 1 1 21 -0.603781 0 20 -0.603781 1
gene 1 2 21 0.622985 0 21 0.622985 1
gene 1 3 21 -0.0733664 0 22 -0.0733664 1
gene 1 4 21 0.639211 0 23 0.639211 1
gene 1 5 21 -0.0642368 0 24 -0.0642368 1
gene 1 6 21 0.456262 0 25 0.456262 1
gene 1 7 21 -0.520336 0 26 -0.520336 1
gene 1 8 21 0.0658968 0 27 0.0658968 1
gene 1 9 21 -0.15931 0 28 -0.15931 1
gene 1 10 21 -0.135086 0 29 -0.135086 1
gene 1 11 21 -0.0995495 0 30 -0.0995495 1
gene 1 12 21 0.371293 0 31 0.371293 1
gene 1 13 21 -0.965176 0 32 -0.965176 1
gene 1 14 21 -0.195519 0 33 -0.195519 1
gene 1 15 21 -0.324388 0 34 -0.324388 0
gene 1 16 21 -0.304027 0 35 -0.304027 1
gene 1 17 21 0.321257 0 36 0.321257 1
gene 1 18 21 0.138166 0 37 0.138166 1
gene 1 19 21 0.919804 0 38 0.919804 1
gene 1 1 22 1.04726 0 39 1.04726 1
gene 1 2 22 0.455379 0 40 0.455379 1
gene 1 3 22 0.104489 0 41 0.104489 1
gene 1 4 22 -0.221208 0 42 -0.221208 1
gene 1 5 22 0.124526 0 43 0.124526 1
gene 1 6 22 -0.152472 0 44 -0.152472 0
gene 1 7 22 0.185011 0 45 0.185011 1
gene 1 8 22 -0.477659 0 46 -0.477659 1
gene 1 9 22 0.445981 0 47 0.445981 1
gene 1 10 22 0.47114 0 48 0.47114 1
gene 1 11 22 0.0308647 0 49 0.0308647 1
gene 1 12 22 -0.357549 0 50 -0.357549 1
gene 1 13 22 -0.37069 0 51 -0.37069 1
gene 1 14 22 0.256772 0 52 0.256772 1
gene 1 15 22 -0.724224 0 53 -0.724224 1
gene 1 16 22 -0.571342 0 54 -0.571342 1
gene 1 17 22 2.02312 0 55 2.02312 1
gene 1 18 22 0.14894 0 56 0.14894 1
gene 1 19 22 1.35844 0 57 1.35844 1
gene 1 1 23 0.233008 0 58 0.233008 1
gene 1 2 23 0.246662 0 59 0.246662 1
gene 1 3 23 -1.40167 0 60 -1.40167 1
gene 1 4 23 0.426943 0 61 0.426943 1
gene 1 5 23 -0.166901 0 62 -0.166901 1
gene 1 6 23 -0.0626394 0 63 -0.0626394 1
gene 1 7 23 0.695048 0 64 0.695048 1
gene 1 8 23 0.219002 0 65 0.219002 1
gene 1 9 23 -0.0243486 0 66 -0.0243486 1
gene 1 10 23 0.321167 0 67 0.321167 1
gene 1 11 23 0.218796 0 68 0.218796 1
gene 1 12 23 1.45143 0 69 1.45143 1
gene 1 13 23 -1.83761 0 70 -1.83761 1
gene 1 14 23 0.159166 0 71 0.159166 1
gene 1 15 23 0.148691 0 72 0.148691 1
gene 1 16 23 -1.66818 0 73 -1.66818 1
gene 1 17 23 -0.398645 0 74 -0.398645 0
gene 1 18 23 -0.283484 0 75 -0.283484 1
gene 1 19 23 0.0583647 0 76 0.0583647 1
gene 1 8 24 0.0302941 0 77 0.0302941 1
gene 1 24 20 1.81633 0 78 1.81633 1
gene 1 15 26 0.494937 0 85 0.494937 1
gene 1 26 20 0.00398631 0 86 0.00398631 1
gene 1 22 20 2.25358 0 87 2.25358 1
gene 1 2 24 0.15924 0 91 0.15924 1
gene 1 8 28 0.597218 0 93 0.597218 1
gene 1 28 24 -0.158051 0 94 -0.158051 1
gene 1 6 24 0.320566 0 96 0.320566 1
gene 1 16 26 0.606196 0 99 0.606196 1
gene 1 13 24 0.301136 0 100 0.301136 1
gene 1 23 24 -0.217675 0 113 -0.217675 1
gene 1 13 32 -0.370999 0 116 -0.370999 1
gene 1 32 21 0.273786 0 117 0.273786 1
gene 1 10 37 -0.520792 0 129 -0.520792 1
gene 1 37 20 0.491187 0 130 0.491187 1
gene 1 17 39 0.363695 0 134 0.363695 1
gene 1 39 23 -0.184934 0 135 -0.184934 1
gene 1 15 43 0.0726493 0 150 0.0726493 1
gene 1 43 21 -0.397319 0 151 -0.397319 1
gene 1 3 43 0.805753 0 153 0.805753 1
gene 1 8 32 -0.0365494 0 154 -0.0365494 1
gene 1 2 39 0.106427 0 178 0.106427 1
gene 1 6 53 -1.09779 0 191 -1.09779 1
gene 1 53 22 -0.823048 0 192 -0.823048 1
gene 1 13 62 1.12184 0 225 1.12184 1
gene 1 62 20 -0.0249188 0 226 -0.0249188 1
genomeend 927
genomestart 929
trait 1 0 0.107271 0.0132908 0 0.77209 0 0.429468 0.424455 
node 1 1 1 1 0
node 2 1 1 1 0
node 3 1 1 1 0
node 4 1 1 1 0
node 5 1 1 1 0
node 6 1 1 1 0
node 7 1 1 1 0
node 8 1 1 1 0
node 9 1 1 1 0
node 10 1 1 1 0
node 11 1 1 1 0
node 12 1 1 1 0
node 13 1 1 1 0
node 14 1 1 1 0
node 15 1 1 1 0
node 16 1 1 1 0
node 17 1 1 1 0
node 18 1 1 1 0
node 19 1 1 3 0
node 20 1 0 2 0
node 21 1 0 2 0
node 22 1 0 2 0
node 23 1 0 2 0
node 24 1 0 0 0
node 26 1 0 0 0
node 28 1 0 0 0
node 32 1 0 0 0
node 37 1 0 0 0
node 39 1 0 0 0
node 43 1 0 0 0
node 53 1 0 0 0
node 66 1 0 0 0
node 68 1 0 0 0
gene 1 1 20 -0.481906 0 1 -0.481906 1
gene 1 2 20 0.112547 0 2 0.112547 1
gene 1 3 20 0.086957 0 3 0.086957 1
gene 1 4 20 0.977305 0 4 0.977305 1
gene 1 5 20 0.887543 0 5 0.887543 1
gene 1 6 20 -0.0359285 0 6 -0.0359285 1
gene 1 7 20 -1.96501 0 7 -1.96501 1
gene 1 8 20 0.0527932 0 8 0.0527932 1
gene 1 9 20 0.341101 0 9 0.341101 1
gene 1 10 20 -0.039611 0 10 -0.039611 0
gene 1 11 20 -0.0221535 0 11 -0.0221535 1
gene 1 12 20 2.53648 0 12 2.53648 1
gene 1 13 20 0.343491 0 13 0.343491 1
gene 1 14 20 -0.466681 0 14 -0.466681 1
gene 1 15 20 -0.497878 0 15 -0.497878 1
gene 1 16 20 0.660742 0 16 0.660742 1
gene 1 17 20 -0.0567829 0 17 -0.0567829 1
gene 1 18 20 0.850176 0 18 0.850176 1
gene 1 19 20 0.396544 0 19 0.396544 1
gene 1 1 21 -0.777464 0 20 -0.777464 1
gene 1 2 21 -0.135144 0 21 -0.135144 1
gene 1 3 21 -0.458652 0 22 -0.458652 1
gene 1 4 21 0.232486 0 23 0.232486 1
gene 1 5 21 -0.126582 0 24 -0.126582 1
gene 1 6 21 -0.590195 0 25 -0.590195 1
gene 1 7 21 1.23364 0 26 1.23364 1
gene 1 8 21 0.639821 0 27 0.639821 1
gene 1 9 21 -1.43804 0 28 -1.43804 1
gene 1 10 21 -2.28356 0 29 -2.28356 1
gene 1 11 21 0.89114 0 30 0.89114 1
gene 1 12 21 1.14754 0 31 1.14754 1
gene 1 13 21 -1.19307 0 32 -1.19307 0
gene 1 14 21 0.133675 0 33 0.133675 1
gene 1 15 21 -0.203386 0 34 -0.203386 1
gene 1 16 21 -0.491476 0 35 -0.491476 1
gene 1 17 21 0.60962 0 36 0.60962 1
gene 1 18 21 0.261014 0 37 0.261014 1
gene 1 19 21 -1.25813 0 38 -1.25813 1
gene 1 1 22 0.408377 0 39 0.408377 1
gene 1 2 22 0.326136 0 40 0.326136 1
gene 1 3 22 0.470835 0 41 0.470835 1
gene 1 4 22 -0.613683 0 42 -0.613683 1
gene 1 5 22 0.91995 0 43 0.91995 1
gene 1 6 22 -0.293928 0 44 -0.293928 1
gene 1 7 22 0.599726 0 45 0.599726 1
gene 1 8 22 0.842776 0 46 0.842776 0
gene 1 9 22 -0.351606 0 47 -0.351606 1
gene 1 10 22 0.23582 0 48 0.23582 1
gene 1 11 22 0.224499 0 49 0.224499 1
gene 1 12 22 0.139412 0 50 0.139412 1
gene 1 13 22 -0.123596 0 51 -0.123596 1
gene 1 14 22 -0.602921 0 52 -0.602921 1
gene 1 15 22 0.141635 0 53 0.141635 1
gene 1 16 22 -0.0595775 0 54 -0.0595775 1
gene 1 17 22 0.437071 0 55 0.437071 1
gene 1 18 22 0.00999901 0 56 0.00999901 1
gene 1 19 22 1.00462 0 57 1.00462 1
gene 1 1 23 -0.0837309 0 58 -0.0837309 1
gene 1 2 23 -1.34155 0 59 -1.34155 1
gene 1 3 23 -0.704643 0 60 -0.704643 1
gene 1 4 23 -0.403221 0 61 -0.403221 1
gene 1 5 23 -0.638452 0 62 -0.638452 1
gene 1 6 23 0.957183 0 63 0.957183 1
gene 1 7 23 -0.107863 0 64 -0.107863 1
gene 1 8 23 -0.261707 0 65 -0.261707 1
gene 1 9 23 -0.51852 0 66 -0.51852 1
gene 1 10 23 0.748167 0 67 0.748167 1
gene 1 11 23 -0.803984 0 68 -0.803984 1
gene 1 12 23 0.817237 0 69 0.817237 1
gene 1 13 23 -0.941144 0 70 -0.941144 1
gene 1 14 23 0.735761 0 71 0.735761 1
gene 1 15 23 -0.480937 0 72 -0.480937 1
gene 1 16 23 -0.120196 0 73 -0.120196 1
gene 1 17 23 -1.80228 0 74 -1.80228 0
gene 1 18 23 0.0276456 0 75 0.0276456 1
gene 1 19 23 0.649823 0 76 0.649823 1
gene 1 8 24 -0.813263 0 77 -0.813263 1
gene 1 24 20 0.86143 0 78 0.86143 1
gene 1 15 26 0.918655 0 85 0.918655 1
gene 1 26 20 0.744178 0 86 0.744178 1
gene 1 22 20 2.63432 0 87 2.63432 1
gene 1 2 24 -0.248759 0 91 -0.248759 1
gene 1 8 28 0.710131 0 93 0.710131 1
gene 1 28 24 -0.231575 0 94 -0.231575 1
gene 1 6 24 0.309012 0 96 0.309012 1
gene 1 16 26 -0.500743 0 99 -0.500743 1
gene 1 13 24 0.0539133 0 100 0.0539133 1
gene 1 23 24 0.48831 0 113 0.48831 1
gene 1 13 32 -0.768237 0 116 -0.768237 1
gene 1 32 21 -1.53894 0 117 -1.53894 1
gene 1 10 37 -0.150627 0 129 -0.150627 1
gene 1 37 20 1.1443 0 130 1.1443 1
gene 1 17 39 -0.44211 0 134 -0.44211 1
gene 1 39 23 -0.923227 0 135 -0.923227 1
gene 1 15 43 -0.225321 0 150 -0.225321 1
gene 1 43 21 -1.3091 0 151 -1.3091 1
gene 1 3 43 0.0445428 0 153 0.0445428 1
gene 1 8 32 0.0784148 0 154 0.0784148 1
gene 1 2 39 -0.286768 0 178 -0.286768 1
gene 1 6 53 -0.884757 0 191 -0.884757 1
gene 1 53 22 0.989046 0 192 0.989046 1
gene 1 8 66 1.03326 0 237 1.03326 1
gene 1 66 22 -0.327214 0 238 -0.327214 1
gene 1 18 68 0.484478 0 243 0.484478 1
gene 1 68 21 -0.0798939 0 244 -0.0798939 1
genomeend 929
genomestart 930
trait 1 0 0.0791226 0 0 0.561468 0 0 0.180984 
node 1 1 1 1 0
node 2 1 1 1 0
node 3 1 1 1 0
node 4 1 1 1 0
node 5 1 1 1 0
node 6 1 1 1 0
node 7 1 1 1 0
node 8 1 1 1 0
node 9 1 1 1 0
node 10 1 1 1 0
node 11 1 1 1 0
node 12 1 1 1 0
node 13 1 1 1 0
node 14 1 1 1 0
node 15 1 1 1 0
node 16 1 1 1 0
node 17 1 1 1 0
node 18 1 1 1 0
node 19 1 1 3 0
node 20 1 0 2 0
node 21 1 0 2 0
node 22 1 0 2 0
node 23 1 0 2 0
node 24 1 0 0 0
node 26 1 0 0 0
node 28 1 0 0 0
node 32 1 0 0 0
node 37 1 0 0 0
node 39 1 0 0 0
node 43 1 0 0 0
node 53 1 0 0 0
node 68 1 0 0 0
node 70 1 0 0 0
gene 1 1 20 0.77656 0 1 0.77656 1
gene 1 2 20 -1.26702 0 2 -1.26702 1
gene 1 3 20 1.3288 0 3 1.3288 1
gene 1 4 20 -0.206774 0 4 -0.206774 1
gene 1 5 20 0.0433972 0 5 0.0433972 1
gene 1 6 20 0.96525 0 6 0.96525 1
gene 1 7 20 0.92382 0 7 0.92382 1
gene 1 8 20 0.381487 0 8 0.381487 1
gene 1 9 20 0.969838 0 9 0.969838 1
gene 1 10 20 1.7608 0 10 1.7608 1
gene 1 11 20 0.743239 0 11 0.743239 1
gene 1 12 20 3 0 12 3 1
gene 1 13 20 1.23885 0 13 1.23885 1
gene 1 14 20 -0.276129 0 14 -0.276129 1
gene 1 15 20 -0.112153 0 15 -0.112153 1
gene 1 16 20 0.0267744 0 16 0.0267744 1
gene 1 17 20 0.967404 0 17 0.967404 1
gene 1 18 20 0.849001 0 18 0.849001 0
gene 1 19 20 0.0698945 0 19 0.0698945 1
gene 1 1 21 -0.207208 0 20 -0.207208 1
gene 1 2 21 0.603332 0 21 0.603332 1
gene 1 3 21 -0.658396 0 22 -0.658396 1
gene 1 4 21 -0.163836 0 23 -0.163836 1
gene 1 5 21 0.155171 0 24 0.155171 1
gene 1 6 21 -1.02417 0 25 -1.02417 1
gene 1 7 21 -0.233154 0 26 -0.233154 1
gene 1 8 21 -0.589336 0 27 -0.589336 1
gene 1 9 21 -1.21256 0 28 -1.21256 1
gene 1 10 21 -1.30737 0 29 -1.30737 1
gene 1 11 21 1.39994 0 30 1.39994 1
gene 1 12 21 0.867728 0 31 0.867728 1
gene 1 13 21 -1.54968 0 32 -1.54968 0
gene 1 14 21 -2.10411 0 33 -2.10411 1
gene 1 15 21 1.45883 0 34 1.45883 0
gene 1 16 21 -0.275667 0 35 -0.275667 1
gene 1 17 21 -0.741739 0 36 -0.741739 1
gene 1 18 21 0.361417 0 37 0.361417 0
gene 1 19 21 -0.650651 0 38 -0.650651 1
gene 1 1 22 0.392556 0 39 0.392556 1
gene 1 2 22 -0.960355 0 40 -0.960355 1
gene 1 3 22 2.07396 0 41 2.07396 1
gene 1 4 22 0.913193 0 42 0.913193 1
gene 1 5 22 0.660686 0 43 0.660686 1
gene 1 6 22 1.30901 0 44 1.30901 1
gene 1 7 22 0.50345 0 45 0.50345 1
gene 1 8 22 -0.594657 0 46 -0.594657 1
gene 1 9 22 1.08684 0 47 1.08684 1
gene 1 10 22 0.390812 0 48 0.390812 1
gene 1 11 22 1.2737 0 49 1.2737 1
gene 1 12 22 0.746851 0 50 0.746851 1
gene 1 13 22 0.265535 0 51 0.265535 1
gene 1 14 22 -0.160844 0 52 -0.160844 1
gene 1 15 22 1.11875 0 53 1.11875 1
gene 1 16 22 0.617235 0 54 0.617235 1
gene 1 17 22 0.88108 0 55 0.88108 1
gene 1 18 22 0.678976 0 56 0.678976 1
gene 1 19 22 0.322561 0 57 0.322561 1
gene 1 1 23 0.394245 0 58 0.394245 1
gene 1 2 23 -1.15334 0 59 -1.15334 1
gene 1 3 23 -2.63037 0 60 -2.63037 1
gene 1 4 23 -0.802275 0 61 -0.802275 1
gene 1 5 23 1.00608 0 62 1.00608 1
gene 1 6 23 0.583504 0 63 0.583504 1
gene 1 7 23 -0.385085 0 64 -0.385085 1
gene 1 8 23 0.100293 0 65 0.100293 1
gene 1 9 23 -0.753112 0 66 -0.753112 1
gene 1 10 23 0.290998 0 67 0.290998 1
gene 1 11 23 0.190502 0 68 0.190502 1
gene 1 12 23 0.778501 0 69 0.778501 1
gene 1 13 23 -0.185487 0 70 -0.185487 1
gene 1 14 23 -1.0483 0 71 -1.0483 1
gene 1 15 23 0.609987 0 72 0.609987 1
gene 1 16 23 -0.983788 0 73 -0.983788 1
gene 1 17 23 -1.99475 0 74 -1.99475 1
gene 1 18 23 1.82943 0 75 1.82943 1
gene 1 19 23 -0.0954937 0 76 -0.0954937 1
gene 1 8 24 0.076064 0 77 0.076064 1
gene 1 24 20 0.757974 0 78 0.757974 1
gene 1 15 26 2.09927 0 85 2.09927 1
gene 1 26 20 -0.431657 0 86 -0.431657 1
gene 1 22 20 3 0 87 3 1
gene 1 2 24 -0.675481 0 91 -0.675481 1
gene 1 8 28 0.461639 0 93 0.461639 1
gene 1 28 24 -1.48763 0 94 -1.48763 1
gene 1 6 24 0.121033 0 96 0.121033 1
gene 1 16 26 -0.144337 0 99 -0.144337 1
gene 1 13 24 0.108643 0 100 0.108643 1
gene 1 23 24 0.458325 0 113 0.458325 1
gene 1 13 32 -0.330306 0 116 -0.330306 1
gene 1 32 21 -0.837401 0 117 -0.837401 1
gene 1 10 37 0.385014 0 129 0.385014 1
gene 1 37 20 1.03929 0 130 1.03929 1
gene 1 17 39 -0.45302 0 134 -0.45302 1
gene 1 39 23 0.141799 0 135 0.141799 1
gene 1 15 43 0.365531 0 150 0.365531 1
gene 1 43 21 -0.28407 0 151 -0.28407 1
gene 1 3 43 -0.178723 0 153 -0.178723 1
gene 1 8 32 -0.691874 0 154 -0.691874 1
gene 1 2 39 0.593361 0 178 0.593361 1
gene 1 6 53 1.3302 0 191 1.3302 1
gene 1 53 22 -0.383049 0 192 -0.383049 1
gene 1 18 68 0.75096 0 243 0.75096 1
gene 1 68 21 0.408761 0 244 0.408761 1
gene 1 18 70 -0.112221 0 247 -0.112221 1
gene 1 70 20 0.270352 0 248 0.270352 1
genomeend 930
genomestart 932
trait 1 0 0.0791226 0 0 0.561468 0 0 0.180984 
node 1 1 1 1 0
node 2 1 1 1 0
node 3 1 1 1 0
node 4 1 1 1 0
node 5 1 1 1 0
node 6 1 1 1 0
node 7 1 1 1 0
node 8 1 1 1 0
node 9 1 1 1 0
node 10 1 1 1 0
node 11 1 1 1 0
node 12 1 1 1 0
node 13 1 1 1 0
node 14 1 1 1 0
node 15 1 1 1 0
node 16 1 1 1 0
node 17 1 1 1 0
node 18 1 1 1 0
node 19 1 1 3 0
node 20 1 0 2 0
node 21 1 0 2 0
node 22 1 0 2 0
node 23 1 0 2 0
node 24 1 0 0 0
node 26 1 0 0 0
node 28 1 0 0 0
node 32 1 0 0 0
node 37 1 0 0 0
node 39 1 0 0 0
node 43 1 0 0 0
node 53 1 0 0 0
node 68 1 0 0 0
node 70 1 0 0 0
gene 1 1 20 0.77656 0 1 0.77656 1
gene 1 2 20 -1.26702 0 2 -1.26702 1
gene 1 3 20 1.3288 0 3 1.3288 1
gene 1 4 20 -0.206774 0 4 -0.206774 1
gene 1 5 20 0.0433972 0 5 0.0433972 1
gene 1 6 20 0.96525 0 6 0.96525 1
gene 1 7 20 0.92382 0 7 0.92382 1
gene 1 8 20 0.381487 0 8 0.381487 1
gene 1 9 20 0.969838 0 9 0.969838 1
gene 1 10 20 1.7608 0 10 1.7608 1
gene 1 11 20 0.743239 0 11 0.743239 1
gene 1 12 20 3 0 12 3 1
gene 1 13 20 1.23885 0 13 1.23885 1
gene 1 14 20 -0.276129 0 14 -0.276129 1
gene 1 15 20 -0.112153 0 15 -0.112153 1
gene 1 16 20 0.0267744 0 16 0.0267744 1
gene 1 17 20 0.967404 0 17 0.967404 1
gene 1 18 20 0.849001 0 18 0.849001 0
gene 1 19 20 0.0698945 0 19 0.0698945 1
gene 1 1 21 -0.207208 0 20 -0.207208 1
gene 1 2 21 0.603332 0 21 0.603332 1
gene 1 3 21 -0.658396 0 22 -0.658396 1
gene 1 4 21 -0.163836 0 23 -0.163836 1
gene 1 5 21 0.155171 0 24 0.155171 1
gene 1 6 21 -1.02417 0 25 -1.02417 1
gene 1 7 21 -0.233154 0 26 -0.233154 1
gene 1 8 21 -0.589336 0 27 -0.589336 1
gene 1 9 21 -1.21256 0 28 -1.21256 1
gene 1 10 21 -1.30737 0 29 -1.30737 1
gene 1 11 21 1.39994 0 30 1.39994 1
gene 1 12 21 0.867728 0 31 0.867728 1
gene 1 13 21 -1.54968 0 32 -1.54968 0
gene 1 14 21 -2.10411 0 33 -2.10411 1
gene 1 15 21 1.45883 0 34 1.45883 0
gene 1 16 21 -0.275667 0 35 -0.275667 1
gene 1 17 21 -0.741739 0 36 -0.741739 1
gene 1 18 21 0.361417 0 37 0.361417 0
gene 1 19 21 -0.650651 0 38 -0.650651 1
gene 1 1 22 0.392556 0 39 0.392556 1
gene 1 2 22 -0.960355 0 40 -0.960355 1
gene 1 3 22 2.07396 0 41 2.07396 1
gene 1 4 22 0.913193 0 42 0.913193 1
gene 1 5 22 0.660686 0 43 0.660686 1
gene 1 6 22 1.30901 0 44 1.30901 1
gene 1 7 22 0.50345 0 45 0.50345 1
gene 1 8 22 -0.594657 0 46 -0.594657 1
gene 1 9 22 1.08684 0 47 1.08684 1
gene 1 10 22 0.390812 0 48 0.390812 1
gene 1 11 22 1.2737 0 49 1.2737 1
gene 1 12 22 0.746851 0 50 0.746851 1
gene 1 13 22 0.265535 0 51 0.265535 1
gene 1 14 22 -0.160844 0 52 -0.160844 1
gene 1 15 22 1.11875 0 53 1.11875 1
gene 1 16 22 0.617235 0 54 0.617235 1
gene 1 17 22 0.88108 0 55 0.88108 1
gene 1 18 22 0.678976 0 56 0.678976 1
gene 1 19 22 0.322561 0 57 0.322561 1
gene 1 1 23 0.394245 0 58 0.394245 1
gene 1 2 23 -1.15334 0 59 -1.15334 1
gene 1 3 23 -2.63037 0 60 -2.63037 1
gene 1 4 23 -0.802275 0 61 -0.802275 1
gene 1 5 23 1.00608 0 62 1.00608 1
gene 1 6 23 0.583504 0 63 0.583504 1
gene 1 7 23 -0.385085 0 64 -0.385085 1
gene 1 8 23 0.100293 0 65 0.100293 1
gene 1 9 23 -0.753112 0 66 -0.753112 1
gene 1 10 23 0.290998 0 67 0.290998 1
gene 1 11 23 0.190502 0 68 0.190502 1
gene 1 12 23 0.778501 0 69 0.778501 1
gene 1 13 23 -0.185487 0 70 -0.185487 1
gene 1 14 23 -1.0483 0 71 -1.0483 1
gene 1 15 23 0.609987 0 72 0.609987 1
gene 1 16 23 -0.983788 0 73 -0.983788 1
gene 1 17 23 -1.99475 0 74 -1.99475 1
gene 1 18 23 1.82943 0 75 1.82943 1
gene 1 19 23 -0.0954937 0 76 -0.0954937 1
gene 1 8 24 0.076064 0 77 0.076064 1
gene 1 24 20 0.757974 0 78 0.757974 1
gene 1 15 26 2.09927 0 85 2.09927 1
gene 1 26 20 -0.431657 0 86 -0.431657 1
gene 1 22 20 3 0 87 3 1
gene 1 2 24 -0.675481 0 91 -0.675481 1
gene 1 8 28 0.461639 0 93 0.461639 1
gene 1 28 24 -1.48763 0 94 -1.48763 1
gene 1 6 24 0.121033 0 96 0.121033 1
gene 1 16 26 -0.144337 0 99 -0.144337 1
gene 1 13 24 0.108643 0 100 0.108643 1
gene 1 23 24 0.458325 0 113 0.458325 1
gene 1 13 32 -0.330306 0 116 -0.330306 1
gene 1 32 21 -0.837401 0 117 -0.837401 1
gene 1 10 37 0.385014 0 129 0.385014 1
gene 1 37 20 1.03929 0 130 1.03929 1
gene 1 17 39 -0.45302 0 134 -0.45302 1
gene 1 39 23 0.141799 0 135 0.141799 1
gene 1 15 43 0.365531 0 150 0.365531 1
gene 1 43 21 -0.28407 0 151 -0.28407 1
gene 1 3 43 -0.178723 0 153 -0.178723 1
gene 1 8 32 -0.691874 0 154 -0.691874 1
gene 1 2 39 0.593361 0 178 0.593361 1
gene 1 6 53 1.3302 0 191 1.3302 1
gene 1 53 22 -0.383049 0 192 -0.383049 1
gene 1 18 68 0.75096 0 243 0.75096 1
gene 1 68 21 0.408761 0 244 0.408761 1
gene 1 18 70 -0.112221 0 247 -0.112221 1
gene 1 70 20 0.270352 0 248 0.270352 1
genomeend 932
genomestart 934
trait 1 0 0.214542 0.626245 0.519469 1 0 0.429468 0.314457 
node 1 1 1 1 0
node 2 1 1 1 0
node 3 1 1 1 0
node 4 1 1 1 0
node 5 1 1 1 0
node 6 1 1 1 0
node 7 1 1 1 0
node 8 1 1 1 0
node 9 1 1 1 0
node 10 1 1 1 0
node 11 1 1 1 0
node 12 1 1 1 0
node 13 1 1 1 0
node 14 1 1 1 0
node 15 1 1 1 0
node 16 1 1 1 0
node 17 1 1 1 0
node 18 1 1 1 0
node 19 1 1 3 0
node 20 1 0 2 0
node 21 1 0 2 0
node 22 1 0 2 0
node 23 1 0 2 0
node 24 1 0 0 0
node 26 1 0 0 0
node 28 1 0 0 0
node 32 1 0 0 0
node 37 1 0 0 0
node 39 1 0 0 0
node 43 1 0 0 0
node 53 1 0 0 0
node 61 1 0 0 0
node 66 1 0 0 0
gene 1 1 20 -0.0725861 0 1 -0.0725861 1
gene 1 2 20 0.0295122 0 2 0.0295122 1
gene 1 3 20 0.4088 0 3 0.4088 1
gene 1 4 20 1.41818 0 4 1.41818 1
gene 1 5 20 0.162193 0 5 0.162193 1
gene 1 6 20 0.136049 0 6 0.136049 1
gene 1 7 20 -1.06774 0 7 -1.06774 1
gene 1 8 20 -0.281565 0 8 -0.281565 1
gene 1 9 20 -0.137444 0 9 -0.137444 1
gene 1 10 20 -0.200989 0 10 -0.200989 1
gene 1 11 20 -0.55264 0 11 -0.55264 1
gene 1 12 20 3 0 12 3 1
gene 1 13 20 -0.0980872 0 13 -0.0980872 1
gene 1 14 20 0.527484 0 14 0.527484 1
gene 1 15 20 0.470038 0 15 0.470038 1
gene 1 16 20 0.738816 0 16 0.738816 1
gene 1 17 20 1.08705 0 17 1.08705 1
gene 1 18 20 -0.379639 0 18 -0.379639 1
gene 1 19 20 -0.602759 0 19 -0.602759 1
gene 1 1 21 0.597967 0 20 0.597967 1
gene 1 2 21 1.57041 0 21 1.57041 1
gene 1 3 21 -0.312712 0 22 -0.312712 1
gene 1 4 21 -0.123236 0 23 -0.123236 1
gene 1 5 21 -0.158062 0 24 -0.158062 1
gene 1 6 21 0.0207792 0 25 0.0207792 1
gene 1 7 21 0.512109 0 26 0.512109 1
gene 1 8 21 -0.177312 0 27 -0.177312 1
gene 1 9 21 -1.29374 0 28 -1.29374 1
gene 1 10 21 0.247152 0 29 0.247152 1
gene 1 11 21 -0.433034 0 30 -0.433034 1
gene 1 12 21 -0.378911 0 31 -0.378911 1
gene 1 13 21 -0.944009 0 32 -0.944009 0
gene 1 14 21 -1.60066 0 33 -1.60066 1
gene 1 15 21 0.395622 0 34 0.395622 0
gene 1 16 21 1.63964 0 35 1.63964 1
gene 1 17 21 -0.677494 0 36 -0.677494 1
gene 1 18 21 -0.254134 0 37 -0.254134 1
gene 1 19 21 -0.737741 0 38 -0.737741 1
gene 1 1 22 -1.48967 0 39 -1.48967 1
gene 1 2 22 0.749273 0 40 0.749273 1
gene 1 3 22 0.473262 0 41 0.473262 1
gene 1 4 22 -0.241697 0 42 -0.241697 1
gene 1 5 22 0.140508 0 43 0.140508 1
gene 1 6 22 -0.331658 0 44 -0.331658 1
gene 1 7 22 1.09753 0 45 1.09753 1
gene 1 8 22 0.673257 0 46 0.673257 1
gene 1 9 22 -0.73827 0 47 -0.73827 1
gene 1 10 22 -0.316736 0 48 -0.316736 1
gene 1 11 22 0.16603 0 49 0.16603 1
gene 1 12 22 -1.78459 0 50 -1.78459 1
gene 1 13 22 0.312198 0 51 0.312198 1
gene 1 14 22 0.47041 0 52 0.47041 1
gene 1 15 22 0.583324 0 53 0.583324 1
gene 1 16 22 0.276112 0 54 0.276112 1
gene 1 17 22 1.03589 0 55 1.03589 1
gene 1 18 22 -0.221805 0 56 -0.221805 1
gene 1 19 22 0.158344 0 57 0.158344 1
gene 1 1 23 0.320129 0 58 0.320129 1
gene 1 2 23 -1.21234 0 59 -1.21234 1
gene 1 3 23 -0.052672 0 60 -0.052672 1
gene 1 4 23 -0.944885 0 61 -0.944885 1
gene 1 5 23 -0.0566663 0 62 -0.0566663 1
gene 1 6 23 0.843512 0 63 0.843512 1
gene 1 7 23 0.114929 0 64 0.114929 1
gene 1 8 23 -0.416626 0 65 -0.416626 1
gene 1 9 23 0.597933 0 66 0.597933 1
gene 1 10 23 1.019 0 67 1.019 1
gene 1 11 23 -3 0 68 -3 1
gene 1 12 23 -2.80994 0 69 -2.80994 1
gene 1 13 23 -1.13704 0 70 -1.13704 1
gene 1 14 23 0.208824 0 71 0.208824 1
gene 1 15 23 -1.31822 0 72 -1.31822 1
gene 1 16 23 1.40912 0 73 1.40912 1
gene 1 17 23 -1.18223 0 74 -1.18223 0
gene 1 18 23 2.58931 0 75 2.58931 1
gene 1 19 23 -2.09827 0 76 -2.09827 1
gene 1 8 24 -0.792084 0 77 -0.792084 1
gene 1 24 20 1.12574 0 78 1.12574 1
gene 1 15 26 1.43473 0 85 1.43473 1
gene 1 26 20 0.0606431 0 86 0.0606431 1
gene 1 22 20 2.88343 0 87 2.88343 1
gene 1 2 24 -0.483385 0 91 -0.483385 1
gene 1 8 28 1.26219 0 93 1.26219 1
gene 1 28 24 -0.25415 0 94 -0.25415 1
gene 1 6 24 -0.395433 0 96 -0.395433 1
gene 1 16 26 0.757234 0 99 0.757234 1
gene 1 13 24 0.376372 0 100 0.376372 1
gene 1 23 24 0.238888 0 113 0.238888 1
gene 1 13 32 -0.12208 0 116 -0.12208 1
gene 1 32 21 -0.0664387 0 117 -0.0664387 1
gene 1 10 37 0.0855179 0 129 0.0855179 1
gene 1 37 20 1.15376 0 130 1.15376 1
gene 1 17 39 -0.27437 0 134 -0.27437 1
gene 1 39 23 0.0953576 0 135 0.0953576 1
gene 1 15 43 0.0305969 0 150 0.0305969 1
gene 1 43 21 0.111733 0 151 0.111733 1
gene 1 3 43 -0.459735 0 153 -0.459735 1
gene 1 8 32 0.705126 0 154 0.705126 1
gene 1 2 39 0.526278 0 178 0.526278 1
gene 1 6 53 -0.560854 0 191 -0.560854 1
gene 1 53 22 0.508336 0 192 0.508336 1
gene 1 2 61 0.624442 0 221 0.624442 1
gene 1 61 24 0.169144 0 222 0.169144 1
gene 1 8 66 -0.683398 0 237 -0.683398 1
gene 1 66 22 0.480847 0 238 0.480847 1
gene 1 28 23 0.256807 0 253 0.256807 1
genomeend 934
genomestart 936
trait 1 0 0.154492 0.315918 0.0724479 0.561468 0 0.202569 0.193088 
node 1 1 1 1 0
node 2 1 1 1 0
node 3 1 1 1 0
node 4 1 1 1 0
node 5 1 1 1 0
node 6 1 1 1 0
node 7 1 1 1 0
node 8 1 1 1 0
node 9 1 1 1 0
node 10 1 1 1 0
node 11 1 1 1 0
node 12 1 1 1 0
node 13 1 1 1 0
node 14 1 1 1 0
node 15 1 1 1 0
node 16 1 1 1 0
node 17 1 1 1 0
node 18 1 1 1 0
node 19 1 1 3 0
node 20 1 0 2 0
node 21 1 0 2 0
node 22 1 0 2 0
node 23 1 0 2 0
node 24 1 0 0 0
node 26 1 0 0 0
node 28 1 0 0 0
node 32 1 0 0 0
node 37 1 0 0 0
node 39 1 0 0 0
node 43 1 0 0 0
node 53 1 0 0 0
node 62 1 0 0 0
gene 1 1 20 -0.414245 0 1 -0.414245 1
gene 1 2 20 -0.14091 0 2 -0.14091 1
gene 1 3 20 1.90565 0 3 1.90565 1
gene 1 4 20 0.639815 0 4 0.639815 1
gene 1 5 20 0.154659 0 5 0.154659 1
gene 1 6 20 1.12181 0 6 1.12181 1
gene 1 7 20 0.873173 0 7 0.873173 1
gene 1 8 20 -0.90191 0 8 -0.90191 0
gene 1 9 20 -0.0479679 0 9 -0.0479679 1
gene 1 10 20 0.515448 0 10 0.515448 1
gene 1 11 20 0.425847 0 11 0.425847 1
gene 1 12 20 2.1836 0 12 2.1836 1
gene 1 13 20 0.00462024 0 13 0.00462024 1
gene 1 14 20 0.14561 0 14 0.14561 1
gene 1 15 20 0.389396 0 15 0.389396 1
gene 1 16 20 0.0631327 0 16 0.0631327 1
gene 1 17 20 1.55061 0 17 1.55061 1
gene 1 18 20 1.08827 0 18 1.08827 1
gene 1 19 20 1.10062 0 19 1.10062 1
gene 1 1 21 -0.39602 0 20 -0.39602 1
gene 1 2 21 0.0408866 0 21 0.0408866 1
gene 1 3 21 -0.00533577 0 22 -0.00533577 1
gene 1 4 21 0.0968057 0 23 0.0968057 1
gene 1 5 21 0.0289531 0 24 0.0289531 1
gene 1 6 21 -0.140626 0 25 -0.140626 1
gene 1 7 21 0.926469 0 26 0.926469 1
gene 1 8 21 -0.0982961 0 27 -0.0982961 1
gene 1 9 21 -0.611949 0 28 -0.611949 1
gene 1 10 21 -0.437727 0 29 -0.437727 1
gene 1 11 21 1.61827 0 30 1.61827 1
gene 1 12 21 0.349828 0 31 0.349828 1
gene 1 13 21 0.0338476 0 32 0.0338476 0
gene 1 14 21 -2.96312 0 33 -2.96312 1
gene 1 15 21 0.20466 0 34 0.20466 0
gene 1 16 21 -1.89194 0 35 -1.89194 1
gene 1 17 21 -0.215577 0 36 -0.215577 1
gene 1 18 21 -0.22124 0 37 -0.22124 1
gene 1 19 21 -1.65932 0 38 -1.65932 1
gene 1 1 22 0.604976 0 39 0.604976 1
gene 1 2 22 -0.450012 0 40 -0.450012 1
gene 1 3 22 0.0727843 0 41 0.0727843 1
gene 1 4 22 0.132565 0 42 0.132565 1
gene 1 5 22 1.06405 0 43 1.06405 1
gene 1 6 22 2.30337 0 44 2.30337 0
gene 1 7 22 1.05732 0 45 1.05732 1
gene 1 8 22 -0.252566 0 46 -0.252566 1
gene 1 9 22 0.0205333 0 47 0.0205333 1
gene 1 10 22 -0.250113 0 48 -0.250113 1
gene 1 11 22 -0.230943 0 49 -0.230943 1
gene 1 12 22 -1.61645 0 50 -1.61645 1
gene 1 13 22 -0.6961 0 51 -0.6961 1
gene 1 14 22 -1.17384 0 52 -1.17384 1
gene 1 15 22 0.169553 0 53 0.169553 1
gene 1 16 22 -0.10339 0 54 -0.10339 1
gene 1 17 22 2.61066 0 55 2.61066 1
gene 1 18 22 0.143195 0 56 0.143195 1
gene 1 19 22 1.00202 0 57 1.00202 1
gene 1 1 23 1.22401 0 58 1.22401 1
gene 1 2 23 -0.0488595 0 59 -0.0488595 1
gene 1 3 23 -1.59189 0 60 -1.59189 1
gene 1 4 23 -0.692113 0 61 -0.692113 1
gene 1 5 23 0.0570756 0 62 0.0570756 1
gene 1 6 23 -0.427094 0 63 -0.427094 1
gene 1 7 23 0.0214057 0 64 0.0214057 1
gene 1 8 23 -0.622382 0 65 -0.622382 1
gene 1 9 23 0.244989 0 66 0.244989 1
gene 1 10 23 0.509186 0 67 0.509186 1
gene 1 11 23 0.334135 0 68 0.334135 1
gene 1 12 23 1.09079 0 69 1.09079 1
gene 1 13 23 -0.703293 0 70 -0.703293 1
gene 1 14 23 0.42892 0 71 0.42892 1
gene 1 15 23 0.095559 0 72 0.095559 1
gene 1 16 23 0.30706 0 73 0.30706 1
gene 1 17 23 -1.43386 0 74 -1.43386 0
gene 1 18 23 1.33853 0 75 1.33853 1
gene 1 19 23 0.554453 0 76 0.554453 1
gene 1 8 24 0.265725 0 77 0.265725 1
gene 1 24 20 0.118731 0 78 0.118731 1
gene 1 15 26 0.111294 0 85 0.111294 1
gene 1 26 20 0.494357 0 86 0.494357 1
gene 1 22 20 2.03061 0 87 2.03061 1
gene 1 2 24 0.341366 0 91 0.341366 1
gene 1 8 28 -0.27978 0 93 -0.27978 1
gene 1 28 24 -0.133947 0 94 -0.133947 1
gene 1 6 24 0.119561 0 96 0.119561 1
gene 1 16 26 0.320272 0 99 0.320272 1
gene 1 13 24 -0.263184 0 100 -0.263184 1
gene 1 23 24 0.149186 0 113 0.149186 1
gene 1 13 32 0.00793145 0 116 0.00793145 1
gene 1 32 21 -0.333311 0 117 -0.333311 1
gene 1 10 37 -0.153117 0 129 -0.153117 1
gene 1 37 20 0.884131 0 130 0.884131 1
gene 1 17 39 0.540463 0 134 0.540463 1
gene 1 39 23 -0.0484566 0 135 -0.0484566 1
gene 1 15 43 -0.342603 0 150 -0.342603 1
gene 1 43 21 0.0623179 0 151 0.0623179 1
gene 1 3 43 -0.680945 0 153 -0.680945 1
gene 1 8 32 -0.11873 0 154 -0.11873 1
gene 1 2 39 0.659747 0 178 0.659747 1
gene 1 6 53 0.210252 0 191 0.210252 1
gene 1 53 22 0.0767513 0 192 0.0767513 1
gene 1 13 62 -0.0833458 0 225 -0.0833458 1
gene 1 62 20 0.164652 0 226 0.164652 1
gene 1 26 24 0.0510012 0 284 0.0510012 1
genomeend 936
genomestart 937
trait 1 0 0.154492 0.315918 0.0724479 0.561468 0 0.202569 0.193088 
node 1 1 1 1 0
node 2 1 1 1 0
node 3 1 1 1 0
node 4 1 1 1 0
node 5 1 1 1 0
node 6 1 1 1 0
node 7 1 1 1 0
node 8 1 1 1 0
node 9 1 1 1 0
node 10 1 1 1 0
node 11 1 1 1 0
node 12 1 1 1 0
node 13 1 1 1 0
node 14 1 1 1 0
node 15 1 1 1 0
node 16 1 1 1 0
node 17 1 1 1 0
node 18 1 1 1 0
node 19 1 1 3 0
node 20 1 0 2 0
node 21 1 0 2 0
node 22 1 0 2 0
node 23 1 0 2 0
node 24 1 0 0 0
node 26 1 0 0 0
node 28 1 0 0 0
node 32 1 0 0 0
node 37 1 0 0 0
node 39 1 0 0 0
node 43 1 0 0 0
node 53 1 0 0 0
node 62 1 0 0 0
gene 1 1 20 -0.78654 0 1 -0.78654 1
gene 1 2 20 0.1195 0 2 0.1195 1
gene 1 3 20 1.93655 0 3 1.93655 1
gene 1 4 20 0.646597 0 4 0.646597 1
gene 1 5 20 0.119169 0 5 0.119169 1
gene 1 6 20 1.26995 0 6 1.26995 1
gene 1 7 20 1.18868 0 7 1.18868 1
gene 1 8 20 -0.873179 0 8 -0.873179 0
gene 1 9 20 0.372729 0 9 0.372729 1
gene 1 10 20 0.579536 0 10 0.579536 1
gene 1 11 20 0.670323 0 11 0.670323 1
gene 1 12 20 2.42456 0 12 2.42456 1
gene 1 13 20 -0.221592 0 13 -0.221592 1
gene 1 14 20 0.439351 0 14 0.439351 1
gene 1 15 20 0.27229 0 15 0.27229 1
gene 1 16 20 -0.326722 0 16 -0.326722 1
gene 1 17 20 1.7403 0 17 1.7403 1
gene 1 18 20 1.56024 0 18 1.56024 1
gene 1 19 20 1.21565 0 19 1.21565 1
gene 1 1 21 -0.437972 0 20 -0.437972 1
gene 1 2 21 -0.44742 0 21 -0.44742 1
gene 1 3 21 -0.245023 0 22 -0.245023 1
gene 1 4 21 0.15089 0 23 0.15089 1
gene 1 5 21 0.455241 0 24 0.455241 1
gene 1 6 21 -0.326532 0 25 -0.326532 1
gene 1 7 21 0.53203 0 26 0.53203 1
gene 1 8 21 -0.274924 0 27 -0.274924 1
gene 1 9 21 -0.831086 0 28 -0.831086 1
gene 1 10 21 -0.346768 0 29 -0.346768 1
gene 1 11 21 1.40134 0 30 1.40134 1
gene 1 12 21 0.556581 0 31 0.556581 1
gene 1 13 21 0.176891 0 32 0.176891 0
gene 1 14 21 -3 0 33 -3 1
gene 1 15 21 0.0419437 0 34 0.0419437 0
gene 1 16 21 -1.42356 0 35 -1.42356 1
gene 1 17 21 0.138095 0 36 0.138095 1
gene 1 18 21 -0.581665 0 37 -0.581665 1
gene 1 19 21 -1.99126 0 38 -1.99126 1
gene 1 1 22 0.821967 0 39 0.821967 1
gene 1 2 22 -0.529044 0 40 -0.529044 1
gene 1 3 22 0.547094 0 41 0.547094 1
gene 1 4 22 -0.219325 0 42 -0.219325 1
gene 1 5 22 0.628642 0 43 0.628642 1
gene 1 6 22 2.35044 0 44 2.35044 0
gene 1 7 22 0.708343 0 45 0.708343 1
gene 1 8 22 -0.403761 0 46 -0.403761 1
gene 1 9 22 -0.28155 0 47 -0.28155 1
gene 1 10 22 -0.159928 0 48 -0.159928 1
gene 1 11 22 -0.607139 0 49 -0.607139 1
gene 1 12 22 -1.43785 0 50 -1.43785 1
gene 1 13 22 -0.862763 0 51 -0.862763 1
gene 1 14 22 -0.888793 0 52 -0.888793 1
gene 1 15 22 -0.240185 0 53 -0.240185 1
gene 1 16 22 -0.384637 0 54 -0.384637 1
gene 1 17 22 2.13735 0 55 2.13735 1
gene 1 18 22 -0.128703 0 56 -0.128703 1
gene 1 19 22 1.24242 0 57 1.24242 1
gene 1 1 23 0.895694 0 58 0.895694 1
gene 1 2 23 0.314936 0 59 0.314936 1
gene 1 3 23 -1.39214 0 60 -1.39214 1
gene 1 4 23 -0.297387 0 61 -0.297387 1
gene 1 5 23 -0.100901 0 62 -0.100901 1
gene 1 6 23 0.00663314 0 63 0.00663314 1
gene 1 7 23 -0.423807 0 64 -0.423807 1
gene 1 8 23 -1.04976 0 65 -1.04976 1
gene 1 9 23 0.237243 0 66 0.237243 1
gene 1 10 23 0.506871 0 67 0.506871 1
gene 1 11 23 0.701548 0 68 0.701548 1
gene 1 12 23 1.2103 0 69 1.2103 1
gene 1 13 23 -0.434317 0 70 -0.434317 1
gene 1 14 23 0.549548 0 71 0.549548 1
gene 1 15 23 0.57527 0 72 0.57527 1
gene 1 16 23 0.251739 0 73 0.251739 1
gene 1 17 23 -1.25907 0 74 -1.25907 0
gene 1 18 23 1.71764 0 75 1.71764 1
gene 1 19 23 0.198325 0 76 0.198325 1
gene 1 8 24 0.244118 0 77 0.244118 1
gene 1 24 20 0.118432 0 78 0.118432 1
gene 1 15 26 -0.233431 0 85 -0.233431 1
gene 1 26 20 0.800479 0 86 0.800479 1
gene 1 22 20 1.94483 0 87 1.94483 1
gene 1 2 24 0.695741 0 91 0.695741 1
gene 1 8 28 -0.372669 0 93 -0.372669 1
gene 1 28 24 -0.0615513 0 94 -0.0615513 1
gene 1 6 24 0.352532 0 96 0.352532 1
gene 1 16 26 0.320272 0 99 0.320272 1
gene 1 13 24 -0.194824 0 100 -0.194824 1
gene 1 23 24 -0.00339526 0 113 -0.00339526 1
gene 1 13 32 0.0801678 0 116 0.0801678 1
gene 1 32 21 -0.333311 0 117 -0.333311 1
gene 1 10 37 -0.230459 0 129 -0.230459 1
gene 1 37 20 1.26642 0 130 1.26642 1
gene 1 17 39 -0.270591 0 134 -0.270591 1
gene 1 39 23 -0.322558 0 135 -0.322558 1
gene 1 15 43 -0.268295 0 150 -0.268295 1
gene 1 43 21 0.0623179 0 151 0.0623179 1
gene 1 3 43 -0.841853 0 153 -0.841853 1
gene 1 8 32 -0.0203746 0 154 -0.0203746 1
gene 1 2 39 0.20394 0 178 0.20394 1
gene 1 6 53 -0.389825 0 191 -0.389825 1
gene 1 53 22 0.0767513 0 192 0.0767513 1
gene 1 13 62 0.197069 0 225 0.197069 1
gene 1 62 20 0.27622 0 226 0.27622 1
gene 1 26 24 0.0510012 0 284 0.0510012 1
genomeend 937
genomestart 939
trait 1 0 0.150357 0.298584 0.0684728 0.561468 0 0.191455 0.192424 
node 1 1 1 1 0
node 2 1 1 1 0
node 3 1 1 1 0
node 4 1 1 1 0
node 5 1 1 1 0
node 6 1 1 1 0
node 7 1 1 1 0
node 8 1 1 1 0
node 9 1 1 1 0
node 10 1 1 1 0
node 11 1 1 1 0
node 12 1 1 1 0
node 13 1 1 1 0
node 14 1 1 1 0
node 15 1 1 1 0
node 16 1 1 1 0
node 17 1 1 1 0
node 18 1 1 1 0
node 19 1 1 3 0
node 20 1 0 2 0
node 21 1 0 2 0
node 22 1 0 2 0
node 23 1 0 2 0
node 24 1 0 0 0
node 26 1 0 0 0
node 28 1 0 0 0
node 32 1 0 0 0
node 37 1 0 0 0
node 39 1 0 0 0
node 43 1 0 0 0
node 53 1 0 0 0
node 62 1 0 0 0
gene 1 1 20 -0.570903 0 1 -0.570903 1
gene 1 2 20 -0.249694 0 2 -0.249694 1
gene 1 3 20 1.93655 0 3 1.93655 1
gene 1 4 20 -0.0336521 0 4 -0.0336521 1
gene 1 5 20 0.265552 0 5 0.265552 1
gene 1 6 20 1.26995 0 6 1.26995 1
gene 1 7 20 1.18868 0 7 1.18868 1
gene 1 8 20 0.0716901 0 8 0.0716901 0
gene 1 9 20 0.247551 0 9 0.247551 1
gene 1 10 20 0.579536 0 10 0.579536 1
gene 1 11 20 0.670323 0 11 0.670323 1
gene 1 12 20 2.42456 0 12 2.42456 1
gene 1 13 20 -0.221592 0 13 -0.221592 1
gene 1 14 20 -1.24646 0 14 -1.24646 1
gene 1 15 20 -0.141014 0 15 -0.141014 1
gene 1 16 20 0.91842 0 16 0.91842 1
gene 1 17 20 1.7403 0 17 1.7403 1
gene 1 18 20 1.56024 0 18 1.56024 1
gene 1 19 20 1.21565 0 19 1.21565 1
gene 1 1 21 -0.92307 0 20 -0.92307 1
gene 1 2 21 0.160868 0 21 0.160868 1
gene 1 3 21 -0.245023 0 22 -0.245023 1
gene 1 4 21 0.282214 0 23 0.282214 1
gene 1 5 21 0.455241 0 24 0.455241 1
gene 1 6 21 0.456262 0 25 0.456262 1
gene 1 7 21 -0.334394 0 26 -0.334394 1
gene 1 8 21 -0.274924 0 27 -0.274924 1
gene 1 9 21 -0.831086 0 28 -0.831086 1
gene 1 10 21 -0.346768 0 29 -0.346768 1
gene 1 11 21 1.40134 0 30 1.40134 1
gene 1 12 21 0.556581 0 31 0.556581 1
gene 1 13 21 0.176891 0 32 0.176891 0
gene 1 14 21 -3 0 33 -3 1
gene 1 15 21 0.0419437 0 34 0.0419437 0
gene 1 16 21 -1.42356 0 35 -1.42356 1
gene 1 17 21 -0.398956 0 36 -0.398956 1
gene 1 18 21 -0.581665 0 37 -0.581665 1
gene 1 19 21 -1.99126 0 38 -1.99126 1
gene 1 1 22 1.08836 0 39 1.08836 1
gene 1 2 22 -0.529044 0 40 -0.529044 1
gene 1 3 22 0.547094 0 41 0.547094 1
gene 1 4 22 0.080598 0 42 0.080598 1
gene 1 5 22 0.628642 0 43 0.628642 1
gene 1 6 22 -0.264544 0 44 -0.264544 0
gene 1 7 22 0.708343 0 45 0.708343 1
gene 1 8 22 -0.403761 0 46 -0.403761 1
gene 1 9 22 0.217911 0 47 0.217911 1
gene 1 10 22 -0.159928 0 48 -0.159928 1
gene 1 11 22 -0.169599 0 49 -0.169599 1
gene 1 12 22 -0.54038 0 50 -0.54038 1
gene 1 13 22 -0.128826 0 51 -0.128826 1
gene 1 14 22 -0.888793 0 52 -0.888793 1
gene 1 15 22 -0.377003 0 53 -0.377003 1
gene 1 16 22 -0.339181 0 54 -0.339181 1
gene 1 17 22 2.13735 0 55 2.13735 1
gene 1 18 22 -0.128703 0 56 -0.128703 1
gene 1 19 22 1.24242 0 57 1.24242 1
gene 1 1 23 0.895694 0 58 0.895694 1
gene 1 2 23 0.402265 0 59 0.402265 1
gene 1 3 23 -1.40894 0 60 -1.40894 1
gene 1 4 23 0.424678 0 61 0.424678 1
gene 1 5 23 -0.166901 0 62 -0.166901 1
gene 1 6 23 0.00663314 0 63 0.00663314 1
gene 1 7 23 0.308623 0 64 0.308623 1
gene 1 8 23 -1.04976 0 65 -1.04976 1
gene 1 9 23 -0.30824 0 66 -0.30824 1
gene 1 10 23 0.506871 0 67 0.506871 1
gene 1 11 23 0.701548 0 68 0.701548 1
gene 1 12 23 1.2103 0 69 1.2103 1
gene 1 13 23 -1.4738 0 70 -1.4738 1
gene 1 14 23 -0.0261244 0 71 -0.0261244 1
gene 1 15 23 0.57527 0 72 0.57527 1
gene 1 16 23 -1.3167 0 73 -1.3167 1
gene 1 17 23 0.019733 0 74 0.019733 0
gene 1 18 23 1.71764 0 75 1.71764 1
gene 1 19 23 0.198325 0 76 0.198325 1
gene 1 8 24 -0.238515 0 77 -0.238515 1
gene 1 24 20 1.49732 0 78 1.49732 1
gene 1 15 26 -0.233431 0 85 -0.233431 1
gene 1 26 20 0.800479 0 86 0.800479 1
gene 1 22 20 2.61353 0 87 2.61353 1
gene 1 2 24 0.340073 0 91 0.340073 1
gene 1 8 28 0.827139 0 93 0.827139 1
gene 1 28 24 0.259863 0 94 0.259863 1
gene 1 6 24 0.352532 0 96 0.352532 1
gene 1 16 26 0.320272 0 99 0.320272 1
gene 1 13 24 -0.194824 0 100 -0.194824 1
gene 1 23 24 -0.00339526 0 113 -0.00339526 1
gene 1 13 32 -0.0318189 0 116 -0.0318189 1
gene 1 32 21 -0.210763 0 117 -0.210763 1
gene 1 10 37 -0.476918 0 129 -0.476918 1
gene 1 37 20 0.0087162 0 130 0.0087162 1
gene 1 17 39 0.802923 0 134 0.802923 1
gene 1 39 23 -0.322558 0 135 -0.322558 1
gene 1 15 43 -0.268295 0 150 -0.268295 1
gene 1 43 21 0.0623179 0 151 0.0623179 1
gene 1 3 43 -0.841853 0 153 -0.841853 1
gene 1 8 32 -0.0203746 0 154 -0.0203746 1
gene 1 2 39 0.20394 0 178 0.20394 1
gene 1 6 53 -0.389825 0 191 -0.389825 1
gene 1 53 22 0.0767513 0 192 0.0767513 1
gene 1 13 62 0.197069 0 225 0.197069 1
gene 1 62 20 -0.17784 0 226 -0.17784 1
gene 1 26 24 0.0510012 0 284 0.0510012 1
genomeend 939
genomestart 943
trait 1 0 0.214542 0.626245 0.519469 1 0 0.429468 0.314457 
node 1 1 1 1 0
node 2 1 1 1 0
node 3 1 1 1 0
node 4 1 1 1 0
node 5 1 1 1 0
node 6 1 1 1 0
node 7 1 1 1 0
node 8 1 1 1 0
node 9 1 1 1 0
node 10 1 1 1 0
node 11 1 1 1 0
node 12 1 1 1 0
node 13 1 1 1 0
node 14 1 1 1 0
node 15 1 1 1 0
node 16 1 1 1 0
node 17 1 1 1 0
node 18 1 1 1 0
node 19 1 1 3 0
node 20 1 0 2 0
node 21 1 0 2 0
node 22 1 0 2 0
node 23 1 0 2 0
node 24 1 0 0 0
node 26 1 0 0 0
node 28 1 0 0 0
node 32 1 0 0 0
node 37 1 0 0 0
node 39 1 0 0 0
node 43 1 0 0 0
node 53 1 0 0 0
node 61 1 0 0 0
node 66 1 0 0 0
gene 1 1 20 -0.0725861 0 1 -0.0725861 1
gene 1 2 20 0.0295122 0 2 0.0295122 1
gene 1 3 20 0.4088 0 3 0.4088 1
gene 1 4 20 1.41818 0 4 1.41818 1
gene 1 5 20 0.162193 0 5 0.162193 1
gene 1 6 20 0.136049 0 6 0.136049 1
gene 1 7 20 -1.06774 0 7 -1.06774 1
gene 1 8 20 -0.281565 0 8 -0.281565 1
gene 1 9 20 -0.137444 0 9 -0.137444 1
gene 1 10 20 -0.200989 0 10 -0.200989 1
gene 1 11 20 -0.55264 0 11 -0.55264 1
gene 1 12 20 3 0 12 3 1
gene 1 13 20 -0.0980872 0 13 -0.0980872 1
gene 1 14 20 0.527484 0 14 0.527484 1
gene 1 15 20 0.470038 0 15 0.470038 1
gene 1 16 20 0.738816 0 16 0.738816 1
gene 1 17 20 1.08705 0 17 1.08705 1
gene 1 18 20 -0.379639 0 18 -0.379639 1
gene 1 19 20 -0.602759 0 19 -0.602759 1
gene 1 1 21 0.597967 0 20 0.597967 1
gene 1 2 21 1.57041 0 21 1.57041 1
gene 1 3 21 -0.312712 0 22 -0.312712 1
gene 1 4 21 -0.123236 0 23 -0.123236 1
gene 1 5 21 -0.158062 0 24 -0.158062 1
gene 1 6 21 0.0207792 0 25 0.0207792 1
gene 1 7 21 0.512109 0 26 0.512109 1
gene 1 8 21 -0.177312 0 27 -0.177312 1
gene 1 9 21 -1.29374 0 28 -1.29374 1
gene 1 10 21 0.247152 0 29 0.247152 1
gene 1 11 21 -0.433034 0 30 -0.433034 1
gene 1 12 21 -0.378911 0 31 -0.378911 1
gene 1 13 21 -0.944009 0 32 -0.944009 0
gene 1 14 21 -1.60066 0 33 -1.60066 1
gene 1 15 21 0.395622 0 34 0.395622 0
gene 1 16 21 1.63964 0 35 1.63964 1
gene 1 17 21 -0.677494 0 36 -0.677494 1
gene 1 18 21 -0.254134 0 37 -0.254134 1
gene 1 19 21 -0.737741 0 38 -0.737741 1
gene 1 1 22 -1.48967 0 39 -1.48967 1
gene 1 2 22 0.749273 0 40 0.749273 1
gene 1 3 22 0.473262 0 41 0.473262 1
gene 1 4 22 -0.241697 0 42 -0.241697 1
gene 1 5 22 0.140508 0 43 0.140508 1
gene 1 6 22 -0.331658 0 44 -0.331658 1
gene 1 7 22 1.09753 0 45 1.09753 1
gene 1 8 22 0.673257 0 46 0.673257 1
gene 1 9 22 -0.73827 0 47 -0.73827 1
gene 1 10 22 -0.316736 0 48 -0.316736 1
gene 1 11 22 0.16603 0 49 0.16603 1
gene 1 12 22 -1.78459 0 50 -1.78459 1
gene 1 13 22 0.312198 0 51 0.312198 1
gene 1 14 22 0.47041 0 52 0.47041 1
gene 1 15 22 0.583324 0 53 0.583324 1
gene 1 16 22 0.276112 0 54 0.276112 1
gene 1 17 22 1.03589 0 55 1.03589 1
gene 1 18 22 -0.221805 0 56 -0.221805 1
gene 1 19 22 0.158344 0 57 0.158344 1
gene 1 1 23 0.320129 0 58 0.320129 1
gene 1 2 23 -1.21234 0 59 -1.21234 1
gene 1 3 23 -0.052672 0 60 -0.052672 1
gene 1 4 23 -0.944885 0 61 -0.944885 1
gene 1 5 23 -0.0566663 0 62 -0.0566663 1
gene 1 6 23 0.843512 0 63 0.843512 1
gene 1 7 23 0.114929 0 64 0.114929 1
gene 1 8 23 -0.416626 0 65 -0.416626 1
gene 1 9 23 0.597933 0 66 0.597933 1
gene 1 10 23 1.019 0 67 1.019 1
gene 1 11 23 -3 0 68 -3 1
gene 1 12 23 -2.80994 0 69 -2.80994 1
gene 1 13 23 -1.13704 0 70 -1.13704 1
gene 1 14 23 0.208824 0 71 0.208824 1
gene 1 15 23 -1.31822 0 72 -1.31822 1
gene 1 16 23 1.40912 0 73 1.40912 1
gene 1 17 23 -1.18223 0 74 -1.18223 0
gene 1 18 23 2.58931 0 75 2.58931 1
gene 1 19 23 -2.09827 0 76 -2.09827 1
gene 1 8 24 -0.792084 0 77 -0.792084 1
gene 1 24 20 1.12574 0 78 1.12574 1
gene 1 15 26 1.43473 0 85 1.43473 1
gene 1 26 20 0.0606431 0 86 0.0606431 1
gene 1 22 20 2.88343 0 87 2.88343 1
gene 1 2 24 -0.483385 0 91 -0.483385 1
gene 1 8 28 1.26219 0 93 1.26219 1
gene 1 28 24 -0.25415 0 94 -0.25415 1
gene 1 6 24 -0.395433 0 96 -0.395433 1
gene 1 16 26 0.757234 0 99 0.757234 1
gene 1 13 24 0.376372 0 100 0.376372 1
gene 1 23 24 0.238888 0 113 0.238888 1
gene 1 13 32 -0.12208 0 116 -0.12208 1
gene 1 32 21 -0.0664387 0 117 -0.0664387 1
gene 1 10 37 0.0855179 0 129 0.0855179 1
gene 1 37 20 1.15376 0 130 1.15376 1
gene 1 17 39 -0.27437 0 134 -0.27437 1
gene 1 39 23 0.0953576 0 135 0.0953576 1
gene 1 15 43 0.0305969 0 150 0.0305969 1
gene 1 43 21 0.111733 0 151 0.111733 1
gene 1 3 43 -0.459735 0 153 -0.459735 1
gene 1 8 32 0.705126 0 154 0.705126 1
gene 1 2 39 0.526278 0 178 0.526278 1
gene 1 6 53 -0.560854 0 191 -0.560854 1
gene 1 53 22 0.508336 0 192 0.508336 1
gene 1 2 61 0.624442 0 221 0.624442 1
gene 1 61 24 0.169144 0 222 0.169144 1
gene 1 8 66 -0.683398 0 237 -0.683398 1
gene 1 66 22 0.480847 0 238 0.480847 1
gene 1 28 23 0.256807 0 253 0.256807 1
genomeend 943
genomestart 949
trait 1 0.0105142 0.143303 0.0448763 0.0384164 0.767708 0 0.471491 0.482285 
node 1 1 1 1 0
node 2 1 1 1 0
node 3 1 1 1 0
node 4 1 1 1 0
node 5 1 1 1 0
node 6 1 1 1 0
node 7 1 1 1 0
node 8 1 1 1 0
node 9 1 1 1 0
node 10 1 1 1 0
node 11 1 1 1 0
node 12 1 1 1 0
node 13 1 1 1 0
node 14 1 1 1 0
node 15 1 1 1 0
node 16 1 1 1 0
node 17 1 1 1 0
node 18 1 1 1 0
node 19 1 1 3 0
node 20 1 0 2 0
node 21 1 0 2 0
node 22 1 0 2 0
node 23 1 0 2 0
node 24 1 0 0 0
node 26 1 0 0 0
node 28 1 0 0 0
node 32 1 0 0 0
node 37 1 0 0 0
node 39 1 0 0 0
node 43 1 0 0 0
node 53 1 0 0 0
node 66 1 0 0 0
node 68 1 0 0 0
gene 1 1 20 0.128152 0 1 0.128152 1
gene 1 2 20 0.498216 0 2 0.498216 1
gene 1 3 20 -0.618163 0 3 -0.618163 1
gene 1 4 20 0.410487 0 4 0.410487 1
gene 1 5 20 0.131347 0 5 0.131347 1
gene 1 6 20 0.306957 0 6 0.306957 1
gene 1 7 20 -2.3041 0 7 -2.3041 1
gene 1 8 20 0.0122162 0 8 0.0122162 1
gene 1 9 20 -0.446347 0 9 -0.446347 1
gene 1 10 20 1.35201 0 10 1.35201 0
gene 1 11 20 0.38041 0 11 0.38041 1
gene 1 12 20 0.00938671 0 12 0.00938671 1
gene 1 13 20 0.0760541 0 13 0.0760541 1
gene 1 14 20 0.013209 0 14 0.013209 1
gene 1 15 20 0.0127635 0 15 0.0127635 1
gene 1 16 20 -0.13395 0 16 -0.13395 1
gene 1 17 20 0.444291 0 17 0.444291 1
gene 1 18 20 0.759367 0 18 0.759367 1
gene 1 19 20 0.261967 0 19 0.261967 1
gene 1 1 21 -0.376885 0 20 -0.376885 1
gene 1 2 21 1.73216 0 21 1.73216 1
gene 1 3 21 -0.754712 0 22 -0.754712 1
gene 1 4 21 0.34223 0 23 0.34223 1
gene 1 5 21 0.301746 0 24 0.301746 1
gene 1 6 21 -0.148592 0 25 -0.148592 1
gene 1 7 21 0.220123 0 26 0.220123 1
gene 1 8 21 0.30029 0 27 0.30029 1
gene 1 9 21 -0.195043 0 28 -0.195043 1
gene 1 10 21 0.00180323 0 29 0.00180323 1
gene 1 11 21 -0.144001 0 30 -0.144001 1
gene 1 12 21 0.236351 0 31 0.236351 1
gene 1 13 21 -0.0419937 0 32 -0.0419937 0
gene 1 14 21 0.246198 0 33 0.246198 1
gene 1 15 21 0.700418 0 34 0.700418 0
gene 1 16 21 -0.244144 0 35 -0.244144 1
gene 1 17 21 0.4005 0 36 0.4005 1
gene 1 18 21 -0.363833 0 37 -0.363833 1
gene 1 19 21 -0.359348 0 38 -0.359348 1
gene 1 1 22 -0.412298 0 39 -0.412298 1
gene 1 2 22 -0.398644 0 40 -0.398644 1
gene 1 3 22 0.507738 0 41 0.507738 1
gene 1 4 22 0.43868 0 42 0.43868 1
gene 1 5 22 0.348223 0 43 0.348223 1
gene 1 6 22 -1.97714 0 44 -1.97714 0
gene 1 7 22 0.746273 0 45 0.746273 1
gene 1 8 22 0.484302 0 46 0.484302 0
gene 1 9 22 0.568049 0 47 0.568049 1
gene 1 10 22 0.528626 0 48 0.528626 1
gene 1 11 22 -0.00641145 0 49 -0.00641145 1
gene 1 12 22 0.026435 0 50 0.026435 1
gene 1 13 22 -0.248656 0 51 -0.248656 1
gene 1 14 22 -0.165083 0 52 -0.165083 1
gene 1 15 22 0.17681 0 53 0.17681 1
gene 1 16 22 0.381033 0 54 0.381033 1
gene 1 17 22 0.930248 0 55 0.930248 1
gene 1 18 22 0.169213 0 56 0.169213 1
gene 1 19 22 0.521248 0 57 0.521248 1
gene 1 1 23 -0.332764 0 58 -0.332764 1
gene 1 2 23 -0.341654 0 59 -0.341654 1
gene 1 3 23 -1.01932 0 60 -1.01932 1
gene 1 4 23 -1.3052 0 61 -1.3052 1
gene 1 5 23 -0.26418 0 62 -0.26418 1
gene 1 6 23 0.484007 0 63 0.484007 1
gene 1 7 23 0.275512 0 64 0.275512 1
gene 1 8 23 0.207311 0 65 0.207311 1
gene 1 9 23 0.665015 0 66 0.665015 1
gene 1 10 23 -0.440089 0 67 -0.440089 1
gene 1 11 23 -2.15425 0 68 -2.15425 1
gene 1 12 23 -0.341383 0 69 -0.341383 1
gene 1 13 23 -0.394961 0 70 -0.394961 1
gene 1 14 23 0.81946 0 71 0.81946 1
gene 1 15 23 -0.488032 0 72 -0.488032 1
gene 1 16 23 0.0878179 0 73 0.0878179 1
gene 1 17 23 -1.09525 0 74 -1.09525 0
gene 1 18 23 -0.0283989 0 75 -0.0283989 1
gene 1 19 23 0.280868 0 76 0.280868 1
gene 1 8 24 0.0115155 0 77 0.0115155 1
gene 1 24 20 1.93599 0 78 1.93599 1
gene 1 15 26 1.80131 0 85 1.80131 1
gene 1 26 20 0.115879 0 86 0.115879 1
gene 1 22 20 2.44482 0 87 2.44482 1
gene 1 2 24 -0.539541 0 91 -0.539541 1
gene 1 8 28 -0.0746662 0 93 -0.0746662 1
gene 1 28 24 0.344433 0 94 0.344433 1
gene 1 6 24 0.412416 0 96 0.412416 1
gene 1 16 26 -0.524818 0 99 -0.524818 1
gene 1 13 24 -0.45126 0 100 -0.45126 1
gene 1 23 24 0.890435 0 113 0.890435 1
gene 1 13 32 -0.689731 0 116 -0.689731 1
gene 1 32 21 -0.0993383 0 117 -0.0993383 1
gene 1 10 37 1.02424 0 129 1.02424 1
gene 1 37 20 0.593095 0 130 0.593095 1
gene 1 17 39 -0.192459 0 134 -0.192459 1
gene 1 39 23 -0.819503 0 135 -0.819503 1
gene 1 15 43 -0.523467 0 150 -0.523467 1
gene 1 43 21 -0.512323 0 151 -0.512323 1
gene 1 3 43 0.268538 0 153 0.268538 1
gene 1 8 32 0.380821 0 154 0.380821 1
gene 1 2 39 -0.030835 0 178 -0.030835 1
gene 1 6 53 0.185411 0 191 0.185411 1
gene 1 53 22 0.248978 0 192 0.248978 1
gene 1 8 66 0.663323 0 237 0.663323 1
gene 1 66 22 -0.304731 0 238 -0.304731 1
gene 1 18 68 0.0149454 0 243 0.0149454 1
gene 1 68 21 -0.195566 0 244 -0.195566 1
gene 1 39 32 -0.00150523 0 252 -0.00150523 1
genomeend 949
genomestart 950
trait 1 0.0157713 0.176488 0.063161 0.0576246 0.778681 0 0.519344 0.547172 
node 1 1 1 1 0
node 2 1 1 1 0
node 3 1 1 1 0
node 4 1 1 1 0
node 5 1 1 1 0
node 6 1 1 1 0
node 7 1 1 1 0
node 8 1 1 1 0
node 9 1 1 1 0
node 10 1 1 1 0
node 11 1 1 1 0
node 12 1 1 1 0
node 13 1 1 1 0
node 14 1 1 1 0
node 15 1 1 1 0
node 16 1 1 1 0
node 17 1 1 1 0
node 18 1 1 1 0
node 19 1 1 3 0
node 20 1 0 2 0
node 21 1 0 2 0
node 22 1 0 2 0
node 23 1 0 2 0
node 24 1 0 0 0
node 26 1 0 0 0
node 28 1 0 0 0
node 32 1 0 0 0
node 37 1 0 0 0
node 39 1 0 0 0
node 43 1 0 0 0
node 53 1 0 0 0
node 66 1 0 0 0
node 68 1 0 0 0
gene 1 1 20 -0.346447 0 1 -0.346447 1
gene 1 2 20 1.03769 0 2 1.03769 1
gene 1 3 20 -0.293895 0 3 -0.293895 1
gene 1 4 20 1.4762 0 4 1.4762 1
gene 1 5 20 0.530981 0 5 0.530981 1
gene 1 6 20 -0.105535 0 6 -0.105535 1
gene 1 7 20 -1.80439 0 7 -1.80439 1
gene 1 8 20 0.967248 0 8 0.967248 1
gene 1 9 20 0.742295 0 9 0.742295 1
gene 1 10 20 -0.208383 0 10 -0.208383 0
gene 1 11 20 0.266694 0 11 0.266694 1
gene 1 12 20 2.54228 0 12 2.54228 1
gene 1 13 20 0.878543 0 13 0.878543 1
gene 1 14 20 -0.726638 0 14 -0.726638 1
gene 1 15 20 -0.871122 0 15 -0.871122 1
gene 1 16 20 0.571211 0 16 0.571211 1
gene 1 17 20 0.207046 0 17 0.207046 1
gene 1 18 20 0.624367 0 18 0.624367 1
gene 1 19 20 0.642949 0 19 0.642949 1
gene 1 1 21 -0.523393 0 20 -0.523393 1
gene 1 2 21 1.56599 0 21 1.56599 1
gene 1 3 21 -0.783518 0 22 -0.783518 1
gene 1 4 21 -0.0229372 0 23 -0.0229372 1
gene 1 5 21 -1.15179 0 24 -1.15179 1
gene 1 6 21 -0.42533 0 25 -0.42533 1
gene 1 7 21 -0.192892 0 26 -0.192892 1
gene 1 8 21 -0.577389 0 27 -0.577389 1
gene 1 9 21 -1.51469 0 28 -1.51469 1
gene 1 10 21 -1.67788 0 29 -1.67788 1
gene 1 11 21 0.190205 0 30 0.190205 1
gene 1 12 21 1.3986 0 31 1.3986 1
gene 1 13 21 0.178299 0 32 0.178299 0
gene 1 14 21 -0.647986 0 33 -0.647986 1
gene 1 15 21 0.11687 0 34 0.11687 0
gene 1 16 21 -0.331081 0 35 -0.331081 1
gene 1 17 21 -0.21002 0 36 -0.21002 1
gene 1 18 21 -0.359209 0 37 -0.359209 1
gene 1 19 21 -0.426544 0 38 -0.426544 1
gene 1 1 22 1.14202 0 39 1.14202 1
gene 1 2 22 0.232983 0 40 0.232983 1
gene 1 3 22 0.900666 0 41 0.900666 1
gene 1 4 22 0.908786 0 42 0.908786 1
gene 1 5 22 0.546769 0 43 0.546769 1
gene 1 6 22 -0.556141 0 44 -0.556141 0
gene 1 7 22 1.27557 0 45 1.27557 1
gene 1 8 22 1.24395 0 46 1.24395 0
gene 1 9 22 0.523627 0 47 0.523627 1
gene 1 10 22 0.464653 0 48 0.464653 1
gene 1 11 22 -0.0900241 0 49 -0.0900241 1
gene 1 12 22 0.174584 0 50 0.174584 1
gene 1 13 22 -0.306263 0 51 -0.306263 1
gene 1 14 22 -0.344482 0 52 -0.344482 1
gene 1 15 22 0.817678 0 53 0.817678 1
gene 1 16 22 2.0422 0 54 2.0422 1
gene 1 17 22 0.483351 0 55 0.483351 1
gene 1 18 22 0.8792 0 56 0.8792 1
gene 1 19 22 -0.247326 0 57 -0.247326 1
gene 1 1 23 -0.443484 0 58 -0.443484 1
gene 1 2 23 -0.546729 0 59 -0.546729 1
gene 1 3 23 -0.290624 0 60 -0.290624 1
gene 1 4 23 -0.952798 0 61 -0.952798 1
gene 1 5 23 0.213874 0 62 0.213874 1
gene 1 6 23 0.606546 0 63 0.606546 1
gene 1 7 23 -0.333301 0 64 -0.333301 1
gene 1 8 23 -0.286122 0 65 -0.286122 1
gene 1 9 23 -0.451185 0 66 -0.451185 1
gene 1 10 23 0.814593 0 67 0.814593 1
gene 1 11 23 -0.650531 0 68 -0.650531 1
gene 1 12 23 0.423647 0 69 0.423647 1
gene 1 13 23 0.107731 0 70 0.107731 1
gene 1 14 23 0.150687 0 71 0.150687 1
gene 1 15 23 -0.890262 0 72 -0.890262 1
gene 1 16 23 0.0408302 0 73 0.0408302 1
gene 1 17 23 -1.45592 0 74 -1.45592 0
gene 1 18 23 -0.526938 0 75 -0.526938 1
gene 1 19 23 -0.48255 0 76 -0.48255 1
gene 1 8 24 -0.255283 0 77 -0.255283 1
gene 1 24 20 1.33618 0 78 1.33618 1
gene 1 15 26 0.732151 0 85 0.732151 1
gene 1 26 20 0.169286 0 86 0.169286 1
gene 1 22 20 2.73342 0 87 2.73342 1
gene 1 2 24 -0.117398 0 91 -0.117398 1
gene 1 8 28 1.07394 0 93 1.07394 1
gene 1 28 24 0.0730162 0 94 0.0730162 1
gene 1 6 24 0.246094 0 96 0.246094 1
gene 1 16 26 -0.15278 0 99 -0.15278 1
gene 1 13 24 0.308981 0 100 0.308981 1
gene 1 23 24 0.160943 0 113 0.160943 1
gene 1 13 32 -0.988419 0 116 -0.988419 1
gene 1 32 21 0.38211 0 117 0.38211 1
gene 1 10 37 0.0710195 0 129 0.0710195 1
gene 1 37 20 -0.139686 0 130 -0.139686 1
gene 1 17 39 -0.840247 0 134 -0.840247 1
gene 1 39 23 -0.532619 0 135 -0.532619 1
gene 1 15 43 -0.477486 0 150 -0.477486 1
gene 1 43 21 -1.05954 0 151 -1.05954 1
gene 1 3 43 0.2415 0 153 0.2415 1
gene 1 8 32 0.0640356 0 154 0.0640356 1
gene 1 2 39 0.235559 0 178 0.235559 1
gene 1 6 53 0.0516049 0 191 0.0516049 1
gene 1 53 22 0.642495 0 192 0.642495 1
gene 1 8 66 0.258061 0 237 0.258061 1
gene 1 66 22 -0.325042 0 238 -0.325042 1
gene 1 18 68 0.839472 0 243 0.839472 1
gene 1 68 21 -0.0965382 0 244 -0.0965382 1
gene 1 39 32 0.761495 0 252 0.761495 1
genomeend 950
genomestart 951
trait 1 0 0.0791226 0 0 0.561468 0 0 0.180984 
node 1 1 1 1 0
node 2 1 1 1 0
node 3 1 1 1 0
node 4 1 1 1 0
node 5 1 1 1 0
node 6 1 1 1 0
node 7 1 1 1 0
node 8 1 1 1 0
node 9 1 1 1 0
node 10 1 1 1 0
node 11 1 1 1 0
node 12 1 1 1 0
node 13 1 1 1 0
node 14 1 1 1 0
node 15 1 1 1 0
node 16 1 1 1 0
node 17 1 1 1 0
node 18 1 1 1 0
node 19 1 1 3 0
node 20 1 0 2 0
node 21 1 0 2 0
node 22 1 0 2 0
node 23 1 0 2 0
node 24 1 0 0 0
node 26 1 0 0 0
node 28 1 0 0 0
node 32 1 0 0 0
node 37 1 0 0 0
node 39 1 0 0 0
node 43 1 0 0 0
node 53 1 0 0 0
node 68 1 0 0 0
node 70 1 0 0 0
gene 1 1 20 -0.0952661 0 1 -0.0952661 1
gene 1 2 20 -0.978556 0 2 -0.978556 1
gene 1 3 20 0.727638 0 3 0.727638 1
gene 1 4 20 -0.167718 0 4 -0.167718 1
gene 1 5 20 0.533042 0 5 0.533042 1
gene 1 6 20 1.20817 0 6 1.20817 1
gene 1 7 20 1.18464 0 7 1.18464 1
gene 1 8 20 0.602201 0 8 0.602201 1
gene 1 9 20 0.181737 0 9 0.181737 1
gene 1 10 20 1.22895 0 10 1.22895 1
gene 1 11 20 0.333885 0 11 0.333885 1
gene 1 12 20 2.57704 0 12 2.57704 1
gene 1 13 20 1.04698 0 13 1.04698 1
gene 1 14 20 -1.42011 0 14 -1.42011 1
gene 1 15 20 0.767455 0 15 0.767455 1
gene 1 16 20 1.24071 0 16 1.24071 1
gene 1 17 20 -0.0685497 0 17 -0.0685497 1
gene 1 18 20 0.595382 0 18 0.595382 0
gene 1 19 20 0.345845 0 19 0.345845 1
gene 1 1 21 0.532902 0 20 0.532902 1
gene 1 2 21 0.387998 0 21 0.387998 1
gene 1 3 21 -1.29793 0 22 -1.29793 1
gene 1 4 21 1.31558 0 23 1.31558 1
gene 1 5 21 1.01016 0 24 1.01016 1
gene 1 6 21 -1.1618 0 25 -1.1618 1
gene 1 7 21 0.411702 0 26 0.411702 1
gene 1 8 21 -0.631197 0 27 -0.631197 1
gene 1 9 21 -1.08487 0 28 -1.08487 1
gene 1 10 21 -0.424758 0 29 -0.424758 1
gene 1 11 21 1.68962 0 30 1.68962 1
gene 1 12 21 0.988969 0 31 0.988969 1
gene 1 13 21 -1.48959 0 32 -1.48959 0
gene 1 14 21 -2.24152 0 33 -2.24152 1
gene 1 15 21 1.81433 0 34 1.81433 0
gene 1 16 21 -0.336043 0 35 -0.336043 1
gene 1 17 21 -0.625346 0 36 -0.625346 1
gene 1 18 21 -0.406624 0 37 -0.406624 0
gene 1 19 21 0.0163602 0 38 0.0163602 1
gene 1 1 22 0.783956 0 39 0.783956 1
gene 1 2 22 -0.67836 0 40 -0.67836 1
gene 1 3 22 2.29615 0 41 2.29615 1
gene 1 4 22 0.581318 0 42 0.581318 1
gene 1 5 22 0.710978 0 43 0.710978 1
gene 1 6 22 0.802688 0 44 0.802688 1
gene 1 7 22 0.969661 0 45 0.969661 1
gene 1 8 22 -1.27795 0 46 -1.27795 1
gene 1 9 22 0.610342 0 47 0.610342 1
gene 1 10 22 -0.207874 0 48 -0.207874 1
gene 1 11 22 0.843703 0 49 0.843703 1
gene 1 12 22 0.231873 0 50 0.231873 1
gene 1 13 22 1.18686 0 51 1.18686 1
gene 1 14 22 -0.236656 0 52 -0.236656 1
gene 1 15 22 1.62254 0 53 1.62254 1
gene 1 16 22 0.34969 0 54 0.34969 1
gene 1 17 22 1.41256 0 55 1.41256 1
gene 1 18 22 0.362746 0 56 0.362746 1
gene 1 19 22 0.343412 0 57 0.343412 1
gene 1 1 23 0.518629 0 58 0.518629 1
gene 1 2 23 -0.70595 0 59 -0.70595 1
gene 1 3 23 -3 0 60 -3 1
gene 1 4 23 -0.490536 0 61 -0.490536 1
gene 1 5 23 -0.688109 0 62 -0.688109 1
gene 1 6 23 0.957512 0 63 0.957512 1
gene 1 7 23 -0.661511 0 64 -0.661511 1
gene 1 8 23 0.566277 0 65 0.566277 1
gene 1 9 23 0.635564 0 66 0.635564 1
gene 1 10 23 0.553647 0 67 0.553647 1
gene 1 11 23 0.186538 0 68 0.186538 1
gene 1 12 23 0.626653 0 69 0.626653 1
gene 1 13 23 0.647036 0 70 0.647036 1
gene 1 14 23 -0.669455 0 71 -0.669455 1
gene 1 15 23 0.941231 0 72 0.941231 1
gene 1 16 23 -1.42901 0 73 -1.42901 1
gene 1 17 23 -2.50857 0 74 -2.50857 1
gene 1 18 23 1.33157 0 75 1.33157 1
gene 1 19 23 -0.857022 0 76 -0.857022 1
gene 1 8 24 -1.18026 0 77 -1.18026 1
gene 1 24 20 1.21918 0 78 1.21918 1
gene 1 15 26 1.29665 0 85 1.29665 1
gene 1 26 20 0.753354 0 86 0.753354 1
gene 1 22 20 3 0 87 3 1
gene 1 2 24 -0.843595 0 91 -0.843595 1
gene 1 8 28 -0.20771 0 93 -0.20771 1
gene 1 28 24 -1.68658 0 94 -1.68658 1
gene 1 6 24 -0.105518 0 96 -0.105518 1
gene 1 16 26 0.452007 0 99 0.452007 1
gene 1 13 24 0.297561 0 100 0.297561 1
gene 1 23 24 0.273557 0 113 0.273557 1
gene 1 13 32 0.1213 0 116 0.1213 1
gene 1 32 21 -1.60219 0 117 -1.60219 1
gene 1 10 37 -0.189943 0 129 -0.189943 1
gene 1 37 20 -0.182455 0 130 -0.182455 1
gene 1 17 39 0.576151 0 134 0.576151 1
gene 1 39 23 0.513606 0 135 0.513606 1
gene 1 15 43 0.410576 0 150 0.410576 1
gene 1 43 21 -0.432992 0 151 -0.432992 1
gene 1 3 43 0.472766 0 153 0.472766 1
gene 1 8 32 0.32479 0 154 0.32479 1
gene 1 2 39 0.262415 0 178 0.262415 1
gene 1 6 53 -0.0191921 0 191 -0.0191921 1
gene 1 53 22 0.0409287 0 192 0.0409287 1
gene 1 18 68 1.8158 0 243 1.8158 1
gene 1 68 21 -0.579335 0 244 -0.579335 1
gene 1 18 70 -0.469423 0 247 -0.469423 1
gene 1 70 20 0.0417483 0 248 0.0417483 1
genomeend 951
genomestart 952
trait 1 0 0.214542 0.626245 0.519469 1 0 0.429468 0.314457 
node 1 1 1 1 0
node 2 1 1 1 0
node 3 1 1 1 0
node 4 1 1 1 0
node 5 1 1 1 0
node 6 1 1 1 0
node 7 1 1 1 0
node 8 1 1 1 0
node 9 1 1 1 0
node 10 1 1 1 0
node 11 1 1 1 0
node 12 1 1 1 0
node 13 1 1 1 0
node 14 1 1 1 0
node 15 1 1 1 0
node 16 1 1 1 0
node 17 1 1 1 0
node 18 1 1 1 0
node 19 1 1 3 0
node 20 1 0 2 0
node 21 1 0 2 0
node 22 1 0 2 0
node 23 1 0 2 0
node 24 1 0 0 0
node 26 1 0 0 0
node 28 1 0 0 0
node 32 1 0 0 0
node 37 1 0 0 0
node 39 1 0 0 0
node 43 1 0 0 0
node 53 1 0 0 0
node 61 1 0 0 0
node 66 1 0 0 0
gene 1 1 20 -0.0219135 0 1 -0.0219135 1
gene 1 2 20 0.403364 0 2 0.403364 1
gene 1 3 20 0.489605 0 3 0.489605 1
gene 1 4 20 1.34181 0 4 1.34181 1
gene 1 5 20 0.0777964 0 5 0.0777964 1
gene 1 6 20 0.463395 0 6 0.463395 1
gene 1 7 20 -0.940106 0 7 -0.940106 1
gene 1 8 20 -0.344419 0 8 -0.344419 1
gene 1 9 20 -0.0129851 0 9 -0.0129851 1
gene 1 10 20 -0.0135903 0 10 -0.0135903 1
gene 1 11 20 -0.528501 0 11 -0.528501 1
gene 1 12 20 2.85763 0 12 2.85763 1
gene 1 13 20 -0.209292 0 13 -0.209292 1
gene 1 14 20 0.323309 0 14 0.323309 1
gene 1 15 20 0.159733 0 15 0.159733 1
gene 1 16 20 0.73208 0 16 0.73208 1
gene 1 17 20 0.704287 0 17 0.704287 1
gene 1 18 20 -0.478408 0 18 -0.478408 1
gene 1 19 20 -0.480963 0 19 -0.480963 1
gene 1 1 21 0.247794 0 20 0.247794 1
gene 1 2 21 1.63732 0 21 1.63732 1
gene 1 3 21 -0.062868 0 22 -0.062868 1
gene 1 4 21 0.256911 0 23 0.256911 1
gene 1 5 21 -0.386617 0 24 -0.386617 1
gene 1 6 21 0.197901 0 25 0.197901 1
gene 1 7 21 0.641037 0 26 0.641037 1
gene 1 8 21 -0.316538 0 27 -0.316538 1
gene 1 9 21 -0.701738 0 28 -0.701738 1
gene 1 10 21 0.35962 0 29 0.35962 1
gene 1 11 21 -0.36751 0 30 -0.36751 1
gene 1 12 21 0.252089 0 31 0.252089 1
gene 1 13 21 -1.09638 0 32 -1.09638 0
gene 1 14 21 -1.80513 0 33 -1.80513 1
gene 1 15 21 0.430279 0 34 0.430279 0
gene 1 16 21 0.90247 0 35 0.90247 1
gene 1 17 21 -0.928525 0 36 -0.928525 1
gene 1 18 21 0.350624 0 37 0.350624 1
gene 1 19 21 -1.11705 0 38 -1.11705 1
gene 1 1 22 -1.91244 0 39 -1.91244 1
gene 1 2 22 0.782637 0 40 0.782637 1
gene 1 3 22 -0.35565 0 41 -0.35565 1
gene 1 4 22 -0.028883 0 42 -0.028883 1
gene 1 5 22 0.210829 0 43 0.210829 1
gene 1 6 22 -0.402018 0 44 -0.402018 1
gene 1 7 22 1.04812 0 45 1.04812 1
gene 1 8 22 0.520437 0 46 0.520437 1
gene 1 9 22 -0.475144 0 47 -0.475144 1
gene 1 10 22 -0.609586 0 48 -0.609586 1
gene 1 11 22 0.130243 0 49 0.130243 1
gene 1 12 22 -1.54539 0 50 -1.54539 1
gene 1 13 22 0.368787 0 51 0.368787 1
gene 1 14 22 0.598713 0 52 0.598713 1
gene 1 15 22 0.763128 0 53 0.763128 1
gene 1 16 22 0.4231 0 54 0.4231 1
gene 1 17 22 1.11555 0 55 1.11555 1
gene 1 18 22 0.987188 0 56 0.987188 1
gene 1 19 22 0.150982 0 57 0.150982 1
gene 1 1 23 0.419669 0 58 0.419669 1
gene 1 2 23 -1.32023 0 59 -1.32023 1
gene 1 3 23 0.0987269 0 60 0.0987269 1
gene 1 4 23 -0.83956 0 61 -0.83956 1
gene 1 5 23 0.576938 0 62 0.576938 1
gene 1 6 23 0.356631 0 63 0.356631 1
gene 1 7 23 -0.018406 0 64 -0.018406 1
gene 1 8 23 -0.232133 0 65 -0.232133 1
gene 1 9 23 0.273139 0 66 0.273139 1
gene 1 10 23 1.18054 0 67 1.18054 1
gene 1 11 23 -2.89681 0 68 -2.89681 1
gene 1 12 23 -3 0 69 -3 1
gene 1 13 23 -1.01673 0 70 -1.01673 1
gene 1 14 23 -0.0191881 0 71 -0.0191881 1
gene 1 15 23 -0.472222 0 72 -0.472222 1
gene 1 16 23 1.34651 0 73 1.34651 1
gene 1 17 23 -0.872622 0 74 -0.872622 0
gene 1 18 23 2.78522 0 75 2.78522 1
gene 1 19 23 -2.2735 0 76 -2.2735 1
gene 1 8 24 -0.836173 0 77 -0.836173 1
gene 1 24 20 1.2518 0 78 1.2518 1
gene 1 15 26 1.33316 0 85 1.33316 1
gene 1 26 20 0.0596607 0 86 0.0596607 1
gene 1 22 20 2.52234 0 87 2.52234 1
gene 1 2 24 -0.138679 0 91 -0.138679 1
gene 1 8 28 1.25667 0 93 1.25667 1
gene 1 28 24 -0.214391 0 94 -0.214391 1
gene 1 6 24 -0.133806 0 96 -0.133806 1
gene 1 16 26 0.198605 0 99 0.198605 1
gene 1 13 24 0.059041 0 100 0.059041 1
gene 1 23 24 -0.480846 0 113 -0.480846 1
gene 1 13 32 -0.130012 0 116 -0.130012 1
gene 1 32 21 -0.0960529 0 117 -0.0960529 1
gene 1 10 37 0.251116 0 129 0.251116 1
gene 1 37 20 1.19501 0 130 1.19501 1
gene 1 17 39 -0.275592 0 134 -0.275592 1
gene 1 39 23 -0.403677 0 135 -0.403677 1
gene 1 15 43 -0.00885831 0 150 -0.00885831 1
gene 1 43 21 -0.172384 0 151 -0.172384 1
gene 1 3 43 -0.255069 0 153 -0.255069 1
gene 1 8 32 0.750929 0 154 0.750929 1
gene 1 2 39 0.348707 0 178 0.348707 1
gene 1 6 53 -0.55904 0 191 -0.55904 1
gene 1 53 22 0.554689 0 192 0.554689 1
gene 1 2 61 0.0636905 0 221 0.0636905 1
gene 1 61 24 0.0772229 0 222 0.0772229 1
gene 1 8 66 0.00610101 0 237 0.00610101 1
gene 1 66 22 0.0991326 0 238 0.0991326 1
gene 1 28 23 0.892332 0 253 0.892332 1
genomeend 952
genomestart 959
trait 1 0 0.214542 0.626245 0.519469 1 0 0.429468 0.314457 
node 1 1 1 1 0
node 2 1 1 1 0
node 3 1 1 1 0
node 4 1 1 1 0
node 5 1 1 1 0
node 6 1 1 1 0
node 7 1 1 1 0
node 8 1 1 1 0
node 9 1 1 1 0
node 10 1 1 1 0
node 11 1 1 1 0
node 12 1 1 1 0
node 13 1 1 1 0
node 14 1 1 1 0
node 15 1 1 1 0
node 16 1 1 1 0
node 17 1 1 1 0
node 18 1 1 1 0
node 19 1 1 3 0
node 20 1 0 2 0
node 21 1 0 2 0
node 22 1 0 2 0
node 23 1 0 2 0
node 24 1 0 0 0
node 26 1 0 0 0
node 28 1 0 0 0
node 32 1 0 0 0
node 37 1 0 0 0
node 39 1 0 0 0
node 43 1 0 0 0
node 53 1 0 0 0
node 61 1 0 0 0
node 66 1 0 0 0
gene 1 1 20 -0.0725861 0 1 -0.0725861 1
gene 1 2 20 0.0295122 0 2 0.0295122 1
gene 1 3 20 0.4088 0 3 0.4088 1
gene 1 4 20 1.41818 0 4 1.41818 1
gene 1 5 20 0.162193 0 5 0.162193 1
gene 1 6 20 0.136049 0 6 0.136049 1
gene 1 7 20 -1.06774 0 7 -1.06774 1
gene 1 8 20 -0.281565 0 8 -0.281565 1
gene 1 9 20 -0.137444 0 9 -0.137444 1
gene 1 10 20 -0.200989 0 10 -0.200989 1
gene 1 11 20 -0.55264 0 11 -0.55264 1
gene 1 12 20 3 0 12 3 1
gene 1 13 20 -0.0980872 0 13 -0.0980872 1
gene 1 14 20 0.527484 0 14 0.527484 1
gene 1 15 20 0.470038 0 15 0.470038 1
gene 1 16 20 0.738816 0 16 0.738816 1
gene 1 17 20 1.08705 0 17 1.08705 1
gene 1 18 20 -0.379639 0 18 -0.379639 1
gene 1 19 20 -0.602759 0 19 -0.602759 1
gene 1 1 21 0.597967 0 20 0.597967 1
gene 1 2 21 1.57041 0 21 1.57041 1
gene 1 3 21 -0.312712 0 22 -0.312712 1
gene 1 4 21 -0.123236 0 23 -0.123236 1
gene 1 5 21 -0.158062 0 24 -0.158062 1
gene 1 6 21 0.0207792 0 25 0.0207792 1
gene 1 7 21 0.512109 0 26 0.512109 1
gene 1 8 21 -0.177312 0 27 -0.177312 1
gene 1 9 21 -1.29374 0 28 -1.29374 1
gene 1 10 21 0.247152 0 29 0.247152 1
gene 1 11 21 -0.433034 0 30 -0.433034 1
gene 1 12 21 -0.378911 0 31 -0.378911 1
gene 1 13 21 -0.944009 0 32 -0.944009 0
gene 1 14 21 -1.60066 0 33 -1.60066 1
gene 1 15 21 0.395622 0 34 0.395622 0
gene 1 16 21 1.63964 0 35 1.63964 1
gene 1 17 21 -0.677494 0 36 -0.677494 1
gene 1 18 21 -0.254134 0 37 -0.254134 1
gene 1 19 21 -0.737741 0 38 -0.737741 1
gene 1 1 22 -1.48967 0 39 -1.48967 1
gene 1 2 22 0.749273 0 40 0.749273 1
gene 1 3 22 0.473262 0 41 0.473262 1
gene 1 4 22 -0.241697 0 42 -0.241697 1
gene 1 5 22 0.140508 0 43 0.140508 1
gene 1 6 22 -0.331658 0 44 -0.331658 1
gene 1 7 22 1.09753 0 45 1.09753 1
gene 1 8 22 0.673257 0 46 0.673257 1
gene 1 9 22 -0.73827 0 47 -0.73827 1
gene 1 10 22 -0.316736 0 48 -0.316736 1
gene 1 11 22 0.16603 0 49 0.16603 1
gene 1 12 22 -1.78459 0 50 -1.78459 1
gene 1 13 22 0.312198 0 51 0.312198 1
gene 1 14 22 0.47041 0 52 0.47041 1
gene 1 15 22 0.583324 0 53 0.583324 1
gene 1 16 22 0.276112 0 54 0.276112 1
gene 1 17 22 1.03589 0 55 1.03589 1
gene 1 18 22 -0.221805 0 56 -0.221805 1
gene 1 19 22 0.158344 0 57 0.158344 1
gene 1 1 23 0.320129 0 58 0.320129 1
gene 1 2 23 -1.21234 0 59 -1.21234 1
gene 1 3 23 -0.052672 0 60 -0.052672 1
gene 1 4 23 -0.944885 0 61 -0.944885 1
gene 1 5 23 -0.0566663 0 62 -0.0566663 1
gene 1 6 23 0.843512 0 63 0.843512 1
gene 1 7 23 0.114929 0 64 0.114929 1
gene 1 8 23 -0.416626 0 65 -0.416626 1
gene 1 9 23 0.597933 0 66 0.597933 1
gene 1 10 23 1.019 0 67 1.019 1
gene 1 11 23 -3 0 68 -3 1
gene 1 12 23 -2.80994 0 69 -2.80994 1
gene 1 13 23 -1.13704 0 70 -1.13704 1
gene 1 14 23 0.208824 0 71 0.208824 1
gene 1 15 23 -1.31822 0 72 -1.31822 1
gene 1 16 23 1.40912 0 73 1.40912 1
gene 1 17 23 -1.18223 0 74 -1.18223 0
gene 1 18 23 2.58931 0 75 2.58931 1
gene 1 19 23 -2.09827 0 76 -2.09827 1
gene 1 8 24 -0.792084 0 77 -0.792084 1
gene 1 24 20 1.12574 0 78 1.12574 1
gene 1 15 26 1.43473 0 85 1.43473 1
gene 1 26 20 0.0606431 0 86 0.0606431 1
gene 1 22 20 2.88343 0 87 2.88343 1
gene 1 2 24 -0.483385 0 91 -0.483385 1
gene 1 8 28 1.26219 0 93 1.26219 1
gene 1 28 24 -0.25415 0 94 -0.25415 1
gene 1 6 24 -0.395433 0 96 -0.395433 1
gene 1 16 26 0.757234 0 99 0.757234 1
gene 1 13 24 0.376372 0 100 0.376372 1
gene 1 23 24 0.238888 0 113 0.238888 1
gene 1 13 32 -0.12208 0 116 -0.12208 1
gene 1 32 21 -0.0664387 0 117 -0.0664387 1
gene 1 10 37 0.0855179 0 129 0.0855179 1
gene 1 37 20 1.15376 0 130 1.15376 1
gene 1 17 39 -0.27437 0 134 -0.27437 1
gene 1 39 23 0.0953576 0 135 0.0953576 1
gene 1 15 43 0.0305969 0 150 0.0305969 1
gene 1 43 21 0.111733 0 151 0.111733 1
gene 1 3 43 -0.459735 0 153 -0.459735 1
gene 1 8 32 0.705126 0 154 0.705126 1
gene 1 2 39 0.526278 0 178 0.526278 1
gene 1 6 53 -0.560854 0 191 -0.560854 1
gene 1 53 22 0.508336 0 192 0.508336 1
gene 1 2 61 0.624442 0 221 0.624442 1
gene 1 61 24 0.169144 0 222 0.169144 1
gene 1 8 66 -0.683398 0 237 -0.683398 1
gene 1 66 22 0.480847 0 238 0.480847 1
gene 1 28 23 0.256807 0 253 0.256807 1
gene 1 39 37 0.951163 0 285 0.951163 1
genomeend 959
genomestart 963
trait 1 0 0.0791226 0 0 0.561468 0 0 0.180984 
node 1 1 1 1 0
node 2 1 1 1 0
node 3 1 1 1 0
node 4 1 1 1 0
node 5 1 1 1 0
node 6 1 1 1 0
node 7 1 1 1 0
node 8 1 1 1 0
node 9 1 1 1 0
node 10 1 1 1 0
node 11 1 1 1 0
node 12 1 1 1 0
node 13 1 1 1 0
node 14 1 1 1 0
node 15 1 1 1 0
node 16 1 1 1 0
node 17 1 1 1 0
node 18 1 1 1 0
node 19 1 1 3 0
node 20 1 0 2 0
node 21 1 0 2 0
node 22 1 0 2 0
node 23 1 0 2 0
node 24 1 0 0 0
node 26 1 0 0 0
node 28 1 0 0 0
node 32 1 0 0 0
node 37 1 0 0 0
node 39 1 0 0 0
node 43 1 0 0 0
node 53 1 0 0 0
node 68 1 0 0 0
node 70 1 0 0 0
gene 1 1 20 0.824309 0 1 0.824309 1
gene 1 2 20 -0.446644 0 2 -0.446644 1
gene 1 3 20 1.98789 0 3 1.98789 1
gene 1 4 20 0.174446 0 4 0.174446 1
gene 1 5 20 -0.118044 0 5 -0.118044 1
gene 1 6 20 0.454273 0 6 0.454273 1
gene 1 7 20 1.20407 0 7 1.20407 1
gene 1 8 20 0.319014 0 8 0.319014 1
gene 1 9 20 0.525887 0 9 0.525887 1
gene 1 10 20 1.60553 0 10 1.60553 1
gene 1 11 20 0.266382 0 11 0.266382 1
gene 1 12 20 2.36313 0 12 2.36313 1
gene 1 13 20 0.683924 0 13 0.683924 1
gene 1 14 20 -0.864955 0 14 -0.864955 1
gene 1 15 20 0.7599 0 15 0.7599 1
gene 1 16 20 0.245565 0 16 0.245565 1
gene 1 17 20 0.0723894 0 17 0.0723894 1
gene 1 18 20 1.37243 0 18 1.37243 0
gene 1 19 20 0.620721 0 19 0.620721 1
gene 1 1 21 0.122249 0 20 0.122249 1
gene 1 2 21 0.486741 0 21 0.486741 1
gene 1 3 21 -0.385882 0 22 -0.385882 1
gene 1 4 21 -0.0225747 0 23 -0.0225747 1
gene 1 5 21 -0.00344627 0 24 -0.00344627 1
gene 1 6 21 -0.604042 0 25 -0.604042 1
gene 1 7 21 0.20587 0 26 0.20587 1
gene 1 8 21 -0.361998 0 27 -0.361998 1
gene 1 9 21 -1.39844 0 28 -1.39844 1
gene 1 10 21 -1.40748 0 29 -1.40748 1
gene 1 11 21 1.17673 0 30 1.17673 1
gene 1 12 21 1.46867 0 31 1.46867 1
gene 1 13 21 -1.45157 0 32 -1.45157 0
gene 1 14 21 -2.84435 0 33 -2.84435 1
gene 1 15 21 0.901947 0 34 0.901947 0
gene 1 16 21 -0.457611 0 35 -0.457611 1
gene 1 17 21 -0.052419 0 36 -0.052419 1
gene 1 18 21 0.415793 0 37 0.415793 0
gene 1 19 21 -0.596721 0 38 -0.596721 1
gene 1 1 22 0.232901 0 39 0.232901 1
gene 1 2 22 -1.04618 0 40 -1.04618 1
gene 1 3 22 2.34408 0 41 2.34408 1
gene 1 4 22 0.566194 0 42 0.566194 1
gene 1 5 22 -0.371459 0 43 -0.371459 1
gene 1 6 22 1.33758 0 44 1.33758 1
gene 1 7 22 1.47175 0 45 1.47175 1
gene 1 8 22 -0.858579 0 46 -0.858579 1
gene 1 9 22 1.39925 0 47 1.39925 1
gene 1 10 22 0.0701093 0 48 0.0701093 1
gene 1 11 22 0.418591 0 49 0.418591 1
gene 1 12 22 0.867142 0 50 0.867142 1
gene 1 13 22 0.690365 0 51 0.690365 1
gene 1 14 22 0.0573444 0 52 0.0573444 1
gene 1 15 22 1.01635 0 53 1.01635 1
gene 1 16 22 0.961341 0 54 0.961341 1
gene 1 17 22 0.96016 0 55 0.96016 1
gene 1 18 22 0.00604205 0 56 0.00604205 1
gene 1 19 22 0.2921 0 57 0.2921 1
gene 1 1 23 0.568572 0 58 0.568572 1
gene 1 2 23 -0.373995 0 59 -0.373995 1
gene 1 3 23 -2.24783 0 60 -2.24783 1
gene 1 4 23 -0.372055 0 61 -0.372055 1
gene 1 5 23 0.0267934 0 62 0.0267934 1
gene 1 6 23 0.734258 0 63 0.734258 1
gene 1 7 23 -0.805217 0 64 -0.805217 1
gene 1 8 23 0.672307 0 65 0.672307 1
gene 1 9 23 -1.26298 0 66 -1.26298 1
gene 1 10 23 0.507821 0 67 0.507821 1
gene 1 11 23 0.0012397 0 68 0.0012397 1
gene 1 12 23 1.67436 0 69 1.67436 1
gene 1 13 23 1.30745 0 70 1.30745 1
gene 1 14 23 -0.594927 0 71 -0.594927 1
gene 1 15 23 0.54657 0 72 0.54657 1
gene 1 16 23 -1.69519 0 73 -1.69519 1
gene 1 17 23 -1.47752 0 74 -1.47752 1
gene 1 18 23 0.558615 0 75 0.558615 1
gene 1 19 23 -0.318841 0 76 -0.318841 1
gene 1 8 24 -0.816812 0 77 -0.816812 1
gene 1 24 20 0.61915 0 78 0.61915 1
gene 1 15 26 1.54548 0 85 1.54548 1
gene 1 26 20 -0.0934688 0 86 -0.0934688 1
gene 1 22 20 2.84778 0 87 2.84778 1
gene 1 2 24 -0.0603641 0 91 -0.0603641 1
gene 1 8 28 -0.0321545 0 93 -0.0321545 1
gene 1 28 24 -1.71545 0 94 -1.71545 1
gene 1 6 24 0.581559 0 96 0.581559 1
gene 1 16 26 -1.22209 0 99 -1.22209 1
gene 1 13 24 0.57459 0 100 0.57459 1
gene 1 23 24 0.143182 0 113 0.143182 1
gene 1 13 32 0.452669 0 116 0.452669 1
gene 1 32 21 -1.89355 0 117 -1.89355 1
gene 1 10 37 -0.110489 0 129 -0.110489 1
gene 1 37 20 0.282252 0 130 0.282252 1
gene 1 17 39 -0.357778 0 134 -0.357778 1
gene 1 39 23 0.560098 0 135 0.560098 1
gene 1 15 43 0.593294 0 150 0.593294 1
gene 1 43 21 0.47407 0 151 0.47407 1
gene 1 3 43 0.0980621 0 153 0.0980621 1
gene 1 8 32 -0.737007 0 154 -0.737007 1
gene 1 2 39 0.490183 0 178 0.490183 1
gene 1 6 53 -0.250335 0 191 -0.250335 1
gene 1 53 22 0.172152 0 192 0.172152 1
gene 1 18 68 1.1256 0 243 1.1256 1
gene 1 68 21 -0.186582 0 244 -0.186582 1
gene 1 18 70 0.98557 0 247 0.98557 1
gene 1 70 20 0.250594 0 248 0.250594 1
genomeend 963
genomestart 967
trait 1 0.0105142 0.143303 0.0448763 0.0384164 0.767708 0 0.471491 0.482285 
node 1 1 1 1 0
node 2 1 1 1 0
node 3 1 1 1 0
node 4 1 1 1 0
node 5 1 1 1 0
node 6 1 1 1 0
node 7 1 1 1 0
node 8 1 1 1 0
node 9 1 1 1 0
node 10 1 1 1 0
node 11 1 1 1 0
node 12 1 1 1 0
node 13 1 1 1 0
node 14 1 1 1 0
node 15 1 1 1 0
node 16 1 1 1 0
node 17 1 1 1 0
node 18 1 1 1 0
node 19 1 1 3 0
node 20 1 0 2 0
node 21 1 0 2 0
node 22 1 0 2 0
node 23 1 0 2 0
node 24 1 0 0 0
node 26 1 0 0 0
node 28 1 0 0 0
node 32 1 0 0 0
node 37 1 0 0 0
node 39 1 0 0 0
node 43 1 0 0 0
node 53 1 0 0 0
node 66 1 0 0 0
node 68 1 0 0 0
gene 1 1 20 0.0184895 0 1 0.0184895 1
gene 1 2 20 0.578676 0 2 0.578676 1
gene 1 3 20 0.133432 0 3 0.133432 1
gene 1 4 20 0.503807 0 4 0.503807 1
gene 1 5 20 0.322109 0 5 0.322109 1
gene 1 6 20 0.211161 0 6 0.211161 1
gene 1 7 20 -1.93521 0 7 -1.93521 1
gene 1 8 20 -0.438511 0 8 -0.438511 1
gene 1 9 20 -0.522478 0 9 -0.522478 1
gene 1 10 20 0.997774 0 10 0.997774 0
gene 1 11 20 0.1687 0 11 0.1687 1
gene 1 12 20 0.136739 0 12 0.136739 1
gene 1 13 20 0.0760541 0 13 0.0760541 1
gene 1 14 20 -0.103807 0 14 -0.103807 1
gene 1 15 20 -0.0182007 0 15 -0.0182007 1
gene 1 16 20 -0.29489 0 16 -0.29489 1
gene 1 17 20 0.520229 0 17 0.520229 1
gene 1 18 20 0.329654 0 18 0.329654 1
gene 1 19 20 0.270915 0 19 0.270915 1
gene 1 1 21 0.42989 0 20 0.42989 1
gene 1 2 21 1.73216 0 21 1.73216 1
gene 1 3 21 -1.03998 0 22 -1.03998 1
gene 1 4 21 0.34223 0 23 0.34223 1
gene 1 5 21 0.510938 0 24 0.510938 1
gene 1 6 21 -0.148592 0 25 -0.148592 1
gene 1 7 21 0.690639 0 26 0.690639 1
gene 1 8 21 -0.122694 0 27 -0.122694 1
gene 1 9 21 -0.138492 0 28 -0.138492 1
gene 1 10 21 -0.327145 0 29 -0.327145 1
gene 1 11 21 -0.0799965 0 30 -0.0799965 1
gene 1 12 21 0.632625 0 31 0.632625 1
gene 1 13 21 -0.331452 0 32 -0.331452 0
gene 1 14 21 0.454503 0 33 0.454503 1
gene 1 15 21 0.42952 0 34 0.42952 0
gene 1 16 21 -0.226293 0 35 -0.226293 1
gene 1 17 21 0.4005 0 36 0.4005 1
gene 1 18 21 -0.287779 0 37 -0.287779 1
gene 1 19 21 -0.370563 0 38 -0.370563 1
gene 1 1 22 -0.71366 0 39 -0.71366 1
gene 1 2 22 -0.598769 0 40 -0.598769 1
gene 1 3 22 0.969732 0 41 0.969732 1
gene 1 4 22 0.725975 0 42 0.725975 1
gene 1 5 22 0.513018 0 43 0.513018 1
gene 1 6 22 -0.24269 0 44 -0.24269 0
gene 1 7 22 1.0245 0 45 1.0245 1
gene 1 8 22 0.285268 0 46 0.285268 0
gene 1 9 22 0.568049 0 47 0.568049 1
gene 1 10 22 0.939965 0 48 0.939965 1
gene 1 11 22 -0.204847 0 49 -0.204847 1
gene 1 12 22 -0.443602 0 50 -0.443602 1
gene 1 13 22 0.307705 0 51 0.307705 1
gene 1 14 22 -0.299789 0 52 -0.299789 1
gene 1 15 22 -0.0587786 0 53 -0.0587786 1
gene 1 16 22 0.381033 0 54 0.381033 1
gene 1 17 22 1.07106 0 55 1.07106 1
gene 1 18 22 0.419942 0 56 0.419942 1
gene 1 19 22 0.137008 0 57 0.137008 1
gene 1 1 23 -0.200065 0 58 -0.200065 1
gene 1 2 23 -0.376599 0 59 -0.376599 1
gene 1 3 23 -1.05375 0 60 -1.05375 1
gene 1 4 23 -1.61393 0 61 -1.61393 1
gene 1 5 23 -0.48264 0 62 -0.48264 1
gene 1 6 23 0.363176 0 63 0.363176 1
gene 1 7 23 0.509277 0 64 0.509277 1
gene 1 8 23 -0.263618 0 65 -0.263618 1
gene 1 9 23 0.590554 0 66 0.590554 1
gene 1 10 23 0.348012 0 67 0.348012 1
gene 1 11 23 -1.65703 0 68 -1.65703 1
gene 1 12 23 -0.742708 0 69 -0.742708 1
gene 1 13 23 -0.78023 0 70 -0.78023 1
gene 1 14 23 0.186858 0 71 0.186858 1
gene 1 15 23 -0.488032 0 72 -0.488032 1
gene 1 16 23 -0.272527 0 73 -0.272527 1
gene 1 17 23 -0.969995 0 74 -0.969995 0
gene 1 18 23 -0.185182 0 75 -0.185182 1
gene 1 19 23 0.386697 0 76 0.386697 1
gene 1 8 24 0.400904 0 77 0.400904 1
gene 1 24 20 1.7121 0 78 1.7121 1
gene 1 15 26 -0.174616 0 85 -0.174616 1
gene 1 26 20 0.408582 0 86 0.408582 1
gene 1 22 20 2.50516 0 87 2.50516 1
gene 1 2 24 0.110611 0 91 0.110611 1
gene 1 8 28 -0.384376 0 93 -0.384376 1
gene 1 28 24 0.678267 0 94 0.678267 1
gene 1 6 24 0.409355 0 96 0.409355 1
gene 1 16 26 -0.200013 0 99 -0.200013 1
gene 1 13 24 -0.935685 0 100 -0.935685 1
gene 1 23 24 0.379117 0 113 0.379117 1
gene 1 13 32 -0.932259 0 116 -0.932259 1
gene 1 32 21 -0.340545 0 117 -0.340545 1
gene 1 10 37 0.816959 0 129 0.816959 1
gene 1 37 20 0.939298 0 130 0.939298 1
gene 1 17 39 -0.616533 0 134 -0.616533 1
gene 1 39 23 -0.925061 0 135 -0.925061 1
gene 1 15 43 -0.9598 0 150 -0.9598 1
gene 1 43 21 -0.300639 0 151 -0.300639 1
gene 1 3 43 0.322444 0 153 0.322444 1
gene 1 8 32 0.233753 0 154 0.233753 1
gene 1 2 39 -0.0362913 0 178 -0.0362913 1
gene 1 6 53 0.185411 0 191 0.185411 1
gene 1 53 22 0.551356 0 192 0.551356 1
gene 1 8 66 1.08853 0 237 1.08853 1
gene 1 66 22 0.103917 0 238 0.103917 1
gene 1 18 68 0.136189 0 243 0.136189 1
gene 1 68 21 -0.659222 0 244 -0.659222 1
gene 1 39 32 0.144699 0 252 0.144699 1
genomeend 967
genomestart 972
trait 1 0 0.214542 0.626245 0.519469 1 0 0.429468 0.314457 
node 1 1 1 1 0
node 2 1 1 1 0
node 3 1 1 1 0
node 4 1 1 1 0
node 5 1 1 1 0
node 6 1 1 1 0
node 7 1 1 1 0
node 8 1 1 1 0
node 9 1 1 1 0
node 10 1 1 1 0
node 11 1 1 1 0
node 12 1 1 1 0
node 13 1 1 1 0
node 14 1 1 1 0
node 15 1 1 1 0
node 16 1 1 1 0
node 17 1 1 1 0
node 18 1 1 1 0
node 19 1 1 3 0
node 20 1 0 2 0
node 21 1 0 2 0
node 22 1 0 2 0
node 23 1 0 2 0
node 24 1 0 0 0
node 26 1 0 0 0
node 28 1 0 0 0
node 32 1 0 0 0
node 37 1 0 0 0
node 39 1 0 0 0
node 43 1 0 0 0
node 53 1 0 0 0
node 61 1 0 0 0
node 66 1 0 0 0
gene 1 1 20 0.328546 0 1 0.328546 1
gene 1 2 20 0.307415 0 2 0.307415 1
gene 1 3 20 0.144685 0 3 0.144685 1
gene 1 4 20 2.10055 0 4 2.10055 1
gene 1 5 20 0.448474 0 5 0.448474 1
gene 1 6 20 0.472754 0 6 0.472754 1
gene 1 7 20 -1.11609 0 7 -1.11609 1
gene 1 8 20 -0.813534 0 8 -0.813534 1
gene 1 9 20 0.0236281 0 9 0.0236281 1
gene 1 10 20 0.279438 0 10 0.279438 1
gene 1 11 20 -0.622135 0 11 -0.622135 1
gene 1 12 20 2.80588 0 12 2.80588 1
gene 1 13 20 0.100611 0 13 0.100611 1
gene 1 14 20 -0.134196 0 14 -0.134196 1
gene 1 15 20 -0.102881 0 15 -0.102881 1
gene 1 16 20 0.675966 0 16 0.675966 1
gene 1 17 20 0.559579 0 17 0.559579 1
gene 1 18 20 -0.537111 0 18 -0.537111 1
gene 1 19 20 0.263554 0 19 0.263554 1
gene 1 1 21 0.39305 0 20 0.39305 1
gene 1 2 21 1.61849 0 21 1.61849 1
gene 1 3 21 0.453731 0 22 0.453731 1
gene 1 4 21 0.348206 0 23 0.348206 1
gene 1 5 21 -0.187037 0 24 -0.187037 1
gene 1 6 21 0.534173 0 25 0.534173 1
gene 1 7 21 1.34499 0 26 1.34499 1
gene 1 8 21 0.292319 0 27 0.292319 1
gene 1 9 21 -1.07581 0 28 -1.07581 1
gene 1 10 21 -0.269787 0 29 -0.269787 1
gene 1 11 21 -0.392283 0 30 -0.392283 1
gene 1 12 21 0.408116 0 31 0.408116 1
gene 1 13 21 -1.27857 0 32 -1.27857 0
gene 1 14 21 -2.30499 0 33 -2.30499 1
gene 1 15 21 0.188977 0 34 0.188977 0
gene 1 16 21 1.1864 0 35 1.1864 1
gene 1 17 21 -0.846579 0 36 -0.846579 1
gene 1 18 21 0.53246 0 37 0.53246 1
gene 1 19 21 -0.36079 0 38 -0.36079 1
gene 1 1 22 -1.26024 0 39 -1.26024 1
gene 1 2 22 0.199281 0 40 0.199281 1
gene 1 3 22 -0.164887 0 41 -0.164887 1
gene 1 4 22 -0.391603 0 42 -0.391603 1
gene 1 5 22 0.27234 0 43 0.27234 1
gene 1 6 22 -0.0827032 0 44 -0.0827032 1
gene 1 7 22 0.726412 0 45 0.726412 1
gene 1 8 22 0.26914 0 46 0.26914 1
gene 1 9 22 -0.519123 0 47 -0.519123 1
gene 1 10 22 -0.565952 0 48 -0.565952 1
gene 1 11 22 0.77918 0 49 0.77918 1
gene 1 12 22 -1.59 0 50 -1.59 1
gene 1 13 22 0.571854 0 51 0.571854 1
gene 1 14 22 0.476054 0 52 0.476054 1
gene 1 15 22 1.00257 0 53 1.00257 1
gene 1 16 22 0.255915 0 54 0.255915 1
gene 1 17 22 1.11407 0 55 1.11407 1
gene 1 18 22 0.776147 0 56 0.776147 1
gene 1 19 22 0.125202 0 57 0.125202 1
gene 1 1 23 0.613443 0 58 0.613443 1
gene 1 2 23 -1.48066 0 59 -1.48066 1
gene 1 3 23 -0.521991 0 60 -0.521991 1
gene 1 4 23 -1.05957 0 61 -1.05957 1
gene 1 5 23 -0.351305 0 62 -0.351305 1
gene 1 6 23 0.157713 0 63 0.157713 1
gene 1 7 23 0.48685 0 64 0.48685 1
gene 1 8 23 -0.668724 0 65 -0.668724 1
gene 1 9 23 0.349366 0 66 0.349366 1
gene 1 10 23 0.789078 0 67 0.789078 1
gene 1 11 23 -2.30939 0 68 -2.30939 1
gene 1 12 23 -2.61577 0 69 -2.61577 1
gene 1 13 23 -1.86489 0 70 -1.86489 1
gene 1 14 23 -0.35802 0 71 -0.35802 1
gene 1 15 23 -0.986909 0 72 -0.986909 1
gene 1 16 23 0.79992 0 73 0.79992 1
gene 1 17 23 -0.925008 0 74 -0.925008 0
gene 1 18 23 2.87949 0 75 2.87949 1
