genomestart 351
trait 1 0 0 0.862688 0.72224 0.409494 0.0593757 0 0 
node 1 1 1 1 0
node 2 1 1 1 0
node 3 1 1 1 0
node 4 1 1 1 0
node 5 1 1 1 0
node 6 1 1 1 0
node 7 1 1 1 0
node 8 1 1 1 0
node 9 1 1 1 0
node 10 1 1 1 0
node 11 1 1 1 0
node 12 1 1 1 0
node 13 1 1 1 0
node 14 1 1 1 0
node 15 1 1 1 0
node 16 1 1 1 0
node 17 1 1 1 0
node 18 1 1 1 0
node 19 1 1 3 0
node 20 1 0 2 0
node 21 1 0 2 0
node 22 1 0 2 0
node 23 1 0 2 0
node 24 1 0 0 0
node 26 1 0 0 0
node 37 1 0 0 0
node 46 1 0 0 0
gene 1 1 20 -0.240001 0 1 -0.240001 1
gene 1 2 20 0.0801961 0 2 0.0801961 1
gene 1 3 20 0.124296 0 3 0.124296 1
gene 1 4 20 0.103538 0 4 0.103538 1
gene 1 5 20 1.24789 0 5 1.24789 1
gene 1 6 20 0.528371 0 6 0.528371 1
gene 1 7 20 0.0979477 0 7 0.0979477 1
gene 1 8 20 0.203484 0 8 0.203484 1
gene 1 9 20 0.515214 0 9 0.515214 1
gene 1 10 20 -0.164965 0 10 -0.164965 1
gene 1 11 20 0.23108 0 11 0.23108 1
gene 1 12 20 1.65312 0 12 1.65312 1
gene 1 13 20 -0.819199 0 13 -0.819199 1
gene 1 14 20 -0.394641 0 14 -0.394641 1
gene 1 15 20 0.305263 0 15 0.305263 1
gene 1 16 20 0.268648 0 16 0.268648 1
gene 1 17 20 -0.457409 0 17 -0.457409 1
gene 1 18 20 0.0520276 0 18 0.0520276 1
gene 1 19 20 -0.00820347 0 19 -0.00820347 1
gene 1 1 21 -1.1709 0 20 -1.1709 1
gene 1 2 21 -0.168449 0 21 -0.168449 1
gene 1 3 21 -0.0974596 0 22 -0.0974596 1
gene 1 4 21 -0.749241 0 23 -0.749241 1
gene 1 5 21 -0.212153 0 24 -0.212153 1
gene 1 6 21 0.357598 0 25 0.357598 1
gene 1 7 21 0.116315 0 26 0.116315 1
gene 1 8 21 1.28009 0 27 1.28009 1
gene 1 9 21 -1.37263 0 28 -1.37263 1
gene 1 10 21 2.4312 0 29 2.4312 1
gene 1 11 21 -0.291896 0 30 -0.291896 1
gene 1 12 21 0.150144 0 31 0.150144 1
gene 1 13 21 -0.564094 0 32 -0.564094 1
gene 1 14 21 -1.98539 0 33 -1.98539 1
gene 1 15 21 0.0203467 0 34 0.0203467 1
gene 1 16 21 0.107075 0 35 0.107075 1
gene 1 17 21 -0.754893 0 36 -0.754893 1
gene 1 18 21 -0.00877821 0 37 -0.00877821 1
gene 1 19 21 -0.290489 0 38 -0.290489 1
gene 1 1 22 -0.385298 0 39 -0.385298 1
gene 1 2 22 0.86538 0 40 0.86538 1
gene 1 3 22 -0.967524 0 41 -0.967524 1
gene 1 4 22 -0.145432 0 42 -0.145432 1
gene 1 5 22 0.176289 0 43 0.176289 1
gene 1 6 22 0.407639 0 44 0.407639 1
gene 1 7 22 -0.140598 0 45 -0.140598 1
gene 1 8 22 0.077974 0 46 0.077974 1
gene 1 9 22 -0.306388 0 47 -0.306388 1
gene 1 10 22 0.603181 0 48 0.603181 1
gene 1 11 22 -0.147576 0 49 -0.147576 1
gene 1 12 22 -0.277576 0 50 -0.277576 1
gene 1 13 22 -0.0890007 0 51 -0.0890007 1
gene 1 14 22 -2.55882 0 52 -2.55882 1
gene 1 15 22 -0.0759138 0 53 -0.0759138 1
gene 1 16 22 -0.156605 0 54 -0.156605 1
gene 1 17 22 0.449785 0 55 0.449785 1
gene 1 18 22 0.449827 0 56 0.449827 1
gene 1 19 22 0.73103 0 57 0.73103 1
gene 1 1 23 1.66623 0 58 1.66623 1
gene 1 2 23 -1.01321 0 59 -1.01321 1
gene 1 3 23 -0.891209 0 60 -0.891209 1
gene 1 4 23 -0.10547 0 61 -0.10547 1
gene 1 5 23 0.859591 0 62 0.859591 1
gene 1 6 23 -0.17276 0 63 -0.17276 1
gene 1 7 23 -1.2708 0 64 -1.2708 1
gene 1 8 23 -0.736961 0 65 -0.736961 1
gene 1 9 23 0.467456 0 66 0.467456 1
gene 1 10 23 0.315003 0 67 0.315003 1
gene 1 11 23 -0.107969 0 68 -0.107969 1
gene 1 12 23 -1.98071 0 69 -1.98071 1
gene 1 13 23 0.243982 0 70 0.243982 1
gene 1 14 23 -0.371312 0 71 -0.371312 1
gene 1 15 23 0.0709122 0 72 0.0709122 1
gene 1 16 23 0.0768686 0 73 0.0768686 1
gene 1 17 23 -1.25068 0 74 -1.25068 1
gene 1 18 23 0.408717 0 75 0.408717 1
gene 1 19 23 1.15458 0 76 1.15458 1
gene 1 8 24 0.375747 0 77 0.375747 1
gene 1 24 20 -0.468023 0 78 -0.468023 1
gene 1 15 26 0.853573 0 85 0.853573 1
gene 1 26 20 -0.545791 0 86 -0.545791 1
gene 1 22 20 -0.720939 0 87 -0.720939 1
gene 1 2 24 0.307191 0 91 0.307191 1
gene 1 6 24 0.620372 0 96 0.620372 1
gene 1 10 37 0.225823 0 129 0.225823 1
gene 1 37 20 0.836852 0 130 0.836852 1
gene 1 24 37 0.801629 0 140 0.801629 1
gene 1 11 46 0.543805 0 161 0.543805 1
gene 1 46 20 0.820177 0 162 0.820177 1
gene 1 24 22 0.270528 0 219 0.270528 1
gene 1 46 23 0.403395 0 251 0.403395 1
gene 1 26 24 0.797502 0 305 0.797502 1
genomeend 351
genomestart 157
trait 1 0 0 0.862688 0.72224 0.409494 0.0593757 0 0 
node 1 1 1 1 0
node 2 1 1 1 0
node 3 1 1 1 0
node 4 1 1 1 0
node 5 1 1 1 0
node 6 1 1 1 0
node 7 1 1 1 0
node 8 1 1 1 0
node 9 1 1 1 0
node 10 1 1 1 0
node 11 1 1 1 0
node 12 1 1 1 0
node 13 1 1 1 0
node 14 1 1 1 0
node 15 1 1 1 0
node 16 1 1 1 0
node 17 1 1 1 0
node 18 1 1 1 0
node 19 1 1 3 0
node 20 1 0 2 0
node 21 1 0 2 0
node 22 1 0 2 0
node 23 1 0 2 0
node 24 1 0 0 0
node 26 1 0 0 0
node 37 1 0 0 0
node 46 1 0 0 0
node 86 1 0 0 0
gene 1 1 20 -0.488691 0 1 -0.488691 1
gene 1 2 20 0.420443 0 2 0.420443 1
gene 1 3 20 0.312415 0 3 0.312415 1
gene 1 4 20 0.54793 0 4 0.54793 1
gene 1 5 20 1.23022 0 5 1.23022 1
gene 1 6 20 0.630995 0 6 0.630995 1
gene 1 7 20 0.451817 0 7 0.451817 1
gene 1 8 20 0.249944 0 8 0.249944 1
gene 1 9 20 0.0384808 0 9 0.0384808 1
gene 1 10 20 -0.149051 0 10 -0.149051 1
gene 1 11 20 -0.206295 0 11 -0.206295 1
gene 1 12 20 1.76499 0 12 1.76499 1
gene 1 13 20 -0.456134 0 13 -0.456134 1
gene 1 14 20 -0.443953 0 14 -0.443953 1
gene 1 15 20 -0.375583 0 15 -0.375583 1
gene 1 16 20 0.184571 0 16 0.184571 1
gene 1 17 20 -0.0928103 0 17 -0.0928103 1
gene 1 18 20 0.124516 0 18 0.124516 1
gene 1 19 20 0.124059 0 19 0.124059 1
gene 1 1 21 0.247991 0 20 0.247991 1
gene 1 2 21 -0.52686 0 21 -0.52686 1
gene 1 3 21 0.130425 0 22 0.130425 1
gene 1 4 21 -0.292918 0 23 -0.292918 1
gene 1 5 21 -0.609483 0 24 -0.609483 1
gene 1 6 21 0.441584 0 25 0.441584 1
gene 1 7 21 -0.0565572 0 26 -0.0565572 1
gene 1 8 21 0.988022 0 27 0.988022 1
gene 1 9 21 -1.37263 0 28 -1.37263 1
gene 1 10 21 2.32843 0 29 2.32843 1
gene 1 11 21 -0.621492 0 30 -0.621492 1
gene 1 12 21 -0.0267464 0 31 -0.0267464 1
gene 1 13 21 -0.980232 0 32 -0.980232 1
gene 1 14 21 -2.27429 0 33 -2.27429 1
gene 1 15 21 0.118193 0 34 0.118193 1
gene 1 16 21 0.0329534 0 35 0.0329534 1
gene 1 17 21 -0.259151 0 36 -0.259151 1
gene 1 18 21 -0.00877821 0 37 -0.00877821 1
gene 1 19 21 -0.719176 0 38 -0.719176 1
gene 1 1 22 -0.532208 0 39 -0.532208 1
gene 1 2 22 0.668773 0 40 0.668773 1
gene 1 3 22 -0.279781 0 41 -0.279781 1
gene 1 4 22 0.229047 0 42 0.229047 1
gene 1 5 22 0.317355 0 43 0.317355 1
gene 1 6 22 0.872719 0 44 0.872719 1
gene 1 7 22 0.244754 0 45 0.244754 1
gene 1 8 22 0.376901 0 46 0.376901 1
gene 1 9 22 -0.306388 0 47 -0.306388 1
gene 1 10 22 1.0844 0 48 1.0844 1
gene 1 11 22 -0.0602892 0 49 -0.0602892 1
gene 1 12 22 -0.499597 0 50 -0.499597 1
gene 1 13 22 -0.315602 0 51 -0.315602 1
gene 1 14 22 -2.55882 0 52 -2.55882 1
gene 1 15 22 -0.099341 0 53 -0.099341 1
gene 1 16 22 -0.545237 0 54 -0.545237 1
gene 1 17 22 0.256034 0 55 0.256034 1
gene 1 18 22 0.593249 0 56 0.593249 0
gene 1 19 22 0.248657 0 57 0.248657 1
gene 1 1 23 1.56082 0 58 1.56082 1
gene 1 2 23 -1.07738 0 59 -1.07738 1
gene 1 3 23 -0.695356 0 60 -0.695356 1
gene 1 4 23 -0.376289 0 61 -0.376289 1
gene 1 5 23 0.0208266 0 62 0.0208266 1
gene 1 6 23 -0.137197 0 63 -0.137197 1
gene 1 7 23 -1.53565 0 64 -1.53565 1
gene 1 8 23 -0.863966 0 65 -0.863966 1
gene 1 9 23 0.865917 0 66 0.865917 1
gene 1 10 23 -0.255724 0 67 -0.255724 1
gene 1 11 23 0.029288 0 68 0.029288 1
gene 1 12 23 -2.07812 0 69 -2.07812 1
gene 1 13 23 0.0678296 0 70 0.0678296 1
gene 1 14 23 -0.768776 0 71 -0.768776 1
gene 1 15 23 0.0926702 0 72 0.0926702 1
gene 1 16 23 -0.355078 0 73 -0.355078 1
gene 1 17 23 0.314058 0 74 0.314058 1
gene 1 18 23 0.59254 0 75 0.59254 1
gene 1 19 23 1.0977 0 76 1.0977 1
gene 1 8 24 0.461728 0 77 0.461728 1
gene 1 24 20 -0.882348 0 78 -0.882348 1
gene 1 15 26 0.399223 0 85 0.399223 1
gene 1 26 20 0.0661696 0 86 0.0661696 1
gene 1 22 20 -0.814387 0 87 -0.814387 1
gene 1 2 24 -0.161252 0 91 -0.161252 1
gene 1 6 24 0.259623 0 96 0.259623 1
gene 1 10 37 0.0670087 0 129 0.0670087 1
gene 1 37 20 0.978175 0 130 0.978175 1
gene 1 24 37 0.305435 0 140 0.305435 1
gene 1 11 46 0.619573 0 161 0.619573 1
gene 1 46 20 0.971619 0 162 0.971619 1
gene 1 24 22 0.711236 0 219 0.711236 1
gene 1 46 23 0.44908 0 251 0.44908 1
gene 1 26 24 1.21105 0 305 1.21105 1
gene 1 18 86 0.939122 0 336 0.939122 1
gene 1 86 22 0.219733 0 337 0.219733 1
genomeend 157
genomestart 215
trait 1 0 0 0.862688 0.72224 0.409494 0.0593757 0 0 
node 1 1 1 1 0
node 2 1 1 1 0
node 3 1 1 1 0
node 4 1 1 1 0
node 5 1 1 1 0
node 6 1 1 1 0
node 7 1 1 1 0
node 8 1 1 1 0
node 9 1 1 1 0
node 10 1 1 1 0
node 11 1 1 1 0
node 12 1 1 1 0
node 13 1 1 1 0
node 14 1 1 1 0
node 15 1 1 1 0
node 16 1 1 1 0
node 17 1 1 1 0
node 18 1 1 1 0
node 19 1 1 3 0
node 20 1 0 2 0
node 21 1 0 2 0
node 22 1 0 2 0
node 23 1 0 2 0
node 24 1 0 0 0
node 26 1 0 0 0
node 37 1 0 0 0
node 46 1 0 0 0
node 86 1 0 0 0
gene 1 1 20 -0.364346 0 1 -0.364346 1
gene 1 2 20 0.25032 0 2 0.25032 1
gene 1 3 20 0.218355 0 3 0.218355 1
gene 1 4 20 0.325734 0 4 0.325734 1
gene 1 5 20 1.23905 0 5 1.23905 1
gene 1 6 20 0.579683 0 6 0.579683 1
gene 1 7 20 0.274882 0 7 0.274882 1
gene 1 8 20 0.226714 0 8 0.226714 1
gene 1 9 20 0.276847 0 9 0.276847 1
gene 1 10 20 -0.157008 0 10 -0.157008 1
gene 1 11 20 0.0123924 0 11 0.0123924 1
gene 1 12 20 1.70906 0 12 1.70906 1
gene 1 13 20 -0.637666 0 13 -0.637666 1
gene 1 14 20 -0.419297 0 14 -0.419297 1
gene 1 15 20 -0.0351601 0 15 -0.0351601 1
gene 1 16 20 0.22661 0 16 0.22661 1
gene 1 17 20 -0.27511 0 17 -0.27511 1
gene 1 18 20 0.0882718 0 18 0.0882718 1
gene 1 19 20 0.0579277 0 19 0.0579277 1
gene 1 1 21 -0.461454 0 20 -0.461454 1
gene 1 2 21 -0.347655 0 21 -0.347655 1
gene 1 3 21 0.0164825 0 22 0.0164825 1
gene 1 4 21 -0.52108 0 23 -0.52108 1
gene 1 5 21 -0.410818 0 24 -0.410818 1
gene 1 6 21 0.399591 0 25 0.399591 1
gene 1 7 21 0.0298789 0 26 0.0298789 1
gene 1 8 21 1.13406 0 27 1.13406 1
gene 1 9 21 -1.37263 0 28 -1.37263 1
gene 1 10 21 2.37982 0 29 2.37982 1
gene 1 11 21 -0.456694 0 30 -0.456694 1
gene 1 12 21 0.0616988 0 31 0.0616988 1
gene 1 13 21 -0.772163 0 32 -0.772163 1
gene 1 14 21 -2.12984 0 33 -2.12984 1
gene 1 15 21 0.0692698 0 34 0.0692698 1
gene 1 16 21 0.0700142 0 35 0.0700142 1
gene 1 17 21 -0.507022 0 36 -0.507022 1
gene 1 18 21 -0.00877821 0 37 -0.00877821 1
gene 1 19 21 -0.504833 0 38 -0.504833 1
gene 1 1 22 -0.458753 0 39 -0.458753 1
gene 1 2 22 0.767076 0 40 0.767076 1
gene 1 3 22 -0.623652 0 41 -0.623652 1
gene 1 4 22 0.0418073 0 42 0.0418073 1
gene 1 5 22 0.246822 0 43 0.246822 1
gene 1 6 22 0.640179 0 44 0.640179 1
gene 1 7 22 0.052078 0 45 0.052078 1
gene 1 8 22 0.227438 0 46 0.227438 1
gene 1 9 22 -0.306388 0 47 -0.306388 1
gene 1 10 22 0.843788 0 48 0.843788 1
gene 1 11 22 -0.103933 0 49 -0.103933 1
gene 1 12 22 -0.388587 0 50 -0.388587 1
gene 1 13 22 -0.202301 0 51 -0.202301 1
gene 1 14 22 -2.55882 0 52 -2.55882 1
gene 1 15 22 -0.0876274 0 53 -0.0876274 1
gene 1 16 22 -0.350921 0 54 -0.350921 1
gene 1 17 22 0.352909 0 55 0.352909 1
gene 1 18 22 0.521538 0 56 0.521538 1
gene 1 19 22 0.489844 0 57 0.489844 1
gene 1 1 23 1.61352 0 58 1.61352 1
gene 1 2 23 -1.04529 0 59 -1.04529 1
gene 1 3 23 -0.793283 0 60 -0.793283 1
gene 1 4 23 -0.240879 0 61 -0.240879 1
gene 1 5 23 0.440209 0 62 0.440209 1
gene 1 6 23 -0.154979 0 63 -0.154979 1
gene 1 7 23 -1.40322 0 64 -1.40322 1
gene 1 8 23 -0.800463 0 65 -0.800463 1
gene 1 9 23 0.666687 0 66 0.666687 1
gene 1 10 23 0.0296393 0 67 0.0296393 1
gene 1 11 23 -0.0393405 0 68 -0.0393405 1
gene 1 12 23 -2.02941 0 69 -2.02941 1
gene 1 13 23 0.155906 0 70 0.155906 1
gene 1 14 23 -0.570044 0 71 -0.570044 1
gene 1 15 23 0.0817912 0 72 0.0817912 1
gene 1 16 23 -0.139105 0 73 -0.139105 1
gene 1 17 23 -0.468311 0 74 -0.468311 1
gene 1 18 23 0.500628 0 75 0.500628 1
gene 1 19 23 1.12614 0 76 1.12614 1
gene 1 8 24 0.418738 0 77 0.418738 1
gene 1 24 20 -0.675186 0 78 -0.675186 1
gene 1 15 26 0.626398 0 85 0.626398 1
gene 1 26 20 -0.239811 0 86 -0.239811 1
gene 1 22 20 -0.767663 0 87 -0.767663 1
gene 1 2 24 0.0729696 0 91 0.0729696 1
gene 1 6 24 0.439997 0 96 0.439997 1
gene 1 10 37 0.146416 0 129 0.146416 1
gene 1 37 20 0.907513 0 130 0.907513 1
gene 1 24 37 0.553532 0 140 0.553532 1
gene 1 11 46 0.581689 0 161 0.581689 1
gene 1 46 20 0.895898 0 162 0.895898 1
gene 1 24 22 0.490882 0 219 0.490882 1
gene 1 46 23 0.426237 0 251 0.426237 1
gene 1 26 24 1.00428 0 305 1.00428 1
gene 1 18 86 0.939122 0 336 0.939122 1
gene 1 86 22 0.219733 0 337 0.219733 1
genomeend 215
genomestart 219
trait 1 0.532165 0.315457 0.294376 0.0136372 0.799363 0.0760996 0.256556 0.534478 
node 1 1 1 1 0
node 2 1 1 1 0
node 3 1 1 1 0
node 4 1 1 1 0
node 5 1 1 1 0
node 6 1 1 1 0
node 7 1 1 1 0
node 8 1 1 1 0
node 9 1 1 1 0
node 10 1 1 1 0
node 11 1 1 1 0
node 12 1 1 1 0
node 13 1 1 1 0
node 14 1 1 1 0
node 15 1 1 1 0
node 16 1 1 1 0
node 17 1 1 1 0
node 18 1 1 1 0
node 19 1 1 3 0
node 20 1 0 2 0
node 21 1 0 2 0
node 22 1 0 2 0
node 23 1 0 2 0
node 24 1 0 0 0
node 26 1 0 0 0
node 28 1 0 0 0
node 32 1 0 0 0
node 37 1 0 0 0
node 39 1 0 0 0
node 43 1 0 0 0
node 53 1 0 0 0
node 75 1 0 0 0
gene 1 1 20 -0.460357 0 1 -0.460357 1
gene 1 2 20 0.403464 0 2 0.403464 1
gene 1 3 20 0.796106 0 3 0.796106 1
gene 1 4 20 -0.460469 0 4 -0.460469 1
gene 1 5 20 0.4273 0 5 0.4273 1
gene 1 6 20 -0.254359 0 6 -0.254359 1
gene 1 7 20 0.898164 0 7 0.898164 1
gene 1 8 20 0.878676 0 8 0.878676 0
gene 1 9 20 0.941392 0 9 0.941392 1
gene 1 10 20 -0.456591 0 10 -0.456591 0
gene 1 11 20 -0.241558 0 11 -0.241558 1
gene 1 12 20 -0.432513 0 12 -0.432513 1
gene 1 13 20 0.28377 0 13 0.28377 1
gene 1 14 20 0.306446 0 14 0.306446 1
gene 1 15 20 -0.371271 0 15 -0.371271 1
gene 1 16 20 -0.681294 0 16 -0.681294 1
gene 1 17 20 -0.111598 0 17 -0.111598 1
gene 1 18 20 0.172108 0 18 0.172108 1
gene 1 19 20 -0.862596 0 19 -0.862596 1
gene 1 1 21 -0.16964 0 20 -0.16964 1
gene 1 2 21 0.411733 0 21 0.411733 0
gene 1 3 21 1.51307 0 22 1.51307 1
gene 1 4 21 0.78557 0 23 0.78557 1
gene 1 5 21 0.483047 0 24 0.483047 1
gene 1 6 21 -0.754204 0 25 -0.754204 1
gene 1 7 21 -0.270107 0 26 -0.270107 1
gene 1 8 21 0.229757 0 27 0.229757 1
gene 1 9 21 0.194385 0 28 0.194385 1
gene 1 10 21 0.242196 0 29 0.242196 1
gene 1 11 21 0.7509 0 30 0.7509 1
gene 1 12 21 0.511699 0 31 0.511699 1
gene 1 13 21 0.0177728 0 32 0.0177728 1
gene 1 14 21 -0.301513 0 33 -0.301513 1
gene 1 15 21 0.550086 0 34 0.550086 0
gene 1 16 21 -0.048232 0 35 -0.048232 1
gene 1 17 21 0.0552702 0 36 0.0552702 1
gene 1 18 21 -0.697984 0 37 -0.697984 1
gene 1 19 21 0.23387 0 38 0.23387 1
gene 1 1 22 0.901285 0 39 0.901285 1
gene 1 2 22 -0.371598 0 40 -0.371598 1
gene 1 3 22 1.29533 0 41 1.29533 1
gene 1 4 22 0.473275 0 42 0.473275 1
gene 1 5 22 0.149062 0 43 0.149062 1
gene 1 6 22 -0.522228 0 44 -0.522228 0
gene 1 7 22 -0.269769 0 45 -0.269769 1
gene 1 8 22 -0.00816044 0 46 -0.00816044 1
gene 1 9 22 -0.321615 0 47 -0.321615 1
gene 1 10 22 -0.25704 0 48 -0.25704 1
gene 1 11 22 -0.120722 0 49 -0.120722 1
gene 1 12 22 0.287966 0 50 0.287966 1
gene 1 13 22 -0.450835 0 51 -0.450835 1
gene 1 14 22 0.642836 0 52 0.642836 1
gene 1 15 22 0.115103 0 53 0.115103 1
gene 1 16 22 0.358347 0 54 0.358347 1
gene 1 17 22 0.216501 0 55 0.216501 1
gene 1 18 22 0.438492 0 56 0.438492 1
gene 1 19 22 -0.233718 0 57 -0.233718 1
gene 1 1 23 0.039554 0 58 0.039554 1
gene 1 2 23 -0.119374 0 59 -0.119374 1
gene 1 3 23 0.401524 0 60 0.401524 1
gene 1 4 23 0.974589 0 61 0.974589 1
gene 1 5 23 0.768246 0 62 0.768246 1
gene 1 6 23 0.417094 0 63 0.417094 1
gene 1 7 23 -0.199784 0 64 -0.199784 1
gene 1 8 23 0.0450642 0 65 0.0450642 1
gene 1 9 23 0.356825 0 66 0.356825 1
gene 1 10 23 0.636746 0 67 0.636746 1
gene 1 11 23 -0.651559 0 68 -0.651559 1
gene 1 12 23 0.369809 0 69 0.369809 1
gene 1 13 23 0.0609454 0 70 0.0609454 1
gene 1 14 23 -0.6401 0 71 -0.6401 1
gene 1 15 23 0.109267 0 72 0.109267 1
gene 1 16 23 0.380008 0 73 0.380008 1
gene 1 17 23 0.656825 0 74 0.656825 0
gene 1 18 23 0.687075 0 75 0.687075 1
gene 1 19 23 -1.82109 0 76 -1.82109 1
gene 1 8 24 0.273565 0 77 0.273565 1
gene 1 24 20 0.0431732 0 78 0.0431732 1
gene 1 15 26 0.153907 0 85 0.153907 1
gene 1 26 20 0.248563 0 86 0.248563 1
gene 1 22 20 2.34099 0 87 2.34099 1
gene 1 2 24 -0.275691 0 91 -0.275691 1
gene 1 8 28 -0.0297649 0 93 -0.0297649 1
gene 1 28 24 -0.334608 0 94 -0.334608 1
gene 1 6 24 -0.115763 0 96 -0.115763 1
gene 1 16 26 0.531253 0 99 0.531253 1
gene 1 13 24 -0.125328 0 100 -0.125328 1
gene 1 23 24 -0.0934647 0 113 -0.0934647 1
gene 1 13 32 0.196776 0 116 0.196776 1
gene 1 32 21 -0.297752 0 117 -0.297752 1
gene 1 10 37 0.630526 0 129 0.630526 1
gene 1 37 20 -0.273948 0 130 -0.273948 1
gene 1 17 39 -0.161963 0 134 -0.161963 1
gene 1 39 23 0.507517 0 135 0.507517 1
gene 1 15 43 0.437018 0 150 0.437018 1
gene 1 43 21 0.278863 0 151 0.278863 1
gene 1 3 43 0.124928 0 153 0.124928 1
gene 1 8 32 -0.210593 0 154 -0.210593 1
gene 1 2 39 0.143017 0 178 0.143017 1
gene 1 6 53 0.0753086 0 191 0.0753086 1
gene 1 53 22 0.551675 0 192 0.551675 1
gene 1 15 24 -0.237563 0 275 -0.237563 1
gene 1 32 32 -0.655956 1 283 -0.655956 1
gene 1 2 75 1 0 301 1 1
gene 1 75 21 -0.16582 0 302 -0.16582 1
gene 1 11 26 0.732195 0 317 0.732195 1
gene 1 13 26 -0.677426 0 321 -0.677426 1
gene 1 32 28 0.996197 0 344 0.996197 1
genomeend 219
genomestart 231
trait 1 0 0.0348521 0.0192173 0.309137 0.682893 0.0174367 0 0.334892 
node 1 1 1 1 0
node 2 1 1 1 0
node 3 1 1 1 0
node 4 1 1 1 0
node 5 1 1 1 0
node 6 1 1 1 0
node 7 1 1 1 0
node 8 1 1 1 0
node 9 1 1 1 0
node 10 1 1 1 0
node 11 1 1 1 0
node 12 1 1 1 0
node 13 1 1 1 0
node 14 1 1 1 0
node 15 1 1 1 0
node 16 1 1 1 0
node 17 1 1 1 0
node 18 1 1 1 0
node 19 1 1 3 0
node 20 1 0 2 0
node 21 1 0 2 0
node 22 1 0 2 0
node 23 1 0 2 0
node 24 1 0 0 0
node 26 1 0 0 0
node 28 1 0 0 0
node 32 1 0 0 0
node 37 1 0 0 0
node 39 1 0 0 0
node 43 1 0 0 0
node 53 1 0 0 0
node 60 1 0 0 0
node 66 1 0 0 0
node 68 1 0 0 0
node 81 1 0 0 0
gene 1 1 20 -0.461965 0 1 -0.461965 1
gene 1 2 20 -0.197799 0 2 -0.197799 1
gene 1 3 20 -0.920971 0 3 -0.920971 1
gene 1 4 20 -0.453469 0 4 -0.453469 1
gene 1 5 20 -0.0824755 0 5 -0.0824755 1
gene 1 6 20 0.112826 0 6 0.112826 1
gene 1 7 20 0.331203 0 7 0.331203 1
gene 1 8 20 -0.148484 0 8 -0.148484 0
gene 1 9 20 0.331787 0 9 0.331787 1
gene 1 10 20 -0.337693 0 10 -0.337693 0
gene 1 11 20 0.325054 0 11 0.325054 1
gene 1 12 20 0.0303199 0 12 0.0303199 1
gene 1 13 20 0.386574 0 13 0.386574 1
gene 1 14 20 0.50308 0 14 0.50308 1
gene 1 15 20 -0.325873 0 15 -0.325873 1
gene 1 16 20 0.502339 0 16 0.502339 1
gene 1 17 20 0.073252 0 17 0.073252 1
gene 1 18 20 -0.130271 0 18 -0.130271 1
gene 1 19 20 -0.654163 0 19 -0.654163 1
gene 1 1 21 0.437311 0 20 0.437311 1
gene 1 2 21 0.0340011 0 21 0.0340011 1
gene 1 3 21 0.392711 0 22 0.392711 1
gene 1 4 21 0.777041 0 23 0.777041 1
gene 1 5 21 -0.372223 0 24 -0.372223 1
gene 1 6 21 0.382497 0 25 0.382497 1
gene 1 7 21 -0.034518 0 26 -0.034518 1
gene 1 8 21 0.740057 0 27 0.740057 1
gene 1 9 21 -0.071963 0 28 -0.071963 1
gene 1 10 21 -0.554423 0 29 -0.554423 1
gene 1 11 21 1.11785 0 30 1.11785 1
gene 1 12 21 0.877319 0 31 0.877319 1
gene 1 13 21 -0.347228 0 32 -0.347228 1
gene 1 14 21 -0.530597 0 33 -0.530597 1
gene 1 15 21 0.480197 0 34 0.480197 0
gene 1 16 21 -0.230442 0 35 -0.230442 1
gene 1 17 21 -0.0920215 0 36 -0.0920215 1
gene 1 18 21 0.113721 0 37 0.113721 1
gene 1 19 21 -0.256226 0 38 -0.256226 1
gene 1 1 22 0.784179 0 39 0.784179 1
gene 1 2 22 -0.217418 0 40 -0.217418 1
gene 1 3 22 0.267507 0 41 0.267507 1
gene 1 4 22 0.404956 0 42 0.404956 1
gene 1 5 22 -0.113386 0 43 -0.113386 1
gene 1 6 22 0.0370735 0 44 0.0370735 0
gene 1 7 22 -0.168478 0 45 -0.168478 1
gene 1 8 22 -0.346572 0 46 -0.346572 1
gene 1 9 22 -0.239111 0 47 -0.239111 1
gene 1 10 22 0.022408 0 48 0.022408 1
gene 1 11 22 0.374337 0 49 0.374337 1
gene 1 12 22 1.18244 0 50 1.18244 1
gene 1 13 22 -0.04249 0 51 -0.04249 1
gene 1 14 22 0.0976064 0 52 0.0976064 1
gene 1 15 22 -0.101252 0 53 -0.101252 1
gene 1 16 22 0.630363 0 54 0.630363 1
gene 1 17 22 -0.098769 0 55 -0.098769 0
gene 1 18 22 0.328467 0 56 0.328467 1
gene 1 19 22 0.312886 0 57 0.312886 1
gene 1 1 23 -0.250209 0 58 -0.250209 1
gene 1 2 23 0.72016 0 59 0.72016 1
gene 1 3 23 -0.818757 0 60 -0.818757 1
gene 1 4 23 -0.141665 0 61 -0.141665 1
gene 1 5 23 -0.0064775 0 62 -0.0064775 1
gene 1 6 23 0.051534 0 63 0.051534 1
gene 1 7 23 0.49124 0 64 0.49124 1
gene 1 8 23 -0.358994 0 65 -0.358994 1
gene 1 9 23 0.0486995 0 66 0.0486995 1
gene 1 10 23 0.0922572 0 67 0.0922572 1
gene 1 11 23 -0.78981 0 68 -0.78981 1
gene 1 12 23 0.456429 0 69 0.456429 1
gene 1 13 23 0.0242846 0 70 0.0242846 1
gene 1 14 23 -0.370861 0 71 -0.370861 1
gene 1 15 23 0.230543 0 72 0.230543 1
gene 1 16 23 -0.0045665 0 73 -0.0045665 1
gene 1 17 23 -0.830272 0 74 -0.830272 0
gene 1 18 23 0.618598 0 75 0.618598 1
gene 1 19 23 -0.427362 0 76 -0.427362 1
gene 1 8 24 0.726588 0 77 0.726588 1
gene 1 24 20 0.142491 0 78 0.142491 1
gene 1 15 26 0.548041 0 85 0.548041 1
gene 1 26 20 -0.559107 0 86 -0.559107 1
gene 1 22 20 0.325292 0 87 0.325292 1
gene 1 2 24 0.430573 0 91 0.430573 1
gene 1 8 28 0.656486 0 93 0.656486 1
gene 1 28 24 -0.254734 0 94 -0.254734 1
gene 1 6 24 0.176954 0 96 0.176954 1
gene 1 16 26 -0.0709355 0 99 -0.0709355 1
gene 1 13 24 0.402646 0 100 0.402646 1
gene 1 23 24 0.329567 0 113 0.329567 1
gene 1 13 32 0.47197 0 116 0.47197 1
gene 1 32 21 0.0680046 0 117 0.0680046 1
gene 1 10 37 0.0650395 0 129 0.0650395 1
gene 1 37 20 0.562355 0 130 0.562355 1
gene 1 17 39 -0.144607 0 134 -0.144607 1
gene 1 39 23 0.190876 0 135 0.190876 1
gene 1 15 43 -0.0644933 0 150 -0.0644933 1
gene 1 43 21 0.137617 0 151 0.137617 1
gene 1 3 43 -0.136173 0 153 -0.136173 1
gene 1 8 32 -0.107182 0 154 -0.107182 1
gene 1 2 39 0.029275 0 178 0.029275 1
gene 1 6 53 0.190804 0 191 0.190804 1
gene 1 53 22 -0.227565 0 192 -0.227565 1
gene 1 6 43 0.543379 0 210 0.543379 1
gene 1 17 60 0.262093 0 217 0.262093 1
gene 1 60 22 0.54743 0 218 0.54743 1
gene 1 20 20 0.256736 1 221 0.256736 1
gene 1 1 43 0.293276 0 234 0.293276 1
gene 1 15 37 0.241428 0 261 0.241428 1
gene 1 10 66 0.48507 0 266 0.48507 1
gene 1 66 21 -0.0547064 0 267 -0.0547064 1
gene 1 18 32 -0.006874 0 271 -0.006874 1
gene 1 5 68 0.188729 0 277 0.188729 1
gene 1 68 20 -0.315611 0 278 -0.315611 1
gene 1 16 81 1 0 326 0 1
gene 1 81 26 -0.155015 0 327 0 1
genomeend 231
genomestart 357
trait 1 0 0.196466 0.0227695 0.656265 0.933653 0.174425 0.0751885 0.0878994 
node 1 1 1 1 0
node 2 1 1 1 0
node 3 1 1 1 0
node 4 1 1 1 0
node 5 1 1 1 0
node 6 1 1 1 0
node 7 1 1 1 0
node 8 1 1 1 0
node 9 1 1 1 0
node 10 1 1 1 0
node 11 1 1 1 0
node 12 1 1 1 0
node 13 1 1 1 0
node 14 1 1 1 0
node 15 1 1 1 0
node 16 1 1 1 0
node 17 1 1 1 0
node 18 1 1 1 0
node 19 1 1 3 0
node 20 1 0 2 0
node 21 1 0 2 0
node 22 1 0 2 0
node 23 1 0 2 0
node 24 1 0 0 0
node 26 1 0 0 0
node 28 1 0 0 0
node 32 1 0 0 0
node 34 1 0 0 0
node 36 1 0 0 0
node 37 1 0 0 0
node 39 1 0 0 0
node 43 1 0 0 0
node 46 1 0 0 0
node 53 1 0 0 0
node 54 1 0 0 0
node 60 1 0 0 0
node 66 1 0 0 0
node 71 1 0 0 0
gene 1 1 20 0.348446 0 1 0.348446 1
gene 1 2 20 -0.646774 0 2 -0.646774 1
gene 1 3 20 -0.238726 0 3 -0.238726 1
gene 1 4 20 0.28912 0 4 0.28912 1
gene 1 5 20 -0.180224 0 5 -0.180224 1
gene 1 6 20 -0.528357 0 6 -0.528357 1
gene 1 7 20 1.25959 0 7 1.25959 1
gene 1 8 20 0.122215 0 8 0.122215 0
gene 1 9 20 -0.123351 0 9 -0.123351 1
gene 1 10 20 0.292888 0 10 0.292888 1
gene 1 11 20 0.164466 0 11 0.164466 0
gene 1 12 20 1.13478 0 12 1.13478 1
gene 1 13 20 -0.260845 0 13 -0.260845 1
gene 1 14 20 -0.0696125 0 14 -0.0696125 1
gene 1 15 20 -0.195929 0 15 -0.195929 1
gene 1 16 20 0.598396 0 16 0.598396 1
gene 1 17 20 0.0746084 0 17 0.0746084 1
gene 1 18 20 1.32178 0 18 1.32178 1
gene 1 19 20 0.161088 0 19 0.161088 1
gene 1 1 21 0.232817 0 20 0.232817 1
gene 1 2 21 0.312718 0 21 0.312718 1
gene 1 3 21 2.93595 0 22 2.93595 1
gene 1 4 21 0.0311463 0 23 0.0311463 1
gene 1 5 21 0.363823 0 24 0.363823 1
gene 1 6 21 0.368068 0 25 0.368068 1
gene 1 7 21 0.636362 0 26 0.636362 1
gene 1 8 21 0.507854 0 27 0.507854 1
gene 1 9 21 0.336558 0 28 0.336558 1
gene 1 10 21 1.06035 0 29 1.06035 1
gene 1 11 21 1.67805 0 30 1.67805 0
gene 1 12 21 -0.806158 0 31 -0.806158 1
gene 1 13 21 0.087411 0 32 0.087411 1
gene 1 14 21 0.116715 0 33 0.116715 1
gene 1 15 21 -0.363046 0 34 -0.363046 1
gene 1 16 21 -0.180162 0 35 -0.180162 1
gene 1 17 21 0.520218 0 36 0.520218 1
gene 1 18 21 0.464622 0 37 0.464622 1
gene 1 19 21 0.170228 0 38 0.170228 1
gene 1 1 22 0.457852 0 39 0.457852 1
gene 1 2 22 0.751499 0 40 0.751499 1
gene 1 3 22 0.76902 0 41 0.76902 1
gene 1 4 22 0.144542 0 42 0.144542 1
gene 1 5 22 0.438494 0 43 0.438494 1
gene 1 6 22 -0.197608 0 44 -0.197608 1
gene 1 7 22 -0.201053 0 45 -0.201053 1
gene 1 8 22 0.0408441 0 46 0.0408441 1
gene 1 9 22 -0.586592 0 47 -0.586592 1
gene 1 10 22 -0.186044 0 48 -0.186044 1
gene 1 11 22 0.726662 0 49 0.726662 1
gene 1 12 22 0.379842 0 50 0.379842 1
gene 1 13 22 0.511555 0 51 0.511555 1
gene 1 14 22 0.0356821 0 52 0.0356821 1
gene 1 15 22 -0.234193 0 53 -0.234193 1
gene 1 16 22 0.129724 0 54 0.129724 1
gene 1 17 22 0.253097 0 55 0.253097 1
gene 1 18 22 -0.0447147 0 56 -0.0447147 1
gene 1 19 22 -0.192694 0 57 -0.192694 1
gene 1 1 23 -0.453301 0 58 -0.453301 1
gene 1 2 23 0.397448 0 59 0.397448 1
gene 1 3 23 0.456914 0 60 0.456914 1
gene 1 4 23 0.267975 0 61 0.267975 1
gene 1 5 23 -0.755822 0 62 -0.755822 1
gene 1 6 23 0.693637 0 63 0.693637 1
gene 1 7 23 -0.213908 0 64 -0.213908 1
gene 1 8 23 -0.757974 0 65 -0.757974 1
gene 1 9 23 -0.190598 0 66 -0.190598 1
gene 1 10 23 -0.503146 0 67 -0.503146 1
gene 1 11 23 -0.430854 0 68 -0.430854 1
gene 1 12 23 -0.479871 0 69 -0.479871 1
gene 1 13 23 -0.319381 0 70 -0.319381 1
gene 1 14 23 0.337929 0 71 0.337929 1
gene 1 15 23 1.68216 0 72 1.68216 1
gene 1 16 23 0.595094 0 73 0.595094 1
gene 1 17 23 -0.29594 0 74 -0.29594 0
gene 1 18 23 0.033098 0 75 0.033098 1
gene 1 19 23 0.393979 0 76 0.393979 1
gene 1 8 24 1.37557 0 77 1.37557 1
gene 1 24 20 0.33682 0 78 0.33682 1
gene 1 15 26 -0.259776 0 85 -0.259776 1
gene 1 26 20 0.451461 0 86 0.451461 1
gene 1 22 20 -0.108162 0 87 -0.108162 1
gene 1 2 24 -1.04043 0 91 -1.04043 1
gene 1 8 28 0.355921 0 93 0.355921 1
gene 1 28 24 -1.41294 0 94 -1.41294 1
gene 1 6 24 0.588616 0 96 0.588616 1
gene 1 16 26 0.52463 0 99 0.52463 1
gene 1 13 24 -1.15756 0 100 -1.15756 1
gene 1 23 24 -1.16865 0 113 -1.16865 1
gene 1 13 32 0.360109 0 116 0.360109 1
gene 1 32 21 0.194235 0 117 0.194235 1
gene 1 11 34 -0.168171 0 122 -0.168171 1
gene 1 34 21 -0.913989 0 123 -0.913989 1
gene 1 9 36 0.390773 0 127 0.390773 1
gene 1 36 20 -0.347952 0 128 -0.347952 1
gene 1 10 37 -0.153584 0 129 -0.153584 1
gene 1 37 20 1.04103 0 130 1.04103 1
gene 1 17 39 0.496896 0 134 0.496896 1
gene 1 39 23 0.714299 0 135 0.714299 1
gene 1 24 37 -0.427675 0 140 -0.427675 1
gene 1 19 24 0.0534153 0 144 0.0534153 1
gene 1 15 43 0.107161 0 150 0.107161 1
gene 1 43 21 -0.345881 0 151 -0.345881 1
gene 1 3 43 -0.254893 0 153 -0.254893 1
gene 1 8 32 -0.160502 0 154 -0.160502 1
gene 1 11 46 -0.872085 0 161 -0.872085 1
gene 1 46 20 -0.891702 0 162 -0.891702 1
gene 1 2 39 0.411104 0 178 0.411104 1
gene 1 6 53 -0.197798 0 191 -0.197798 1
gene 1 53 22 0.358413 0 192 0.358413 1
gene 1 39 34 -0.45818 0 193 -0.45818 1
gene 1 16 54 -0.93807 0 194 -0.93807 1
gene 1 54 26 0.48792 0 195 0.48792 1
gene 1 6 43 0.0134079 0 210 0.0134079 1
gene 1 18 32 0.49203 0 213 0.49203 1
gene 1 17 60 -0.227133 0 217 -0.227133 1
gene 1 60 22 -0.104874 0 218 -0.104874 1
gene 1 20 20 -0.368214 1 221 -0.368214 1
gene 1 1 43 0.293929 0 234 0.293929 1
gene 1 10 66 0.0250203 0 266 0.0250203 1
gene 1 66 21 0.0205491 0 267 0.0205491 1
gene 1 8 71 0.314959 0 288 0.314959 1
gene 1 71 28 -0.271761 0 289 -0.271761 1
gene 1 15 53 0.0219891 0 295 0.0219891 1
genomeend 357
genomestart 472
trait 1 0 0.0348521 0.0192173 0.309137 0.682893 0.0174367 0 0.334892 
node 1 1 1 1 0
node 2 1 1 1 0
node 3 1 1 1 0
node 4 1 1 1 0
node 5 1 1 1 0
node 6 1 1 1 0
node 7 1 1 1 0
node 8 1 1 1 0
node 9 1 1 1 0
node 10 1 1 1 0
node 11 1 1 1 0
node 12 1 1 1 0
node 13 1 1 1 0
node 14 1 1 1 0
node 15 1 1 1 0
node 16 1 1 1 0
node 17 1 1 1 0
node 18 1 1 1 0
node 19 1 1 3 0
node 20 1 0 2 0
node 21 1 0 2 0
node 22 1 0 2 0
node 23 1 0 2 0
node 24 1 0 0 0
node 26 1 0 0 0
node 28 1 0 0 0
node 32 1 0 0 0
node 37 1 0 0 0
node 39 1 0 0 0
node 43 1 0 0 0
node 53 1 0 0 0
node 60 1 0 0 0
node 66 1 0 0 0
node 68 1 0 0 0
gene 1 1 20 -0.191165 0 1 -0.191165 1
gene 1 2 20 -0.0331768 0 2 -0.0331768 1
gene 1 3 20 -0.709934 0 3 -0.709934 1
gene 1 4 20 -0.482983 0 4 -0.482983 1
gene 1 5 20 -0.432992 0 5 -0.432992 1
gene 1 6 20 0.112826 0 6 0.112826 1
gene 1 7 20 0.169702 0 7 0.169702 1
gene 1 8 20 -0.148484 0 8 -0.148484 0
gene 1 9 20 0.0642542 0 9 0.0642542 1
gene 1 10 20 -0.0210366 0 10 -0.0210366 1
gene 1 11 20 0.486729 0 11 0.486729 1
gene 1 12 20 -0.253463 0 12 -0.253463 1
gene 1 13 20 0.174961 0 13 0.174961 1
gene 1 14 20 -0.00186986 0 14 -0.00186986 1
gene 1 15 20 0.113137 0 15 0.113137 1
gene 1 16 20 0.0768053 0 16 0.0768053 1
gene 1 17 20 0.148614 0 17 0.148614 1
gene 1 18 20 -0.454427 0 18 -0.454427 1
gene 1 19 20 -0.458787 0 19 -0.458787 1
gene 1 1 21 0.855371 0 20 0.855371 1
gene 1 2 21 0.360967 0 21 0.360967 1
gene 1 3 21 0.8705 0 22 0.8705 1
gene 1 4 21 0.56967 0 23 0.56967 1
gene 1 5 21 -0.585367 0 24 -0.585367 1
gene 1 6 21 0.202005 0 25 0.202005 1
gene 1 7 21 -0.154773 0 26 -0.154773 1
gene 1 8 21 1.20247 0 27 1.20247 1
gene 1 9 21 -0.42609 0 28 -0.42609 1
gene 1 10 21 -0.338271 0 29 -0.338271 1
gene 1 11 21 0.0069424 0 30 0.0069424 1
gene 1 12 21 1.1618 0 31 1.1618 1
gene 1 13 21 -0.55123 0 32 -0.55123 0
gene 1 14 21 -0.24011 0 33 -0.24011 1
gene 1 15 21 0.480197 0 34 0.480197 0
gene 1 16 21 -0.0751342 0 35 -0.0751342 1
gene 1 17 21 -0.346267 0 36 -0.346267 1
gene 1 18 21 0.0946904 0 37 0.0946904 1
gene 1 19 21 -0.256226 0 38 -0.256226 1
gene 1 1 22 -0.261306 0 39 -0.261306 1
gene 1 2 22 -0.361743 0 40 -0.361743 1
gene 1 3 22 0.401802 0 41 0.401802 1
gene 1 4 22 0.0345243 0 42 0.0345243 1
gene 1 5 22 -0.279122 0 43 -0.279122 1
gene 1 6 22 0.446674 0 44 0.446674 0
gene 1 7 22 -0.168478 0 45 -0.168478 1
gene 1 8 22 -0.303455 0 46 -0.303455 1
gene 1 9 22 0.0819213 0 47 0.0819213 1
gene 1 10 22 0.183023 0 48 0.183023 1
gene 1 11 22 0.143242 0 49 0.143242 1
gene 1 12 22 1.3865 0 50 1.3865 1
gene 1 13 22 -0.04249 0 51 -0.04249 1
gene 1 14 22 0.0976064 0 52 0.0976064 1
gene 1 15 22 0.127455 0 53 0.127455 1
gene 1 16 22 0.630363 0 54 0.630363 1
gene 1 17 22 -0.0702312 0 55 -0.0702312 0
gene 1 18 22 0.807783 0 56 0.807783 1
gene 1 19 22 0.3631 0 57 0.3631 1
gene 1 1 23 -0.663172 0 58 -0.663172 1
gene 1 2 23 0.685747 0 59 0.685747 1
gene 1 3 23 -0.836304 0 60 -0.836304 1
gene 1 4 23 -0.207614 0 61 -0.207614 1
gene 1 5 23 -0.449848 0 62 -0.449848 1
gene 1 6 23 -0.229593 0 63 -0.229593 1
gene 1 7 23 -0.306286 0 64 -0.306286 1
gene 1 8 23 -0.801459 0 65 -0.801459 1
gene 1 9 23 0.0829565 0 66 0.0829565 1
gene 1 10 23 0.214014 0 67 0.214014 1
gene 1 11 23 -1.19 0 68 -1.19 1
gene 1 12 23 0.456429 0 69 0.456429 1
gene 1 13 23 -0.261681 0 70 -0.261681 1
gene 1 14 23 0.0727217 0 71 0.0727217 1
gene 1 15 23 0.160376 0 72 0.160376 1
gene 1 16 23 -0.170598 0 73 -0.170598 1
gene 1 17 23 -0.862148 0 74 -0.862148 0
gene 1 18 23 0.38931 0 75 0.38931 1
gene 1 19 23 -0.150111 0 76 -0.150111 1
gene 1 8 24 1.16244 0 77 1.16244 1
gene 1 24 20 0.104942 0 78 0.104942 1
gene 1 15 26 0.4285 0 85 0.4285 1
gene 1 26 20 -0.221886 0 86 -0.221886 1
gene 1 22 20 0.325292 0 87 0.325292 1
gene 1 2 24 0.147721 0 91 0.147721 1
gene 1 8 28 0.547187 0 93 0.547187 1
gene 1 28 24 0.192787 0 94 0.192787 1
gene 1 6 24 0.0575779 0 96 0.0575779 1
gene 1 16 26 0.0419325 0 99 0.0419325 1
gene 1 13 24 0.324167 0 100 0.324167 1
gene 1 23 24 -0.0852454 0 113 -0.0852454 1
gene 1 13 32 0.464356 0 116 0.464356 1
gene 1 32 21 0.146351 0 117 0.146351 1
gene 1 10 37 0.128751 0 129 0.128751 1
gene 1 37 20 0.812755 0 130 0.812755 1
gene 1 17 39 -0.299603 0 134 -0.299603 1
gene 1 39 23 0.0654041 0 135 0.0654041 1
gene 1 15 43 0.30939 0 150 0.30939 1
gene 1 43 21 0.544401 0 151 0.544401 1
gene 1 3 43 0.311776 0 153 0.311776 1
gene 1 8 32 -0.0121324 0 154 -0.0121324 1
gene 1 2 39 0.0244014 0 178 0.0244014 1
gene 1 6 53 -0.263827 0 191 -0.263827 1
gene 1 53 22 0.119771 0 192 0.119771 1
gene 1 6 43 0.241045 0 210 0.241045 1
gene 1 17 60 0.0785178 0 217 0.0785178 1
gene 1 60 22 0.711345 0 218 0.711345 1
gene 1 20 20 0.232256 1 221 0.232256 1
gene 1 1 43 -0.194135 0 234 -0.194135 1
gene 1 15 37 0.282508 0 261 0.282508 1
gene 1 10 66 -0.177636 0 266 -0.177636 1
gene 1 66 21 -0.0547064 0 267 -0.0547064 1
gene 1 18 32 -0.300874 0 271 -0.300874 1
gene 1 5 68 0.474301 0 277 0.474301 1
gene 1 68 20 -0.777105 0 278 -0.777105 1
genomeend 472
genomestart 480
trait 1 0 0.196466 0.0227695 0.656265 0.933653 0.174425 0.0751885 0.0878993 
node 1 1 1 1 0
node 2 1 1 1 0
node 3 1 1 1 0
node 4 1 1 1 0
node 5 1 1 1 0
node 6 1 1 1 0
node 7 1 1 1 0
node 8 1 1 1 0
node 9 1 1 1 0
node 10 1 1 1 0
node 11 1 1 1 0
node 12 1 1 1 0
node 13 1 1 1 0
node 14 1 1 1 0
node 15 1 1 1 0
node 16 1 1 1 0
node 17 1 1 1 0
node 18 1 1 1 0
node 19 1 1 3 0
node 20 1 0 2 0
node 21 1 0 2 0
node 22 1 0 2 0
node 23 1 0 2 0
node 24 1 0 0 0
node 26 1 0 0 0
node 28 1 0 0 0
node 32 1 0 0 0
node 34 1 0 0 0
node 36 1 0 0 0
node 37 1 0 0 0
node 39 1 0 0 0
node 43 1 0 0 0
node 46 1 0 0 0
node 53 1 0 0 0
node 54 1 0 0 0
node 60 1 0 0 0
node 66 1 0 0 0
node 71 1 0 0 0
node 95 1 0 0 0
gene 1 1 20 0.441629 0 1 0.441629 1
gene 1 2 20 -0.722606 0 2 -0.722606 1
gene 1 3 20 -0.056066 0 3 -0.056066 1
gene 1 4 20 0.28912 0 4 0.28912 1
gene 1 5 20 -0.180224 0 5 -0.180224 1
gene 1 6 20 -0.303997 0 6 -0.303997 1
gene 1 7 20 1.25959 0 7 1.25959 1
gene 1 8 20 0.396353 0 8 0.396353 0
gene 1 9 20 0.220075 0 9 0.220075 1
gene 1 10 20 0.292888 0 10 0.292888 1
gene 1 11 20 -0.0956449 0 11 -0.0956449 0
gene 1 12 20 0.727617 0 12 0.727617 1
gene 1 13 20 -0.260845 0 13 -0.260845 1
gene 1 14 20 -0.209072 0 14 -0.209072 1
gene 1 15 20 -0.195929 0 15 -0.195929 1
gene 1 16 20 0.178099 0 16 0.178099 1
gene 1 17 20 0.0746084 0 17 0.0746084 1
gene 1 18 20 1.32178 0 18 1.32178 1
gene 1 19 20 0.161088 0 19 0.161088 1
gene 1 1 21 0.232817 0 20 0.232817 1
gene 1 2 21 -0.20288 0 21 -0.20288 1
gene 1 3 21 2.84346 0 22 2.84346 1
gene 1 4 21 0.144594 0 23 0.144594 1
gene 1 5 21 0.865876 0 24 0.865876 1
gene 1 6 21 0.368068 0 25 0.368068 1
gene 1 7 21 0.277004 0 26 0.277004 1
gene 1 8 21 -0.0480039 0 27 -0.0480039 1
gene 1 9 21 0.336558 0 28 0.336558 1
gene 1 10 21 1.06035 0 29 1.06035 1
gene 1 11 21 1.30236 0 30 1.30236 0
gene 1 12 21 -0.806158 0 31 -0.806158 1
gene 1 13 21 0.087411 0 32 0.087411 1
gene 1 14 21 -0.264087 0 33 -0.264087 1
gene 1 15 21 -0.363046 0 34 -0.363046 1
gene 1 16 21 0.2553 0 35 0.2553 1
gene 1 17 21 0.520218 0 36 0.520218 1
gene 1 18 21 0.464622 0 37 0.464622 1
gene 1 19 21 0.170228 0 38 0.170228 1
gene 1 1 22 0.457852 0 39 0.457852 1
gene 1 2 22 0.751499 0 40 0.751499 1
gene 1 3 22 0.76902 0 41 0.76902 1
gene 1 4 22 -0.221695 0 42 -0.221695 1
gene 1 5 22 0.438494 0 43 0.438494 1
gene 1 6 22 -0.197608 0 44 -0.197608 1
gene 1 7 22 -0.125461 0 45 -0.125461 1
gene 1 8 22 -0.0681389 0 46 -0.0681389 1
gene 1 9 22 -0.586592 0 47 -0.586592 1
gene 1 10 22 0.37636 0 48 0.37636 1
gene 1 11 22 0.726662 0 49 0.726662 1
gene 1 12 22 0.379842 0 50 0.379842 1
gene 1 13 22 0.731513 0 51 0.731513 1
gene 1 14 22 0.0356821 0 52 0.0356821 1
gene 1 15 22 -0.234193 0 53 -0.234193 1
gene 1 16 22 0.368292 0 54 0.368292 1
gene 1 17 22 0.253097 0 55 0.253097 1
gene 1 18 22 -0.319659 0 56 -0.319659 1
gene 1 19 22 0.00662815 0 57 0.00662815 1
gene 1 1 23 -0.453301 0 58 -0.453301 1
gene 1 2 23 0.397448 0 59 0.397448 1
gene 1 3 23 0.456914 0 60 0.456914 1
gene 1 4 23 -0.137353 0 61 -0.137353 1
gene 1 5 23 -0.755822 0 62 -0.755822 1
gene 1 6 23 0.693637 0 63 0.693637 1
gene 1 7 23 -0.213908 0 64 -0.213908 1
gene 1 8 23 -0.757974 0 65 -0.757974 1
gene 1 9 23 -0.305463 0 66 -0.305463 1
gene 1 10 23 -0.277018 0 67 -0.277018 1
gene 1 11 23 -0.430854 0 68 -0.430854 1
gene 1 12 23 -0.479871 0 69 -0.479871 0
gene 1 13 23 -0.319381 0 70 -0.319381 1
gene 1 14 23 0.337929 0 71 0.337929 1
gene 1 15 23 1.48115 0 72 1.48115 1
gene 1 16 23 0.595094 0 73 0.595094 1
gene 1 17 23 -0.59804 0 74 -0.59804 0
gene 1 18 23 0.033098 0 75 0.033098 1
gene 1 19 23 0.393979 0 76 0.393979 1
gene 1 8 24 1.45235 0 77 1.45235 1
gene 1 24 20 0.33682 0 78 0.33682 1
gene 1 15 26 0.299538 0 85 0.299538 1
gene 1 26 20 -0.257342 0 86 -0.257342 1
gene 1 22 20 -0.108162 0 87 -0.108162 1
gene 1 2 24 -1.04043 0 91 -1.04043 1
gene 1 8 28 0.355921 0 93 0.355921 1
gene 1 28 24 -0.922458 0 94 -0.922458 1
gene 1 6 24 0.588616 0 96 0.588616 1
gene 1 16 26 0.76615 0 99 0.76615 1
gene 1 13 24 -0.975035 0 100 -0.975035 1
gene 1 23 24 -0.838164 0 113 -0.838164 1
gene 1 13 32 -0.0443967 0 116 -0.0443967 1
gene 1 32 21 0.417908 0 117 0.417908 1
gene 1 11 34 -0.0211955 0 122 -0.0211955 1
gene 1 34 21 -0.913989 0 123 -0.913989 1
gene 1 9 36 0.438717 0 127 0.438717 1
gene 1 36 20 0.156604 0 128 0.156604 1
gene 1 10 37 -0.153584 0 129 -0.153584 1
gene 1 37 20 1.04103 0 130 1.04103 1
gene 1 17 39 0.632615 0 134 0.632615 1
gene 1 39 23 0.714299 0 135 0.714299 1
gene 1 24 37 -0.396167 0 140 -0.396167 1
gene 1 19 24 0.064742 0 144 0.064742 1
gene 1 15 43 -0.563864 0 150 -0.563864 1
gene 1 43 21 -0.370459 0 151 -0.370459 1
gene 1 3 43 -0.166871 0 153 -0.166871 1
gene 1 8 32 -0.160502 0 154 -0.160502 1
gene 1 11 46 -0.376843 0 161 -0.376843 1
gene 1 46 20 -0.748491 0 162 -0.748491 1
gene 1 2 39 0.048817 0 178 0.048817 1
gene 1 6 53 0.362138 0 191 0.362138 1
gene 1 53 22 0.358413 0 192 0.358413 1
gene 1 39 34 -0.45818 0 193 -0.45818 1
gene 1 16 54 -0.93807 0 194 -0.93807 1
gene 1 54 26 0.345193 0 195 0.345193 1
gene 1 6 43 0.0134079 0 210 0.0134079 1
gene 1 18 32 0.49203 0 213 0.49203 1
gene 1 17 60 -0.227133 0 217 -0.227133 1
gene 1 60 22 -0.218686 0 218 -0.218686 1
gene 1 20 20 -0.368214 1 221 -0.368214 1
gene 1 1 43 -0.0526189 0 234 -0.0526189 1
gene 1 10 66 0.164847 0 266 0.164847 1
gene 1 66 21 0.0205491 0 267 0.0205491 1
gene 1 8 71 0.272318 0 288 0.272318 1
gene 1 71 28 -0.630595 0 289 -0.630595 1
gene 1 15 53 0.0219891 0 295 0.0219891 1
gene 1 12 95 1 0 365 0 1
gene 1 95 23 -0.143961 0 366 0 1
genomeend 480
genomestart 518
trait 1 0 0.0405818 0.0191687 0.295069 0.713108 0.00871833 0 0.369868 
node 1 1 1 1 0
node 2 1 1 1 0
node 3 1 1 1 0
node 4 1 1 1 0
node 5 1 1 1 0
node 6 1 1 1 0
node 7 1 1 1 0
node 8 1 1 1 0
node 9 1 1 1 0
node 10 1 1 1 0
node 11 1 1 1 0
node 12 1 1 1 0
node 13 1 1 1 0
node 14 1 1 1 0
node 15 1 1 1 0
node 16 1 1 1 0
node 17 1 1 1 0
node 18 1 1 1 0
node 19 1 1 3 0
node 20 1 0 2 0
node 21 1 0 2 0
node 22 1 0 2 0
node 23 1 0 2 0
node 24 1 0 0 0
node 26 1 0 0 0
node 28 1 0 0 0
node 32 1 0 0 0
node 37 1 0 0 0
node 39 1 0 0 0
node 43 1 0 0 0
node 53 1 0 0 0
node 60 1 0 0 0
node 66 1 0 0 0
node 68 1 0 0 0
gene 1 1 20 -0.0530252 0 1 -0.0530252 1
gene 1 2 20 -0.197276 0 2 -0.197276 1
gene 1 3 20 -0.898723 0 3 -0.898723 1
gene 1 4 20 -0.403085 0 4 -0.403085 1
gene 1 5 20 -0.82326 0 5 -0.82326 1
gene 1 6 20 -0.415986 0 6 -0.415986 1
gene 1 7 20 -0.119792 0 7 -0.119792 1
gene 1 8 20 0.126527 0 8 0.126527 0
gene 1 9 20 0.437956 0 9 0.437956 1
gene 1 10 20 0.203644 0 10 0.203644 1
gene 1 11 20 0.0608507 0 11 0.0608507 1
gene 1 12 20 0.0113966 0 12 0.0113966 1
gene 1 13 20 0.110818 0 13 0.110818 1
gene 1 14 20 0.243378 0 14 0.243378 1
gene 1 15 20 -0.119676 0 15 -0.119676 1
gene 1 16 20 0.145695 0 16 0.145695 1
gene 1 17 20 0.28323 0 17 0.28323 1
gene 1 18 20 -0.390517 0 18 -0.390517 1
gene 1 19 20 0.0895811 0 19 0.0895811 1
gene 1 1 21 0.405527 0 20 0.405527 1
gene 1 2 21 0.167679 0 21 0.167679 1
gene 1 3 21 0.494015 0 22 0.494015 1
gene 1 4 21 0.859818 0 23 0.859818 1
gene 1 5 21 -0.0831484 0 24 -0.0831484 1
gene 1 6 21 0.940799 0 25 0.940799 1
gene 1 7 21 -0.231377 0 26 -0.231377 1
gene 1 8 21 0.207056 0 27 0.207056 1
gene 1 9 21 -0.406868 0 28 -0.406868 1
gene 1 10 21 -0.962092 0 29 -0.962092 1
gene 1 11 21 0.155222 0 30 0.155222 1
gene 1 12 21 0.657865 0 31 0.657865 1
gene 1 13 21 -0.211018 0 32 -0.211018 0
gene 1 14 21 -0.717566 0 33 -0.717566 1
gene 1 15 21 0.285087 0 34 0.285087 0
gene 1 16 21 -0.17218 0 35 -0.17218 1
gene 1 17 21 -0.0526626 0 36 -0.0526626 1
gene 1 18 21 0.149393 0 37 0.149393 1
gene 1 19 21 -0.104425 0 38 -0.104425 1
gene 1 1 22 0.791483 0 39 0.791483 1
gene 1 2 22 -0.440973 0 40 -0.440973 1
gene 1 3 22 0.139624 0 41 0.139624 1
gene 1 4 22 0.359456 0 42 0.359456 1
gene 1 5 22 0.154789 0 43 0.154789 1
gene 1 6 22 0.447911 0 44 0.447911 1
gene 1 7 22 -0.0320314 0 45 -0.0320314 1
gene 1 8 22 -0.667243 0 46 -0.667243 1
gene 1 9 22 0.295875 0 47 0.295875 1
gene 1 10 22 -0.0558069 0 48 -0.0558069 1
gene 1 11 22 0.773144 0 49 0.773144 1
gene 1 12 22 1.38142 0 50 1.38142 1
gene 1 13 22 0.0534935 0 51 0.0534935 1
gene 1 14 22 0.260825 0 52 0.260825 1
gene 1 15 22 -0.133338 0 53 -0.133338 1
gene 1 16 22 0.409342 0 54 0.409342 1
gene 1 17 22 0.298069 0 55 0.298069 1
gene 1 18 22 -0.484644 0 56 -0.484644 1
gene 1 19 22 -0.0813564 0 57 -0.0813564 1
gene 1 1 23 0.0320529 0 58 0.0320529 1
gene 1 2 23 0.458572 0 59 0.458572 1
gene 1 3 23 -1.11963 0 60 -1.11963 1
gene 1 4 23 0.455638 0 61 0.455638 1
gene 1 5 23 -0.380367 0 62 -0.380367 1
gene 1 6 23 -0.179308 0 63 -0.179308 1
gene 1 7 23 -0.448297 0 64 -0.448297 1
gene 1 8 23 -0.00626272 0 65 -0.00626272 1
gene 1 9 23 0.157468 0 66 0.157468 1
gene 1 10 23 0.0467867 0 67 0.0467867 1
gene 1 11 23 -1.39191 0 68 -1.39191 1
gene 1 12 23 0.381084 0 69 0.381084 1
gene 1 13 23 0.056171 0 70 0.056171 1
gene 1 14 23 -0.811311 0 71 -0.811311 1
gene 1 15 23 0.24869 0 72 0.24869 1
gene 1 16 23 0.0713205 0 73 0.0713205 1
gene 1 17 23 -0.348005 0 74 -0.348005 0
gene 1 18 23 1.02779 0 75 1.02779 1
gene 1 19 23 -0.710547 0 76 -0.710547 1
gene 1 8 24 0.93703 0 77 0.93703 1
gene 1 24 20 0.030019 0 78 0.030019 1
gene 1 15 26 0.522856 0 85 0.522856 1
gene 1 26 20 -0.332937 0 86 -0.332937 1
gene 1 22 20 -0.335152 0 87 -0.335152 1
gene 1 2 24 0.0335693 0 91 0.0335693 1
gene 1 8 28 0.239393 0 93 0.239393 1
gene 1 28 24 -0.319254 0 94 -0.319254 1
gene 1 6 24 -0.153289 0 96 -0.153289 1
gene 1 16 26 -0.636646 0 99 -0.636646 1
gene 1 13 24 0.652407 0 100 0.652407 1
gene 1 23 24 -0.0869212 0 113 -0.0869212 1
gene 1 13 32 0.826169 0 116 0.826169 1
gene 1 32 21 -0.274071 0 117 -0.274071 1
gene 1 10 37 0.32251 0 129 0.32251 1
gene 1 37 20 0.515221 0 130 0.515221 1
gene 1 17 39 -0.624489 0 134 -0.624489 1
gene 1 39 23 -0.033766 0 135 -0.033766 1
gene 1 15 43 0.293962 0 150 0.293962 1
gene 1 43 21 0.215652 0 151 0.215652 1
gene 1 3 43 -0.0731534 0 153 -0.0731534 1
gene 1 8 32 -0.462839 0 154 -0.462839 1
gene 1 2 39 0.122757 0 178 0.122757 1
gene 1 6 53 0.0293651 0 191 0.0293651 1
gene 1 53 22 -0.394068 0 192 -0.394068 1
gene 1 6 43 0.209897 0 210 0.209897 1
gene 1 17 60 -0.0913808 0 217 -0.0913808 1
gene 1 60 22 -0.289493 0 218 -0.289493 1
gene 1 20 20 0.0693133 1 221 0.0693133 1
gene 1 1 43 0.00720057 0 234 0.00720057 1
gene 1 15 37 0.0198314 0 261 0.0198314 1
gene 1 10 66 0.065776 0 266 0.065776 1
gene 1 66 21 0.210569 0 267 0.210569 1
gene 1 18 32 -0.219829 0 271 -0.219829 1
gene 1 5 68 0.828243 0 277 0.828243 1
gene 1 68 20 -0.475717 0 278 -0.475717 1
genomeend 518
genomestart 545
trait 1 0 0.196466 0.0227695 0.754063 0.954386 0.174425 0.0751885 0.0604308 
node 1 1 1 1 0
node 2 1 1 1 0
node 3 1 1 1 0
node 4 1 1 1 0
node 5 1 1 1 0
node 6 1 1 1 0
node 7 1 1 1 0
node 8 1 1 1 0
node 9 1 1 1 0
node 10 1 1 1 0
node 11 1 1 1 0
node 12 1 1 1 0
node 13 1 1 1 0
node 14 1 1 1 0
node 15 1 1 1 0
node 16 1 1 1 0
node 17 1 1 1 0
node 18 1 1 1 0
node 19 1 1 3 0
node 20 1 0 2 0
node 21 1 0 2 0
node 22 1 0 2 0
node 23 1 0 2 0
node 24 1 0 0 0
node 26 1 0 0 0
node 28 1 0 0 0
node 32 1 0 0 0
node 34 1 0 0 0
node 36 1 0 0 0
node 37 1 0 0 0
node 39 1 0 0 0
node 43 1 0 0 0
node 46 1 0 0 0
node 53 1 0 0 0
node 54 1 0 0 0
node 60 1 0 0 0
node 66 1 0 0 0
node 71 1 0 0 0
gene 1 1 20 0.93882 0 1 0.93882 1
gene 1 2 20 -0.481376 0 2 -0.481376 1
gene 1 3 20 0.230428 0 3 0.230428 1
gene 1 4 20 0.374846 0 4 0.374846 1
gene 1 5 20 -0.712444 0 5 -0.712444 1
gene 1 6 20 -0.853235 0 6 -0.853235 1
gene 1 7 20 0.981993 0 7 0.981993 1
gene 1 8 20 0.173066 0 8 0.173066 0
gene 1 9 20 0.383324 0 9 0.383324 1
gene 1 10 20 -0.0608172 0 10 -0.0608172 0
gene 1 11 20 -0.299204 0 11 -0.299204 0
gene 1 12 20 0.455106 0 12 0.455106 1
gene 1 13 20 0.0385788 0 13 0.0385788 1
gene 1 14 20 0.311092 0 14 0.311092 1
gene 1 15 20 -0.080611 0 15 -0.080611 1
gene 1 16 20 0.74726 0 16 0.74726 1
gene 1 17 20 0.200738 0 17 0.200738 1
gene 1 18 20 1.33633 0 18 1.33633 1
gene 1 19 20 0.845095 0 19 0.845095 1
gene 1 1 21 -0.480457 0 20 -0.480457 1
gene 1 2 21 -0.545703 0 21 -0.545703 1
gene 1 3 21 2.96331 0 22 2.96331 1
gene 1 4 21 0.180666 0 23 0.180666 1
gene 1 5 21 0.556584 0 24 0.556584 1
gene 1 6 21 -0.24593 0 25 -0.24593 1
gene 1 7 21 0.643381 0 26 0.643381 1
gene 1 8 21 0.550362 0 27 0.550362 1
gene 1 9 21 0.133133 0 28 0.133133 1
gene 1 10 21 0.695992 0 29 0.695992 1
gene 1 11 21 1.56699 0 30 1.56699 0
gene 1 12 21 -0.397355 0 31 -0.397355 1
gene 1 13 21 -0.429462 0 32 -0.429462 1
gene 1 14 21 -0.0314045 0 33 -0.0314045 1
gene 1 15 21 -0.243074 0 34 -0.243074 1
gene 1 16 21 -0.296761 0 35 -0.296761 1
gene 1 17 21 0.265478 0 36 0.265478 1
gene 1 18 21 0.782263 0 37 0.782263 1
gene 1 19 21 0.0412511 0 38 0.0412511 1
gene 1 1 22 0.212323 0 39 0.212323 1
gene 1 2 22 -0.024358 0 40 -0.024358 1
gene 1 3 22 0.788047 0 41 0.788047 1
gene 1 4 22 -0.285394 0 42 -0.285394 1
gene 1 5 22 0.220021 0 43 0.220021 1
gene 1 6 22 -0.484723 0 44 -0.484723 1
gene 1 7 22 -0.644534 0 45 -0.644534 1
gene 1 8 22 -0.540881 0 46 -0.540881 1
gene 1 9 22 -1.40605 0 47 -1.40605 1
gene 1 10 22 -0.591354 0 48 -0.591354 1
gene 1 11 22 0.43012 0 49 0.43012 1
gene 1 12 22 -0.358061 0 50 -0.358061 1
gene 1 13 22 0.83752 0 51 0.83752 1
gene 1 14 22 0.194013 0 52 0.194013 1
gene 1 15 22 0.18575 0 53 0.18575 1
gene 1 16 22 -0.371425 0 54 -0.371425 1
gene 1 17 22 -0.210881 0 55 -0.210881 0
gene 1 18 22 -0.385686 0 56 -0.385686 1
gene 1 19 22 -0.0247423 0 57 -0.0247423 1
gene 1 1 23 -0.799904 0 58 -0.799904 1
gene 1 2 23 -0.188032 0 59 -0.188032 1
gene 1 3 23 0.509013 0 60 0.509013 1
gene 1 4 23 0.365617 0 61 0.365617 1
gene 1 5 23 -0.47035 0 62 -0.47035 1
gene 1 6 23 0.900637 0 63 0.900637 1
gene 1 7 23 0.354827 0 64 0.354827 1
gene 1 8 23 -1.03283 0 65 -1.03283 1
gene 1 9 23 0.200828 0 66 0.200828 1
gene 1 10 23 -0.00642509 0 67 -0.00642509 1
gene 1 11 23 0.361971 0 68 0.361971 1
gene 1 12 23 -0.542383 0 69 -0.542383 1
gene 1 13 23 -0.578401 0 70 -0.578401 1
gene 1 14 23 0.707494 0 71 0.707494 1
gene 1 15 23 1.36462 0 72 1.36462 1
gene 1 16 23 0.325524 0 73 0.325524 1
gene 1 17 23 -0.465787 0 74 -0.465787 0
gene 1 18 23 0.102094 0 75 0.102094 1
gene 1 19 23 0.0482561 0 76 0.0482561 1
gene 1 8 24 1.57394 0 77 1.57394 0
gene 1 24 20 0.257172 0 78 0.257172 1
gene 1 15 26 0.217588 0 85 0.217588 1
gene 1 26 20 -0.267344 0 86 -0.267344 1
gene 1 22 20 -0.45539 0 87 -0.45539 1
gene 1 2 24 -0.736252 0 91 -0.736252 1
gene 1 8 28 0.805236 0 93 0.805236 0
gene 1 28 24 -1.47031 0 94 -1.47031 1
gene 1 6 24 0.621718 0 96 0.621718 1
gene 1 16 26 0.924799 0 99 0.924799 1
gene 1 13 24 -0.360084 0 100 -0.360084 1
gene 1 23 24 -0.655983 0 113 -0.655983 1
gene 1 13 32 0.0655376 0 116 0.0655376 1
gene 1 32 21 -0.318997 0 117 -0.318997 1
gene 1 11 34 0.420351 0 122 0.420351 1
gene 1 34 21 -0.88519 0 123 -0.88519 1
gene 1 9 36 -0.0900114 0 127 -0.0900114 1
gene 1 36 20 -0.334714 0 128 -0.334714 1
gene 1 10 37 0.341421 0 129 0.341421 1
gene 1 37 20 0.650491 0 130 0.650491 1
gene 1 17 39 1.13076 0 134 1.13076 1
gene 1 39 23 0.347106 0 135 0.347106 1
gene 1 24 37 -1.03011 0 140 -1.03011 1
gene 1 19 24 0.183307 0 144 0.183307 1
gene 1 15 43 -0.214279 0 150 -0.214279 1
gene 1 43 21 0.275755 0 151 0.275755 1
gene 1 3 43 -0.56762 0 153 -0.56762 1
gene 1 8 32 -0.0442283 0 154 -0.0442283 1
gene 1 11 46 0.481125 0 161 0.481125 1
gene 1 46 20 -1.11561 0 162 -1.11561 1
gene 1 2 39 0.255257 0 178 0.255257 1
gene 1 6 53 0.362138 0 191 0.362138 1
gene 1 53 22 0.327376 0 192 0.327376 1
gene 1 39 34 -0.447762 0 193 -0.447762 1
gene 1 16 54 -0.710351 0 194 -0.710351 1
gene 1 54 26 0.345193 0 195 0.345193 1
gene 1 6 43 0.234481 0 210 0.234481 1
gene 1 18 32 1.0562 0 213 1.0562 1
gene 1 17 60 -0.0894675 0 217 -0.0894675 1
gene 1 60 22 0.00893832 0 218 0.00893832 1
gene 1 20 20 -0.255703 1 221 -0.255703 1
gene 1 1 43 -0.0526189 0 234 -0.0526189 1
gene 1 10 66 0.164847 0 266 0.164847 1
gene 1 66 21 0.164736 0 267 0.164736 1
gene 1 8 71 0.461221 0 288 0.461221 1
gene 1 71 28 -0.661524 0 289 -0.661524 1
gene 1 15 53 0.290241 0 295 0.290241 1
gene 1 53 23 0.651499 0 338 0.651499 1
gene 1 26 24 0.642665 0 346 0.642665 1
genomeend 545
genomestart 571
trait 1 0 0.0392789 0.0192183 0.298072 0.704836 0.0108979 0 0.359846 
node 1 1 1 1 0
node 2 1 1 1 0
node 3 1 1 1 0
node 4 1 1 1 0
node 5 1 1 1 0
node 6 1 1 1 0
node 7 1 1 1 0
node 8 1 1 1 0
node 9 1 1 1 0
node 10 1 1 1 0
node 11 1 1 1 0
node 12 1 1 1 0
node 13 1 1 1 0
node 14 1 1 1 0
node 15 1 1 1 0
node 16 1 1 1 0
node 17 1 1 1 0
node 18 1 1 1 0
node 19 1 1 3 0
node 20 1 0 2 0
node 21 1 0 2 0
node 22 1 0 2 0
node 23 1 0 2 0
node 24 1 0 0 0
node 26 1 0 0 0
node 28 1 0 0 0
node 32 1 0 0 0
node 37 1 0 0 0
node 39 1 0 0 0
node 43 1 0 0 0
node 53 1 0 0 0
node 60 1 0 0 0
node 66 1 0 0 0
node 68 1 0 0 0
node 81 1 0 0 0
gene 1 1 20 -0.292909 0 1 -0.292909 1
gene 1 2 20 -0.436522 0 2 -0.436522 1
gene 1 3 20 -0.902525 0 3 -0.902525 1
gene 1 4 20 -0.247135 0 4 -0.247135 1
gene 1 5 20 0.160866 0 5 0.160866 1
gene 1 6 20 -0.354355 0 6 -0.354355 1
gene 1 7 20 0.136768 0 7 0.136768 1
gene 1 8 20 -0.426571 0 8 -0.426571 0
gene 1 9 20 -0.102647 0 9 -0.102647 1
gene 1 10 20 -0.183369 0 10 -0.183369 0
gene 1 11 20 0.0546262 0 11 0.0546262 1
gene 1 12 20 0.0455108 0 12 0.0455108 1
gene 1 13 20 0.287515 0 13 0.287515 1
gene 1 14 20 0.436629 0 14 0.436629 1
gene 1 15 20 -0.426713 0 15 -0.426713 1
gene 1 16 20 0.423423 0 16 0.423423 1
gene 1 17 20 0.0370131 0 17 0.0370131 1
gene 1 18 20 0.118924 0 18 0.118924 1
gene 1 19 20 -0.779869 0 19 -0.779869 1
gene 1 1 21 0.595513 0 20 0.595513 1
gene 1 2 21 0.299915 0 21 0.299915 1
gene 1 3 21 -0.13799 0 22 -0.13799 1
gene 1 4 21 1.16168 0 23 1.16168 1
gene 1 5 21 -0.694384 0 24 -0.694384 1
gene 1 6 21 0.523892 0 25 0.523892 1
gene 1 7 21 -0.185631 0 26 -0.185631 1
gene 1 8 21 0.335046 0 27 0.335046 1
gene 1 9 21 -0.511902 0 28 -0.511902 1
gene 1 10 21 -0.402277 0 29 -0.402277 1
gene 1 11 21 0.833352 0 30 0.833352 1
gene 1 12 21 0.484571 0 31 0.484571 1
gene 1 13 21 -0.662435 0 32 -0.662435 0
gene 1 14 21 -0.287333 0 33 -0.287333 1
gene 1 15 21 0.525742 0 34 0.525742 0
gene 1 16 21 -0.00508153 0 35 -0.00508153 1
gene 1 17 21 0.213853 0 36 0.213853 1
gene 1 18 21 -0.0842922 0 37 -0.0842922 1
gene 1 19 21 0.123288 0 38 0.123288 1
gene 1 1 22 1.06651 0 39 1.06651 1
gene 1 2 22 -0.301075 0 40 -0.301075 1
gene 1 3 22 0.140816 0 41 0.140816 1
gene 1 4 22 0.159098 0 42 0.159098 1
gene 1 5 22 -0.188509 0 43 -0.188509 1
gene 1 6 22 -0.327711 0 44 -0.327711 0
gene 1 7 22 0.120802 0 45 0.120802 1
gene 1 8 22 -0.7292 0 46 -0.7292 1
gene 1 9 22 -0.244997 0 47 -0.244997 1
gene 1 10 22 0.0403669 0 48 0.0403669 1
gene 1 11 22 0.385118 0 49 0.385118 1
gene 1 12 22 1.63596 0 50 1.63596 1
gene 1 13 22 0.0654726 0 51 0.0654726 1
gene 1 14 22 0.100258 0 52 0.100258 1
gene 1 15 22 -0.261347 0 53 -0.261347 1
gene 1 16 22 0.433603 0 54 0.433603 1
gene 1 17 22 -0.23477 0 55 -0.23477 0
gene 1 18 22 0.722009 0 56 0.722009 1
gene 1 19 22 0.223098 0 57 0.223098 1
gene 1 1 23 -0.324986 0 58 -0.324986 1
gene 1 2 23 0.825941 0 59 0.825941 1
gene 1 3 23 -0.857252 0 60 -0.857252 1
gene 1 4 23 -0.0598877 0 61 -0.0598877 1
gene 1 5 23 0.0924894 0 62 0.0924894 1
gene 1 6 23 -0.169792 0 63 -0.169792 1
gene 1 7 23 0.15782 0 64 0.15782 1
gene 1 8 23 -0.751632 0 65 -0.751632 1
gene 1 9 23 -0.0616305 0 66 -0.0616305 1
gene 1 10 23 0.649714 0 67 0.649714 1
gene 1 11 23 -0.685627 0 68 -0.685627 1
gene 1 12 23 0.229327 0 69 0.229327 1
gene 1 13 23 0.0835388 0 70 0.0835388 1
gene 1 14 23 -0.320583 0 71 -0.320583 1
gene 1 15 23 0.454239 0 72 0.454239 1
gene 1 16 23 0.0955766 0 73 0.0955766 1
gene 1 17 23 -1.0034 0 74 -1.0034 0
gene 1 18 23 0.631667 0 75 0.631667 1
gene 1 19 23 -0.411959 0 76 -0.411959 1
gene 1 8 24 0.929014 0 77 0.929014 1
gene 1 24 20 0.150271 0 78 0.150271 1
gene 1 15 26 0.450116 0 85 0.450116 1
gene 1 26 20 -0.681835 0 86 -0.681835 1
gene 1 22 20 0.3852 0 87 0.3852 1
gene 1 2 24 0.35978 0 91 0.35978 1
gene 1 8 28 0.662076 0 93 0.662076 1
gene 1 28 24 0.0497241 0 94 0.0497241 1
gene 1 6 24 0.138846 0 96 0.138846 1
gene 1 16 26 -0.651395 0 99 -0.651395 1
gene 1 13 24 0.00429284 0 100 0.00429284 1
gene 1 23 24 0.507216 0 113 0.507216 1
gene 1 13 32 0.9592 0 116 0.9592 1
gene 1 32 21 0.185741 0 117 0.185741 1
gene 1 10 37 -0.186534 0 129 -0.186534 1
gene 1 37 20 0.365784 0 130 0.365784 1
gene 1 17 39 -0.0985985 0 134 -0.0985985 1
gene 1 39 23 0.362949 0 135 0.362949 1
gene 1 15 43 -0.0448038 0 150 -0.0448038 1
gene 1 43 21 0.532385 0 151 0.532385 1
gene 1 3 43 -0.271833 0 153 -0.271833 1
gene 1 8 32 -0.11282 0 154 -0.11282 1
gene 1 2 39 0.0812329 0 178 0.0812329 1
gene 1 6 53 -0.00203356 0 191 -0.00203356 1
gene 1 53 22 -0.120876 0 192 -0.120876 1
gene 1 6 43 0.241654 0 210 0.241654 1
gene 1 17 60 0.0687081 0 217 0.0687081 1
gene 1 60 22 0.780277 0 218 0.780277 1
gene 1 20 20 0.653891 1 221 0.653891 1
gene 1 1 43 0.392336 0 234 0.392336 1
gene 1 15 37 0.38189 0 261 0.38189 1
gene 1 10 66 0.696092 0 266 0.696092 1
gene 1 66 21 0.199902 0 267 0.199902 1
gene 1 18 32 -0.191724 0 271 -0.191724 1
gene 1 5 68 0.0816338 0 277 0.0816338 1
gene 1 68 20 -0.346851 0 278 -0.346851 1
gene 1 39 60 -0.399183 0 322 -0.399183 1
gene 1 16 81 1 0 326 1 1
gene 1 81 26 0.190719 0 327 0.190719 1
genomeend 571
genomestart 585
trait 1 0.536398 0.324603 0.277354 0.0167842 0.791012 0.0716232 0.290245 0.55344 
node 1 1 1 1 0
node 2 1 1 1 0
node 3 1 1 1 0
node 4 1 1 1 0
node 5 1 1 1 0
node 6 1 1 1 0
node 7 1 1 1 0
node 8 1 1 1 0
node 9 1 1 1 0
node 10 1 1 1 0
node 11 1 1 1 0
node 12 1 1 1 0
node 13 1 1 1 0
node 14 1 1 1 0
node 15 1 1 1 0
node 16 1 1 1 0
node 17 1 1 1 0
node 18 1 1 1 0
node 19 1 1 3 0
node 20 1 0 2 0
node 21 1 0 2 0
node 22 1 0 2 0
node 23 1 0 2 0
node 24 1 0 0 0
node 26 1 0 0 0
node 28 1 0 0 0
node 32 1 0 0 0
node 37 1 0 0 0
node 39 1 0 0 0
node 43 1 0 0 0
node 53 1 0 0 0
node 75 1 0 0 0
node 90 1 0 0 0
gene 1 1 20 -0.285888 0 1 -0.285888 1
gene 1 2 20 0.408471 0 2 0.408471 1
gene 1 3 20 0.398842 0 3 0.398842 1
gene 1 4 20 -0.460469 0 4 -0.460469 1
gene 1 5 20 0.4273 0 5 0.4273 1
gene 1 6 20 -0.360778 0 6 -0.360778 1
gene 1 7 20 0.898164 0 7 0.898164 1
gene 1 8 20 1.00238 0 8 1.00238 0
gene 1 9 20 0.941392 0 9 0.941392 1
gene 1 10 20 -0.327785 0 10 -0.327785 0
gene 1 11 20 -0.241558 0 11 -0.241558 1
gene 1 12 20 -0.432513 0 12 -0.432513 1
gene 1 13 20 0.28377 0 13 0.28377 1
gene 1 14 20 0.306446 0 14 0.306446 1
gene 1 15 20 -0.371271 0 15 -0.371271 1
gene 1 16 20 -0.681294 0 16 -0.681294 1
gene 1 17 20 -0.111598 0 17 -0.111598 1
gene 1 18 20 -0.118468 0 18 -0.118468 1
gene 1 19 20 -0.786084 0 19 -0.786084 1
gene 1 1 21 -0.16964 0 20 -0.16964 1
gene 1 2 21 0.411733 0 21 0.411733 0
gene 1 3 21 1.51307 0 22 1.51307 1
gene 1 4 21 0.878729 0 23 0.878729 1
gene 1 5 21 0.828107 0 24 0.828107 1
gene 1 6 21 -0.811603 0 25 -0.811603 1
gene 1 7 21 -0.270107 0 26 -0.270107 1
gene 1 8 21 0.229757 0 27 0.229757 1
gene 1 9 21 0.194385 0 28 0.194385 0
gene 1 10 21 0.242196 0 29 0.242196 1
gene 1 11 21 1.14664 0 30 1.14664 1
gene 1 12 21 0.554722 0 31 0.554722 1
gene 1 13 21 0.0177728 0 32 0.0177728 0
gene 1 14 21 -0.324478 0 33 -0.324478 1
gene 1 15 21 0.629744 0 34 0.629744 0
gene 1 16 21 0.11403 0 35 0.11403 1
gene 1 17 21 0.0552702 0 36 0.0552702 1
gene 1 18 21 -0.697984 0 37 -0.697984 1
gene 1 19 21 0.57209 0 38 0.57209 1
gene 1 1 22 0.73279 0 39 0.73279 1
gene 1 2 22 -0.371598 0 40 -0.371598 1
gene 1 3 22 1.29533 0 41 1.29533 1
gene 1 4 22 0.473275 0 42 0.473275 1
gene 1 5 22 0.126928 0 43 0.126928 1
gene 1 6 22 -0.522228 0 44 -0.522228 0
gene 1 7 22 -0.269769 0 45 -0.269769 1
gene 1 8 22 -0.00816044 0 46 -0.00816044 1
gene 1 9 22 -0.321615 0 47 -0.321615 1
gene 1 10 22 -0.25704 0 48 -0.25704 1
gene 1 11 22 -0.120722 0 49 -0.120722 1
gene 1 12 22 0.287966 0 50 0.287966 1
gene 1 13 22 -0.386609 0 51 -0.386609 1
gene 1 14 22 0.712522 0 52 0.712522 1
gene 1 15 22 0.115103 0 53 0.115103 1
gene 1 16 22 0.776562 0 54 0.776562 1
gene 1 17 22 0.216501 0 55 0.216501 1
gene 1 18 22 0.438492 0 56 0.438492 1
gene 1 19 22 -0.450217 0 57 -0.450217 1
gene 1 1 23 -0.124398 0 58 -0.124398 1
gene 1 2 23 -0.286889 0 59 -0.286889 1
gene 1 3 23 0.618695 0 60 0.618695 1
gene 1 4 23 0.974589 0 61 0.974589 1
gene 1 5 23 0.768246 0 62 0.768246 1
gene 1 6 23 0.417094 0 63 0.417094 1
gene 1 7 23 -0.13652 0 64 -0.13652 1
gene 1 8 23 0.0450642 0 65 0.0450642 1
gene 1 9 23 0.831029 0 66 0.831029 1
gene 1 10 23 0.636746 0 67 0.636746 1
gene 1 11 23 -0.651559 0 68 -0.651559 1
gene 1 12 23 0.69257 0 69 0.69257 1
gene 1 13 23 0.0609454 0 70 0.0609454 1
gene 1 14 23 -0.783768 0 71 -0.783768 1
gene 1 15 23 0.166145 0 72 0.166145 1
gene 1 16 23 0.380008 0 73 0.380008 1
gene 1 17 23 0.656825 0 74 0.656825 0
gene 1 18 23 0.687075 0 75 0.687075 1
gene 1 19 23 -1.84013 0 76 -1.84013 1
gene 1 8 24 0.273565 0 77 0.273565 0
gene 1 24 20 -0.0747657 0 78 -0.0747657 1
gene 1 15 26 0.153907 0 85 0.153907 1
gene 1 26 20 0.16924 0 86 0.16924 1
gene 1 22 20 2.29987 0 87 2.29987 1
gene 1 2 24 0.0143906 0 91 0.0143906 1
gene 1 8 28 -0.141747 0 93 -0.141747 1
gene 1 28 24 -0.294726 0 94 -0.294726 1
gene 1 6 24 -0.115763 0 96 -0.115763 1
gene 1 16 26 0.531253 0 99 0.531253 1
gene 1 13 24 -0.125328 0 100 -0.125328 1
gene 1 23 24 -0.123869 0 113 -0.123869 1
gene 1 13 32 0.289659 0 116 0.289659 1
gene 1 32 21 -0.160724 0 117 -0.160724 1
gene 1 10 37 0.630526 0 129 0.630526 1
gene 1 37 20 -0.283288 0 130 -0.283288 1
gene 1 17 39 -0.161963 0 134 -0.161963 1
gene 1 39 23 0.507517 0 135 0.507517 1
gene 1 15 43 0.437018 0 150 0.437018 1
gene 1 43 21 0.278863 0 151 0.278863 1
gene 1 3 43 0.124928 0 153 0.124928 1
gene 1 8 32 -0.313121 0 154 -0.313121 1
gene 1 2 39 0.143017 0 178 0.143017 1
gene 1 6 53 0.12192 0 191 0.12192 1
gene 1 53 22 0.551675 0 192 0.551675 1
gene 1 15 24 -0.237563 0 275 -0.237563 1
gene 1 32 32 -0.854194 1 283 -0.854194 1
gene 1 2 75 1 0 301 1 1
gene 1 75 21 -0.333829 0 302 -0.333829 1
gene 1 11 26 0.861839 0 317 0.861839 1
gene 1 9 90 1 0 351 0 1
gene 1 90 21 0.0583155 0 352 0 1
genomeend 585
genomestart 608
trait 1 0.536398 0.324603 0.277354 0.0167842 0.791012 0.0716232 0.290245 0.55344 
node 1 1 1 1 0
node 2 1 1 1 0
node 3 1 1 1 0
node 4 1 1 1 0
node 5 1 1 1 0
node 6 1 1 1 0
node 7 1 1 1 0
node 8 1 1 1 0
node 9 1 1 1 0
node 10 1 1 1 0
node 11 1 1 1 0
node 12 1 1 1 0
node 13 1 1 1 0
node 14 1 1 1 0
node 15 1 1 1 0
node 16 1 1 1 0
node 17 1 1 1 0
node 18 1 1 1 0
node 19 1 1 3 0
node 20 1 0 2 0
node 21 1 0 2 0
node 22 1 0 2 0
node 23 1 0 2 0
node 24 1 0 0 0
node 26 1 0 0 0
node 28 1 0 0 0
node 32 1 0 0 0
node 37 1 0 0 0
node 39 1 0 0 0
node 43 1 0 0 0
node 53 1 0 0 0
node 75 1 0 0 0
node 90 1 0 0 0
node 95 1 0 0 0
gene 1 1 20 -0.285888 0 1 -0.285888 1
gene 1 2 20 0.408471 0 2 0.408471 1
gene 1 3 20 0.398842 0 3 0.398842 1
gene 1 4 20 -0.460469 0 4 -0.460469 1
gene 1 5 20 0.4273 0 5 0.4273 1
gene 1 6 20 -0.360778 0 6 -0.360778 1
gene 1 7 20 0.898164 0 7 0.898164 1
gene 1 8 20 1.00238 0 8 1.00238 0
gene 1 9 20 0.941392 0 9 0.941392 1
gene 1 10 20 -0.327785 0 10 -0.327785 0
gene 1 11 20 -0.241558 0 11 -0.241558 1
gene 1 12 20 -0.432513 0 12 -0.432513 1
gene 1 13 20 0.28377 0 13 0.28377 1
gene 1 14 20 0.306446 0 14 0.306446 1
gene 1 15 20 -0.371271 0 15 -0.371271 1
gene 1 16 20 -0.681294 0 16 -0.681294 1
gene 1 17 20 -0.111598 0 17 -0.111598 1
gene 1 18 20 -0.118468 0 18 -0.118468 1
gene 1 19 20 -0.786084 0 19 -0.786084 1
gene 1 1 21 -0.16964 0 20 -0.16964 1
gene 1 2 21 0.411733 0 21 0.411733 0
gene 1 3 21 1.51307 0 22 1.51307 1
gene 1 4 21 0.878729 0 23 0.878729 1
gene 1 5 21 0.828107 0 24 0.828107 1
gene 1 6 21 -0.811603 0 25 -0.811603 1
gene 1 7 21 -0.270107 0 26 -0.270107 1
gene 1 8 21 0.229757 0 27 0.229757 1
gene 1 9 21 0.194385 0 28 0.194385 0
gene 1 10 21 0.242196 0 29 0.242196 1
gene 1 11 21 1.14664 0 30 1.14664 1
gene 1 12 21 0.554722 0 31 0.554722 1
gene 1 13 21 0.0177728 0 32 0.0177728 0
gene 1 14 21 -0.324478 0 33 -0.324478 1
gene 1 15 21 0.629744 0 34 0.629744 0
gene 1 16 21 0.11403 0 35 0.11403 1
gene 1 17 21 0.0552702 0 36 0.0552702 1
gene 1 18 21 -0.697984 0 37 -0.697984 1
gene 1 19 21 0.57209 0 38 0.57209 1
gene 1 1 22 0.73279 0 39 0.73279 1
gene 1 2 22 -0.371598 0 40 -0.371598 1
gene 1 3 22 1.29533 0 41 1.29533 1
gene 1 4 22 0.473275 0 42 0.473275 1
gene 1 5 22 0.126928 0 43 0.126928 1
gene 1 6 22 -0.522228 0 44 -0.522228 0
gene 1 7 22 -0.269769 0 45 -0.269769 1
gene 1 8 22 -0.00816044 0 46 -0.00816044 1
gene 1 9 22 -0.321615 0 47 -0.321615 1
gene 1 10 22 -0.25704 0 48 -0.25704 1
gene 1 11 22 -0.120722 0 49 -0.120722 1
gene 1 12 22 0.287966 0 50 0.287966 1
gene 1 13 22 -0.386609 0 51 -0.386609 1
gene 1 14 22 0.712522 0 52 0.712522 1
gene 1 15 22 0.115103 0 53 0.115103 1
gene 1 16 22 0.776562 0 54 0.776562 1
gene 1 17 22 0.216501 0 55 0.216501 1
gene 1 18 22 0.438492 0 56 0.438492 1
gene 1 19 22 -0.450217 0 57 -0.450217 1
gene 1 1 23 -0.124398 0 58 -0.124398 1
gene 1 2 23 -0.286889 0 59 -0.286889 1
gene 1 3 23 0.618695 0 60 0.618695 1
gene 1 4 23 0.974589 0 61 0.974589 1
gene 1 5 23 0.768246 0 62 0.768246 1
gene 1 6 23 0.417094 0 63 0.417094 1
gene 1 7 23 -0.13652 0 64 -0.13652 1
gene 1 8 23 0.0450642 0 65 0.0450642 1
gene 1 9 23 0.831029 0 66 0.831029 1
gene 1 10 23 0.636746 0 67 0.636746 1
gene 1 11 23 -0.651559 0 68 -0.651559 1
gene 1 12 23 0.69257 0 69 0.69257 0
gene 1 13 23 0.0609454 0 70 0.0609454 1
gene 1 14 23 -0.783768 0 71 -0.783768 1
gene 1 15 23 0.166145 0 72 0.166145 1
gene 1 16 23 0.380008 0 73 0.380008 1
gene 1 17 23 0.656825 0 74 0.656825 0
gene 1 18 23 0.687075 0 75 0.687075 1
gene 1 19 23 -1.84013 0 76 -1.84013 1
gene 1 8 24 0.273565 0 77 0.273565 0
gene 1 24 20 -0.0747657 0 78 -0.0747657 1
gene 1 15 26 0.153907 0 85 0.153907 1
gene 1 26 20 0.16924 0 86 0.16924 1
gene 1 22 20 2.29987 0 87 2.29987 1
gene 1 2 24 0.0143906 0 91 0.0143906 1
gene 1 8 28 -0.141747 0 93 -0.141747 1
gene 1 28 24 -0.294726 0 94 -0.294726 1
gene 1 6 24 -0.115763 0 96 -0.115763 1
gene 1 16 26 0.531253 0 99 0.531253 1
gene 1 13 24 -0.125328 0 100 -0.125328 1
gene 1 23 24 -0.123869 0 113 -0.123869 1
gene 1 13 32 0.289659 0 116 0.289659 1
gene 1 32 21 -0.160724 0 117 -0.160724 1
gene 1 10 37 0.630526 0 129 0.630526 1
gene 1 37 20 -0.283288 0 130 -0.283288 1
gene 1 17 39 -0.161963 0 134 -0.161963 1
gene 1 39 23 0.507517 0 135 0.507517 1
gene 1 15 43 0.437018 0 150 0.437018 1
gene 1 43 21 0.278863 0 151 0.278863 1
gene 1 3 43 0.124928 0 153 0.124928 1
gene 1 8 32 -0.313121 0 154 -0.313121 1
gene 1 2 39 0.143017 0 178 0.143017 1
gene 1 6 53 0.12192 0 191 0.12192 1
gene 1 53 22 0.551675 0 192 0.551675 1
gene 1 15 24 -0.237563 0 275 -0.237563 1
gene 1 32 32 -0.854194 1 283 -0.854194 1
gene 1 2 75 1 0 301 1 1
gene 1 75 21 -0.333829 0 302 -0.333829 1
gene 1 11 26 0.861839 0 317 0.861839 1
gene 1 9 90 1 0 351 0 1
gene 1 90 21 0.0583155 0 352 0 1
gene 1 12 95 1 0 365 0 1
gene 1 95 23 0.207771 0 366 0 1
genomeend 608
genomestart 619
trait 1 0 0.0465088 0.0191771 0.280218 0.742228 0 0 0.402896 
node 1 1 1 1 0
node 2 1 1 1 0
node 3 1 1 1 0
node 4 1 1 1 0
node 5 1 1 1 0
node 6 1 1 1 0
node 7 1 1 1 0
node 8 1 1 1 0
node 9 1 1 1 0
node 10 1 1 1 0
node 11 1 1 1 0
node 12 1 1 1 0
node 13 1 1 1 0
node 14 1 1 1 0
node 15 1 1 1 0
node 16 1 1 1 0
node 17 1 1 1 0
node 18 1 1 1 0
node 19 1 1 3 0
node 20 1 0 2 0
node 21 1 0 2 0
node 22 1 0 2 0
node 23 1 0 2 0
node 24 1 0 0 0
node 26 1 0 0 0
node 28 1 0 0 0
node 32 1 0 0 0
node 37 1 0 0 0
node 39 1 0 0 0
node 43 1 0 0 0
node 53 1 0 0 0
node 60 1 0 0 0
node 66 1 0 0 0
node 68 1 0 0 0
node 81 1 0 0 0
gene 1 1 20 -0.352676 0 1 -0.352676 1
gene 1 2 20 -0.0394061 0 2 -0.0394061 1
gene 1 3 20 -0.893328 0 3 -0.893328 1
gene 1 4 20 -0.187073 0 4 -0.187073 1
gene 1 5 20 -0.315754 0 5 -0.315754 1
gene 1 6 20 -0.073181 0 6 -0.073181 1
gene 1 7 20 0.171779 0 7 0.171779 1
gene 1 8 20 -0.0785489 0 8 -0.0785489 1
gene 1 9 20 -0.0888019 0 9 -0.0888019 1
gene 1 10 20 -0.303217 0 10 -0.303217 1
gene 1 11 20 0.427432 0 11 0.427432 1
gene 1 12 20 -0.187521 0 12 -0.187521 1
gene 1 13 20 0.444446 0 13 0.444446 1
gene 1 14 20 0.395174 0 14 0.395174 1
gene 1 15 20 -0.204879 0 15 -0.204879 1
gene 1 16 20 0.628823 0 16 0.628823 1
gene 1 17 20 -0.206536 0 17 -0.206536 1
gene 1 18 20 -0.347851 0 18 -0.347851 1
gene 1 19 20 -0.500849 0 19 -0.500849 1
gene 1 1 21 0.340622 0 20 0.340622 1
gene 1 2 21 0.0505905 0 21 0.0505905 1
gene 1 3 21 0.430183 0 22 0.430183 1
gene 1 4 21 0.884795 0 23 0.884795 1
gene 1 5 21 -0.683543 0 24 -0.683543 1
gene 1 6 21 0.712684 0 25 0.712684 1
gene 1 7 21 -0.352376 0 26 -0.352376 1
gene 1 8 21 0.589276 0 27 0.589276 1
gene 1 9 21 -0.411349 0 28 -0.411349 1
gene 1 10 21 -0.681939 0 29 -0.681939 1
gene 1 11 21 0.864051 0 30 0.864051 1
gene 1 12 21 0.498146 0 31 0.498146 1
gene 1 13 21 -0.523906 0 32 -0.523906 1
gene 1 14 21 -0.336118 0 33 -0.336118 1
gene 1 15 21 0.601089 0 34 0.601089 0
gene 1 16 21 -0.203933 0 35 -0.203933 1
gene 1 17 21 0.449623 0 36 0.449623 1
gene 1 18 21 0.240105 0 37 0.240105 1
gene 1 19 21 -0.0861178 0 38 -0.0861178 1
gene 1 1 22 0.910838 0 39 0.910838 1
gene 1 2 22 -0.196568 0 40 -0.196568 1
gene 1 3 22 0.746619 0 41 0.746619 1
gene 1 4 22 0.423703 0 42 0.423703 1
gene 1 5 22 0.145676 0 43 0.145676 1
gene 1 6 22 -0.095245 0 44 -0.095245 0
gene 1 7 22 -0.364349 0 45 -0.364349 1
gene 1 8 22 -0.243588 0 46 -0.243588 1
gene 1 9 22 -0.375333 0 47 -0.375333 1
gene 1 10 22 0.349448 0 48 0.349448 1
gene 1 11 22 0.563776 0 49 0.563776 1
gene 1 12 22 1.50895 0 50 1.50895 1
gene 1 13 22 0.215224 0 51 0.215224 1
gene 1 14 22 -0.129668 0 52 -0.129668 1
gene 1 15 22 0.291493 0 53 0.291493 1
gene 1 16 22 0.354324 0 54 0.354324 1
gene 1 17 22 -0.309445 0 55 -0.309445 1
gene 1 18 22 0.661328 0 56 0.661328 1
gene 1 19 22 0.859808 0 57 0.859808 1
gene 1 1 23 -0.0883558 0 58 -0.0883558 1
gene 1 2 23 1.18601 0 59 1.18601 1
gene 1 3 23 -1.24363 0 60 -1.24363 1
gene 1 4 23 0.306181 0 61 0.306181 1
gene 1 5 23 -0.238301 0 62 -0.238301 1
gene 1 6 23 0.032077 0 63 0.032077 1
gene 1 7 23 0.360974 0 64 0.360974 1
gene 1 8 23 -0.142437 0 65 -0.142437 1
gene 1 9 23 -0.324069 0 66 -0.324069 1
gene 1 10 23 0.462265 0 67 0.462265 1
gene 1 11 23 -0.595087 0 68 -0.595087 1
gene 1 12 23 0.387309 0 69 0.387309 1
gene 1 13 23 0.0816894 0 70 0.0816894 1
gene 1 14 23 -1.02327 0 71 -1.02327 1
gene 1 15 23 0.22175 0 72 0.22175 1
gene 1 16 23 0.297235 0 73 0.297235 1
gene 1 17 23 -0.768383 0 74 -0.768383 1
gene 1 18 23 1.24778 0 75 1.24778 1
gene 1 19 23 -0.536395 0 76 -0.536395 1
gene 1 8 24 1.06314 0 77 1.06314 1
gene 1 24 20 0.0993469 0 78 0.0993469 1
gene 1 15 26 0.898152 0 85 0.898152 1
gene 1 26 20 -0.88548 0 86 -0.88548 1
gene 1 22 20 0.552639 0 87 0.552639 1
gene 1 2 24 0.759143 0 91 0.759143 1
gene 1 8 28 0.586792 0 93 0.586792 1
gene 1 28 24 -0.281558 0 94 -0.281558 1
gene 1 6 24 0.0710899 0 96 0.0710899 1
gene 1 16 26 -0.584291 0 99 -0.584291 0
gene 1 13 24 0.0779644 0 100 0.0779644 1
gene 1 23 24 0.561107 0 113 0.561107 1
gene 1 13 32 0.428607 0 116 0.428607 1
gene 1 32 21 0.0257943 0 117 0.0257943 1
gene 1 10 37 -0.203245 0 129 -0.203245 1
gene 1 37 20 0.117805 0 130 0.117805 1
gene 1 17 39 -0.148129 0 134 -0.148129 1
gene 1 39 23 0.214581 0 135 0.214581 1
gene 1 15 43 -0.0780926 0 150 -0.0780926 1
gene 1 43 21 -0.120609 0 151 -0.120609 1
gene 1 3 43 -0.330697 0 153 -0.330697 1
gene 1 8 32 -0.263292 0 154 -0.263292 1
gene 1 2 39 0.297061 0 178 0.297061 1
gene 1 6 53 0.24966 0 191 0.24966 1
gene 1 53 22 -0.43485 0 192 -0.43485 1
gene 1 6 43 0.273782 0 210 0.273782 1
gene 1 17 60 -0.0361595 0 217 -0.0361595 1
gene 1 60 22 1.27983 0 218 1.27983 1
gene 1 20 20 0.359119 1 221 0.359119 1
gene 1 1 43 0.156177 0 234 0.156177 1
gene 1 15 37 0.339236 0 261 0.339236 1
gene 1 10 66 0.659485 0 266 0.659485 1
gene 1 66 21 0.0914171 0 267 0.0914171 1
gene 1 18 32 -0.340018 0 271 -0.340018 1
gene 1 5 68 0.422648 0 277 0.422648 1
gene 1 68 20 -0.337071 0 278 -0.337071 1
gene 1 16 81 1 0 326 0 1
gene 1 81 26 -0.155015 0 327 0 1
genomeend 619
genomestart 637
trait 1 0.536398 0.324603 0.277354 0.0167842 0.791012 0.0716232 0.290245 0.55344 
node 1 1 1 1 0
node 2 1 1 1 0
node 3 1 1 1 0
node 4 1 1 1 0
node 5 1 1 1 0
node 6 1 1 1 0
node 7 1 1 1 0
node 8 1 1 1 0
node 9 1 1 1 0
node 10 1 1 1 0
node 11 1 1 1 0
node 12 1 1 1 0
node 13 1 1 1 0
node 14 1 1 1 0
node 15 1 1 1 0
node 16 1 1 1 0
node 17 1 1 1 0
node 18 1 1 1 0
node 19 1 1 3 0
node 20 1 0 2 0
node 21 1 0 2 0
node 22 1 0 2 0
node 23 1 0 2 0
node 24 1 0 0 0
node 26 1 0 0 0
node 28 1 0 0 0
node 32 1 0 0 0
node 37 1 0 0 0
node 39 1 0 0 0
node 43 1 0 0 0
node 53 1 0 0 0
node 75 1 0 0 0
node 90 1 0 0 0
node 95 1 0 0 0
gene 1 1 20 -0.285888 0 1 -0.285888 1
gene 1 2 20 0.408471 0 2 0.408471 1
gene 1 3 20 0.398842 0 3 0.398842 1
gene 1 4 20 -0.460469 0 4 -0.460469 1
gene 1 5 20 0.4273 0 5 0.4273 1
gene 1 6 20 -0.360778 0 6 -0.360778 1
gene 1 7 20 0.898164 0 7 0.898164 1
gene 1 8 20 1.00238 0 8 1.00238 0
gene 1 9 20 0.941392 0 9 0.941392 1
gene 1 10 20 -0.327785 0 10 -0.327785 0
gene 1 11 20 -0.241558 0 11 -0.241558 1
gene 1 12 20 -0.432513 0 12 -0.432513 1
gene 1 13 20 0.28377 0 13 0.28377 1
gene 1 14 20 0.306446 0 14 0.306446 1
gene 1 15 20 -0.371271 0 15 -0.371271 1
gene 1 16 20 -0.681294 0 16 -0.681294 1
gene 1 17 20 -0.111598 0 17 -0.111598 1
gene 1 18 20 -0.118468 0 18 -0.118468 1
gene 1 19 20 -0.786084 0 19 -0.786084 1
gene 1 1 21 -0.16964 0 20 -0.16964 1
gene 1 2 21 0.411733 0 21 0.411733 0
gene 1 3 21 1.51307 0 22 1.51307 1
gene 1 4 21 0.878729 0 23 0.878729 1
gene 1 5 21 0.828107 0 24 0.828107 1
gene 1 6 21 -0.811603 0 25 -0.811603 1
gene 1 7 21 -0.270107 0 26 -0.270107 1
gene 1 8 21 0.229757 0 27 0.229757 1
gene 1 9 21 0.194385 0 28 0.194385 0
gene 1 10 21 0.242196 0 29 0.242196 1
gene 1 11 21 1.14664 0 30 1.14664 1
gene 1 12 21 0.554722 0 31 0.554722 1
gene 1 13 21 0.0177728 0 32 0.0177728 0
gene 1 14 21 -0.324478 0 33 -0.324478 1
gene 1 15 21 0.629744 0 34 0.629744 0
gene 1 16 21 0.11403 0 35 0.11403 1
gene 1 17 21 0.0552702 0 36 0.0552702 1
gene 1 18 21 -0.697984 0 37 -0.697984 1
gene 1 19 21 0.57209 0 38 0.57209 1
gene 1 1 22 0.73279 0 39 0.73279 1
gene 1 2 22 -0.371598 0 40 -0.371598 1
gene 1 3 22 1.29533 0 41 1.29533 1
gene 1 4 22 0.473275 0 42 0.473275 1
gene 1 5 22 0.126928 0 43 0.126928 1
gene 1 6 22 -0.522228 0 44 -0.522228 0
gene 1 7 22 -0.269769 0 45 -0.269769 1
gene 1 8 22 -0.00816044 0 46 -0.00816044 1
gene 1 9 22 -0.321615 0 47 -0.321615 1
gene 1 10 22 -0.25704 0 48 -0.25704 1
gene 1 11 22 -0.120722 0 49 -0.120722 1
gene 1 12 22 0.287966 0 50 0.287966 1
gene 1 13 22 -0.386609 0 51 -0.386609 1
gene 1 14 22 0.712522 0 52 0.712522 1
gene 1 15 22 0.115103 0 53 0.115103 1
gene 1 16 22 0.776562 0 54 0.776562 1
gene 1 17 22 0.216501 0 55 0.216501 1
gene 1 18 22 0.438492 0 56 0.438492 1
gene 1 19 22 -0.450217 0 57 -0.450217 1
gene 1 1 23 -0.124398 0 58 -0.124398 1
gene 1 2 23 -0.286889 0 59 -0.286889 1
gene 1 3 23 0.618695 0 60 0.618695 1
gene 1 4 23 0.974589 0 61 0.974589 1
gene 1 5 23 0.768246 0 62 0.768246 1
gene 1 6 23 0.417094 0 63 0.417094 1
gene 1 7 23 -0.13652 0 64 -0.13652 1
gene 1 8 23 0.0450642 0 65 0.0450642 1
gene 1 9 23 0.831029 0 66 0.831029 1
gene 1 10 23 0.636746 0 67 0.636746 1
gene 1 11 23 -0.651559 0 68 -0.651559 1
gene 1 12 23 0.69257 0 69 0.69257 0
gene 1 13 23 0.0609454 0 70 0.0609454 1
gene 1 14 23 -0.783768 0 71 -0.783768 1
gene 1 15 23 0.166145 0 72 0.166145 1
gene 1 16 23 0.380008 0 73 0.380008 1
gene 1 17 23 0.656825 0 74 0.656825 0
gene 1 18 23 0.687075 0 75 0.687075 1
gene 1 19 23 -1.84013 0 76 -1.84013 1
gene 1 8 24 0.273565 0 77 0.273565 0
gene 1 24 20 -0.0747657 0 78 -0.0747657 1
gene 1 15 26 0.153907 0 85 0.153907 1
gene 1 26 20 0.16924 0 86 0.16924 1
gene 1 22 20 2.29987 0 87 2.29987 1
gene 1 2 24 0.0143906 0 91 0.0143906 1
gene 1 8 28 -0.141747 0 93 -0.141747 1
gene 1 28 24 -0.294726 0 94 -0.294726 1
gene 1 6 24 -0.115763 0 96 -0.115763 1
gene 1 16 26 0.531253 0 99 0.531253 1
gene 1 13 24 -0.125328 0 100 -0.125328 1
gene 1 23 24 -0.123869 0 113 -0.123869 1
gene 1 13 32 0.289659 0 116 0.289659 1
gene 1 32 21 -0.160724 0 117 -0.160724 1
gene 1 10 37 0.630526 0 129 0.630526 1
gene 1 37 20 -0.283288 0 130 -0.283288 1
gene 1 17 39 -0.161963 0 134 -0.161963 1
gene 1 39 23 0.507517 0 135 0.507517 1
gene 1 15 43 0.437018 0 150 0.437018 1
gene 1 43 21 0.278863 0 151 0.278863 1
gene 1 3 43 0.124928 0 153 0.124928 1
gene 1 8 32 -0.313121 0 154 -0.313121 1
gene 1 2 39 0.143017 0 178 0.143017 1
gene 1 6 53 0.12192 0 191 0.12192 1
gene 1 53 22 0.551675 0 192 0.551675 1
gene 1 15 24 -0.237563 0 275 -0.237563 1
gene 1 32 32 -0.854194 1 283 -0.854194 1
gene 1 2 75 1 0 301 1 1
gene 1 75 21 -0.333829 0 302 -0.333829 1
gene 1 11 26 0.861839 0 317 0.861839 1
gene 1 9 90 1 0 351 0 1
gene 1 90 21 0.0583155 0 352 0 1
gene 1 12 95 1 0 365 0 1
gene 1 95 23 0.207771 0 366 0 1
genomeend 637
genomestart 669
trait 1 0.536398 0.324603 0.277354 0.0167842 0.791012 0.0716232 0.290245 0.55344 
node 1 1 1 1 0
node 2 1 1 1 0
node 3 1 1 1 0
node 4 1 1 1 0
node 5 1 1 1 0
node 6 1 1 1 0
node 7 1 1 1 0
node 8 1 1 1 0
node 9 1 1 1 0
node 10 1 1 1 0
node 11 1 1 1 0
node 12 1 1 1 0
node 13 1 1 1 0
node 14 1 1 1 0
node 15 1 1 1 0
node 16 1 1 1 0
node 17 1 1 1 0
node 18 1 1 1 0
node 19 1 1 3 0
node 20 1 0 2 0
node 21 1 0 2 0
node 22 1 0 2 0
node 23 1 0 2 0
node 24 1 0 0 0
node 26 1 0 0 0
node 28 1 0 0 0
node 32 1 0 0 0
node 37 1 0 0 0
node 39 1 0 0 0
node 43 1 0 0 0
node 53 1 0 0 0
node 75 1 0 0 0
node 90 1 0 0 0
node 95 1 0 0 0
gene 1 1 20 0.0955988 0 1 0.0955988 1
gene 1 2 20 0.192196 0 2 0.192196 1
gene 1 3 20 0.293093 0 3 0.293093 1
gene 1 4 20 -0.73081 0 4 -0.73081 1
gene 1 5 20 0.662814 0 5 0.662814 1
gene 1 6 20 -0.205337 0 6 -0.205337 1
gene 1 7 20 0.79845 0 7 0.79845 1
gene 1 8 20 1.45408 0 8 1.45408 0
gene 1 9 20 0.794275 0 9 0.794275 1
gene 1 10 20 -0.40791 0 10 -0.40791 0
gene 1 11 20 -0.45142 0 11 -0.45142 1
gene 1 12 20 0.0346191 0 12 0.0346191 1
gene 1 13 20 0.1239 0 13 0.1239 1
gene 1 14 20 0.159324 0 14 0.159324 1
gene 1 15 20 -0.0187253 0 15 -0.0187253 1
gene 1 16 20 -1.0225 0 16 -1.0225 1
gene 1 17 20 0.376348 0 17 0.376348 1
gene 1 18 20 0.290929 0 18 0.290929 1
gene 1 19 20 -1.2374 0 19 -1.2374 1
gene 1 1 21 0.292404 0 20 0.292404 1
gene 1 2 21 -0.0857533 0 21 -0.0857533 0
gene 1 3 21 1.92225 0 22 1.92225 1
gene 1 4 21 0.68421 0 23 0.68421 1
gene 1 5 21 1.3272 0 24 1.3272 1
gene 1 6 21 -0.653757 0 25 -0.653757 1
gene 1 7 21 -0.164572 0 26 -0.164572 1
gene 1 8 21 0.396229 0 27 0.396229 1
gene 1 9 21 -0.156059 0 28 -0.156059 0
gene 1 10 21 -0.125479 0 29 -0.125479 1
gene 1 11 21 1.31722 0 30 1.31722 1
gene 1 12 21 0.12483 0 31 0.12483 1
gene 1 13 21 0.33861 0 32 0.33861 0
gene 1 14 21 -0.104337 0 33 -0.104337 1
gene 1 15 21 0.628344 0 34 0.628344 0
gene 1 16 21 0.00366727 0 35 0.00366727 1
gene 1 17 21 -0.335237 0 36 -0.335237 1
gene 1 18 21 -0.324855 0 37 -0.324855 1
gene 1 19 21 0.181749 0 38 0.181749 1
gene 1 1 22 1.00403 0 39 1.00403 1
gene 1 2 22 -0.322006 0 40 -0.322006 1
gene 1 3 22 1.52041 0 41 1.52041 1
gene 1 4 22 0.501118 0 42 0.501118 1
gene 1 5 22 0.17093 0 43 0.17093 1
gene 1 6 22 -0.788113 0 44 -0.788113 0
gene 1 7 22 0.215057 0 45 0.215057 1
gene 1 8 22 -0.208003 0 46 -0.208003 1
gene 1 9 22 -0.229114 0 47 -0.229114 1
gene 1 10 22 -0.482895 0 48 -0.482895 1
gene 1 11 22 -0.391741 0 49 -0.391741 1
gene 1 12 22 0.59956 0 50 0.59956 1
gene 1 13 22 -0.368593 0 51 -0.368593 1
gene 1 14 22 0.621386 0 52 0.621386 1
gene 1 15 22 -0.0785244 0 53 -0.0785244 1
gene 1 16 22 1.0626 0 54 1.0626 1
gene 1 17 22 -0.0563456 0 55 -0.0563456 1
gene 1 18 22 0.0333262 0 56 0.0333262 1
gene 1 19 22 -0.138323 0 57 -0.138323 1
gene 1 1 23 -0.584433 0 58 -0.584433 1
gene 1 2 23 -0.12012 0 59 -0.12012 1
gene 1 3 23 0.969028 0 60 0.969028 1
gene 1 4 23 1.2321 0 61 1.2321 1
gene 1 5 23 1.037 0 62 1.037 1
gene 1 6 23 0.0895541 0 63 0.0895541 1
gene 1 7 23 0.200747 0 64 0.200747 1
gene 1 8 23 0.339311 0 65 0.339311 1
gene 1 9 23 1.20645 0 66 1.20645 1
gene 1 10 23 0.436463 0 67 0.436463 1
gene 1 11 23 -0.214743 0 68 -0.214743 1
gene 1 12 23 0.762429 0 69 0.762429 0
gene 1 13 23 -0.39226 0 70 -0.39226 1
gene 1 14 23 -1.0928 0 71 -1.0928 1
gene 1 15 23 0.530726 0 72 0.530726 1
gene 1 16 23 0.7483 0 73 0.7483 1
gene 1 17 23 0.5524 0 74 0.5524 0
gene 1 18 23 0.939494 0 75 0.939494 1
gene 1 19 23 -1.89344 0 76 -1.89344 1
gene 1 8 24 0.440233 0 77 0.440233 0
gene 1 24 20 0.0963773 0 78 0.0963773 1
gene 1 15 26 -0.0235685 0 85 -0.0235685 1
gene 1 26 20 0.646619 0 86 0.646619 1
gene 1 22 20 2.51481 0 87 2.51481 1
gene 1 2 24 -0.205788 0 91 -0.205788 1
gene 1 8 28 -0.579978 0 93 -0.579978 1
gene 1 28 24 -0.275749 0 94 -0.275749 1
gene 1 6 24 -0.226599 0 96 -0.226599 1
gene 1 16 26 0.606214 0 99 0.606214 1
gene 1 13 24 0.113674 0 100 0.113674 1
gene 1 23 24 0.105584 0 113 0.105584 1
gene 1 13 32 -0.120741 0 116 -0.120741 1
gene 1 32 21 -0.160724 0 117 -0.160724 1
gene 1 10 37 0.741629 0 129 0.741629 1
gene 1 37 20 -0.113488 0 130 -0.113488 1
gene 1 17 39 0.198696 0 134 0.198696 1
gene 1 39 23 0.507517 0 135 0.507517 1
gene 1 15 43 0.156252 0 150 0.156252 1
gene 1 43 21 0.278863 0 151 0.278863 1
gene 1 3 43 0.124928 0 153 0.124928 1
gene 1 8 32 -0.313121 0 154 -0.313121 1
gene 1 2 39 0.372894 0 178 0.372894 1
gene 1 6 53 0.12192 0 191 0.12192 1
gene 1 53 22 -0.462347 0 192 -0.462347 1
gene 1 15 24 -0.237563 0 275 -0.237563 1
gene 1 32 32 -0.406421 1 283 -0.406421 1
gene 1 2 75 1 0 301 1 1
gene 1 75 21 -0.333829 0 302 -0.333829 1
gene 1 11 26 1.35435 0 317 1.35435 1
gene 1 9 90 1 0 351 1 1
gene 1 90 21 0.0583155 0 352 0.0583155 1
gene 1 12 95 0.162802 0 365 0.162802 1
gene 1 95 23 -0.208185 0 366 -0.208185 1
genomeend 669
genomestart 678
trait 1 0 0 0.862688 0.72224 0.409494 0.0593757 0 0 
node 1 1 1 1 0
node 2 1 1 1 0
node 3 1 1 1 0
node 4 1 1 1 0
node 5 1 1 1 0
node 6 1 1 1 0
node 7 1 1 1 0
node 8 1 1 1 0
node 9 1 1 1 0
node 10 1 1 1 0
node 11 1 1 1 0
node 12 1 1 1 0
node 13 1 1 1 0
node 14 1 1 1 0
node 15 1 1 1 0
node 16 1 1 1 0
node 17 1 1 1 0
node 18 1 1 1 0
node 19 1 1 3 0
node 20 1 0 2 0
node 21 1 0 2 0
node 22 1 0 2 0
node 23 1 0 2 0
node 24 1 0 0 0
node 26 1 0 0 0
node 37 1 0 0 0
node 46 1 0 0 0
node 86 1 0 0 0
gene 1 1 20 -0.152998 0 1 -0.152998 1
gene 1 2 20 0.422081 0 2 0.422081 1
gene 1 3 20 0.0915702 0 3 0.0915702 1
gene 1 4 20 0.340736 0 4 0.340736 1
gene 1 5 20 1.20166 0 5 1.20166 1
gene 1 6 20 0.805277 0 6 0.805277 1
gene 1 7 20 0.391078 0 7 0.391078 1
gene 1 8 20 0.319274 0 8 0.319274 1
gene 1 9 20 0.507346 0 9 0.507346 1
gene 1 10 20 -0.123462 0 10 -0.123462 1
gene 1 11 20 -0.223326 0 11 -0.223326 1
gene 1 12 20 1.85619 0 12 1.85619 1
gene 1 13 20 -0.694476 0 13 -0.694476 1
gene 1 14 20 -0.620036 0 14 -0.620036 1
gene 1 15 20 -0.226394 0 15 -0.226394 1
gene 1 16 20 0.292478 0 16 0.292478 1
gene 1 17 20 -0.426335 0 17 -0.426335 1
gene 1 18 20 0.252591 0 18 0.252591 1
gene 1 19 20 -0.171766 0 19 -0.171766 1
gene 1 1 21 -0.532404 0 20 -0.532404 1
gene 1 2 21 -0.287726 0 21 -0.287726 1
gene 1 3 21 -0.197523 0 22 -0.197523 1
gene 1 4 21 -0.278173 0 23 -0.278173 1
gene 1 5 21 -0.521223 0 24 -0.521223 1
gene 1 6 21 0.349832 0 25 0.349832 1
gene 1 7 21 -0.142653 0 26 -0.142653 1
gene 1 8 21 0.899382 0 27 0.899382 1
gene 1 9 21 -1.49706 0 28 -1.49706 1
gene 1 10 21 2.27986 0 29 2.27986 1
gene 1 11 21 -0.373173 0 30 -0.373173 1
gene 1 12 21 -0.0751315 0 31 -0.0751315 1
gene 1 13 21 -0.965771 0 32 -0.965771 1
gene 1 14 21 -2.11631 0 33 -2.11631 1
gene 1 15 21 0.0837502 0 34 0.0837502 1
gene 1 16 21 -0.140828 0 35 -0.140828 1
gene 1 17 21 -0.668278 0 36 -0.668278 1
gene 1 18 21 -0.0702808 0 37 -0.0702808 1
gene 1 19 21 -0.522233 0 38 -0.522233 1
gene 1 1 22 -0.378974 0 39 -0.378974 1
gene 1 2 22 0.952761 0 40 0.952761 1
gene 1 3 22 -0.416092 0 41 -0.416092 1
gene 1 4 22 0.173859 0 42 0.173859 1
gene 1 5 22 0.126119 0 43 0.126119 1
gene 1 6 22 0.684734 0 44 0.684734 1
gene 1 7 22 0.0807598 0 45 0.0807598 1
gene 1 8 22 0.0487628 0 46 0.0487628 1
gene 1 9 22 -0.0805842 0 47 -0.0805842 1
gene 1 10 22 0.929367 0 48 0.929367 1
gene 1 11 22 -0.320314 0 49 -0.320314 1
gene 1 12 22 -0.322052 0 50 -0.322052 1
gene 1 13 22 -0.302613 0 51 -0.302613 1
gene 1 14 22 -2.70588 0 52 -2.70588 1
gene 1 15 22 -0.139038 0 53 -0.139038 1
gene 1 16 22 -0.119678 0 54 -0.119678 1
gene 1 17 22 0.53574 0 55 0.53574 1
gene 1 18 22 0.670633 0 56 0.670633 0
gene 1 19 22 0.280831 0 57 0.280831 1
gene 1 1 23 1.36579 0 58 1.36579 1
gene 1 2 23 -0.914297 0 59 -0.914297 1
gene 1 3 23 -0.946249 0 60 -0.946249 1
gene 1 4 23 0.00772154 0 61 0.00772154 1
gene 1 5 23 0.472497 0 62 0.472497 1
gene 1 6 23 -0.0714245 0 63 -0.0714245 1
gene 1 7 23 -1.42412 0 64 -1.42412 1
gene 1 8 23 -1.02628 0 65 -1.02628 1
gene 1 9 23 0.526928 0 66 0.526928 1
gene 1 10 23 0.21746 0 67 0.21746 1
gene 1 11 23 -0.212613 0 68 -0.212613 1
gene 1 12 23 -2.27412 0 69 -2.27412 1
gene 1 13 23 0.0320679 0 70 0.0320679 1
gene 1 14 23 -0.440024 0 71 -0.440024 1
gene 1 15 23 0.119665 0 72 0.119665 1
gene 1 16 23 -0.132453 0 73 -0.132453 1
gene 1 17 23 -0.712116 0 74 -0.712116 1
gene 1 18 23 0.536803 0 75 0.536803 1
gene 1 19 23 1.12614 0 76 1.12614 1
gene 1 8 24 0.532538 0 77 0.532538 1
gene 1 24 20 -0.849987 0 78 -0.849987 1
gene 1 15 26 0.554364 0 85 0.554364 1
gene 1 26 20 -0.109767 0 86 -0.109767 1
gene 1 22 20 -0.782235 0 87 -0.782235 1
gene 1 2 24 -0.0510964 0 91 -0.0510964 1
gene 1 6 24 0.270243 0 96 0.270243 1
gene 1 10 37 -0.0439618 0 129 -0.0439618 1
gene 1 37 20 1.03672 0 130 1.03672 1
gene 1 24 37 0.553532 0 140 0.553532 1
gene 1 11 46 0.492371 0 161 0.492371 1
gene 1 46 20 1.09083 0 162 1.09083 1
gene 1 24 22 0.517304 0 219 0.517304 1
gene 1 46 23 0.289985 0 251 0.289985 1
gene 1 26 24 0.916434 0 305 0.916434 1
gene 1 7 37 -0.338238 0 323 -0.338238 1
gene 1 18 86 0.939122 0 336 0.939122 1
gene 1 86 22 0.219733 0 337 0.219733 1
genomeend 678
genomestart 701
trait 1 0.534282 0.32003 0.285865 0.0152107 0.795188 0.0738614 0.2734 0.543959 
node 1 1 1 1 0
node 2 1 1 1 0
node 3 1 1 1 0
node 4 1 1 1 0
node 5 1 1 1 0
node 6 1 1 1 0
node 7 1 1 1 0
node 8 1 1 1 0
node 9 1 1 1 0
node 10 1 1 1 0
node 11 1 1 1 0
node 12 1 1 1 0
node 13 1 1 1 0
node 14 1 1 1 0
node 15 1 1 1 0
node 16 1 1 1 0
node 17 1 1 1 0
node 18 1 1 1 0
node 19 1 1 3 0
node 20 1 0 2 0
node 21 1 0 2 0
node 22 1 0 2 0
node 23 1 0 2 0
node 24 1 0 0 0
node 26 1 0 0 0
node 28 1 0 0 0
node 32 1 0 0 0
node 37 1 0 0 0
node 39 1 0 0 0
node 43 1 0 0 0
node 53 1 0 0 0
node 75 1 0 0 0
node 90 1 0 0 0
node 95 1 0 0 0
gene 1 1 20 0.0955988 0 1 0.0955988 1
gene 1 2 20 0.192196 0 2 0.192196 1
gene 1 3 20 0.796106 0 3 0.796106 1
gene 1 4 20 -0.460469 0 4 -0.460469 1
gene 1 5 20 0.662814 0 5 0.662814 1
gene 1 6 20 -0.205337 0 6 -0.205337 1
gene 1 7 20 0.79845 0 7 0.79845 1
gene 1 8 20 1.45408 0 8 1.45408 0
gene 1 9 20 0.941392 0 9 0.941392 1
gene 1 10 20 -0.40791 0 10 -0.40791 0
gene 1 11 20 -0.241558 0 11 -0.241558 1
gene 1 12 20 -0.432513 0 12 -0.432513 1
gene 1 13 20 0.28377 0 13 0.28377 1
gene 1 14 20 0.159324 0 14 0.159324 1
gene 1 15 20 -0.371271 0 15 -0.371271 1
gene 1 16 20 -1.0225 0 16 -1.0225 1
gene 1 17 20 0.376348 0 17 0.376348 1
gene 1 18 20 0.290929 0 18 0.290929 1
gene 1 19 20 -1.2374 0 19 -1.2374 1
gene 1 1 21 -0.16964 0 20 -0.16964 1
gene 1 2 21 -0.0857533 0 21 -0.0857533 0
gene 1 3 21 1.51307 0 22 1.51307 1
gene 1 4 21 0.78557 0 23 0.78557 1
gene 1 5 21 1.3272 0 24 1.3272 1
gene 1 6 21 -0.653757 0 25 -0.653757 1
gene 1 7 21 -0.270107 0 26 -0.270107 1
gene 1 8 21 0.396229 0 27 0.396229 1
gene 1 9 21 -0.156059 0 28 -0.156059 0
gene 1 10 21 0.242196 0 29 0.242196 1
gene 1 11 21 1.31722 0 30 1.31722 1
gene 1 12 21 0.12483 0 31 0.12483 1
gene 1 13 21 0.33861 0 32 0.33861 0
gene 1 14 21 -0.104337 0 33 -0.104337 1
gene 1 15 21 0.628344 0 34 0.628344 0
gene 1 16 21 -0.048232 0 35 -0.048232 1
gene 1 17 21 0.0552702 0 36 0.0552702 1
gene 1 18 21 -0.697984 0 37 -0.697984 1
gene 1 19 21 0.23387 0 38 0.23387 1
gene 1 1 22 1.00403 0 39 1.00403 1
gene 1 2 22 -0.371598 0 40 -0.371598 1
gene 1 3 22 1.29533 0 41 1.29533 1
gene 1 4 22 0.473275 0 42 0.473275 1
gene 1 5 22 0.17093 0 43 0.17093 1
gene 1 6 22 -0.522228 0 44 -0.522228 0
gene 1 7 22 -0.269769 0 45 -0.269769 1
gene 1 8 22 -0.00816044 0 46 -0.00816044 1
gene 1 9 22 -0.229114 0 47 -0.229114 1
gene 1 10 22 -0.482895 0 48 -0.482895 1
gene 1 11 22 -0.391741 0 49 -0.391741 1
gene 1 12 22 0.287966 0 50 0.287966 1
gene 1 13 22 -0.368593 0 51 -0.368593 1
gene 1 14 22 0.642836 0 52 0.642836 1
gene 1 15 22 0.115103 0 53 0.115103 1
gene 1 16 22 0.358347 0 54 0.358347 1
gene 1 17 22 -0.0563456 0 55 -0.0563456 1
gene 1 18 22 0.438492 0 56 0.438492 1
gene 1 19 22 -0.138323 0 57 -0.138323 1
gene 1 1 23 0.039554 0 58 0.039554 1
gene 1 2 23 -0.119374 0 59 -0.119374 1
gene 1 3 23 0.401524 0 60 0.401524 1
gene 1 4 23 1.2321 0 61 1.2321 1
gene 1 5 23 1.037 0 62 1.037 1
gene 1 6 23 0.0895541 0 63 0.0895541 1
gene 1 7 23 -0.199784 0 64 -0.199784 1
gene 1 8 23 0.339311 0 65 0.339311 1
gene 1 9 23 1.20645 0 66 1.20645 1
gene 1 10 23 0.436463 0 67 0.436463 1
gene 1 11 23 -0.651559 0 68 -0.651559 1
gene 1 12 23 0.762429 0 69 0.762429 0
gene 1 13 23 0.0609454 0 70 0.0609454 1
gene 1 14 23 -1.0928 0 71 -1.0928 1
gene 1 15 23 0.530726 0 72 0.530726 1
gene 1 16 23 0.7483 0 73 0.7483 1
gene 1 17 23 0.656825 0 74 0.656825 0
gene 1 18 23 0.687075 0 75 0.687075 1
gene 1 19 23 -1.89344 0 76 -1.89344 1
gene 1 8 24 0.440233 0 77 0.440233 0
gene 1 24 20 0.0963773 0 78 0.0963773 1
gene 1 15 26 -0.0235685 0 85 -0.0235685 1
gene 1 26 20 0.646619 0 86 0.646619 1
gene 1 22 20 2.51481 0 87 2.51481 1
gene 1 2 24 -0.275691 0 91 -0.275691 1
gene 1 8 28 -0.579978 0 93 -0.579978 1
gene 1 28 24 -0.334608 0 94 -0.334608 1
gene 1 6 24 -0.115763 0 96 -0.115763 1
gene 1 16 26 0.531253 0 99 0.531253 1
gene 1 13 24 0.113674 0 100 0.113674 1
gene 1 23 24 0.105584 0 113 0.105584 1
gene 1 13 32 -0.120741 0 116 -0.120741 1
gene 1 32 21 -0.297752 0 117 -0.297752 1
gene 1 10 37 0.630526 0 129 0.630526 1
gene 1 37 20 -0.113488 0 130 -0.113488 1
gene 1 17 39 -0.161963 0 134 -0.161963 1
gene 1 39 23 0.507517 0 135 0.507517 1
gene 1 15 43 0.437018 0 150 0.437018 1
gene 1 43 21 0.278863 0 151 0.278863 1
gene 1 3 43 0.124928 0 153 0.124928 1
gene 1 8 32 -0.313121 0 154 -0.313121 1
gene 1 2 39 0.372894 0 178 0.372894 1
gene 1 6 53 0.12192 0 191 0.12192 1
gene 1 53 22 0.551675 0 192 0.551675 1
gene 1 15 24 -0.237563 0 275 -0.237563 1
gene 1 32 32 -0.406421 1 283 -0.406421 1
gene 1 2 75 1 0 301 1 1
gene 1 75 21 -0.16582 0 302 -0.16582 1
gene 1 11 26 0.732195 0 317 0.732195 1
gene 1 13 26 -0.677426 0 321 -0.677426 1
gene 1 32 28 0.996197 0 344 0.996197 1
gene 1 9 90 1 0 351 1 1
gene 1 90 21 0.0583155 0 352 0.0583155 1
gene 1 12 95 0.162802 0 365 0.162802 1
gene 1 95 23 -0.208185 0 366 -0.208185 1
genomeend 701
genomestart 706
trait 1 0 0 0.547142 0.294286 1 0 0 0.36792 
node 1 1 1 1 0
node 2 1 1 1 0
node 3 1 1 1 0
node 4 1 1 1 0
node 5 1 1 1 0
node 6 1 1 1 0
node 7 1 1 1 0
node 8 1 1 1 0
node 9 1 1 1 0
node 10 1 1 1 0
node 11 1 1 1 0
node 12 1 1 1 0
node 13 1 1 1 0
node 14 1 1 1 0
node 15 1 1 1 0
node 16 1 1 1 0
node 17 1 1 1 0
node 18 1 1 1 0
node 19 1 1 3 0
node 20 1 0 2 0
node 21 1 0 2 0
node 22 1 0 2 0
node 23 1 0 2 0
node 24 1 0 0 0
node 26 1 0 0 0
node 28 1 0 0 0
node 32 1 0 0 0
node 37 1 0 0 0
node 39 1 0 0 0
node 43 1 0 0 0
node 53 1 0 0 0
node 60 1 0 0 0
node 66 1 0 0 0
node 68 1 0 0 0
node 81 1 0 0 0
gene 1 1 20 -0.367174 0 1 -0.367174 1
gene 1 2 20 -0.135401 0 2 -0.135401 1
gene 1 3 20 -0.947632 0 3 -0.947632 1
gene 1 4 20 -0.330584 0 4 -0.330584 1
gene 1 5 20 -0.175323 0 5 -0.175323 1
gene 1 6 20 -0.0314305 0 6 -0.0314305 1
gene 1 7 20 0.197838 0 7 0.197838 1
gene 1 8 20 -0.0903011 0 8 -0.0903011 0
gene 1 9 20 0.152492 0 9 0.152492 1
gene 1 10 20 -0.309524 0 10 -0.309524 0
gene 1 11 20 0.371008 0 11 0.371008 1
gene 1 12 20 -0.173468 0 12 -0.173468 1
gene 1 13 20 0.391775 0 13 0.391775 1
gene 1 14 20 0.471988 0 14 0.471988 1
gene 1 15 20 -0.213728 0 15 -0.213728 1
gene 1 16 20 0.619147 0 16 0.619147 1
gene 1 17 20 -0.029961 0 17 -0.029961 1
gene 1 18 20 -0.249683 0 18 -0.249683 1
gene 1 19 20 -0.497214 0 19 -0.497214 1
gene 1 1 21 0.388035 0 20 0.388035 1
gene 1 2 21 0.0803951 0 21 0.0803951 1
gene 1 3 21 0.306688 0 22 0.306688 1
gene 1 4 21 0.854916 0 23 0.854916 1
gene 1 5 21 -0.624927 0 24 -0.624927 1
gene 1 6 21 0.543123 0 25 0.543123 1
gene 1 7 21 -0.218325 0 26 -0.218325 1
gene 1 8 21 0.657462 0 27 0.657462 1
gene 1 9 21 -0.253507 0 28 -0.253507 1
gene 1 10 21 -0.607094 0 29 -0.607094 1
gene 1 11 21 0.938239 0 30 0.938239 1
gene 1 12 21 0.606937 0 31 0.606937 1
gene 1 13 21 -0.478938 0 32 -0.478938 1
gene 1 14 21 -0.340577 0 33 -0.340577 1
gene 1 15 21 0.504316 0 34 0.504316 0
gene 1 16 21 -0.184541 0 35 -0.184541 1
gene 1 17 21 0.230244 0 36 0.230244 1
gene 1 18 21 0.194919 0 37 0.194919 1
gene 1 19 21 -0.144042 0 38 -0.144042 1
gene 1 1 22 0.822969 0 39 0.822969 1
gene 1 2 22 -0.22159 0 40 -0.22159 1
gene 1 3 22 0.540484 0 41 0.540484 1
gene 1 4 22 0.368075 0 42 0.368075 1
gene 1 5 22 0.0462643 0 43 0.0462643 1
gene 1 6 22 -0.0605838 0 44 -0.0605838 0
gene 1 7 22 -0.324684 0 45 -0.324684 1
gene 1 8 22 -0.277004 0 46 -0.277004 1
gene 1 9 22 -0.313453 0 47 -0.313453 1
gene 1 10 22 0.197889 0 48 0.197889 1
gene 1 11 22 0.513661 0 49 0.513661 1
gene 1 12 22 1.412 0 50 1.412 1
gene 1 13 22 0.119241 0 51 0.119241 1
gene 1 14 22 -0.0517418 0 52 -0.0517418 1
gene 1 15 22 0.0365053 0 53 0.0365053 1
gene 1 16 22 0.544813 0 54 0.544813 1
gene 1 17 22 -0.205206 0 55 -0.205206 0
gene 1 18 22 0.574076 0 56 0.574076 1
gene 1 19 22 0.617238 0 57 0.617238 1
gene 1 1 23 -0.187801 0 58 -0.187801 1
gene 1 2 23 1.05258 0 59 1.05258 1
gene 1 3 23 -0.962259 0 60 -0.962259 1
gene 1 4 23 0.169174 0 61 0.169174 1
gene 1 5 23 -0.173194 0 62 -0.173194 1
gene 1 6 23 0.122355 0 63 0.122355 1
gene 1 7 23 0.438532 0 64 0.438532 1
gene 1 8 23 -0.333335 0 65 -0.333335 1
gene 1 9 23 -0.217713 0 66 -0.217713 1
gene 1 10 23 0.463102 0 67 0.463102 1
gene 1 11 23 -0.606109 0 68 -0.606109 1
gene 1 12 23 0.462654 0 69 0.462654 1
gene 1 13 23 0.0503051 0 70 0.0503051 1
gene 1 14 23 -0.797 0 71 -0.797 1
gene 1 15 23 0.279969 0 72 0.279969 1
gene 1 16 23 0.138333 0 73 0.138333 1
gene 1 17 23 -0.751241 0 74 -0.751241 0
gene 1 18 23 1.0846 0 75 1.0846 1
gene 1 19 23 -0.471659 0 76 -0.471659 1
gene 1 8 24 0.889224 0 77 0.889224 0
gene 1 24 20 0.110543 0 78 0.110543 1
gene 1 15 26 0.730057 0 85 0.730057 1
gene 1 26 20 -0.768363 0 86 -0.768363 1
gene 1 22 20 0.277299 0 87 0.277299 1
gene 1 2 24 0.609406 0 91 0.609406 1
gene 1 8 28 0.572174 0 93 0.572174 1
gene 1 28 24 -0.238958 0 94 -0.238958 1
gene 1 6 24 0.15632 0 96 0.15632 1
gene 1 16 26 -0.361401 0 99 -0.361401 1
gene 1 13 24 0.177439 0 100 0.177439 1
gene 1 23 24 0.49814 0 113 0.49814 1
gene 1 13 32 0.500956 0 116 0.500956 1
gene 1 32 21 0.0273674 0 117 0.0273674 1
gene 1 10 37 -0.0984952 0 129 -0.0984952 1
gene 1 37 20 0.282288 0 130 0.282288 1
gene 1 17 39 -0.16899 0 134 -0.16899 1
gene 1 39 23 0.156368 0 135 0.156368 1
gene 1 15 43 -0.0890587 0 150 -0.0890587 1
gene 1 43 21 0.00474825 0 151 0.00474825 1
gene 1 3 43 -0.246618 0 153 -0.246618 1
gene 1 8 32 -0.197571 0 154 -0.197571 1
gene 1 2 39 0.201142 0 178 0.201142 1
gene 1 6 53 0.213066 0 191 0.213066 1
gene 1 53 22 -0.409137 0 192 -0.409137 1
gene 1 6 43 0.456097 0 210 0.456097 1
gene 1 17 60 0.0744117 0 217 0.0744117 1
gene 1 60 22 0.91136 0 218 0.91136 1
gene 1 20 20 0.332052 1 221 0.332052 1
gene 1 1 43 0.198547 0 234 0.198547 1
gene 1 15 37 0.299996 0 261 0.299996 1
gene 1 10 66 0.497164 0 266 0.497164 1
gene 1 66 21 0.0281308 0 267 0.0281308 1
gene 1 18 32 -0.217399 0 271 -0.217399 1
gene 1 5 68 0.264682 0 277 0.264682 1
gene 1 68 20 -0.334334 0 278 -0.334334 1
gene 1 16 81 1 0 326 0 1
gene 1 81 26 -0.155015 0 327 0 1
genomeend 706
genomestart 720
trait 1 0.224021 0 0.0192057 0.0157376 0.741681 0 0 0.401923 
node 1 1 1 1 0
node 2 1 1 1 0
node 3 1 1 1 0
node 4 1 1 1 0
node 5 1 1 1 0
node 6 1 1 1 0
node 7 1 1 1 0
node 8 1 1 1 0
node 9 1 1 1 0
node 10 1 1 1 0
node 11 1 1 1 0
node 12 1 1 1 0
node 13 1 1 1 0
node 14 1 1 1 0
node 15 1 1 1 0
node 16 1 1 1 0
node 17 1 1 1 0
node 18 1 1 1 0
node 19 1 1 3 0
node 20 1 0 2 0
node 21 1 0 2 0
node 22 1 0 2 0
node 23 1 0 2 0
node 24 1 0 0 0
node 26 1 0 0 0
node 28 1 0 0 0
node 32 1 0 0 0
node 37 1 0 0 0
node 39 1 0 0 0
node 43 1 0 0 0
node 53 1 0 0 0
node 60 1 0 0 0
node 66 1 0 0 0
node 68 1 0 0 0
node 81 1 0 0 0
gene 1 1 20 -0.577287 0 1 -0.577287 1
gene 1 2 20 -0.385969 0 2 -0.385969 1
gene 1 3 20 -1.24857 0 3 -1.24857 1
gene 1 4 20 -0.496012 0 4 -0.496012 1
gene 1 5 20 -0.229539 0 5 -0.229539 1
gene 1 6 20 -0.571212 0 6 -0.571212 1
gene 1 7 20 0.118126 0 7 0.118126 1
gene 1 8 20 0.351936 0 8 0.351936 1
gene 1 9 20 -0.194936 0 9 -0.194936 1
gene 1 10 20 -0.412726 0 10 -0.412726 1
gene 1 11 20 0.275238 0 11 0.275238 1
gene 1 12 20 -0.282389 0 12 -0.282389 1
gene 1 13 20 0.42071 0 13 0.42071 1
gene 1 14 20 0.855499 0 14 0.855499 1
gene 1 15 20 -0.310471 0 15 -0.310471 1
gene 1 16 20 -0.271353 0 16 -0.271353 1
gene 1 17 20 -0.346931 0 17 -0.346931 1
gene 1 18 20 -0.314715 0 18 -0.314715 1
gene 1 19 20 0.253428 0 19 0.253428 1
gene 1 1 21 0.0504562 0 20 0.0504562 1
gene 1 2 21 0.135222 0 21 0.135222 1
gene 1 3 21 0.37466 0 22 0.37466 1
gene 1 4 21 0.489602 0 23 0.489602 1
gene 1 5 21 0.378742 0 24 0.378742 1
gene 1 6 21 0.434642 0 25 0.434642 1
gene 1 7 21 0.235008 0 26 0.235008 1
gene 1 8 21 0.239622 0 27 0.239622 1
gene 1 9 21 -0.0739871 0 28 -0.0739871 1
gene 1 10 21 -0.670852 0 29 -0.670852 1
gene 1 11 21 0.576813 0 30 0.576813 1
gene 1 12 21 0.040942 0 31 0.040942 1
gene 1 13 21 -0.478993 0 32 -0.478993 0
gene 1 14 21 -0.538687 0 33 -0.538687 1
gene 1 15 21 0.250745 0 34 0.250745 0
gene 1 16 21 -0.318464 0 35 -0.318464 1
gene 1 17 21 0.638327 0 36 0.638327 1
gene 1 18 21 0.666988 0 37 0.666988 1
gene 1 19 21 0.0221597 0 38 0.0221597 1
gene 1 1 22 0.450918 0 39 0.450918 1
gene 1 2 22 -0.305846 0 40 -0.305846 1
gene 1 3 22 0.112122 0 41 0.112122 1
gene 1 4 22 -0.0810043 0 42 -0.0810043 1
gene 1 5 22 -0.158305 0 43 -0.158305 1
gene 1 6 22 0.170466 0 44 0.170466 0
gene 1 7 22 -0.285197 0 45 -0.285197 1
gene 1 8 22 -0.310664 0 46 -0.310664 1
gene 1 9 22 -0.786845 0 47 -0.786845 1
gene 1 10 22 0.481552 0 48 0.481552 1
gene 1 11 22 0.261252 0 49 0.261252 1
gene 1 12 22 1.7349 0 50 1.7349 1
gene 1 13 22 -0.0457692 0 51 -0.0457692 1
gene 1 14 22 -0.450427 0 52 -0.450427 1
gene 1 15 22 0.675037 0 53 0.675037 1
gene 1 16 22 0.409006 0 54 0.409006 1
gene 1 17 22 -0.443327 0 55 -0.443327 0
gene 1 18 22 0.740507 0 56 0.740507 1
gene 1 19 22 0.372277 0 57 0.372277 1
gene 1 1 23 -0.384073 0 58 -0.384073 1
gene 1 2 23 0.480303 0 59 0.480303 1
gene 1 3 23 -1.29606 0 60 -1.29606 1
gene 1 4 23 0.0425294 0 61 0.0425294 1
gene 1 5 23 -0.353589 0 62 -0.353589 1
gene 1 6 23 0.423888 0 63 0.423888 1
gene 1 7 23 0.793519 0 64 0.793519 1
gene 1 8 23 -0.0330421 0 65 -0.0330421 1
gene 1 9 23 -0.598045 0 66 -0.598045 1
gene 1 10 23 0.968644 0 67 0.968644 1
gene 1 11 23 -0.378815 0 68 -0.378815 1
gene 1 12 23 0.428094 0 69 0.428094 1
gene 1 13 23 0.274958 0 70 0.274958 1
gene 1 14 23 -1.54538 0 71 -1.54538 1
gene 1 15 23 0.275572 0 72 0.275572 1
gene 1 16 23 0.684505 0 73 0.684505 1
gene 1 17 23 -0.77618 0 74 -0.77618 1
gene 1 18 23 0.901912 0 75 0.901912 1
gene 1 19 23 -0.0307441 0 76 -0.0307441 1
gene 1 8 24 0.753862 0 77 0.753862 1
gene 1 24 20 0.154815 0 78 0.154815 1
gene 1 15 26 0.407615 0 85 0.407615 1
gene 1 26 20 -0.500573 0 86 -0.500573 1
gene 1 22 20 0.179951 0 87 0.179951 1
gene 1 2 24 0.941763 0 91 0.941763 1
gene 1 8 28 0.438696 0 93 0.438696 1
gene 1 28 24 -0.0135221 0 94 -0.0135221 1
gene 1 6 24 0.38758 0 96 0.38758 1
gene 1 16 26 -0.809125 0 99 -0.809125 0
gene 1 13 24 0.245435 0 100 0.245435 1
gene 1 23 24 0.500573 0 113 0.500573 1
gene 1 13 32 -0.267112 0 116 -0.267112 1
gene 1 32 21 0.368318 0 117 0.368318 1
gene 1 10 37 -0.166218 0 129 -0.166218 1
gene 1 37 20 0.0600133 0 130 0.0600133 1
gene 1 17 39 0.359558 0 134 0.359558 1
gene 1 39 23 0.289291 0 135 0.289291 1
gene 1 15 43 -0.0958583 0 150 -0.0958583 1
gene 1 43 21 -0.407758 0 151 -0.407758 1
gene 1 3 43 -0.0858429 0 153 -0.0858429 1
gene 1 8 32 -0.528998 0 154 -0.528998 1
gene 1 2 39 0.247561 0 178 0.247561 1
gene 1 6 53 0.185193 0 191 0.185193 1
gene 1 53 22 -0.51278 0 192 -0.51278 1
gene 1 6 43 0.400462 0 210 0.400462 1
gene 1 17 60 -2.28664e-05 0 217 -2.28664e-05 1
gene 1 60 22 0.323149 0 218 0.323149 1
gene 1 20 20 -0.466275 1 221 -0.466275 1
gene 1 1 43 -0.110132 0 234 -0.110132 1
gene 1 15 37 0.3038 0 261 0.3038 1
gene 1 10 66 -0.0276794 0 266 -0.0276794 1
gene 1 66 21 -0.134991 0 267 -0.134991 1
gene 1 18 32 -0.00631335 0 271 -0.00631335 1
gene 1 5 68 0.832965 0 277 0.832965 1
gene 1 68 20 0.0515993 0 278 0.0515993 1
gene 1 16 81 1.49294 0 326 1.49294 1
gene 1 81 26 0.296729 0 327 0.296729 1
genomeend 720
genomestart 730
trait 1 0.47224 0.310883 0.302887 0.0120636 0.827574 0.0783379 0.211853 0.524997 
node 1 1 1 1 0
node 2 1 1 1 0
node 3 1 1 1 0
node 4 1 1 1 0
node 5 1 1 1 0
node 6 1 1 1 0
node 7 1 1 1 0
node 8 1 1 1 0
node 9 1 1 1 0
node 10 1 1 1 0
node 11 1 1 1 0
node 12 1 1 1 0
node 13 1 1 1 0
node 14 1 1 1 0
node 15 1 1 1 0
node 16 1 1 1 0
node 17 1 1 1 0
node 18 1 1 1 0
node 19 1 1 3 0
node 20 1 0 2 0
node 21 1 0 2 0
node 22 1 0 2 0
node 23 1 0 2 0
node 24 1 0 0 0
node 26 1 0 0 0
node 28 1 0 0 0
node 32 1 0 0 0
node 37 1 0 0 0
node 39 1 0 0 0
node 43 1 0 0 0
node 53 1 0 0 0
node 75 1 0 0 0
node 82 1 0 0 0
node 90 1 0 0 0
node 95 1 0 0 0
gene 1 1 20 0.0447608 0 1 0.0447608 1
gene 1 2 20 0.5204 0 2 0.5204 1
gene 1 3 20 0.796885 0 3 0.796885 1
gene 1 4 20 -0.364062 0 4 -0.364062 1
gene 1 5 20 0.677204 0 5 0.677204 1
gene 1 6 20 -0.195935 0 6 -0.195935 1
gene 1 7 20 0.61727 0 7 0.61727 1
gene 1 8 20 1.25534 0 8 1.25534 0
gene 1 9 20 0.832517 0 9 0.832517 1
gene 1 10 20 -0.11218 0 10 -0.11218 1
gene 1 11 20 0.14368 0 11 0.14368 1
gene 1 12 20 -0.0539044 0 12 -0.0539044 1
gene 1 13 20 0.231781 0 13 0.231781 1
gene 1 14 20 0.193722 0 14 0.193722 1
gene 1 15 20 -0.184228 0 15 -0.184228 1
gene 1 16 20 -1.11633 0 16 -1.11633 1
gene 1 17 20 0.0862618 0 17 0.0862618 1
gene 1 18 20 0.197983 0 18 0.197983 1
gene 1 19 20 -0.845338 0 19 -0.845338 1
gene 1 1 21 -0.102231 0 20 -0.102231 1
gene 1 2 21 0.220152 0 21 0.220152 0
gene 1 3 21 1.32827 0 22 1.32827 1
gene 1 4 21 0.838751 0 23 0.838751 1
gene 1 5 21 0.718486 0 24 0.718486 1
gene 1 6 21 -0.59599 0 25 -0.59599 1
gene 1 7 21 -0.509275 0 26 -0.509275 1
gene 1 8 21 0.20912 0 27 0.20912 1
gene 1 9 21 -0.0903493 0 28 -0.0903493 0
gene 1 10 21 0.0976441 0 29 0.0976441 1
gene 1 11 21 1.11659 0 30 1.11659 1
gene 1 12 21 0.346839 0 31 0.346839 1
gene 1 13 21 -0.14124 0 32 -0.14124 0
gene 1 14 21 -0.0335732 0 33 -0.0335732 1
gene 1 15 21 0.335321 0 34 0.335321 1
gene 1 16 21 -0.316106 0 35 -0.316106 1
gene 1 17 21 -0.137744 0 36 -0.137744 1
gene 1 18 21 -0.605895 0 37 -0.605895 1
gene 1 19 21 -0.181514 0 38 -0.181514 1
gene 1 1 22 0.953261 0 39 0.953261 1
gene 1 2 22 -0.491114 0 40 -0.491114 1
gene 1 3 22 1.28603 0 41 1.28603 1
gene 1 4 22 0.722176 0 42 0.722176 1
gene 1 5 22 0.287732 0 43 0.287732 1
gene 1 6 22 -0.215816 0 44 -0.215816 0
gene 1 7 22 -0.552155 0 45 -0.552155 1
gene 1 8 22 0.112464 0 46 0.112464 1
gene 1 9 22 0.0053911 0 47 0.0053911 1
gene 1 10 22 0.0400715 0 48 0.0400715 1
gene 1 11 22 -0.0475584 0 49 -0.0475584 1
gene 1 12 22 0.0758051 0 50 0.0758051 1
gene 1 13 22 -0.0276787 0 51 -0.0276787 1
gene 1 14 22 0.367907 0 52 0.367907 1
gene 1 15 22 0.0728518 0 53 0.0728518 1
gene 1 16 22 0.107799 0 54 0.107799 1
gene 1 17 22 0.0999637 0 55 0.0999637 1
gene 1 18 22 0.279724 0 56 0.279724 1
gene 1 19 22 0.125994 0 57 0.125994 1
gene 1 1 23 0.327432 0 58 0.327432 1
gene 1 2 23 -0.33042 0 59 -0.33042 1
gene 1 3 23 0.163157 0 60 0.163157 1
gene 1 4 23 0.472129 0 61 0.472129 1
gene 1 5 23 0.749964 0 62 0.749964 1
gene 1 6 23 0.37672 0 63 0.37672 1
gene 1 7 23 -0.0295262 0 64 -0.0295262 1
gene 1 8 23 -0.034754 0 65 -0.034754 1
gene 1 9 23 0.693209 0 66 0.693209 1
