genomestart 926
trait 1 0 0.170697 0.0163828 0.217538 0.77209 0 0.518002 0.0512177 
node 1 1 1 1 0
node 2 1 1 1 0
node 3 1 1 1 0
node 4 1 1 1 0
node 5 1 1 1 0
node 6 1 1 1 0
node 7 1 1 1 0
node 8 1 1 1 0
node 9 1 1 1 0
node 10 1 1 1 0
node 11 1 1 1 0
node 12 1 1 1 0
node 13 1 1 1 0
node 14 1 1 1 0
node 15 1 1 1 0
node 16 1 1 1 0
node 17 1 1 1 0
node 18 1 1 1 0
node 19 1 1 3 0
node 20 1 0 2 0
node 21 1 0 2 0
node 22 1 0 2 0
node 23 1 0 2 0
node 24 1 0 0 0
node 26 1 0 0 0
node 28 1 0 0 0
node 32 1 0 0 0
node 37 1 0 0 0
node 39 1 0 0 0
node 43 1 0 0 0
node 53 1 0 0 0
node 66 1 0 0 0
node 68 1 0 0 0
gene 1 1 20 -0.730255 0 1 -0.730255 1
gene 1 2 20 0.472754 0 2 0.472754 1
gene 1 3 20 -0.738939 0 3 -0.738939 1
gene 1 4 20 0.594923 0 4 0.594923 1
gene 1 5 20 -0.100886 0 5 -0.100886 1
gene 1 6 20 0.166113 0 6 0.166113 1
gene 1 7 20 -1.35034 0 7 -1.35034 1
gene 1 8 20 0.4222 0 8 0.4222 1
gene 1 9 20 0.22599 0 9 0.22599 1
gene 1 10 20 0.288793 0 10 0.288793 0
gene 1 11 20 -0.825494 0 11 -0.825494 1
gene 1 12 20 2.75406 0 12 2.75406 1
gene 1 13 20 -0.0218136 0 13 -0.0218136 1
gene 1 14 20 -0.62707 0 14 -0.62707 1
gene 1 15 20 0.275561 0 15 0.275561 1
gene 1 16 20 0.494408 0 16 0.494408 1
gene 1 17 20 -0.0418152 0 17 -0.0418152 1
gene 1 18 20 0.606883 0 18 0.606883 1
gene 1 19 20 0.566472 0 19 0.566472 1
gene 1 1 21 -0.580679 0 20 -0.580679 1
gene 1 2 21 -0.290877 0 21 -0.290877 1
gene 1 3 21 -0.241798 0 22 -0.241798 1
gene 1 4 21 0.629264 0 23 0.629264 1
gene 1 5 21 -0.286836 0 24 -0.286836 1
gene 1 6 21 0.171777 0 25 0.171777 1
gene 1 7 21 1.12096 0 26 1.12096 1
gene 1 8 21 0.6943 0 27 0.6943 1
gene 1 9 21 -0.261114 0 28 -0.261114 1
gene 1 10 21 -0.942182 0 29 -0.942182 1
gene 1 11 21 0.617404 0 30 0.617404 1
gene 1 12 21 1.8696 0 31 1.8696 1
gene 1 13 21 -1.568 0 32 -1.568 0
gene 1 14 21 0.57125 0 33 0.57125 1
gene 1 15 21 0.0169954 0 34 0.0169954 1
gene 1 16 21 -0.994436 0 35 -0.994436 1
gene 1 17 21 0.107204 0 36 0.107204 1
gene 1 18 21 -0.0216028 0 37 -0.0216028 1
gene 1 19 21 -0.941958 0 38 -0.941958 1
gene 1 1 22 0.883468 0 39 0.883468 1
gene 1 2 22 0.430732 0 40 0.430732 1
gene 1 3 22 0.743838 0 41 0.743838 1
gene 1 4 22 -0.605807 0 42 -0.605807 1
gene 1 5 22 0.76377 0 43 0.76377 1
gene 1 6 22 -0.377101 0 44 -0.377101 1
gene 1 7 22 0.607619 0 45 0.607619 1
gene 1 8 22 1.42785 0 46 1.42785 0
gene 1 9 22 0.172886 0 47 0.172886 1
gene 1 10 22 0.747886 0 48 0.747886 1
gene 1 11 22 -0.172577 0 49 -0.172577 1
gene 1 12 22 0.219591 0 50 0.219591 1
gene 1 13 22 -0.618882 0 51 -0.618882 1
gene 1 14 22 -0.287647 0 52 -0.287647 1
gene 1 15 22 0.859028 0 53 0.859028 1
gene 1 16 22 -0.520251 0 54 -0.520251 1
gene 1 17 22 0.864925 0 55 0.864925 1
gene 1 18 22 0.577658 0 56 0.577658 1
gene 1 19 22 0.798769 0 57 0.798769 1
gene 1 1 23 0.38145 0 58 0.38145 1
gene 1 2 23 -0.89734 0 59 -0.89734 1
gene 1 3 23 -0.704809 0 60 -0.704809 1
gene 1 4 23 -0.98043 0 61 -0.98043 1
gene 1 5 23 -0.478331 0 62 -0.478331 1
gene 1 6 23 1.16165 0 63 1.16165 1
gene 1 7 23 0.316771 0 64 0.316771 1
gene 1 8 23 -0.208314 0 65 -0.208314 1
gene 1 9 23 0.26882 0 66 0.26882 1
gene 1 10 23 0.76834 0 67 0.76834 1
gene 1 11 23 -1.14341 0 68 -1.14341 1
gene 1 12 23 1.12689 0 69 1.12689 1
gene 1 13 23 -0.495761 0 70 -0.495761 1
gene 1 14 23 -0.141889 0 71 -0.141889 1
gene 1 15 23 -0.70021 0 72 -0.70021 1
gene 1 16 23 0.180332 0 73 0.180332 1
gene 1 17 23 -1.6579 0 74 -1.6579 1
gene 1 18 23 0.0932991 0 75 0.0932991 1
gene 1 19 23 -0.686093 0 76 -0.686093 1
gene 1 8 24 -0.732928 0 77 -0.732928 1
gene 1 24 20 0.804117 0 78 0.804117 1
gene 1 15 26 0.833966 0 85 0.833966 1
gene 1 26 20 0.947581 0 86 0.947581 1
gene 1 22 20 2.53595 0 87 2.53595 1
gene 1 2 24 -0.458814 0 91 -0.458814 1
gene 1 8 28 0.206369 0 93 0.206369 1
gene 1 28 24 -1.07804 0 94 -1.07804 1
gene 1 6 24 0.182473 0 96 0.182473 1
gene 1 16 26 0.434886 0 99 0.434886 1
gene 1 13 24 0.0607284 0 100 0.0607284 1
gene 1 23 24 0.306547 0 113 0.306547 1
gene 1 13 32 -0.710983 0 116 -0.710983 1
gene 1 32 21 0.159042 0 117 0.159042 1
gene 1 10 37 0.151232 0 129 0.151232 1
gene 1 37 20 0.905715 0 130 0.905715 1
gene 1 17 39 0.0801735 0 134 0.0801735 1
gene 1 39 23 -0.911704 0 135 -0.911704 1
gene 1 15 43 -0.256624 0 150 -0.256624 1
gene 1 43 21 -0.966711 0 151 -0.966711 1
gene 1 3 43 -0.0995638 0 153 -0.0995638 1
gene 1 8 32 -0.0893473 0 154 -0.0893473 1
gene 1 2 39 -0.227727 0 178 -0.227727 1
gene 1 6 53 -0.083151 0 191 -0.083151 1
gene 1 53 22 1.04005 0 192 1.04005 1
gene 1 8 66 0.439318 0 237 0.439318 1
gene 1 66 22 0.0125296 0 238 0.0125296 1
gene 1 18 68 -0.179683 0 243 -0.179683 1
gene 1 68 21 -0.581679 0 244 -0.581679 1
genomeend 926
genomestart 972
trait 1 0 0.214542 0.626245 0.519469 1 0 0.429468 0.314457 
node 1 1 1 1 0
node 2 1 1 1 0
node 3 1 1 1 0
node 4 1 1 1 0
node 5 1 1 1 0
node 6 1 1 1 0
node 7 1 1 1 0
node 8 1 1 1 0
node 9 1 1 1 0
node 10 1 1 1 0
node 11 1 1 1 0
node 12 1 1 1 0
node 13 1 1 1 0
node 14 1 1 1 0
node 15 1 1 1 0
node 16 1 1 1 0
node 17 1 1 1 0
node 18 1 1 1 0
node 19 1 1 3 0
node 20 1 0 2 0
node 21 1 0 2 0
node 22 1 0 2 0
node 23 1 0 2 0
node 24 1 0 0 0
node 26 1 0 0 0
node 28 1 0 0 0
node 32 1 0 0 0
node 37 1 0 0 0
node 39 1 0 0 0
node 43 1 0 0 0
node 53 1 0 0 0
node 61 1 0 0 0
node 66 1 0 0 0
gene 1 1 20 0.328546 0 1 0.328546 1
gene 1 2 20 0.307415 0 2 0.307415 1
gene 1 3 20 0.144685 0 3 0.144685 1
gene 1 4 20 2.10055 0 4 2.10055 1
gene 1 5 20 0.448474 0 5 0.448474 1
gene 1 6 20 0.472754 0 6 0.472754 1
gene 1 7 20 -1.11609 0 7 -1.11609 1
gene 1 8 20 -0.813534 0 8 -0.813534 1
gene 1 9 20 0.0236281 0 9 0.0236281 1
gene 1 10 20 0.279438 0 10 0.279438 1
gene 1 11 20 -0.622135 0 11 -0.622135 1
gene 1 12 20 2.80588 0 12 2.80588 1
gene 1 13 20 0.100611 0 13 0.100611 1
gene 1 14 20 -0.134196 0 14 -0.134196 1
gene 1 15 20 -0.102881 0 15 -0.102881 1
gene 1 16 20 0.675966 0 16 0.675966 1
gene 1 17 20 0.559579 0 17 0.559579 1
gene 1 18 20 -0.537111 0 18 -0.537111 1
gene 1 19 20 0.263554 0 19 0.263554 1
gene 1 1 21 0.39305 0 20 0.39305 1
gene 1 2 21 1.61849 0 21 1.61849 1
gene 1 3 21 0.453731 0 22 0.453731 1
gene 1 4 21 0.348206 0 23 0.348206 1
gene 1 5 21 -0.187037 0 24 -0.187037 1
gene 1 6 21 0.534173 0 25 0.534173 1
gene 1 7 21 1.34499 0 26 1.34499 1
gene 1 8 21 0.292319 0 27 0.292319 1
gene 1 9 21 -1.07581 0 28 -1.07581 1
gene 1 10 21 -0.269787 0 29 -0.269787 1
gene 1 11 21 -0.392283 0 30 -0.392283 1
gene 1 12 21 0.408116 0 31 0.408116 1
gene 1 13 21 -1.27857 0 32 -1.27857 0
gene 1 14 21 -2.30499 0 33 -2.30499 1
gene 1 15 21 0.188977 0 34 0.188977 0
gene 1 16 21 1.1864 0 35 1.1864 1
gene 1 17 21 -0.846579 0 36 -0.846579 1
gene 1 18 21 0.53246 0 37 0.53246 1
gene 1 19 21 -0.36079 0 38 -0.36079 1
gene 1 1 22 -1.26024 0 39 -1.26024 1
gene 1 2 22 0.199281 0 40 0.199281 1
gene 1 3 22 -0.164887 0 41 -0.164887 1
gene 1 4 22 -0.391603 0 42 -0.391603 1
gene 1 5 22 0.27234 0 43 0.27234 1
gene 1 6 22 -0.0827032 0 44 -0.0827032 1
gene 1 7 22 0.726412 0 45 0.726412 1
gene 1 8 22 0.26914 0 46 0.26914 1
gene 1 9 22 -0.519123 0 47 -0.519123 1
gene 1 10 22 -0.565952 0 48 -0.565952 1
gene 1 11 22 0.77918 0 49 0.77918 1
gene 1 12 22 -1.59 0 50 -1.59 1
gene 1 13 22 0.571854 0 51 0.571854 1
gene 1 14 22 0.476054 0 52 0.476054 1
gene 1 15 22 1.00257 0 53 1.00257 1
gene 1 16 22 0.255915 0 54 0.255915 1
gene 1 17 22 1.11407 0 55 1.11407 1
gene 1 18 22 0.776147 0 56 0.776147 1
gene 1 19 22 0.125202 0 57 0.125202 1
gene 1 1 23 0.613443 0 58 0.613443 1
gene 1 2 23 -1.48066 0 59 -1.48066 1
gene 1 3 23 -0.521991 0 60 -0.521991 1
gene 1 4 23 -1.05957 0 61 -1.05957 1
gene 1 5 23 -0.351305 0 62 -0.351305 1
gene 1 6 23 0.157713 0 63 0.157713 1
gene 1 7 23 0.48685 0 64 0.48685 1
gene 1 8 23 -0.668724 0 65 -0.668724 1
gene 1 9 23 0.349366 0 66 0.349366 1
gene 1 10 23 0.789078 0 67 0.789078 1
gene 1 11 23 -2.30939 0 68 -2.30939 1
gene 1 12 23 -2.61577 0 69 -2.61577 1
gene 1 13 23 -1.86489 0 70 -1.86489 1
gene 1 14 23 -0.35802 0 71 -0.35802 1
gene 1 15 23 -0.986909 0 72 -0.986909 1
gene 1 16 23 0.79992 0 73 0.79992 1
gene 1 17 23 -0.925008 0 74 -0.925008 0
gene 1 18 23 2.87949 0 75 2.87949 1
gene 1 19 23 -2.13611 0 76 -2.13611 1
gene 1 8 24 -0.236906 0 77 -0.236906 1
gene 1 24 20 1.59186 0 78 1.59186 1
gene 1 15 26 1.11982 0 85 1.11982 1
gene 1 26 20 -0.0798766 0 86 -0.0798766 1
gene 1 22 20 2.34208 0 87 2.34208 1
gene 1 2 24 -0.471791 0 91 -0.471791 1
gene 1 8 28 0.978336 0 93 0.978336 1
gene 1 28 24 -0.386922 0 94 -0.386922 1
gene 1 6 24 -0.339837 0 96 -0.339837 1
gene 1 16 26 0.757234 0 99 0.757234 1
gene 1 13 24 0.144682 0 100 0.144682 1
gene 1 23 24 0.115546 0 113 0.115546 1
gene 1 13 32 0.0649421 0 116 0.0649421 1
gene 1 32 21 0.0102065 0 117 0.0102065 1
gene 1 10 37 -0.249604 0 129 -0.249604 1
gene 1 37 20 1.40253 0 130 1.40253 1
gene 1 17 39 -0.211747 0 134 -0.211747 1
gene 1 39 23 0.0584582 0 135 0.0584582 1
gene 1 15 43 -0.319391 0 150 -0.319391 1
gene 1 43 21 0.759399 0 151 0.759399 1
gene 1 3 43 0.325398 0 153 0.325398 1
gene 1 8 32 0.562989 0 154 0.562989 1
gene 1 2 39 0.543224 0 178 0.543224 1
gene 1 6 53 0.37447 0 191 0.37447 1
gene 1 53 22 0.582392 0 192 0.582392 1
gene 1 2 61 0.159712 0 221 0.159712 1
gene 1 61 24 0.36253 0 222 0.36253 1
gene 1 8 66 -1.10746 0 237 -1.10746 1
gene 1 66 22 0.92903 0 238 0.92903 1
gene 1 28 23 -0.0187036 0 253 -0.0187036 1
genomeend 972
genomestart 975
trait 1 0.0052571 0.125287 0.0290835 0.0192082 0.769899 0 0.450479 0.45337 
node 1 1 1 1 0
node 2 1 1 1 0
node 3 1 1 1 0
node 4 1 1 1 0
node 5 1 1 1 0
node 6 1 1 1 0
node 7 1 1 1 0
node 8 1 1 1 0
node 9 1 1 1 0
node 10 1 1 1 0
node 11 1 1 1 0
node 12 1 1 1 0
node 13 1 1 1 0
node 14 1 1 1 0
node 15 1 1 1 0
node 16 1 1 1 0
node 17 1 1 1 0
node 18 1 1 1 0
node 19 1 1 3 0
node 20 1 0 2 0
node 21 1 0 2 0
node 22 1 0 2 0
node 23 1 0 2 0
node 24 1 0 0 0
node 26 1 0 0 0
node 28 1 0 0 0
node 32 1 0 0 0
node 37 1 0 0 0
node 39 1 0 0 0
node 43 1 0 0 0
node 53 1 0 0 0
node 66 1 0 0 0
node 68 1 0 0 0
gene 1 1 20 0.361674 0 1 0.361674 1
gene 1 2 20 0.529284 0 2 0.529284 1
gene 1 3 20 0.570889 0 3 0.570889 1
gene 1 4 20 0.31337 0 4 0.31337 1
gene 1 5 20 0.412754 0 5 0.412754 1
gene 1 6 20 0.0669081 0 6 0.0669081 1
gene 1 7 20 -1.52322 0 7 -1.52322 1
gene 1 8 20 -0.1317 0 8 -0.1317 1
gene 1 9 20 -0.62816 0 9 -0.62816 1
gene 1 10 20 -0.0965925 0 10 -0.0965925 0
gene 1 11 20 -0.262337 0 11 -0.262337 1
gene 1 12 20 2.54118 0 12 2.54118 1
gene 1 13 20 0.299564 0 13 0.299564 1
gene 1 14 20 0.08334 0 14 0.08334 1
gene 1 15 20 -0.177281 0 15 -0.177281 1
gene 1 16 20 0.198609 0 16 0.198609 1
gene 1 17 20 0.58704 0 17 0.58704 1
gene 1 18 20 0.798246 0 18 0.798246 1
gene 1 19 20 0.528909 0 19 0.528909 1
gene 1 1 21 -1.14217 0 20 -1.14217 1
gene 1 2 21 -0.295346 0 21 -0.295346 1
gene 1 3 21 -0.568954 0 22 -0.568954 1
gene 1 4 21 0.592339 0 23 0.592339 1
gene 1 5 21 -0.540032 0 24 -0.540032 1
gene 1 6 21 -0.450357 0 25 -0.450357 1
gene 1 7 21 0.204447 0 26 0.204447 1
gene 1 8 21 -0.173481 0 27 -0.173481 1
gene 1 9 21 -0.998117 0 28 -0.998117 1
gene 1 10 21 -2.43933 0 29 -2.43933 1
gene 1 11 21 -0.074949 0 30 -0.074949 1
gene 1 12 21 0.737986 0 31 0.737986 1
gene 1 13 21 -0.867323 0 32 -0.867323 0
gene 1 14 21 0.822128 0 33 0.822128 1
gene 1 15 21 -0.0817033 0 34 -0.0817033 0
gene 1 16 21 -0.886707 0 35 -0.886707 1
gene 1 17 21 -0.0855106 0 36 -0.0855106 1
gene 1 18 21 0.449454 0 37 0.449454 1
gene 1 19 21 -1.29154 0 38 -1.29154 1
gene 1 1 22 0.326485 0 39 0.326485 1
gene 1 2 22 -0.171101 0 40 -0.171101 1
gene 1 3 22 0.700476 0 41 0.700476 1
gene 1 4 22 -0.85597 0 42 -0.85597 1
gene 1 5 22 0.498971 0 43 0.498971 1
gene 1 6 22 -0.0622932 0 44 -0.0622932 0
gene 1 7 22 1.23417 0 45 1.23417 1
gene 1 8 22 -0.187664 0 46 -0.187664 0
gene 1 9 22 0.00940478 0 47 0.00940478 1
gene 1 10 22 0.65917 0 48 0.65917 1
gene 1 11 22 -0.53736 0 49 -0.53736 1
gene 1 12 22 -0.719318 0 50 -0.719318 1
gene 1 13 22 0.756092 0 51 0.756092 1
gene 1 14 22 -0.425673 0 52 -0.425673 1
gene 1 15 22 0.539932 0 53 0.539932 1
gene 1 16 22 -0.348349 0 54 -0.348349 1
gene 1 17 22 0.747388 0 55 0.747388 1
gene 1 18 22 0.0881193 0 56 0.0881193 1
gene 1 19 22 -0.310145 0 57 -0.310145 1
gene 1 1 23 0.0956172 0 58 0.0956172 1
gene 1 2 23 -1.48127 0 59 -1.48127 1
gene 1 3 23 -1.1354 0 60 -1.1354 1
gene 1 4 23 -0.222914 0 61 -0.222914 1
gene 1 5 23 -0.497824 0 62 -0.497824 1
gene 1 6 23 0.588966 0 63 0.588966 1
gene 1 7 23 -0.233127 0 64 -0.233127 1
gene 1 8 23 -0.258392 0 65 -0.258392 1
gene 1 9 23 -0.379091 0 66 -0.379091 1
gene 1 10 23 -0.000340706 0 67 -0.000340706 1
gene 1 11 23 -1.23031 0 68 -1.23031 1
gene 1 12 23 -0.657632 0 69 -0.657632 1
gene 1 13 23 -1.12547 0 70 -1.12547 1
gene 1 14 23 0.820994 0 71 0.820994 1
gene 1 15 23 -0.790736 0 72 -0.790736 1
gene 1 16 23 0.194614 0 73 0.194614 1
gene 1 17 23 -0.955367 0 74 -0.955367 0
gene 1 18 23 -0.302886 0 75 -0.302886 1
gene 1 19 23 0.205083 0 76 0.205083 1
gene 1 8 24 -0.506766 0 77 -0.506766 1
gene 1 24 20 2.01486 0 78 2.01486 1
gene 1 15 26 -0.464687 0 85 -0.464687 1
gene 1 26 20 0.868597 0 86 0.868597 1
gene 1 22 20 2.98283 0 87 2.98283 1
gene 1 2 24 0.40478 0 91 0.40478 1
gene 1 8 28 -0.0706951 0 93 -0.0706951 1
gene 1 28 24 -0.146819 0 94 -0.146819 1
gene 1 6 24 0.252195 0 96 0.252195 1
gene 1 16 26 -0.200013 0 99 -0.200013 1
gene 1 13 24 -0.51981 0 100 -0.51981 1
gene 1 23 24 -0.483063 0 113 -0.483063 1
gene 1 13 32 -0.708635 0 116 -0.708635 1
gene 1 32 21 -0.501971 0 117 -0.501971 1
gene 1 10 37 1.21741 0 129 1.21741 1
gene 1 37 20 0.24094 0 130 0.24094 1
gene 1 17 39 0.123666 0 134 0.123666 1
gene 1 39 23 -0.466676 0 135 -0.466676 1
gene 1 15 43 -0.218305 0 150 -0.218305 1
gene 1 43 21 -1.13188 0 151 -1.13188 1
gene 1 3 43 0.0445428 0 153 0.0445428 1
gene 1 8 32 0.580252 0 154 0.580252 1
gene 1 2 39 -0.286768 0 178 -0.286768 1
gene 1 6 53 -1.01241 0 191 -1.01241 1
gene 1 53 22 0.551356 0 192 0.551356 1
gene 1 8 66 1.27913 0 237 1.27913 1
gene 1 66 22 0.415379 0 238 0.415379 1
gene 1 18 68 0.459525 0 243 0.459525 1
gene 1 68 21 -0.191072 0 244 -0.191072 1
gene 1 39 32 0.175887 0 252 0.175887 1
genomeend 975
genomestart 980
trait 1 0 0.162239 0.348389 0.0798942 0.561468 0 0.22339 0.194332 
node 1 1 1 1 0
node 2 1 1 1 0
node 3 1 1 1 0
node 4 1 1 1 0
node 5 1 1 1 0
node 6 1 1 1 0
node 7 1 1 1 0
node 8 1 1 1 0
node 9 1 1 1 0
node 10 1 1 1 0
node 11 1 1 1 0
node 12 1 1 1 0
node 13 1 1 1 0
node 14 1 1 1 0
node 15 1 1 1 0
node 16 1 1 1 0
node 17 1 1 1 0
node 18 1 1 1 0
node 19 1 1 3 0
node 20 1 0 2 0
node 21 1 0 2 0
node 22 1 0 2 0
node 23 1 0 2 0
node 24 1 0 0 0
node 26 1 0 0 0
node 28 1 0 0 0
node 32 1 0 0 0
node 37 1 0 0 0
node 39 1 0 0 0
node 43 1 0 0 0
node 53 1 0 0 0
node 62 1 0 0 0
gene 1 1 20 -0.727962 0 1 -0.727962 1
gene 1 2 20 -0.335168 0 2 -0.335168 1
gene 1 3 20 2.17666 0 3 2.17666 1
gene 1 4 20 0.573379 0 4 0.573379 1
gene 1 5 20 0.196369 0 5 0.196369 1
gene 1 6 20 1.44037 0 6 1.44037 1
gene 1 7 20 0.444277 0 7 0.444277 1
gene 1 8 20 -0.709698 0 8 -0.709698 0
gene 1 9 20 0.239899 0 9 0.239899 1
gene 1 10 20 0.481642 0 10 0.481642 1
gene 1 11 20 0.209864 0 11 0.209864 1
gene 1 12 20 2.23177 0 12 2.23177 1
gene 1 13 20 -0.294819 0 13 -0.294819 0
gene 1 14 20 -0.238196 0 14 -0.238196 1
gene 1 15 20 0.27229 0 15 0.27229 1
gene 1 16 20 -0.575916 0 16 -0.575916 1
gene 1 17 20 1.45643 0 17 1.45643 1
gene 1 18 20 0.541831 0 18 0.541831 1
gene 1 19 20 1.36624 0 19 1.36624 1
gene 1 1 21 -0.343232 0 20 -0.343232 1
gene 1 2 21 -0.44742 0 21 -0.44742 1
gene 1 3 21 -0.684398 0 22 -0.684398 1
gene 1 4 21 0.320509 0 23 0.320509 1
gene 1 5 21 0.372279 0 24 0.372279 1
gene 1 6 21 -0.240457 0 25 -0.240457 1
gene 1 7 21 -0.100644 0 26 -0.100644 1
gene 1 8 21 -0.274924 0 27 -0.274924 1
gene 1 9 21 -0.283198 0 28 -0.283198 1
gene 1 10 21 -0.128077 0 29 -0.128077 1
gene 1 11 21 1.40134 0 30 1.40134 1
gene 1 12 21 0.455453 0 31 0.455453 1
gene 1 13 21 -1.35797 0 32 -1.35797 1
gene 1 14 21 -2.9293 0 33 -2.9293 1
gene 1 15 21 0.45277 0 34 0.45277 0
gene 1 16 21 -0.954859 0 35 -0.954859 1
gene 1 17 21 0.311092 0 36 0.311092 1
gene 1 18 21 -0.246926 0 37 -0.246926 1
gene 1 19 21 1.01819 0 38 1.01819 1
gene 1 1 22 1.09779 0 39 1.09779 1
gene 1 2 22 -0.735803 0 40 -0.735803 1
gene 1 3 22 -0.0304783 0 41 -0.0304783 1
gene 1 4 22 -0.250897 0 42 -0.250897 1
gene 1 5 22 0.00465939 0 43 0.00465939 1
gene 1 6 22 2.70322 0 44 2.70322 0
gene 1 7 22 -0.0942508 0 45 -0.0942508 1
gene 1 8 22 -0.789987 0 46 -0.789987 1
gene 1 9 22 0.139849 0 47 0.139849 1
gene 1 10 22 -0.629979 0 48 -0.629979 1
gene 1 11 22 -0.467071 0 49 -0.467071 1
gene 1 12 22 0.856674 0 50 0.856674 1
gene 1 13 22 -0.157779 0 51 -0.157779 1
gene 1 14 22 -0.431363 0 52 -0.431363 1
gene 1 15 22 -0.823802 0 53 -0.823802 1
gene 1 16 22 -0.433648 0 54 -0.433648 1
gene 1 17 22 0.0931951 0 55 0.0931951 1
gene 1 18 22 -0.128703 0 56 -0.128703 1
gene 1 19 22 1.47286 0 57 1.47286 1
gene 1 1 23 0.430262 0 58 0.430262 1
gene 1 2 23 -0.0317729 0 59 -0.0317729 1
gene 1 3 23 -1.19478 0 60 -1.19478 1
gene 1 4 23 -0.159428 0 61 -0.159428 1
gene 1 5 23 -0.164628 0 62 -0.164628 1
gene 1 6 23 -0.0171512 0 63 -0.0171512 1
gene 1 7 23 -0.396677 0 64 -0.396677 1
gene 1 8 23 -0.873953 0 65 -0.873953 1
gene 1 9 23 0.276451 0 66 0.276451 1
gene 1 10 23 0.560939 0 67 0.560939 1
gene 1 11 23 0.39664 0 68 0.39664 1
gene 1 12 23 1.2103 0 69 1.2103 1
gene 1 13 23 -0.591716 0 70 -0.591716 1
gene 1 14 23 0.0107183 0 71 0.0107183 1
gene 1 15 23 0.850266 0 72 0.850266 1
gene 1 16 23 -0.508475 0 73 -0.508475 1
gene 1 17 23 -0.0484415 0 74 -0.0484415 0
gene 1 18 23 -0.145827 0 75 -0.145827 1
gene 1 19 23 0.472856 0 76 0.472856 1
gene 1 8 24 0.768087 0 77 0.768087 1
gene 1 24 20 0.111518 0 78 0.111518 1
gene 1 15 26 0.746593 0 85 0.746593 1
gene 1 26 20 0.365182 0 86 0.365182 1
gene 1 22 20 1.83228 0 87 1.83228 1
gene 1 2 24 1.03963 0 91 1.03963 1
gene 1 8 28 0.147299 0 93 0.147299 1
gene 1 28 24 0.356978 0 94 0.356978 1
gene 1 6 24 -0.537172 0 96 -0.537172 1
gene 1 16 26 -0.500506 0 99 -0.500506 1
gene 1 13 24 -0.299898 0 100 -0.299898 1
gene 1 23 24 -0.123306 0 113 -0.123306 1
gene 1 13 32 0.0475158 0 116 0.0475158 1
gene 1 32 21 0.0982868 0 117 0.0982868 1
gene 1 10 37 -0.0973141 0 129 -0.0973141 1
gene 1 37 20 1.51674 0 130 1.51674 1
gene 1 17 39 0.736605 0 134 0.736605 1
gene 1 39 23 -0.327534 0 135 -0.327534 1
gene 1 15 43 -0.348046 0 150 -0.348046 1
gene 1 43 21 -0.646413 0 151 -0.646413 1
gene 1 3 43 0.243966 0 153 0.243966 1
gene 1 8 32 -0.290375 0 154 -0.290375 1
gene 1 2 39 0.418983 0 178 0.418983 1
gene 1 6 53 0.0621451 0 191 0.0621451 1
gene 1 53 22 -0.467278 0 192 -0.467278 1
gene 1 13 62 0.292664 0 225 0.292664 1
gene 1 62 20 0.307759 0 226 0.307759 1
gene 1 26 24 0.234009 0 284 0.234009 1
genomeend 980
genomestart 1019
trait 1 0.00788565 0.173592 0.0397719 0.137582 0.775385 0 0.518673 0.299195 
node 1 1 1 1 0
node 2 1 1 1 0
node 3 1 1 1 0
node 4 1 1 1 0
node 5 1 1 1 0
node 6 1 1 1 0
node 7 1 1 1 0
node 8 1 1 1 0
node 9 1 1 1 0
node 10 1 1 1 0
node 11 1 1 1 0
node 12 1 1 1 0
node 13 1 1 1 0
node 14 1 1 1 0
node 15 1 1 1 0
node 16 1 1 1 0
node 17 1 1 1 0
node 18 1 1 1 0
node 19 1 1 3 0
node 20 1 0 2 0
node 21 1 0 2 0
node 22 1 0 2 0
node 23 1 0 2 0
node 24 1 0 0 0
node 26 1 0 0 0
node 28 1 0 0 0
node 32 1 0 0 0
node 37 1 0 0 0
node 39 1 0 0 0
node 43 1 0 0 0
node 53 1 0 0 0
node 66 1 0 0 0
node 68 1 0 0 0
gene 1 1 20 -0.538351 0 1 -0.538351 1
gene 1 2 20 0.755222 0 2 0.755222 1
gene 1 3 20 -0.516417 0 3 -0.516417 1
gene 1 4 20 1.03556 0 4 1.03556 1
gene 1 5 20 0.215048 0 5 0.215048 1
gene 1 6 20 0.0302888 0 6 0.0302888 1
gene 1 7 20 -1.57736 0 7 -1.57736 1
gene 1 8 20 0.694724 0 8 0.694724 1
gene 1 9 20 0.484143 0 9 0.484143 1
gene 1 10 20 0.0402048 0 10 0.0402048 0
gene 1 11 20 -0.2794 0 11 -0.2794 1
gene 1 12 20 2.64817 0 12 2.64817 1
gene 1 13 20 0.428365 0 13 0.428365 1
gene 1 14 20 -0.676854 0 14 -0.676854 1
gene 1 15 20 -0.29778 0 15 -0.29778 1
gene 1 16 20 0.53281 0 16 0.53281 1
gene 1 17 20 0.0826154 0 17 0.0826154 1
gene 1 18 20 0.615625 0 18 0.615625 1
gene 1 19 20 0.60471 0 19 0.60471 1
gene 1 1 21 -0.552036 0 20 -0.552036 1
gene 1 2 21 0.637557 0 21 0.637557 1
gene 1 3 21 -0.512658 0 22 -0.512658 1
gene 1 4 21 0.303163 0 23 0.303163 1
gene 1 5 21 -0.719312 0 24 -0.719312 1
gene 1 6 21 -0.126776 0 25 -0.126776 1
gene 1 7 21 0.464036 0 26 0.464036 1
gene 1 8 21 0.0584552 0 27 0.0584552 1
gene 1 9 21 -0.8879 0 28 -0.8879 1
gene 1 10 21 -1.31003 0 29 -1.31003 1
gene 1 11 21 0.403804 0 30 0.403804 1
gene 1 12 21 1.6341 0 31 1.6341 1
gene 1 13 21 -0.694849 0 32 -0.694849 0
gene 1 14 21 -0.0383676 0 33 -0.0383676 1
gene 1 15 21 0.0669327 0 34 0.0669327 0
gene 1 16 21 -0.662758 0 35 -0.662758 1
gene 1 17 21 -0.0514076 0 36 -0.0514076 1
gene 1 18 21 -0.190406 0 37 -0.190406 1
gene 1 19 21 -0.684251 0 38 -0.684251 1
gene 1 1 22 1.01274 0 39 1.01274 1
gene 1 2 22 0.331858 0 40 0.331858 1
gene 1 3 22 0.822252 0 41 0.822252 1
gene 1 4 22 0.151489 0 42 0.151489 1
gene 1 5 22 0.655269 0 43 0.655269 1
gene 1 6 22 -0.466621 0 44 -0.466621 1
gene 1 7 22 0.941597 0 45 0.941597 1
gene 1 8 22 1.3359 0 46 1.3359 0
gene 1 9 22 0.348257 0 47 0.348257 1
gene 1 10 22 0.606269 0 48 0.606269 1
gene 1 11 22 -0.131301 0 49 -0.131301 1
gene 1 12 22 0.197088 0 50 0.197088 1
gene 1 13 22 -0.462572 0 51 -0.462572 1
gene 1 14 22 -0.316065 0 52 -0.316065 1
gene 1 15 22 0.838353 0 53 0.838353 1
gene 1 16 22 0.760975 0 54 0.760975 1
gene 1 17 22 0.674138 0 55 0.674138 1
gene 1 18 22 0.728429 0 56 0.728429 1
gene 1 19 22 0.275722 0 57 0.275722 1
gene 1 1 23 -0.0310172 0 58 -0.0310172 1
gene 1 2 23 -0.722035 0 59 -0.722035 1
gene 1 3 23 -0.497716 0 60 -0.497716 1
gene 1 4 23 -0.966614 0 61 -0.966614 1
gene 1 5 23 -0.132229 0 62 -0.132229 1
gene 1 6 23 0.884099 0 63 0.884099 1
gene 1 7 23 -0.00826495 0 64 -0.00826495 1
gene 1 8 23 -0.247218 0 65 -0.247218 1
gene 1 9 23 -0.0911823 0 66 -0.0911823 1
gene 1 10 23 0.791466 0 67 0.791466 1
gene 1 11 23 -0.896973 0 68 -0.896973 1
gene 1 12 23 0.775271 0 69 0.775271 1
gene 1 13 23 -0.194015 0 70 -0.194015 1
gene 1 14 23 0.00439917 0 71 0.00439917 1
gene 1 15 23 -0.795236 0 72 -0.795236 1
gene 1 16 23 0.110581 0 73 0.110581 1
gene 1 17 23 -1.55691 0 74 -1.55691 0
gene 1 18 23 -0.21682 0 75 -0.21682 1
gene 1 19 23 -0.584321 0 76 -0.584321 1
gene 1 8 24 -0.494105 0 77 -0.494105 1
gene 1 24 20 1.07015 0 78 1.07015 1
gene 1 15 26 0.783059 0 85 0.783059 1
gene 1 26 20 0.558434 0 86 0.558434 1
gene 1 22 20 2.63468 0 87 2.63468 1
gene 1 2 24 -0.288106 0 91 -0.288106 1
gene 1 8 28 0.640154 0 93 0.640154 1
gene 1 28 24 -0.502512 0 94 -0.502512 1
gene 1 6 24 0.214284 0 96 0.214284 1
gene 1 16 26 0.141053 0 99 0.141053 1
gene 1 13 24 0.184855 0 100 0.184855 1
gene 1 23 24 0.233745 0 113 0.233745 1
gene 1 13 32 -0.849701 0 116 -0.849701 1
gene 1 32 21 0.270576 0 117 0.270576 1
gene 1 10 37 0.111126 0 129 0.111126 1
gene 1 37 20 0.383015 0 130 0.383015 1
gene 1 17 39 -0.380037 0 134 -0.380037 1
gene 1 39 23 -0.722161 0 135 -0.722161 1
gene 1 15 43 -0.367055 0 150 -0.367055 1
gene 1 43 21 -1.01313 0 151 -1.01313 1
gene 1 3 43 0.070968 0 153 0.070968 1
gene 1 8 32 -0.0126558 0 154 -0.0126558 1
gene 1 2 39 0.00391577 0 178 0.00391577 1
gene 1 6 53 -0.0157731 0 191 -0.0157731 1
gene 1 53 22 0.841273 0 192 0.841273 1
gene 1 8 66 0.34869 0 237 0.34869 1
gene 1 66 22 -0.156256 0 238 -0.156256 1
gene 1 18 68 0.329894 0 243 0.329894 1
gene 1 68 21 -0.339109 0 244 -0.339109 1
gene 1 39 32 0.761495 0 252 0.761495 1
genomeend 1019
genomestart 1249
trait 1 0 0.0692323 0 0.0223203 0.616284 0.0671118 0 0.237055 
node 1 1 1 1 0
node 2 1 1 1 0
node 3 1 1 1 0
node 4 1 1 1 0
node 5 1 1 1 0
node 6 1 1 1 0
node 7 1 1 1 0
node 8 1 1 1 0
node 9 1 1 1 0
node 10 1 1 1 0
node 11 1 1 1 0
node 12 1 1 1 0
node 13 1 1 1 0
node 14 1 1 1 0
node 15 1 1 1 0
node 16 1 1 1 0
node 17 1 1 1 0
node 18 1 1 1 0
node 19 1 1 3 0
node 20 1 0 2 0
node 21 1 0 2 0
node 22 1 0 2 0
node 23 1 0 2 0
node 24 1 0 0 0
node 26 1 0 0 0
node 28 1 0 0 0
node 32 1 0 0 0
node 37 1 0 0 0
node 39 1 0 0 0
node 43 1 0 0 0
node 53 1 0 0 0
node 68 1 0 0 0
node 70 1 0 0 0
gene 1 1 20 0.797004 0 1 0.797004 1
gene 1 2 20 -0.7126 0 2 -0.7126 1
gene 1 3 20 1.35776 0 3 1.35776 1
gene 1 4 20 -0.347737 0 4 -0.347737 1
gene 1 5 20 0.207499 0 5 0.207499 1
gene 1 6 20 0.831222 0 6 0.831222 1
gene 1 7 20 1.19436 0 7 1.19436 1
gene 1 8 20 0.460608 0 8 0.460608 1
gene 1 9 20 0.353812 0 9 0.353812 1
gene 1 10 20 1.41724 0 10 1.41724 1
gene 1 11 20 0.571635 0 11 0.571635 1
gene 1 12 20 2.68833 0 12 2.68833 1
gene 1 13 20 0.865453 0 13 0.865453 1
gene 1 14 20 -1.14253 0 14 -1.14253 1
gene 1 15 20 0.763677 0 15 0.763677 1
gene 1 16 20 0.743138 0 16 0.743138 1
gene 1 17 20 1.38118 0 17 1.38118 1
gene 1 18 20 1.03663 0 18 1.03663 0
gene 1 19 20 0.308971 0 19 0.308971 1
gene 1 1 21 0.327575 0 20 0.327575 1
gene 1 2 21 0.862635 0 21 0.862635 1
gene 1 3 21 -0.463114 0 22 -0.463114 1
gene 1 4 21 0.646504 0 23 0.646504 1
gene 1 5 21 0.0971849 0 24 0.0971849 1
gene 1 6 21 -0.645909 0 25 -0.645909 1
gene 1 7 21 0.308786 0 26 0.308786 1
gene 1 8 21 -0.496597 0 27 -0.496597 1
gene 1 9 21 -1.24166 0 28 -1.24166 1
gene 1 10 21 -0.916121 0 29 -0.916121 1
gene 1 11 21 0.87889 0 30 0.87889 1
gene 1 12 21 1.22882 0 31 1.22882 1
gene 1 13 21 -1.47058 0 32 -1.47058 0
gene 1 14 21 -2.54293 0 33 -2.54293 1
gene 1 15 21 1.35814 0 34 1.35814 0
gene 1 16 21 -0.396827 0 35 -0.396827 1
gene 1 17 21 -0.0681657 0 36 -0.0681657 1
gene 1 18 21 0.0878052 0 37 0.0878052 1
gene 1 19 21 -0.29018 0 38 -0.29018 1
gene 1 1 22 0.521931 0 39 0.521931 1
gene 1 2 22 -1.13776 0 40 -1.13776 1
gene 1 3 22 1.86561 0 41 1.86561 1
gene 1 4 22 0.156916 0 42 0.156916 1
gene 1 5 22 0.374795 0 43 0.374795 1
gene 1 6 22 1.07013 0 44 1.07013 1
gene 1 7 22 0.619546 0 45 0.619546 1
gene 1 8 22 -1.06826 0 46 -1.06826 1
gene 1 9 22 1.0048 0 47 1.0048 1
gene 1 10 22 0.162313 0 48 0.162313 1
gene 1 11 22 0.655131 0 49 0.655131 1
gene 1 12 22 0.549508 0 50 0.549508 1
gene 1 13 22 0.93861 0 51 0.93861 1
gene 1 14 22 -0.0896559 0 52 -0.0896559 1
gene 1 15 22 1.32527 0 53 1.32527 1
gene 1 16 22 0.655516 0 54 0.655516 1
gene 1 17 22 0.291284 0 55 0.291284 1
gene 1 18 22 0.742485 0 56 0.742485 1
gene 1 19 22 0.342887 0 57 0.342887 1
gene 1 1 23 0.239334 0 58 0.239334 1
gene 1 2 23 -1.23451 0 59 -1.23451 1
gene 1 3 23 -2.13682 0 60 -2.13682 1
gene 1 4 23 -0.612204 0 61 -0.612204 1
gene 1 5 23 -0.330658 0 62 -0.330658 1
gene 1 6 23 0.662337 0 63 0.662337 1
gene 1 7 23 -0.369954 0 64 -0.369954 1
gene 1 8 23 -0.0888917 0 65 -0.0888917 1
gene 1 9 23 -0.313709 0 66 -0.313709 1
gene 1 10 23 0.469439 0 67 0.469439 1
gene 1 11 23 0.0938889 0 68 0.0938889 1
gene 1 12 23 1.20922 0 69 1.20922 1
gene 1 13 23 0.219169 0 70 0.219169 1
gene 1 14 23 -1.05199 0 71 -1.05199 1
gene 1 15 23 0.543131 0 72 0.543131 1
gene 1 16 23 -1.5621 0 73 -1.5621 1
gene 1 17 23 -2.02162 0 74 -2.02162 1
gene 1 18 23 0.945091 0 75 0.945091 1
gene 1 19 23 -0.58527 0 76 -0.58527 1
gene 1 8 24 -0.998536 0 77 -0.998536 1
gene 1 24 20 0.919166 0 78 0.919166 1
gene 1 15 26 2.23515 0 85 2.23515 1
gene 1 26 20 0.329942 0 86 0.329942 1
gene 1 22 20 2.9369 0 87 2.9369 1
gene 1 2 24 -0.0609601 0 91 -0.0609601 1
gene 1 8 28 -0.119932 0 93 -0.119932 1
gene 1 28 24 -1.70101 0 94 -1.70101 1
gene 1 6 24 0.23802 0 96 0.23802 1
gene 1 16 26 -0.385039 0 99 -0.385039 1
gene 1 13 24 0.293966 0 100 0.293966 1
gene 1 23 24 0.448346 0 113 0.448346 1
gene 1 13 32 -0.19577 0 116 -0.19577 1
gene 1 32 21 -1.74787 0 117 -1.74787 1
gene 1 10 37 -0.150216 0 129 -0.150216 1
gene 1 37 20 0.375741 0 130 0.375741 1
gene 1 17 39 0.109186 0 134 0.109186 1
gene 1 39 23 0.536852 0 135 0.536852 1
gene 1 15 43 0.542466 0 150 0.542466 1
gene 1 43 21 -0.179295 0 151 -0.179295 1
gene 1 3 43 0.285414 0 153 0.285414 1
gene 1 8 32 -0.206108 0 154 -0.206108 1
gene 1 2 39 0.250301 0 178 0.250301 1
gene 1 6 53 0.518105 0 191 0.518105 1
gene 1 53 22 0.10654 0 192 0.10654 1
gene 1 18 68 0.497744 0 243 0.497744 1
gene 1 68 21 -0.382959 0 244 -0.382959 1
gene 1 18 70 0.258074 0 247 0.258074 1
gene 1 70 20 0.146171 0 248 0.146171 1
gene 1 26 70 -0.612513 0 289 -0.612513 1
genomeend 1249
genomestart 1310
trait 1 0.0118285 0.151599 0.0494474 0.0432185 0.770451 0 0.483454 0.498507 
node 1 1 1 1 0
node 2 1 1 1 0
node 3 1 1 1 0
node 4 1 1 1 0
node 5 1 1 1 0
node 6 1 1 1 0
node 7 1 1 1 0
node 8 1 1 1 0
node 9 1 1 1 0
node 10 1 1 1 0
node 11 1 1 1 0
node 12 1 1 1 0
node 13 1 1 1 0
node 14 1 1 1 0
node 15 1 1 1 0
node 16 1 1 1 0
node 17 1 1 1 0
node 18 1 1 1 0
node 19 1 1 3 0
node 20 1 0 2 0
node 21 1 0 2 0
node 22 1 0 2 0
node 23 1 0 2 0
node 24 1 0 0 0
node 26 1 0 0 0
node 28 1 0 0 0
node 32 1 0 0 0
node 37 1 0 0 0
node 39 1 0 0 0
node 43 1 0 0 0
node 53 1 0 0 0
node 66 1 0 0 0
node 68 1 0 0 0
gene 1 1 20 -0.420028 0 1 -0.420028 1
gene 1 2 20 0.51686 0 2 0.51686 1
gene 1 3 20 -0.618163 0 3 -0.618163 1
gene 1 4 20 1.58589 0 4 1.58589 1
gene 1 5 20 -0.274337 0 5 -0.274337 1
gene 1 6 20 0.306957 0 6 0.306957 1
gene 1 7 20 -2.50755 0 7 -2.50755 1
gene 1 8 20 1.18594 0 8 1.18594 1
gene 1 9 20 1.07979 0 9 1.07979 1
gene 1 10 20 -0.611261 0 10 -0.611261 0
gene 1 11 20 0.38041 0 11 0.38041 1
gene 1 12 20 2.40974 0 12 2.40974 1
gene 1 13 20 0.94969 0 13 0.94969 1
gene 1 14 20 0.131902 0 14 0.131902 1
gene 1 15 20 -0.341146 0 15 -0.341146 1
gene 1 16 20 0.911546 0 16 0.911546 1
gene 1 17 20 0.444291 0 17 0.444291 1
gene 1 18 20 0.945413 0 18 0.945413 1
gene 1 19 20 0.371829 0 19 0.371829 1
gene 1 1 21 -0.376885 0 20 -0.376885 1
gene 1 2 21 1.81335 0 21 1.81335 1
gene 1 3 21 -0.867427 0 22 -0.867427 1
gene 1 4 21 0.186017 0 23 0.186017 1
gene 1 5 21 0.301746 0 24 0.301746 1
gene 1 6 21 -0.0227503 0 25 -0.0227503 1
gene 1 7 21 -0.255061 0 26 -0.255061 1
gene 1 8 21 0.30029 0 27 0.30029 1
gene 1 9 21 -0.195043 0 28 -0.195043 1
gene 1 10 21 0.00180323 0 29 0.00180323 1
gene 1 11 21 -0.486541 0 30 -0.486541 1
gene 1 12 21 0.532762 0 31 0.532762 1
gene 1 13 21 -0.256002 0 32 -0.256002 0
gene 1 14 21 0.246198 0 33 0.246198 1
gene 1 15 21 0.700418 0 34 0.700418 0
gene 1 16 21 -0.703049 0 35 -0.703049 1
gene 1 17 21 0.4005 0 36 0.4005 1
gene 1 18 21 -0.58951 0 37 -0.58951 1
gene 1 19 21 -0.356753 0 38 -0.356753 1
gene 1 1 22 0.0687791 0 39 0.0687791 1
gene 1 2 22 -0.398644 0 40 -0.398644 1
gene 1 3 22 1.21278 0 41 1.21278 1
gene 1 4 22 0.798003 0 42 0.798003 1
gene 1 5 22 0.348223 0 43 0.348223 1
gene 1 6 22 -1.97714 0 44 -1.97714 0
gene 1 7 22 0.649892 0 45 0.649892 1
gene 1 8 22 0.484302 0 46 0.484302 0
gene 1 9 22 0.568049 0 47 0.568049 1
gene 1 10 22 0.597247 0 48 0.597247 1
gene 1 11 22 0.069278 0 49 0.069278 1
gene 1 12 22 0.026435 0 50 0.026435 1
gene 1 13 22 -0.248656 0 51 -0.248656 1
gene 1 14 22 0.0208141 0 52 0.0208141 1
gene 1 15 22 1.27328 0 53 1.27328 1
gene 1 16 22 0.381033 0 54 0.381033 1
gene 1 17 22 0.930248 0 55 0.930248 1
gene 1 18 22 1.0566 0 56 1.0566 1
gene 1 19 22 0.521248 0 57 0.521248 1
gene 1 1 23 -0.332764 0 58 -0.332764 1
gene 1 2 23 -0.341654 0 59 -0.341654 1
gene 1 3 23 -1.01932 0 60 -1.01932 1
gene 1 4 23 -1.3052 0 61 -1.3052 1
gene 1 5 23 -0.26418 0 62 -0.26418 1
gene 1 6 23 0.860661 0 63 0.860661 1
gene 1 7 23 0.101814 0 64 0.101814 1
gene 1 8 23 0.207311 0 65 0.207311 1
gene 1 9 23 0.576511 0 66 0.576511 1
gene 1 10 23 -0.440089 0 67 -0.440089 1
gene 1 11 23 -2.15425 0 68 -2.15425 1
gene 1 12 23 -0.341383 0 69 -0.341383 1
gene 1 13 23 -0.274067 0 70 -0.274067 1
gene 1 14 23 0.81946 0 71 0.81946 1
gene 1 15 23 -0.488032 0 72 -0.488032 1
gene 1 16 23 0.0878179 0 73 0.0878179 1
gene 1 17 23 -1.18103 0 74 -1.18103 0
gene 1 18 23 -0.806693 0 75 -0.806693 1
gene 1 19 23 0.280868 0 76 0.280868 1
gene 1 8 24 0.0115155 0 77 0.0115155 1
gene 1 24 20 0.999721 0 78 0.999721 1
gene 1 15 26 1.80131 0 85 1.80131 1
gene 1 26 20 -0.183207 0 86 -0.183207 1
gene 1 22 20 2.42379 0 87 2.42379 1
gene 1 2 24 -0.539541 0 91 -0.539541 1
gene 1 8 28 -0.0807413 0 93 -0.0807413 1
gene 1 28 24 0.344433 0 94 0.344433 1
gene 1 6 24 -0.0177301 0 96 -0.0177301 1
gene 1 16 26 -0.960922 0 99 -0.960922 1
gene 1 13 24 -0.45126 0 100 -0.45126 1
gene 1 23 24 0.890435 0 113 0.890435 1
gene 1 13 32 -0.689731 0 116 -0.689731 1
gene 1 32 21 -0.0993383 0 117 -0.0993383 1
gene 1 10 37 1.02424 0 129 1.02424 1
gene 1 37 20 1.04876 0 130 1.04876 1
gene 1 17 39 -1.21296 0 134 -1.21296 1
gene 1 39 23 -0.819503 0 135 -0.819503 1
gene 1 15 43 -0.523467 0 150 -0.523467 1
gene 1 43 21 -0.512323 0 151 -0.512323 1
gene 1 3 43 0.349577 0 153 0.349577 1
gene 1 8 32 0.0550318 0 154 0.0550318 1
gene 1 2 39 -0.137504 0 178 -0.137504 1
gene 1 6 53 0.185411 0 191 0.185411 1
gene 1 53 22 0.248978 0 192 0.248978 1
gene 1 8 66 0.663323 0 237 0.663323 1
gene 1 66 22 -0.18733 0 238 -0.18733 1
gene 1 18 68 0.0149454 0 243 0.0149454 1
gene 1 68 21 -0.413036 0 244 -0.413036 1
gene 1 39 32 0.520525 0 252 0.520525 1
genomeend 1310
genomestart 104
trait 1 0.0052571 0.125287 0.0290835 0.0192082 0.769899 0 0.450479 0.45337 
node 1 1 1 1 0
node 2 1 1 1 0
node 3 1 1 1 0
node 4 1 1 1 0
node 5 1 1 1 0
node 6 1 1 1 0
node 7 1 1 1 0
node 8 1 1 1 0
node 9 1 1 1 0
node 10 1 1 1 0
node 11 1 1 1 0
node 12 1 1 1 0
node 13 1 1 1 0
node 14 1 1 1 0
node 15 1 1 1 0
node 16 1 1 1 0
node 17 1 1 1 0
node 18 1 1 1 0
node 19 1 1 3 0
node 20 1 0 2 0
node 21 1 0 2 0
node 22 1 0 2 0
node 23 1 0 2 0
node 24 1 0 0 0
node 26 1 0 0 0
node 28 1 0 0 0
node 32 1 0 0 0
node 37 1 0 0 0
node 39 1 0 0 0
node 43 1 0 0 0
node 53 1 0 0 0
node 66 1 0 0 0
node 68 1 0 0 0
gene 1 1 20 -0.325503 0 1 -0.325503 1
gene 1 2 20 0.356529 0 2 0.356529 1
gene 1 3 20 0.718546 0 3 0.718546 1
gene 1 4 20 0.592071 0 4 0.592071 1
gene 1 5 20 0.169801 0 5 0.169801 1
gene 1 6 20 -0.0291315 0 6 -0.0291315 1
gene 1 7 20 -2.07403 0 7 -2.07403 1
gene 1 8 20 -0.0043475 0 8 -0.0043475 1
gene 1 9 20 -0.718319 0 9 -0.718319 1
gene 1 10 20 0.598114 0 10 0.598114 0
gene 1 11 20 -0.407693 0 11 -0.407693 1
gene 1 12 20 1.45974 0 12 1.45974 1
gene 1 13 20 0.237548 0 13 0.237548 1
gene 1 14 20 -0.306138 0 14 -0.306138 1
gene 1 15 20 -0.166646 0 15 -0.166646 1
gene 1 16 20 0.119298 0 16 0.119298 1
gene 1 17 20 0.500803 0 17 0.500803 1
gene 1 18 20 0.722179 0 18 0.722179 1
gene 1 19 20 0.671847 0 19 0.671847 1
gene 1 1 21 -1.13909 0 20 -1.13909 1
gene 1 2 21 0.134356 0 21 0.134356 1
gene 1 3 21 -0.444632 0 22 -0.444632 1
gene 1 4 21 0.600764 0 23 0.600764 1
gene 1 5 21 -0.093529 0 24 -0.093529 1
gene 1 6 21 -0.16543 0 25 -0.16543 1
gene 1 7 21 0.306453 0 26 0.306453 1
gene 1 8 21 -0.197423 0 27 -0.197423 1
gene 1 9 21 -0.617287 0 28 -0.617287 1
gene 1 10 21 -2.06925 0 29 -2.06925 1
gene 1 11 21 0.693671 0 30 0.693671 1
gene 1 12 21 0.542052 0 31 0.542052 1
gene 1 13 21 -0.163305 0 32 -0.163305 1
gene 1 14 21 0.659199 0 33 0.659199 1
gene 1 15 21 0.0169968 0 34 0.0169968 1
gene 1 16 21 -0.612183 0 35 -0.612183 1
gene 1 17 21 0.318102 0 36 0.318102 1
gene 1 18 21 0.041116 0 37 0.041116 1
gene 1 19 21 -0.839776 0 38 -0.839776 1
gene 1 1 22 -0.0047465 0 39 -0.0047465 1
gene 1 2 22 0.292257 0 40 0.292257 1
gene 1 3 22 0.344259 0 41 0.344259 1
gene 1 4 22 -0.718194 0 42 -0.718194 1
gene 1 5 22 0.401017 0 43 0.401017 1
gene 1 6 22 -0.0553686 0 44 -0.0553686 0
gene 1 7 22 0.902567 0 45 0.902567 1
gene 1 8 22 -0.0676683 0 46 -0.0676683 0
gene 1 9 22 0.325436 0 47 0.325436 1
gene 1 10 22 0.615279 0 48 0.615279 1
gene 1 11 22 -0.105556 0 49 -0.105556 1
gene 1 12 22 -0.514119 0 50 -0.514119 1
gene 1 13 22 0.350243 0 51 0.350243 1
gene 1 14 22 -0.260167 0 52 -0.260167 1
gene 1 15 22 0.209095 0 53 0.209095 1
gene 1 16 22 -0.521132 0 54 -0.521132 1
gene 1 17 22 0.936774 0 55 0.936774 1
gene 1 18 22 0.0464994 0 56 0.0464994 1
gene 1 19 22 0.434493 0 57 0.434493 1
gene 1 1 23 -0.19227 0 58 -0.19227 1
gene 1 2 23 -1.44338 0 59 -1.44338 1
gene 1 3 23 -0.827317 0 60 -0.827317 1
gene 1 4 23 -0.562625 0 61 -0.562625 1
gene 1 5 23 -0.183198 0 62 -0.183198 1
gene 1 6 23 0.222206 0 63 0.222206 1
gene 1 7 23 0.022872 0 64 0.022872 1
gene 1 8 23 -0.468663 0 65 -0.468663 1
gene 1 9 23 -0.352027 0 66 -0.352027 1
gene 1 10 23 0.438594 0 67 0.438594 1
gene 1 11 23 -0.584087 0 68 -0.584087 1
gene 1 12 23 -0.067839 0 69 -0.067839 1
gene 1 13 23 -0.939764 0 70 -0.939764 1
gene 1 14 23 0.469775 0 71 0.469775 1
gene 1 15 23 -0.504557 0 72 -0.504557 1
gene 1 16 23 0.293418 0 73 0.293418 1
gene 1 17 23 -0.753731 0 74 -0.753731 1
gene 1 18 23 -0.0212395 0 75 -0.0212395 1
gene 1 19 23 0.270193 0 76 0.270193 1
gene 1 8 24 0.0615455 0 77 0.0615455 1
gene 1 24 20 2.05093 0 78 2.05093 1
gene 1 15 26 0.0651295 0 85 0.0651295 1
gene 1 26 20 0.699585 0 86 0.699585 1
gene 1 22 20 2.98093 0 87 2.98093 1
gene 1 2 24 -0.21623 0 91 -0.21623 1
gene 1 8 28 0.125591 0 93 0.125591 1
gene 1 28 24 -0.255088 0 94 -0.255088 1
gene 1 6 24 0.303213 0 96 0.303213 1
gene 1 16 26 -0.0963702 0 99 -0.0963702 1
gene 1 13 24 -0.404892 0 100 -0.404892 1
gene 1 23 24 0.109522 0 113 0.109522 1
gene 1 13 32 -0.669256 0 116 -0.669256 1
gene 1 32 21 -0.489671 0 117 -0.489671 1
gene 1 10 37 0.610254 0 129 0.610254 1
gene 1 37 20 0.21041 0 130 0.21041 1
gene 1 17 39 -0.13008 0 134 -0.13008 1
gene 1 39 23 -0.366851 0 135 -0.366851 1
gene 1 15 43 -0.050083 0 150 -0.050083 1
gene 1 43 21 -0.600983 0 151 -0.600983 1
gene 1 3 43 -0.0749571 0 153 -0.0749571 1
gene 1 8 32 0.567304 0 154 0.567304 1
gene 1 2 39 -0.29932 0 178 -0.29932 1
gene 1 6 53 -0.948584 0 191 -0.948584 1
gene 1 53 22 0.896918 0 192 0.896918 1
gene 1 8 66 1.41009 0 237 1.41009 1
gene 1 66 22 0.154 0 238 0.154 1
gene 1 18 68 0.234789 0 243 0.234789 1
gene 1 68 21 -0.280434 0 244 -0.280434 1
gene 1 39 32 0.537176 0 252 0.537176 1
gene 1 9 37 -0.023641 0 314 -0.023641 1
genomeend 104
genomestart 164
trait 1 0.00919992 0.158448 0.0423241 0.0879992 0.771546 0 0.495082 0.39074 
node 1 1 1 1 0
node 2 1 1 1 0
node 3 1 1 1 0
node 4 1 1 1 0
node 5 1 1 1 0
node 6 1 1 1 0
node 7 1 1 1 0
node 8 1 1 1 0
node 9 1 1 1 0
node 10 1 1 1 0
node 11 1 1 1 0
node 12 1 1 1 0
node 13 1 1 1 0
node 14 1 1 1 0
node 15 1 1 1 0
node 16 1 1 1 0
node 17 1 1 1 0
node 18 1 1 1 0
node 19 1 1 3 0
node 20 1 0 2 0
node 21 1 0 2 0
node 22 1 0 2 0
node 23 1 0 2 0
node 24 1 0 0 0
node 26 1 0 0 0
node 28 1 0 0 0
node 32 1 0 0 0
node 37 1 0 0 0
node 39 1 0 0 0
node 43 1 0 0 0
node 53 1 0 0 0
node 66 1 0 0 0
node 68 1 0 0 0
gene 1 1 20 -0.538351 0 1 -0.538351 1
gene 1 2 20 0.755222 0 2 0.755222 1
gene 1 3 20 -0.618163 0 3 -0.618163 1
gene 1 4 20 1.03556 0 4 1.03556 1
gene 1 5 20 0.215048 0 5 0.215048 1
gene 1 6 20 0.0302888 0 6 0.0302888 1
gene 1 7 20 -2.3041 0 7 -2.3041 1
gene 1 8 20 0.0122162 0 8 0.0122162 1
gene 1 9 20 0.484143 0 9 0.484143 1
gene 1 10 20 1.35201 0 10 1.35201 0
gene 1 11 20 0.38041 0 11 0.38041 1
gene 1 12 20 2.64817 0 12 2.64817 1
gene 1 13 20 0.0760541 0 13 0.0760541 1
gene 1 14 20 0.013209 0 14 0.013209 1
gene 1 15 20 0.0127635 0 15 0.0127635 1
gene 1 16 20 0.53281 0 16 0.53281 1
gene 1 17 20 0.0826154 0 17 0.0826154 1
gene 1 18 20 0.759367 0 18 0.759367 1
gene 1 19 20 0.60471 0 19 0.60471 1
gene 1 1 21 -0.376885 0 20 -0.376885 1
gene 1 2 21 1.73216 0 21 1.73216 1
gene 1 3 21 -0.512658 0 22 -0.512658 1
gene 1 4 21 0.303163 0 23 0.303163 1
gene 1 5 21 0.301746 0 24 0.301746 1
gene 1 6 21 -0.126776 0 25 -0.126776 1
gene 1 7 21 0.220123 0 26 0.220123 1
gene 1 8 21 0.30029 0 27 0.30029 1
gene 1 9 21 -0.8879 0 28 -0.8879 1
gene 1 10 21 0.00180323 0 29 0.00180323 1
gene 1 11 21 -0.144001 0 30 -0.144001 1
gene 1 12 21 1.6341 0 31 1.6341 1
gene 1 13 21 -0.694849 0 32 -0.694849 0
gene 1 14 21 0.246198 0 33 0.246198 1
gene 1 15 21 0.700418 0 34 0.700418 0
gene 1 16 21 -0.662758 0 35 -0.662758 1
gene 1 17 21 -0.0514076 0 36 -0.0514076 1
gene 1 18 21 -0.363833 0 37 -0.363833 1
gene 1 19 21 -0.359348 0 38 -0.359348 1
gene 1 1 22 -0.412298 0 39 -0.412298 1
gene 1 2 22 0.331858 0 40 0.331858 1
gene 1 3 22 0.507738 0 41 0.507738 1
gene 1 4 22 0.151489 0 42 0.151489 1
gene 1 5 22 0.655269 0 43 0.655269 1
gene 1 6 22 -1.97714 0 44 -1.97714 0
gene 1 7 22 0.746273 0 45 0.746273 1
gene 1 8 22 1.3359 0 46 1.3359 0
gene 1 9 22 0.568049 0 47 0.568049 1
gene 1 10 22 0.528626 0 48 0.528626 1
gene 1 11 22 -0.00641145 0 49 -0.00641145 1
gene 1 12 22 0.026435 0 50 0.026435 1
gene 1 13 22 -0.248656 0 51 -0.248656 1
gene 1 14 22 -0.165083 0 52 -0.165083 1
gene 1 15 22 0.17681 0 53 0.17681 1
gene 1 16 22 0.760975 0 54 0.760975 1
gene 1 17 22 0.930248 0 55 0.930248 1
gene 1 18 22 0.169213 0 56 0.169213 1
gene 1 19 22 0.521248 0 57 0.521248 1
gene 1 1 23 -0.0310172 0 58 -0.0310172 1
gene 1 2 23 -0.341654 0 59 -0.341654 1
gene 1 3 23 -0.497716 0 60 -0.497716 1
gene 1 4 23 -0.966614 0 61 -0.966614 1
gene 1 5 23 -0.26418 0 62 -0.26418 1
gene 1 6 23 0.884099 0 63 0.884099 1
gene 1 7 23 -0.00826495 0 64 -0.00826495 1
gene 1 8 23 -0.247218 0 65 -0.247218 1
gene 1 9 23 0.665015 0 66 0.665015 1
gene 1 10 23 0.791466 0 67 0.791466 1
gene 1 11 23 -2.15425 0 68 -2.15425 1
gene 1 12 23 0.775271 0 69 0.775271 1
gene 1 13 23 -0.394961 0 70 -0.394961 1
gene 1 14 23 0.00439917 0 71 0.00439917 1
gene 1 15 23 -0.488032 0 72 -0.488032 1
gene 1 16 23 0.110581 0 73 0.110581 1
gene 1 17 23 -1.55691 0 74 -1.55691 0
gene 1 18 23 -0.21682 0 75 -0.21682 1
gene 1 19 23 0.280868 0 76 0.280868 1
gene 1 8 24 -0.494105 0 77 -0.494105 1
gene 1 24 20 1.07015 0 78 1.07015 1
gene 1 15 26 0.783059 0 85 0.783059 1
gene 1 26 20 0.115879 0 86 0.115879 1
gene 1 22 20 2.44482 0 87 2.44482 1
gene 1 2 24 -0.539541 0 91 -0.539541 1
gene 1 8 28 0.640154 0 93 0.640154 1
gene 1 28 24 -0.502512 0 94 -0.502512 1
gene 1 6 24 0.412416 0 96 0.412416 1
gene 1 16 26 0.141053 0 99 0.141053 1
gene 1 13 24 -0.45126 0 100 -0.45126 1
gene 1 23 24 0.890435 0 113 0.890435 1
gene 1 13 32 -0.689731 0 116 -0.689731 1
gene 1 32 21 0.270576 0 117 0.270576 1
gene 1 10 37 1.02424 0 129 1.02424 1
gene 1 37 20 0.383015 0 130 0.383015 1
gene 1 17 39 -0.380037 0 134 -0.380037 1
gene 1 39 23 -0.722161 0 135 -0.722161 1
gene 1 15 43 -0.523467 0 150 -0.523467 1
gene 1 43 21 -0.512323 0 151 -0.512323 1
gene 1 3 43 0.070968 0 153 0.070968 1
gene 1 8 32 0.380821 0 154 0.380821 1
gene 1 2 39 0.00391577 0 178 0.00391577 1
gene 1 6 53 0.185411 0 191 0.185411 1
gene 1 53 22 0.248978 0 192 0.248978 1
gene 1 8 66 0.663323 0 237 0.663323 1
gene 1 66 22 -0.304731 0 238 -0.304731 1
gene 1 18 68 0.0149454 0 243 0.0149454 1
gene 1 68 21 -0.195566 0 244 -0.195566 1
gene 1 39 32 -0.00150523 0 252 -0.00150523 1
genomeend 164
genomestart 187
trait 1 0 0.159268 0.335938 0.0770388 0.561468 0 0.215406 0.193855 
node 1 1 1 1 0
node 2 1 1 1 0
node 3 1 1 1 0
node 4 1 1 1 0
node 5 1 1 1 0
node 6 1 1 1 0
node 7 1 1 1 0
node 8 1 1 1 0
node 9 1 1 1 0
node 10 1 1 1 0
node 11 1 1 1 0
node 12 1 1 1 0
node 13 1 1 1 0
node 14 1 1 1 0
node 15 1 1 1 0
node 16 1 1 1 0
node 17 1 1 1 0
node 18 1 1 1 0
node 19 1 1 3 0
node 20 1 0 2 0
node 21 1 0 2 0
node 22 1 0 2 0
node 23 1 0 2 0
node 24 1 0 0 0
node 26 1 0 0 0
node 28 1 0 0 0
node 32 1 0 0 0
node 37 1 0 0 0
node 39 1 0 0 0
node 43 1 0 0 0
node 53 1 0 0 0
node 62 1 0 0 0
gene 1 1 20 -0.743261 0 1 -0.743261 1
gene 1 2 20 -0.616543 0 2 -0.616543 1
gene 1 3 20 1.11117 0 3 1.11117 1
gene 1 4 20 0.0674686 0 4 0.0674686 1
gene 1 5 20 0.617515 0 5 0.617515 1
gene 1 6 20 0.76955 0 6 0.76955 1
gene 1 7 20 1.09998 0 7 1.09998 1
gene 1 8 20 -0.422204 0 8 -0.422204 0
gene 1 9 20 -0.151075 0 9 -0.151075 1
gene 1 10 20 -0.0762695 0 10 -0.0762695 1
gene 1 11 20 0.817795 0 11 0.817795 1
gene 1 12 20 2.391 0 12 2.391 1
gene 1 13 20 -0.722426 0 13 -0.722426 0
gene 1 14 20 -0.389028 0 14 -0.389028 1
gene 1 15 20 -0.0504809 0 15 -0.0504809 1
gene 1 16 20 0.384731 0 16 0.384731 1
gene 1 17 20 1.99154 0 17 1.99154 1
gene 1 18 20 0.163288 0 18 0.163288 1
gene 1 19 20 1.03435 0 19 1.03435 1
gene 1 1 21 -1.14051 0 20 -1.14051 1
gene 1 2 21 0.0431204 0 21 0.0431204 1
gene 1 3 21 0.181641 0 22 0.181641 1
gene 1 4 21 0.721277 0 23 0.721277 1
gene 1 5 21 0.245016 0 24 0.245016 1
gene 1 6 21 0.0685786 0 25 0.0685786 1
gene 1 7 21 0.895347 0 26 0.895347 1
gene 1 8 21 -0.542985 0 27 -0.542985 1
gene 1 9 21 -1.06106 0 28 -1.06106 1
gene 1 10 21 -0.0891229 0 29 -0.0891229 1
gene 1 11 21 1.96144 0 30 1.96144 1
gene 1 12 21 0.584079 0 31 0.584079 1
gene 1 13 21 0.07819 0 32 0.07819 1
gene 1 14 21 -3 0 33 -3 1
gene 1 15 21 0.322359 0 34 0.322359 0
gene 1 16 21 -0.964204 0 35 -0.964204 1
gene 1 17 21 0.690613 0 36 0.690613 1
gene 1 18 21 -0.614587 0 37 -0.614587 1
gene 1 19 21 -0.492429 0 38 -0.492429 1
gene 1 1 22 0.971776 0 39 0.971776 1
gene 1 2 22 -1.00154 0 40 -1.00154 1
gene 1 3 22 0.234972 0 41 0.234972 1
gene 1 4 22 0.0692875 0 42 0.0692875 1
gene 1 5 22 -0.0625648 0 43 -0.0625648 1
gene 1 6 22 2.0177 0 44 2.0177 0
gene 1 7 22 0.524822 0 45 0.524822 1
gene 1 8 22 -0.316515 0 46 -0.316515 1
gene 1 9 22 -0.241268 0 47 -0.241268 1
gene 1 10 22 -0.375175 0 48 -0.375175 1
gene 1 11 22 -0.828807 0 49 -0.828807 1
gene 1 12 22 -0.488971 0 50 -0.488971 1
gene 1 13 22 -0.0687474 0 51 -0.0687474 1
gene 1 14 22 -1.0479 0 52 -1.0479 1
gene 1 15 22 -0.193462 0 53 -0.193462 1
gene 1 16 22 -0.622987 0 54 -0.622987 1
gene 1 17 22 1.05244 0 55 1.05244 1
gene 1 18 22 -0.357411 0 56 -0.357411 1
gene 1 19 22 1.76043 0 57 1.76043 1
gene 1 1 23 0.733098 0 58 0.733098 1
gene 1 2 23 0.322657 0 59 0.322657 1
gene 1 3 23 -0.899033 0 60 -0.899033 1
gene 1 4 23 0.0430172 0 61 0.0430172 1
gene 1 5 23 -0.605808 0 62 -0.605808 1
gene 1 6 23 -0.709076 0 63 -0.709076 1
gene 1 7 23 -0.402837 0 64 -0.402837 1
gene 1 8 23 -0.64449 0 65 -0.64449 1
gene 1 9 23 -0.525737 0 66 -0.525737 1
gene 1 10 23 -0.0556638 0 67 -0.0556638 1
gene 1 11 23 0.463034 0 68 0.463034 1
gene 1 12 23 1.24024 0 69 1.24024 1
gene 1 13 23 -0.768003 0 70 -0.768003 1
gene 1 14 23 0.53139 0 71 0.53139 1
gene 1 15 23 0.744218 0 72 0.744218 1
gene 1 16 23 -1.1622 0 73 -1.1622 1
gene 1 17 23 0.811076 0 74 0.811076 0
gene 1 18 23 -0.591244 0 75 -0.591244 1
gene 1 19 23 0.478822 0 76 0.478822 1
gene 1 8 24 0.310923 0 77 0.310923 1
gene 1 24 20 0.562997 0 78 0.562997 1
gene 1 15 26 0.580434 0 85 0.580434 1
gene 1 26 20 -0.173246 0 86 -0.173246 1
gene 1 22 20 2.1478 0 87 2.1478 1
gene 1 2 24 1.21372 0 91 1.21372 1
gene 1 8 28 0.278798 0 93 0.278798 1
gene 1 28 24 0.0422854 0 94 0.0422854 1
gene 1 6 24 0.128583 0 96 0.128583 1
gene 1 16 26 -0.240689 0 99 -0.240689 1
gene 1 13 24 -0.319507 0 100 -0.319507 1
gene 1 23 24 -0.144317 0 113 -0.144317 1
gene 1 13 32 -0.0470482 0 116 -0.0470482 1
gene 1 32 21 0.0409687 0 117 0.0409687 1
gene 1 10 37 0.058224 0 129 0.058224 1
gene 1 37 20 0.797456 0 130 0.797456 1
gene 1 17 39 0.697276 0 134 0.697276 1
gene 1 39 23 -0.487244 0 135 -0.487244 1
gene 1 15 43 0.267307 0 150 0.267307 1
gene 1 43 21 -0.286728 0 151 -0.286728 1
gene 1 3 43 0.425872 0 153 0.425872 1
gene 1 8 32 -0.217623 0 154 -0.217623 1
gene 1 2 39 -0.264616 0 178 -0.264616 1
gene 1 6 53 -0.0273327 0 191 -0.0273327 1
gene 1 53 22 0.301959 0 192 0.301959 1
gene 1 13 62 0.255346 0 225 0.255346 1
gene 1 62 20 0.414258 0 226 0.414258 1
gene 1 26 24 0.583988 0 284 0.583988 1
genomeend 187
genomestart 191
trait 1 0 0.151842 0.30481 0.0699005 0.561468 0 0.195447 0.192663 
node 1 1 1 1 0
node 2 1 1 1 0
node 3 1 1 1 0
node 4 1 1 1 0
node 5 1 1 1 0
node 6 1 1 1 0
node 7 1 1 1 0
node 8 1 1 1 0
node 9 1 1 1 0
node 10 1 1 1 0
node 11 1 1 1 0
node 12 1 1 1 0
node 13 1 1 1 0
node 14 1 1 1 0
node 15 1 1 1 0
node 16 1 1 1 0
node 17 1 1 1 0
node 18 1 1 1 0
node 19 1 1 3 0
node 20 1 0 2 0
node 21 1 0 2 0
node 22 1 0 2 0
node 23 1 0 2 0
node 24 1 0 0 0
node 26 1 0 0 0
node 28 1 0 0 0
node 32 1 0 0 0
node 37 1 0 0 0
node 39 1 0 0 0
node 43 1 0 0 0
node 53 1 0 0 0
node 62 1 0 0 0
gene 1 1 20 -1.00649 0 1 -1.00649 1
gene 1 2 20 -0.305587 0 2 -0.305587 1
gene 1 3 20 -0.0744787 0 3 -0.0744787 1
gene 1 4 20 -0.212114 0 4 -0.212114 1
gene 1 5 20 0.133876 0 5 0.133876 1
gene 1 6 20 1.43627 0 6 1.43627 1
gene 1 7 20 1.58295 0 7 1.58295 1
gene 1 8 20 0.323819 0 8 0.323819 0
gene 1 9 20 0.391675 0 9 0.391675 1
gene 1 10 20 0.908881 0 10 0.908881 1
gene 1 11 20 0.608304 0 11 0.608304 1
gene 1 12 20 0.359001 0 12 0.359001 1
gene 1 13 20 -0.587995 0 13 -0.587995 1
gene 1 14 20 -0.718026 0 14 -0.718026 1
gene 1 15 20 -0.545174 0 15 -0.545174 1
gene 1 16 20 1.25815 0 16 1.25815 1
gene 1 17 20 1.26002 0 17 1.26002 1
gene 1 18 20 1.31387 0 18 1.31387 1
gene 1 19 20 1.33049 0 19 1.33049 1
gene 1 1 21 0.312732 0 20 0.312732 1
gene 1 2 21 0.409727 0 21 0.409727 1
gene 1 3 21 -0.270484 0 22 -0.270484 1
gene 1 4 21 0.0676727 0 23 0.0676727 1
gene 1 5 21 0.357501 0 24 0.357501 1
gene 1 6 21 -0.00620018 0 25 -0.00620018 1
gene 1 7 21 -0.16139 0 26 -0.16139 1
gene 1 8 21 0.0958455 0 27 0.0958455 1
gene 1 9 21 -1.18039 0 28 -1.18039 1
gene 1 10 21 -0.124527 0 29 -0.124527 1
gene 1 11 21 1.16551 0 30 1.16551 1
gene 1 12 21 0.598562 0 31 0.598562 1
gene 1 13 21 0.267991 0 32 0.267991 1
gene 1 14 21 -3 0 33 -3 1
gene 1 15 21 0.0486404 0 34 0.0486404 0
gene 1 16 21 -0.404408 0 35 -0.404408 1
gene 1 17 21 -0.193205 0 36 -0.193205 1
gene 1 18 21 -1.06793 0 37 -1.06793 1
gene 1 19 21 -2.02088 0 38 -2.02088 1
gene 1 1 22 0.711125 0 39 0.711125 1
gene 1 2 22 -0.903512 0 40 -0.903512 1
gene 1 3 22 -0.13004 0 41 -0.13004 1
gene 1 4 22 0.449621 0 42 0.449621 1
gene 1 5 22 0.133827 0 43 0.133827 1
gene 1 6 22 0.28498 0 44 0.28498 1
gene 1 7 22 0.165944 0 45 0.165944 1
gene 1 8 22 -0.429048 0 46 -0.429048 1
gene 1 9 22 0.132411 0 47 0.132411 1
gene 1 10 22 0.104115 0 48 0.104115 1
gene 1 11 22 -0.269349 0 49 -0.269349 1
gene 1 12 22 -1.08873 0 50 -1.08873 1
gene 1 13 22 -0.309069 0 51 -0.309069 1
gene 1 14 22 -0.378349 0 52 -0.378349 1
gene 1 15 22 0.0323848 0 53 0.0323848 1
gene 1 16 22 0.104084 0 54 0.104084 1
gene 1 17 22 2.0499 0 55 2.0499 1
gene 1 18 22 0.0370121 0 56 0.0370121 1
gene 1 19 22 1.08648 0 57 1.08648 1
gene 1 1 23 0.15138 0 58 0.15138 1
gene 1 2 23 -0.103826 0 59 -0.103826 1
gene 1 3 23 -1.38174 0 60 -1.38174 1
gene 1 4 23 0.430617 0 61 0.430617 1
gene 1 5 23 -0.665991 0 62 -0.665991 1
gene 1 6 23 -0.530212 0 63 -0.530212 1
gene 1 7 23 0.224111 0 64 0.224111 1
gene 1 8 23 -0.954544 0 65 -0.954544 1
gene 1 9 23 -0.350813 0 66 -0.350813 1
gene 1 10 23 0.592925 0 67 0.592925 1
gene 1 11 23 0.496566 0 68 0.496566 1
gene 1 12 23 1.27987 0 69 1.27987 1
gene 1 13 23 -1.56675 0 70 -1.56675 1
gene 1 14 23 -0.440697 0 71 -0.440697 1
gene 1 15 23 -0.00687498 0 72 -0.00687498 1
gene 1 16 23 -1.53256 0 73 -1.53256 1
gene 1 17 23 -0.110078 0 74 -0.110078 1
gene 1 18 23 0.904342 0 75 0.904342 1
gene 1 19 23 0.143065 0 76 0.143065 1
gene 1 8 24 -0.30483 0 77 -0.30483 1
gene 1 24 20 0.954367 0 78 0.954367 1
gene 1 15 26 -0.149723 0 85 -0.149723 1
gene 1 26 20 0.923259 0 86 0.923259 1
gene 1 22 20 0.386142 0 87 0.386142 1
gene 1 2 24 0.113628 0 91 0.113628 1
gene 1 8 28 0.879119 0 93 0.879119 1
gene 1 28 24 0.291076 0 94 0.291076 1
gene 1 6 24 0.366509 0 96 0.366509 1
gene 1 16 26 0.863747 0 99 0.863747 1
gene 1 13 24 -0.559994 0 100 -0.559994 1
gene 1 23 24 -0.396718 0 113 -0.396718 1
gene 1 13 32 -0.215954 0 116 -0.215954 1
gene 1 32 21 -0.00502134 0 117 -0.00502134 1
gene 1 10 37 -0.943109 0 129 -0.943109 1
gene 1 37 20 -0.364936 0 130 -0.364936 1
gene 1 17 39 0.736495 0 134 0.736495 1
gene 1 39 23 -0.356677 0 135 -0.356677 1
gene 1 15 43 -0.327419 0 150 -0.327419 1
gene 1 43 21 -0.390428 0 151 -0.390428 1
gene 1 3 43 -0.115061 0 153 -0.115061 1
gene 1 8 32 -0.655378 0 154 -0.655378 1
gene 1 2 39 0.161369 0 178 0.161369 1
gene 1 6 53 -0.577002 0 191 -0.577002 1
gene 1 53 22 -0.282885 0 192 -0.282885 1
gene 1 13 62 -0.0630903 0 225 -0.0630903 1
gene 1 62 20 0.123728 0 226 0.123728 1
gene 1 26 24 0.40724 0 284 0.40724 1
genomeend 191
genomestart 250
trait 1 0 0.156298 0.323487 0.0741835 0.561468 0 0.207423 0.193378 
node 1 1 1 1 0
node 2 1 1 1 0
node 3 1 1 1 0
node 4 1 1 1 0
node 5 1 1 1 0
node 6 1 1 1 0
node 7 1 1 1 0
node 8 1 1 1 0
node 9 1 1 1 0
node 10 1 1 1 0
node 11 1 1 1 0
node 12 1 1 1 0
node 13 1 1 1 0
node 14 1 1 1 0
node 15 1 1 1 0
node 16 1 1 1 0
node 17 1 1 1 0
node 18 1 1 1 0
node 19 1 1 3 0
node 20 1 0 2 0
node 21 1 0 2 0
node 22 1 0 2 0
node 23 1 0 2 0
node 24 1 0 0 0
node 26 1 0 0 0
node 28 1 0 0 0
node 32 1 0 0 0
node 37 1 0 0 0
node 39 1 0 0 0
node 43 1 0 0 0
node 53 1 0 0 0
node 62 1 0 0 0
gene 1 1 20 -0.158914 0 1 -0.158914 1
gene 1 2 20 -0.346598 0 2 -0.346598 1
gene 1 3 20 1.84755 0 3 1.84755 1
gene 1 4 20 0.713309 0 4 0.713309 1
gene 1 5 20 0.323386 0 5 0.323386 1
gene 1 6 20 0.902354 0 6 0.902354 1
gene 1 7 20 0.300326 0 7 0.300326 1
gene 1 8 20 0.157136 0 8 0.157136 1
gene 1 9 20 0.849104 0 9 0.849104 1
gene 1 10 20 0.26754 0 10 0.26754 1
gene 1 11 20 0.359595 0 11 0.359595 1
gene 1 12 20 2.02423 0 12 2.02423 1
gene 1 13 20 -0.844465 0 13 -0.844465 0
gene 1 14 20 -1.04658 0 14 -1.04658 1
gene 1 15 20 0.805459 0 15 0.805459 1
gene 1 16 20 0.0493902 0 16 0.0493902 1
gene 1 17 20 1.62636 0 17 1.62636 1
gene 1 18 20 1.14537 0 18 1.14537 1
gene 1 19 20 0.961329 0 19 0.961329 1
gene 1 1 21 -0.353961 0 20 -0.353961 1
gene 1 2 21 -0.520346 0 21 -0.520346 1
gene 1 3 21 -0.843491 0 22 -0.843491 1
gene 1 4 21 0.522331 0 23 0.522331 1
gene 1 5 21 0.145953 0 24 0.145953 1
gene 1 6 21 0.294841 0 25 0.294841 1
gene 1 7 21 -0.543005 0 26 -0.543005 1
gene 1 8 21 0.0503094 0 27 0.0503094 1
gene 1 9 21 -0.268121 0 28 -0.268121 1
gene 1 10 21 -0.0980407 0 29 -0.0980407 1
gene 1 11 21 0.451797 0 30 0.451797 1
gene 1 12 21 0.380461 0 31 0.380461 1
gene 1 13 21 -0.54022 0 32 -0.54022 0
gene 1 14 21 -0.905341 0 33 -0.905341 1
gene 1 15 21 0.288169 0 34 0.288169 1
gene 1 16 21 -1.49455 0 35 -1.49455 1
gene 1 17 21 0.0698613 0 36 0.0698613 1
gene 1 18 21 -0.425134 0 37 -0.425134 1
gene 1 19 21 0.275455 0 38 0.275455 1
gene 1 1 22 1.29355 0 39 1.29355 1
gene 1 2 22 -0.783775 0 40 -0.783775 1
gene 1 3 22 -0.191811 0 41 -0.191811 1
gene 1 4 22 -0.186625 0 42 -0.186625 1
gene 1 5 22 -0.410089 0 43 -0.410089 1
gene 1 6 22 1.62334 0 44 1.62334 0
gene 1 7 22 0.524868 0 45 0.524868 1
gene 1 8 22 -1.00882 0 46 -1.00882 1
gene 1 9 22 0.567089 0 47 0.567089 1
gene 1 10 22 -0.628615 0 48 -0.628615 1
gene 1 11 22 -0.977314 0 49 -0.977314 1
gene 1 12 22 -0.33292 0 50 -0.33292 1
gene 1 13 22 -0.146418 0 51 -0.146418 1
gene 1 14 22 -1.12931 0 52 -1.12931 1
gene 1 15 22 -1.09574 0 53 -1.09574 1
gene 1 16 22 -0.377247 0 54 -0.377247 1
gene 1 17 22 0.801695 0 55 0.801695 1
gene 1 18 22 -0.118882 0 56 -0.118882 1
gene 1 19 22 1.13829 0 57 1.13829 1
gene 1 1 23 0.552263 0 58 0.552263 1
gene 1 2 23 -0.0179692 0 59 -0.0179692 1
gene 1 3 23 -0.581054 0 60 -0.581054 1
gene 1 4 23 0.37918 0 61 0.37918 1
gene 1 5 23 0.0990785 0 62 0.0990785 1
gene 1 6 23 0.500009 0 63 0.500009 1
gene 1 7 23 -0.130772 0 64 -0.130772 1
gene 1 8 23 -1.02012 0 65 -1.02012 1
gene 1 9 23 0.167517 0 66 0.167517 1
gene 1 10 23 0.097331 0 67 0.097331 1
gene 1 11 23 0.00818879 0 68 0.00818879 1
gene 1 12 23 1.06768 0 69 1.06768 1
gene 1 13 23 -0.631155 0 70 -0.631155 1
gene 1 14 23 0.508879 0 71 0.508879 1
gene 1 15 23 1.00809 0 72 1.00809 1
gene 1 16 23 -0.431993 0 73 -0.431993 1
gene 1 17 23 -0.38296 0 74 -0.38296 0
gene 1 18 23 -0.575056 0 75 -0.575056 1
gene 1 19 23 0.0883163 0 76 0.0883163 1
gene 1 8 24 0.262243 0 77 0.262243 1
gene 1 24 20 0.497721 0 78 0.497721 1
gene 1 15 26 0.528096 0 85 0.528096 1
gene 1 26 20 1.12774 0 86 1.12774 1
gene 1 22 20 2.59979 0 87 2.59979 1
gene 1 2 24 0.803048 0 91 0.803048 1
gene 1 8 28 -0.0956226 0 93 -0.0956226 1
gene 1 28 24 0.28132 0 94 0.28132 1
gene 1 6 24 0.261428 0 96 0.261428 1
gene 1 16 26 0.383949 0 99 0.383949 1
gene 1 13 24 -0.671472 0 100 -0.671472 1
gene 1 23 24 -0.0633506 0 113 -0.0633506 1
gene 1 13 32 -0.0561469 0 116 -0.0561469 1
gene 1 32 21 -0.0532177 0 117 -0.0532177 1
gene 1 10 37 -0.106082 0 129 -0.106082 1
gene 1 37 20 1.03865 0 130 1.03865 1
gene 1 17 39 0.606683 0 134 0.606683 1
gene 1 39 23 -0.80443 0 135 -0.80443 1
gene 1 15 43 -0.414987 0 150 -0.414987 1
gene 1 43 21 -0.536072 0 151 -0.536072 1
gene 1 3 43 -0.36004 0 153 -0.36004 1
gene 1 8 32 0.122894 0 154 0.122894 1
gene 1 2 39 0.15233 0 178 0.15233 1
gene 1 6 53 -0.16384 0 191 -0.16384 1
gene 1 53 22 -0.340199 0 192 -0.340199 1
gene 1 13 62 0.244866 0 225 0.244866 1
gene 1 62 20 0.24549 0 226 0.24549 1
gene 1 26 24 0.29554 0 284 0.29554 1
genomeend 250
genomestart 252
trait 1 0 1 1 1 1 0 0 0 
node 1 1 1 1 0
node 2 1 1 1 0
node 3 1 1 1 0
node 4 1 1 1 0
node 5 1 1 1 0
node 6 1 1 1 0
node 7 1 1 1 0
node 8 1 1 1 0
node 9 1 1 1 0
node 10 1 1 1 0
node 11 1 1 1 0
node 12 1 1 1 0
node 13 1 1 1 0
node 14 1 1 1 0
node 15 1 1 1 0
node 16 1 1 1 0
node 17 1 1 1 0
node 18 1 1 1 0
node 19 1 1 3 0
node 20 1 0 2 0
node 21 1 0 2 0
node 22 1 0 2 0
node 23 1 0 2 0
node 24 1 0 0 0
node 26 1 0 0 0
node 28 1 0 0 0
node 32 1 0 0 0
node 37 1 0 0 0
node 39 1 0 0 0
node 43 1 0 0 0
node 53 1 0 0 0
node 61 1 0 0 0
node 66 1 0 0 0
gene 1 1 20 -1.26556 0 1 -1.26556 1
gene 1 2 20 0.10663 0 2 0.10663 1
gene 1 3 20 0.185132 0 3 0.185132 1
gene 1 4 20 0.361677 0 4 0.361677 1
gene 1 5 20 0.564769 0 5 0.564769 1
gene 1 6 20 1.4898 0 6 1.4898 1
gene 1 7 20 -0.0720763 0 7 -0.0720763 1
gene 1 8 20 -0.0712604 0 8 -0.0712604 1
gene 1 9 20 0.760848 0 9 0.760848 1
gene 1 10 20 0.883295 0 10 0.883295 1
gene 1 11 20 -1.28616 0 11 -1.28616 1
gene 1 12 20 0.196201 0 12 0.196201 1
gene 1 13 20 -0.0822414 0 13 -0.0822414 1
gene 1 14 20 0.139669 0 14 0.139669 1
gene 1 15 20 0.291195 0 15 0.291195 1
gene 1 16 20 -0.844714 0 16 -0.844714 1
gene 1 17 20 0.395931 0 17 0.395931 1
gene 1 18 20 -0.62234 0 18 -0.62234 1
gene 1 19 20 0.675529 0 19 0.675529 1
gene 1 1 21 0.860445 0 20 0.860445 1
gene 1 2 21 0.220645 0 21 0.220645 1
gene 1 3 21 -0.744605 0 22 -0.744605 1
gene 1 4 21 -0.0873094 0 23 -0.0873094 1
gene 1 5 21 0.70808 0 24 0.70808 1
gene 1 6 21 -0.240799 0 25 -0.240799 1
gene 1 7 21 -0.0210666 0 26 -0.0210666 1
gene 1 8 21 0.22624 0 27 0.22624 1
gene 1 9 21 -0.604664 0 28 -0.604664 1
gene 1 10 21 -0.311671 0 29 -0.311671 1
gene 1 11 21 -0.68478 0 30 -0.68478 1
gene 1 12 21 0.263182 0 31 0.263182 1
gene 1 13 21 -1.67287 0 32 -1.67287 1
gene 1 14 21 -0.950998 0 33 -0.950998 1
gene 1 15 21 -0.245798 0 34 -0.245798 0
gene 1 16 21 0.739692 0 35 0.739692 1
gene 1 17 21 0.417142 0 36 0.417142 1
gene 1 18 21 -0.684878 0 37 -0.684878 1
gene 1 19 21 0.450974 0 38 0.450974 1
gene 1 1 22 -1.60001 0 39 -1.60001 1
gene 1 2 22 0.938675 0 40 0.938675 1
gene 1 3 22 -0.0655203 0 41 -0.0655203 1
gene 1 4 22 -0.0550846 0 42 -0.0550846 1
gene 1 5 22 -0.21237 0 43 -0.21237 1
gene 1 6 22 -0.654703 0 44 -0.654703 1
gene 1 7 22 -0.614399 0 45 -0.614399 1
gene 1 8 22 1.0404 0 46 1.0404 1
gene 1 9 22 -1.32855 0 47 -1.32855 1
gene 1 10 22 -0.359128 0 48 -0.359128 1
gene 1 11 22 0.485954 0 49 0.485954 1
gene 1 12 22 0.646426 0 50 0.646426 1
gene 1 13 22 0.940409 0 51 0.940409 1
gene 1 14 22 -0.108234 0 52 -0.108234 1
gene 1 15 22 0.593348 0 53 0.593348 1
gene 1 16 22 0.572579 0 54 0.572579 1
gene 1 17 22 0.076548 0 55 0.076548 1
gene 1 18 22 -0.157203 0 56 -0.157203 1
gene 1 19 22 -0.212369 0 57 -0.212369 1
gene 1 1 23 0.626844 0 58 0.626844 1
gene 1 2 23 -1.36384 0 59 -1.36384 1
gene 1 3 23 -0.070325 0 60 -0.070325 1
gene 1 4 23 0.134113 0 61 0.134113 1
gene 1 5 23 0.468211 0 62 0.468211 1
gene 1 6 23 1.27442 0 63 1.27442 1
gene 1 7 23 0.659793 0 64 0.659793 1
gene 1 8 23 -0.277718 0 65 -0.277718 1
gene 1 9 23 0.580636 0 66 0.580636 1
gene 1 10 23 0.964245 0 67 0.964245 1
gene 1 11 23 -2.99557 0 68 -2.99557 1
gene 1 12 23 0.014815 0 69 0.014815 1
gene 1 13 23 0.380882 0 70 0.380882 1
gene 1 14 23 -0.279359 0 71 -0.279359 1
gene 1 15 23 0.467868 0 72 0.467868 1
gene 1 16 23 -0.25069 0 73 -0.25069 1
gene 1 17 23 -1.24318 0 74 -1.24318 0
gene 1 18 23 1.64355 0 75 1.64355 1
gene 1 19 23 -1.81275 0 76 -1.81275 1
gene 1 8 24 1.16442 0 77 1.16442 1
gene 1 24 20 0.884618 0 78 0.884618 1
gene 1 15 26 -0.67528 0 85 -0.67528 1
gene 1 26 20 0.575239 0 86 0.575239 1
gene 1 22 20 2.72994 0 87 2.72994 1
gene 1 2 24 -0.906624 0 91 -0.906624 1
gene 1 8 28 1.30418 0 93 1.30418 1
gene 1 28 24 -0.428558 0 94 -0.428558 1
gene 1 6 24 0.223964 0 96 0.223964 1
gene 1 16 26 0.727197 0 99 0.727197 1
gene 1 13 24 0.262641 0 100 0.262641 1
gene 1 23 24 -0.131796 0 113 -0.131796 1
gene 1 13 32 0.251125 0 116 0.251125 1
gene 1 32 21 -0.355112 0 117 -0.355112 1
gene 1 10 37 0.329186 0 129 0.329186 1
gene 1 37 20 1.55913 0 130 1.55913 1
gene 1 17 39 0.195935 0 134 0.195935 1
gene 1 39 23 -0.638239 0 135 -0.638239 1
gene 1 15 43 -0.139908 0 150 -0.139908 1
gene 1 43 21 0.570507 0 151 0.570507 1
gene 1 3 43 -0.637394 0 153 -0.637394 1
gene 1 8 32 0.488423 0 154 0.488423 1
gene 1 2 39 0.829062 0 178 0.829062 1
gene 1 6 53 -0.363571 0 191 -0.363571 1
gene 1 53 22 0.0479381 0 192 0.0479381 1
gene 1 2 61 1.02403 0 221 1.02403 1
gene 1 61 24 -0.330068 0 222 -0.330068 1
gene 1 8 66 -0.303729 0 237 -0.303729 1
gene 1 66 22 0.943338 0 238 0.943338 1
gene 1 28 23 0.186663 0 253 0.186663 1
genomeend 252
genomestart 271
trait 1 0 0.156669 0.325043 0.0745404 0.561468 0 0.20842 0.193438 
node 1 1 1 1 0
node 2 1 1 1 0
node 3 1 1 1 0
node 4 1 1 1 0
node 5 1 1 1 0
node 6 1 1 1 0
node 7 1 1 1 0
node 8 1 1 1 0
node 9 1 1 1 0
node 10 1 1 1 0
node 11 1 1 1 0
node 12 1 1 1 0
node 13 1 1 1 0
node 14 1 1 1 0
node 15 1 1 1 0
node 16 1 1 1 0
node 17 1 1 1 0
node 18 1 1 1 0
node 19 1 1 3 0
node 20 1 0 2 0
node 21 1 0 2 0
node 22 1 0 2 0
node 23 1 0 2 0
node 24 1 0 0 0
node 26 1 0 0 0
node 28 1 0 0 0
node 32 1 0 0 0
node 37 1 0 0 0
node 39 1 0 0 0
node 43 1 0 0 0
node 53 1 0 0 0
node 62 1 0 0 0
gene 1 1 20 -0.743261 0 1 -0.743261 1
gene 1 2 20 -0.126512 0 2 -0.126512 1
gene 1 3 20 1.11117 0 3 1.11117 1
gene 1 4 20 0.0674686 0 4 0.0674686 1
gene 1 5 20 0.617515 0 5 0.617515 1
gene 1 6 20 0.898326 0 6 0.898326 1
gene 1 7 20 1.09968 0 7 1.09968 1
gene 1 8 20 -0.422204 0 8 -0.422204 0
gene 1 9 20 0.251854 0 9 0.251854 1
gene 1 10 20 0.0491144 0 10 0.0491144 1
gene 1 11 20 1.04806 0 11 1.04806 1
gene 1 12 20 1.31743 0 12 1.31743 1
gene 1 13 20 -0.774113 0 13 -0.774113 0
gene 1 14 20 -0.945219 0 14 -0.945219 1
gene 1 15 20 -0.502529 0 15 -0.502529 1
gene 1 16 20 1.0862 0 16 1.0862 1
gene 1 17 20 1.69305 0 17 1.69305 1
gene 1 18 20 0.163288 0 18 0.163288 1
gene 1 19 20 1.62827 0 19 1.62827 1
gene 1 1 21 -0.318886 0 20 -0.318886 1
gene 1 2 21 0.174967 0 21 0.174967 1
gene 1 3 21 -0.468346 0 22 -0.468346 1
gene 1 4 21 0.1192 0 23 0.1192 1
gene 1 5 21 0.588427 0 24 0.588427 1
gene 1 6 21 0.159516 0 25 0.159516 1
gene 1 7 21 0.424335 0 26 0.424335 1
gene 1 8 21 -0.582345 0 27 -0.582345 1
gene 1 9 21 -1.06106 0 28 -1.06106 1
gene 1 10 21 -0.140297 0 29 -0.140297 1
gene 1 11 21 1.96144 0 30 1.96144 1
gene 1 12 21 0.584079 0 31 0.584079 1
gene 1 13 21 0.541291 0 32 0.541291 0
gene 1 14 21 -3 0 33 -3 1
gene 1 15 21 -0.153193 0 34 -0.153193 0
gene 1 16 21 -1.64067 0 35 -1.64067 1
gene 1 17 21 0.424047 0 36 0.424047 1
gene 1 18 21 -0.529702 0 37 -0.529702 1
gene 1 19 21 -0.833045 0 38 -0.833045 1
gene 1 1 22 1.12978 0 39 1.12978 1
gene 1 2 22 -1.14067 0 40 -1.14067 1
gene 1 3 22 -0.0224091 0 41 -0.0224091 1
gene 1 4 22 0.000441575 0 42 0.000441575 1
gene 1 5 22 -0.0625648 0 43 -0.0625648 1
gene 1 6 22 2.089 0 44 2.089 0
gene 1 7 22 0.524822 0 45 0.524822 1
gene 1 8 22 -0.593529 0 46 -0.593529 1
gene 1 9 22 -0.433818 0 47 -0.433818 1
gene 1 10 22 -0.813193 0 48 -0.813193 1
gene 1 11 22 -0.647513 0 49 -0.647513 1
gene 1 12 22 -0.922792 0 50 -0.922792 1
gene 1 13 22 0.1262 0 51 0.1262 1
gene 1 14 22 -0.699965 0 52 -0.699965 1
gene 1 15 22 -0.448672 0 53 -0.448672 1
gene 1 16 22 0.012264 0 54 0.012264 1
gene 1 17 22 1.89226 0 55 1.89226 1
gene 1 18 22 0.172662 0 56 0.172662 1
gene 1 19 22 1.43844 0 57 1.43844 1
gene 1 1 23 0.733098 0 58 0.733098 1
gene 1 2 23 0.322657 0 59 0.322657 1
gene 1 3 23 -0.807425 0 60 -0.807425 1
gene 1 4 23 0.146934 0 61 0.146934 1
gene 1 5 23 -0.254427 0 62 -0.254427 1
gene 1 6 23 -0.933615 0 63 -0.933615 1
gene 1 7 23 0.445878 0 64 0.445878 1
gene 1 8 23 -0.91164 0 65 -0.91164 1
gene 1 9 23 -0.851736 0 66 -0.851736 1
gene 1 10 23 -0.0556638 0 67 -0.0556638 1
gene 1 11 23 0.0735978 0 68 0.0735978 1
gene 1 12 23 1.69134 0 69 1.69134 1
gene 1 13 23 -1.28908 0 70 -1.28908 1
gene 1 14 23 0.233908 0 71 0.233908 1
gene 1 15 23 0.737332 0 72 0.737332 1
gene 1 16 23 -1.75751 0 73 -1.75751 1
gene 1 17 23 0.403519 0 74 0.403519 0
gene 1 18 23 0.599856 0 75 0.599856 1
gene 1 19 23 0.624569 0 76 0.624569 1
gene 1 8 24 -0.503775 0 77 -0.503775 1
gene 1 24 20 0.371375 0 78 0.371375 1
gene 1 15 26 0.1014 0 85 0.1014 1
gene 1 26 20 0.28998 0 86 0.28998 1
gene 1 22 20 1.66711 0 87 1.66711 1
gene 1 2 24 0.556888 0 91 0.556888 1
gene 1 8 28 1.05125 0 93 1.05125 1
gene 1 28 24 0.513388 0 94 0.513388 1
gene 1 6 24 0.247546 0 96 0.247546 1
gene 1 16 26 0.377898 0 99 0.377898 1
gene 1 13 24 -0.43975 0 100 -0.43975 1
gene 1 23 24 -0.144317 0 113 -0.144317 1
gene 1 13 32 -0.266677 0 116 -0.266677 1
gene 1 32 21 -0.379483 0 117 -0.379483 1
gene 1 10 37 -0.774197 0 129 -0.774197 1
gene 1 37 20 0.474242 0 130 0.474242 1
gene 1 17 39 0.697276 0 134 0.697276 1
gene 1 39 23 -0.886839 0 135 -0.886839 1
gene 1 15 43 0.426566 0 150 0.426566 1
gene 1 43 21 -0.338578 0 151 -0.338578 1
gene 1 3 43 -0.841853 0 153 -0.841853 1
gene 1 8 32 -0.542573 0 154 -0.542573 1
gene 1 2 39 0.414947 0 178 0.414947 1
gene 1 6 53 -0.0273327 0 191 -0.0273327 1
gene 1 53 22 0.301959 0 192 0.301959 1
gene 1 13 62 0.0961279 0 225 0.0961279 1
gene 1 62 20 0.414258 0 226 0.414258 1
gene 1 26 24 0.426481 0 284 0.426481 1
gene 1 1 39 -0.338495 0 328 -0.338495 1
gene 1 22 22 0.467785 1 335 0.467785 1
genomeend 271
genomestart 272
trait 1 0.00722851 0.141867 0.0357038 0.0536037 0.770723 0 0.472781 0.422055 
node 1 1 1 1 0
node 2 1 1 1 0
node 3 1 1 1 0
node 4 1 1 1 0
node 5 1 1 1 0
node 6 1 1 1 0
node 7 1 1 1 0
node 8 1 1 1 0
node 9 1 1 1 0
node 10 1 1 1 0
node 11 1 1 1 0
node 12 1 1 1 0
node 13 1 1 1 0
node 14 1 1 1 0
node 15 1 1 1 0
node 16 1 1 1 0
node 17 1 1 1 0
node 18 1 1 1 0
node 19 1 1 3 0
node 20 1 0 2 0
node 21 1 0 2 0
node 22 1 0 2 0
node 23 1 0 2 0
node 24 1 0 0 0
node 26 1 0 0 0
node 28 1 0 0 0
node 32 1 0 0 0
node 37 1 0 0 0
node 39 1 0 0 0
node 43 1 0 0 0
node 53 1 0 0 0
node 66 1 0 0 0
node 68 1 0 0 0
node 94 1 0 0 0
gene 1 1 20 -0.431927 0 1 -0.431927 1
gene 1 2 20 0.555876 0 2 0.555876 1
gene 1 3 20 0.0501917 0 3 0.0501917 1
gene 1 4 20 0.813816 0 4 0.813816 1
gene 1 5 20 0.192424 0 5 0.192424 1
gene 1 6 20 0.000578675 0 6 0.000578675 1
gene 1 7 20 -2.18906 0 7 -2.18906 1
gene 1 8 20 0.00393435 0 8 0.00393435 1
gene 1 9 20 -0.117088 0 9 -0.117088 1
gene 1 10 20 0.975062 0 10 0.975062 0
gene 1 11 20 -0.0136415 0 11 -0.0136415 1
gene 1 12 20 2.05395 0 12 2.05395 1
gene 1 13 20 0.156801 0 13 0.156801 1
gene 1 14 20 -0.146464 0 14 -0.146464 1
gene 1 15 20 -0.0769413 0 15 -0.0769413 1
gene 1 16 20 0.326054 0 16 0.326054 1
gene 1 17 20 0.291709 0 17 0.291709 1
gene 1 18 20 0.740773 0 18 0.740773 1
gene 1 19 20 0.638278 0 19 0.638278 1
gene 1 1 21 -0.75799 0 20 -0.75799 1
gene 1 2 21 0.933258 0 21 0.933258 1
gene 1 3 21 -0.478645 0 22 -0.478645 1
gene 1 4 21 0.451963 0 23 0.451963 1
gene 1 5 21 0.104109 0 24 0.104109 1
gene 1 6 21 -0.146103 0 25 -0.146103 1
gene 1 7 21 0.263288 0 26 0.263288 1
gene 1 8 21 0.0514335 0 27 0.0514335 1
gene 1 9 21 -0.752593 0 28 -0.752593 1
gene 1 10 21 -1.03372 0 29 -1.03372 1
gene 1 11 21 0.274835 0 30 0.274835 1
gene 1 12 21 1.08808 0 31 1.08808 1
gene 1 13 21 -0.429077 0 32 -0.429077 1
gene 1 14 21 0.452699 0 33 0.452699 0
gene 1 15 21 0.358707 0 34 0.358707 0
gene 1 16 21 -0.637471 0 35 -0.637471 1
gene 1 17 21 0.133347 0 36 0.133347 1
gene 1 18 21 -0.161359 0 37 -0.161359 1
gene 1 19 21 -0.599562 0 38 -0.599562 1
gene 1 1 22 -0.208522 0 39 -0.208522 1
gene 1 2 22 0.312057 0 40 0.312057 1
gene 1 3 22 0.425999 0 41 0.425999 1
gene 1 4 22 -0.283353 0 42 -0.283353 1
gene 1 5 22 0.528143 0 43 0.528143 1
gene 1 6 22 -1.01625 0 44 -1.01625 0
gene 1 7 22 0.82442 0 45 0.82442 1
gene 1 8 22 0.634116 0 46 0.634116 1
gene 1 9 22 0.446743 0 47 0.446743 1
gene 1 10 22 0.571952 0 48 0.571952 1
gene 1 11 22 -0.0559837 0 49 -0.0559837 1
gene 1 12 22 -0.243842 0 50 -0.243842 1
gene 1 13 22 0.0507934 0 51 0.0507934 1
gene 1 14 22 -0.212625 0 52 -0.212625 1
gene 1 15 22 0.192952 0 53 0.192952 1
gene 1 16 22 0.119921 0 54 0.119921 1
gene 1 17 22 0.933511 0 55 0.933511 1
gene 1 18 22 0.107856 0 56 0.107856 1
gene 1 19 22 0.47787 0 57 0.47787 1
gene 1 1 23 -0.111644 0 58 -0.111644 1
gene 1 2 23 -0.892517 0 59 -0.892517 1
gene 1 3 23 -0.662517 0 60 -0.662517 1
gene 1 4 23 -0.76462 0 61 -0.76462 1
gene 1 5 23 -0.223689 0 62 -0.223689 1
gene 1 6 23 0.553152 0 63 0.553152 1
gene 1 7 23 0.00730352 0 64 0.00730352 1
gene 1 8 23 -0.35794 0 65 -0.35794 1
gene 1 9 23 0.156494 0 66 0.156494 1
gene 1 10 23 0.61503 0 67 0.61503 1
gene 1 11 23 -1.36917 0 68 -1.36917 1
gene 1 12 23 0.353716 0 69 0.353716 1
gene 1 13 23 -0.667363 0 70 -0.667363 1
gene 1 14 23 0.237087 0 71 0.237087 1
gene 1 15 23 -0.496295 0 72 -0.496295 1
gene 1 16 23 0.201999 0 73 0.201999 1
gene 1 17 23 -1.15532 0 74 -1.15532 1
gene 1 18 23 -0.11903 0 75 -0.11903 1
gene 1 19 23 0.275531 0 76 0.275531 1
gene 1 8 24 -0.21628 0 77 -0.21628 1
gene 1 24 20 1.56054 0 78 1.56054 1
gene 1 15 26 0.424094 0 85 0.424094 1
gene 1 26 20 0.407732 0 86 0.407732 1
gene 1 22 20 2.71287 0 87 2.71287 1
gene 1 2 24 -0.377886 0 91 -0.377886 1
gene 1 8 28 0.382872 0 93 0.382872 1
gene 1 28 24 -0.3788 0 94 -0.3788 1
gene 1 6 24 0.357815 0 96 0.357815 1
gene 1 16 26 0.0223414 0 99 0.0223414 1
gene 1 13 24 -0.428076 0 100 -0.428076 1
gene 1 23 24 0.499978 0 113 0.499978 1
gene 1 13 32 -0.679493 0 116 -0.679493 1
gene 1 32 21 -0.109547 0 117 -0.109547 1
gene 1 10 37 0.817247 0 129 0.817247 1
gene 1 37 20 0.296712 0 130 0.296712 1
gene 1 17 39 -0.255058 0 134 -0.255058 1
gene 1 39 23 -0.544506 0 135 -0.544506 1
gene 1 15 43 -0.286775 0 150 -0.286775 1
gene 1 43 21 -0.556653 0 151 -0.556653 1
gene 1 3 43 -0.00199455 0 153 -0.00199455 1
gene 1 8 32 0.474063 0 154 0.474063 1
gene 1 2 39 -0.147702 0 178 -0.147702 1
gene 1 6 53 -0.381586 0 191 -0.381586 1
gene 1 53 22 0.572948 0 192 0.572948 1
gene 1 8 66 1.03671 0 237 1.03671 1
gene 1 66 22 -0.0753657 0 238 -0.0753657 1
gene 1 18 68 0.124867 0 243 0.124867 1
gene 1 68 21 -0.238 0 244 -0.238 1
gene 1 39 32 0.267835 0 252 0.267835 1
gene 1 9 37 -0.023641 0 314 -0.023641 1
gene 1 14 94 1 0 336 0 1
gene 1 94 21 0.13581 0 337 0 1
genomeend 272
genomestart 297
trait 1 0 0.803635 0.906561 0.879867 1 0 0.107367 0.0786142 
node 1 1 1 1 0
node 2 1 1 1 0
node 3 1 1 1 0
node 4 1 1 1 0
node 5 1 1 1 0
node 6 1 1 1 0
node 7 1 1 1 0
node 8 1 1 1 0
node 9 1 1 1 0
node 10 1 1 1 0
node 11 1 1 1 0
node 12 1 1 1 0
node 13 1 1 1 0
node 14 1 1 1 0
node 15 1 1 1 0
node 16 1 1 1 0
node 17 1 1 1 0
node 18 1 1 1 0
node 19 1 1 3 0
node 20 1 0 2 0
node 21 1 0 2 0
node 22 1 0 2 0
node 23 1 0 2 0
node 24 1 0 0 0
node 26 1 0 0 0
node 28 1 0 0 0
node 32 1 0 0 0
node 37 1 0 0 0
node 39 1 0 0 0
node 43 1 0 0 0
node 53 1 0 0 0
node 61 1 0 0 0
node 66 1 0 0 0
gene 1 1 20 -0.371075 0 1 -0.371075 1
gene 1 2 20 0.0574622 0 2 0.0574622 1
gene 1 3 20 1.07893 0 3 1.07893 1
gene 1 4 20 1.16212 0 4 1.16212 1
gene 1 5 20 0.743571 0 5 0.743571 1
gene 1 6 20 -0.315657 0 6 -0.315657 1
gene 1 7 20 -1.05902 0 7 -1.05902 1
gene 1 8 20 -0.144787 0 8 -0.144787 1
gene 1 9 20 0.366611 0 9 0.366611 1
gene 1 10 20 -0.206544 0 10 -0.206544 1
gene 1 11 20 -1.80821 0 11 -1.80821 1
gene 1 12 20 2.87053 0 12 2.87053 1
gene 1 13 20 -1.22305 0 13 -1.22305 1
gene 1 14 20 0.569276 0 14 0.569276 1
gene 1 15 20 -0.280903 0 15 -0.280903 1
gene 1 16 20 1.14392 0 16 1.14392 1
gene 1 17 20 0.763334 0 17 0.763334 1
gene 1 18 20 0.206901 0 18 0.206901 1
gene 1 19 20 0.417133 0 19 0.417133 1
gene 1 1 21 0.802855 0 20 0.802855 1
gene 1 2 21 1.92421 0 21 1.92421 1
gene 1 3 21 -0.479985 0 22 -0.479985 1
gene 1 4 21 -0.775202 0 23 -0.775202 1
gene 1 5 21 0.472021 0 24 0.472021 1
gene 1 6 21 -0.0545298 0 25 -0.0545298 1
gene 1 7 21 -0.0295106 0 26 -0.0295106 1
gene 1 8 21 0.186598 0 27 0.186598 1
gene 1 9 21 -2.49623 0 28 -2.49623 1
gene 1 10 21 -0.293115 0 29 -0.293115 1
gene 1 11 21 -0.752521 0 30 -0.752521 1
gene 1 12 21 -0.0789033 0 31 -0.0789033 1
gene 1 13 21 -0.946338 0 32 -0.946338 0
gene 1 14 21 -2.03387 0 33 -2.03387 1
gene 1 15 21 0.450753 0 34 0.450753 0
gene 1 16 21 0.962421 0 35 0.962421 1
gene 1 17 21 -0.266025 0 36 -0.266025 1
gene 1 18 21 -0.239158 0 37 -0.239158 1
gene 1 19 21 0.269692 0 38 0.269692 1
gene 1 1 22 -1.94417 0 39 -1.94417 1
gene 1 2 22 0.403409 0 40 0.403409 1
gene 1 3 22 0.69209 0 41 0.69209 1
gene 1 4 22 0.490188 0 42 0.490188 1
gene 1 5 22 -0.104501 0 43 -0.104501 1
gene 1 6 22 0.458868 0 44 0.458868 1
gene 1 7 22 0.120148 0 45 0.120148 1
gene 1 8 22 -0.373478 0 46 -0.373478 1
gene 1 9 22 -0.486223 0 47 -0.486223 1
gene 1 10 22 -0.775172 0 48 -0.775172 1
gene 1 11 22 0.255604 0 49 0.255604 1
gene 1 12 22 0.281469 0 50 0.281469 1
gene 1 13 22 -0.115434 0 51 -0.115434 1
gene 1 14 22 1.09373 0 52 1.09373 1
gene 1 15 22 -0.0886313 0 53 -0.0886313 1
gene 1 16 22 0.450389 0 54 0.450389 1
gene 1 17 22 -0.381107 0 55 -0.381107 1
gene 1 18 22 0.00246391 0 56 0.00246391 1
gene 1 19 22 0.326761 0 57 0.326761 1
gene 1 1 23 -0.148967 0 58 -0.148967 1
gene 1 2 23 0.422103 0 59 0.422103 1
gene 1 3 23 0.0811733 0 60 0.0811733 1
gene 1 4 23 -0.429292 0 61 -0.429292 1
gene 1 5 23 -0.0974121 0 62 -0.0974121 1
gene 1 6 23 0.415863 0 63 0.415863 1
gene 1 7 23 -0.490829 0 64 -0.490829 1
gene 1 8 23 0.0566268 0 65 0.0566268 1
gene 1 9 23 0.704337 0 66 0.704337 1
gene 1 10 23 1.23319 0 67 1.23319 1
gene 1 11 23 -3 0 68 -3 1
gene 1 12 23 -1.95084 0 69 -1.95084 1
gene 1 13 23 -1.04824 0 70 -1.04824 1
gene 1 14 23 0.192698 0 71 0.192698 1
gene 1 15 23 -0.0226391 0 72 -0.0226391 1
gene 1 16 23 0.546172 0 73 0.546172 1
gene 1 17 23 -1.42527 0 74 -1.42527 0
gene 1 18 23 1.92281 0 75 1.92281 1
gene 1 19 23 -2.18764 0 76 -2.18764 1
gene 1 8 24 -0.85703 0 77 -0.85703 1
gene 1 24 20 1.56916 0 78 1.56916 1
gene 1 15 26 2.09752 0 85 2.09752 1
gene 1 26 20 0.597071 0 86 0.597071 1
gene 1 22 20 2.07456 0 87 2.07456 1
gene 1 2 24 -0.43198 0 91 -0.43198 1
gene 1 8 28 0.93844 0 93 0.93844 1
gene 1 28 24 -0.176131 0 94 -0.176131 1
gene 1 6 24 0.14342 0 96 0.14342 1
gene 1 16 26 0.590696 0 99 0.590696 1
gene 1 13 24 0.681663 0 100 0.681663 1
gene 1 23 24 0.15196 0 113 0.15196 1
gene 1 13 32 -0.0419109 0 116 -0.0419109 1
gene 1 32 21 0.28729 0 117 0.28729 1
gene 1 10 37 -0.0663595 0 129 -0.0663595 1
gene 1 37 20 1.32424 0 130 1.32424 1
gene 1 17 39 -0.632071 0 134 -0.632071 1
gene 1 39 23 0.36219 0 135 0.36219 1
gene 1 15 43 -0.418865 0 150 -0.418865 1
gene 1 43 21 -0.088891 0 151 -0.088891 1
gene 1 3 43 0.447147 0 153 0.447147 1
gene 1 8 32 0.693344 0 154 0.693344 1
gene 1 2 39 -0.15823 0 178 -0.15823 1
gene 1 6 53 -1.09285 0 191 -1.09285 1
gene 1 53 22 0.554689 0 192 0.554689 1
gene 1 2 61 0.840977 0 221 0.840977 1
gene 1 61 24 0.269865 0 222 0.269865 1
gene 1 8 66 -0.667425 0 237 -0.667425 1
gene 1 66 22 -0.388781 0 238 -0.388781 1
gene 1 28 23 -0.491097 0 253 -0.491097 1
genomeend 297
genomestart 301
trait 1 0.00985707 0.162596 0.0446097 0.0904003 0.772918 0 0.501063 0.398851 
node 1 1 1 1 0
node 2 1 1 1 0
node 3 1 1 1 0
node 4 1 1 1 0
node 5 1 1 1 0
node 6 1 1 1 0
node 7 1 1 1 0
node 8 1 1 1 0
node 9 1 1 1 0
node 10 1 1 1 0
node 11 1 1 1 0
node 12 1 1 1 0
node 13 1 1 1 0
node 14 1 1 1 0
node 15 1 1 1 0
node 16 1 1 1 0
node 17 1 1 1 0
node 18 1 1 1 0
node 19 1 1 3 0
node 20 1 0 2 0
node 21 1 0 2 0
node 22 1 0 2 0
node 23 1 0 2 0
node 24 1 0 0 0
node 26 1 0 0 0
node 28 1 0 0 0
node 32 1 0 0 0
node 37 1 0 0 0
node 39 1 0 0 0
node 43 1 0 0 0
node 53 1 0 0 0
node 66 1 0 0 0
node 68 1 0 0 0
gene 1 1 20 -0.538351 0 1 -0.538351 1
gene 1 2 20 0.755222 0 2 0.755222 1
gene 1 3 20 -0.618163 0 3 -0.618163 1
gene 1 4 20 1.03556 0 4 1.03556 1
gene 1 5 20 0.215048 0 5 0.215048 1
gene 1 6 20 0.306957 0 6 0.306957 1
gene 1 7 20 -1.57736 0 7 -1.57736 1
gene 1 8 20 0.694724 0 8 0.694724 1
gene 1 9 20 1.07979 0 9 1.07979 1
gene 1 10 20 0.0402048 0 10 0.0402048 0
gene 1 11 20 -0.2794 0 11 -0.2794 1
gene 1 12 20 2.40974 0 12 2.40974 1
gene 1 13 20 0.94969 0 13 0.94969 1
gene 1 14 20 -0.676854 0 14 -0.676854 1
gene 1 15 20 -0.29778 0 15 -0.29778 1
gene 1 16 20 0.911546 0 16 0.911546 1
gene 1 17 20 0.444291 0 17 0.444291 1
gene 1 18 20 0.945413 0 18 0.945413 1
gene 1 19 20 0.371829 0 19 0.371829 1
gene 1 1 21 -0.552036 0 20 -0.552036 1
gene 1 2 21 1.81335 0 21 1.81335 1
gene 1 3 21 -0.512658 0 22 -0.512658 1
gene 1 4 21 0.303163 0 23 0.303163 1
gene 1 5 21 0.301746 0 24 0.301746 1
gene 1 6 21 -0.126776 0 25 -0.126776 1
gene 1 7 21 0.464036 0 26 0.464036 1
gene 1 8 21 0.30029 0 27 0.30029 1
gene 1 9 21 -0.195043 0 28 -0.195043 1
gene 1 10 21 0.00180323 0 29 0.00180323 1
gene 1 11 21 -0.486541 0 30 -0.486541 1
gene 1 12 21 1.6341 0 31 1.6341 1
gene 1 13 21 -0.694849 0 32 -0.694849 0
gene 1 14 21 0.246198 0 33 0.246198 1
gene 1 15 21 0.0669327 0 34 0.0669327 0
gene 1 16 21 -0.703049 0 35 -0.703049 1
gene 1 17 21 -0.0514076 0 36 -0.0514076 1
gene 1 18 21 -0.58951 0 37 -0.58951 1
gene 1 19 21 -0.684251 0 38 -0.684251 1
gene 1 1 22 0.0687791 0 39 0.0687791 1
gene 1 2 22 0.331858 0 40 0.331858 1
gene 1 3 22 1.21278 0 41 1.21278 1
gene 1 4 22 0.151489 0 42 0.151489 1
gene 1 5 22 0.655269 0 43 0.655269 1
gene 1 6 22 -1.97714 0 44 -1.97714 0
gene 1 7 22 0.649892 0 45 0.649892 1
gene 1 8 22 0.484302 0 46 0.484302 0
gene 1 9 22 0.568049 0 47 0.568049 1
gene 1 10 22 0.606269 0 48 0.606269 1
gene 1 11 22 -0.131301 0 49 -0.131301 1
gene 1 12 22 0.197088 0 50 0.197088 1
gene 1 13 22 -0.248656 0 51 -0.248656 1
gene 1 14 22 0.0208141 0 52 0.0208141 1
gene 1 15 22 0.838353 0 53 0.838353 1
gene 1 16 22 0.381033 0 54 0.381033 1
gene 1 17 22 0.674138 0 55 0.674138 1
gene 1 18 22 1.0566 0 56 1.0566 1
gene 1 19 22 0.275722 0 57 0.275722 1
gene 1 1 23 -0.0310172 0 58 -0.0310172 1
gene 1 2 23 -0.341654 0 59 -0.341654 1
gene 1 3 23 -1.01932 0 60 -1.01932 1
gene 1 4 23 -1.3052 0 61 -1.3052 1
gene 1 5 23 -0.26418 0 62 -0.26418 1
gene 1 6 23 0.884099 0 63 0.884099 1
gene 1 7 23 -0.00826495 0 64 -0.00826495 1
gene 1 8 23 -0.247218 0 65 -0.247218 1
gene 1 9 23 -0.0911823 0 66 -0.0911823 1
gene 1 10 23 -0.440089 0 67 -0.440089 1
gene 1 11 23 -2.15425 0 68 -2.15425 1
gene 1 12 23 -0.341383 0 69 -0.341383 1
gene 1 13 23 -0.194015 0 70 -0.194015 1
gene 1 14 23 0.00439917 0 71 0.00439917 1
gene 1 15 23 -0.795236 0 72 -0.795236 1
gene 1 16 23 0.110581 0 73 0.110581 1
gene 1 17 23 -1.55691 0 74 -1.55691 0
gene 1 18 23 -0.806693 0 75 -0.806693 1
gene 1 19 23 0.280868 0 76 0.280868 1
gene 1 8 24 0.0115155 0 77 0.0115155 1
gene 1 24 20 1.07015 0 78 1.07015 1
gene 1 15 26 0.783059 0 85 0.783059 1
gene 1 26 20 -0.183207 0 86 -0.183207 1
gene 1 22 20 2.63468 0 87 2.63468 1
gene 1 2 24 -0.288106 0 91 -0.288106 1
gene 1 8 28 0.640154 0 93 0.640154 1
gene 1 28 24 0.344433 0 94 0.344433 1
gene 1 6 24 -0.0177301 0 96 -0.0177301 1
gene 1 16 26 0.141053 0 99 0.141053 1
gene 1 13 24 0.184855 0 100 0.184855 1
gene 1 23 24 0.233745 0 113 0.233745 1
gene 1 13 32 -0.849701 0 116 -0.849701 1
gene 1 32 21 0.270576 0 117 0.270576 1
gene 1 10 37 1.02424 0 129 1.02424 1
gene 1 37 20 1.04876 0 130 1.04876 1
gene 1 17 39 -0.380037 0 134 -0.380037 1
gene 1 39 23 -0.819503 0 135 -0.819503 1
gene 1 15 43 -0.367055 0 150 -0.367055 1
gene 1 43 21 -0.512323 0 151 -0.512323 1
gene 1 3 43 0.349577 0 153 0.349577 1
gene 1 8 32 -0.0126558 0 154 -0.0126558 1
gene 1 2 39 0.00391577 0 178 0.00391577 1
gene 1 6 53 -0.0157731 0 191 -0.0157731 1
gene 1 53 22 0.841273 0 192 0.841273 1
gene 1 8 66 0.663323 0 237 0.663323 1
gene 1 66 22 -0.18733 0 238 -0.18733 1
gene 1 18 68 0.0149454 0 243 0.0149454 1
gene 1 68 21 -0.413036 0 244 -0.413036 1
gene 1 39 32 0.761495 0 252 0.761495 1
gene 1 66 24 0.970571 0 342 0.970571 1
genomeend 301
genomestart 680
trait 1 0.0031214 0.16989 0.0254727 0.181357 0.772846 0 0.515305 0.155652 
node 1 1 1 1 0
node 2 1 1 1 0
node 3 1 1 1 0
node 4 1 1 1 0
node 5 1 1 1 0
node 6 1 1 1 0
node 7 1 1 1 0
node 8 1 1 1 0
node 9 1 1 1 0
node 10 1 1 1 0
node 11 1 1 1 0
node 12 1 1 1 0
node 13 1 1 1 0
node 14 1 1 1 0
node 15 1 1 1 0
node 16 1 1 1 0
node 17 1 1 1 0
node 18 1 1 1 0
node 19 1 1 3 0
node 20 1 0 2 0
node 21 1 0 2 0
node 22 1 0 2 0
node 23 1 0 2 0
node 24 1 0 0 0
node 26 1 0 0 0
node 28 1 0 0 0
node 32 1 0 0 0
node 37 1 0 0 0
node 39 1 0 0 0
node 43 1 0 0 0
node 53 1 0 0 0
node 66 1 0 0 0
node 68 1 0 0 0
gene 1 1 20 -0.945065 0 1 -0.945065 1
gene 1 2 20 0.629791 0 2 0.629791 1
gene 1 3 20 -1.12599 0 3 -1.12599 1
gene 1 4 20 1.00015 0 4 1.00015 1
gene 1 5 20 -0.579983 0 5 -0.579983 1
gene 1 6 20 0.0195607 0 6 0.0195607 1
gene 1 7 20 -0.199613 0 7 -0.199613 1
gene 1 8 20 0.548746 0 8 0.548746 1
gene 1 9 20 0.338401 0 9 0.338401 1
gene 1 10 20 0.418443 0 10 0.418443 1
gene 1 11 20 -0.038435 0 11 -0.038435 1
gene 1 12 20 2.26374 0 12 2.26374 1
gene 1 13 20 0.372475 0 13 0.372475 1
gene 1 14 20 -0.366364 0 14 -0.366364 1
gene 1 15 20 0.240818 0 15 0.240818 1
gene 1 16 20 0.998477 0 16 0.998477 1
gene 1 17 20 -0.109964 0 17 -0.109964 1
gene 1 18 20 0.663718 0 18 0.663718 1
gene 1 19 20 1.04603 0 19 1.04603 1
gene 1 1 21 0.0675248 0 20 0.0675248 1
gene 1 2 21 -0.307683 0 21 -0.307683 1
gene 1 3 21 -0.230952 0 22 -0.230952 1
gene 1 4 21 0.629264 0 23 0.629264 1
gene 1 5 21 0.691546 0 24 0.691546 1
gene 1 6 21 0.231238 0 25 0.231238 1
gene 1 7 21 0.264843 0 26 0.264843 1
gene 1 8 21 0.884115 0 27 0.884115 1
gene 1 9 21 0.443742 0 28 0.443742 1
gene 1 10 21 -0.325935 0 29 -0.325935 1
gene 1 11 21 0.753332 0 30 0.753332 1
gene 1 12 21 1.75573 0 31 1.75573 1
gene 1 13 21 -0.583616 0 32 -0.583616 0
gene 1 14 21 0.57125 0 33 0.57125 1
gene 1 15 21 -0.148321 0 34 -0.148321 0
gene 1 16 21 -1.35297 0 35 -1.35297 1
gene 1 17 21 -0.0353172 0 36 -0.0353172 1
gene 1 18 21 -0.258799 0 37 -0.258799 1
gene 1 19 21 -0.554965 0 38 -0.554965 1
gene 1 1 22 0.412012 0 39 0.412012 1
gene 1 2 22 0.516893 0 40 0.516893 1
gene 1 3 22 0.160193 0 41 0.160193 1
gene 1 4 22 -0.959729 0 42 -0.959729 1
gene 1 5 22 0.637587 0 43 0.637587 1
gene 1 6 22 -0.357697 0 44 -0.357697 0
gene 1 7 22 0.270477 0 45 0.270477 1
gene 1 8 22 1.82978 0 46 1.82978 0
gene 1 9 22 -0.239518 0 47 -0.239518 1
gene 1 10 22 -0.161161 0 48 -0.161161 1
gene 1 11 22 -0.411338 0 49 -0.411338 1
gene 1 12 22 0.40308 0 50 0.40308 1
gene 1 13 22 -0.421394 0 51 -0.421394 1
gene 1 14 22 -0.287647 0 52 -0.287647 1
gene 1 15 22 0.693885 0 53 0.693885 1
gene 1 16 22 0.760975 0 54 0.760975 1
gene 1 17 22 1.06049 0 55 1.06049 1
gene 1 18 22 0.631859 0 56 0.631859 1
gene 1 19 22 1.47908 0 57 1.47908 1
gene 1 1 23 0.171471 0 58 0.171471 1
gene 1 2 23 0.320401 0 59 0.320401 1
gene 1 3 23 -0.423361 0 60 -0.423361 1
gene 1 4 23 -0.646932 0 61 -0.646932 1
gene 1 5 23 -0.0298342 0 62 -0.0298342 1
gene 1 6 23 0.928715 0 63 0.928715 1
gene 1 7 23 -0.00693953 0 64 -0.00693953 1
gene 1 8 23 -0.73705 0 65 -0.73705 1
gene 1 9 23 0.374518 0 66 0.374518 1
gene 1 10 23 1.27267 0 67 1.27267 1
gene 1 11 23 -0.754049 0 68 -0.754049 1
gene 1 12 23 0.818222 0 69 0.818222 1
gene 1 13 23 0.023305 0 70 0.023305 1
gene 1 14 23 -0.324428 0 71 -0.324428 1
gene 1 15 23 -1.06194 0 72 -1.06194 1
gene 1 16 23 0.0425817 0 73 0.0425817 1
gene 1 17 23 -1.82871 0 74 -1.82871 0
gene 1 18 23 -0.252515 0 75 -0.252515 1
gene 1 19 23 0.70178 0 76 0.70178 1
gene 1 8 24 -0.916135 0 77 -0.916135 1
gene 1 24 20 1.03619 0 78 1.03619 1
gene 1 15 26 0.796606 0 85 0.796606 1
gene 1 26 20 0.817087 0 86 0.817087 1
gene 1 22 20 2.89368 0 87 2.89368 1
gene 1 2 24 -0.458814 0 91 -0.458814 1
gene 1 8 28 0.68731 0 93 0.68731 1
gene 1 28 24 0.208209 0 94 0.208209 1
gene 1 6 24 0.205315 0 96 0.205315 1
gene 1 16 26 0.28928 0 99 0.28928 1
gene 1 13 24 0.184855 0 100 0.184855 1
gene 1 23 24 0.0657593 0 113 0.0657593 1
gene 1 13 32 -0.296858 0 116 -0.296858 1
gene 1 32 21 -0.151663 0 117 -0.151663 1
gene 1 10 37 0.32105 0 129 0.32105 1
gene 1 37 20 0.748764 0 130 0.748764 1
gene 1 17 39 0.356718 0 134 0.356718 1
gene 1 39 23 0.447688 0 135 0.447688 1
gene 1 15 43 -0.438498 0 150 -0.438498 1
gene 1 43 21 -1.06593 0 151 -1.06593 1
gene 1 3 43 -0.230829 0 153 -0.230829 1
gene 1 8 32 -0.465984 0 154 -0.465984 1
gene 1 2 39 -0.227727 0 178 -0.227727 1
gene 1 6 53 0.259439 0 191 0.259439 1
gene 1 53 22 1.42015 0 192 1.42015 1
gene 1 8 66 0.0822461 0 237 0.0822461 1
gene 1 66 22 -0.00846387 0 238 -0.00846387 1
gene 1 18 68 -0.0367398 0 243 -0.0367398 1
gene 1 68 21 -0.764298 0 244 -0.764298 1
gene 1 39 32 0.351369 0 252 0.351369 1
genomeend 680
genomestart 694
trait 1 0.00418925 0.147588 0.0272781 0.100282 0.771372 0 0.482892 0.304511 
node 1 1 1 1 0
node 2 1 1 1 0
node 3 1 1 1 0
node 4 1 1 1 0
node 5 1 1 1 0
node 6 1 1 1 0
node 7 1 1 1 0
node 8 1 1 1 0
node 9 1 1 1 0
node 10 1 1 1 0
node 11 1 1 1 0
node 12 1 1 1 0
node 13 1 1 1 0
node 14 1 1 1 0
node 15 1 1 1 0
node 16 1 1 1 0
node 17 1 1 1 0
node 18 1 1 1 0
node 19 1 1 3 0
node 20 1 0 2 0
node 21 1 0 2 0
node 22 1 0 2 0
node 23 1 0 2 0
node 24 1 0 0 0
node 26 1 0 0 0
node 28 1 0 0 0
node 32 1 0 0 0
node 37 1 0 0 0
node 39 1 0 0 0
node 43 1 0 0 0
node 53 1 0 0 0
node 66 1 0 0 0
node 68 1 0 0 0
gene 1 1 20 -1.02511 0 1 -1.02511 1
gene 1 2 20 0.878327 0 2 0.878327 1
gene 1 3 20 -0.987008 0 3 -0.987008 1
gene 1 4 20 0.271547 0 4 0.271547 1
gene 1 5 20 -0.131106 0 5 -0.131106 1
gene 1 6 20 -0.285615 0 6 -0.285615 1
gene 1 7 20 -2.49871 0 7 -2.49871 1
gene 1 8 20 0.548746 0 8 0.548746 1
gene 1 9 20 -0.380841 0 9 -0.380841 1
gene 1 10 20 0.418443 0 10 0.418443 1
gene 1 11 20 -0.559596 0 11 -0.559596 1
gene 1 12 20 1.45974 0 12 1.45974 1
gene 1 13 20 0.237548 0 13 0.237548 1
gene 1 14 20 -0.306138 0 14 -0.306138 1
gene 1 15 20 -0.0410985 0 15 -0.0410985 1
gene 1 16 20 1.04985 0 16 1.04985 1
gene 1 17 20 -0.303575 0 17 -0.303575 1
gene 1 18 20 0.57194 0 18 0.57194 1
gene 1 19 20 1.45344 0 19 1.45344 1
gene 1 1 21 -0.234914 0 20 -0.234914 1
gene 1 2 21 -0.0546543 0 21 -0.0546543 1
gene 1 3 21 -0.549975 0 22 -0.549975 1
gene 1 4 21 0.307668 0 23 0.307668 1
gene 1 5 21 -0.188288 0 24 -0.188288 1
gene 1 6 21 0.116127 0 25 0.116127 1
gene 1 7 21 0.44349 0 26 0.44349 1
gene 1 8 21 -0.129762 0 27 -0.129762 1
gene 1 9 21 0.271624 0 28 0.271624 1
gene 1 10 21 -0.621755 0 29 -0.621755 1
gene 1 11 21 -0.0625083 0 30 -0.0625083 1
gene 1 12 21 0.763638 0 31 0.763638 1
gene 1 13 21 -0.891438 0 32 -0.891438 0
gene 1 14 21 0.0757167 0 33 0.0757167 1
gene 1 15 21 0.247046 0 34 0.247046 0
gene 1 16 21 -1.63291 0 35 -1.63291 1
gene 1 17 21 -0.0561935 0 36 -0.0561935 1
gene 1 18 21 0.0830844 0 37 0.0830844 1
gene 1 19 21 -0.9287 0 38 -0.9287 1
gene 1 1 22 0.824575 0 39 0.824575 1
gene 1 2 22 0.121058 0 40 0.121058 1
gene 1 3 22 0.683353 0 41 0.683353 1
gene 1 4 22 0.181523 0 42 0.181523 1
gene 1 5 22 0.389699 0 43 0.389699 1
gene 1 6 22 0.39413 0 44 0.39413 0
gene 1 7 22 0.0709764 0 45 0.0709764 1
gene 1 8 22 1.83882 0 46 1.83882 0
gene 1 9 22 0.297613 0 47 0.297613 1
gene 1 10 22 1.09036 0 48 1.09036 1
gene 1 11 22 -0.514432 0 49 -0.514432 1
gene 1 12 22 0.366244 0 50 0.366244 1
gene 1 13 22 0.744439 0 51 0.744439 1
gene 1 14 22 0.0402111 0 52 0.0402111 1
gene 1 15 22 0.418342 0 53 0.418342 1
gene 1 16 22 0.814115 0 54 0.814115 1
gene 1 17 22 1.331 0 55 1.331 1
gene 1 18 22 -0.403706 0 56 -0.403706 1
gene 1 19 22 1.95575 0 57 1.95575 1
gene 1 1 23 0.171471 0 58 0.171471 1
gene 1 2 23 0.786551 0 59 0.786551 1
gene 1 3 23 -0.502339 0 60 -0.502339 1
gene 1 4 23 -0.241897 0 61 -0.241897 1
gene 1 5 23 -0.455425 0 62 -0.455425 1
gene 1 6 23 0.708981 0 63 0.708981 1
gene 1 7 23 -0.160644 0 64 -0.160644 1
gene 1 8 23 -0.982792 0 65 -0.982792 1
gene 1 9 23 -0.736266 0 66 -0.736266 1
gene 1 10 23 0.567751 0 67 0.567751 1
gene 1 11 23 -0.754049 0 68 -0.754049 1
gene 1 12 23 -0.456678 0 69 -0.456678 1
gene 1 13 23 -0.939764 0 70 -0.939764 1
gene 1 14 23 0.927955 0 71 0.927955 1
gene 1 15 23 -0.933182 0 72 -0.933182 1
gene 1 16 23 0.36015 0 73 0.36015 1
gene 1 17 23 -2.00846 0 74 -2.00846 0
gene 1 18 23 -0.508275 0 75 -0.508275 1
gene 1 19 23 0.699728 0 76 0.699728 1
gene 1 8 24 -0.734376 0 77 -0.734376 1
gene 1 24 20 2.24644 0 78 2.24644 1
gene 1 15 26 0.4084 0 85 0.4084 1
gene 1 26 20 1.10345 0 86 1.10345 1
gene 1 22 20 2.59357 0 87 2.59357 1
gene 1 2 24 -0.689475 0 91 -0.689475 1
gene 1 8 28 -0.0537414 0 93 -0.0537414 1
gene 1 28 24 -0.252073 0 94 -0.252073 1
gene 1 6 24 -0.15965 0 96 -0.15965 1
gene 1 16 26 0.257344 0 99 0.257344 1
gene 1 13 24 0.250184 0 100 0.250184 1
gene 1 23 24 -0.127913 0 113 -0.127913 1
gene 1 13 32 -0.813271 0 116 -0.813271 1
gene 1 32 21 0.237875 0 117 0.237875 1
gene 1 10 37 0.622149 0 129 0.622149 1
gene 1 37 20 -0.180649 0 130 -0.180649 1
gene 1 17 39 0.0350164 0 134 0.0350164 1
gene 1 39 23 0.430568 0 135 0.430568 1
gene 1 15 43 -0.400999 0 150 -0.400999 1
gene 1 43 21 0.0448569 0 151 0.0448569 1
gene 1 3 43 0.250227 0 153 0.250227 1
gene 1 8 32 0.0816464 0 154 0.0816464 1
gene 1 2 39 0.188996 0 178 0.188996 1
gene 1 6 53 -0.470152 0 191 -0.470152 1
gene 1 53 22 1.42015 0 192 1.42015 1
gene 1 8 66 1.26652 0 237 1.26652 1
gene 1 66 22 -0.00846387 0 238 -0.00846387 1
gene 1 18 68 0.123483 0 243 0.123483 1
gene 1 68 21 -0.764298 0 244 -0.764298 1
gene 1 39 32 0.790586 0 252 0.790586 1
gene 1 9 37 0.252628 0 314 0.252628 1
genomeend 694
genomestart 710
trait 1 0.00386068 0.167231 0.0274131 0.167063 0.772332 0 0.510923 0.188316 
node 1 1 1 1 0
node 2 1 1 1 0
node 3 1 1 1 0
node 4 1 1 1 0
node 5 1 1 1 0
node 6 1 1 1 0
node 7 1 1 1 0
node 8 1 1 1 0
node 9 1 1 1 0
node 10 1 1 1 0
node 11 1 1 1 0
node 12 1 1 1 0
node 13 1 1 1 0
node 14 1 1 1 0
node 15 1 1 1 0
node 16 1 1 1 0
node 17 1 1 1 0
node 18 1 1 1 0
node 19 1 1 3 0
node 20 1 0 2 0
node 21 1 0 2 0
node 22 1 0 2 0
node 23 1 0 2 0
node 24 1 0 0 0
node 26 1 0 0 0
node 28 1 0 0 0
node 32 1 0 0 0
node 37 1 0 0 0
node 39 1 0 0 0
node 43 1 0 0 0
node 53 1 0 0 0
node 66 1 0 0 0
node 68 1 0 0 0
gene 1 1 20 0.362046 0 1 0.362046 1
gene 1 2 20 1.07207 0 2 1.07207 1
gene 1 3 20 -1.27699 0 3 -1.27699 1
gene 1 4 20 -0.403158 0 4 -0.403158 1
gene 1 5 20 -0.57118 0 5 -0.57118 1
gene 1 6 20 0.262073 0 6 0.262073 1
gene 1 7 20 -1.46395 0 7 -1.46395 1
gene 1 8 20 1.00758 0 8 1.00758 1
gene 1 9 20 0.338401 0 9 0.338401 1
gene 1 10 20 1.10755 0 10 1.10755 1
gene 1 11 20 -0.038435 0 11 -0.038435 1
gene 1 12 20 3 0 12 3 1
gene 1 13 20 0.601166 0 13 0.601166 1
gene 1 14 20 -0.157134 0 14 -0.157134 1
gene 1 15 20 0.423745 0 15 0.423745 1
gene 1 16 20 1.32953 0 16 1.32953 1
gene 1 17 20 0.102212 0 17 0.102212 1
gene 1 18 20 0.379692 0 18 0.379692 1
gene 1 19 20 0.797201 0 19 0.797201 1
gene 1 1 21 -0.214762 0 20 -0.214762 1
gene 1 2 21 0.423571 0 21 0.423571 1
gene 1 3 21 -0.338513 0 22 -0.338513 1
gene 1 4 21 0.629264 0 23 0.629264 1
gene 1 5 21 0.925943 0 24 0.925943 1
gene 1 6 21 -0.313632 0 25 -0.313632 1
gene 1 7 21 -0.135443 0 26 -0.135443 1
gene 1 8 21 1.2386 0 27 1.2386 1
gene 1 9 21 -1.56254 0 28 -1.56254 1
gene 1 10 21 -0.340486 0 29 -0.340486 1
gene 1 11 21 0.181144 0 30 0.181144 1
gene 1 12 21 2.40066 0 31 2.40066 1
gene 1 13 21 0.49389 0 32 0.49389 0
gene 1 14 21 0.865349 0 33 0.865349 1
gene 1 15 21 -0.143151 0 34 -0.143151 0
gene 1 16 21 -0.952102 0 35 -0.952102 1
gene 1 17 21 -0.238826 0 36 -0.238826 1
gene 1 18 21 0.384338 0 37 0.384338 1
gene 1 19 21 -0.973684 0 38 -0.973684 1
gene 1 1 22 0.0122216 0 39 0.0122216 1
gene 1 2 22 0.332147 0 40 0.332147 1
gene 1 3 22 0.415128 0 41 0.415128 1
gene 1 4 22 -0.415104 0 42 -0.415104 1
gene 1 5 22 1.06843 0 43 1.06843 1
gene 1 6 22 -0.357697 0 44 -0.357697 0
gene 1 7 22 0.316195 0 45 0.316195 1
gene 1 8 22 1.95755 0 46 1.95755 0
gene 1 9 22 -0.0271406 0 47 -0.0271406 1
gene 1 10 22 1.16339 0 48 1.16339 1
gene 1 11 22 -0.240513 0 49 -0.240513 1
gene 1 12 22 0.168358 0 50 0.168358 1
gene 1 13 22 -0.895938 0 51 -0.895938 1
gene 1 14 22 0.0603659 0 52 0.0603659 1
gene 1 15 22 0.859215 0 53 0.859215 1
gene 1 16 22 -0.346394 0 54 -0.346394 1
gene 1 17 22 1.06049 0 55 1.06049 1
gene 1 18 22 0.845498 0 56 0.845498 1
gene 1 19 22 1.53753 0 57 1.53753 1
gene 1 1 23 0.108055 0 58 0.108055 1
gene 1 2 23 0.602408 0 59 0.602408 1
gene 1 3 23 -0.024298 0 60 -0.024298 1
gene 1 4 23 -0.728149 0 61 -0.728149 1
gene 1 5 23 -0.115615 0 62 -0.115615 1
gene 1 6 23 1.69825 0 63 1.69825 1
gene 1 7 23 0.0373859 0 64 0.0373859 1
gene 1 8 23 -0.639889 0 65 -0.639889 1
gene 1 9 23 0.184428 0 66 0.184428 1
gene 1 10 23 0.43358 0 67 0.43358 1
gene 1 11 23 -2.01556 0 68 -2.01556 1
gene 1 12 23 -0.2097 0 69 -0.2097 1
gene 1 13 23 -0.828335 0 70 -0.828335 1
gene 1 14 23 -0.0365862 0 71 -0.0365862 1
gene 1 15 23 -0.925601 0 72 -0.925601 1
gene 1 16 23 -0.368104 0 73 -0.368104 1
gene 1 17 23 -2.31395 0 74 -2.31395 0
gene 1 18 23 -0.183315 0 75 -0.183315 1
gene 1 19 23 0.0370436 0 76 0.0370436 1
gene 1 8 24 -0.699017 0 77 -0.699017 1
gene 1 24 20 1.24471 0 78 1.24471 1
gene 1 15 26 0.0874325 0 85 0.0874325 1
gene 1 26 20 -0.454581 0 86 -0.454581 1
gene 1 22 20 3 0 87 3 1
gene 1 2 24 -0.387844 0 91 -0.387844 1
gene 1 8 28 0.713773 0 93 0.713773 1
gene 1 28 24 -0.247927 0 94 -0.247927 1
gene 1 6 24 0.392385 0 96 0.392385 1
gene 1 16 26 0.442296 0 99 0.442296 1
gene 1 13 24 -0.186897 0 100 -0.186897 1
gene 1 23 24 1.01383 0 113 1.01383 1
gene 1 13 32 -0.719578 0 116 -0.719578 1
gene 1 32 21 0.702171 0 117 0.702171 1
gene 1 10 37 0.819504 0 129 0.819504 1
gene 1 37 20 -0.372089 0 130 -0.372089 1
gene 1 17 39 -0.230101 0 134 -0.230101 1
gene 1 39 23 -1.39479 0 135 -1.39479 1
gene 1 15 43 -0.626857 0 150 -0.626857 1
gene 1 43 21 -0.626252 0 151 -0.626252 1
gene 1 3 43 -0.649737 0 153 -0.649737 1
gene 1 8 32 -0.540674 0 154 -0.540674 1
gene 1 2 39 -0.597899 0 178 -0.597899 1
gene 1 6 53 -0.0207501 0 191 -0.0207501 1
gene 1 53 22 0.362569 0 192 0.362569 1
gene 1 8 66 0.0471127 0 237 0.0471127 1
gene 1 66 22 0.182094 0 238 0.182094 1
gene 1 18 68 0.0214165 0 243 0.0214165 1
gene 1 68 21 -0.912719 0 244 -0.912719 1
gene 1 39 32 0.351369 0 252 0.351369 1
genomeend 710
genomestart 753
trait 1 0 0.153699 0.312592 0.0716851 0.561468 0 0.200437 0.192961 
node 1 1 1 1 0
node 2 1 1 1 0
node 3 1 1 1 0
node 4 1 1 1 0
node 5 1 1 1 0
node 6 1 1 1 0
node 7 1 1 1 0
node 8 1 1 1 0
node 9 1 1 1 0
node 10 1 1 1 0
node 11 1 1 1 0
node 12 1 1 1 0
node 13 1 1 1 0
node 14 1 1 1 0
node 15 1 1 1 0
node 16 1 1 1 0
node 17 1 1 1 0
node 18 1 1 1 0
node 19 1 1 3 0
node 20 1 0 2 0
node 21 1 0 2 0
node 22 1 0 2 0
node 23 1 0 2 0
node 24 1 0 0 0
node 26 1 0 0 0
node 28 1 0 0 0
node 32 1 0 0 0
node 37 1 0 0 0
node 39 1 0 0 0
node 43 1 0 0 0
node 53 1 0 0 0
node 62 1 0 0 0
gene 1 1 20 -0.0812236 0 1 -0.0812236 1
gene 1 2 20 0.5988 0 2 0.5988 1
gene 1 3 20 2.39461 0 3 2.39461 1
gene 1 4 20 0.634405 0 4 0.634405 1
gene 1 5 20 0.546141 0 5 0.546141 1
gene 1 6 20 0.698624 0 6 0.698624 1
gene 1 7 20 0.886961 0 7 0.886961 1
gene 1 8 20 0.684535 0 8 0.684535 1
gene 1 9 20 0.360697 0 9 0.360697 1
gene 1 10 20 0.136917 0 10 0.136917 1
gene 1 11 20 0.697096 0 11 0.697096 1
gene 1 12 20 1.77139 0 12 1.77139 1
gene 1 13 20 -0.460574 0 13 -0.460574 0
gene 1 14 20 -1.40532 0 14 -1.40532 1
gene 1 15 20 0.299252 0 15 0.299252 1
gene 1 16 20 0.284432 0 16 0.284432 1
gene 1 17 20 1.40529 0 17 1.40529 1
gene 1 18 20 1.52562 0 18 1.52562 1
gene 1 19 20 0.484065 0 19 0.484065 1
gene 1 1 21 -1.32029 0 20 -1.32029 1
gene 1 2 21 -0.682865 0 21 -0.682865 1
gene 1 3 21 -0.516792 0 22 -0.516792 1
gene 1 4 21 0.0624657 0 23 0.0624657 1
gene 1 5 21 0.439074 0 24 0.439074 1
gene 1 6 21 0.038838 0 25 0.038838 1
gene 1 7 21 -0.555271 0 26 -0.555271 1
gene 1 8 21 -0.0272201 0 27 -0.0272201 1
gene 1 9 21 -0.747322 0 28 -0.747322 1
gene 1 10 21 -0.260465 0 29 -0.260465 1
gene 1 11 21 0.523617 0 30 0.523617 1
gene 1 12 21 0.0733367 0 31 0.0733367 1
gene 1 13 21 0.678304 0 32 0.678304 1
gene 1 14 21 -3 0 33 -3 1
gene 1 15 21 -0.134396 0 34 -0.134396 1
gene 1 16 21 -1.12453 0 35 -1.12453 1
gene 1 17 21 -0.0102461 0 36 -0.0102461 1
gene 1 18 21 -1.12073 0 37 -1.12073 1
gene 1 19 21 -1.97689 0 38 -1.97689 1
gene 1 1 22 0.928055 0 39 0.928055 1
gene 1 2 22 -1.0971 0 40 -1.0971 1
gene 1 3 22 0.259557 0 41 0.259557 1
gene 1 4 22 -0.281384 0 42 -0.281384 1
gene 1 5 22 0.0201429 0 43 0.0201429 1
gene 1 6 22 0.718812 0 44 0.718812 0
gene 1 7 22 0.0636236 0 45 0.0636236 1
gene 1 8 22 -0.429977 0 46 -0.429977 1
gene 1 9 22 -0.175154 0 47 -0.175154 1
gene 1 10 22 -0.122771 0 48 -0.122771 1
gene 1 11 22 -0.504704 0 49 -0.504704 1
gene 1 12 22 -1.56098 0 50 -1.56098 1
gene 1 13 22 -0.826862 0 51 -0.826862 1
gene 1 14 22 -0.646285 0 52 -0.646285 1
gene 1 15 22 -0.611637 0 53 -0.611637 1
gene 1 16 22 -0.0680583 0 54 -0.0680583 1
gene 1 17 22 2.20634 0 55 2.20634 1
gene 1 18 22 -0.445841 0 56 -0.445841 1
gene 1 19 22 1.80128 0 57 1.80128 1
gene 1 1 23 0.306132 0 58 0.306132 1
gene 1 2 23 -0.00795081 0 59 -0.00795081 1
gene 1 3 23 -0.316391 0 60 -0.316391 1
gene 1 4 23 -0.0562937 0 61 -0.0562937 1
gene 1 5 23 -0.244747 0 62 -0.244747 1
gene 1 6 23 0.261385 0 63 0.261385 1
gene 1 7 23 0.41334 0 64 0.41334 1
gene 1 8 23 -0.724339 0 65 -0.724339 1
gene 1 9 23 -0.278249 0 66 -0.278249 1
gene 1 10 23 0.280541 0 67 0.280541 1
gene 1 11 23 -0.132924 0 68 -0.132924 1
gene 1 12 23 1.81087 0 69 1.81087 1
gene 1 13 23 -1.18041 0 70 -1.18041 1
gene 1 14 23 -0.0998291 0 71 -0.0998291 1
gene 1 15 23 0.505841 0 72 0.505841 1
gene 1 16 23 -0.732767 0 73 -0.732767 1
gene 1 17 23 -0.404696 0 74 -0.404696 0
gene 1 18 23 -0.0586751 0 75 -0.0586751 1
gene 1 19 23 -0.0280253 0 76 -0.0280253 1
gene 1 8 24 0.381432 0 77 0.381432 1
gene 1 24 20 0.918991 0 78 0.918991 1
gene 1 15 26 0.283685 0 85 0.283685 1
gene 1 26 20 1.29749 0 86 1.29749 1
gene 1 22 20 2.70352 0 87 2.70352 1
gene 1 2 24 0.347267 0 91 0.347267 1
gene 1 8 28 0.216611 0 93 0.216611 1
gene 1 28 24 0.346639 0 94 0.346639 1
gene 1 6 24 -0.0807462 0 96 -0.0807462 1
gene 1 16 26 -0.176392 0 99 -0.176392 1
gene 1 13 24 -0.832791 0 100 -0.832791 1
gene 1 23 24 -0.0497815 0 113 -0.0497815 1
gene 1 13 32 -0.144596 0 116 -0.144596 1
gene 1 32 21 -0.287075 0 117 -0.287075 1
gene 1 10 37 -0.862977 0 129 -0.862977 1
gene 1 37 20 -0.210659 0 130 -0.210659 1
gene 1 17 39 0.198732 0 134 0.198732 1
gene 1 39 23 -1.11611 0 135 -1.11611 1
gene 1 15 43 -0.279534 0 150 -0.279534 1
gene 1 43 21 -0.715607 0 151 -0.715607 1
gene 1 3 43 -0.224025 0 153 -0.224025 1
gene 1 8 32 -0.220204 0 154 -0.220204 1
gene 1 2 39 0.704291 0 178 0.704291 1
gene 1 6 53 -0.46576 0 191 -0.46576 1
gene 1 53 22 -0.205054 0 192 -0.205054 1
gene 1 13 62 0.377327 0 225 0.377327 1
gene 1 62 20 0.0166677 0 226 0.0166677 1
gene 1 26 24 0.0128634 0 284 0.0128634 1
genomeend 753
genomestart 757
trait 1 0 0.155555 0.320373 0.0734697 0.561468 0 0.205426 0.193259 
node 1 1 1 1 0
node 2 1 1 1 0
node 3 1 1 1 0
node 4 1 1 1 0
node 5 1 1 1 0
node 6 1 1 1 0
node 7 1 1 1 0
node 8 1 1 1 0
node 9 1 1 1 0
node 10 1 1 1 0
node 11 1 1 1 0
node 12 1 1 1 0
node 13 1 1 1 0
node 14 1 1 1 0
node 15 1 1 1 0
node 16 1 1 1 0
node 17 1 1 1 0
node 18 1 1 1 0
node 19 1 1 3 0
node 20 1 0 2 0
node 21 1 0 2 0
node 22 1 0 2 0
node 23 1 0 2 0
node 24 1 0 0 0
node 26 1 0 0 0
node 28 1 0 0 0
node 32 1 0 0 0
node 37 1 0 0 0
node 39 1 0 0 0
node 43 1 0 0 0
node 53 1 0 0 0
node 62 1 0 0 0
gene 1 1 20 -0.112266 0 1 -0.112266 1
gene 1 2 20 -0.584313 0 2 -0.584313 1
gene 1 3 20 -0.112817 0 3 -0.112817 1
gene 1 4 20 1.10128 0 4 1.10128 1
gene 1 5 20 0.489213 0 5 0.489213 1
gene 1 6 20 0.961474 0 6 0.961474 1
gene 1 7 20 0.861303 0 7 0.861303 1
gene 1 8 20 -0.292152 0 8 -0.292152 1
gene 1 9 20 0.543156 0 9 0.543156 1
gene 1 10 20 -0.259218 0 10 -0.259218 1
gene 1 11 20 0.943925 0 11 0.943925 1
gene 1 12 20 1.51938 0 12 1.51938 1
gene 1 13 20 -0.725617 0 13 -0.725617 0
gene 1 14 20 -1.27365 0 14 -1.27365 1
gene 1 15 20 0.198792 0 15 0.198792 1
gene 1 16 20 1.47948 0 16 1.47948 1
gene 1 17 20 1.48912 0 17 1.48912 1
gene 1 18 20 0.748713 0 18 0.748713 1
gene 1 19 20 1.83321 0 19 1.83321 1
gene 1 1 21 -0.827077 0 20 -0.827077 1
gene 1 2 21 0.133183 0 21 0.133183 1
gene 1 3 21 -0.0334077 0 22 -0.0334077 1
gene 1 4 21 0.131139 0 23 0.131139 1
gene 1 5 21 0.714554 0 24 0.714554 1
gene 1 6 21 0.197557 0 25 0.197557 1
gene 1 7 21 0.252868 0 26 0.252868 1
gene 1 8 21 -0.546275 0 27 -0.546275 1
gene 1 9 21 -0.631836 0 28 -0.631836 1
gene 1 10 21 -0.0037486 0 29 -0.0037486 1
gene 1 11 21 0.913216 0 30 0.913216 1
gene 1 12 21 0.249466 0 31 0.249466 1
gene 1 13 21 0.679269 0 32 0.679269 1
gene 1 14 21 -2.25352 0 33 -2.25352 1
gene 1 15 21 -0.0441678 0 34 -0.0441678 0
gene 1 16 21 -1.66464 0 35 -1.66464 1
gene 1 17 21 1.22137 0 36 1.22137 1
gene 1 18 21 -0.0672136 0 37 -0.0672136 1
gene 1 19 21 -0.294548 0 38 -0.294548 1
gene 1 1 22 1.47233 0 39 1.47233 1
gene 1 2 22 -1.26948 0 40 -1.26948 1
