genomestart 1131
trait 1 0.0564425 0.0823827 0.00870607 0.282219 0.862466 0.00794088 0.22563 0.433928 
node 1 1 1 1 0
node 2 1 1 1 0
node 3 1 1 1 0
node 4 1 1 1 0
node 5 1 1 1 0
node 6 1 1 1 0
node 7 1 1 1 0
node 8 1 1 1 0
node 9 1 1 1 0
node 10 1 1 1 0
node 11 1 1 1 0
node 12 1 1 1 0
node 13 1 1 1 0
node 14 1 1 1 0
node 15 1 1 1 0
node 16 1 1 1 0
node 17 1 1 1 0
node 18 1 1 1 0
node 19 1 1 3 0
node 20 1 0 2 0
node 21 1 0 2 0
node 22 1 0 2 0
node 23 1 0 2 0
node 24 1 0 0 0
node 26 1 0 0 0
node 28 1 0 0 0
node 32 1 0 0 0
node 37 1 0 0 0
node 39 1 0 0 0
node 43 1 0 0 0
node 53 1 0 0 0
node 60 1 0 0 0
node 66 1 0 0 0
node 68 1 0 0 0
node 81 1 0 0 0
node 103 1 0 0 0
node 117 1 0 0 0
node 123 1 0 0 0
gene 1 1 20 0.289774 0 1 0.289774 1
gene 1 2 20 -0.207297 0 2 -0.207297 1
gene 1 3 20 -1.55407 0 3 -1.55407 1
gene 1 4 20 -0.552146 0 4 -0.552146 1
gene 1 5 20 -0.410184 0 5 -0.410184 1
gene 1 6 20 -0.105112 0 6 -0.105112 1
gene 1 7 20 0.0905907 0 7 0.0905907 1
gene 1 8 20 0.314017 0 8 0.314017 0
gene 1 9 20 -0.818748 0 9 -0.818748 1
gene 1 10 20 0.21839 0 10 0.21839 0
gene 1 11 20 0.350738 0 11 0.350738 1
gene 1 12 20 -0.502657 0 12 -0.502657 1
gene 1 13 20 0.0387802 0 13 0.0387802 1
gene 1 14 20 -0.036061 0 14 -0.036061 1
gene 1 15 20 -0.104838 0 15 -0.104838 1
gene 1 16 20 -0.253562 0 16 -0.253562 1
gene 1 17 20 0.168176 0 17 0.168176 1
gene 1 18 20 0.418865 0 18 0.418865 1
gene 1 19 20 -0.0865782 0 19 -0.0865782 1
gene 1 1 21 -0.635472 0 20 -0.635472 1
gene 1 2 21 -0.562173 0 21 -0.562173 1
gene 1 3 21 0.267323 0 22 0.267323 1
gene 1 4 21 -0.215375 0 23 -0.215375 1
gene 1 5 21 0.1426 0 24 0.1426 1
gene 1 6 21 -0.142198 0 25 -0.142198 1
gene 1 7 21 0.641032 0 26 0.641032 1
gene 1 8 21 0.352989 0 27 0.352989 1
gene 1 9 21 -0.666264 0 28 -0.666264 1
gene 1 10 21 -0.764355 0 29 -0.764355 1
gene 1 11 21 0.386472 0 30 0.386472 1
gene 1 12 21 0.186276 0 31 0.186276 1
gene 1 13 21 -0.758525 0 32 -0.758525 0
gene 1 14 21 -0.538224 0 33 -0.538224 1
gene 1 15 21 0.25226 0 34 0.25226 0
gene 1 16 21 0.682487 0 35 0.682487 1
gene 1 17 21 0.63571 0 36 0.63571 1
gene 1 18 21 0.850611 0 37 0.850611 0
gene 1 19 21 -0.666624 0 38 -0.666624 1
gene 1 1 22 0.720771 0 39 0.720771 1
gene 1 2 22 -0.72391 0 40 -0.72391 1
gene 1 3 22 -0.509848 0 41 -0.509848 1
gene 1 4 22 0.705343 0 42 0.705343 1
gene 1 5 22 -0.0670514 0 43 -0.0670514 1
gene 1 6 22 0.277683 0 44 0.277683 0
gene 1 7 22 0.483645 0 45 0.483645 1
gene 1 8 22 -0.157701 0 46 -0.157701 1
gene 1 9 22 -0.433442 0 47 -0.433442 1
gene 1 10 22 0.237796 0 48 0.237796 1
gene 1 11 22 0.681121 0 49 0.681121 1
gene 1 12 22 0.497937 0 50 0.497937 1
gene 1 13 22 0.206968 0 51 0.206968 1
gene 1 14 22 0.0922761 0 52 0.0922761 1
gene 1 15 22 0.382066 0 53 0.382066 1
gene 1 16 22 0.65363 0 54 0.65363 1
gene 1 17 22 0.421827 0 55 0.421827 1
gene 1 18 22 0.318294 0 56 0.318294 1
gene 1 19 22 0.796473 0 57 0.796473 1
gene 1 1 23 -0.983778 0 58 -0.983778 1
gene 1 2 23 1.40933 0 59 1.40933 1
gene 1 3 23 -1.37741 0 60 -1.37741 1
gene 1 4 23 0.770832 0 61 0.770832 1
gene 1 5 23 0.531888 0 62 0.531888 1
gene 1 6 23 -0.154632 0 63 -0.154632 1
gene 1 7 23 -0.495708 0 64 -0.495708 1
gene 1 8 23 -0.281214 0 65 -0.281214 1
gene 1 9 23 0.539901 0 66 0.539901 1
gene 1 10 23 0.138553 0 67 0.138553 1
gene 1 11 23 -0.237431 0 68 -0.237431 1
gene 1 12 23 0.932178 0 69 0.932178 1
gene 1 13 23 0.114972 0 70 0.114972 0
gene 1 14 23 -0.453439 0 71 -0.453439 1
gene 1 15 23 0.115658 0 72 0.115658 1
gene 1 16 23 -0.468622 0 73 -0.468622 1
gene 1 17 23 -0.905535 0 74 -0.905535 0
gene 1 18 23 1.30858 0 75 1.30858 1
gene 1 19 23 0.351998 0 76 0.351998 1
gene 1 8 24 0.502799 0 77 0.502799 0
gene 1 24 20 0.179823 0 78 0.179823 1
gene 1 15 26 -0.14533 0 85 -0.14533 1
gene 1 26 20 -0.083943 0 86 -0.083943 1
gene 1 22 20 -0.00179852 0 87 -0.00179852 1
gene 1 2 24 0.265518 0 91 0.265518 1
gene 1 8 28 1.0429 0 93 1.0429 1
gene 1 28 24 -0.184588 0 94 -0.184588 1
gene 1 6 24 0.730289 0 96 0.730289 1
gene 1 16 26 0.707091 0 99 0.707091 0
gene 1 13 24 -0.254538 0 100 -0.254538 1
gene 1 23 24 0.645944 0 113 0.645944 1
gene 1 13 32 0.127549 0 116 0.127549 1
gene 1 32 21 -0.828927 0 117 -0.828927 1
gene 1 10 37 -0.373358 0 129 -0.373358 1
gene 1 37 20 0.191501 0 130 0.191501 1
gene 1 17 39 0.613274 0 134 0.613274 1
gene 1 39 23 0.575011 0 135 0.575011 1
gene 1 15 43 -0.0589881 0 150 -0.0589881 1
gene 1 43 21 -0.538018 0 151 -0.538018 1
gene 1 3 43 -0.746811 0 153 -0.746811 1
gene 1 8 32 -0.922288 0 154 -0.922288 1
gene 1 2 39 -0.205427 0 178 -0.205427 1
gene 1 6 53 -0.467535 0 191 -0.467535 1
gene 1 53 22 -0.705893 0 192 -0.705893 1
gene 1 6 43 0.572805 0 210 0.572805 0
gene 1 17 60 0.205527 0 217 0.205527 1
gene 1 60 22 0.447765 0 218 0.447765 1
gene 1 20 20 -0.305955 1 221 -0.305955 1
gene 1 1 43 -0.0264584 0 234 -0.0264584 1
gene 1 15 37 0.482155 0 261 0.482155 1
gene 1 10 66 -0.454618 0 266 -0.454618 1
gene 1 66 21 0.0542481 0 267 0.0542481 1
gene 1 18 32 0.0509266 0 271 0.0509266 1
gene 1 5 68 1.08207 0 277 1.08207 1
gene 1 68 20 0.119627 0 278 0.119627 1
gene 1 39 60 0.164034 0 322 0.164034 1
gene 1 16 81 0.0750054 0 326 0.0750054 1
gene 1 81 26 -0.185261 0 327 -0.185261 1
gene 1 24 24 0.521388 1 393 0.521388 1
gene 1 18 103 -0.074449 0 394 -0.074449 1
gene 1 103 21 -0.471561 0 395 -0.471561 1
gene 1 5 32 -0.422042 0 400 -0.422042 1
gene 1 6 117 0.772806 0 456 0.772806 1
gene 1 117 43 -0.247779 0 457 -0.247779 1
gene 1 13 123 1.05531 0 472 1.05531 1
gene 1 123 23 -0.154808 0 473 -0.154808 1
genomeend 1131
genomestart 1173
trait 1 0.618343 0.388091 0.26462 0.207539 0.791473 0.30787 0.271053 0.552393 
node 1 1 1 1 0
node 2 1 1 1 0
node 3 1 1 1 0
node 4 1 1 1 0
node 5 1 1 1 0
node 6 1 1 1 0
node 7 1 1 1 0
node 8 1 1 1 0
node 9 1 1 1 0
node 10 1 1 1 0
node 11 1 1 1 0
node 12 1 1 1 0
node 13 1 1 1 0
node 14 1 1 1 0
node 15 1 1 1 0
node 16 1 1 1 0
node 17 1 1 1 0
node 18 1 1 1 0
node 19 1 1 3 0
node 20 1 0 2 0
node 21 1 0 2 0
node 22 1 0 2 0
node 23 1 0 2 0
node 24 1 0 0 0
node 26 1 0 0 0
node 28 1 0 0 0
node 32 1 0 0 0
node 37 1 0 0 0
node 39 1 0 0 0
node 43 1 0 0 0
node 53 1 0 0 0
node 75 1 0 0 0
node 90 1 0 0 0
node 95 1 0 0 0
node 104 1 0 0 0
gene 1 1 20 -0.215067 0 1 -0.215067 1
gene 1 2 20 0.0480715 0 2 0.0480715 1
gene 1 3 20 -0.63457 0 3 -0.63457 1
gene 1 4 20 -0.947643 0 4 -0.947643 1
gene 1 5 20 0.318366 0 5 0.318366 1
gene 1 6 20 -0.146566 0 6 -0.146566 1
gene 1 7 20 0.991501 0 7 0.991501 1
gene 1 8 20 0.446743 0 8 0.446743 0
gene 1 9 20 0.689487 0 9 0.689487 1
gene 1 10 20 0.544776 0 10 0.544776 1
gene 1 11 20 -0.0842843 0 11 -0.0842843 1
gene 1 12 20 0.10925 0 12 0.10925 1
gene 1 13 20 -0.468912 0 13 -0.468912 1
gene 1 14 20 -0.0490975 0 14 -0.0490975 1
gene 1 15 20 0.0964057 0 15 0.0964057 1
gene 1 16 20 -0.395691 0 16 -0.395691 1
gene 1 17 20 -0.0983573 0 17 -0.0983573 1
gene 1 18 20 -0.108397 0 18 -0.108397 1
gene 1 19 20 -0.0813866 0 19 -0.0813866 1
gene 1 1 21 -0.567695 0 20 -0.567695 1
gene 1 2 21 0.81866 0 21 0.81866 1
gene 1 3 21 0.550341 0 22 0.550341 1
gene 1 4 21 0.190044 0 23 0.190044 1
gene 1 5 21 0.112814 0 24 0.112814 1
gene 1 6 21 -0.952106 0 25 -0.952106 1
gene 1 7 21 -0.249372 0 26 -0.249372 1
gene 1 8 21 -0.153336 0 27 -0.153336 1
gene 1 9 21 -0.113401 0 28 -0.113401 0
gene 1 10 21 0.527945 0 29 0.527945 1
gene 1 11 21 -0.096645 0 30 -0.096645 1
gene 1 12 21 0.807376 0 31 0.807376 1
gene 1 13 21 0.531785 0 32 0.531785 0
gene 1 14 21 0.801167 0 33 0.801167 1
gene 1 15 21 0.332692 0 34 0.332692 0
gene 1 16 21 0.228041 0 35 0.228041 1
gene 1 17 21 -0.496608 0 36 -0.496608 1
gene 1 18 21 -0.144793 0 37 -0.144793 1
gene 1 19 21 0.299281 0 38 0.299281 1
gene 1 1 22 0.410892 0 39 0.410892 1
gene 1 2 22 -0.027148 0 40 -0.027148 1
gene 1 3 22 1.04522 0 41 1.04522 1
gene 1 4 22 0.287836 0 42 0.287836 1
gene 1 5 22 0.0929535 0 43 0.0929535 1
gene 1 6 22 -1.00679 0 44 -1.00679 0
gene 1 7 22 -0.361704 0 45 -0.361704 1
gene 1 8 22 -0.181473 0 46 -0.181473 1
gene 1 9 22 0.28467 0 47 0.28467 1
gene 1 10 22 -0.227968 0 48 -0.227968 1
gene 1 11 22 0.348334 0 49 0.348334 1
gene 1 12 22 0.125456 0 50 0.125456 1
gene 1 13 22 -0.245347 0 51 -0.245347 1
gene 1 14 22 0.280112 0 52 0.280112 1
gene 1 15 22 0.367043 0 53 0.367043 1
gene 1 16 22 0.476129 0 54 0.476129 1
gene 1 17 22 0.167626 0 55 0.167626 1
gene 1 18 22 -0.328499 0 56 -0.328499 1
gene 1 19 22 -0.222246 0 57 -0.222246 1
gene 1 1 23 -0.803801 0 58 -0.803801 1
gene 1 2 23 -0.323387 0 59 -0.323387 1
gene 1 3 23 0.410988 0 60 0.410988 1
gene 1 4 23 0.202016 0 61 0.202016 1
gene 1 5 23 0.280328 0 62 0.280328 1
gene 1 6 23 -0.270054 0 63 -0.270054 1
gene 1 7 23 -0.0150351 0 64 -0.0150351 1
gene 1 8 23 0.261708 0 65 0.261708 1
gene 1 9 23 -0.138948 0 66 -0.138948 1
gene 1 10 23 0.97039 0 67 0.97039 1
gene 1 11 23 -0.0614947 0 68 -0.0614947 1
gene 1 12 23 0.422361 0 69 0.422361 0
gene 1 13 23 -0.436864 0 70 -0.436864 1
gene 1 14 23 -1.05781 0 71 -1.05781 1
gene 1 15 23 -0.102213 0 72 -0.102213 1
gene 1 16 23 -0.450708 0 73 -0.450708 1
gene 1 17 23 0.373787 0 74 0.373787 1
gene 1 18 23 0.162406 0 75 0.162406 1
gene 1 19 23 -0.864983 0 76 -0.864983 1
gene 1 8 24 0.553845 0 77 0.553845 1
gene 1 24 20 0.420048 0 78 0.420048 1
gene 1 15 26 -0.370102 0 85 -0.370102 1
gene 1 26 20 0.106475 0 86 0.106475 1
gene 1 22 20 0.166712 0 87 0.166712 1
gene 1 2 24 0.250525 0 91 0.250525 1
gene 1 8 28 -0.314176 0 93 -0.314176 1
gene 1 28 24 -0.0511437 0 94 -0.0511437 1
gene 1 6 24 0.358785 0 96 0.358785 1
gene 1 16 26 0.507394 0 99 0.507394 1
gene 1 13 24 0.0914833 0 100 0.0914833 1
gene 1 23 24 0.0281077 0 113 0.0281077 1
gene 1 13 32 -0.161532 0 116 -0.161532 1
gene 1 32 21 0.346502 0 117 0.346502 1
gene 1 10 37 0.554414 0 129 0.554414 1
gene 1 37 20 -0.0800297 0 130 -0.0800297 1
gene 1 17 39 0.169614 0 134 0.169614 1
gene 1 39 23 0.604378 0 135 0.604378 1
gene 1 15 43 -0.0188756 0 150 -0.0188756 1
gene 1 43 21 -0.237411 0 151 -0.237411 1
gene 1 3 43 0.310137 0 153 0.310137 1
gene 1 8 32 -0.0232131 0 154 -0.0232131 1
gene 1 2 39 -0.660788 0 178 -0.660788 1
gene 1 6 53 0.311731 0 191 0.311731 1
gene 1 53 22 0.36097 0 192 0.36097 1
gene 1 15 24 -0.127473 0 275 -0.127473 1
gene 1 32 32 -0.299947 1 283 -0.299947 1
gene 1 2 75 1.39747 0 301 1.39747 1
gene 1 75 21 -0.321884 0 302 -0.321884 1
gene 1 11 26 0.397244 0 317 0.397244 1
gene 1 13 26 0.434113 0 321 0.434113 1
gene 1 32 28 -0.272532 0 344 -0.272532 1
gene 1 9 90 0.293299 0 351 0.293299 1
gene 1 90 21 0.013774 0 352 0.013774 1
gene 1 12 95 0.364758 0 365 0.364758 1
gene 1 95 23 0.326975 0 366 0.326975 1
gene 1 12 104 0.195189 0 398 0.195189 1
gene 1 104 21 0.48794 0 399 0.48794 1
gene 1 24 104 0.925943 0 447 0.925943 1
gene 1 104 32 -0.246187 0 454 -0.246187 1
genomeend 1173
genomestart 1456
trait 1 0 0 0.862688 0.72224 0.481323 0.0296878 0 0 
node 1 1 1 1 0
node 2 1 1 1 0
node 3 1 1 1 0
node 4 1 1 1 0
node 5 1 1 1 0
node 6 1 1 1 0
node 7 1 1 1 0
node 8 1 1 1 0
node 9 1 1 1 0
node 10 1 1 1 0
node 11 1 1 1 0
node 12 1 1 1 0
node 13 1 1 1 0
node 14 1 1 1 0
node 15 1 1 1 0
node 16 1 1 1 0
node 17 1 1 1 0
node 18 1 1 1 0
node 19 1 1 3 0
node 20 1 0 2 0
node 21 1 0 2 0
node 22 1 0 2 0
node 23 1 0 2 0
node 24 1 0 0 0
node 26 1 0 0 0
node 37 1 0 0 0
node 46 1 0 0 0
node 86 1 0 0 0
gene 1 1 20 -0.747714 0 1 -0.747714 1
gene 1 2 20 0.316856 0 2 0.316856 1
gene 1 3 20 -0.302927 0 3 -0.302927 1
gene 1 4 20 0.354189 0 4 0.354189 1
gene 1 5 20 0.94535 0 5 0.94535 1
gene 1 6 20 0.992017 0 6 0.992017 1
gene 1 7 20 0.170083 0 7 0.170083 1
gene 1 8 20 0.363898 0 8 0.363898 1
gene 1 9 20 0.0336217 0 9 0.0336217 1
gene 1 10 20 -0.555934 0 10 -0.555934 1
gene 1 11 20 0.241008 0 11 0.241008 1
gene 1 12 20 2.07259 0 12 2.07259 1
gene 1 13 20 -1.06561 0 13 -1.06561 1
gene 1 14 20 -0.757951 0 14 -0.757951 1
gene 1 15 20 0.21517 0 15 0.21517 1
gene 1 16 20 -0.188009 0 16 -0.188009 1
gene 1 17 20 -0.182286 0 17 -0.182286 1
gene 1 18 20 0.0464646 0 18 0.0464646 1
gene 1 19 20 0.454138 0 19 0.454138 1
gene 1 1 21 -0.448146 0 20 -0.448146 1
gene 1 2 21 -0.711953 0 21 -0.711953 1
gene 1 3 21 -0.255815 0 22 -0.255815 1
gene 1 4 21 -0.963437 0 23 -0.963437 1
gene 1 5 21 -0.861306 0 24 -0.861306 1
gene 1 6 21 -0.661122 0 25 -0.661122 1
gene 1 7 21 -0.301111 0 26 -0.301111 1
gene 1 8 21 0.952368 0 27 0.952368 1
gene 1 9 21 -1.00126 0 28 -1.00126 1
gene 1 10 21 2.25478 0 29 2.25478 1
gene 1 11 21 -0.786846 0 30 -0.786846 1
gene 1 12 21 0.387527 0 31 0.387527 1
gene 1 13 21 -1.40616 0 32 -1.40616 1
gene 1 14 21 -1.70507 0 33 -1.70507 1
gene 1 15 21 0.185636 0 34 0.185636 1
gene 1 16 21 -0.156874 0 35 -0.156874 1
gene 1 17 21 -0.93104 0 36 -0.93104 1
gene 1 18 21 -0.351385 0 37 -0.351385 1
gene 1 19 21 -0.745744 0 38 -0.745744 1
gene 1 1 22 -0.221161 0 39 -0.221161 1
gene 1 2 22 0.942248 0 40 0.942248 1
gene 1 3 22 -0.496687 0 41 -0.496687 1
gene 1 4 22 0.0128654 0 42 0.0128654 1
gene 1 5 22 0.114977 0 43 0.114977 1
gene 1 6 22 0.197072 0 44 0.197072 1
gene 1 7 22 0.779868 0 45 0.779868 1
gene 1 8 22 0.680984 0 46 0.680984 1
gene 1 9 22 -0.638472 0 47 -0.638472 1
gene 1 10 22 0.497972 0 48 0.497972 1
gene 1 11 22 -0.278362 0 49 -0.278362 1
gene 1 12 22 0.0475785 0 50 0.0475785 1
gene 1 13 22 -0.337907 0 51 -0.337907 1
gene 1 14 22 -2.97577 0 52 -2.97577 1
gene 1 15 22 -0.373305 0 53 -0.373305 1
gene 1 16 22 -0.945433 0 54 -0.945433 1
gene 1 17 22 0.0466922 0 55 0.0466922 1
gene 1 18 22 0.691506 0 56 0.691506 0
gene 1 19 22 0.088556 0 57 0.088556 1
gene 1 1 23 1.81037 0 58 1.81037 1
gene 1 2 23 -0.943036 0 59 -0.943036 1
gene 1 3 23 -1.42312 0 60 -1.42312 1
gene 1 4 23 -0.0377012 0 61 -0.0377012 1
gene 1 5 23 -0.648548 0 62 -0.648548 1
gene 1 6 23 -0.641812 0 63 -0.641812 1
gene 1 7 23 -1.63131 0 64 -1.63131 1
gene 1 8 23 -0.913609 0 65 -0.913609 1
gene 1 9 23 1.03834 0 66 1.03834 1
gene 1 10 23 0.681101 0 67 0.681101 1
gene 1 11 23 -0.597865 0 68 -0.597865 1
gene 1 12 23 -1.85965 0 69 -1.85965 1
gene 1 13 23 -0.0534138 0 70 -0.0534138 1
gene 1 14 23 -0.485114 0 71 -0.485114 1
gene 1 15 23 0.297824 0 72 0.297824 1
gene 1 16 23 -0.837726 0 73 -0.837726 1
gene 1 17 23 -0.542239 0 74 -0.542239 1
gene 1 18 23 0.837013 0 75 0.837013 1
gene 1 19 23 1.48639 0 76 1.48639 1
gene 1 8 24 1.00251 0 77 1.00251 1
gene 1 24 20 -0.659671 0 78 -0.659671 1
gene 1 15 26 -0.0167621 0 85 -0.0167621 1
gene 1 26 20 -0.0324569 0 86 -0.0324569 1
gene 1 22 20 -0.699773 0 87 -0.699773 1
gene 1 2 24 -0.0403487 0 91 -0.0403487 1
gene 1 6 24 -0.138788 0 96 -0.138788 1
gene 1 10 37 -0.0439618 0 129 -0.0439618 1
gene 1 37 20 -0.421047 0 130 -0.421047 1
gene 1 24 37 0.430491 0 140 0.430491 1
gene 1 11 46 0.545828 0 161 0.545828 1
gene 1 46 20 0.733321 0 162 0.733321 1
gene 1 24 22 0.505798 0 219 0.505798 1
gene 1 46 23 -0.459922 0 251 -0.459922 1
gene 1 26 24 0.484788 0 305 0.484788 1
gene 1 7 37 0.378101 0 323 0.378101 1
gene 1 18 86 0.0360064 0 336 0.0360064 1
gene 1 86 22 -0.539978 0 337 -0.539978 1
gene 1 14 46 -0.408891 0 396 -0.408891 1
gene 1 46 46 0.346591 1 523 0.346591 1
genomeend 1456
genomestart 1629
trait 1 0.00919477 0 0.87127 0.714737 0.431038 0.118165 0 0.0576851 
node 1 1 1 1 0
node 2 1 1 1 0
node 3 1 1 1 0
node 4 1 1 1 0
node 5 1 1 1 0
node 6 1 1 1 0
node 7 1 1 1 0
node 8 1 1 1 0
node 9 1 1 1 0
node 10 1 1 1 0
node 11 1 1 1 0
node 12 1 1 1 0
node 13 1 1 1 0
node 14 1 1 1 0
node 15 1 1 1 0
node 16 1 1 1 0
node 17 1 1 1 0
node 18 1 1 1 0
node 19 1 1 3 0
node 20 1 0 2 0
node 21 1 0 2 0
node 22 1 0 2 0
node 23 1 0 2 0
node 24 1 0 0 0
node 26 1 0 0 0
node 37 1 0 0 0
node 46 1 0 0 0
node 86 1 0 0 0
gene 1 1 20 -0.59294 0 1 -0.59294 1
gene 1 2 20 -0.0331696 0 2 -0.0331696 1
gene 1 3 20 0.338428 0 3 0.338428 1
gene 1 4 20 0.335452 0 4 0.335452 1
gene 1 5 20 1.29167 0 5 1.29167 1
gene 1 6 20 0.668739 0 6 0.668739 1
gene 1 7 20 0.433031 0 7 0.433031 1
gene 1 8 20 0.424322 0 8 0.424322 1
gene 1 9 20 0.110098 0 9 0.110098 1
gene 1 10 20 -0.0904584 0 10 -0.0904584 1
gene 1 11 20 -0.0382728 0 11 -0.0382728 1
gene 1 12 20 1.90595 0 12 1.90595 1
gene 1 13 20 -0.0207883 0 13 -0.0207883 1
gene 1 14 20 -0.261813 0 14 -0.261813 1
gene 1 15 20 -0.0228111 0 15 -0.0228111 1
gene 1 16 20 0.118287 0 16 0.118287 1
gene 1 17 20 -0.0385213 0 17 -0.0385213 1
gene 1 18 20 -0.232715 0 18 -0.232715 1
gene 1 19 20 0.431854 0 19 0.431854 1
gene 1 1 21 -0.53122 0 20 -0.53122 1
gene 1 2 21 -0.103723 0 21 -0.103723 1
gene 1 3 21 0.0632915 0 22 0.0632915 1
gene 1 4 21 -0.137757 0 23 -0.137757 1
gene 1 5 21 -0.93585 0 24 -0.93585 1
gene 1 6 21 0.387835 0 25 0.387835 1
gene 1 7 21 -0.267401 0 26 -0.267401 1
gene 1 8 21 1.47889 0 27 1.47889 1
gene 1 9 21 -1.57252 0 28 -1.57252 1
gene 1 10 21 2.4892 0 29 2.4892 1
gene 1 11 21 -0.435185 0 30 -0.435185 1
gene 1 12 21 -0.00116491 0 31 -0.00116491 1
gene 1 13 21 -1.25821 0 32 -1.25821 1
gene 1 14 21 -1.4416 0 33 -1.4416 1
gene 1 15 21 0.170718 0 34 0.170718 1
gene 1 16 21 -0.0182077 0 35 -0.0182077 1
gene 1 17 21 -0.407535 0 36 -0.407535 1
gene 1 18 21 -0.298447 0 37 -0.298447 1
gene 1 19 21 -0.636001 0 38 -0.636001 1
gene 1 1 22 -0.369527 0 39 -0.369527 1
gene 1 2 22 0.885115 0 40 0.885115 1
gene 1 3 22 -0.460101 0 41 -0.460101 1
gene 1 4 22 0.311941 0 42 0.311941 1
gene 1 5 22 -0.111928 0 43 -0.111928 1
gene 1 6 22 -0.0145625 0 44 -0.0145625 1
gene 1 7 22 0.158155 0 45 0.158155 1
gene 1 8 22 0.211673 0 46 0.211673 1
gene 1 9 22 -0.251723 0 47 -0.251723 1
gene 1 10 22 0.891586 0 48 0.891586 1
gene 1 11 22 0.0375796 0 49 0.0375796 1
gene 1 12 22 -0.175367 0 50 -0.175367 1
gene 1 13 22 -0.494221 0 51 -0.494221 1
gene 1 14 22 -2.41914 0 52 -2.41914 1
gene 1 15 22 -0.174113 0 53 -0.174113 1
gene 1 16 22 -0.28884 0 54 -0.28884 1
gene 1 17 22 0.132274 0 55 0.132274 1
gene 1 18 22 0.341713 0 56 0.341713 1
gene 1 19 22 0.23212 0 57 0.23212 1
gene 1 1 23 1.47128 0 58 1.47128 1
gene 1 2 23 -1.13116 0 59 -1.13116 1
gene 1 3 23 -1.1032 0 60 -1.1032 1
gene 1 4 23 -0.177779 0 61 -0.177779 1
gene 1 5 23 0.111209 0 62 0.111209 1
gene 1 6 23 -0.078105 0 63 -0.078105 1
gene 1 7 23 -1.17893 0 64 -1.17893 1
gene 1 8 23 -0.756209 0 65 -0.756209 1
gene 1 9 23 0.603855 0 66 0.603855 1
gene 1 10 23 0.160943 0 67 0.160943 1
gene 1 11 23 -0.288531 0 68 -0.288531 1
gene 1 12 23 -2.40159 0 69 -2.40159 1
gene 1 13 23 0.422925 0 70 0.422925 1
gene 1 14 23 -0.7271 0 71 -0.7271 1
gene 1 15 23 0.2277 0 72 0.2277 1
gene 1 16 23 -0.0783751 0 73 -0.0783751 1
gene 1 17 23 -0.107062 0 74 -0.107062 1
gene 1 18 23 0.193252 0 75 0.193252 1
gene 1 19 23 1.32736 0 76 1.32736 1
gene 1 8 24 0.41276 0 77 0.41276 1
gene 1 24 20 -0.897474 0 78 -0.897474 1
gene 1 15 26 0.425598 0 85 0.425598 1
gene 1 26 20 -0.175728 0 86 -0.175728 1
gene 1 22 20 -0.659373 0 87 -0.659373 1
gene 1 2 24 -0.0150291 0 91 -0.0150291 1
gene 1 6 24 0.24906 0 96 0.24906 1
gene 1 10 37 0.252906 0 129 0.252906 1
gene 1 37 20 0.751588 0 130 0.751588 1
gene 1 24 37 0.452845 0 140 0.452845 1
gene 1 11 46 0.507004 0 161 0.507004 1
gene 1 46 20 0.53087 0 162 0.53087 1
gene 1 24 22 0.384601 0 219 0.384601 1
gene 1 46 23 0.315784 0 251 0.315784 1
gene 1 26 24 0.701165 0 305 0.701165 1
gene 1 7 37 -0.161149 0 323 -0.161149 1
gene 1 18 86 0.705238 0 336 0.705238 1
gene 1 86 22 0.143135 0 337 0.143135 1
gene 1 14 46 -0.276128 0 396 -0.276128 1
gene 1 12 46 0.533513 0 397 0.533513 1
gene 1 19 37 0.0804676 0 431 0.0804676 1
genomeend 1629
genomestart 1765
trait 1 0.617006 0.388705 0.26681 0.214222 0.791466 0.317633 0.281039 0.55241 
node 1 1 1 1 0
node 2 1 1 1 0
node 3 1 1 1 0
node 4 1 1 1 0
node 5 1 1 1 0
node 6 1 1 1 0
node 7 1 1 1 0
node 8 1 1 1 0
node 9 1 1 1 0
node 10 1 1 1 0
node 11 1 1 1 0
node 12 1 1 1 0
node 13 1 1 1 0
node 14 1 1 1 0
node 15 1 1 1 0
node 16 1 1 1 0
node 17 1 1 1 0
node 18 1 1 1 0
node 19 1 1 3 0
node 20 1 0 2 0
node 21 1 0 2 0
node 22 1 0 2 0
node 23 1 0 2 0
node 24 1 0 0 0
node 26 1 0 0 0
node 28 1 0 0 0
node 32 1 0 0 0
node 37 1 0 0 0
node 39 1 0 0 0
node 43 1 0 0 0
node 53 1 0 0 0
node 75 1 0 0 0
node 90 1 0 0 0
node 95 1 0 0 0
node 104 1 0 0 0
node 129 1 0 0 0
node 132 1 0 0 0
gene 1 1 20 0.131632 0 1 0.131632 1
gene 1 2 20 -0.0707502 0 2 -0.0707502 1
gene 1 3 20 -0.187304 0 3 -0.187304 1
gene 1 4 20 -0.596827 0 4 -0.596827 1
gene 1 5 20 0.475895 0 5 0.475895 1
gene 1 6 20 -0.398739 0 6 -0.398739 1
gene 1 7 20 1.45366 0 7 1.45366 1
gene 1 8 20 1.24834 0 8 1.24834 0
gene 1 9 20 0.751657 0 9 0.751657 1
gene 1 10 20 0.309825 0 10 0.309825 1
gene 1 11 20 -0.314363 0 11 -0.314363 1
gene 1 12 20 -0.257903 0 12 -0.257903 1
gene 1 13 20 0.534593 0 13 0.534593 1
gene 1 14 20 -0.131265 0 14 -0.131265 1
gene 1 15 20 -0.0589593 0 15 -0.0589593 1
gene 1 16 20 0.03839 0 16 0.03839 1
gene 1 17 20 0.232183 0 17 0.232183 1
gene 1 18 20 -0.241851 0 18 -0.241851 1
gene 1 19 20 0.0103055 0 19 0.0103055 1
gene 1 1 21 -0.671668 0 20 -0.671668 1
gene 1 2 21 -0.0257327 0 21 -0.0257327 0
gene 1 3 21 1.65511 0 22 1.65511 1
gene 1 4 21 0.629241 0 23 0.629241 1
gene 1 5 21 0.608179 0 24 0.608179 1
gene 1 6 21 -1.30381 0 25 -1.30381 1
gene 1 7 21 -0.0326319 0 26 -0.0326319 1
gene 1 8 21 0.135527 0 27 0.135527 1
gene 1 9 21 -0.058669 0 28 -0.058669 1
gene 1 10 21 0.434486 0 29 0.434486 1
gene 1 11 21 0.145354 0 30 0.145354 1
gene 1 12 21 0.313022 0 31 0.313022 0
gene 1 13 21 0.0307066 0 32 0.0307066 0
gene 1 14 21 0.534034 0 33 0.534034 1
gene 1 15 21 0.777366 0 34 0.777366 1
gene 1 16 21 0.372998 0 35 0.372998 1
gene 1 17 21 0.0778829 0 36 0.0778829 1
gene 1 18 21 -0.430574 0 37 -0.430574 1
gene 1 19 21 0.954906 0 38 0.954906 1
gene 1 1 22 0.39466 0 39 0.39466 1
gene 1 2 22 -0.204266 0 40 -0.204266 1
gene 1 3 22 0.846089 0 41 0.846089 1
gene 1 4 22 0.700473 0 42 0.700473 1
gene 1 5 22 -0.087645 0 43 -0.087645 1
gene 1 6 22 -0.214298 0 44 -0.214298 1
gene 1 7 22 0.274378 0 45 0.274378 1
gene 1 8 22 0.395681 0 46 0.395681 1
gene 1 9 22 -0.0962914 0 47 -0.0962914 1
gene 1 10 22 -0.112895 0 48 -0.112895 1
gene 1 11 22 -0.119264 0 49 -0.119264 1
gene 1 12 22 0.0943597 0 50 0.0943597 1
gene 1 13 22 -0.479498 0 51 -0.479498 1
gene 1 14 22 -0.0705889 0 52 -0.0705889 1
gene 1 15 22 0.136637 0 53 0.136637 1
gene 1 16 22 0.133275 0 54 0.133275 1
gene 1 17 22 -0.127673 0 55 -0.127673 1
gene 1 18 22 -0.0614855 0 56 -0.0614855 1
gene 1 19 22 -0.562173 0 57 -0.562173 1
gene 1 1 23 -0.342794 0 58 -0.342794 1
gene 1 2 23 0.0610842 0 59 0.0610842 1
gene 1 3 23 0.284823 0 60 0.284823 1
gene 1 4 23 0.384298 0 61 0.384298 1
gene 1 5 23 0.632077 0 62 0.632077 1
gene 1 6 23 0.46798 0 63 0.46798 1
gene 1 7 23 -0.157636 0 64 -0.157636 1
gene 1 8 23 -0.216105 0 65 -0.216105 1
gene 1 9 23 -0.447499 0 66 -0.447499 1
gene 1 10 23 0.834263 0 67 0.834263 1
gene 1 11 23 -0.444059 0 68 -0.444059 1
gene 1 12 23 -0.0926345 0 69 -0.0926345 0
gene 1 13 23 -0.331053 0 70 -0.331053 1
gene 1 14 23 -0.628617 0 71 -0.628617 1
gene 1 15 23 0.0318568 0 72 0.0318568 1
gene 1 16 23 -0.0836574 0 73 -0.0836574 1
gene 1 17 23 0.774745 0 74 0.774745 1
gene 1 18 23 0.499634 0 75 0.499634 1
gene 1 19 23 -1.18298 0 76 -1.18298 1
gene 1 8 24 -0.0418148 0 77 -0.0418148 1
gene 1 24 20 0.162582 0 78 0.162582 1
gene 1 15 26 0.0413454 0 85 0.0413454 1
gene 1 26 20 0.0222296 0 86 0.0222296 1
gene 1 22 20 0.199237 0 87 0.199237 1
gene 1 2 24 0.269072 0 91 0.269072 1
gene 1 8 28 -0.406906 0 93 -0.406906 1
gene 1 28 24 -0.369061 0 94 -0.369061 1
gene 1 6 24 -0.267594 0 96 -0.267594 1
gene 1 16 26 0.299348 0 99 0.299348 1
gene 1 13 24 -0.15653 0 100 -0.15653 1
gene 1 23 24 0.0730978 0 113 0.0730978 1
gene 1 13 32 0.113288 0 116 0.113288 1
gene 1 32 21 0.163056 0 117 0.163056 1
gene 1 10 37 1.00561 0 129 1.00561 1
gene 1 37 20 -0.510053 0 130 -0.510053 1
gene 1 17 39 -0.0199767 0 134 -0.0199767 1
gene 1 39 23 0.615851 0 135 0.615851 1
gene 1 15 43 0.00589549 0 150 0.00589549 1
gene 1 43 21 -0.0175984 0 151 -0.0175984 1
gene 1 3 43 0.0804074 0 153 0.0804074 1
gene 1 8 32 -0.198858 0 154 -0.198858 1
gene 1 2 39 -0.0635412 0 178 -0.0635412 1
gene 1 6 53 0.227565 0 191 0.227565 1
gene 1 53 22 -0.158585 0 192 -0.158585 1
gene 1 15 24 -0.131275 0 275 -0.131275 1
gene 1 32 32 -0.42992 1 283 -0.42992 1
gene 1 2 75 0.818538 0 301 0.818538 1
gene 1 75 21 -0.237726 0 302 -0.237726 1
gene 1 11 26 0.134491 0 317 0.134491 1
gene 1 13 26 0.243098 0 321 0.243098 1
gene 1 32 28 0.150972 0 344 0.150972 1
gene 1 9 90 -0.169697 0 351 -0.169697 1
gene 1 90 21 0.0617119 0 352 0.0617119 1
gene 1 12 95 0.696514 0 365 0.696514 1
gene 1 95 23 0.369676 0 366 0.369676 1
gene 1 12 104 1 0 398 0 1
gene 1 104 21 0.236842 0 399 0.166412 1
gene 1 24 104 0.0333314 0 447 0.0333314 1
gene 1 104 32 -0.0592645 0 454 -0.0592645 1
gene 1 18 53 0.652141 0 491 0.652141 1
gene 1 15 129 1 0 492 0 1
gene 1 129 26 0.0124036 0 493 0 1
gene 1 17 132 1 0 501 0 1
gene 1 132 20 0.0414252 0 502 0 1
genomeend 1765
genomestart 1772
trait 1 0.274326 0.46037 0.34335 0.765316 0.824106 0.404433 0.0375943 0.145186 
node 1 1 1 1 0
node 2 1 1 1 0
node 3 1 1 1 0
node 4 1 1 1 0
node 5 1 1 1 0
node 6 1 1 1 0
node 7 1 1 1 0
node 8 1 1 1 0
node 9 1 1 1 0
node 10 1 1 1 0
node 11 1 1 1 0
node 12 1 1 1 0
node 13 1 1 1 0
node 14 1 1 1 0
node 15 1 1 1 0
node 16 1 1 1 0
node 17 1 1 1 0
node 18 1 1 1 0
node 19 1 1 3 0
node 20 1 0 2 0
node 21 1 0 2 0
node 22 1 0 2 0
node 23 1 0 2 0
node 24 1 0 0 0
node 26 1 0 0 0
node 28 1 0 0 0
node 32 1 0 0 0
node 34 1 0 0 0
node 36 1 0 0 0
node 37 1 0 0 0
node 39 1 0 0 0
node 43 1 0 0 0
node 46 1 0 0 0
node 53 1 0 0 0
node 54 1 0 0 0
node 60 1 0 0 0
node 66 1 0 0 0
node 71 1 0 0 0
node 86 1 0 0 0
node 95 1 0 0 0
node 101 1 0 0 0
node 115 1 0 0 0
node 119 1 0 0 0
node 125 1 0 0 0
node 128 1 0 0 0
node 134 1 0 0 0
gene 1 1 20 0.298863 0 1 0.298863 1
gene 1 2 20 -0.0489966 0 2 -0.0489966 1
gene 1 3 20 0.245683 0 3 0.245683 1
gene 1 4 20 0.218858 0 4 0.218858 1
gene 1 5 20 1.08058 0 5 1.08058 1
gene 1 6 20 0.148476 0 6 0.148476 1
gene 1 7 20 0.14483 0 7 0.14483 1
gene 1 8 20 0.437233 0 8 0.437233 1
gene 1 9 20 0.818958 0 9 0.818958 1
gene 1 10 20 -0.228811 0 10 -0.228811 1
gene 1 11 20 -1.49298 0 11 -1.49298 0
gene 1 12 20 1.08216 0 12 1.08216 1
gene 1 13 20 0.449738 0 13 0.449738 1
gene 1 14 20 -0.436536 0 14 -0.436536 1
gene 1 15 20 0.293252 0 15 0.293252 1
gene 1 16 20 0.535941 0 16 0.535941 1
gene 1 17 20 -0.149447 0 17 -0.149447 1
gene 1 18 20 -0.191431 0 18 -0.191431 1
gene 1 19 20 1.03099 0 19 1.03099 1
gene 1 1 21 -0.113798 0 20 -0.113798 1
gene 1 2 21 -0.359279 0 21 -0.359279 0
gene 1 3 21 0.672734 0 22 0.672734 0
gene 1 4 21 -2.44594 0 23 -2.44594 1
gene 1 5 21 0.706834 0 24 0.706834 1
gene 1 6 21 -0.988672 0 25 -0.988672 1
gene 1 7 21 0.111809 0 26 0.111809 1
gene 1 8 21 0.185996 0 27 0.185996 1
gene 1 9 21 -0.182857 0 28 -0.182857 1
gene 1 10 21 -0.669359 0 29 -0.669359 1
gene 1 11 21 -0.555373 0 30 -0.555373 1
gene 1 12 21 -0.137932 0 31 -0.137932 1
gene 1 13 21 -0.773923 0 32 -0.773923 0
gene 1 14 21 0.149203 0 33 0.149203 1
gene 1 15 21 -0.507762 0 34 -0.507762 1
gene 1 16 21 1.17323 0 35 1.17323 1
gene 1 17 21 0.821851 0 36 0.821851 1
gene 1 18 21 -1.20818 0 37 -1.20818 1
gene 1 19 21 0.0522748 0 38 0.0522748 1
gene 1 1 22 -0.256277 0 39 -0.256277 1
gene 1 2 22 1.9647 0 40 1.9647 1
gene 1 3 22 0.4095 0 41 0.4095 1
gene 1 4 22 -1.11114 0 42 -1.11114 1
gene 1 5 22 -0.901261 0 43 -0.901261 1
gene 1 6 22 0.00972772 0 44 0.00972772 1
gene 1 7 22 0.313382 0 45 0.313382 1
gene 1 8 22 0.257994 0 46 0.257994 1
gene 1 9 22 0.382637 0 47 0.382637 1
gene 1 10 22 -0.320845 0 48 -0.320845 1
gene 1 11 22 -0.379124 0 49 -0.379124 1
gene 1 12 22 -0.18124 0 50 -0.18124 1
gene 1 13 22 0.117831 0 51 0.117831 1
gene 1 14 22 0.663591 0 52 0.663591 1
gene 1 15 22 0.267909 0 53 0.267909 1
gene 1 16 22 0.400934 0 54 0.400934 1
gene 1 17 22 -0.929225 0 55 -0.929225 1
gene 1 18 22 -0.417713 0 56 -0.417713 1
gene 1 19 22 -0.257366 0 57 -0.257366 1
gene 1 1 23 -0.162845 0 58 -0.162845 1
gene 1 2 23 0.249609 0 59 0.249609 1
gene 1 3 23 -0.533429 0 60 -0.533429 1
gene 1 4 23 -0.963487 0 61 -0.963487 1
gene 1 5 23 -0.743539 0 62 -0.743539 1
gene 1 6 23 -0.421046 0 63 -0.421046 1
gene 1 7 23 0.192516 0 64 0.192516 1
gene 1 8 23 -0.191861 0 65 -0.191861 1
gene 1 9 23 -0.119782 0 66 -0.119782 1
gene 1 10 23 -1.73634 0 67 -1.73634 1
gene 1 11 23 -0.069939 0 68 -0.069939 1
gene 1 12 23 -0.760758 0 69 -0.760758 1
gene 1 13 23 0.524248 0 70 0.524248 1
gene 1 14 23 -0.498378 0 71 -0.498378 1
gene 1 15 23 -0.357856 0 72 -0.357856 1
gene 1 16 23 0.656755 0 73 0.656755 1
gene 1 17 23 0.154692 0 74 0.154692 0
gene 1 18 23 -0.493723 0 75 -0.493723 1
gene 1 19 23 0.807363 0 76 0.807363 1
gene 1 8 24 -1.14489 0 77 -1.14489 0
gene 1 24 20 -0.496303 0 78 -0.496303 1
gene 1 15 26 0.526711 0 85 0.526711 1
gene 1 26 20 -0.967025 0 86 -0.967025 1
gene 1 22 20 0.27435 0 87 0.27435 1
gene 1 2 24 0.3138 0 91 0.3138 1
gene 1 8 28 0.193061 0 93 0.193061 0
gene 1 28 24 0.392842 0 94 0.392842 1
gene 1 6 24 0.258031 0 96 0.258031 1
gene 1 16 26 0.118002 0 99 0.118002 1
gene 1 13 24 -0.781782 0 100 -0.781782 1
gene 1 23 24 -1.49559 0 113 -1.49559 1
gene 1 13 32 0.954735 0 116 0.954735 1
gene 1 32 21 0.86575 0 117 0.86575 1
gene 1 11 34 -0.543962 0 122 -0.543962 1
gene 1 34 21 0.0316236 0 123 0.0316236 1
gene 1 9 36 0.895348 0 127 0.895348 1
gene 1 36 20 -0.474473 0 128 -0.474473 1
gene 1 10 37 -0.172706 0 129 -0.172706 1
gene 1 37 20 1.39047 0 130 1.39047 1
gene 1 17 39 0.338213 0 134 0.338213 1
gene 1 39 23 -0.266291 0 135 -0.266291 1
gene 1 24 37 -0.0988897 0 140 -0.0988897 1
gene 1 19 24 -0.616124 0 144 -0.616124 1
gene 1 15 43 -0.312076 0 150 -0.312076 1
gene 1 43 21 0.363111 0 151 0.363111 1
gene 1 3 43 -0.303337 0 153 -0.303337 1
gene 1 8 32 -1.17528 0 154 -1.17528 1
gene 1 11 46 0.317939 0 161 0.317939 1
gene 1 46 20 -0.659094 0 162 -0.659094 1
gene 1 2 39 -0.422147 0 178 -0.422147 1
gene 1 6 53 -0.319081 0 191 -0.319081 1
gene 1 53 22 -0.426164 0 192 -0.426164 1
gene 1 39 34 -0.563872 0 193 -0.563872 1
gene 1 16 54 -1.25637 0 194 -1.25637 1
gene 1 54 26 0.50163 0 195 0.50163 1
gene 1 6 43 0.437056 0 210 0.437056 1
gene 1 18 32 -0.414788 0 213 -0.414788 1
gene 1 17 60 -1.09658 0 217 -1.09658 1
gene 1 60 22 -0.879359 0 218 -0.879359 1
gene 1 24 22 -0.658601 0 219 -0.658601 1
gene 1 20 20 -0.921923 1 221 -0.921923 1
gene 1 1 43 0.871609 0 234 0.871609 1
gene 1 46 23 0.693052 0 251 0.693052 1
gene 1 10 66 0.246711 0 266 0.246711 1
gene 1 66 21 0.38923 0 267 0.38923 1
gene 1 8 71 -0.312258 0 288 -0.312258 1
gene 1 71 28 0.347376 0 289 0.347376 1
gene 1 15 53 -0.289395 0 295 -0.289395 1
gene 1 26 24 0.995069 0 305 0.995069 1
gene 1 7 37 -0.0983758 0 323 -0.0983758 1
gene 1 18 86 0.878959 0 336 0.878959 1
gene 1 86 22 -0.41014 0 337 -0.41014 1
gene 1 53 23 -0.489056 0 338 -0.489056 1
gene 1 12 95 -0.174483 0 365 -0.174483 1
gene 1 95 23 0.17245 0 366 0.17245 1
gene 1 2 101 0.385089 0 383 0.385089 1
gene 1 101 21 0.551233 0 384 0.551233 1
gene 1 14 46 0.271873 0 396 0.271873 1
gene 1 12 46 -0.291075 0 397 -0.291075 1
gene 1 36 34 0.0164996 0 409 0.0164996 1
gene 1 10 54 0.314092 0 415 0.314092 1
gene 1 15 54 -0.25498 0 422 -0.25498 1
gene 1 19 37 0.213643 0 431 0.213643 1
gene 1 28 43 0.651429 0 441 0.651429 1
gene 1 4 43 0.400881 0 444 0.400881 1
gene 1 1 115 -0.208869 0 445 -0.208869 1
gene 1 115 22 0.304967 0 446 0.304967 1
gene 1 3 119 -0.394808 0 460 -0.394808 1
gene 1 119 21 0.210515 0 461 0.210515 1
gene 1 16 125 0.352313 0 476 0.352313 1
gene 1 125 54 -0.388572 0 477 -0.388572 1
gene 1 20 128 -0.00661473 1 489 -0.00661473 1
gene 1 128 20 0.0128729 0 490 0.0128729 1
gene 1 13 134 2.0391 0 509 2.0391 1
gene 1 134 21 0.239062 0 510 0.239062 1
gene 1 18 34 0.301032 0 524 0.301032 1
genomeend 1772
genomestart 1777
trait 1 0.0564425 0.0823827 0.00870607 0.282219 0.862466 0.00794088 0.22563 0.433928 
node 1 1 1 1 0
node 2 1 1 1 0
node 3 1 1 1 0
node 4 1 1 1 0
node 5 1 1 1 0
node 6 1 1 1 0
node 7 1 1 1 0
node 8 1 1 1 0
node 9 1 1 1 0
node 10 1 1 1 0
node 11 1 1 1 0
node 12 1 1 1 0
node 13 1 1 1 0
node 14 1 1 1 0
node 15 1 1 1 0
node 16 1 1 1 0
node 17 1 1 1 0
node 18 1 1 1 0
node 19 1 1 3 0
node 20 1 0 2 0
node 21 1 0 2 0
node 22 1 0 2 0
node 23 1 0 2 0
node 24 1 0 0 0
node 26 1 0 0 0
node 28 1 0 0 0
node 32 1 0 0 0
node 37 1 0 0 0
node 39 1 0 0 0
node 43 1 0 0 0
node 53 1 0 0 0
node 60 1 0 0 0
node 66 1 0 0 0
node 68 1 0 0 0
node 81 1 0 0 0
node 103 1 0 0 0
node 117 1 0 0 0
node 123 1 0 0 0
gene 1 1 20 0.460385 0 1 0.460385 1
gene 1 2 20 0.195439 0 2 0.195439 1
gene 1 3 20 -1.07042 0 3 -1.07042 1
gene 1 4 20 -0.186246 0 4 -0.186246 1
gene 1 5 20 -0.774956 0 5 -0.774956 1
gene 1 6 20 -0.334867 0 6 -0.334867 1
gene 1 7 20 -0.3928 0 7 -0.3928 1
gene 1 8 20 0.0808466 0 8 0.0808466 0
gene 1 9 20 -0.959033 0 9 -0.959033 1
gene 1 10 20 -0.122011 0 10 -0.122011 0
gene 1 11 20 -0.0909796 0 11 -0.0909796 1
gene 1 12 20 -0.484875 0 12 -0.484875 1
gene 1 13 20 0.0387802 0 13 0.0387802 1
gene 1 14 20 -0.317304 0 14 -0.317304 1
gene 1 15 20 -0.273808 0 15 -0.273808 1
gene 1 16 20 -0.259384 0 16 -0.259384 1
gene 1 17 20 -0.333607 0 17 -0.333607 1
gene 1 18 20 0.142563 0 18 0.142563 1
gene 1 19 20 -0.218282 0 19 -0.218282 1
gene 1 1 21 -1.01929 0 20 -1.01929 1
gene 1 2 21 -0.280008 0 21 -0.280008 1
gene 1 3 21 0.280652 0 22 0.280652 1
gene 1 4 21 -0.0358892 0 23 -0.0358892 1
gene 1 5 21 0.1426 0 24 0.1426 1
gene 1 6 21 -0.266349 0 25 -0.266349 1
gene 1 7 21 0.621164 0 26 0.621164 1
gene 1 8 21 0.547095 0 27 0.547095 1
gene 1 9 21 -0.512572 0 28 -0.512572 1
gene 1 10 21 -0.714383 0 29 -0.714383 1
gene 1 11 21 0.882953 0 30 0.882953 1
gene 1 12 21 0.00112537 0 31 0.00112537 1
gene 1 13 21 -0.473613 0 32 -0.473613 0
gene 1 14 21 -0.945172 0 33 -0.945172 1
gene 1 15 21 -0.129667 0 34 -0.129667 0
gene 1 16 21 -0.0227837 0 35 -0.0227837 1
gene 1 17 21 0.316117 0 36 0.316117 1
gene 1 18 21 0.52382 0 37 0.52382 0
gene 1 19 21 -0.848724 0 38 -0.848724 1
gene 1 1 22 1.00041 0 39 1.00041 1
gene 1 2 22 -0.72391 0 40 -0.72391 1
gene 1 3 22 -0.434833 0 41 -0.434833 1
gene 1 4 22 0.318737 0 42 0.318737 1
gene 1 5 22 -0.0630157 0 43 -0.0630157 1
gene 1 6 22 0.119735 0 44 0.119735 0
gene 1 7 22 0.405319 0 45 0.405319 1
gene 1 8 22 -0.428241 0 46 -0.428241 1
gene 1 9 22 -0.0861722 0 47 -0.0861722 1
gene 1 10 22 -0.044371 0 48 -0.044371 1
gene 1 11 22 0.0315029 0 49 0.0315029 1
gene 1 12 22 0.732346 0 50 0.732346 1
gene 1 13 22 0.19198 0 51 0.19198 1
gene 1 14 22 0.0727885 0 52 0.0727885 1
gene 1 15 22 0.116182 0 53 0.116182 1
gene 1 16 22 -0.482117 0 54 -0.482117 1
gene 1 17 22 0.611789 0 55 0.611789 1
gene 1 18 22 -0.315917 0 56 -0.315917 1
gene 1 19 22 0.536597 0 57 0.536597 1
gene 1 1 23 -0.693122 0 58 -0.693122 1
gene 1 2 23 -0.495186 0 59 -0.495186 1
gene 1 3 23 -1.0191 0 60 -1.0191 1
gene 1 4 23 0.405813 0 61 0.405813 1
gene 1 5 23 0.825697 0 62 0.825697 1
gene 1 6 23 -0.552543 0 63 -0.552543 1
gene 1 7 23 -0.0189325 0 64 -0.0189325 1
gene 1 8 23 -0.281214 0 65 -0.281214 1
gene 1 9 23 0.631693 0 66 0.631693 1
gene 1 10 23 -0.0873552 0 67 -0.0873552 1
gene 1 11 23 -0.530354 0 68 -0.530354 1
gene 1 12 23 0.969642 0 69 0.969642 1
gene 1 13 23 0.283721 0 70 0.283721 0
gene 1 14 23 -0.453439 0 71 -0.453439 1
gene 1 15 23 -0.0294013 0 72 -0.0294013 1
gene 1 16 23 -0.151713 0 73 -0.151713 1
gene 1 17 23 -0.870844 0 74 -0.870844 0
gene 1 18 23 1.30858 0 75 1.30858 1
gene 1 19 23 0.738707 0 76 0.738707 1
gene 1 8 24 0.441817 0 77 0.441817 0
gene 1 24 20 -0.202493 0 78 -0.202493 1
gene 1 15 26 0.068916 0 85 0.068916 1
gene 1 26 20 0.327258 0 86 0.327258 1
gene 1 22 20 0.123507 0 87 0.123507 1
gene 1 2 24 0.29944 0 91 0.29944 1
gene 1 8 28 1.52277 0 93 1.52277 1
gene 1 28 24 -0.184588 0 94 -0.184588 1
gene 1 6 24 0.940881 0 96 0.940881 1
gene 1 16 26 0.707091 0 99 0.707091 0
gene 1 13 24 -0.0448096 0 100 -0.0448096 1
gene 1 23 24 0.330128 0 113 0.330128 1
gene 1 13 32 0.57851 0 116 0.57851 1
gene 1 32 21 -0.792324 0 117 -0.792324 1
gene 1 10 37 -0.109321 0 129 -0.109321 1
gene 1 37 20 0.0655153 0 130 0.0655153 1
gene 1 17 39 -0.483936 0 134 -0.483936 1
gene 1 39 23 0.685714 0 135 0.685714 1
gene 1 15 43 -0.0589881 0 150 -0.0589881 1
gene 1 43 21 -0.438922 0 151 -0.438922 1
gene 1 3 43 -0.669319 0 153 -0.669319 1
gene 1 8 32 -0.922288 0 154 -0.922288 1
gene 1 2 39 -0.658617 0 178 -0.658617 1
gene 1 6 53 0.440761 0 191 0.440761 1
gene 1 53 22 -0.49098 0 192 -0.49098 1
gene 1 6 43 0.276998 0 210 0.276998 0
gene 1 17 60 0.621946 0 217 0.621946 1
gene 1 60 22 0.718014 0 218 0.718014 1
gene 1 20 20 -0.115285 1 221 -0.115285 1
gene 1 1 43 0.419682 0 234 0.419682 1
gene 1 15 37 0.00790733 0 261 0.00790733 1
gene 1 10 66 -0.8568 0 266 -0.8568 1
gene 1 66 21 -0.232592 0 267 -0.232592 1
gene 1 18 32 0.175837 0 271 0.175837 1
gene 1 5 68 0.203632 0 277 0.203632 1
gene 1 68 20 0.150416 0 278 0.150416 1
gene 1 39 60 -0.0974596 0 322 -0.0974596 1
gene 1 16 81 -0.00245419 0 326 -0.00245419 1
gene 1 81 26 -0.431613 0 327 -0.431613 1
gene 1 24 24 0.314115 1 393 0.314115 1
gene 1 18 103 -0.074449 0 394 -0.074449 1
gene 1 103 21 -0.0132589 0 395 -0.0132589 1
gene 1 5 32 -0.752004 0 400 -0.752004 1
gene 1 6 117 0.746114 0 456 0.746114 1
gene 1 117 43 -0.570085 0 457 -0.570085 1
gene 1 13 123 1.12459 0 472 1.12459 1
gene 1 123 23 0.245059 0 473 0.245059 1
genomeend 1777
genomestart 1781
trait 1 0.621481 0.383493 0.260942 0.202091 0.791491 0.294992 0.261693 0.552352 
node 1 1 1 1 0
node 2 1 1 1 0
node 3 1 1 1 0
node 4 1 1 1 0
node 5 1 1 1 0
node 6 1 1 1 0
node 7 1 1 1 0
node 8 1 1 1 0
node 9 1 1 1 0
node 10 1 1 1 0
node 11 1 1 1 0
node 12 1 1 1 0
node 13 1 1 1 0
node 14 1 1 1 0
node 15 1 1 1 0
node 16 1 1 1 0
node 17 1 1 1 0
node 18 1 1 1 0
node 19 1 1 3 0
node 20 1 0 2 0
node 21 1 0 2 0
node 22 1 0 2 0
node 23 1 0 2 0
node 24 1 0 0 0
node 26 1 0 0 0
node 28 1 0 0 0
node 32 1 0 0 0
node 37 1 0 0 0
node 39 1 0 0 0
node 43 1 0 0 0
node 53 1 0 0 0
node 75 1 0 0 0
node 90 1 0 0 0
node 95 1 0 0 0
node 104 1 0 0 0
node 129 1 0 0 0
node 132 1 0 0 0
gene 1 1 20 0.00748314 0 1 0.00748314 1
gene 1 2 20 -0.0707502 0 2 -0.0707502 1
gene 1 3 20 -0.187304 0 3 -0.187304 1
gene 1 4 20 -0.67888 0 4 -0.67888 1
gene 1 5 20 0.475895 0 5 0.475895 1
gene 1 6 20 -0.398739 0 6 -0.398739 1
gene 1 7 20 1.45366 0 7 1.45366 1
gene 1 8 20 1.24834 0 8 1.24834 0
gene 1 9 20 0.751657 0 9 0.751657 1
gene 1 10 20 0.151914 0 10 0.151914 1
gene 1 11 20 -0.314363 0 11 -0.314363 1
gene 1 12 20 -0.257903 0 12 -0.257903 1
gene 1 13 20 0.534593 0 13 0.534593 1
gene 1 14 20 -0.131265 0 14 -0.131265 1
gene 1 15 20 -0.069977 0 15 -0.069977 1
gene 1 16 20 0.0826749 0 16 0.0826749 1
gene 1 17 20 0.227095 0 17 0.227095 1
gene 1 18 20 -0.259525 0 18 -0.259525 1
gene 1 19 20 0.0103055 0 19 0.0103055 1
gene 1 1 21 -0.671668 0 20 -0.671668 1
gene 1 2 21 0.111261 0 21 0.111261 1
gene 1 3 21 1.65511 0 22 1.65511 1
gene 1 4 21 0.629241 0 23 0.629241 1
gene 1 5 21 0.70687 0 24 0.70687 1
gene 1 6 21 -1.30381 0 25 -1.30381 1
gene 1 7 21 -0.0326319 0 26 -0.0326319 1
gene 1 8 21 0.135527 0 27 0.135527 1
gene 1 9 21 -0.058669 0 28 -0.058669 0
gene 1 10 21 0.4091 0 29 0.4091 1
gene 1 11 21 0.145354 0 30 0.145354 1
gene 1 12 21 0.313022 0 31 0.313022 1
gene 1 13 21 0.0307066 0 32 0.0307066 0
gene 1 14 21 0.442611 0 33 0.442611 1
gene 1 15 21 0.851064 0 34 0.851064 0
gene 1 16 21 0.372998 0 35 0.372998 1
gene 1 17 21 0.201742 0 36 0.201742 1
gene 1 18 21 -0.430574 0 37 -0.430574 1
gene 1 19 21 0.954906 0 38 0.954906 1
gene 1 1 22 0.39466 0 39 0.39466 1
gene 1 2 22 -0.204266 0 40 -0.204266 1
gene 1 3 22 0.571696 0 41 0.571696 1
gene 1 4 22 0.746124 0 42 0.746124 1
gene 1 5 22 -0.087645 0 43 -0.087645 1
gene 1 6 22 -0.264084 0 44 -0.264084 0
gene 1 7 22 0.187662 0 45 0.187662 1
gene 1 8 22 0.395681 0 46 0.395681 1
gene 1 9 22 -0.0962914 0 47 -0.0962914 1
gene 1 10 22 -0.112895 0 48 -0.112895 1
gene 1 11 22 -0.214414 0 49 -0.214414 1
gene 1 12 22 0.0498281 0 50 0.0498281 1
gene 1 13 22 -0.479498 0 51 -0.479498 1
gene 1 14 22 -0.0705889 0 52 -0.0705889 1
gene 1 15 22 0.136637 0 53 0.136637 1
gene 1 16 22 0.133275 0 54 0.133275 1
gene 1 17 22 -0.127673 0 55 -0.127673 1
gene 1 18 22 -0.0614855 0 56 -0.0614855 1
gene 1 19 22 -0.562173 0 57 -0.562173 1
gene 1 1 23 -0.342794 0 58 -0.342794 1
gene 1 2 23 0.0552518 0 59 0.0552518 1
gene 1 3 23 0.284823 0 60 0.284823 1
gene 1 4 23 0.384298 0 61 0.384298 1
gene 1 5 23 0.632077 0 62 0.632077 1
gene 1 6 23 0.46798 0 63 0.46798 1
gene 1 7 23 -0.157636 0 64 -0.157636 1
gene 1 8 23 -0.216105 0 65 -0.216105 1
gene 1 9 23 -0.447499 0 66 -0.447499 1
gene 1 10 23 0.885722 0 67 0.885722 1
gene 1 11 23 -0.819436 0 68 -0.819436 1
gene 1 12 23 0.082382 0 69 0.082382 1
gene 1 13 23 -0.331053 0 70 -0.331053 1
gene 1 14 23 -0.631037 0 71 -0.631037 1
gene 1 15 23 0.0318568 0 72 0.0318568 1
gene 1 16 23 0.0152533 0 73 0.0152533 1
gene 1 17 23 0.774745 0 74 0.774745 1
gene 1 18 23 0.621243 0 75 0.621243 1
gene 1 19 23 -1.3223 0 76 -1.3223 1
gene 1 8 24 -0.0418148 0 77 -0.0418148 1
gene 1 24 20 0.162582 0 78 0.162582 1
gene 1 15 26 0.07609 0 85 0.07609 0
gene 1 26 20 -0.0409567 0 86 -0.0409567 1
gene 1 22 20 0.199237 0 87 0.199237 1
gene 1 2 24 0.269072 0 91 0.269072 1
gene 1 8 28 -0.406906 0 93 -0.406906 1
gene 1 28 24 -0.428898 0 94 -0.428898 1
gene 1 6 24 -0.267594 0 96 -0.267594 1
gene 1 16 26 0.299348 0 99 0.299348 1
gene 1 13 24 -0.15653 0 100 -0.15653 1
gene 1 23 24 0.0741084 0 113 0.0741084 1
gene 1 13 32 -0.105891 0 116 -0.105891 1
gene 1 32 21 0.163056 0 117 0.163056 1
gene 1 10 37 1.00561 0 129 1.00561 1
gene 1 37 20 -0.510053 0 130 -0.510053 1
gene 1 17 39 0.112464 0 134 0.112464 1
gene 1 39 23 0.615851 0 135 0.615851 1
gene 1 15 43 -0.0507128 0 150 -0.0507128 1
gene 1 43 21 0.0491782 0 151 0.0491782 1
gene 1 3 43 0.0804074 0 153 0.0804074 1
gene 1 8 32 -0.198858 0 154 -0.198858 1
gene 1 2 39 -0.0196599 0 178 -0.0196599 1
gene 1 6 53 0.227565 0 191 0.227565 1
gene 1 53 22 -0.158585 0 192 -0.158585 1
gene 1 15 24 -0.131275 0 275 -0.131275 1
gene 1 32 32 -0.42992 1 283 -0.42992 1
gene 1 2 75 1.11125 0 301 1.11125 1
gene 1 75 21 -0.297062 0 302 -0.297062 1
gene 1 11 26 0.107643 0 317 0.107643 1
gene 1 13 26 0.215377 0 321 0.215377 1
gene 1 32 28 0.150972 0 344 0.150972 1
gene 1 9 90 -0.186207 0 351 -0.186207 1
gene 1 90 21 0.144893 0 352 0.144893 1
gene 1 12 95 0.597818 0 365 0.597818 1
gene 1 95 23 0.369676 0 366 0.369676 1
gene 1 12 104 1 0 398 0 1
gene 1 104 21 0.264967 0 399 0.218013 1
gene 1 24 104 0.0333314 0 447 0.0333314 1
gene 1 104 32 0.034197 0 454 0.034197 1
gene 1 18 53 0.652141 0 491 0.652141 1
gene 1 15 129 1 0 492 0 1
gene 1 129 26 0.0124036 0 493 0 1
gene 1 17 132 1 0 501 0 1
gene 1 132 20 0.0414252 0 502 0 1
gene 1 129 22 -0.79185 0 544 -0.79185 1
genomeend 1781
genomestart 1798
trait 1 0.029883 0 0.89058 0.700026 0.481925 0.247657 0 0.191462 
node 1 1 1 1 0
node 2 1 1 1 0
node 3 1 1 1 0
node 4 1 1 1 0
node 5 1 1 1 0
node 6 1 1 1 0
node 7 1 1 1 0
node 8 1 1 1 0
node 9 1 1 1 0
node 10 1 1 1 0
node 11 1 1 1 0
node 12 1 1 1 0
node 13 1 1 1 0
node 14 1 1 1 0
node 15 1 1 1 0
node 16 1 1 1 0
node 17 1 1 1 0
node 18 1 1 1 0
node 19 1 1 3 0
node 20 1 0 2 0
node 21 1 0 2 0
node 22 1 0 2 0
node 23 1 0 2 0
node 24 1 0 0 0
node 26 1 0 0 0
node 37 1 0 0 0
node 46 1 0 0 0
node 86 1 0 0 0
node 104 1 0 0 0
gene 1 1 20 -0.482937 0 1 -0.482937 1
gene 1 2 20 0.307126 0 2 0.307126 1
gene 1 3 20 0.13844 0 3 0.13844 1
gene 1 4 20 0.209834 0 4 0.209834 1
gene 1 5 20 1.31883 0 5 1.31883 1
gene 1 6 20 0.235731 0 6 0.235731 1
gene 1 7 20 0.471863 0 7 0.471863 1
gene 1 8 20 0.24926 0 8 0.24926 1
gene 1 9 20 0.100041 0 9 0.100041 1
gene 1 10 20 -0.0189824 0 10 -0.0189824 1
gene 1 11 20 0.0596515 0 11 0.0596515 1
gene 1 12 20 1.9296 0 12 1.9296 1
gene 1 13 20 -0.503935 0 13 -0.503935 1
gene 1 14 20 -0.369898 0 14 -0.369898 1
gene 1 15 20 0.20338 0 15 0.20338 1
gene 1 16 20 0.0241082 0 16 0.0241082 1
gene 1 17 20 -0.331132 0 17 -0.331132 1
gene 1 18 20 0.0505869 0 18 0.0505869 1
gene 1 19 20 0.0948436 0 19 0.0948436 1
gene 1 1 21 -0.827284 0 20 -0.827284 1
gene 1 2 21 -0.00687743 0 21 -0.00687743 1
gene 1 3 21 0.0637491 0 22 0.0637491 1
gene 1 4 21 -0.611028 0 23 -0.611028 1
gene 1 5 21 -0.436573 0 24 -0.436573 1
gene 1 6 21 0.375503 0 25 0.375503 1
gene 1 7 21 -0.00672997 0 26 -0.00672997 1
gene 1 8 21 1.33462 0 27 1.33462 1
gene 1 9 21 -1.42169 0 28 -1.42169 1
gene 1 10 21 2.15699 0 29 2.15699 1
gene 1 11 21 -0.511384 0 30 -0.511384 1
gene 1 12 21 -0.0040465 0 31 -0.0040465 1
gene 1 13 21 -0.997935 0 32 -0.997935 1
gene 1 14 21 -1.73052 0 33 -1.73052 1
gene 1 15 21 -0.112157 0 34 -0.112157 1
gene 1 16 21 0.0897965 0 35 0.0897965 1
gene 1 17 21 -0.590947 0 36 -0.590947 1
gene 1 18 21 -0.161577 0 37 -0.161577 1
gene 1 19 21 -0.317123 0 38 -0.317123 1
gene 1 1 22 -0.443768 0 39 -0.443768 1
gene 1 2 22 0.638622 0 40 0.638622 1
gene 1 3 22 -0.476915 0 41 -0.476915 1
gene 1 4 22 0.174715 0 42 0.174715 1
gene 1 5 22 0.248926 0 43 0.248926 1
gene 1 6 22 0.282626 0 44 0.282626 1
gene 1 7 22 -0.162267 0 45 -0.162267 1
gene 1 8 22 0.236947 0 46 0.236947 1
gene 1 9 22 -0.34943 0 47 -0.34943 1
gene 1 10 22 0.756066 0 48 0.756066 1
gene 1 11 22 0.192012 0 49 0.192012 1
gene 1 12 22 -0.226207 0 50 -0.226207 1
gene 1 13 22 -0.0212682 0 51 -0.0212682 1
gene 1 14 22 -2.79735 0 52 -2.79735 1
gene 1 15 22 -0.211869 0 53 -0.211869 1
gene 1 16 22 -0.271646 0 54 -0.271646 1
gene 1 17 22 0.457119 0 55 0.457119 1
gene 1 18 22 0.457067 0 56 0.457067 0
gene 1 19 22 0.231512 0 57 0.231512 1
gene 1 1 23 1.71519 0 58 1.71519 1
gene 1 2 23 -0.656548 0 59 -0.656548 1
gene 1 3 23 -0.897727 0 60 -0.897727 1
gene 1 4 23 -0.192439 0 61 -0.192439 1
gene 1 5 23 0.0468431 0 62 0.0468431 1
gene 1 6 23 -0.266948 0 63 -0.266948 1
gene 1 7 23 -1.3165 0 64 -1.3165 1
gene 1 8 23 -1.1688 0 65 -1.1688 1
gene 1 9 23 0.598281 0 66 0.598281 1
gene 1 10 23 -0.0966903 0 67 -0.0966903 1
gene 1 11 23 -0.13523 0 68 -0.13523 1
gene 1 12 23 -2.08177 0 69 -2.08177 1
gene 1 13 23 0.287691 0 70 0.287691 1
gene 1 14 23 -0.643131 0 71 -0.643131 1
gene 1 15 23 0.101517 0 72 0.101517 1
gene 1 16 23 -0.218261 0 73 -0.218261 1
gene 1 17 23 -0.0733347 0 74 -0.0733347 1
gene 1 18 23 0.525373 0 75 0.525373 1
gene 1 19 23 1.1268 0 76 1.1268 1
gene 1 8 24 0.41267 0 77 0.41267 1
gene 1 24 20 -0.383118 0 78 -0.383118 1
gene 1 15 26 0.256555 0 85 0.256555 1
gene 1 26 20 -0.23048 0 86 -0.23048 1
gene 1 22 20 -0.722755 0 87 -0.722755 1
gene 1 2 24 0.0579606 0 91 0.0579606 1
gene 1 6 24 0.414351 0 96 0.414351 1
gene 1 10 37 -0.147622 0 129 -0.147622 1
gene 1 37 20 0.842077 0 130 0.842077 1
gene 1 24 37 0.236572 0 140 0.236572 1
gene 1 11 46 0.435116 0 161 0.435116 1
gene 1 46 20 0.551218 0 162 0.551218 1
gene 1 24 22 0.600386 0 219 0.600386 1
gene 1 46 23 -0.161383 0 251 -0.161383 1
gene 1 26 24 0.899977 0 305 0.899977 1
gene 1 7 37 0.0948062 0 323 0.0948062 1
gene 1 18 86 0.591437 0 336 0.591437 1
gene 1 86 22 0.103129 0 337 0.103129 1
gene 1 14 46 -0.335996 0 396 -0.335996 1
gene 1 12 46 0.164383 0 397 0.164383 1
gene 1 12 104 0.705043 0 398 0.705043 1
gene 1 104 21 0.0731974 0 399 0.0731974 1
gene 1 19 37 -0.0530898 0 431 -0.0530898 1
gene 1 9 86 -0.242858 0 505 -0.242858 1
gene 1 46 46 0.296388 1 523 0.296388 1
genomeend 1798
genomestart 1799
trait 1 0.0563878 0.0757743 0.00881871 0.277752 0.861987 0.00794441 0.221361 0.426181 
node 1 1 1 1 0
node 2 1 1 1 0
node 3 1 1 1 0
node 4 1 1 1 0
node 5 1 1 1 0
node 6 1 1 1 0
node 7 1 1 1 0
node 8 1 1 1 0
node 9 1 1 1 0
node 10 1 1 1 0
node 11 1 1 1 0
node 12 1 1 1 0
node 13 1 1 1 0
node 14 1 1 1 0
node 15 1 1 1 0
node 16 1 1 1 0
node 17 1 1 1 0
node 18 1 1 1 0
node 19 1 1 3 0
node 20 1 0 2 0
node 21 1 0 2 0
node 22 1 0 2 0
node 23 1 0 2 0
node 24 1 0 0 0
node 26 1 0 0 0
node 28 1 0 0 0
node 32 1 0 0 0
node 37 1 0 0 0
node 39 1 0 0 0
node 43 1 0 0 0
node 53 1 0 0 0
node 60 1 0 0 0
node 66 1 0 0 0
node 68 1 0 0 0
node 81 1 0 0 0
node 103 1 0 0 0
node 117 1 0 0 0
node 123 1 0 0 0
gene 1 1 20 0.460385 0 1 0.460385 1
gene 1 2 20 0.195439 0 2 0.195439 1
gene 1 3 20 -1.62364 0 3 -1.62364 1
gene 1 4 20 -0.186246 0 4 -0.186246 1
gene 1 5 20 -0.90439 0 5 -0.90439 1
gene 1 6 20 -0.334867 0 6 -0.334867 1
gene 1 7 20 -0.3928 0 7 -0.3928 1
gene 1 8 20 -1.02237 0 8 -1.02237 0
gene 1 9 20 -0.959033 0 9 -0.959033 1
gene 1 10 20 -0.122011 0 10 -0.122011 0
gene 1 11 20 -0.419256 0 11 -0.419256 1
gene 1 12 20 -0.484875 0 12 -0.484875 1
gene 1 13 20 0.57457 0 13 0.57457 1
gene 1 14 20 -0.0864281 0 14 -0.0864281 1
gene 1 15 20 -0.273808 0 15 -0.273808 1
gene 1 16 20 -0.10402 0 16 -0.10402 1
gene 1 17 20 -0.333607 0 17 -0.333607 1
gene 1 18 20 -0.000422095 0 18 -0.000422095 1
gene 1 19 20 -0.424588 0 19 -0.424588 1
gene 1 1 21 -0.255511 0 20 -0.255511 1
gene 1 2 21 -1.05079 0 21 -1.05079 1
gene 1 3 21 0.280652 0 22 0.280652 1
gene 1 4 21 0.134399 0 23 0.134399 1
gene 1 5 21 -0.276517 0 24 -0.276517 1
gene 1 6 21 -0.266349 0 25 -0.266349 1
gene 1 7 21 0.621164 0 26 0.621164 1
gene 1 8 21 -0.0877305 0 27 -0.0877305 1
gene 1 9 21 -1.78171 0 28 -1.78171 1
gene 1 10 21 -1.03161 0 29 -1.03161 1
gene 1 11 21 0.703745 0 30 0.703745 1
gene 1 12 21 -0.275007 0 31 -0.275007 1
gene 1 13 21 -0.473613 0 32 -0.473613 0
gene 1 14 21 -0.563495 0 33 -0.563495 1
gene 1 15 21 0.377149 0 34 0.377149 0
gene 1 16 21 -0.0227837 0 35 -0.0227837 1
gene 1 17 21 0.316117 0 36 0.316117 1
gene 1 18 21 0.52382 0 37 0.52382 0
gene 1 19 21 -0.411489 0 38 -0.411489 1
gene 1 1 22 0.999695 0 39 0.999695 1
gene 1 2 22 -0.72391 0 40 -0.72391 1
gene 1 3 22 -0.434833 0 41 -0.434833 1
gene 1 4 22 0.318737 0 42 0.318737 1
gene 1 5 22 0.439711 0 43 0.439711 1
gene 1 6 22 0.119735 0 44 0.119735 0
gene 1 7 22 0.296103 0 45 0.296103 1
gene 1 8 22 -0.428241 0 46 -0.428241 1
gene 1 9 22 0.0961182 0 47 0.0961182 1
gene 1 10 22 0.309368 0 48 0.309368 1
gene 1 11 22 0.0315029 0 49 0.0315029 1
gene 1 12 22 0.732346 0 50 0.732346 1
gene 1 13 22 -0.924724 0 51 -0.924724 1
gene 1 14 22 -0.356502 0 52 -0.356502 1
gene 1 15 22 0.116182 0 53 0.116182 1
gene 1 16 22 1.09631 0 54 1.09631 1
gene 1 17 22 0.80591 0 55 0.80591 1
gene 1 18 22 0.777574 0 56 0.777574 1
gene 1 19 22 0.536597 0 57 0.536597 1
gene 1 1 23 -0.693122 0 58 -0.693122 1
gene 1 2 23 -0.495186 0 59 -0.495186 1
gene 1 3 23 -1.65544 0 60 -1.65544 1
gene 1 4 23 0.405813 0 61 0.405813 1
gene 1 5 23 0.825697 0 62 0.825697 1
gene 1 6 23 -0.552543 0 63 -0.552543 1
gene 1 7 23 -0.744157 0 64 -0.744157 1
gene 1 8 23 -0.000842774 0 65 -0.000842774 1
gene 1 9 23 0.732294 0 66 0.732294 1
gene 1 10 23 0.43239 0 67 0.43239 1
gene 1 11 23 0.154607 0 68 0.154607 1
gene 1 12 23 0.580682 0 69 0.580682 1
gene 1 13 23 0.283721 0 70 0.283721 0
gene 1 14 23 -1.08843 0 71 -1.08843 1
gene 1 15 23 -0.0294013 0 72 -0.0294013 1
gene 1 16 23 -0.151713 0 73 -0.151713 1
gene 1 17 23 0.181181 0 74 0.181181 0
gene 1 18 23 1.30858 0 75 1.30858 1
gene 1 19 23 0.205772 0 76 0.205772 1
gene 1 8 24 0.441817 0 77 0.441817 0
gene 1 24 20 0.0499887 0 78 0.0499887 1
gene 1 15 26 0.232074 0 85 0.232074 1
gene 1 26 20 0.293342 0 86 0.293342 1
gene 1 22 20 0.294044 0 87 0.294044 1
gene 1 2 24 0.29944 0 91 0.29944 1
gene 1 8 28 0.257118 0 93 0.257118 1
gene 1 28 24 -0.184588 0 94 -0.184588 1
gene 1 6 24 0.940881 0 96 0.940881 1
gene 1 16 26 0.707091 0 99 0.707091 0
gene 1 13 24 -0.0448096 0 100 -0.0448096 1
gene 1 23 24 0.791349 0 113 0.791349 1
gene 1 13 32 0.57851 0 116 0.57851 1
gene 1 32 21 -0.792324 0 117 -0.792324 1
gene 1 10 37 0.142718 0 129 0.142718 1
gene 1 37 20 0.0655153 0 130 0.0655153 1
gene 1 17 39 -0.942824 0 134 -0.942824 1
gene 1 39 23 0.685714 0 135 0.685714 1
gene 1 15 43 -0.661922 0 150 -0.661922 1
gene 1 43 21 -1.24994 0 151 -1.24994 1
gene 1 3 43 -0.00133678 0 153 -0.00133678 1
gene 1 8 32 -0.922288 0 154 -0.922288 1
gene 1 2 39 -0.658617 0 178 -0.658617 1
gene 1 6 53 0.440761 0 191 0.440761 1
gene 1 53 22 0.380262 0 192 0.380262 1
gene 1 6 43 0.495115 0 210 0.495115 0
gene 1 17 60 0.621946 0 217 0.621946 1
gene 1 60 22 0.718014 0 218 0.718014 1
gene 1 20 20 -0.115285 1 221 -0.115285 1
gene 1 1 43 0.419682 0 234 0.419682 1
gene 1 15 37 0.00790733 0 261 0.00790733 1
gene 1 10 66 0.36658 0 266 0.36658 1
gene 1 66 21 -0.232592 0 267 -0.232592 1
gene 1 18 32 -0.145334 0 271 -0.145334 1
gene 1 5 68 0.874675 0 277 0.874675 1
gene 1 68 20 0.371729 0 278 0.371729 1
gene 1 39 60 -0.0974596 0 322 -0.0974596 1
gene 1 16 81 0.441268 0 326 0.441268 1
gene 1 81 26 -0.431613 0 327 -0.431613 1
gene 1 24 24 0.560197 1 393 0.560197 1
gene 1 18 103 -0.074449 0 394 -0.074449 1
gene 1 103 21 -0.0132589 0 395 -0.0132589 1
gene 1 5 32 -0.752004 0 400 -0.752004 1
gene 1 6 117 -0.433085 0 456 -0.433085 1
gene 1 117 43 -0.570085 0 457 -0.570085 1
gene 1 13 123 1.12459 0 472 1.12459 1
gene 1 123 23 -0.235561 0 473 -0.235561 1
gene 1 21 21 0.115977 1 528 0.115977 1
gene 1 16 43 -0.544428 0 546 -0.544428 1
genomeend 1799
genomestart 1816
trait 1 0.619243 0.386099 0.263876 0.208156 0.791478 0.306313 0.271366 0.552381 
node 1 1 1 1 0
node 2 1 1 1 0
node 3 1 1 1 0
node 4 1 1 1 0
node 5 1 1 1 0
node 6 1 1 1 0
node 7 1 1 1 0
node 8 1 1 1 0
node 9 1 1 1 0
node 10 1 1 1 0
node 11 1 1 1 0
node 12 1 1 1 0
node 13 1 1 1 0
node 14 1 1 1 0
node 15 1 1 1 0
node 16 1 1 1 0
node 17 1 1 1 0
node 18 1 1 1 0
node 19 1 1 3 0
node 20 1 0 2 0
node 21 1 0 2 0
node 22 1 0 2 0
node 23 1 0 2 0
node 24 1 0 0 0
node 26 1 0 0 0
node 28 1 0 0 0
node 32 1 0 0 0
node 37 1 0 0 0
node 39 1 0 0 0
node 43 1 0 0 0
node 53 1 0 0 0
node 75 1 0 0 0
node 90 1 0 0 0
node 95 1 0 0 0
node 104 1 0 0 0
node 129 1 0 0 0
node 132 1 0 0 0
gene 1 1 20 0.412359 0 1 0.412359 1
gene 1 2 20 -0.438918 0 2 -0.438918 1
gene 1 3 20 -0.451785 0 3 -0.451785 1
gene 1 4 20 -0.67888 0 4 -0.67888 1
gene 1 5 20 0.350589 0 5 0.350589 1
gene 1 6 20 -0.398739 0 6 -0.398739 1
gene 1 7 20 1.5153 0 7 1.5153 1
gene 1 8 20 1.67252 0 8 1.67252 0
gene 1 9 20 0.751657 0 9 0.751657 1
gene 1 10 20 0.151914 0 10 0.151914 1
gene 1 11 20 0.00886472 0 11 0.00886472 1
gene 1 12 20 -0.257903 0 12 -0.257903 1
gene 1 13 20 0.534593 0 13 0.534593 1
gene 1 14 20 -0.131265 0 14 -0.131265 1
gene 1 15 20 -0.069977 0 15 -0.069977 1
gene 1 16 20 0.0826749 0 16 0.0826749 1
gene 1 17 20 0.227095 0 17 0.227095 1
gene 1 18 20 -0.259525 0 18 -0.259525 1
gene 1 19 20 -0.103576 0 19 -0.103576 1
gene 1 1 21 -0.101588 0 20 -0.101588 1
gene 1 2 21 0.111261 0 21 0.111261 1
gene 1 3 21 1.8881 0 22 1.8881 1
gene 1 4 21 0.271841 0 23 0.271841 1
gene 1 5 21 0.648047 0 24 0.648047 1
gene 1 6 21 -1.27126 0 25 -1.27126 1
gene 1 7 21 -0.0326319 0 26 -0.0326319 1
gene 1 8 21 0.135527 0 27 0.135527 1
gene 1 9 21 -0.319097 0 28 -0.319097 0
gene 1 10 21 0.913805 0 29 0.913805 1
gene 1 11 21 0.145354 0 30 0.145354 1
gene 1 12 21 0.346412 0 31 0.346412 0
gene 1 13 21 0.0307066 0 32 0.0307066 0
gene 1 14 21 0.204399 0 33 0.204399 1
gene 1 15 21 1.08844 0 34 1.08844 0
gene 1 16 21 0.372998 0 35 0.372998 1
gene 1 17 21 0.192864 0 36 0.192864 1
gene 1 18 21 -0.430574 0 37 -0.430574 1
gene 1 19 21 0.954906 0 38 0.954906 1
gene 1 1 22 0.39466 0 39 0.39466 1
gene 1 2 22 0.307124 0 40 0.307124 1
gene 1 3 22 0.571696 0 41 0.571696 1
gene 1 4 22 0.746124 0 42 0.746124 1
gene 1 5 22 0.212821 0 43 0.212821 1
gene 1 6 22 -0.228658 0 44 -0.228658 0
gene 1 7 22 0.0821102 0 45 0.0821102 1
gene 1 8 22 0.395681 0 46 0.395681 1
gene 1 9 22 0.0803208 0 47 0.0803208 1
gene 1 10 22 0.268789 0 48 0.268789 1
gene 1 11 22 -0.214414 0 49 -0.214414 1
gene 1 12 22 0.255692 0 50 0.255692 1
gene 1 13 22 -0.0632887 0 51 -0.0632887 1
gene 1 14 22 0.0852483 0 52 0.0852483 1
gene 1 15 22 0.136637 0 53 0.136637 1
gene 1 16 22 0.373479 0 54 0.373479 1
gene 1 17 22 -0.40235 0 55 -0.40235 1
gene 1 18 22 0.327776 0 56 0.327776 1
gene 1 19 22 -0.562173 0 57 -0.562173 1
gene 1 1 23 -0.342794 0 58 -0.342794 1
gene 1 2 23 0.0552518 0 59 0.0552518 1
gene 1 3 23 0.284823 0 60 0.284823 1
gene 1 4 23 0.384298 0 61 0.384298 1
gene 1 5 23 0.632077 0 62 0.632077 1
gene 1 6 23 0.389135 0 63 0.389135 1
gene 1 7 23 -0.157636 0 64 -0.157636 1
gene 1 8 23 -0.216105 0 65 -0.216105 1
gene 1 9 23 -0.815995 0 66 -0.815995 1
gene 1 10 23 0.885722 0 67 0.885722 1
gene 1 11 23 -0.223104 0 68 -0.223104 1
gene 1 12 23 0.082382 0 69 0.082382 0
gene 1 13 23 -0.331053 0 70 -0.331053 1
gene 1 14 23 -0.887232 0 71 -0.887232 1
gene 1 15 23 0.0963508 0 72 0.0963508 1
gene 1 16 23 0.307689 0 73 0.307689 1
gene 1 17 23 0.426832 0 74 0.426832 1
gene 1 18 23 0.621243 0 75 0.621243 1
gene 1 19 23 -0.813895 0 76 -0.813895 1
gene 1 8 24 -0.0418148 0 77 -0.0418148 0
gene 1 24 20 0.561206 0 78 0.561206 1
gene 1 15 26 0.020084 0 85 0.020084 0
gene 1 26 20 -0.49147 0 86 -0.49147 1
gene 1 22 20 0.366434 0 87 0.366434 1
gene 1 2 24 0.269072 0 91 0.269072 1
gene 1 8 28 -0.406906 0 93 -0.406906 1
gene 1 28 24 -0.126136 0 94 -0.126136 1
gene 1 6 24 -0.267594 0 96 -0.267594 1
gene 1 16 26 0.555048 0 99 0.555048 1
gene 1 13 24 -0.15653 0 100 -0.15653 1
gene 1 23 24 0.0197721 0 113 0.0197721 1
gene 1 13 32 -0.105891 0 116 -0.105891 1
gene 1 32 21 -0.0877611 0 117 -0.0877611 1
gene 1 10 37 1.00561 0 129 1.00561 1
gene 1 37 20 -0.253054 0 130 -0.253054 1
gene 1 17 39 0.112464 0 134 0.112464 1
gene 1 39 23 0.553155 0 135 0.553155 1
gene 1 15 43 -0.0507128 0 150 -0.0507128 1
gene 1 43 21 0.0698909 0 151 0.0698909 1
gene 1 3 43 -0.147941 0 153 -0.147941 1
gene 1 8 32 -0.239786 0 154 -0.239786 1
gene 1 2 39 -0.0196599 0 178 -0.0196599 1
gene 1 6 53 0.202881 0 191 0.202881 1
gene 1 53 22 -0.150898 0 192 -0.150898 1
gene 1 15 24 -0.131275 0 275 -0.131275 1
gene 1 32 32 -0.467936 1 283 -0.467936 1
gene 1 2 75 0.972988 0 301 0.972988 1
gene 1 75 21 -0.209673 0 302 -0.209673 1
gene 1 11 26 0.134491 0 317 0.134491 1
gene 1 13 26 0.215377 0 321 0.215377 1
gene 1 32 28 0.150972 0 344 0.150972 1
gene 1 9 90 -0.186207 0 351 -0.186207 1
gene 1 90 21 -0.372226 0 352 -0.372226 1
gene 1 12 95 0.597818 0 365 0.597818 1
gene 1 95 23 0.369676 0 366 0.369676 1
gene 1 12 104 1 0 398 0 1
gene 1 104 21 0.264967 0 399 0.218013 1
gene 1 24 104 0.0751422 0 447 0.0751422 1
gene 1 104 32 0.034197 0 454 0.034197 1
gene 1 18 53 0.457839 0 491 0.457839 1
gene 1 15 129 0.970149 0 492 0.970149 1
gene 1 129 26 0.0124036 0 493 0 1
gene 1 17 132 1 0 501 0 1
gene 1 132 20 0.0414252 0 502 0 1
gene 1 129 22 -0.79185 0 544 -0.79185 1
genomeend 1816
genomestart 1825
trait 1 0.353866 0.52291 0.34335 0.765316 0.824106 0.47964 0.0375943 0.145186 
node 1 1 1 1 0
node 2 1 1 1 0
node 3 1 1 1 0
node 4 1 1 1 0
node 5 1 1 1 0
node 6 1 1 1 0
node 7 1 1 1 0
node 8 1 1 1 0
node 9 1 1 1 0
node 10 1 1 1 0
node 11 1 1 1 0
node 12 1 1 1 0
node 13 1 1 1 0
node 14 1 1 1 0
node 15 1 1 1 0
node 16 1 1 1 0
node 17 1 1 1 0
node 18 1 1 1 0
node 19 1 1 3 0
node 20 1 0 2 0
node 21 1 0 2 0
node 22 1 0 2 0
node 23 1 0 2 0
node 24 1 0 0 0
node 26 1 0 0 0
node 28 1 0 0 0
node 32 1 0 0 0
node 34 1 0 0 0
node 36 1 0 0 0
node 37 1 0 0 0
node 39 1 0 0 0
node 43 1 0 0 0
node 46 1 0 0 0
node 53 1 0 0 0
node 54 1 0 0 0
node 60 1 0 0 0
node 66 1 0 0 0
node 71 1 0 0 0
node 86 1 0 0 0
node 95 1 0 0 0
node 101 1 0 0 0
node 105 1 0 0 0
node 115 1 0 0 0
node 119 1 0 0 0
node 125 1 0 0 0
node 128 1 0 0 0
node 134 1 0 0 0
node 142 1 0 0 0
gene 1 1 20 0.334387 0 1 0.334387 1
gene 1 2 20 0.128145 0 2 0.128145 1
gene 1 3 20 0.413174 0 3 0.413174 1
gene 1 4 20 0.0257566 0 4 0.0257566 1
gene 1 5 20 -0.464448 0 5 -0.464448 1
gene 1 6 20 -0.705868 0 6 -0.705868 1
gene 1 7 20 -0.247155 0 7 -0.247155 1
gene 1 8 20 -0.921768 0 8 -0.921768 1
gene 1 9 20 -0.163746 0 9 -0.163746 1
gene 1 10 20 -0.11083 0 10 -0.11083 1
gene 1 11 20 -0.258837 0 11 -0.258837 0
gene 1 12 20 -0.369037 0 12 -0.369037 1
gene 1 13 20 0.0525962 0 13 0.0525962 1
gene 1 14 20 0.17199 0 14 0.17199 1
gene 1 15 20 -0.548168 0 15 -0.548168 1
gene 1 16 20 -0.548355 0 16 -0.548355 1
gene 1 17 20 -1.03477 0 17 -1.03477 1
gene 1 18 20 0.271296 0 18 0.271296 1
gene 1 19 20 0.0525756 0 19 0.0525756 1
gene 1 1 21 0.25828 0 20 0.25828 1
gene 1 2 21 0.18203 0 21 0.18203 0
gene 1 3 21 0.270424 0 22 0.270424 0
gene 1 4 21 -0.665052 0 23 -0.665052 1
gene 1 5 21 -1.0194 0 24 -1.0194 1
gene 1 6 21 -0.208498 0 25 -0.208498 1
gene 1 7 21 -1.45068 0 26 -1.45068 1
gene 1 8 21 0.0547335 0 27 0.0547335 1
gene 1 9 21 -0.440838 0 28 -0.440838 1
gene 1 10 21 0.354138 0 29 0.354138 1
gene 1 11 21 -0.32172 0 30 -0.32172 0
gene 1 12 21 0.372261 0 31 0.372261 1
gene 1 13 21 -0.745889 0 32 -0.745889 1
gene 1 14 21 0.289662 0 33 0.289662 1
gene 1 15 21 -0.457578 0 34 -0.457578 1
gene 1 16 21 0.441319 0 35 0.441319 1
gene 1 17 21 -0.151452 0 36 -0.151452 1
gene 1 18 21 0.637799 0 37 0.637799 1
gene 1 19 21 0.646987 0 38 0.646987 1
gene 1 1 22 -0.00850085 0 39 -0.00850085 1
gene 1 2 22 1.03496 0 40 1.03496 1
gene 1 3 22 1.10514 0 41 1.10514 1
gene 1 4 22 -1.54681 0 42 -1.54681 1
gene 1 5 22 -0.436165 0 43 -0.436165 1
gene 1 6 22 1.16261 0 44 1.16261 1
gene 1 7 22 1.18058 0 45 1.18058 1
gene 1 8 22 0.221608 0 46 0.221608 1
gene 1 9 22 -0.459281 0 47 -0.459281 1
gene 1 10 22 0.103085 0 48 0.103085 1
gene 1 11 22 0.358209 0 49 0.358209 1
gene 1 12 22 -0.102918 0 50 -0.102918 1
gene 1 13 22 0.323045 0 51 0.323045 1
gene 1 14 22 0.61198 0 52 0.61198 1
gene 1 15 22 -0.845965 0 53 -0.845965 1
gene 1 16 22 -0.402569 0 54 -0.402569 1
gene 1 17 22 1.02296 0 55 1.02296 1
gene 1 18 22 -0.0796914 0 56 -0.0796914 1
gene 1 19 22 0.259562 0 57 0.259562 1
gene 1 1 23 0.418777 0 58 0.418777 1
gene 1 2 23 -0.445437 0 59 -0.445437 1
gene 1 3 23 0.30622 0 60 0.30622 1
gene 1 4 23 0.450724 0 61 0.450724 1
gene 1 5 23 -0.302889 0 62 -0.302889 1
gene 1 6 23 -0.503119 0 63 -0.503119 1
gene 1 7 23 0.361744 0 64 0.361744 1
gene 1 8 23 -1.04174 0 65 -1.04174 1
gene 1 9 23 -0.067381 0 66 -0.067381 1
gene 1 10 23 -0.566523 0 67 -0.566523 1
gene 1 11 23 0.0226479 0 68 0.0226479 1
gene 1 12 23 -1.5094 0 69 -1.5094 1
gene 1 13 23 0.935852 0 70 0.935852 1
gene 1 14 23 -0.0593079 0 71 -0.0593079 1
gene 1 15 23 0.503405 0 72 0.503405 1
gene 1 16 23 0.987629 0 73 0.987629 1
gene 1 17 23 -0.136978 0 74 -0.136978 0
gene 1 18 23 -0.136109 0 75 -0.136109 1
gene 1 19 23 0.759246 0 76 0.759246 1
gene 1 8 24 0.215794 0 77 0.215794 0
gene 1 24 20 0.593374 0 78 0.593374 1
gene 1 15 26 -0.130578 0 85 -0.130578 1
gene 1 26 20 -0.0848993 0 86 -0.0848993 1
gene 1 22 20 -0.029147 0 87 -0.029147 1
gene 1 2 24 0.0364341 0 91 0.0364341 1
gene 1 8 28 0.859529 0 93 0.859529 0
gene 1 28 24 0.202332 0 94 0.202332 1
gene 1 6 24 -0.426137 0 96 -0.426137 1
gene 1 16 26 0.0902005 0 99 0.0902005 1
gene 1 13 24 -0.44908 0 100 -0.44908 1
gene 1 23 24 -1.02354 0 113 -1.02354 1
gene 1 13 32 0.199289 0 116 0.199289 1
gene 1 32 21 1.5465 0 117 1.5465 1
gene 1 11 34 0.0699846 0 122 0.0699846 1
gene 1 34 21 -0.0263878 0 123 -0.0263878 1
gene 1 9 36 0.73004 0 127 0.73004 1
gene 1 36 20 -0.285552 0 128 -0.285552 1
gene 1 10 37 -0.224381 0 129 -0.224381 1
gene 1 37 20 1.15581 0 130 1.15581 1
gene 1 17 39 -0.312404 0 134 -0.312404 1
gene 1 39 23 0.57764 0 135 0.57764 1
gene 1 24 37 0.277291 0 140 0.277291 1
gene 1 19 24 0.304771 0 144 0.304771 1
gene 1 15 43 0.354154 0 150 0.354154 1
gene 1 43 21 1.233 0 151 1.233 1
gene 1 3 43 -0.12687 0 153 -0.12687 1
gene 1 8 32 -0.961308 0 154 -0.961308 1
gene 1 11 46 -0.963974 0 161 -0.963974 1
gene 1 46 20 -0.442929 0 162 -0.442929 1
gene 1 2 39 -0.956977 0 178 -0.956977 1
gene 1 6 53 0.114059 0 191 0.114059 1
gene 1 53 22 -0.0453419 0 192 -0.0453419 1
gene 1 39 34 -0.565579 0 193 -0.565579 1
gene 1 16 54 -1.48406 0 194 -1.48406 0
gene 1 54 26 0.47623 0 195 0.47623 1
gene 1 6 43 0.588357 0 210 0.588357 1
gene 1 18 32 0.144824 0 213 0.144824 1
gene 1 17 60 -0.841524 0 217 -0.841524 1
gene 1 60 22 -0.433834 0 218 -0.433834 1
gene 1 24 22 -0.901204 0 219 -0.901204 1
gene 1 20 20 -0.651387 1 221 -0.651387 1
gene 1 1 43 0.161413 0 234 0.161413 1
gene 1 46 23 -0.46291 0 251 -0.46291 1
gene 1 10 66 0.18903 0 266 0.18903 1
gene 1 66 21 -0.550535 0 267 -0.550535 1
gene 1 8 71 -0.143542 0 288 -0.143542 1
gene 1 71 28 0.262474 0 289 0.262474 1
gene 1 15 53 -0.449872 0 295 -0.449872 1
gene 1 26 24 0.825888 0 305 0.825888 1
gene 1 7 37 0.410479 0 323 0.410479 1
gene 1 18 86 0.452314 0 336 0.452314 1
gene 1 86 22 -0.638606 0 337 -0.638606 1
gene 1 53 23 0.276201 0 338 0.276201 1
gene 1 12 95 -0.295981 0 365 -0.295981 1
gene 1 95 23 -0.444907 0 366 -0.444907 1
gene 1 2 101 0.221729 0 383 0.221729 1
gene 1 101 21 -0.203547 0 384 -0.203547 1
gene 1 14 46 0.593029 0 396 0.593029 1
gene 1 12 46 0.394348 0 397 0.394348 1
gene 1 10 105 0.068911 0 404 0.068911 1
gene 1 105 22 -0.57827 0 405 -0.57827 1
gene 1 36 34 -0.0202993 0 409 -0.0202993 1
gene 1 10 54 -0.445336 0 415 -0.445336 1
gene 1 15 54 -0.145907 0 422 -0.145907 1
gene 1 19 37 0.00701428 0 431 0.00701428 1
gene 1 28 43 0.881977 0 441 0.881977 1
gene 1 4 43 -0.228988 0 444 -0.228988 1
gene 1 1 115 0.299496 0 445 0.299496 1
gene 1 115 22 0.0286968 0 446 0.0286968 1
gene 1 3 119 -0.4542 0 460 -0.4542 1
gene 1 119 21 0.779864 0 461 0.779864 1
gene 1 16 125 0.910455 0 476 0.910455 1
gene 1 125 54 -0.63603 0 477 -0.63603 1
gene 1 20 128 0.169526 1 489 0.169526 1
gene 1 128 20 0.363275 0 490 0.363275 1
gene 1 13 134 2.21469 0 509 2.21469 1
gene 1 134 21 -0.0360522 0 510 -0.0360522 1
gene 1 18 34 -0.941987 0 524 -0.941987 1
gene 1 2 142 1.02298 0 534 1.02298 1
gene 1 142 22 0.700683 0 535 0.700683 1
genomeend 1825
genomestart 1826
trait 1 0.029883 0 0.89058 0.700026 0.481925 0.247657 0 0.191462 
node 1 1 1 1 0
node 2 1 1 1 0
node 3 1 1 1 0
node 4 1 1 1 0
node 5 1 1 1 0
node 6 1 1 1 0
node 7 1 1 1 0
node 8 1 1 1 0
node 9 1 1 1 0
node 10 1 1 1 0
node 11 1 1 1 0
node 12 1 1 1 0
node 13 1 1 1 0
node 14 1 1 1 0
node 15 1 1 1 0
node 16 1 1 1 0
node 17 1 1 1 0
node 18 1 1 1 0
node 19 1 1 3 0
node 20 1 0 2 0
node 21 1 0 2 0
node 22 1 0 2 0
node 23 1 0 2 0
node 24 1 0 0 0
node 26 1 0 0 0
node 37 1 0 0 0
node 46 1 0 0 0
node 86 1 0 0 0
node 104 1 0 0 0
gene 1 1 20 -0.482937 0 1 -0.482937 1
gene 1 2 20 0.307126 0 2 0.307126 1
gene 1 3 20 0.13844 0 3 0.13844 1
gene 1 4 20 0.209834 0 4 0.209834 1
gene 1 5 20 1.31883 0 5 1.31883 1
gene 1 6 20 0.235731 0 6 0.235731 1
gene 1 7 20 0.471863 0 7 0.471863 1
gene 1 8 20 0.24926 0 8 0.24926 1
gene 1 9 20 0.100041 0 9 0.100041 1
gene 1 10 20 -0.0189824 0 10 -0.0189824 1
gene 1 11 20 0.0596515 0 11 0.0596515 1
gene 1 12 20 1.9296 0 12 1.9296 1
gene 1 13 20 -0.503935 0 13 -0.503935 1
gene 1 14 20 -0.369898 0 14 -0.369898 1
gene 1 15 20 0.20338 0 15 0.20338 1
gene 1 16 20 0.0241082 0 16 0.0241082 1
gene 1 17 20 -0.331132 0 17 -0.331132 1
gene 1 18 20 0.0505869 0 18 0.0505869 1
gene 1 19 20 0.0948436 0 19 0.0948436 1
gene 1 1 21 -0.827284 0 20 -0.827284 1
gene 1 2 21 -0.00687743 0 21 -0.00687743 1
gene 1 3 21 0.0637491 0 22 0.0637491 1
gene 1 4 21 -0.611028 0 23 -0.611028 1
gene 1 5 21 -0.436573 0 24 -0.436573 1
gene 1 6 21 0.375503 0 25 0.375503 1
gene 1 7 21 -0.00672997 0 26 -0.00672997 1
gene 1 8 21 1.33462 0 27 1.33462 1
gene 1 9 21 -1.42169 0 28 -1.42169 1
gene 1 10 21 2.15699 0 29 2.15699 1
gene 1 11 21 -0.511384 0 30 -0.511384 1
gene 1 12 21 -0.0040465 0 31 -0.0040465 1
gene 1 13 21 -0.997935 0 32 -0.997935 1
gene 1 14 21 -1.73052 0 33 -1.73052 1
gene 1 15 21 -0.112157 0 34 -0.112157 1
gene 1 16 21 0.0897965 0 35 0.0897965 1
gene 1 17 21 -0.590947 0 36 -0.590947 1
gene 1 18 21 -0.161577 0 37 -0.161577 1
gene 1 19 21 -0.317123 0 38 -0.317123 1
gene 1 1 22 -0.443768 0 39 -0.443768 1
gene 1 2 22 0.638622 0 40 0.638622 1
gene 1 3 22 -0.476915 0 41 -0.476915 1
gene 1 4 22 0.174715 0 42 0.174715 1
gene 1 5 22 0.248926 0 43 0.248926 1
gene 1 6 22 0.282626 0 44 0.282626 1
gene 1 7 22 -0.162267 0 45 -0.162267 1
gene 1 8 22 0.236947 0 46 0.236947 1
gene 1 9 22 -0.34943 0 47 -0.34943 1
gene 1 10 22 0.756066 0 48 0.756066 1
gene 1 11 22 0.192012 0 49 0.192012 1
gene 1 12 22 -0.226207 0 50 -0.226207 1
gene 1 13 22 -0.0212682 0 51 -0.0212682 1
gene 1 14 22 -2.79735 0 52 -2.79735 1
gene 1 15 22 -0.211869 0 53 -0.211869 1
gene 1 16 22 -0.271646 0 54 -0.271646 1
gene 1 17 22 0.457119 0 55 0.457119 1
gene 1 18 22 0.457067 0 56 0.457067 0
gene 1 19 22 0.231512 0 57 0.231512 1
gene 1 1 23 1.71519 0 58 1.71519 1
gene 1 2 23 -0.656548 0 59 -0.656548 1
gene 1 3 23 -0.897727 0 60 -0.897727 1
gene 1 4 23 -0.192439 0 61 -0.192439 1
gene 1 5 23 0.0468431 0 62 0.0468431 1
gene 1 6 23 -0.266948 0 63 -0.266948 1
gene 1 7 23 -1.3165 0 64 -1.3165 1
gene 1 8 23 -1.1688 0 65 -1.1688 1
gene 1 9 23 0.598281 0 66 0.598281 1
gene 1 10 23 -0.0966903 0 67 -0.0966903 1
gene 1 11 23 -0.13523 0 68 -0.13523 1
gene 1 12 23 -2.08177 0 69 -2.08177 1
gene 1 13 23 0.287691 0 70 0.287691 1
gene 1 14 23 -0.643131 0 71 -0.643131 1
gene 1 15 23 0.101517 0 72 0.101517 1
gene 1 16 23 -0.218261 0 73 -0.218261 1
gene 1 17 23 -0.0733347 0 74 -0.0733347 1
gene 1 18 23 0.525373 0 75 0.525373 1
gene 1 19 23 1.1268 0 76 1.1268 1
gene 1 8 24 0.41267 0 77 0.41267 1
gene 1 24 20 -0.383118 0 78 -0.383118 1
gene 1 15 26 0.256555 0 85 0.256555 1
gene 1 26 20 -0.23048 0 86 -0.23048 1
gene 1 22 20 -0.722755 0 87 -0.722755 1
gene 1 2 24 0.0579606 0 91 0.0579606 1
gene 1 6 24 0.414351 0 96 0.414351 1
gene 1 10 37 -0.147622 0 129 -0.147622 1
gene 1 37 20 0.842077 0 130 0.842077 1
gene 1 24 37 0.236572 0 140 0.236572 1
gene 1 11 46 0.435116 0 161 0.435116 1
gene 1 46 20 0.551218 0 162 0.551218 1
gene 1 24 22 0.600386 0 219 0.600386 1
gene 1 46 23 -0.161383 0 251 -0.161383 1
gene 1 26 24 0.899977 0 305 0.899977 1
gene 1 7 37 0.0948062 0 323 0.0948062 1
gene 1 18 86 0.591437 0 336 0.591437 1
gene 1 86 22 0.103129 0 337 0.103129 1
gene 1 14 46 -0.335996 0 396 -0.335996 1
gene 1 12 46 0.164383 0 397 0.164383 1
gene 1 12 104 0.705043 0 398 0.705043 1
gene 1 104 21 0.0731974 0 399 0.0731974 1
gene 1 19 37 -0.0530898 0 431 -0.0530898 1
gene 1 9 86 -0.242858 0 505 -0.242858 1
gene 1 46 46 0.296388 1 523 0.296388 1
gene 1 11 86 0.945632 0 549 0.945632 1
genomeend 1826
genomestart 1835
trait 1 0.274326 0.46037 0.34335 0.765316 0.824106 0.404433 0.0375943 0.145186 
node 1 1 1 1 0
node 2 1 1 1 0
node 3 1 1 1 0
node 4 1 1 1 0
node 5 1 1 1 0
node 6 1 1 1 0
node 7 1 1 1 0
node 8 1 1 1 0
node 9 1 1 1 0
node 10 1 1 1 0
node 11 1 1 1 0
node 12 1 1 1 0
node 13 1 1 1 0
node 14 1 1 1 0
node 15 1 1 1 0
node 16 1 1 1 0
node 17 1 1 1 0
node 18 1 1 1 0
node 19 1 1 3 0
node 20 1 0 2 0
node 21 1 0 2 0
node 22 1 0 2 0
node 23 1 0 2 0
node 24 1 0 0 0
node 26 1 0 0 0
node 28 1 0 0 0
node 32 1 0 0 0
node 34 1 0 0 0
node 36 1 0 0 0
node 37 1 0 0 0
node 39 1 0 0 0
node 43 1 0 0 0
node 46 1 0 0 0
node 53 1 0 0 0
node 54 1 0 0 0
node 60 1 0 0 0
node 66 1 0 0 0
node 71 1 0 0 0
node 86 1 0 0 0
node 95 1 0 0 0
node 101 1 0 0 0
node 115 1 0 0 0
node 119 1 0 0 0
node 125 1 0 0 0
node 128 1 0 0 0
node 134 1 0 0 0
node 146 1 0 0 0
gene 1 1 20 0.298863 0 1 0.298863 1
gene 1 2 20 -0.0489966 0 2 -0.0489966 1
gene 1 3 20 0.245683 0 3 0.245683 1
gene 1 4 20 0.218858 0 4 0.218858 1
gene 1 5 20 1.08058 0 5 1.08058 1
gene 1 6 20 0.148476 0 6 0.148476 1
gene 1 7 20 0.14483 0 7 0.14483 1
gene 1 8 20 0.437233 0 8 0.437233 1
gene 1 9 20 0.818958 0 9 0.818958 1
gene 1 10 20 -0.228811 0 10 -0.228811 1
gene 1 11 20 -1.49298 0 11 -1.49298 0
gene 1 12 20 1.08216 0 12 1.08216 1
gene 1 13 20 0.449738 0 13 0.449738 1
gene 1 14 20 -0.436536 0 14 -0.436536 1
gene 1 15 20 0.293252 0 15 0.293252 1
gene 1 16 20 0.535941 0 16 0.535941 1
gene 1 17 20 -0.149447 0 17 -0.149447 1
gene 1 18 20 -0.191431 0 18 -0.191431 1
gene 1 19 20 1.03099 0 19 1.03099 1
gene 1 1 21 -0.113798 0 20 -0.113798 1
gene 1 2 21 -0.359279 0 21 -0.359279 0
gene 1 3 21 0.672734 0 22 0.672734 0
gene 1 4 21 -2.44594 0 23 -2.44594 1
gene 1 5 21 0.706834 0 24 0.706834 1
gene 1 6 21 -0.988672 0 25 -0.988672 1
gene 1 7 21 0.111809 0 26 0.111809 1
gene 1 8 21 0.185996 0 27 0.185996 1
gene 1 9 21 -0.182857 0 28 -0.182857 1
gene 1 10 21 -0.669359 0 29 -0.669359 1
gene 1 11 21 -0.555373 0 30 -0.555373 1
gene 1 12 21 -0.137932 0 31 -0.137932 1
gene 1 13 21 -0.773923 0 32 -0.773923 0
gene 1 14 21 0.149203 0 33 0.149203 1
gene 1 15 21 -0.507762 0 34 -0.507762 1
gene 1 16 21 1.17323 0 35 1.17323 1
gene 1 17 21 0.821851 0 36 0.821851 1
gene 1 18 21 -1.20818 0 37 -1.20818 1
gene 1 19 21 0.0522748 0 38 0.0522748 1
gene 1 1 22 -0.256277 0 39 -0.256277 1
gene 1 2 22 1.9647 0 40 1.9647 1
gene 1 3 22 0.4095 0 41 0.4095 1
gene 1 4 22 -1.11114 0 42 -1.11114 1
gene 1 5 22 -0.901261 0 43 -0.901261 1
gene 1 6 22 0.00972772 0 44 0.00972772 1
gene 1 7 22 0.313382 0 45 0.313382 1
gene 1 8 22 0.257994 0 46 0.257994 1
gene 1 9 22 0.382637 0 47 0.382637 1
gene 1 10 22 -0.320845 0 48 -0.320845 1
gene 1 11 22 -0.379124 0 49 -0.379124 1
gene 1 12 22 -0.18124 0 50 -0.18124 1
gene 1 13 22 0.117831 0 51 0.117831 1
gene 1 14 22 0.663591 0 52 0.663591 1
gene 1 15 22 0.267909 0 53 0.267909 1
gene 1 16 22 0.400934 0 54 0.400934 1
gene 1 17 22 -0.929225 0 55 -0.929225 1
gene 1 18 22 -0.417713 0 56 -0.417713 1
gene 1 19 22 -0.257366 0 57 -0.257366 1
gene 1 1 23 -0.162845 0 58 -0.162845 1
gene 1 2 23 0.249609 0 59 0.249609 1
gene 1 3 23 -0.533429 0 60 -0.533429 1
gene 1 4 23 -0.963487 0 61 -0.963487 1
gene 1 5 23 -0.743539 0 62 -0.743539 1
gene 1 6 23 -0.421046 0 63 -0.421046 1
gene 1 7 23 0.192516 0 64 0.192516 1
gene 1 8 23 -0.191861 0 65 -0.191861 1
gene 1 9 23 -0.119782 0 66 -0.119782 1
gene 1 10 23 -1.73634 0 67 -1.73634 1
gene 1 11 23 -0.069939 0 68 -0.069939 1
gene 1 12 23 -0.760758 0 69 -0.760758 1
gene 1 13 23 0.524248 0 70 0.524248 1
gene 1 14 23 -0.498378 0 71 -0.498378 1
gene 1 15 23 -0.357856 0 72 -0.357856 1
gene 1 16 23 0.656755 0 73 0.656755 1
gene 1 17 23 0.154692 0 74 0.154692 0
gene 1 18 23 -0.493723 0 75 -0.493723 1
gene 1 19 23 0.807363 0 76 0.807363 1
gene 1 8 24 -1.14489 0 77 -1.14489 0
gene 1 24 20 -0.496303 0 78 -0.496303 1
gene 1 15 26 0.526711 0 85 0.526711 1
gene 1 26 20 -0.967025 0 86 -0.967025 1
gene 1 22 20 0.27435 0 87 0.27435 1
gene 1 2 24 0.3138 0 91 0.3138 1
gene 1 8 28 0.193061 0 93 0.193061 0
gene 1 28 24 0.392842 0 94 0.392842 1
gene 1 6 24 0.258031 0 96 0.258031 1
gene 1 16 26 0.118002 0 99 0.118002 1
gene 1 13 24 -0.781782 0 100 -0.781782 1
gene 1 23 24 -1.49559 0 113 -1.49559 1
gene 1 13 32 0.954735 0 116 0.954735 1
gene 1 32 21 0.86575 0 117 0.86575 1
gene 1 11 34 -0.543962 0 122 -0.543962 1
gene 1 34 21 0.0316236 0 123 0.0316236 1
gene 1 9 36 0.895348 0 127 0.895348 1
gene 1 36 20 -0.474473 0 128 -0.474473 1
gene 1 10 37 -0.172706 0 129 -0.172706 1
gene 1 37 20 1.39047 0 130 1.39047 1
gene 1 17 39 0.338213 0 134 0.338213 1
gene 1 39 23 -0.266291 0 135 -0.266291 1
gene 1 24 37 -0.0988897 0 140 -0.0988897 1
gene 1 19 24 -0.616124 0 144 -0.616124 1
gene 1 15 43 -0.312076 0 150 -0.312076 1
gene 1 43 21 0.363111 0 151 0.363111 1
gene 1 3 43 -0.303337 0 153 -0.303337 1
gene 1 8 32 -1.17528 0 154 -1.17528 1
gene 1 11 46 0.317939 0 161 0.317939 1
gene 1 46 20 -0.659094 0 162 -0.659094 1
gene 1 2 39 -0.422147 0 178 -0.422147 1
gene 1 6 53 -0.319081 0 191 -0.319081 1
gene 1 53 22 -0.426164 0 192 -0.426164 1
gene 1 39 34 -0.563872 0 193 -0.563872 1
gene 1 16 54 -1.25637 0 194 -1.25637 1
gene 1 54 26 0.50163 0 195 0.50163 1
gene 1 6 43 0.437056 0 210 0.437056 1
gene 1 18 32 -0.414788 0 213 -0.414788 1
gene 1 17 60 -1.09658 0 217 -1.09658 1
gene 1 60 22 -0.879359 0 218 -0.879359 1
gene 1 24 22 -0.658601 0 219 -0.658601 1
gene 1 20 20 -0.921923 1 221 -0.921923 1
gene 1 1 43 0.871609 0 234 0.871609 1
gene 1 46 23 0.693052 0 251 0.693052 1
gene 1 10 66 0.246711 0 266 0.246711 1
gene 1 66 21 0.38923 0 267 0.38923 1
gene 1 8 71 -0.312258 0 288 -0.312258 1
gene 1 71 28 0.347376 0 289 0.347376 1
gene 1 15 53 -0.289395 0 295 -0.289395 1
gene 1 26 24 0.995069 0 305 0.995069 1
gene 1 7 37 -0.0983758 0 323 -0.0983758 0
gene 1 18 86 0.878959 0 336 0.878959 1
gene 1 86 22 -0.41014 0 337 -0.41014 1
gene 1 53 23 -0.489056 0 338 -0.489056 1
gene 1 12 95 -0.174483 0 365 -0.174483 1
gene 1 95 23 0.17245 0 366 0.17245 1
gene 1 2 101 0.385089 0 383 0.385089 1
gene 1 101 21 0.551233 0 384 0.551233 1
gene 1 14 46 0.271873 0 396 0.271873 1
gene 1 12 46 -0.291075 0 397 -0.291075 1
gene 1 36 34 0.0164996 0 409 0.0164996 1
gene 1 10 54 0.314092 0 415 0.314092 1
gene 1 15 54 -0.25498 0 422 -0.25498 1
gene 1 19 37 0.213643 0 431 0.213643 1
gene 1 28 43 0.651429 0 441 0.651429 1
gene 1 4 43 0.400881 0 444 0.400881 1
gene 1 1 115 -0.208869 0 445 -0.208869 1
gene 1 115 22 0.304967 0 446 0.304967 1
gene 1 3 119 -0.394808 0 460 -0.394808 1
gene 1 119 21 0.210515 0 461 0.210515 1
gene 1 16 125 0.352313 0 476 0.352313 1
gene 1 125 54 -0.388572 0 477 -0.388572 1
gene 1 20 128 -0.00661473 1 489 -0.00661473 1
gene 1 128 20 0.0128729 0 490 0.0128729 1
gene 1 13 134 2.0391 0 509 2.0391 1
gene 1 134 21 0.239062 0 510 0.239062 1
gene 1 18 34 0.301032 0 524 0.301032 1
gene 1 7 146 1 0 551 0 1
gene 1 146 37 -0.0295127 0 552 0 1
genomeend 1835
genomestart 1840
trait 1 0.548653 0.580503 0.546459 0.737177 0.706746 0.699168 0 0.212823 
node 1 1 1 1 0
node 2 1 1 1 0
node 3 1 1 1 0
node 4 1 1 1 0
node 5 1 1 1 0
node 6 1 1 1 0
node 7 1 1 1 0
node 8 1 1 1 0
node 9 1 1 1 0
node 10 1 1 1 0
node 11 1 1 1 0
node 12 1 1 1 0
node 13 1 1 1 0
node 14 1 1 1 0
node 15 1 1 1 0
node 16 1 1 1 0
node 17 1 1 1 0
node 18 1 1 1 0
node 19 1 1 3 0
node 20 1 0 2 0
node 21 1 0 2 0
node 22 1 0 2 0
node 23 1 0 2 0
node 24 1 0 0 0
node 26 1 0 0 0
node 28 1 0 0 0
node 32 1 0 0 0
node 34 1 0 0 0
node 36 1 0 0 0
node 37 1 0 0 0
node 39 1 0 0 0
node 43 1 0 0 0
node 46 1 0 0 0
node 53 1 0 0 0
node 54 1 0 0 0
node 60 1 0 0 0
node 66 1 0 0 0
node 71 1 0 0 0
node 86 1 0 0 0
node 95 1 0 0 0
node 101 1 0 0 0
node 115 1 0 0 0
node 119 1 0 0 0
node 125 1 0 0 0
node 128 1 0 0 0
node 134 1 0 0 0
gene 1 1 20 -0.413117 0 1 -0.413117 1
gene 1 2 20 0.307998 0 2 0.307998 1
gene 1 3 20 1.14254 0 3 1.14254 1
gene 1 4 20 -0.0776292 0 4 -0.0776292 1
gene 1 5 20 1.35404 0 5 1.35404 1
gene 1 6 20 -0.504096 0 6 -0.504096 1
gene 1 7 20 -1.01325 0 7 -1.01325 1
gene 1 8 20 -0.322103 0 8 -0.322103 1
gene 1 9 20 0.803967 0 9 0.803967 1
gene 1 10 20 -0.58248 0 10 -0.58248 1
gene 1 11 20 -1.61751 0 11 -1.61751 0
gene 1 12 20 0.0720511 0 12 0.0720511 1
gene 1 13 20 0.328003 0 13 0.328003 1
gene 1 14 20 -0.492771 0 14 -0.492771 1
gene 1 15 20 -0.30516 0 15 -0.30516 1
gene 1 16 20 0.776082 0 16 0.776082 1
gene 1 17 20 0.0640987 0 17 0.0640987 1
gene 1 18 20 0.0196631 0 18 0.0196631 1
gene 1 19 20 0.501713 0 19 0.501713 1
gene 1 1 21 0.548582 0 20 0.548582 1
gene 1 2 21 0.50628 0 21 0.50628 0
gene 1 3 21 -0.505121 0 22 -0.505121 1
gene 1 4 21 -2.09115 0 23 -2.09115 1
gene 1 5 21 -0.0680304 0 24 -0.0680304 1
gene 1 6 21 -0.0661716 0 25 -0.0661716 1
gene 1 7 21 0.129204 0 26 0.129204 1
gene 1 8 21 -0.400349 0 27 -0.400349 1
gene 1 9 21 -0.213967 0 28 -0.213967 1
gene 1 10 21 1.65782 0 29 1.65782 1
gene 1 11 21 0.233183 0 30 0.233183 0
gene 1 12 21 -0.42459 0 31 -0.42459 1
gene 1 13 21 0.371966 0 32 0.371966 0
gene 1 14 21 0.00917919 0 33 0.00917919 1
gene 1 15 21 -0.282877 0 34 -0.282877 1
gene 1 16 21 -0.00519134 0 35 -0.00519134 1
gene 1 17 21 -0.467615 0 36 -0.467615 1
gene 1 18 21 -1.14516 0 37 -1.14516 1
gene 1 19 21 0.677683 0 38 0.677683 1
gene 1 1 22 0.550691 0 39 0.550691 1
gene 1 2 22 1.11648 0 40 1.11648 1
gene 1 3 22 0.686337 0 41 0.686337 1
gene 1 4 22 -0.602145 0 42 -0.602145 1
gene 1 5 22 -1.02782 0 43 -1.02782 1
gene 1 6 22 0.0155542 0 44 0.0155542 1
gene 1 7 22 1.05412 0 45 1.05412 1
gene 1 8 22 -0.291847 0 46 -0.291847 1
gene 1 9 22 0.712761 0 47 0.712761 1
gene 1 10 22 0.256497 0 48 0.256497 1
gene 1 11 22 0.465213 0 49 0.465213 1
gene 1 12 22 0.478579 0 50 0.478579 1
gene 1 13 22 -0.111215 0 51 -0.111215 1
gene 1 14 22 -0.241766 0 52 -0.241766 1
gene 1 15 22 0.965162 0 53 0.965162 1
gene 1 16 22 0.246326 0 54 0.246326 1
gene 1 17 22 -0.942387 0 55 -0.942387 1
gene 1 18 22 0.339663 0 56 0.339663 1
gene 1 19 22 0.00484941 0 57 0.00484941 1
gene 1 1 23 0.236917 0 58 0.236917 1
gene 1 2 23 -0.628551 0 59 -0.628551 1
gene 1 3 23 -1.18873 0 60 -1.18873 1
gene 1 4 23 -0.253638 0 61 -0.253638 1
gene 1 5 23 -0.67229 0 62 -0.67229 1
gene 1 6 23 -1.07284 0 63 -1.07284 1
gene 1 7 23 0.408153 0 64 0.408153 1
gene 1 8 23 0.285717 0 65 0.285717 1
gene 1 9 23 0.56113 0 66 0.56113 1
gene 1 10 23 -1.32456 0 67 -1.32456 1
gene 1 11 23 -0.236565 0 68 -0.236565 1
gene 1 12 23 -0.379436 0 69 -0.379436 1
gene 1 13 23 0.462329 0 70 0.462329 1
gene 1 14 23 0.376439 0 71 0.376439 1
gene 1 15 23 1.15667 0 72 1.15667 1
gene 1 16 23 -0.442481 0 73 -0.442481 1
gene 1 17 23 0.104108 0 74 0.104108 1
gene 1 18 23 -0.412018 0 75 -0.412018 1
gene 1 19 23 0.699374 0 76 0.699374 1
gene 1 8 24 0.0448415 0 77 0.0448415 0
gene 1 24 20 -0.552576 0 78 -0.552576 1
gene 1 15 26 -0.122765 0 85 -0.122765 1
gene 1 26 20 0.39564 0 86 0.39564 1
gene 1 22 20 -0.985878 0 87 -0.985878 1
gene 1 2 24 0.212682 0 91 0.212682 1
gene 1 8 28 0.246065 0 93 0.246065 0
gene 1 28 24 1.22049 0 94 1.22049 1
gene 1 6 24 -0.00624831 0 96 -0.00624831 1
gene 1 16 26 0.38073 0 99 0.38073 1
gene 1 13 24 -0.615631 0 100 -0.615631 1
gene 1 23 24 -0.433341 0 113 -0.433341 1
gene 1 13 32 0.958785 0 116 0.958785 1
gene 1 32 21 0.651613 0 117 0.651613 1
gene 1 11 34 -0.0888245 0 122 -0.0888245 1
gene 1 34 21 0.408445 0 123 0.408445 1
gene 1 9 36 -1.0514 0 127 -1.0514 1
gene 1 36 20 0.242607 0 128 0.242607 1
gene 1 10 37 -0.447006 0 129 -0.447006 1
gene 1 37 20 1.48313 0 130 1.48313 1
gene 1 17 39 -0.450515 0 134 -0.450515 1
gene 1 39 23 -0.0457754 0 135 -0.0457754 1
gene 1 24 37 0.185028 0 140 0.185028 1
gene 1 19 24 -0.285618 0 144 -0.285618 1
gene 1 15 43 -0.748729 0 150 -0.748729 1
gene 1 43 21 1.14475 0 151 1.14475 1
gene 1 3 43 0.257962 0 153 0.257962 1
gene 1 8 32 0.24079 0 154 0.24079 1
gene 1 11 46 0.264325 0 161 0.264325 1
gene 1 46 20 -1.34362 0 162 -1.34362 1
gene 1 2 39 -0.355622 0 178 -0.355622 1
gene 1 6 53 0.690741 0 191 0.690741 1
gene 1 53 22 -0.0930356 0 192 -0.0930356 1
gene 1 39 34 -0.355943 0 193 -0.355943 1
gene 1 16 54 -0.230906 0 194 -0.230906 1
gene 1 54 26 -0.0415081 0 195 -0.0415081 1
gene 1 6 43 -0.4785 0 210 -0.4785 1
gene 1 18 32 0.104057 0 213 0.104057 1
gene 1 17 60 -0.24558 0 217 -0.24558 1
gene 1 60 22 0.143621 0 218 0.143621 1
gene 1 24 22 -0.25848 0 219 -0.25848 1
gene 1 20 20 0.0605574 1 221 0.0605574 1
gene 1 1 43 0.328449 0 234 0.328449 1
gene 1 46 23 0.153168 0 251 0.153168 1
gene 1 10 66 -0.0776317 0 266 -0.0776317 1
gene 1 66 21 -0.308077 0 267 -0.308077 1
gene 1 8 71 -0.402756 0 288 -0.402756 1
gene 1 71 28 1.04423 0 289 1.04423 1
gene 1 15 53 -0.0678003 0 295 -0.0678003 1
gene 1 26 24 -0.0649213 0 305 -0.0649213 1
gene 1 7 37 -0.00736469 0 323 -0.00736469 1
gene 1 18 86 0.151187 0 336 0.151187 1
gene 1 86 22 -0.576003 0 337 -0.576003 1
gene 1 53 23 -0.505164 0 338 -0.505164 1
gene 1 12 95 -0.268891 0 365 -0.268891 1
gene 1 95 23 -0.532286 0 366 -0.532286 1
gene 1 2 101 -0.141257 0 383 -0.141257 1
gene 1 101 21 0.0883037 0 384 0.0883037 1
gene 1 14 46 0.186158 0 396 0.186158 1
gene 1 12 46 0.514125 0 397 0.514125 1
gene 1 36 34 0.286847 0 409 0.286847 1
gene 1 10 54 0.0315574 0 415 0.0315574 1
gene 1 15 54 -0.363897 0 422 -0.363897 1
gene 1 19 37 -0.289308 0 431 -0.289308 1
gene 1 28 43 0.89168 0 441 0.89168 1
gene 1 4 43 0.0263012 0 444 0.0263012 1
gene 1 1 115 -0.461356 0 445 -0.461356 1
gene 1 115 22 0.554465 0 446 0.554465 1
gene 1 3 119 1.19422 0 460 1.19422 1
gene 1 119 21 -0.198269 0 461 -0.198269 1
gene 1 16 125 -0.529585 0 476 -0.529585 1
gene 1 125 54 0.031997 0 477 0.031997 1
gene 1 20 128 0.72156 1 489 0.72156 1
gene 1 128 20 0.353096 0 490 0.353096 1
gene 1 13 134 2.00209 0 509 2.00209 1
gene 1 134 21 0.562725 0 510 0.562725 1
genomeend 1840
genomestart 1841
trait 1 0.137163 0.400303 0.241795 0.779385 0.882786 0.257065 0.0563914 0.111368 
node 1 1 1 1 0
node 2 1 1 1 0
node 3 1 1 1 0
node 4 1 1 1 0
node 5 1 1 1 0
node 6 1 1 1 0
node 7 1 1 1 0
node 8 1 1 1 0
node 9 1 1 1 0
node 10 1 1 1 0
node 11 1 1 1 0
node 12 1 1 1 0
node 13 1 1 1 0
node 14 1 1 1 0
node 15 1 1 1 0
node 16 1 1 1 0
node 17 1 1 1 0
node 18 1 1 1 0
node 19 1 1 3 0
node 20 1 0 2 0
node 21 1 0 2 0
node 22 1 0 2 0
node 23 1 0 2 0
node 24 1 0 0 0
node 26 1 0 0 0
node 28 1 0 0 0
node 32 1 0 0 0
node 34 1 0 0 0
node 36 1 0 0 0
node 37 1 0 0 0
node 39 1 0 0 0
node 43 1 0 0 0
node 46 1 0 0 0
node 53 1 0 0 0
node 54 1 0 0 0
node 60 1 0 0 0
node 66 1 0 0 0
node 71 1 0 0 0
node 86 1 0 0 0
node 95 1 0 0 0
node 101 1 0 0 0
node 115 1 0 0 0
node 119 1 0 0 0
node 125 1 0 0 0
node 128 1 0 0 0
node 134 1 0 0 0
gene 1 1 20 0.316625 0 1 0.316625 1
gene 1 2 20 -0.111026 0 2 -0.111026 1
gene 1 3 20 0.340476 0 3 0.340476 1
gene 1 4 20 0.197813 0 4 0.197813 1
gene 1 5 20 0.298475 0 5 0.298475 1
gene 1 6 20 -0.0945517 0 6 -0.0945517 1
gene 1 7 20 0.302441 0 7 0.302441 1
gene 1 8 20 0.295811 0 8 0.295811 1
gene 1 9 20 0.294863 0 9 0.294863 1
gene 1 10 20 -0.103428 0 10 -0.103428 1
gene 1 11 20 -0.655288 0 11 -0.655288 1
gene 1 12 20 0.157641 0 12 0.157641 1
gene 1 13 20 0.343552 0 13 0.343552 1
gene 1 14 20 0.089868 0 14 0.089868 1
gene 1 15 20 -0.020036 0 15 -0.020036 1
gene 1 16 20 0.0918541 0 16 0.0918541 1
gene 1 17 20 0.029958 0 17 0.029958 1
gene 1 18 20 -0.03762 0 18 -0.03762 1
gene 1 19 20 0.637119 0 19 0.637119 1
gene 1 1 21 -0.0343262 0 20 -0.0343262 1
gene 1 2 21 -0.202064 0 21 -0.202064 0
gene 1 3 21 1.09051 0 22 1.09051 1
gene 1 4 21 -1.40129 0 23 -1.40129 1
gene 1 5 21 0.704435 0 24 0.704435 1
gene 1 6 21 -0.380152 0 25 -0.380152 1
gene 1 7 21 -0.0899592 0 26 -0.0899592 1
gene 1 8 21 0.195723 0 27 0.195723 1
gene 1 9 21 -0.0107907 0 28 -0.0107907 1
gene 1 10 21 -0.487755 0 29 -0.487755 1
gene 1 11 21 -0.561097 0 30 -0.561097 1
gene 1 12 21 -0.098908 0 31 -0.098908 1
gene 1 13 21 -0.830262 0 32 -0.830262 0
gene 1 14 21 0.164287 0 33 0.164287 1
gene 1 15 21 -0.506379 0 34 -0.506379 1
gene 1 16 21 1.12934 0 35 1.12934 1
gene 1 17 21 0.339627 0 36 0.339627 1
gene 1 18 21 -0.520671 0 37 -0.520671 1
gene 1 19 21 -0.0760999 0 38 -0.0760999 1
gene 1 1 22 -0.152621 0 39 -0.152621 1
gene 1 2 22 0.923054 0 40 0.923054 1
gene 1 3 22 0.52228 0 41 0.52228 1
gene 1 4 22 -0.811929 0 42 -0.811929 1
gene 1 5 22 -0.652643 0 43 -0.652643 1
gene 1 6 22 0.481589 0 44 0.481589 1
gene 1 7 22 0.598963 0 45 0.598963 1
gene 1 8 22 0.0770626 0 46 0.0770626 1
gene 1 9 22 0.364717 0 47 0.364717 1
gene 1 10 22 -0.236994 0 48 -0.236994 1
gene 1 11 22 -0.0104573 0 49 -0.0104573 1
gene 1 12 22 -0.334662 0 50 -0.334662 1
gene 1 13 22 0.220847 0 51 0.220847 1
gene 1 14 22 0.606044 0 52 0.606044 1
gene 1 15 22 -0.289028 0 53 -0.289028 1
gene 1 16 22 0.370522 0 54 0.370522 1
gene 1 17 22 -0.185893 0 55 -0.185893 1
gene 1 18 22 -0.654424 0 56 -0.654424 1
gene 1 19 22 -0.153742 0 57 -0.153742 1
gene 1 1 23 -0.327582 0 58 -0.327582 1
gene 1 2 23 -0.193182 0 59 -0.193182 1
gene 1 3 23 -0.472334 0 60 -0.472334 1
gene 1 4 23 -0.606237 0 61 -0.606237 1
gene 1 5 23 -0.15132 0 62 -0.15132 1
gene 1 6 23 -0.361273 0 63 -0.361273 1
gene 1 7 23 0.415583 0 64 0.415583 1
gene 1 8 23 -0.406821 0 65 -0.406821 1
gene 1 9 23 -0.190402 0 66 -0.190402 1
gene 1 10 23 -0.970372 0 67 -0.970372 1
gene 1 11 23 -0.392802 0 68 -0.392802 1
gene 1 12 23 -0.232265 0 69 -0.232265 1
gene 1 13 23 0.084104 0 70 0.084104 1
gene 1 14 23 -0.278843 0 71 -0.278843 1
gene 1 15 23 -0.208854 0 72 -0.208854 1
gene 1 16 23 0.593029 0 73 0.593029 1
gene 1 17 23 -0.150531 0 74 -0.150531 0
gene 1 18 23 -0.314916 0 75 -0.314916 1
gene 1 19 23 0.371052 0 76 0.371052 1
gene 1 8 24 -0.438179 0 77 -0.438179 0
gene 1 24 20 0.110492 0 78 0.110492 1
gene 1 15 26 0.390593 0 85 0.390593 1
gene 1 26 20 -0.953679 0 86 -0.953679 1
gene 1 22 20 -0.109853 0 87 -0.109853 1
gene 1 2 24 0.175117 0 91 0.175117 1
gene 1 8 28 0.28832 0 93 0.28832 0
gene 1 28 24 0.348109 0 94 0.348109 1
gene 1 6 24 0.54902 0 96 0.54902 1
gene 1 16 26 0.0530604 0 99 0.0530604 1
gene 1 13 24 -0.69326 0 100 -0.69326 1
gene 1 23 24 -1.34276 0 113 -1.34276 1
gene 1 13 32 0.533865 0 116 0.533865 1
gene 1 32 21 1.07743 0 117 1.07743 1
gene 1 11 34 -0.329923 0 122 -0.329923 1
gene 1 34 21 -0.213071 0 123 -0.213071 1
gene 1 9 36 0.760235 0 127 0.760235 1
gene 1 36 20 -0.220395 0 128 -0.220395 1
gene 1 10 37 -0.307364 0 129 -0.307364 1
gene 1 37 20 1.40339 0 130 1.40339 1
gene 1 17 39 0.558627 0 134 0.558627 1
gene 1 39 23 -0.204565 0 135 -0.204565 1
gene 1 24 37 -0.380687 0 140 -0.380687 1
gene 1 19 24 0.0167464 0 144 0.0167464 1
gene 1 15 43 -0.187743 0 150 -0.187743 1
gene 1 43 21 0.199242 0 151 0.199242 1
gene 1 3 43 -0.305169 0 153 -0.305169 1
gene 1 8 32 -0.856236 0 154 -0.856236 1
gene 1 11 46 -0.312572 0 161 -0.312572 1
gene 1 46 20 -0.591482 0 162 -0.591482 1
gene 1 2 39 -0.619789 0 178 -0.619789 1
gene 1 6 53 -0.057556 0 191 -0.057556 1
gene 1 53 22 -0.0846809 0 192 -0.0846809 1
gene 1 39 34 -0.707434 0 193 -0.707434 1
gene 1 16 54 -1.30325 0 194 -1.30325 1
gene 1 54 26 -0.0435244 0 195 -0.0435244 1
gene 1 6 43 0.273943 0 210 0.273943 1
gene 1 18 32 -0.388642 0 213 -0.388642 1
gene 1 17 60 -0.946796 0 217 -0.946796 1
gene 1 60 22 -0.670012 0 218 -0.670012 1
gene 1 24 22 -0.658601 0 219 -0.658601 1
gene 1 20 20 -0.748307 1 221 -0.748307 1
gene 1 1 43 0.625757 0 234 0.625757 1
gene 1 46 23 0.693052 0 251 0.693052 1
gene 1 10 66 -0.224791 0 266 -0.224791 1
gene 1 66 21 0.521326 0 267 0.521326 1
gene 1 8 71 -0.338529 0 288 -0.338529 1
gene 1 71 28 0.164434 0 289 0.164434 1
gene 1 15 53 -0.369634 0 295 -0.369634 1
gene 1 26 24 0.995069 0 305 0.995069 1
gene 1 7 37 -0.0983758 0 323 -0.0983758 1
gene 1 18 86 0.878959 0 336 0.878959 1
gene 1 86 22 -0.41014 0 337 -0.41014 1
gene 1 53 23 0.321863 0 338 0.321863 1
gene 1 12 95 0.0124512 0 365 0.0124512 1
gene 1 95 23 0.161044 0 366 0.161044 1
gene 1 2 101 0.430168 0 383 0.430168 1
gene 1 101 21 0.411276 0 384 0.411276 1
gene 1 14 46 0.271873 0 396 0.271873 1
gene 1 12 46 -0.291075 0 397 -0.291075 1
gene 1 36 34 -0.208461 0 409 -0.208461 1
gene 1 10 54 0.270508 0 415 0.270508 1
gene 1 15 54 -0.25498 0 422 -0.25498 1
gene 1 19 37 0.213643 0 431 0.213643 1
gene 1 28 43 0.520483 0 441 0.520483 1
gene 1 4 43 -0.227641 0 444 -0.227641 1
gene 1 1 115 -0.208869 0 445 -0.208869 1
gene 1 115 22 0.304967 0 446 0.304967 1
gene 1 3 119 0.0201282 0 460 0.0201282 1
gene 1 119 21 0.279746 0 461 0.279746 1
gene 1 16 125 0.477576 0 476 0.477576 1
gene 1 125 54 -0.115948 0 477 -0.115948 1
gene 1 20 128 -0.00661473 1 489 -0.00661473 1
gene 1 128 20 0.0128729 0 490 0.0128729 1
gene 1 13 134 2.0391 0 509 2.0391 1
gene 1 134 21 0.239062 0 510 0.239062 1
gene 1 18 34 -0.341008 0 524 -0.341008 1
gene 1 4 128 0.938641 0 553 0.938641 1
genomeend 1841
genomestart 1842
trait 1 0.0218376 0 0.88307 0.705506 0.461868 0.197608 0 0.138995 
node 1 1 1 1 0
node 2 1 1 1 0
node 3 1 1 1 0
node 4 1 1 1 0
node 5 1 1 1 0
node 6 1 1 1 0
node 7 1 1 1 0
node 8 1 1 1 0
node 9 1 1 1 0
node 10 1 1 1 0
node 11 1 1 1 0
node 12 1 1 1 0
node 13 1 1 1 0
node 14 1 1 1 0
node 15 1 1 1 0
node 16 1 1 1 0
node 17 1 1 1 0
node 18 1 1 1 0
node 19 1 1 3 0
node 20 1 0 2 0
node 21 1 0 2 0
node 22 1 0 2 0
node 23 1 0 2 0
node 24 1 0 0 0
node 26 1 0 0 0
node 37 1 0 0 0
node 46 1 0 0 0
node 86 1 0 0 0
node 104 1 0 0 0
gene 1 1 20 -0.481148 0 1 -0.481148 1
gene 1 2 20 0.0656868 0 2 0.0656868 1
gene 1 3 20 0.313932 0 3 0.313932 1
gene 1 4 20 -0.0917746 0 4 -0.0917746 1
gene 1 5 20 0.695886 0 5 0.695886 1
gene 1 6 20 0.278725 0 6 0.278725 1
gene 1 7 20 0.251509 0 7 0.251509 1
gene 1 8 20 0.29207 0 8 0.29207 1
gene 1 9 20 -0.0168547 0 9 -0.0168547 1
gene 1 10 20 -0.146987 0 10 -0.146987 1
gene 1 11 20 -0.179092 0 11 -0.179092 1
gene 1 12 20 1.68476 0 12 1.68476 1
gene 1 13 20 -0.406193 0 13 -0.406193 1
gene 1 14 20 -0.449044 0 14 -0.449044 1
gene 1 15 20 0.130316 0 15 0.130316 1
gene 1 16 20 -0.0246732 0 16 -0.0246732 1
gene 1 17 20 -0.0692418 0 17 -0.0692418 1
gene 1 18 20 -0.051785 0 18 -0.051785 1
gene 1 19 20 0.280898 0 19 0.280898 1
gene 1 1 21 -0.789324 0 20 -0.789324 1
gene 1 2 21 -0.0290899 0 21 -0.0290899 1
gene 1 3 21 0.166577 0 22 0.166577 1
gene 1 4 21 -0.591632 0 23 -0.591632 1
gene 1 5 21 -0.74969 0 24 -0.74969 1
gene 1 6 21 0.393067 0 25 0.393067 1
gene 1 7 21 0.0825917 0 26 0.0825917 1
gene 1 8 21 0.610903 0 27 0.610903 1
gene 1 9 21 -1.28047 0 28 -1.28047 1
gene 1 10 21 2.30247 0 29 2.30247 1
gene 1 11 21 -0.286023 0 30 -0.286023 1
gene 1 12 21 0.174057 0 31 0.174057 1
gene 1 13 21 -0.410665 0 32 -0.410665 1
gene 1 14 21 -1.80885 0 33 -1.80885 1
gene 1 15 21 -0.0315594 0 34 -0.0315594 1
gene 1 16 21 -0.0742174 0 35 -0.0742174 1
gene 1 17 21 -0.342766 0 36 -0.342766 1
gene 1 18 21 0.00996354 0 37 0.00996354 1
gene 1 19 21 -0.392004 0 38 -0.392004 1
gene 1 1 22 -0.421033 0 39 -0.421033 1
gene 1 2 22 0.386819 0 40 0.386819 1
gene 1 3 22 -0.51109 0 41 -0.51109 1
gene 1 4 22 -0.128415 0 42 -0.128415 1
gene 1 5 22 0.16248 0 43 0.16248 1
gene 1 6 22 0.186667 0 44 0.186667 1
gene 1 7 22 -0.17575 0 45 -0.17575 1
gene 1 8 22 0.423464 0 46 0.423464 1
gene 1 9 22 -0.0955162 0 47 -0.0955162 1
gene 1 10 22 0.978534 0 48 0.978534 1
gene 1 11 22 0.31065 0 49 0.31065 1
gene 1 12 22 0.00863485 0 50 0.00863485 1
gene 1 13 22 -0.361792 0 51 -0.361792 1
gene 1 14 22 -2.41104 0 52 -2.41104 1
gene 1 15 22 0.0660303 0 53 0.0660303 1
gene 1 16 22 -0.259716 0 54 -0.259716 1
gene 1 17 22 0.55868 0 55 0.55868 1
gene 1 18 22 0.42127 0 56 0.42127 1
gene 1 19 22 0.0294792 0 57 0.0294792 1
gene 1 1 23 1.70159 0 58 1.70159 1
gene 1 2 23 -1.05715 0 59 -1.05715 1
gene 1 3 23 -0.919699 0 60 -0.919699 1
gene 1 4 23 -0.236037 0 61 -0.236037 1
gene 1 5 23 0.0611989 0 62 0.0611989 1
gene 1 6 23 -0.0916857 0 63 -0.0916857 1
gene 1 7 23 -0.483135 0 64 -0.483135 1
gene 1 8 23 -1.05406 0 65 -1.05406 1
gene 1 9 23 0.626989 0 66 0.626989 1
gene 1 10 23 -0.163492 0 67 -0.163492 1
gene 1 11 23 -0.380264 0 68 -0.380264 1
gene 1 12 23 -2.37159 0 69 -2.37159 1
gene 1 13 23 0.0893685 0 70 0.0893685 1
gene 1 14 23 -0.459168 0 71 -0.459168 1
gene 1 15 23 0.363897 0 72 0.363897 1
gene 1 16 23 -0.152 0 73 -0.152 1
gene 1 17 23 -0.164911 0 74 -0.164911 1
gene 1 18 23 0.728114 0 75 0.728114 1
gene 1 19 23 1.1909 0 76 1.1909 1
gene 1 8 24 0.0190509 0 77 0.0190509 1
gene 1 24 20 -0.240459 0 78 -0.240459 1
gene 1 15 26 0.337146 0 85 0.337146 1
gene 1 26 20 -0.1917 0 86 -0.1917 1
gene 1 22 20 -0.573198 0 87 -0.573198 1
gene 1 2 24 -0.0544922 0 91 -0.0544922 1
gene 1 6 24 0.613009 0 96 0.613009 1
gene 1 10 37 0.262204 0 129 0.262204 1
gene 1 37 20 0.287556 0 130 0.287556 1
gene 1 24 37 -0.00839288 0 140 -0.00839288 1
gene 1 11 46 0.68271 0 161 0.68271 1
gene 1 46 20 0.404863 0 162 0.404863 1
gene 1 24 22 0.302761 0 219 0.302761 1
gene 1 46 23 -0.0404352 0 251 -0.0404352 1
gene 1 26 24 0.878542 0 305 0.878542 1
gene 1 7 37 -0.0496375 0 323 -0.0496375 1
gene 1 18 86 0.75786 0 336 0.75786 1
gene 1 86 22 0.282884 0 337 0.282884 1
gene 1 14 46 -0.320697 0 396 -0.320697 1
gene 1 12 46 -0.0341494 0 397 -0.0341494 1
gene 1 12 104 0.705043 0 398 0.705043 1
gene 1 104 21 0.0731974 0 399 0.0731974 1
gene 1 19 37 0.0205581 0 431 0.0205581 1
gene 1 9 86 -0.242858 0 505 -0.242858 1
gene 1 46 46 0.296388 1 523 0.296388 1
genomeend 1842
genomestart 1844
trait 1 0.411489 0.520436 0.444904 0.751247 0.765426 0.5518 0.0187971 0.179005 
node 1 1 1 1 0
node 2 1 1 1 0
node 3 1 1 1 0
node 4 1 1 1 0
node 5 1 1 1 0
node 6 1 1 1 0
node 7 1 1 1 0
node 8 1 1 1 0
node 9 1 1 1 0
node 10 1 1 1 0
node 11 1 1 1 0
node 12 1 1 1 0
node 13 1 1 1 0
node 14 1 1 1 0
node 15 1 1 1 0
node 16 1 1 1 0
node 17 1 1 1 0
node 18 1 1 1 0
node 19 1 1 3 0
node 20 1 0 2 0
node 21 1 0 2 0
node 22 1 0 2 0
node 23 1 0 2 0
node 24 1 0 0 0
node 26 1 0 0 0
node 28 1 0 0 0
node 32 1 0 0 0
node 34 1 0 0 0
node 36 1 0 0 0
node 37 1 0 0 0
node 39 1 0 0 0
node 43 1 0 0 0
node 46 1 0 0 0
node 53 1 0 0 0
node 54 1 0 0 0
node 60 1 0 0 0
node 66 1 0 0 0
node 71 1 0 0 0
node 86 1 0 0 0
node 95 1 0 0 0
node 101 1 0 0 0
node 115 1 0 0 0
node 119 1 0 0 0
node 125 1 0 0 0
node 128 1 0 0 0
node 134 1 0 0 0
node 146 1 0 0 0
node 147 1 0 0 0
gene 1 1 20 -0.432696 0 1 -0.432696 1
gene 1 2 20 -0.336665 0 2 -0.336665 1
gene 1 3 20 0.711134 0 3 0.711134 1
gene 1 4 20 -0.247632 0 4 -0.247632 1
gene 1 5 20 1.10414 0 5 1.10414 1
gene 1 6 20 -0.309946 0 6 -0.309946 1
gene 1 7 20 0.00422975 0 7 0.00422975 1
gene 1 8 20 0.18408 0 8 0.18408 1
gene 1 9 20 0.863192 0 9 0.863192 1
gene 1 10 20 0.0153861 0 10 0.0153861 1
gene 1 11 20 -1.71039 0 11 -1.71039 0
gene 1 12 20 0.545653 0 12 0.545653 1
gene 1 13 20 -0.0547294 0 13 -0.0547294 1
gene 1 14 20 -0.503922 0 14 -0.503922 1
gene 1 15 20 -0.16361 0 15 -0.16361 1
gene 1 16 20 0.266742 0 16 0.266742 1
gene 1 17 20 -0.0545033 0 17 -0.0545033 1
gene 1 18 20 -0.123957 0 18 -0.123957 1
gene 1 19 20 0.714669 0 19 0.714669 1
gene 1 1 21 0.264009 0 20 0.264009 1
gene 1 2 21 0.0532435 0 21 0.0532435 0
gene 1 3 21 0.433388 0 22 0.433388 0
gene 1 4 21 -2.21149 0 23 -2.21149 1
gene 1 5 21 -0.219551 0 24 -0.219551 1
gene 1 6 21 -0.783927 0 25 -0.783927 1
gene 1 7 21 0.308556 0 26 0.308556 1
gene 1 8 21 -0.143357 0 27 -0.143357 1
gene 1 9 21 -0.357392 0 28 -0.357392 1
gene 1 10 21 0.462147 0 29 0.462147 1
gene 1 11 21 -0.361516 0 30 -0.361516 0
gene 1 12 21 -0.0521628 0 31 -0.0521628 1
gene 1 13 21 -0.791691 0 32 -0.791691 0
gene 1 14 21 0.279352 0 33 0.279352 1
gene 1 15 21 -0.267013 0 34 -0.267013 1
gene 1 16 21 0.469939 0 35 0.469939 1
gene 1 17 21 0.443712 0 36 0.443712 1
gene 1 18 21 -1.32436 0 37 -1.32436 1
gene 1 19 21 0.41521 0 38 0.41521 1
gene 1 1 22 0.0269731 0 39 0.0269731 1
gene 1 2 22 1.9259 0 40 1.9259 1
gene 1 3 22 0.555056 0 41 0.555056 1
gene 1 4 22 -1.20871 0 42 -1.20871 1
gene 1 5 22 -0.656168 0 43 -0.656168 1
gene 1 6 22 0.337592 0 44 0.337592 1
gene 1 7 22 0.873486 0 45 0.873486 1
gene 1 8 22 0.0613166 0 46 0.0613166 1
gene 1 9 22 0.187755 0 47 0.187755 1
gene 1 10 22 -0.512251 0 48 -0.512251 1
gene 1 11 22 0.0747741 0 49 0.0747741 1
gene 1 12 22 0.0287308 0 50 0.0287308 1
gene 1 13 22 0.0935956 0 51 0.0935956 1
gene 1 14 22 0.192349 0 52 0.192349 0
gene 1 15 22 0.710535 0 53 0.710535 1
gene 1 16 22 0.312988 0 54 0.312988 1
gene 1 17 22 -1.12612 0 55 -1.12612 1
gene 1 18 22 0.235263 0 56 0.235263 1
gene 1 19 22 0.232811 0 57 0.232811 1
gene 1 1 23 0.0289569 0 58 0.0289569 1
gene 1 2 23 0.159407 0 59 0.159407 1
gene 1 3 23 -0.769169 0 60 -0.769169 1
gene 1 4 23 -0.752123 0 61 -0.752123 1
gene 1 5 23 -0.532933 0 62 -0.532933 1
gene 1 6 23 -0.787097 0 63 -0.787097 1
gene 1 7 23 0.407902 0 64 0.407902 1
gene 1 8 23 -0.118668 0 65 -0.118668 1
gene 1 9 23 0.0763773 0 66 0.0763773 1
gene 1 10 23 -1.57861 0 67 -1.57861 1
gene 1 11 23 0.00512792 0 68 0.00512792 1
gene 1 12 23 -0.574758 0 69 -0.574758 1
gene 1 13 23 0.869568 0 70 0.869568 1
gene 1 14 23 -0.0969777 0 71 -0.0969777 1
gene 1 15 23 0.0979197 0 72 0.0979197 1
gene 1 16 23 0.705409 0 73 0.705409 1
gene 1 17 23 -0.16731 0 74 -0.16731 0
gene 1 18 23 -0.841638 0 75 -0.841638 1
gene 1 19 23 1.06299 0 76 1.06299 1
gene 1 8 24 -0.830397 0 77 -0.830397 0
gene 1 24 20 -0.486265 0 78 -0.486265 1
gene 1 15 26 0.102542 0 85 0.102542 1
gene 1 26 20 -0.88801 0 86 -0.88801 1
gene 1 22 20 -0.0935451 0 87 -0.0935451 1
gene 1 2 24 0.360771 0 91 0.360771 1
gene 1 8 28 0.195766 0 93 0.195766 1
gene 1 28 24 0.855816 0 94 0.855816 1
gene 1 6 24 0.428253 0 96 0.428253 1
gene 1 16 26 0.175332 0 99 0.175332 1
gene 1 13 24 -0.554006 0 100 -0.554006 1
gene 1 23 24 -0.904381 0 113 -0.904381 1
gene 1 13 32 0.780024 0 116 0.780024 1
gene 1 32 21 0.757459 0 117 0.757459 1
gene 1 11 34 -0.281113 0 122 -0.281113 1
gene 1 34 21 -0.0253975 0 123 -0.0253975 1
gene 1 9 36 -0.18263 0 127 -0.18263 1
gene 1 36 20 0.114883 0 128 0.114883 1
gene 1 10 37 0.0715975 0 129 0.0715975 1
gene 1 37 20 1.39254 0 130 1.39254 1
gene 1 17 39 0.079893 0 134 0.079893 1
gene 1 39 23 -0.296734 0 135 -0.296734 1
gene 1 24 37 0.059062 0 140 0.059062 1
gene 1 19 24 -0.349795 0 144 -0.349795 1
gene 1 15 43 -0.679306 0 150 -0.679306 1
gene 1 43 21 0.512733 0 151 0.512733 1
gene 1 3 43 -0.210032 0 153 -0.210032 1
gene 1 8 32 -0.862283 0 154 -0.862283 1
gene 1 11 46 0.147328 0 161 0.147328 1
gene 1 46 20 -0.960499 0 162 -0.960499 1
gene 1 2 39 0.0169954 0 178 0.0169954 1
gene 1 6 53 0.103587 0 191 0.103587 1
gene 1 53 22 -0.274835 0 192 -0.274835 1
gene 1 39 34 -0.200182 0 193 -0.200182 1
gene 1 16 54 -0.327836 0 194 -0.327836 1
gene 1 54 26 0.00235503 0 195 0.00235503 1
gene 1 6 43 0.142735 0 210 0.142735 1
gene 1 18 32 -0.328958 0 213 -0.328958 1
gene 1 17 60 -0.6301 0 217 -0.6301 1
gene 1 60 22 -0.775661 0 218 -0.775661 1
gene 1 24 22 -0.611431 0 219 -0.611431 1
gene 1 20 20 -0.543983 1 221 -0.543983 1
gene 1 1 43 0.325589 0 234 0.325589 1
gene 1 46 23 0.561515 0 251 0.561515 1
gene 1 10 66 0.062881 0 266 0.062881 1
gene 1 66 21 0.600274 0 267 0.600274 1
gene 1 8 71 -0.103025 0 288 -0.103025 1
gene 1 71 28 -0.0374918 0 289 -0.0374918 1
gene 1 15 53 -0.217046 0 295 -0.217046 1
gene 1 26 24 0.618213 0 305 0.618213 1
gene 1 7 37 0.130001 0 323 0.130001 0
gene 1 18 86 0.678861 0 336 0.678861 1
gene 1 86 22 -0.391573 0 337 -0.391573 1
gene 1 53 23 -0.595079 0 338 -0.595079 1
