genomestart 146
trait 1 0 0.0467859 0.0192573 0.279119 0.740692 0 0 0.400162 
node 1 1 1 1 0
node 2 1 1 1 0
node 3 1 1 1 0
node 4 1 1 1 0
node 5 1 1 1 0
node 6 1 1 1 0
node 7 1 1 1 0
node 8 1 1 1 0
node 9 1 1 1 0
node 10 1 1 1 0
node 11 1 1 1 0
node 12 1 1 1 0
node 13 1 1 1 0
node 14 1 1 1 0
node 15 1 1 1 0
node 16 1 1 1 0
node 17 1 1 1 0
node 18 1 1 1 0
node 19 1 1 3 0
node 20 1 0 2 0
node 21 1 0 2 0
node 22 1 0 2 0
node 23 1 0 2 0
node 24 1 0 0 0
node 26 1 0 0 0
node 28 1 0 0 0
node 32 1 0 0 0
node 37 1 0 0 0
node 39 1 0 0 0
node 43 1 0 0 0
node 53 1 0 0 0
node 60 1 0 0 0
node 66 1 0 0 0
node 68 1 0 0 0
gene 1 1 20 -0.829596 0 1 -0.829596 1
gene 1 2 20 -0.0409854 0 2 -0.0409854 1
gene 1 3 20 -0.702361 0 3 -0.702361 1
gene 1 4 20 -1.83748 0 4 -1.83748 1
gene 1 5 20 0.274594 0 5 0.274594 1
gene 1 6 20 -0.142343 0 6 -0.142343 1
gene 1 7 20 -0.131029 0 7 -0.131029 1
gene 1 8 20 -0.440704 0 8 -0.440704 0
gene 1 9 20 0.931464 0 9 0.931464 1
gene 1 10 20 -0.52684 0 10 -0.52684 1
gene 1 11 20 0.2944 0 11 0.2944 1
gene 1 12 20 0.31701 0 12 0.31701 1
gene 1 13 20 0.483288 0 13 0.483288 1
gene 1 14 20 0.454089 0 14 0.454089 1
gene 1 15 20 -0.256197 0 15 -0.256197 1
gene 1 16 20 -0.0295844 0 16 -0.0295844 1
gene 1 17 20 1.01574 0 17 1.01574 1
gene 1 18 20 0.241874 0 18 0.241874 1
gene 1 19 20 -1.01457 0 19 -1.01457 1
gene 1 1 21 0.559299 0 20 0.559299 1
gene 1 2 21 0.349002 0 21 0.349002 1
gene 1 3 21 0.124363 0 22 0.124363 1
gene 1 4 21 0.731657 0 23 0.731657 1
gene 1 5 21 -0.239622 0 24 -0.239622 1
gene 1 6 21 0.865427 0 25 0.865427 1
gene 1 7 21 0.105935 0 26 0.105935 1
gene 1 8 21 1.26389 0 27 1.26389 1
gene 1 9 21 0.0295856 0 28 0.0295856 1
gene 1 10 21 -0.305559 0 29 -0.305559 1
gene 1 11 21 1.92084 0 30 1.92084 1
gene 1 12 21 1.11322 0 31 1.11322 1
gene 1 13 21 -0.83664 0 32 -0.83664 0
gene 1 14 21 -0.394408 0 33 -0.394408 1
gene 1 15 21 -0.0272495 0 34 -0.0272495 0
gene 1 16 21 -0.705127 0 35 -0.705127 1
gene 1 17 21 -0.327267 0 36 -0.327267 1
gene 1 18 21 -0.202689 0 37 -0.202689 1
gene 1 19 21 0.436243 0 38 0.436243 1
gene 1 1 22 2.151 0 39 2.151 1
gene 1 2 22 -0.539933 0 40 -0.539933 1
gene 1 3 22 -0.353751 0 41 -0.353751 1
gene 1 4 22 -0.0865438 0 42 -0.0865438 1
gene 1 5 22 -0.17334 0 43 -0.17334 1
gene 1 6 22 0.116524 0 44 0.116524 1
gene 1 7 22 -0.565702 0 45 -0.565702 1
gene 1 8 22 -0.577799 0 46 -0.577799 1
gene 1 9 22 0.00785448 0 47 0.00785448 1
gene 1 10 22 -0.448102 0 48 -0.448102 1
gene 1 11 22 0.656268 0 49 0.656268 1
gene 1 12 22 0.917098 0 50 0.917098 1
gene 1 13 22 0.324389 0 51 0.324389 1
gene 1 14 22 -0.0386743 0 52 -0.0386743 1
gene 1 15 22 0.206348 0 53 0.206348 1
gene 1 16 22 1.36166 0 54 1.36166 1
gene 1 17 22 -0.225418 0 55 -0.225418 0
gene 1 18 22 -0.420889 0 56 -0.420889 1
gene 1 19 22 0.0537715 0 57 0.0537715 1
gene 1 1 23 -0.86936 0 58 -0.86936 1
gene 1 2 23 1.07077 0 59 1.07077 1
gene 1 3 23 -1.35152 0 60 -1.35152 1
gene 1 4 23 -0.538017 0 61 -0.538017 1
gene 1 5 23 0.0466345 0 62 0.0466345 1
gene 1 6 23 0.21405 0 63 0.21405 1
gene 1 7 23 0.214749 0 64 0.214749 1
gene 1 8 23 -0.819844 0 65 -0.819844 1
gene 1 9 23 0.790628 0 66 0.790628 1
gene 1 10 23 -0.244557 0 67 -0.244557 1
gene 1 11 23 -0.682007 0 68 -0.682007 1
gene 1 12 23 0.103574 0 69 0.103574 1
gene 1 13 23 0.164596 0 70 0.164596 1
gene 1 14 23 0.110268 0 71 0.110268 1
gene 1 15 23 0.485035 0 72 0.485035 1
gene 1 16 23 -0.559535 0 73 -0.559535 1
gene 1 17 23 -1.53703 0 74 -1.53703 0
gene 1 18 23 0.479139 0 75 0.479139 1
gene 1 19 23 0.434426 0 76 0.434426 1
gene 1 8 24 0.349396 0 77 0.349396 0
gene 1 24 20 0.399636 0 78 0.399636 1
gene 1 15 26 0.022895 0 85 0.022895 1
gene 1 26 20 -0.390193 0 86 -0.390193 1
gene 1 22 20 0.562398 0 87 0.562398 1
gene 1 2 24 0.0588179 0 91 0.0588179 1
gene 1 8 28 0.438215 0 93 0.438215 1
gene 1 28 24 0.0979041 0 94 0.0979041 1
gene 1 6 24 -0.105323 0 96 -0.105323 1
gene 1 16 26 0.716371 0 99 0.716371 1
gene 1 13 24 0.908661 0 100 0.908661 1
gene 1 23 24 0.62918 0 113 0.62918 1
gene 1 13 32 0.335216 0 116 0.335216 1
gene 1 32 21 0.552747 0 117 0.552747 1
gene 1 10 37 0.149757 0 129 0.149757 1
gene 1 37 20 1.02255 0 130 1.02255 1
gene 1 17 39 0.200484 0 134 0.200484 1
gene 1 39 23 -0.230396 0 135 -0.230396 1
gene 1 15 43 -0.287118 0 150 -0.287118 1
gene 1 43 21 0.307796 0 151 0.307796 1
gene 1 3 43 0.035922 0 153 0.035922 1
gene 1 8 32 0.613017 0 154 0.613017 1
gene 1 2 39 -0.0326715 0 178 -0.0326715 1
gene 1 6 53 0.180481 0 191 0.180481 1
gene 1 53 22 0.152594 0 192 0.152594 1
gene 1 6 43 1.36668 0 210 1.36668 1
gene 1 17 60 0.375319 0 217 0.375319 1
gene 1 60 22 -0.283391 0 218 -0.283391 1
gene 1 20 20 0.359088 1 221 0.359088 1
gene 1 1 43 0.231373 0 234 0.231373 1
gene 1 15 37 0.3779 0 261 0.3779 1
gene 1 10 66 0.692411 0 266 0.692411 1
gene 1 66 21 -0.286746 0 267 -0.286746 1
gene 1 18 32 0.0869306 0 271 0.0869306 1
gene 1 5 68 -0.340085 0 277 -0.340085 1
gene 1 68 20 -0.0849023 0 278 -0.0849023 1
genomeend 146
genomestart 190
trait 1 0.36799 0.413732 0.552205 0 0.917775 0.143246 0.165854 0.471228 
node 1 1 1 1 0
node 2 1 1 1 0
node 3 1 1 1 0
node 4 1 1 1 0
node 5 1 1 1 0
node 6 1 1 1 0
node 7 1 1 1 0
node 8 1 1 1 0
node 9 1 1 1 0
node 10 1 1 1 0
node 11 1 1 1 0
node 12 1 1 1 0
node 13 1 1 1 0
node 14 1 1 1 0
node 15 1 1 1 0
node 16 1 1 1 0
node 17 1 1 1 0
node 18 1 1 1 0
node 19 1 1 3 0
node 20 1 0 2 0
node 21 1 0 2 0
node 22 1 0 2 0
node 23 1 0 2 0
node 24 1 0 0 0
node 26 1 0 0 0
node 28 1 0 0 0
node 32 1 0 0 0
node 37 1 0 0 0
node 39 1 0 0 0
node 43 1 0 0 0
node 53 1 0 0 0
node 75 1 0 0 0
gene 1 1 20 -1.08142 0 1 -1.08142 1
gene 1 2 20 0.408471 0 2 0.408471 1
gene 1 3 20 0.398842 0 3 0.398842 1
gene 1 4 20 -0.460469 0 4 -0.460469 1
gene 1 5 20 0.4273 0 5 0.4273 1
gene 1 6 20 0.262117 0 6 0.262117 1
gene 1 7 20 -0.0324262 0 7 -0.0324262 1
gene 1 8 20 1.00238 0 8 1.00238 0
gene 1 9 20 0.941392 0 9 0.941392 1
gene 1 10 20 -0.459167 0 10 -0.459167 0
gene 1 11 20 -0.235729 0 11 -0.235729 1
gene 1 12 20 0.706883 0 12 0.706883 1
gene 1 13 20 0.28377 0 13 0.28377 1
gene 1 14 20 -0.138416 0 14 -0.138416 1
gene 1 15 20 0.0496893 0 15 0.0496893 1
gene 1 16 20 -0.681294 0 16 -0.681294 1
gene 1 17 20 -0.111598 0 17 -0.111598 1
gene 1 18 20 0.829984 0 18 0.829984 1
gene 1 19 20 -0.786084 0 19 -0.786084 1
gene 1 1 21 -0.16964 0 20 -0.16964 1
gene 1 2 21 0.411733 0 21 0.411733 0
gene 1 3 21 1.51307 0 22 1.51307 1
gene 1 4 21 0.878729 0 23 0.878729 1
gene 1 5 21 0.828107 0 24 0.828107 1
gene 1 6 21 -0.811603 0 25 -0.811603 1
gene 1 7 21 -0.270107 0 26 -0.270107 1
gene 1 8 21 -0.108328 0 27 -0.108328 1
gene 1 9 21 0.194385 0 28 0.194385 1
gene 1 10 21 0.242196 0 29 0.242196 1
gene 1 11 21 -0.00952622 0 30 -0.00952622 1
gene 1 12 21 0.554722 0 31 0.554722 1
gene 1 13 21 0.0177728 0 32 0.0177728 0
gene 1 14 21 -0.324478 0 33 -0.324478 1
gene 1 15 21 0.141873 0 34 0.141873 0
gene 1 16 21 -0.210705 0 35 -0.210705 1
gene 1 17 21 -0.18545 0 36 -0.18545 1
gene 1 18 21 -0.451684 0 37 -0.451684 1
gene 1 19 21 0.0453872 0 38 0.0453872 1
gene 1 1 22 1.67891 0 39 1.67891 1
gene 1 2 22 -0.739835 0 40 -0.739835 1
gene 1 3 22 1.29533 0 41 1.29533 1
gene 1 4 22 0.473275 0 42 0.473275 1
gene 1 5 22 0.296108 0 43 0.296108 1
gene 1 6 22 -0.522228 0 44 -0.522228 0
gene 1 7 22 -0.269769 0 45 -0.269769 1
gene 1 8 22 -1.05918 0 46 -1.05918 1
gene 1 9 22 -0.321615 0 47 -0.321615 1
gene 1 10 22 -0.25704 0 48 -0.25704 1
gene 1 11 22 -0.120722 0 49 -0.120722 1
gene 1 12 22 0.287966 0 50 0.287966 1
gene 1 13 22 -0.386609 0 51 -0.386609 1
gene 1 14 22 0.283126 0 52 0.283126 1
gene 1 15 22 1.60646 0 53 1.60646 1
gene 1 16 22 -0.491254 0 54 -0.491254 1
gene 1 17 22 0.216501 0 55 0.216501 1
gene 1 18 22 0.0934157 0 56 0.0934157 1
gene 1 19 22 0.205429 0 57 0.205429 1
gene 1 1 23 0.330052 0 58 0.330052 1
gene 1 2 23 0.484321 0 59 0.484321 1
gene 1 3 23 0.618695 0 60 0.618695 1
gene 1 4 23 0.974589 0 61 0.974589 1
gene 1 5 23 -0.676054 0 62 -0.676054 1
gene 1 6 23 0.182769 0 63 0.182769 1
gene 1 7 23 -0.13652 0 64 -0.13652 1
gene 1 8 23 0.0450642 0 65 0.0450642 1
gene 1 9 23 -0.0740854 0 66 -0.0740854 1
gene 1 10 23 0.153912 0 67 0.153912 1
gene 1 11 23 -0.651559 0 68 -0.651559 1
gene 1 12 23 -0.349024 0 69 -0.349024 1
gene 1 13 23 -0.366401 0 70 -0.366401 1
gene 1 14 23 -0.783768 0 71 -0.783768 1
gene 1 15 23 0.166145 0 72 0.166145 1
gene 1 16 23 0.8313 0 73 0.8313 1
gene 1 17 23 0.656825 0 74 0.656825 1
gene 1 18 23 0.12973 0 75 0.12973 1
gene 1 19 23 -1.84091 0 76 -1.84091 1
gene 1 8 24 0.273565 0 77 0.273565 0
gene 1 24 20 -0.0747657 0 78 -0.0747657 1
gene 1 15 26 0.319985 0 85 0.319985 1
gene 1 26 20 0.16924 0 86 0.16924 1
gene 1 22 20 2.29987 0 87 2.29987 1
gene 1 2 24 -0.566481 0 91 -0.566481 1
gene 1 8 28 -0.141747 0 93 -0.141747 1
gene 1 28 24 -0.294726 0 94 -0.294726 1
gene 1 6 24 0.20305 0 96 0.20305 1
gene 1 16 26 0.531253 0 99 0.531253 1
gene 1 13 24 -0.125328 0 100 -0.125328 1
gene 1 23 24 -0.123869 0 113 -0.123869 1
gene 1 13 32 0.289659 0 116 0.289659 1
gene 1 32 21 -0.547025 0 117 -0.547025 1
gene 1 10 37 0.453939 0 129 0.453939 1
gene 1 37 20 -0.426873 0 130 -0.426873 1
gene 1 17 39 -0.161963 0 134 -0.161963 1
gene 1 39 23 0.389186 0 135 0.389186 1
gene 1 15 43 0.437018 0 150 0.437018 1
gene 1 43 21 0.883756 0 151 0.883756 1
gene 1 3 43 -0.273991 0 153 -0.273991 1
gene 1 8 32 0.0969912 0 154 0.0969912 1
gene 1 2 39 -0.447556 0 178 -0.447556 1
gene 1 6 53 0.12192 0 191 0.12192 1
gene 1 53 22 0.551675 0 192 0.551675 1
gene 1 15 24 -0.742805 0 275 -0.742805 1
gene 1 32 32 -0.854194 1 283 -0.854194 1
gene 1 2 75 1 0 301 1 1
gene 1 75 21 -0.333829 0 302 -0.333829 1
genomeend 190
genomestart 213
trait 1 0 0.0465637 0.019193 0.28 0.741924 0 0 0.402354 
node 1 1 1 1 0
node 2 1 1 1 0
node 3 1 1 1 0
node 4 1 1 1 0
node 5 1 1 1 0
node 6 1 1 1 0
node 7 1 1 1 0
node 8 1 1 1 0
node 9 1 1 1 0
node 10 1 1 1 0
node 11 1 1 1 0
node 12 1 1 1 0
node 13 1 1 1 0
node 14 1 1 1 0
node 15 1 1 1 0
node 16 1 1 1 0
node 17 1 1 1 0
node 18 1 1 1 0
node 19 1 1 3 0
node 20 1 0 2 0
node 21 1 0 2 0
node 22 1 0 2 0
node 23 1 0 2 0
node 24 1 0 0 0
node 26 1 0 0 0
node 28 1 0 0 0
node 32 1 0 0 0
node 37 1 0 0 0
node 39 1 0 0 0
node 43 1 0 0 0
node 53 1 0 0 0
node 60 1 0 0 0
node 66 1 0 0 0
node 68 1 0 0 0
gene 1 1 20 -0.703463 0 1 -0.703463 1
gene 1 2 20 -0.507139 0 2 -0.507139 1
gene 1 3 20 -0.422293 0 3 -0.422293 1
gene 1 4 20 0.382106 0 4 0.382106 1
gene 1 5 20 -0.0292851 0 5 -0.0292851 1
gene 1 6 20 -0.822544 0 6 -0.822544 1
gene 1 7 20 -0.11907 0 7 -0.11907 1
gene 1 8 20 -0.190707 0 8 -0.190707 0
gene 1 9 20 0.328934 0 9 0.328934 1
gene 1 10 20 -0.210629 0 10 -0.210629 1
gene 1 11 20 0.278058 0 11 0.278058 1
gene 1 12 20 -0.244321 0 12 -0.244321 1
gene 1 13 20 0.997631 0 13 0.997631 1
gene 1 14 20 -0.0710708 0 14 -0.0710708 1
gene 1 15 20 0.348164 0 15 0.348164 1
gene 1 16 20 1.52381 0 16 1.52381 1
gene 1 17 20 1.1421 0 17 1.1421 1
gene 1 18 20 -0.792278 0 18 -0.792278 1
gene 1 19 20 -0.808143 0 19 -0.808143 1
gene 1 1 21 0.207494 0 20 0.207494 1
gene 1 2 21 -0.263298 0 21 -0.263298 1
gene 1 3 21 -0.400394 0 22 -0.400394 1
gene 1 4 21 0.435969 0 23 0.435969 1
gene 1 5 21 -0.0546591 0 24 -0.0546591 1
gene 1 6 21 1.313 0 25 1.313 1
gene 1 7 21 -0.104301 0 26 -0.104301 1
gene 1 8 21 0.550346 0 27 0.550346 1
gene 1 9 21 -0.267465 0 28 -0.267465 1
gene 1 10 21 -0.940471 0 29 -0.940471 1
gene 1 11 21 2.19031 0 30 2.19031 1
gene 1 12 21 0.418603 0 31 0.418603 1
gene 1 13 21 -0.9107 0 32 -0.9107 0
gene 1 14 21 -0.650277 0 33 -0.650277 1
gene 1 15 21 1.10036 0 34 1.10036 0
gene 1 16 21 -1.67708 0 35 -1.67708 1
gene 1 17 21 0.724544 0 36 0.724544 1
gene 1 18 21 -0.529753 0 37 -0.529753 1
gene 1 19 21 -0.408093 0 38 -0.408093 1
gene 1 1 22 1.45684 0 39 1.45684 1
gene 1 2 22 -0.746758 0 40 -0.746758 1
gene 1 3 22 1.08241 0 41 1.08241 1
gene 1 4 22 -0.369495 0 42 -0.369495 1
gene 1 5 22 0.22951 0 43 0.22951 1
gene 1 6 22 -0.537985 0 44 -0.537985 0
gene 1 7 22 -0.19462 0 45 -0.19462 1
gene 1 8 22 0.643359 0 46 0.643359 1
gene 1 9 22 -0.166562 0 47 -0.166562 1
gene 1 10 22 -0.631515 0 48 -0.631515 1
gene 1 11 22 1.62657 0 49 1.62657 1
gene 1 12 22 0.846422 0 50 0.846422 1
gene 1 13 22 -0.0684668 0 51 -0.0684668 1
gene 1 14 22 0.421764 0 52 0.421764 1
gene 1 15 22 0.479254 0 53 0.479254 1
gene 1 16 22 1.69029 0 54 1.69029 1
gene 1 17 22 0.0407365 0 55 0.0407365 0
gene 1 18 22 0.218154 0 56 0.218154 1
gene 1 19 22 0.399866 0 57 0.399866 1
gene 1 1 23 0.00774143 0 58 0.00774143 1
gene 1 2 23 1.61853 0 59 1.61853 1
gene 1 3 23 -0.784752 0 60 -0.784752 1
gene 1 4 23 -0.53084 0 61 -0.53084 1
gene 1 5 23 -0.725252 0 62 -0.725252 1
gene 1 6 23 0.591941 0 63 0.591941 1
gene 1 7 23 0.679998 0 64 0.679998 1
gene 1 8 23 -0.00817186 0 65 -0.00817186 1
gene 1 9 23 0.466156 0 66 0.466156 1
gene 1 10 23 -0.39562 0 67 -0.39562 1
gene 1 11 23 0.00715057 0 68 0.00715057 1
gene 1 12 23 0.177492 0 69 0.177492 1
gene 1 13 23 0.14927 0 70 0.14927 1
gene 1 14 23 -0.220262 0 71 -0.220262 1
gene 1 15 23 0.233303 0 72 0.233303 1
gene 1 16 23 0.2488 0 73 0.2488 1
gene 1 17 23 1.23734 0 74 1.23734 0
gene 1 18 23 1.37851 0 75 1.37851 1
gene 1 19 23 0.331345 0 76 0.331345 1
gene 1 8 24 1.48985 0 77 1.48985 0
gene 1 24 20 0.921673 0 78 0.921673 1
gene 1 15 26 0.421079 0 85 0.421079 1
gene 1 26 20 -0.941201 0 86 -0.941201 1
gene 1 22 20 -0.699916 0 87 -0.699916 1
gene 1 2 24 0.489108 0 91 0.489108 1
gene 1 8 28 0.962843 0 93 0.962843 1
gene 1 28 24 0.778011 0 94 0.778011 1
gene 1 6 24 -0.0458796 0 96 -0.0458796 1
gene 1 16 26 1.02015 0 99 1.02015 1
gene 1 13 24 0.307965 0 100 0.307965 1
gene 1 23 24 1.58306 0 113 1.58306 1
gene 1 13 32 -0.460814 0 116 -0.460814 1
gene 1 32 21 0.417732 0 117 0.417732 1
gene 1 10 37 0.618645 0 129 0.618645 1
gene 1 37 20 1.45684 0 130 1.45684 1
gene 1 17 39 -0.206084 0 134 -0.206084 1
gene 1 39 23 -0.229051 0 135 -0.229051 1
gene 1 15 43 0.216832 0 150 0.216832 1
gene 1 43 21 0.412861 0 151 0.412861 1
gene 1 3 43 -0.391009 0 153 -0.391009 1
gene 1 8 32 -0.312446 0 154 -0.312446 1
gene 1 2 39 0.21049 0 178 0.21049 1
gene 1 6 53 0.277248 0 191 0.277248 1
gene 1 53 22 -0.81181 0 192 -0.81181 1
gene 1 6 43 1.70519 0 210 1.70519 1
gene 1 17 60 0.223804 0 217 0.223804 1
gene 1 60 22 -0.336051 0 218 -0.336051 1
gene 1 20 20 0.245671 1 221 0.245671 1
gene 1 1 43 -0.582281 0 234 -0.582281 1
gene 1 15 37 0.3779 0 261 0.3779 1
gene 1 10 66 -0.102702 0 266 -0.102702 1
gene 1 66 21 0.371218 0 267 0.371218 1
gene 1 18 32 0.333663 0 271 0.333663 1
gene 1 5 68 0.264296 0 277 0.264296 1
gene 1 68 20 -0.184954 0 278 -0.184954 1
genomeend 213
genomestart 221
trait 1 0 0 0.862688 0.72224 0.409494 0.0593757 0 0 
node 1 1 1 1 0
node 2 1 1 1 0
node 3 1 1 1 0
node 4 1 1 1 0
node 5 1 1 1 0
node 6 1 1 1 0
node 7 1 1 1 0
node 8 1 1 1 0
node 9 1 1 1 0
node 10 1 1 1 0
node 11 1 1 1 0
node 12 1 1 1 0
node 13 1 1 1 0
node 14 1 1 1 0
node 15 1 1 1 0
node 16 1 1 1 0
node 17 1 1 1 0
node 18 1 1 1 0
node 19 1 1 3 0
node 20 1 0 2 0
node 21 1 0 2 0
node 22 1 0 2 0
node 23 1 0 2 0
node 24 1 0 0 0
node 26 1 0 0 0
node 37 1 0 0 0
node 46 1 0 0 0
gene 1 1 20 0.393592 0 1 0.393592 1
gene 1 2 20 -0.200043 0 2 -0.200043 1
gene 1 3 20 -0.0699111 0 3 -0.0699111 1
gene 1 4 20 1.11298 0 4 1.11298 1
gene 1 5 20 0.731504 0 5 0.731504 1
gene 1 6 20 0.334428 0 6 0.334428 1
gene 1 7 20 -1.18748 0 7 -1.18748 1
gene 1 8 20 -0.382567 0 8 -0.382567 1
gene 1 9 20 -0.144193 0 9 -0.144193 1
gene 1 10 20 0.269937 0 10 0.269937 1
gene 1 11 20 0.242015 0 11 0.242015 1
gene 1 12 20 1.08396 0 12 1.08396 1
gene 1 13 20 -1.02782 0 13 -1.02782 1
gene 1 14 20 -0.335538 0 14 -0.335538 1
gene 1 15 20 -0.613235 0 15 -0.613235 1
gene 1 16 20 -0.250688 0 16 -0.250688 1
gene 1 17 20 2.33214 0 17 2.33214 1
gene 1 18 20 0.533041 0 18 0.533041 1
gene 1 19 20 -0.248372 0 19 -0.248372 1
gene 1 1 21 -1.56438 0 20 -1.56438 1
gene 1 2 21 -0.246653 0 21 -0.246653 1
gene 1 3 21 -0.423034 0 22 -0.423034 1
gene 1 4 21 0.490147 0 23 0.490147 1
gene 1 5 21 0.918362 0 24 0.918362 1
gene 1 6 21 0.0459152 0 25 0.0459152 1
gene 1 7 21 -1.52873 0 26 -1.52873 1
gene 1 8 21 0.298066 0 27 0.298066 1
gene 1 9 21 -1.4981 0 28 -1.4981 1
gene 1 10 21 2.3194 0 29 2.3194 1
gene 1 11 21 1.15031 0 30 1.15031 1
gene 1 12 21 -0.774764 0 31 -0.774764 1
gene 1 13 21 -1.6521 0 32 -1.6521 1
gene 1 14 21 -0.972494 0 33 -0.972494 1
gene 1 15 21 -0.61289 0 34 -0.61289 1
gene 1 16 21 0.0565698 0 35 0.0565698 1
gene 1 17 21 0.12518 0 36 0.12518 1
gene 1 18 21 -1.00418 0 37 -1.00418 1
gene 1 19 21 0.7553 0 38 0.7553 1
gene 1 1 22 -0.103611 0 39 -0.103611 1
gene 1 2 22 0.920409 0 40 0.920409 1
gene 1 3 22 -0.5141 0 41 -0.5141 1
gene 1 4 22 0.657053 0 42 0.657053 1
gene 1 5 22 -0.167804 0 43 -0.167804 1
gene 1 6 22 -0.614149 0 44 -0.614149 1
gene 1 7 22 -0.306511 0 45 -0.306511 1
gene 1 8 22 0.239795 0 46 0.239795 1
gene 1 9 22 -0.275061 0 47 -0.275061 1
gene 1 10 22 -0.204584 0 48 -0.204584 1
gene 1 11 22 -1.01068 0 49 -1.01068 1
gene 1 12 22 0.112728 0 50 0.112728 1
gene 1 13 22 -0.59725 0 51 -0.59725 1
gene 1 14 22 -1.3989 0 52 -1.3989 1
gene 1 15 22 0.566093 0 53 0.566093 1
gene 1 16 22 -0.0152234 0 54 -0.0152234 1
gene 1 17 22 1.87778 0 55 1.87778 1
gene 1 18 22 0.367153 0 56 0.367153 1
gene 1 19 22 -0.294639 0 57 -0.294639 1
gene 1 1 23 1.04695 0 58 1.04695 1
gene 1 2 23 -0.70247 0 59 -0.70247 1
gene 1 3 23 -0.274504 0 60 -0.274504 1
gene 1 4 23 -0.506975 0 61 -0.506975 1
gene 1 5 23 -1.13181 0 62 -1.13181 1
gene 1 6 23 -0.0417731 0 63 -0.0417731 1
gene 1 7 23 -0.279626 0 64 -0.279626 1
gene 1 8 23 -0.453997 0 65 -0.453997 1
gene 1 9 23 1.47661 0 66 1.47661 1
gene 1 10 23 0.746372 0 67 0.746372 1
gene 1 11 23 -0.123172 0 68 -0.123172 1
gene 1 12 23 -0.836013 0 69 -0.836013 1
gene 1 13 23 0.19557 0 70 0.19557 1
gene 1 14 23 0.491996 0 71 0.491996 1
gene 1 15 23 0.178733 0 72 0.178733 1
gene 1 16 23 -0.355486 0 73 -0.355486 1
gene 1 17 23 -0.907891 0 74 -0.907891 1
gene 1 18 23 -0.162362 0 75 -0.162362 1
gene 1 19 23 0.390093 0 76 0.390093 1
gene 1 8 24 0.225425 0 77 0.225425 1
gene 1 24 20 -0.53564 0 78 -0.53564 1
gene 1 15 26 0.222329 0 85 0.222329 1
gene 1 26 20 0.324936 0 86 0.324936 1
gene 1 22 20 0.942178 0 87 0.942178 1
gene 1 2 24 0.354214 0 91 0.354214 1
gene 1 6 24 0.648154 0 96 0.648154 1
gene 1 10 37 0.158224 0 129 0.158224 1
gene 1 37 20 0.305337 0 130 0.305337 1
gene 1 24 37 0.2501 0 140 0.2501 1
gene 1 11 46 -0.347218 0 161 -0.347218 1
gene 1 46 20 -0.155294 0 162 -0.155294 1
gene 1 24 22 0.0113221 0 219 0.0113221 1
gene 1 46 23 -0.068674 0 251 -0.068674 1
gene 1 26 24 -0.00898233 0 305 -0.00898233 1
genomeend 221
genomestart 228
trait 1 0 0 0.862688 0.72224 0.409494 0.0593757 0 0 
node 1 1 1 1 0
node 2 1 1 1 0
node 3 1 1 1 0
node 4 1 1 1 0
node 5 1 1 1 0
node 6 1 1 1 0
node 7 1 1 1 0
node 8 1 1 1 0
node 9 1 1 1 0
node 10 1 1 1 0
node 11 1 1 1 0
node 12 1 1 1 0
node 13 1 1 1 0
node 14 1 1 1 0
node 15 1 1 1 0
node 16 1 1 1 0
node 17 1 1 1 0
node 18 1 1 1 0
node 19 1 1 3 0
node 20 1 0 2 0
node 21 1 0 2 0
node 22 1 0 2 0
node 23 1 0 2 0
node 24 1 0 0 0
node 26 1 0 0 0
node 37 1 0 0 0
node 46 1 0 0 0
gene 1 1 20 0.425705 0 1 0.425705 1
gene 1 2 20 -0.200043 0 2 -0.200043 1
gene 1 3 20 -0.0077951 0 3 -0.0077951 1
gene 1 4 20 1.17891 0 4 1.17891 1
gene 1 5 20 0.738546 0 5 0.738546 1
gene 1 6 20 0.459333 0 6 0.459333 1
gene 1 7 20 -1.13213 0 7 -1.13213 1
gene 1 8 20 -0.382567 0 8 -0.382567 1
gene 1 9 20 -0.200389 0 9 -0.200389 1
gene 1 10 20 0.0301539 0 10 0.0301539 1
gene 1 11 20 0.160636 0 11 0.160636 1
gene 1 12 20 1.01926 0 12 1.01926 1
gene 1 13 20 -1.01947 0 13 -1.01947 1
gene 1 14 20 -0.383682 0 14 -0.383682 1
gene 1 15 20 -0.63486 0 15 -0.63486 1
gene 1 16 20 -0.353547 0 16 -0.353547 1
gene 1 17 20 2.27407 0 17 2.27407 1
gene 1 18 20 0.414304 0 18 0.414304 1
gene 1 19 20 -0.177838 0 19 -0.177838 1
gene 1 1 21 -1.55855 0 20 -1.55855 1
gene 1 2 21 -0.12478 0 21 -0.12478 1
gene 1 3 21 -0.482535 0 22 -0.482535 1
gene 1 4 21 0.27283 0 23 0.27283 1
gene 1 5 21 0.918362 0 24 0.918362 1
gene 1 6 21 0.0494362 0 25 0.0494362 1
gene 1 7 21 -1.4974 0 26 -1.4974 1
gene 1 8 21 0.298066 0 27 0.298066 1
gene 1 9 21 -0.817503 0 28 -0.817503 1
gene 1 10 21 2.43496 0 29 2.43496 1
gene 1 11 21 1.0512 0 30 1.0512 1
gene 1 12 21 -0.748962 0 31 -0.748962 1
gene 1 13 21 -1.58344 0 32 -1.58344 1
gene 1 14 21 -0.886194 0 33 -0.886194 1
gene 1 15 21 -0.498295 0 34 -0.498295 1
gene 1 16 21 0.0565698 0 35 0.0565698 1
gene 1 17 21 0.124958 0 36 0.124958 1
gene 1 18 21 -0.953602 0 37 -0.953602 1
gene 1 19 21 0.845419 0 38 0.845419 1
gene 1 1 22 -0.265998 0 39 -0.265998 1
gene 1 2 22 0.854085 0 40 0.854085 1
gene 1 3 22 -0.599494 0 41 -0.599494 1
gene 1 4 22 0.7732 0 42 0.7732 1
gene 1 5 22 -0.147644 0 43 -0.147644 1
gene 1 6 22 -0.563544 0 44 -0.563544 1
gene 1 7 22 -0.299987 0 45 -0.299987 1
gene 1 8 22 0.208551 0 46 0.208551 1
gene 1 9 22 -0.425977 0 47 -0.425977 1
gene 1 10 22 -0.21162 0 48 -0.21162 1
gene 1 11 22 -1.07202 0 49 -1.07202 1
gene 1 12 22 0.167971 0 50 0.167971 1
gene 1 13 22 -0.52632 0 51 -0.52632 1
gene 1 14 22 -1.49334 0 52 -1.49334 1
gene 1 15 22 0.452559 0 53 0.452559 1
gene 1 16 22 -0.112469 0 54 -0.112469 1
gene 1 17 22 1.95222 0 55 1.95222 1
gene 1 18 22 0.286904 0 56 0.286904 1
gene 1 19 22 -0.397331 0 57 -0.397331 1
gene 1 1 23 1.05167 0 58 1.05167 1
gene 1 2 23 -0.682612 0 59 -0.682612 1
gene 1 3 23 -0.169371 0 60 -0.169371 1
gene 1 4 23 -0.454163 0 61 -0.454163 1
gene 1 5 23 -1.21653 0 62 -1.21653 1
gene 1 6 23 -0.0473882 0 63 -0.0473882 1
gene 1 7 23 -0.226381 0 64 -0.226381 1
gene 1 8 23 -0.342233 0 65 -0.342233 1
gene 1 9 23 1.37771 0 66 1.37771 1
gene 1 10 23 0.657288 0 67 0.657288 1
gene 1 11 23 -0.22443 0 68 -0.22443 1
gene 1 12 23 -0.918961 0 69 -0.918961 1
gene 1 13 23 0.201627 0 70 0.201627 1
gene 1 14 23 0.430477 0 71 0.430477 1
gene 1 15 23 0.046752 0 72 0.046752 1
gene 1 16 23 -0.268173 0 73 -0.268173 1
gene 1 17 23 -0.998289 0 74 -0.998289 1
gene 1 18 23 -0.162362 0 75 -0.162362 1
gene 1 19 23 0.390093 0 76 0.390093 1
gene 1 8 24 0.303039 0 77 0.303039 1
gene 1 24 20 -0.581164 0 78 -0.581164 1
gene 1 15 26 0.173798 0 85 0.173798 1
gene 1 26 20 0.447981 0 86 0.447981 1
gene 1 22 20 1.05144 0 87 1.05144 1
gene 1 2 24 0.443978 0 91 0.443978 1
gene 1 6 24 0.578416 0 96 0.578416 1
gene 1 10 37 0.148781 0 129 0.148781 1
gene 1 37 20 0.205288 0 130 0.205288 1
gene 1 24 37 0.210849 0 140 0.210849 1
gene 1 11 46 -0.326918 0 161 -0.326918 1
gene 1 46 20 -0.0494613 0 162 -0.0494613 1
gene 1 24 22 -0.0476494 0 219 -0.0476494 1
gene 1 46 23 0.027929 0 251 0.027929 1
gene 1 26 24 -0.00898233 0 305 -0.00898233 1
genomeend 228
genomestart 235
trait 1 0 0 0.862688 0.72224 0.409494 0.0593757 0 0 
node 1 1 1 1 0
node 2 1 1 1 0
node 3 1 1 1 0
node 4 1 1 1 0
node 5 1 1 1 0
node 6 1 1 1 0
node 7 1 1 1 0
node 8 1 1 1 0
node 9 1 1 1 0
node 10 1 1 1 0
node 11 1 1 1 0
node 12 1 1 1 0
node 13 1 1 1 0
node 14 1 1 1 0
node 15 1 1 1 0
node 16 1 1 1 0
node 17 1 1 1 0
node 18 1 1 1 0
node 19 1 1 3 0
node 20 1 0 2 0
node 21 1 0 2 0
node 22 1 0 2 0
node 23 1 0 2 0
node 24 1 0 0 0
node 26 1 0 0 0
node 37 1 0 0 0
node 46 1 0 0 0
gene 1 1 20 0.441762 0 1 0.441762 1
gene 1 2 20 -0.200043 0 2 -0.200043 1
gene 1 3 20 -0.0388531 0 3 -0.0388531 1
gene 1 4 20 1.21188 0 4 1.21188 1
gene 1 5 20 0.742067 0 5 0.742067 1
gene 1 6 20 0.521785 0 6 0.521785 1
gene 1 7 20 -1.15981 0 7 -1.15981 1
gene 1 8 20 -0.382567 0 8 -0.382567 1
gene 1 9 20 -0.228487 0 9 -0.228487 1
gene 1 10 20 0.150046 0 10 0.150046 1
gene 1 11 20 0.201326 0 11 0.201326 1
gene 1 12 20 1.05161 0 12 1.05161 1
gene 1 13 20 -1.0153 0 13 -1.0153 1
gene 1 14 20 -0.407754 0 14 -0.407754 1
gene 1 15 20 -0.624047 0 15 -0.624047 1
gene 1 16 20 -0.302117 0 16 -0.302117 1
gene 1 17 20 2.3031 0 17 2.3031 1
gene 1 18 20 0.354936 0 18 0.354936 1
gene 1 19 20 -0.213105 0 19 -0.213105 1
gene 1 1 21 -1.55563 0 20 -1.55563 1
gene 1 2 21 -0.185717 0 21 -0.185717 1
gene 1 3 21 -0.512285 0 22 -0.512285 1
gene 1 4 21 0.381489 0 23 0.381489 1
gene 1 5 21 0.918362 0 24 0.918362 1
gene 1 6 21 0.0511967 0 25 0.0511967 1
gene 1 7 21 -1.48173 0 26 -1.48173 1
gene 1 8 21 0.298066 0 27 0.298066 1
gene 1 9 21 -0.477204 0 28 -0.477204 1
gene 1 10 21 2.49274 0 29 2.49274 1
gene 1 11 21 1.10076 0 30 1.10076 1
gene 1 12 21 -0.761863 0 31 -0.761863 1
gene 1 13 21 -1.54911 0 32 -1.54911 1
gene 1 14 21 -0.929344 0 33 -0.929344 1
gene 1 15 21 -0.555593 0 34 -0.555593 1
gene 1 16 21 0.0565698 0 35 0.0565698 1
gene 1 17 21 0.125069 0 36 0.125069 1
gene 1 18 21 -0.978893 0 37 -0.978893 1
gene 1 19 21 0.890479 0 38 0.890479 1
gene 1 1 22 -0.347191 0 39 -0.347191 1
gene 1 2 22 0.887247 0 40 0.887247 1
gene 1 3 22 -0.642191 0 41 -0.642191 1
gene 1 4 22 0.715127 0 42 0.715127 1
gene 1 5 22 -0.157724 0 43 -0.157724 1
gene 1 6 22 -0.588846 0 44 -0.588846 1
gene 1 7 22 -0.303249 0 45 -0.303249 1
gene 1 8 22 0.192929 0 46 0.192929 1
gene 1 9 22 -0.350519 0 47 -0.350519 1
gene 1 10 22 -0.215138 0 48 -0.215138 1
gene 1 11 22 -1.10268 0 49 -1.10268 1
gene 1 12 22 0.195593 0 50 0.195593 1
gene 1 13 22 -0.490855 0 51 -0.490855 1
gene 1 14 22 -1.54056 0 52 -1.54056 1
gene 1 15 22 0.509326 0 53 0.509326 1
gene 1 16 22 -0.161092 0 54 -0.161092 1
gene 1 17 22 1.98943 0 55 1.98943 1
gene 1 18 22 0.327028 0 56 0.327028 1
gene 1 19 22 -0.448677 0 57 -0.448677 1
gene 1 1 23 1.05403 0 58 1.05403 1
gene 1 2 23 -0.672684 0 59 -0.672684 1
gene 1 3 23 -0.221937 0 60 -0.221937 1
gene 1 4 23 -0.480569 0 61 -0.480569 1
gene 1 5 23 -1.17417 0 62 -1.17417 1
gene 1 6 23 -0.0501957 0 63 -0.0501957 1
gene 1 7 23 -0.253004 0 64 -0.253004 1
gene 1 8 23 -0.286351 0 65 -0.286351 1
gene 1 9 23 1.42716 0 66 1.42716 1
gene 1 10 23 0.70183 0 67 0.70183 1
gene 1 11 23 -0.173801 0 68 -0.173801 1
gene 1 12 23 -0.960435 0 69 -0.960435 1
gene 1 13 23 0.198599 0 70 0.198599 1
gene 1 14 23 0.461237 0 71 0.461237 1
gene 1 15 23 -0.0192388 0 72 -0.0192388 1
gene 1 16 23 -0.31183 0 73 -0.31183 1
gene 1 17 23 -1.04349 0 74 -1.04349 1
gene 1 18 23 -0.162362 0 75 -0.162362 1
gene 1 19 23 0.390093 0 76 0.390093 1
gene 1 8 24 0.264232 0 77 0.264232 1
gene 1 24 20 -0.603926 0 78 -0.603926 1
gene 1 15 26 0.149533 0 85 0.149533 1
gene 1 26 20 0.386459 0 86 0.386459 1
gene 1 22 20 1.10608 0 87 1.10608 1
gene 1 2 24 0.48886 0 91 0.48886 1
gene 1 6 24 0.613285 0 96 0.613285 1
gene 1 10 37 0.144059 0 129 0.144059 1
gene 1 37 20 0.155264 0 130 0.155264 1
gene 1 24 37 0.230475 0 140 0.230475 1
gene 1 11 46 -0.337068 0 161 -0.337068 1
gene 1 46 20 -0.102378 0 162 -0.102378 1
gene 1 24 22 -0.0771351 0 219 -0.0771351 1
gene 1 46 23 0.0762305 0 251 0.0762305 1
gene 1 26 24 -0.00898233 0 305 -0.00898233 1
genomeend 235
genomestart 238
trait 1 0 0.196466 0.0227695 0.96922 1 0.174425 0.0751885 0 
node 1 1 1 1 0
node 2 1 1 1 0
node 3 1 1 1 0
node 4 1 1 1 0
node 5 1 1 1 0
node 6 1 1 1 0
node 7 1 1 1 0
node 8 1 1 1 0
node 9 1 1 1 0
node 10 1 1 1 0
node 11 1 1 1 0
node 12 1 1 1 0
node 13 1 1 1 0
node 14 1 1 1 0
node 15 1 1 1 0
node 16 1 1 1 0
node 17 1 1 1 0
node 18 1 1 1 0
node 19 1 1 3 0
node 20 1 0 2 0
node 21 1 0 2 0
node 22 1 0 2 0
node 23 1 0 2 0
node 24 1 0 0 0
node 26 1 0 0 0
node 28 1 0 0 0
node 32 1 0 0 0
node 34 1 0 0 0
node 36 1 0 0 0
node 37 1 0 0 0
node 39 1 0 0 0
node 43 1 0 0 0
node 46 1 0 0 0
node 53 1 0 0 0
node 54 1 0 0 0
node 60 1 0 0 0
node 66 1 0 0 0
node 71 1 0 0 0
gene 1 1 20 -0.0990214 0 1 -0.0990214 1
gene 1 2 20 -0.863156 0 2 -0.863156 1
gene 1 3 20 -0.171015 0 3 -0.171015 1
gene 1 4 20 0.0380146 0 4 0.0380146 1
gene 1 5 20 -0.796825 0 5 -0.796825 1
gene 1 6 20 -0.124397 0 6 -0.124397 1
gene 1 7 20 0.646941 0 7 0.646941 1
gene 1 8 20 0.164991 0 8 0.164991 0
gene 1 9 20 0.307729 0 9 0.307729 1
gene 1 10 20 -0.311574 0 10 -0.311574 1
gene 1 11 20 -0.194418 0 11 -0.194418 0
gene 1 12 20 1.33752 0 12 1.33752 1
gene 1 13 20 0.761498 0 13 0.761498 1
gene 1 14 20 0.135946 0 14 0.135946 1
gene 1 15 20 0.161832 0 15 0.161832 1
gene 1 16 20 -0.0319167 0 16 -0.0319167 1
gene 1 17 20 -0.143276 0 17 -0.143276 1
gene 1 18 20 1.2772 0 18 1.2772 1
gene 1 19 20 0.242208 0 19 0.242208 1
gene 1 1 21 -0.397326 0 20 -0.397326 1
gene 1 2 21 0.699121 0 21 0.699121 1
gene 1 3 21 2.67081 0 22 2.67081 1
gene 1 4 21 0.90695 0 23 0.90695 1
gene 1 5 21 -0.189085 0 24 -0.189085 1
gene 1 6 21 0.83497 0 25 0.83497 1
gene 1 7 21 0.329771 0 26 0.329771 1
gene 1 8 21 0.585124 0 27 0.585124 1
gene 1 9 21 0.462997 0 28 0.462997 1
gene 1 10 21 2.33345 0 29 2.33345 1
gene 1 11 21 2.43371 0 30 2.43371 0
gene 1 12 21 -0.768539 0 31 -0.768539 1
gene 1 13 21 0.0928355 0 32 0.0928355 1
gene 1 14 21 -0.442587 0 33 -0.442587 1
gene 1 15 21 0.0364273 0 34 0.0364273 1
gene 1 16 21 0.0908769 0 35 0.0908769 1
gene 1 17 21 0.304364 0 36 0.304364 1
gene 1 18 21 -0.109677 0 37 -0.109677 1
gene 1 19 21 -1.96772 0 38 -1.96772 1
gene 1 1 22 1.02471 0 39 1.02471 1
gene 1 2 22 -0.17002 0 40 -0.17002 1
gene 1 3 22 -0.0340379 0 41 -0.0340379 1
gene 1 4 22 -0.34847 0 42 -0.34847 1
gene 1 5 22 -0.505501 0 43 -0.505501 1
gene 1 6 22 -0.914487 0 44 -0.914487 1
gene 1 7 22 -0.11589 0 45 -0.11589 1
gene 1 8 22 0.115106 0 46 0.115106 1
gene 1 9 22 -1.31877 0 47 -1.31877 1
gene 1 10 22 -0.40258 0 48 -0.40258 1
gene 1 11 22 0.795974 0 49 0.795974 1
gene 1 12 22 0.0612613 0 50 0.0612613 1
gene 1 13 22 0.0118888 0 51 0.0118888 1
gene 1 14 22 -0.0664998 0 52 -0.0664998 1
gene 1 15 22 -0.305189 0 53 -0.305189 1
gene 1 16 22 -0.0440041 0 54 -0.0440041 1
gene 1 17 22 -0.677256 0 55 -0.677256 0
gene 1 18 22 0.211331 0 56 0.211331 1
gene 1 19 22 -0.53552 0 57 -0.53552 1
gene 1 1 23 -0.482498 0 58 -0.482498 1
gene 1 2 23 0.526047 0 59 0.526047 1
gene 1 3 23 0.703422 0 60 0.703422 1
gene 1 4 23 0.276231 0 61 0.276231 1
gene 1 5 23 -1.12924 0 62 -1.12924 1
gene 1 6 23 1.12304 0 63 1.12304 1
gene 1 7 23 0.220501 0 64 0.220501 1
gene 1 8 23 -0.772486 0 65 -0.772486 1
gene 1 9 23 0.34968 0 66 0.34968 1
gene 1 10 23 0.150264 0 67 0.150264 1
gene 1 11 23 -0.283338 0 68 -0.283338 1
gene 1 12 23 -0.280003 0 69 -0.280003 1
gene 1 13 23 -0.964591 0 70 -0.964591 1
gene 1 14 23 0.111814 0 71 0.111814 1
gene 1 15 23 0.13437 0 72 0.13437 1
gene 1 16 23 0.773618 0 73 0.773618 1
gene 1 17 23 -0.234479 0 74 -0.234479 0
gene 1 18 23 0.459785 0 75 0.459785 1
gene 1 19 23 0.277517 0 76 0.277517 1
gene 1 8 24 1.38725 0 77 1.38725 0
gene 1 24 20 -0.0033934 0 78 -0.0033934 1
gene 1 15 26 0.128586 0 85 0.128586 1
gene 1 26 20 -0.302904 0 86 -0.302904 1
gene 1 22 20 -1.12662 0 87 -1.12662 1
gene 1 2 24 -0.907528 0 91 -0.907528 1
gene 1 8 28 0.286247 0 93 0.286247 0
gene 1 28 24 -0.796197 0 94 -0.796197 1
gene 1 6 24 0.334759 0 96 0.334759 1
gene 1 16 26 0.6559 0 99 0.6559 1
gene 1 13 24 0.114281 0 100 0.114281 1
gene 1 23 24 -0.887241 0 113 -0.887241 1
gene 1 13 32 -0.259172 0 116 -0.259172 1
gene 1 32 21 0.228598 0 117 0.228598 1
gene 1 11 34 0.405526 0 122 0.405526 1
gene 1 34 21 0.372191 0 123 0.372191 1
gene 1 9 36 0.712873 0 127 0.712873 1
gene 1 36 20 0.0446933 0 128 0.0446933 1
gene 1 10 37 -0.522723 0 129 -0.522723 1
gene 1 37 20 1.23144 0 130 1.23144 1
gene 1 17 39 0.723333 0 134 0.723333 1
gene 1 39 23 -0.181402 0 135 -0.181402 1
gene 1 24 37 -0.0249376 0 140 -0.0249376 1
gene 1 19 24 0.038958 0 144 0.038958 1
gene 1 15 43 -0.603816 0 150 -0.603816 1
gene 1 43 21 0.153066 0 151 0.153066 1
gene 1 3 43 -0.518961 0 153 -0.518961 1
gene 1 8 32 -0.276955 0 154 -0.276955 1
gene 1 11 46 -0.127757 0 161 -0.127757 1
gene 1 46 20 -0.629434 0 162 -0.629434 1
gene 1 2 39 0.175797 0 178 0.175797 1
gene 1 6 53 1.48326 0 191 1.48326 1
gene 1 53 22 0.210501 0 192 0.210501 1
gene 1 39 34 -0.205168 0 193 -0.205168 1
gene 1 16 54 -0.470073 0 194 -0.470073 1
gene 1 54 26 0.126947 0 195 0.126947 1
gene 1 6 43 -0.401439 0 210 -0.401439 1
gene 1 18 32 0.661347 0 213 0.661347 1
gene 1 17 60 -0.392558 0 217 -0.392558 1
gene 1 60 22 -0.16826 0 218 -0.16826 1
gene 1 20 20 0.0667661 1 221 0.0667661 1
gene 1 1 43 0.145152 0 234 0.145152 1
gene 1 10 66 0.501174 0 266 0.501174 1
gene 1 66 21 -0.113371 0 267 -0.113371 1
gene 1 8 71 -0.139151 0 288 -0.139151 1
gene 1 71 28 -0.278952 0 289 -0.278952 1
gene 1 15 53 -0.452649 0 295 -0.452649 1
genomeend 238
genomestart 242
trait 1 0 0 0.862688 0.72224 0.409494 0.0593757 0 0 
node 1 1 1 1 0
node 2 1 1 1 0
node 3 1 1 1 0
node 4 1 1 1 0
node 5 1 1 1 0
node 6 1 1 1 0
node 7 1 1 1 0
node 8 1 1 1 0
node 9 1 1 1 0
node 10 1 1 1 0
node 11 1 1 1 0
node 12 1 1 1 0
node 13 1 1 1 0
node 14 1 1 1 0
node 15 1 1 1 0
node 16 1 1 1 0
node 17 1 1 1 0
node 18 1 1 1 0
node 19 1 1 3 0
node 20 1 0 2 0
node 21 1 0 2 0
node 22 1 0 2 0
node 23 1 0 2 0
node 24 1 0 0 0
node 26 1 0 0 0
node 37 1 0 0 0
node 46 1 0 0 0
gene 1 1 20 0.480369 0 1 0.480369 1
gene 1 2 20 -0.169305 0 2 -0.169305 1
gene 1 3 20 0.0585703 0 3 0.0585703 1
gene 1 4 20 1.38861 0 4 1.38861 1
gene 1 5 20 0.664054 0 5 0.664054 1
gene 1 6 20 0.606158 0 6 0.606158 1
gene 1 7 20 -1.40541 0 7 -1.40541 1
gene 1 8 20 -0.382567 0 8 -0.382567 1
gene 1 9 20 -0.275521 0 9 -0.275521 1
gene 1 10 20 0.639725 0 10 0.639725 1
gene 1 11 20 -0.322235 0 11 -0.322235 1
gene 1 12 20 0.606118 0 12 0.606118 1
gene 1 13 20 -1.41586 0 13 -1.41586 1
gene 1 14 20 -0.405254 0 14 -0.405254 1
gene 1 15 20 -0.331706 0 15 -0.331706 1
gene 1 16 20 -0.456405 0 16 -0.456405 1
gene 1 17 20 2.13263 0 17 2.13263 1
gene 1 18 20 -0.20518 0 18 -0.20518 1
gene 1 19 20 -0.0170404 0 19 -0.0170404 1
gene 1 1 21 -1.21537 0 20 -1.21537 1
gene 1 2 21 -0.273925 0 21 -0.273925 1
gene 1 3 21 0.263102 0 22 0.263102 1
gene 1 4 21 -0.130916 0 23 -0.130916 1
gene 1 5 21 0.918362 0 24 0.918362 1
gene 1 6 21 0.453922 0 25 0.453922 1
gene 1 7 21 -1.52873 0 26 -1.52873 1
gene 1 8 21 0.703302 0 27 0.703302 1
gene 1 9 21 -0.456044 0 28 -0.456044 1
gene 1 10 21 2.3709 0 29 2.3709 1
gene 1 11 21 1.32661 0 30 1.32661 1
gene 1 12 21 -0.763877 0 31 -0.763877 1
gene 1 13 21 -1.54975 0 32 -1.54975 1
gene 1 14 21 -1.15073 0 33 -1.15073 1
gene 1 15 21 -1.09325 0 34 -1.09325 1
gene 1 16 21 0.195478 0 35 0.195478 1
gene 1 17 21 0.139724 0 36 0.139724 1
gene 1 18 21 -1.04713 0 37 -1.04713 1
gene 1 19 21 0.653723 0 38 0.653723 1
gene 1 1 22 -0.482093 0 39 -0.482093 1
gene 1 2 22 0.920214 0 40 0.920214 1
gene 1 3 22 -0.340257 0 41 -0.340257 1
gene 1 4 22 -0.0969321 0 42 -0.0969321 1
gene 1 5 22 -0.263523 0 43 -0.263523 1
gene 1 6 22 -0.614149 0 44 -0.614149 1
gene 1 7 22 -0.484336 0 45 -0.484336 1
gene 1 8 22 -0.0120367 0 46 -0.0120367 1
gene 1 9 22 0.332759 0 47 0.332759 1
gene 1 10 22 -0.34123 0 48 -0.34123 1
gene 1 11 22 -0.559559 0 49 -0.559559 1
gene 1 12 22 0.695578 0 50 0.695578 1
gene 1 13 22 -0.572399 0 51 -0.572399 1
gene 1 14 22 -0.991558 0 52 -0.991558 1
gene 1 15 22 0.111226 0 53 0.111226 1
gene 1 16 22 -0.0152234 0 54 -0.0152234 1
gene 1 17 22 2.29242 0 55 2.29242 1
gene 1 18 22 -0.0447771 0 56 -0.0447771 1
gene 1 19 22 -0.522305 0 57 -0.522305 1
gene 1 1 23 -0.402572 0 58 -0.402572 1
gene 1 2 23 -1.15577 0 59 -1.15577 1
gene 1 3 23 -0.40704 0 60 -0.40704 1
gene 1 4 23 -0.104877 0 61 -0.104877 1
gene 1 5 23 -0.796471 0 62 -0.796471 1
gene 1 6 23 0.114373 0 63 0.114373 1
gene 1 7 23 -0.173136 0 64 -0.173136 1
gene 1 8 23 -0.453997 0 65 -0.453997 1
gene 1 9 23 1.74248 0 66 1.74248 1
gene 1 10 23 1.06556 0 67 1.06556 1
gene 1 11 23 -0.810491 0 68 -0.810491 1
gene 1 12 23 -0.871947 0 69 -0.871947 1
gene 1 13 23 0.573975 0 70 0.573975 1
gene 1 14 23 0.0429049 0 71 0.0429049 1
gene 1 15 23 0.221927 0 72 0.221927 1
gene 1 16 23 -0.0563637 0 73 -0.0563637 1
gene 1 17 23 -0.904045 0 74 -0.904045 1
gene 1 18 23 -0.297401 0 75 -0.297401 1
gene 1 19 23 0.629864 0 76 0.629864 1
gene 1 8 24 0.48702 0 77 0.48702 1
gene 1 24 20 -1.08765 0 78 -1.08765 1
gene 1 15 26 0.446415 0 85 0.446415 1
gene 1 26 20 0.388181 0 86 0.388181 1
gene 1 22 20 1.2665 0 87 1.2665 1
gene 1 2 24 -0.000634804 0 91 -0.000634804 1
gene 1 6 24 0.187496 0 96 0.187496 1
gene 1 10 37 0.555743 0 129 0.555743 1
gene 1 37 20 0.472426 0 130 0.472426 1
gene 1 24 37 0.296409 0 140 0.296409 1
gene 1 11 46 0.102564 0 161 0.102564 1
gene 1 46 20 -0.311414 0 162 -0.311414 1
gene 1 24 22 -0.326761 0 219 -0.326761 1
gene 1 46 23 -0.209608 0 251 -0.209608 1
gene 1 26 24 -0.022418 0 305 -0.022418 1
genomeend 242
genomestart 252
trait 1 0 0 0.862688 0.72224 0.409494 0.0593757 0 0 
node 1 1 1 1 0
node 2 1 1 1 0
node 3 1 1 1 0
node 4 1 1 1 0
node 5 1 1 1 0
node 6 1 1 1 0
node 7 1 1 1 0
node 8 1 1 1 0
node 9 1 1 1 0
node 10 1 1 1 0
node 11 1 1 1 0
node 12 1 1 1 0
node 13 1 1 1 0
node 14 1 1 1 0
node 15 1 1 1 0
node 16 1 1 1 0
node 17 1 1 1 0
node 18 1 1 1 0
node 19 1 1 3 0
node 20 1 0 2 0
node 21 1 0 2 0
node 22 1 0 2 0
node 23 1 0 2 0
node 24 1 0 0 0
node 26 1 0 0 0
node 37 1 0 0 0
node 46 1 0 0 0
gene 1 1 20 0.469094 0 1 0.469094 1
gene 1 2 20 -0.184674 0 2 -0.184674 1
gene 1 3 20 -0.0056704 0 3 -0.0056704 1
gene 1 4 20 1.31673 0 4 1.31673 1
gene 1 5 20 0.704821 0 5 0.704821 1
gene 1 6 20 0.595198 0 6 0.595198 1
gene 1 7 20 -1.29645 0 7 -1.29645 1
gene 1 8 20 -0.382567 0 8 -0.382567 1
gene 1 9 20 -0.266053 0 9 -0.266053 1
gene 1 10 20 0.454831 0 10 0.454831 1
gene 1 11 20 -0.0401101 0 11 -0.0401101 1
gene 1 12 20 0.845041 0 12 0.845041 1
gene 1 13 20 -1.21349 0 13 -1.21349 1
gene 1 14 20 -0.41854 0 14 -0.41854 1
gene 1 15 20 -0.472471 0 15 -0.472471 1
gene 1 16 20 -0.353547 0 16 -0.353547 1
gene 1 17 20 2.23238 0 17 2.23238 1
gene 1 18 20 0.0451937 0 18 0.0451937 1
gene 1 19 20 -0.132706 0 19 -0.132706 1
gene 1 1 21 -1.38404 0 20 -1.38404 1
gene 1 2 21 -0.260289 0 21 -0.260289 1
gene 1 3 21 -0.139467 0 22 -0.139467 1
gene 1 4 21 0.179615 0 23 0.179615 1
gene 1 5 21 0.918362 0 24 0.918362 1
gene 1 6 21 0.25344 0 25 0.25344 1
gene 1 7 21 -1.4974 0 26 -1.4974 1
gene 1 8 21 0.500684 0 27 0.500684 1
gene 1 9 21 -0.296474 0 28 -0.296474 1
gene 1 10 21 2.46071 0 29 2.46071 1
gene 1 11 21 1.23846 0 30 1.23846 1
gene 1 12 21 -0.76932 0 31 -0.76932 1
gene 1 13 21 -1.53226 0 32 -1.53226 1
gene 1 14 21 -1.06161 0 33 -1.06161 1
gene 1 15 21 -0.853072 0 34 -0.853072 1
gene 1 16 21 0.126024 0 35 0.126024 1
gene 1 17 21 0.132452 0 36 0.132452 1
gene 1 18 21 -1.02566 0 37 -1.02566 1
gene 1 19 21 0.79463 0 38 0.79463 1
gene 1 1 22 -0.455239 0 39 -0.455239 1
gene 1 2 22 0.920311 0 40 0.920311 1
gene 1 3 22 -0.512573 0 41 -0.512573 1
gene 1 4 22 0.28006 0 42 0.28006 1
gene 1 5 22 -0.215664 0 43 -0.215664 1
gene 1 6 22 -0.614149 0 44 -0.614149 1
gene 1 7 22 -0.395423 0 45 -0.395423 1
gene 1 8 22 0.0826351 0 46 0.0826351 1
gene 1 9 22 0.0288488 0 47 0.0288488 1
gene 1 10 22 -0.279943 0 48 -0.279943 1
gene 1 11 22 -0.846455 0 49 -0.846455 1
gene 1 12 22 0.459396 0 50 0.459396 1
gene 1 13 22 -0.513894 0 51 -0.513894 1
gene 1 14 22 -1.28967 0 52 -1.28967 1
gene 1 15 22 0.33866 0 53 0.33866 1
gene 1 16 22 -0.112469 0 54 -0.112469 1
gene 1 17 22 2.15953 0 55 2.15953 1
gene 1 18 22 0.161188 0 56 0.161188 1
gene 1 19 22 -0.511164 0 57 -0.511164 1
gene 1 1 23 0.326908 0 58 0.326908 1
gene 1 2 23 -0.90926 0 59 -0.90926 1
gene 1 3 23 -0.340772 0 60 -0.340772 1
gene 1 4 23 -0.305926 0 61 -0.305926 1
gene 1 5 23 -0.964142 0 62 -0.964142 1
gene 1 6 23 0.0306849 0 63 0.0306849 1
gene 1 7 23 -0.226381 0 64 -0.226381 1
gene 1 8 23 -0.342233 0 65 -0.342233 1
gene 1 9 23 1.60954 0 66 1.60954 1
gene 1 10 23 0.905967 0 67 0.905967 1
gene 1 11 23 -0.466831 0 68 -0.466831 1
gene 1 12 23 -0.936928 0 69 -0.936928 1
gene 1 13 23 0.384773 0 70 0.384773 1
gene 1 14 23 0.267451 0 71 0.267451 1
gene 1 15 23 0.0683485 0 72 0.0683485 1
gene 1 16 23 -0.205925 0 73 -0.205925 1
gene 1 17 23 -0.996366 0 74 -0.996366 1
gene 1 18 23 -0.229881 0 75 -0.229881 1
gene 1 19 23 0.509978 0 76 0.509978 1
gene 1 8 24 0.356223 0 77 0.356223 1
gene 1 24 20 -0.857168 0 78 -0.857168 1
gene 1 15 26 0.285841 0 85 0.285841 1
gene 1 26 20 0.356559 0 86 0.356559 1
gene 1 22 20 1.2136 0 87 1.2136 1
gene 1 2 24 0.266554 0 91 0.266554 1
gene 1 6 24 0.417825 0 96 0.417825 1
gene 1 10 37 0.34754 0 129 0.34754 1
gene 1 37 20 0.288832 0 130 0.288832 1
gene 1 24 37 0.273255 0 140 0.273255 1
gene 1 11 46 -0.122327 0 161 -0.122327 1
gene 1 46 20 -0.233354 0 162 -0.233354 1
gene 1 24 22 -0.216691 0 219 -0.216691 1
gene 1 46 23 -0.042538 0 251 -0.042538 1
gene 1 26 24 -0.022418 0 305 -0.022418 1
genomeend 252
genomestart 254
trait 1 0 0 0.0193718 0.395426 0.504236 0.0697466 0 0.129717 
node 1 1 1 1 0
node 2 1 1 1 0
node 3 1 1 1 0
node 4 1 1 1 0
node 5 1 1 1 0
node 6 1 1 1 0
node 7 1 1 1 0
node 8 1 1 1 0
node 9 1 1 1 0
node 10 1 1 1 0
node 11 1 1 1 0
node 12 1 1 1 0
node 13 1 1 1 0
node 14 1 1 1 0
node 15 1 1 1 0
node 16 1 1 1 0
node 17 1 1 1 0
node 18 1 1 1 0
node 19 1 1 3 0
node 20 1 0 2 0
node 21 1 0 2 0
node 22 1 0 2 0
node 23 1 0 2 0
node 24 1 0 0 0
node 26 1 0 0 0
node 28 1 0 0 0
node 32 1 0 0 0
node 37 1 0 0 0
node 39 1 0 0 0
node 43 1 0 0 0
node 53 1 0 0 0
node 60 1 0 0 0
node 66 1 0 0 0
node 68 1 0 0 0
gene 1 1 20 -0.152328 0 1 -0.152328 1
gene 1 2 20 -0.738592 0 2 -0.738592 1
gene 1 3 20 -1.35679 0 3 -1.35679 1
gene 1 4 20 0.356494 0 4 0.356494 1
gene 1 5 20 0.122179 0 5 0.122179 1
gene 1 6 20 0.534998 0 6 0.534998 1
gene 1 7 20 0.897669 0 7 0.897669 1
gene 1 8 20 0.0967255 0 8 0.0967255 0
gene 1 9 20 0.697283 0 9 0.697283 1
gene 1 10 20 -0.173773 0 10 -0.173773 0
gene 1 11 20 0.130012 0 11 0.130012 1
gene 1 12 20 -0.200157 0 12 -0.200157 1
gene 1 13 20 0.0791741 0 13 0.0791741 1
gene 1 14 20 0.859326 0 14 0.859326 1
gene 1 15 20 -0.430943 0 15 -0.430943 1
gene 1 16 20 0.995559 0 16 0.995559 1
gene 1 17 20 -0.162934 0 17 -0.162934 1
gene 1 18 20 -0.109747 0 18 -0.109747 1
gene 1 19 20 -0.279218 0 19 -0.279218 1
gene 1 1 21 0.504971 0 20 0.504971 1
gene 1 2 21 -0.161781 0 21 -0.161781 1
gene 1 3 21 0.167076 0 22 0.167076 1
gene 1 4 21 0.702907 0 23 0.702907 1
gene 1 5 21 -0.270357 0 24 -0.270357 1
gene 1 6 21 -0.778681 0 25 -0.778681 1
gene 1 7 21 0.361233 0 26 0.361233 1
gene 1 8 21 0.488967 0 27 0.488967 1
gene 1 9 21 0.457854 0 28 0.457854 1
gene 1 10 21 -0.503909 0 29 -0.503909 1
gene 1 11 21 0.611616 0 30 0.611616 1
gene 1 12 21 1.07658 0 31 1.07658 1
gene 1 13 21 0.322058 0 32 0.322058 0
gene 1 14 21 -0.684621 0 33 -0.684621 1
gene 1 15 21 0.600551 0 34 0.600551 1
gene 1 16 21 0.321814 0 35 0.321814 1
gene 1 17 21 -0.734292 0 36 -0.734292 1
gene 1 18 21 0.249383 0 37 0.249383 1
gene 1 19 21 -1.18039 0 38 -1.18039 1
gene 1 1 22 -0.934119 0 39 -0.934119 1
gene 1 2 22 0.00500835 0 40 0.00500835 1
gene 1 3 22 0.0642205 0 41 0.0642205 1
gene 1 4 22 0.673944 0 42 0.673944 1
gene 1 5 22 -0.45108 0 43 -0.45108 1
gene 1 6 22 0.0962679 0 44 0.0962679 0
gene 1 7 22 0.387406 0 45 0.387406 1
gene 1 8 22 -0.249008 0 46 -0.249008 1
gene 1 9 22 -0.238557 0 47 -0.238557 1
gene 1 10 22 -0.113317 0 48 -0.113317 1
gene 1 11 22 -0.108052 0 49 -0.108052 1
gene 1 12 22 1.05998 0 50 1.05998 1
gene 1 13 22 -0.793302 0 51 -0.793302 1
gene 1 14 22 0.54559 0 52 0.54559 1
gene 1 15 22 -1.4288 0 53 -1.4288 1
gene 1 16 22 0.661018 0 54 0.661018 1
gene 1 17 22 0.444837 0 55 0.444837 0
gene 1 18 22 0.728819 0 56 0.728819 1
gene 1 19 22 -0.398282 0 57 -0.398282 1
gene 1 1 23 -0.0288394 0 58 -0.0288394 1
gene 1 2 23 -0.16415 0 59 -0.16415 1
gene 1 3 23 0.839494 0 60 0.839494 1
gene 1 4 23 -0.293338 0 61 -0.293338 1
gene 1 5 23 0.200837 0 62 0.200837 1
gene 1 6 23 0.250133 0 63 0.250133 1
gene 1 7 23 1.07796 0 64 1.07796 1
gene 1 8 23 -0.661733 0 65 -0.661733 1
gene 1 9 23 -0.267805 0 66 -0.267805 1
gene 1 10 23 0.432417 0 67 0.432417 1
gene 1 11 23 -0.9417 0 68 -0.9417 1
gene 1 12 23 1.11066 0 69 1.11066 1
gene 1 13 23 -0.241564 0 70 -0.241564 1
gene 1 14 23 0.0530919 0 71 0.0530919 1
gene 1 15 23 0.208925 0 72 0.208925 1
gene 1 16 23 -0.0852097 0 73 -0.0852097 1
gene 1 17 23 -0.0549409 0 74 -0.0549409 0
gene 1 18 23 0.105364 0 75 0.105364 1
gene 1 19 23 -1.0302 0 76 -1.0302 1
gene 1 8 24 0.408118 0 77 0.408118 0
gene 1 24 20 -0.06987 0 78 -0.06987 1
gene 1 15 26 0.400808 0 85 0.400808 1
gene 1 26 20 -0.259555 0 86 -0.259555 1
gene 1 22 20 -1.01317 0 87 -1.01317 1
gene 1 2 24 0.203383 0 91 0.203383 1
gene 1 8 28 0.816286 0 93 0.816286 1
gene 1 28 24 -0.436973 0 94 -0.436973 1
gene 1 6 24 0.80015 0 96 0.80015 1
gene 1 16 26 0.033319 0 99 0.033319 1
gene 1 13 24 0.294529 0 100 0.294529 1
gene 1 23 24 -0.221914 0 113 -0.221914 1
gene 1 13 32 0.898122 0 116 0.898122 1
gene 1 32 21 -0.410445 0 117 -0.410445 1
gene 1 10 37 0.399324 0 129 0.399324 1
gene 1 37 20 0.760089 0 130 0.760089 1
gene 1 17 39 -0.573143 0 134 -0.573143 1
gene 1 39 23 0.379295 0 135 0.379295 1
gene 1 15 43 0.114267 0 150 0.114267 1
gene 1 43 21 0.468863 0 151 0.468863 1
gene 1 3 43 0.0280446 0 153 0.0280446 1
gene 1 8 32 -0.564499 0 154 -0.564499 1
gene 1 2 39 -0.292454 0 178 -0.292454 1
gene 1 6 53 0.0547527 0 191 0.0547527 1
gene 1 53 22 -0.504871 0 192 -0.504871 1
gene 1 6 43 0.449343 0 210 0.449343 1
gene 1 17 60 0.591153 0 217 0.591153 1
gene 1 60 22 -0.0956283 0 218 -0.0956283 1
gene 1 20 20 0.0461132 1 221 0.0461132 1
gene 1 1 43 0.524659 0 234 0.524659 1
gene 1 15 37 -0.052004 0 261 -0.052004 1
gene 1 10 66 -0.371553 0 266 -0.371553 1
gene 1 66 21 -0.075811 0 267 -0.075811 1
gene 1 18 32 0.389795 0 271 0.389795 1
gene 1 5 68 0.0856822 0 277 0.0856822 1
gene 1 68 20 -0.535369 0 278 -0.535369 1
genomeend 254
genomestart 255
trait 1 0.536398 0.324603 0.277354 0.0167842 0.791012 0.0716232 0.290245 0.55344 
node 1 1 1 1 0
node 2 1 1 1 0
node 3 1 1 1 0
node 4 1 1 1 0
node 5 1 1 1 0
node 6 1 1 1 0
node 7 1 1 1 0
node 8 1 1 1 0
node 9 1 1 1 0
node 10 1 1 1 0
node 11 1 1 1 0
node 12 1 1 1 0
node 13 1 1 1 0
node 14 1 1 1 0
node 15 1 1 1 0
node 16 1 1 1 0
node 17 1 1 1 0
node 18 1 1 1 0
node 19 1 1 3 0
node 20 1 0 2 0
node 21 1 0 2 0
node 22 1 0 2 0
node 23 1 0 2 0
node 24 1 0 0 0
node 26 1 0 0 0
node 28 1 0 0 0
node 32 1 0 0 0
node 37 1 0 0 0
node 39 1 0 0 0
node 43 1 0 0 0
node 53 1 0 0 0
node 75 1 0 0 0
gene 1 1 20 -0.285888 0 1 -0.285888 1
gene 1 2 20 0.408471 0 2 0.408471 1
gene 1 3 20 0.398842 0 3 0.398842 1
gene 1 4 20 -0.460469 0 4 -0.460469 1
gene 1 5 20 0.4273 0 5 0.4273 1
gene 1 6 20 -0.360778 0 6 -0.360778 1
gene 1 7 20 0.898164 0 7 0.898164 1
gene 1 8 20 1.00238 0 8 1.00238 0
gene 1 9 20 0.941392 0 9 0.941392 1
gene 1 10 20 -0.327785 0 10 -0.327785 0
gene 1 11 20 -0.241558 0 11 -0.241558 1
gene 1 12 20 -0.432513 0 12 -0.432513 1
gene 1 13 20 0.28377 0 13 0.28377 1
gene 1 14 20 0.306446 0 14 0.306446 1
gene 1 15 20 -0.371271 0 15 -0.371271 1
gene 1 16 20 -0.681294 0 16 -0.681294 1
gene 1 17 20 -0.111598 0 17 -0.111598 1
gene 1 18 20 -0.118468 0 18 -0.118468 1
gene 1 19 20 -0.786084 0 19 -0.786084 1
gene 1 1 21 -0.16964 0 20 -0.16964 1
gene 1 2 21 0.411733 0 21 0.411733 0
gene 1 3 21 1.51307 0 22 1.51307 1
gene 1 4 21 0.878729 0 23 0.878729 1
gene 1 5 21 0.828107 0 24 0.828107 1
gene 1 6 21 -0.811603 0 25 -0.811603 1
gene 1 7 21 -0.270107 0 26 -0.270107 1
gene 1 8 21 0.229757 0 27 0.229757 1
gene 1 9 21 0.194385 0 28 0.194385 1
gene 1 10 21 0.242196 0 29 0.242196 1
gene 1 11 21 1.14664 0 30 1.14664 1
gene 1 12 21 0.554722 0 31 0.554722 1
gene 1 13 21 0.0177728 0 32 0.0177728 0
gene 1 14 21 -0.324478 0 33 -0.324478 1
gene 1 15 21 0.629744 0 34 0.629744 0
gene 1 16 21 0.11403 0 35 0.11403 1
gene 1 17 21 0.0552702 0 36 0.0552702 1
gene 1 18 21 -0.697984 0 37 -0.697984 1
gene 1 19 21 0.57209 0 38 0.57209 1
gene 1 1 22 0.73279 0 39 0.73279 1
gene 1 2 22 -0.371598 0 40 -0.371598 1
gene 1 3 22 1.29533 0 41 1.29533 1
gene 1 4 22 0.473275 0 42 0.473275 1
gene 1 5 22 0.126928 0 43 0.126928 1
gene 1 6 22 -0.522228 0 44 -0.522228 0
gene 1 7 22 -0.269769 0 45 -0.269769 1
gene 1 8 22 -0.00816044 0 46 -0.00816044 1
gene 1 9 22 -0.321615 0 47 -0.321615 1
gene 1 10 22 -0.25704 0 48 -0.25704 1
gene 1 11 22 -0.120722 0 49 -0.120722 1
gene 1 12 22 0.287966 0 50 0.287966 1
gene 1 13 22 -0.386609 0 51 -0.386609 1
gene 1 14 22 0.712522 0 52 0.712522 1
gene 1 15 22 0.115103 0 53 0.115103 1
gene 1 16 22 0.776562 0 54 0.776562 1
gene 1 17 22 0.216501 0 55 0.216501 1
gene 1 18 22 0.438492 0 56 0.438492 1
gene 1 19 22 -0.450217 0 57 -0.450217 1
gene 1 1 23 -0.124398 0 58 -0.124398 1
gene 1 2 23 -0.286889 0 59 -0.286889 1
gene 1 3 23 0.618695 0 60 0.618695 1
gene 1 4 23 0.974589 0 61 0.974589 1
gene 1 5 23 0.768246 0 62 0.768246 1
gene 1 6 23 0.417094 0 63 0.417094 1
gene 1 7 23 -0.13652 0 64 -0.13652 1
gene 1 8 23 0.0450642 0 65 0.0450642 1
gene 1 9 23 0.831029 0 66 0.831029 1
gene 1 10 23 0.636746 0 67 0.636746 1
gene 1 11 23 -0.651559 0 68 -0.651559 1
gene 1 12 23 0.69257 0 69 0.69257 1
gene 1 13 23 0.0609454 0 70 0.0609454 1
gene 1 14 23 -0.783768 0 71 -0.783768 1
gene 1 15 23 0.166145 0 72 0.166145 1
gene 1 16 23 0.380008 0 73 0.380008 1
gene 1 17 23 0.656825 0 74 0.656825 0
gene 1 18 23 0.687075 0 75 0.687075 1
gene 1 19 23 -1.84013 0 76 -1.84013 1
gene 1 8 24 0.273565 0 77 0.273565 0
gene 1 24 20 -0.0747657 0 78 -0.0747657 1
gene 1 15 26 0.153907 0 85 0.153907 1
gene 1 26 20 0.16924 0 86 0.16924 1
gene 1 22 20 2.29987 0 87 2.29987 1
gene 1 2 24 0.0143906 0 91 0.0143906 1
gene 1 8 28 -0.141747 0 93 -0.141747 1
gene 1 28 24 -0.294726 0 94 -0.294726 1
gene 1 6 24 -0.115763 0 96 -0.115763 1
gene 1 16 26 0.531253 0 99 0.531253 1
gene 1 13 24 -0.125328 0 100 -0.125328 1
gene 1 23 24 -0.123869 0 113 -0.123869 1
gene 1 13 32 0.289659 0 116 0.289659 1
gene 1 32 21 -0.160724 0 117 -0.160724 1
gene 1 10 37 0.630526 0 129 0.630526 1
gene 1 37 20 -0.283288 0 130 -0.283288 1
gene 1 17 39 -0.161963 0 134 -0.161963 1
gene 1 39 23 0.507517 0 135 0.507517 1
gene 1 15 43 0.437018 0 150 0.437018 1
gene 1 43 21 0.278863 0 151 0.278863 1
gene 1 3 43 0.124928 0 153 0.124928 1
gene 1 8 32 -0.313121 0 154 -0.313121 1
gene 1 2 39 0.143017 0 178 0.143017 1
gene 1 6 53 0.12192 0 191 0.12192 1
gene 1 53 22 0.551675 0 192 0.551675 1
gene 1 15 24 -0.237563 0 275 -0.237563 1
gene 1 32 32 -0.854194 1 283 -0.854194 1
gene 1 2 75 1 0 301 1 1
gene 1 75 21 -0.333829 0 302 -0.333829 1
genomeend 255
genomestart 261
trait 1 0 0 0.862688 0.72224 0.409494 0.0593757 0 0 
node 1 1 1 1 0
node 2 1 1 1 0
node 3 1 1 1 0
node 4 1 1 1 0
node 5 1 1 1 0
node 6 1 1 1 0
node 7 1 1 1 0
node 8 1 1 1 0
node 9 1 1 1 0
node 10 1 1 1 0
node 11 1 1 1 0
node 12 1 1 1 0
node 13 1 1 1 0
node 14 1 1 1 0
node 15 1 1 1 0
node 16 1 1 1 0
node 17 1 1 1 0
node 18 1 1 1 0
node 19 1 1 3 0
node 20 1 0 2 0
node 21 1 0 2 0
node 22 1 0 2 0
node 23 1 0 2 0
node 24 1 0 0 0
node 26 1 0 0 0
node 37 1 0 0 0
node 46 1 0 0 0
gene 1 1 20 0.469094 0 1 0.469094 1
gene 1 2 20 -0.171793 0 2 -0.171793 1
gene 1 3 20 0.109011 0 3 0.109011 1
gene 1 4 20 1.31673 0 4 1.31673 1
gene 1 5 20 1.24789 0 5 1.24789 1
gene 1 6 20 0.738005 0 6 0.738005 1
gene 1 7 20 -1.29645 0 7 -1.29645 1
gene 1 8 20 -0.382567 0 8 -0.382567 1
gene 1 9 20 -0.266053 0 9 -0.266053 1
gene 1 10 20 0.454831 0 10 0.454831 1
gene 1 11 20 0.164485 0 11 0.164485 1
gene 1 12 20 0.845041 0 12 0.845041 1
gene 1 13 20 -0.687221 0 13 -0.687221 1
gene 1 14 20 -0.41854 0 14 -0.41854 1
gene 1 15 20 0.232733 0 15 0.232733 1
gene 1 16 20 0.272176 0 16 0.272176 1
gene 1 17 20 0.000245471 0 17 0.000245471 1
gene 1 18 20 -0.210286 0 18 -0.210286 1
gene 1 19 20 -0.00820347 0 19 -0.00820347 1
gene 1 1 21 -1.60033 0 20 -1.60033 1
gene 1 2 21 -0.449001 0 21 -0.449001 1
gene 1 3 21 -0.139467 0 22 -0.139467 1
gene 1 4 21 0.179615 0 23 0.179615 1
gene 1 5 21 0.918362 0 24 0.918362 1
gene 1 6 21 0.405018 0 25 0.405018 1
gene 1 7 21 -1.4974 0 26 -1.4974 1
gene 1 8 21 0.500684 0 27 0.500684 1
gene 1 9 21 -0.296474 0 28 -0.296474 1
gene 1 10 21 1.95519 0 29 1.95519 1
gene 1 11 21 1.23846 0 30 1.23846 1
gene 1 12 21 -0.76932 0 31 -0.76932 1
gene 1 13 21 -1.53226 0 32 -1.53226 1
gene 1 14 21 -1.06161 0 33 -1.06161 1
gene 1 15 21 -0.199406 0 34 -0.199406 1
gene 1 16 21 0.126024 0 35 0.126024 1
gene 1 17 21 0.132452 0 36 0.132452 1
gene 1 18 21 -1.02566 0 37 -1.02566 1
gene 1 19 21 -0.279023 0 38 -0.279023 1
gene 1 1 22 -0.455239 0 39 -0.455239 1
gene 1 2 22 0.599957 0 40 0.599957 1
gene 1 3 22 -0.512573 0 41 -0.512573 1
gene 1 4 22 0.00415354 0 42 0.00415354 1
gene 1 5 22 -0.215664 0 43 -0.215664 1
gene 1 6 22 -0.614149 0 44 -0.614149 1
gene 1 7 22 -0.395423 0 45 -0.395423 1
gene 1 8 22 0.493416 0 46 0.493416 1
gene 1 9 22 0.0288488 0 47 0.0288488 1
gene 1 10 22 0.40051 0 48 0.40051 1
gene 1 11 22 -0.846455 0 49 -0.846455 1
gene 1 12 22 0.459396 0 50 0.459396 1
gene 1 13 22 -0.513894 0 51 -0.513894 1
gene 1 14 22 -2.12028 0 52 -2.12028 1
gene 1 15 22 0.33866 0 53 0.33866 1
gene 1 16 22 -0.112469 0 54 -0.112469 1
gene 1 17 22 2.24102 0 55 2.24102 1
gene 1 18 22 -0.0150053 0 56 -0.0150053 1
gene 1 19 22 -0.511164 0 57 -0.511164 1
gene 1 1 23 1.40528 0 58 1.40528 1
gene 1 2 23 -0.573749 0 59 -0.573749 1
gene 1 3 23 -0.340772 0 60 -0.340772 1
gene 1 4 23 -0.436288 0 61 -0.436288 1
gene 1 5 23 0.406587 0 62 0.406587 1
gene 1 6 23 0.0306849 0 63 0.0306849 1
gene 1 7 23 -1.06405 0 64 -1.06405 1
gene 1 8 23 -0.736961 0 65 -0.736961 1
gene 1 9 23 1.60954 0 66 1.60954 1
gene 1 10 23 0.905967 0 67 0.905967 1
gene 1 11 23 -0.466831 0 68 -0.466831 1
gene 1 12 23 -0.936928 0 69 -0.936928 1
gene 1 13 23 0.126364 0 70 0.126364 1
gene 1 14 23 0.267451 0 71 0.267451 1
gene 1 15 23 0.0683485 0 72 0.0683485 1
gene 1 16 23 -0.205925 0 73 -0.205925 1
gene 1 17 23 -1.34182 0 74 -1.34182 1
gene 1 18 23 -0.229881 0 75 -0.229881 1
gene 1 19 23 0.852238 0 76 0.852238 1
gene 1 8 24 0.356223 0 77 0.356223 1
gene 1 24 20 -0.857168 0 78 -0.857168 1
gene 1 15 26 0.285841 0 85 0.285841 1
gene 1 26 20 0.356559 0 86 0.356559 1
gene 1 22 20 -0.479485 0 87 -0.479485 1
gene 1 2 24 0.0897218 0 91 0.0897218 1
gene 1 6 24 0.834133 0 96 0.834133 1
gene 1 10 37 0.34754 0 129 0.34754 1
gene 1 37 20 0.737495 0 130 0.737495 1
gene 1 24 37 0.273255 0 140 0.273255 1
gene 1 11 46 -0.122327 0 161 -0.122327 1
gene 1 46 20 -0.233354 0 162 -0.233354 1
gene 1 24 22 0.0577553 0 219 0.0577553 1
gene 1 46 23 -0.291258 0 251 -0.291258 1
gene 1 26 24 -0.022418 0 305 -0.022418 1
genomeend 261
genomestart 269
trait 1 0.536398 0.324603 0.277354 0.0167842 0.791012 0.0716232 0.290245 0.55344 
node 1 1 1 1 0
node 2 1 1 1 0
node 3 1 1 1 0
node 4 1 1 1 0
node 5 1 1 1 0
node 6 1 1 1 0
node 7 1 1 1 0
node 8 1 1 1 0
node 9 1 1 1 0
node 10 1 1 1 0
node 11 1 1 1 0
node 12 1 1 1 0
node 13 1 1 1 0
node 14 1 1 1 0
node 15 1 1 1 0
node 16 1 1 1 0
node 17 1 1 1 0
node 18 1 1 1 0
node 19 1 1 3 0
node 20 1 0 2 0
node 21 1 0 2 0
node 22 1 0 2 0
node 23 1 0 2 0
node 24 1 0 0 0
node 26 1 0 0 0
node 28 1 0 0 0
node 32 1 0 0 0
node 37 1 0 0 0
node 39 1 0 0 0
node 43 1 0 0 0
node 53 1 0 0 0
node 75 1 0 0 0
gene 1 1 20 -0.285888 0 1 -0.285888 1
gene 1 2 20 0.408471 0 2 0.408471 1
gene 1 3 20 0.398842 0 3 0.398842 1
gene 1 4 20 -0.460469 0 4 -0.460469 1
gene 1 5 20 0.4273 0 5 0.4273 1
gene 1 6 20 -0.360778 0 6 -0.360778 1
gene 1 7 20 0.898164 0 7 0.898164 1
gene 1 8 20 1.00238 0 8 1.00238 0
gene 1 9 20 0.941392 0 9 0.941392 1
gene 1 10 20 -0.327785 0 10 -0.327785 0
gene 1 11 20 -0.241558 0 11 -0.241558 1
gene 1 12 20 -0.432513 0 12 -0.432513 1
gene 1 13 20 0.28377 0 13 0.28377 1
gene 1 14 20 0.306446 0 14 0.306446 1
gene 1 15 20 -0.371271 0 15 -0.371271 1
gene 1 16 20 -0.681294 0 16 -0.681294 1
gene 1 17 20 -0.111598 0 17 -0.111598 1
gene 1 18 20 -0.118468 0 18 -0.118468 1
gene 1 19 20 -0.786084 0 19 -0.786084 1
gene 1 1 21 -0.16964 0 20 -0.16964 1
gene 1 2 21 0.411733 0 21 0.411733 0
gene 1 3 21 1.51307 0 22 1.51307 1
gene 1 4 21 0.878729 0 23 0.878729 1
gene 1 5 21 0.828107 0 24 0.828107 1
gene 1 6 21 -0.811603 0 25 -0.811603 1
gene 1 7 21 -0.270107 0 26 -0.270107 1
gene 1 8 21 0.229757 0 27 0.229757 1
gene 1 9 21 0.194385 0 28 0.194385 1
gene 1 10 21 0.242196 0 29 0.242196 1
gene 1 11 21 1.14664 0 30 1.14664 1
gene 1 12 21 0.554722 0 31 0.554722 1
gene 1 13 21 0.0177728 0 32 0.0177728 0
gene 1 14 21 -0.324478 0 33 -0.324478 1
gene 1 15 21 0.629744 0 34 0.629744 0
gene 1 16 21 0.11403 0 35 0.11403 1
gene 1 17 21 0.0552702 0 36 0.0552702 1
gene 1 18 21 -0.697984 0 37 -0.697984 1
gene 1 19 21 0.57209 0 38 0.57209 1
gene 1 1 22 0.73279 0 39 0.73279 1
gene 1 2 22 -0.371598 0 40 -0.371598 1
gene 1 3 22 1.29533 0 41 1.29533 1
gene 1 4 22 0.473275 0 42 0.473275 1
gene 1 5 22 0.126928 0 43 0.126928 1
gene 1 6 22 -0.522228 0 44 -0.522228 0
gene 1 7 22 -0.269769 0 45 -0.269769 1
gene 1 8 22 -0.00816044 0 46 -0.00816044 1
gene 1 9 22 -0.321615 0 47 -0.321615 1
gene 1 10 22 -0.25704 0 48 -0.25704 1
gene 1 11 22 -0.120722 0 49 -0.120722 1
gene 1 12 22 0.287966 0 50 0.287966 1
gene 1 13 22 -0.386609 0 51 -0.386609 1
gene 1 14 22 0.712522 0 52 0.712522 1
gene 1 15 22 0.115103 0 53 0.115103 1
gene 1 16 22 0.776562 0 54 0.776562 1
gene 1 17 22 0.216501 0 55 0.216501 1
gene 1 18 22 0.438492 0 56 0.438492 1
gene 1 19 22 -0.450217 0 57 -0.450217 1
gene 1 1 23 -0.124398 0 58 -0.124398 1
gene 1 2 23 -0.286889 0 59 -0.286889 1
gene 1 3 23 0.618695 0 60 0.618695 1
gene 1 4 23 0.974589 0 61 0.974589 1
gene 1 5 23 0.768246 0 62 0.768246 1
gene 1 6 23 0.417094 0 63 0.417094 1
gene 1 7 23 -0.13652 0 64 -0.13652 1
gene 1 8 23 0.0450642 0 65 0.0450642 1
gene 1 9 23 0.831029 0 66 0.831029 1
gene 1 10 23 0.636746 0 67 0.636746 1
gene 1 11 23 -0.651559 0 68 -0.651559 1
gene 1 12 23 0.69257 0 69 0.69257 1
gene 1 13 23 0.0609454 0 70 0.0609454 1
gene 1 14 23 -0.783768 0 71 -0.783768 1
gene 1 15 23 0.166145 0 72 0.166145 1
gene 1 16 23 0.380008 0 73 0.380008 1
gene 1 17 23 0.656825 0 74 0.656825 0
gene 1 18 23 0.687075 0 75 0.687075 1
gene 1 19 23 -1.84013 0 76 -1.84013 1
gene 1 8 24 0.273565 0 77 0.273565 0
gene 1 24 20 -0.0747657 0 78 -0.0747657 1
gene 1 15 26 0.153907 0 85 0.153907 1
gene 1 26 20 0.16924 0 86 0.16924 1
gene 1 22 20 2.29987 0 87 2.29987 1
gene 1 2 24 0.0143906 0 91 0.0143906 1
gene 1 8 28 -0.141747 0 93 -0.141747 1
gene 1 28 24 -0.294726 0 94 -0.294726 1
gene 1 6 24 -0.115763 0 96 -0.115763 1
gene 1 16 26 0.531253 0 99 0.531253 1
gene 1 13 24 -0.125328 0 100 -0.125328 1
gene 1 23 24 -0.123869 0 113 -0.123869 1
gene 1 13 32 0.289659 0 116 0.289659 1
gene 1 32 21 -0.160724 0 117 -0.160724 1
gene 1 10 37 0.630526 0 129 0.630526 1
gene 1 37 20 -0.283288 0 130 -0.283288 1
gene 1 17 39 -0.161963 0 134 -0.161963 1
gene 1 39 23 0.507517 0 135 0.507517 1
gene 1 15 43 0.437018 0 150 0.437018 1
gene 1 43 21 0.278863 0 151 0.278863 1
gene 1 3 43 0.124928 0 153 0.124928 1
gene 1 8 32 -0.313121 0 154 -0.313121 1
gene 1 2 39 0.143017 0 178 0.143017 1
gene 1 6 53 0.12192 0 191 0.12192 1
gene 1 53 22 0.551675 0 192 0.551675 1
gene 1 15 24 -0.237563 0 275 -0.237563 1
gene 1 32 32 -0.854194 1 283 -0.854194 1
gene 1 2 75 1 0 301 1 1
gene 1 75 21 -0.333829 0 302 -0.333829 1
gene 1 11 26 0.861839 0 317 0.861839 1
genomeend 269
genomestart 271
trait 1 0 0.046443 0.0191581 0.280479 0.742593 0 0 0.403545 
node 1 1 1 1 0
node 2 1 1 1 0
node 3 1 1 1 0
node 4 1 1 1 0
node 5 1 1 1 0
node 6 1 1 1 0
node 7 1 1 1 0
node 8 1 1 1 0
node 9 1 1 1 0
node 10 1 1 1 0
node 11 1 1 1 0
node 12 1 1 1 0
node 13 1 1 1 0
node 14 1 1 1 0
node 15 1 1 1 0
node 16 1 1 1 0
node 17 1 1 1 0
node 18 1 1 1 0
node 19 1 1 3 0
node 20 1 0 2 0
node 21 1 0 2 0
node 22 1 0 2 0
node 23 1 0 2 0
node 24 1 0 0 0
node 26 1 0 0 0
node 28 1 0 0 0
node 32 1 0 0 0
node 37 1 0 0 0
node 39 1 0 0 0
node 43 1 0 0 0
node 53 1 0 0 0
node 60 1 0 0 0
node 66 1 0 0 0
node 68 1 0 0 0
gene 1 1 20 -0.348276 0 1 -0.348276 1
gene 1 2 20 -0.066385 0 2 -0.066385 1
gene 1 3 20 -0.866339 0 3 -0.866339 1
gene 1 4 20 -0.126757 0 4 -0.126757 1
gene 1 5 20 -0.291154 0 5 -0.291154 1
gene 1 6 20 -0.0876322 0 6 -0.0876322 1
gene 1 7 20 0.126953 0 7 0.126953 1
gene 1 8 20 -0.0940259 0 8 -0.0940259 1
gene 1 9 20 -0.0454783 0 9 -0.0454783 1
gene 1 10 20 -0.360662 0 10 -0.360662 1
gene 1 11 20 0.430922 0 11 0.430922 1
gene 1 12 20 -0.00895134 0 12 -0.00895134 1
gene 1 13 20 0.486535 0 13 0.486535 1
gene 1 14 20 0.540387 0 14 0.540387 1
gene 1 15 20 -0.29611 0 15 -0.29611 1
gene 1 16 20 0.623354 0 16 0.623354 1
gene 1 17 20 -0.227613 0 17 -0.227613 1
gene 1 18 20 -0.385317 0 18 -0.385317 1
gene 1 19 20 -0.515748 0 19 -0.515748 1
gene 1 1 21 0.341244 0 20 0.341244 1
gene 1 2 21 -0.00470905 0 21 -0.00470905 1
gene 1 3 21 0.468991 0 22 0.468991 1
gene 1 4 21 0.868797 0 23 0.868797 1
gene 1 5 21 -0.691503 0 24 -0.691503 1
gene 1 6 21 0.715663 0 25 0.715663 1
gene 1 7 21 -0.344313 0 26 -0.344313 1
gene 1 8 21 0.594079 0 27 0.594079 1
gene 1 9 21 -0.361854 0 28 -0.361854 1
gene 1 10 21 -0.756497 0 29 -0.756497 1
gene 1 11 21 0.884476 0 30 0.884476 1
gene 1 12 21 0.500536 0 31 0.500536 1
gene 1 13 21 -0.548872 0 32 -0.548872 0
gene 1 14 21 -0.37956 0 33 -0.37956 1
gene 1 15 21 0.625307 0 34 0.625307 0
gene 1 16 21 -0.16555 0 35 -0.16555 1
gene 1 17 21 0.625829 0 36 0.625829 1
gene 1 18 21 0.228102 0 37 0.228102 1
gene 1 19 21 -0.0414851 0 38 -0.0414851 1
gene 1 1 22 0.965973 0 39 0.965973 1
gene 1 2 22 -0.307746 0 40 -0.307746 1
gene 1 3 22 0.786619 0 41 0.786619 1
gene 1 4 22 0.491828 0 42 0.491828 1
gene 1 5 22 0.107706 0 43 0.107706 1
gene 1 6 22 -0.108934 0 44 -0.108934 0
gene 1 7 22 -0.274453 0 45 -0.274453 1
gene 1 8 22 -0.255639 0 46 -0.255639 1
gene 1 9 22 -0.293825 0 47 -0.293825 1
gene 1 10 22 0.327459 0 48 0.327459 1
gene 1 11 22 0.503201 0 49 0.503201 1
gene 1 12 22 1.52338 0 50 1.52338 1
gene 1 13 22 0.19575 0 51 0.19575 1
gene 1 14 22 -0.197936 0 52 -0.197936 1
gene 1 15 22 0.405677 0 53 0.405677 1
gene 1 16 22 0.367311 0 54 0.367311 1
gene 1 17 22 -0.248421 0 55 -0.248421 0
gene 1 18 22 0.680535 0 56 0.680535 1
gene 1 19 22 0.856631 0 57 0.856631 1
gene 1 1 23 -0.0555192 0 58 -0.0555192 1
gene 1 2 23 1.41408 0 59 1.41408 1
gene 1 3 23 -1.22276 0 60 -1.22276 1
gene 1 4 23 0.316914 0 61 0.316914 1
gene 1 5 23 -0.21467 0 62 -0.21467 1
gene 1 6 23 -0.0296137 0 63 -0.0296137 1
gene 1 7 23 0.352691 0 64 0.352691 1
gene 1 8 23 -0.159529 0 65 -0.159529 1
gene 1 9 23 -0.344283 0 66 -0.344283 1
gene 1 10 23 0.371437 0 67 0.371437 1
gene 1 11 23 -0.653114 0 68 -0.653114 1
gene 1 12 23 0.373073 0 69 0.373073 1
gene 1 13 23 0.0834773 0 70 0.0834773 1
gene 1 14 23 -0.996803 0 71 -0.996803 1
gene 1 15 23 0.216501 0 72 0.216501 1
gene 1 16 23 0.357707 0 73 0.357707 1
gene 1 17 23 -0.87579 0 74 -0.87579 1
gene 1 18 23 1.35276 0 75 1.35276 1
gene 1 19 23 -0.58265 0 76 -0.58265 1
gene 1 8 24 1.01989 0 77 1.01989 1
gene 1 24 20 0.106265 0 78 0.106265 1
gene 1 15 26 0.842415 0 85 0.842415 1
gene 1 26 20 -0.871986 0 86 -0.871986 1
gene 1 22 20 0.585368 0 87 0.585368 1
gene 1 2 24 0.6808 0 91 0.6808 1
gene 1 8 28 0.668465 0 93 0.668465 1
gene 1 28 24 -0.265419 0 94 -0.265419 1
gene 1 6 24 0.00682629 0 96 0.00682629 1
gene 1 16 26 -0.566562 0 99 -0.566562 1
gene 1 13 24 0.061665 0 100 0.061665 1
gene 1 23 24 0.451514 0 113 0.451514 1
gene 1 13 32 0.415589 0 116 0.415589 1
gene 1 32 21 -0.0323322 0 117 -0.0323322 1
gene 1 10 37 -0.103515 0 129 -0.103515 1
gene 1 37 20 0.156332 0 130 0.156332 1
gene 1 17 39 -0.106094 0 134 -0.106094 1
gene 1 39 23 0.269682 0 135 0.269682 1
gene 1 15 43 -0.101221 0 150 -0.101221 1
gene 1 43 21 -0.0434195 0 151 -0.0434195 1
gene 1 3 43 -0.24997 0 153 -0.24997 1
gene 1 8 32 -0.175992 0 154 -0.175992 1
gene 1 2 39 0.39229 0 178 0.39229 1
gene 1 6 53 0.201415 0 191 0.201415 1
gene 1 53 22 -0.440505 0 192 -0.440505 1
gene 1 6 43 0.324897 0 210 0.324897 1
gene 1 17 60 0.0643021 0 217 0.0643021 1
gene 1 60 22 1.20897 0 218 1.20897 1
gene 1 20 20 0.35182 1 221 0.35182 1
gene 1 1 43 0.211403 0 234 0.211403 1
gene 1 15 37 0.381204 0 261 0.381204 1
gene 1 10 66 0.70956 0 266 0.70956 1
gene 1 66 21 0.138372 0 267 0.138372 1
gene 1 18 32 -0.319294 0 271 -0.319294 1
gene 1 5 68 0.371526 0 277 0.371526 1
gene 1 68 20 -0.371172 0 278 -0.371172 1
genomeend 271
genomestart 272
trait 1 0 0.0467062 0.0192342 0.279435 0.741134 0 0 0.400949 
node 1 1 1 1 0
node 2 1 1 1 0
node 3 1 1 1 0
node 4 1 1 1 0
node 5 1 1 1 0
node 6 1 1 1 0
node 7 1 1 1 0
node 8 1 1 1 0
node 9 1 1 1 0
node 10 1 1 1 0
node 11 1 1 1 0
node 12 1 1 1 0
node 13 1 1 1 0
node 14 1 1 1 0
node 15 1 1 1 0
node 16 1 1 1 0
node 17 1 1 1 0
node 18 1 1 1 0
node 19 1 1 3 0
node 20 1 0 2 0
node 21 1 0 2 0
node 22 1 0 2 0
node 23 1 0 2 0
node 24 1 0 0 0
node 26 1 0 0 0
node 28 1 0 0 0
node 32 1 0 0 0
node 37 1 0 0 0
node 39 1 0 0 0
node 43 1 0 0 0
node 53 1 0 0 0
node 60 1 0 0 0
node 66 1 0 0 0
node 68 1 0 0 0
gene 1 1 20 -0.272383 0 1 -0.272383 1
gene 1 2 20 -0.0730032 0 2 -0.0730032 1
gene 1 3 20 -0.974293 0 3 -0.974293 1
gene 1 4 20 -0.207699 0 4 -0.207699 1
gene 1 5 20 -0.26817 0 5 -0.26817 1
gene 1 6 20 -0.175687 0 6 -0.175687 1
gene 1 7 20 0.0644722 0 7 0.0644722 1
gene 1 8 20 -0.0321178 0 8 -0.0321178 1
gene 1 9 20 -0.0268039 0 9 -0.0268039 1
gene 1 10 20 -0.281355 0 10 -0.281355 1
gene 1 11 20 0.416962 0 11 0.416962 1
gene 1 12 20 -0.377256 0 12 -0.377256 1
gene 1 13 20 0.396975 0 13 0.396975 1
gene 1 14 20 0.440897 0 14 0.440897 1
gene 1 15 20 -0.101582 0 15 -0.101582 1
gene 1 16 20 0.735956 0 16 0.735956 1
gene 1 17 20 -0.133174 0 17 -0.133174 1
gene 1 18 20 -0.369095 0 18 -0.369095 1
gene 1 19 20 -0.340264 0 19 -0.340264 1
gene 1 1 21 0.338758 0 20 0.338758 1
gene 1 2 21 0.126789 0 21 0.126789 1
gene 1 3 21 0.220664 0 22 0.220664 1
gene 1 4 21 0.932792 0 23 0.932792 1
gene 1 5 21 -0.877632 0 24 -0.877632 1
gene 1 6 21 0.703749 0 25 0.703749 1
gene 1 7 21 -0.402132 0 26 -0.402132 1
gene 1 8 21 0.574867 0 27 0.574867 1
gene 1 9 21 -0.435052 0 28 -0.435052 1
gene 1 10 21 -0.659765 0 29 -0.659765 1
gene 1 11 21 0.758626 0 30 0.758626 1
gene 1 12 21 0.336555 0 31 0.336555 1
gene 1 13 21 -0.610648 0 32 -0.610648 0
gene 1 14 21 -0.150557 0 33 -0.150557 1
gene 1 15 21 0.528435 0 34 0.528435 0
gene 1 16 21 -0.13864 0 35 -0.13864 1
gene 1 17 21 0.55251 0 36 0.55251 1
gene 1 18 21 0.276116 0 37 0.276116 1
gene 1 19 21 -0.0318576 0 38 -0.0318576 1
gene 1 1 22 0.86176 0 39 0.86176 1
gene 1 2 22 -0.225762 0 40 -0.225762 1
gene 1 3 22 0.81346 0 41 0.81346 1
gene 1 4 22 0.331194 0 42 0.331194 1
gene 1 5 22 0.205915 0 43 0.205915 1
gene 1 6 22 -0.158241 0 44 -0.158241 0
gene 1 7 22 -0.480889 0 45 -0.480889 1
gene 1 8 22 -0.207436 0 46 -0.207436 1
gene 1 9 22 -0.387794 0 47 -0.387794 1
gene 1 10 22 0.37337 0 48 0.37337 1
gene 1 11 22 0.652986 0 49 0.652986 1
gene 1 12 22 1.64156 0 50 1.64156 1
gene 1 13 22 0.280972 0 51 0.280972 1
gene 1 14 22 -0.20109 0 52 -0.20109 1
gene 1 15 22 0.174263 0 53 0.174263 1
gene 1 16 22 0.459262 0 54 0.459262 1
gene 1 17 22 -0.311643 0 55 -0.311643 0
gene 1 18 22 0.819686 0 56 0.819686 1
gene 1 19 22 0.921591 0 57 0.921591 1
gene 1 1 23 -0.125394 0 58 -0.125394 1
gene 1 2 23 1.385 0 59 1.385 1
gene 1 3 23 -1.10576 0 60 -1.10576 1
gene 1 4 23 0.480013 0 61 0.480013 1
gene 1 5 23 -0.339911 0 62 -0.339911 1
gene 1 6 23 0.193177 0 63 0.193177 1
gene 1 7 23 0.385824 0 64 0.385824 1
gene 1 8 23 -0.307676 0 65 -0.307676 1
gene 1 9 23 -0.484125 0 66 -0.484125 1
gene 1 10 23 0.833946 0 67 0.833946 1
gene 1 11 23 -0.422407 0 68 -0.422407 1
gene 1 12 23 0.468879 0 69 0.468879 1
gene 1 13 23 0.0763256 0 70 0.0763256 1
gene 1 14 23 -1.22314 0 71 -1.22314 1
gene 1 15 23 0.329394 0 72 0.329394 1
gene 1 16 23 0.281232 0 73 0.281232 1
gene 1 17 23 -0.67221 0 74 -0.67221 1
gene 1 18 23 1.55061 0 75 1.55061 1
gene 1 19 23 -0.515956 0 76 -0.515956 1
gene 1 8 24 1.05186 0 77 1.05186 0
gene 1 24 20 0.0785948 0 78 0.0785948 1
gene 1 15 26 0.912073 0 85 0.912073 1
gene 1 26 20 -0.977619 0 86 -0.977619 1
gene 1 22 20 0.229306 0 87 0.229306 1
gene 1 2 24 0.788239 0 91 0.788239 1
gene 1 8 28 0.487863 0 93 0.487863 1
gene 1 28 24 -0.223181 0 94 -0.223181 1
gene 1 6 24 0.135685 0 96 0.135685 1
gene 1 16 26 -0.651867 0 99 -0.651867 1
gene 1 13 24 -0.0477681 0 100 -0.0477681 1
gene 1 23 24 0.666713 0 113 0.666713 1
gene 1 13 32 0.529943 0 116 0.529943 1
gene 1 32 21 -0.0132698 0 117 -0.0132698 1
gene 1 10 37 -0.26203 0 129 -0.26203 1
gene 1 37 20 0.0022217 0 130 0.0022217 1
gene 1 17 39 -0.193372 0 134 -0.193372 1
gene 1 39 23 0.121859 0 135 0.121859 1
gene 1 15 43 -0.113624 0 150 -0.113624 1
gene 1 43 21 -0.12812 0 151 -0.12812 1
gene 1 3 43 -0.357064 0 153 -0.357064 1
gene 1 8 32 -0.287959 0 154 -0.287959 1
gene 1 2 39 0.373009 0 178 0.373009 1
gene 1 6 53 0.235329 0 191 0.235329 1
gene 1 53 22 -0.590709 0 192 -0.590709 1
gene 1 6 43 0.368815 0 210 0.368815 1
gene 1 17 60 -0.11327 0 217 -0.11327 1
gene 1 60 22 1.27529 0 218 1.27529 1
gene 1 20 20 0.407369 1 221 0.407369 1
gene 1 1 43 0.103819 0 234 0.103819 1
gene 1 15 37 0.358564 0 261 0.358564 1
gene 1 10 66 0.509258 0 266 0.509258 1
gene 1 66 21 0.110968 0 267 0.110968 1
gene 1 18 32 -0.427925 0 271 -0.427925 1
gene 1 5 68 0.340635 0 277 0.340635 1
gene 1 68 20 -0.353057 0 278 -0.353057 1
genomeend 272
genomestart 277
trait 1 0 0 0.862688 0.72224 0.409494 0.0593757 0 0 
node 1 1 1 1 0
node 2 1 1 1 0
node 3 1 1 1 0
node 4 1 1 1 0
node 5 1 1 1 0
node 6 1 1 1 0
node 7 1 1 1 0
node 8 1 1 1 0
node 9 1 1 1 0
node 10 1 1 1 0
node 11 1 1 1 0
node 12 1 1 1 0
node 13 1 1 1 0
node 14 1 1 1 0
node 15 1 1 1 0
node 16 1 1 1 0
node 17 1 1 1 0
node 18 1 1 1 0
node 19 1 1 3 0
node 20 1 0 2 0
node 21 1 0 2 0
node 22 1 0 2 0
node 23 1 0 2 0
node 24 1 0 0 0
node 26 1 0 0 0
node 37 1 0 0 0
node 46 1 0 0 0
gene 1 1 20 0.352746 0 1 0.352746 1
gene 1 2 20 -0.171793 0 2 -0.171793 1
gene 1 3 20 0.109011 0 3 0.109011 1
gene 1 4 20 0.710132 0 4 0.710132 1
gene 1 5 20 1.24789 0 5 1.24789 1
gene 1 6 20 0.738005 0 6 0.738005 1
gene 1 7 20 -0.694908 0 7 -0.694908 1
gene 1 8 20 0.0356654 0 8 0.0356654 1
gene 1 9 20 0.0916701 0 9 0.0916701 1
gene 1 10 20 0.144933 0 10 0.144933 1
gene 1 11 20 0.164485 0 11 0.164485 1
gene 1 12 20 1.10756 0 12 1.10756 1
gene 1 13 20 -0.687221 0 13 -0.687221 1
gene 1 14 20 -0.40208 0 14 -0.40208 1
gene 1 15 20 0.232733 0 15 0.232733 1
gene 1 16 20 0.272176 0 16 0.272176 1
gene 1 17 20 0.000245471 0 17 0.000245471 1
gene 1 18 20 -0.210286 0 18 -0.210286 1
gene 1 19 20 -0.00820347 0 19 -0.00820347 1
gene 1 1 21 -1.60033 0 20 -1.60033 1
gene 1 2 21 -0.449001 0 21 -0.449001 1
gene 1 3 21 -0.353622 0 22 -0.353622 1
gene 1 4 21 -0.0575181 0 23 -0.0575181 1
gene 1 5 21 0.0745376 0 24 0.0745376 1
gene 1 6 21 0.405018 0 25 0.405018 1
gene 1 7 21 -0.697085 0 26 -0.697085 1
gene 1 8 21 0.706096 0 27 0.706096 1
gene 1 9 21 -0.714324 0 28 -0.714324 1
gene 1 10 21 1.95519 0 29 1.95519 1
gene 1 11 21 1.10332 0 30 1.10332 1
gene 1 12 21 -0.359299 0 31 -0.359299 1
gene 1 13 21 -0.939489 0 32 -0.939489 1
gene 1 14 21 -1.34595 0 33 -1.34595 1
gene 1 15 21 -0.199406 0 34 -0.199406 1
gene 1 16 21 0.268936 0 35 0.268936 1
gene 1 17 21 -0.0926057 0 36 -0.0926057 1
gene 1 18 21 -0.603359 0 37 -0.603359 1
gene 1 19 21 -0.279023 0 38 -0.279023 1
gene 1 1 22 -0.524632 0 39 -0.524632 1
gene 1 2 22 0.599957 0 40 0.599957 1
gene 1 3 22 -0.514156 0 41 -0.514156 1
gene 1 4 22 0.00415354 0 42 0.00415354 1
gene 1 5 22 -0.200649 0 43 -0.200649 1
gene 1 6 22 -0.486434 0 44 -0.486434 1
gene 1 7 22 -0.306849 0 45 -0.306849 1
gene 1 8 22 0.493416 0 46 0.493416 1
gene 1 9 22 -0.13877 0 47 -0.13877 1
gene 1 10 22 0.40051 0 48 0.40051 1
gene 1 11 22 -0.313204 0 49 -0.313204 1
gene 1 12 22 0.259957 0 50 0.259957 1
gene 1 13 22 -0.444758 0 51 -0.444758 1
gene 1 14 22 -2.12028 0 52 -2.12028 1
gene 1 15 22 0.272393 0 53 0.272393 1
gene 1 16 22 -0.325263 0 54 -0.325263 1
gene 1 17 22 2.24102 0 55 2.24102 1
gene 1 18 22 -0.0150053 0 56 -0.0150053 1
gene 1 19 22 -0.111512 0 57 -0.111512 1
gene 1 1 23 1.40528 0 58 1.40528 1
gene 1 2 23 -0.573749 0 59 -0.573749 1
gene 1 3 23 -0.61599 0 60 -0.61599 1
gene 1 4 23 -0.436288 0 61 -0.436288 1
gene 1 5 23 0.406587 0 62 0.406587 1
gene 1 6 23 0.133898 0 63 0.133898 1
gene 1 7 23 -1.06405 0 64 -1.06405 1
gene 1 8 23 -0.736961 0 65 -0.736961 1
gene 1 9 23 1.11096 0 66 1.11096 1
gene 1 10 23 0.50426 0 67 0.50426 1
gene 1 11 23 -0.180019 0 68 -0.180019 1
gene 1 12 23 -1.23403 0 69 -1.23403 1
gene 1 13 23 0.126364 0 70 0.126364 1
gene 1 14 23 0.0432941 0 71 0.0432941 1
gene 1 15 23 -0.0959206 0 72 -0.0959206 1
gene 1 16 23 -0.102149 0 73 -0.102149 1
gene 1 17 23 -1.34182 0 74 -1.34182 1
gene 1 18 23 -0.0111958 0 75 -0.0111958 1
gene 1 19 23 0.852238 0 76 0.852238 1
gene 1 8 24 0.20735 0 77 0.20735 1
gene 1 24 20 -0.662596 0 78 -0.662596 1
gene 1 15 26 0.357644 0 85 0.357644 1
gene 1 26 20 0.142425 0 86 0.142425 1
gene 1 22 20 -0.479485 0 87 -0.479485 1
gene 1 2 24 0.0897218 0 91 0.0897218 1
gene 1 6 24 0.834133 0 96 0.834133 1
gene 1 10 37 0.37249 0 129 0.37249 1
gene 1 37 20 0.737495 0 130 0.737495 1
gene 1 24 37 0.481814 0 140 0.481814 1
gene 1 11 46 0.120788 0 161 0.120788 1
gene 1 46 20 0.165324 0 162 0.165324 1
gene 1 24 22 0.0577553 0 219 0.0577553 1
gene 1 46 23 -0.291258 0 251 -0.291258 1
gene 1 26 24 0.387542 0 305 0.387542 1
genomeend 277
genomestart 285
trait 1 0.670945 0.162302 0.138677 0.00839209 0.731057 0.0358116 0.145122 0.483957 
node 1 1 1 1 0
node 2 1 1 1 0
node 3 1 1 1 0
node 4 1 1 1 0
node 5 1 1 1 0
node 6 1 1 1 0
node 7 1 1 1 0
node 8 1 1 1 0
node 9 1 1 1 0
node 10 1 1 1 0
node 11 1 1 1 0
node 12 1 1 1 0
node 13 1 1 1 0
node 14 1 1 1 0
node 15 1 1 1 0
node 16 1 1 1 0
node 17 1 1 1 0
node 18 1 1 1 0
node 19 1 1 3 0
node 20 1 0 2 0
node 21 1 0 2 0
node 22 1 0 2 0
node 23 1 0 2 0
node 24 1 0 0 0
node 26 1 0 0 0
node 28 1 0 0 0
node 32 1 0 0 0
node 37 1 0 0 0
node 39 1 0 0 0
node 43 1 0 0 0
node 53 1 0 0 0
node 75 1 0 0 0
gene 1 1 20 -0.18823 0 1 -0.18823 1
gene 1 2 20 0.388442 0 2 0.388442 1
gene 1 3 20 1.98789 0 3 1.98789 1
gene 1 4 20 -0.341548 0 4 -0.341548 1
gene 1 5 20 0.895265 0 5 0.895265 1
gene 1 6 20 -0.557997 0 6 -0.557997 1
gene 1 7 20 0.453208 0 7 0.453208 1
gene 1 8 20 0.507569 0 8 0.507569 0
gene 1 9 20 0.533664 0 9 0.533664 1
gene 1 10 20 -0.711628 0 10 -0.711628 0
gene 1 11 20 0.586987 0 11 0.586987 1
gene 1 12 20 -0.928488 0 12 -0.928488 1
gene 1 13 20 1.87045 0 13 1.87045 1
gene 1 14 20 0.608 0 14 0.608 1
gene 1 15 20 -0.0440589 0 15 -0.0440589 1
gene 1 16 20 -0.927374 0 16 -0.927374 1
gene 1 17 20 -0.485671 0 17 -0.485671 1
gene 1 18 20 0.0953853 0 18 0.0953853 1
gene 1 19 20 -1.09214 0 19 -1.09214 1
gene 1 1 21 -0.984453 0 20 -0.984453 1
gene 1 2 21 0.705208 0 21 0.705208 0
gene 1 3 21 0.354395 0 22 0.354395 1
gene 1 4 21 0.506092 0 23 0.506092 1
gene 1 5 21 -0.552133 0 24 -0.552133 1
gene 1 6 21 -0.582006 0 25 -0.582006 1
gene 1 7 21 -0.399452 0 26 -0.399452 1
gene 1 8 21 0.152348 0 27 0.152348 1
gene 1 9 21 -0.243664 0 28 -0.243664 1
gene 1 10 21 -0.336011 0 29 -0.336011 1
gene 1 11 21 0.719844 0 30 0.719844 1
gene 1 12 21 0.38263 0 31 0.38263 1
gene 1 13 21 -1.25996 0 32 -1.25996 0
gene 1 14 21 -0.232618 0 33 -0.232618 1
gene 1 15 21 0.798983 0 34 0.798983 0
gene 1 16 21 -0.210283 0 35 -0.210283 1
gene 1 17 21 0.115533 0 36 0.115533 1
gene 1 18 21 -0.711336 0 37 -0.711336 1
gene 1 19 21 -0.254085 0 38 -0.254085 1
gene 1 1 22 0.460652 0 39 0.460652 1
gene 1 2 22 0.0945017 0 40 0.0945017 1
gene 1 3 22 1.38477 0 41 1.38477 1
gene 1 4 22 0.930394 0 42 0.930394 1
gene 1 5 22 0.0462866 0 43 0.0462866 1
gene 1 6 22 -0.125831 0 44 -0.125831 0
gene 1 7 22 0.184607 0 45 0.184607 1
gene 1 8 22 -0.829336 0 46 -0.829336 1
gene 1 9 22 0.23238 0 47 0.23238 1
gene 1 10 22 0.456587 0 48 0.456587 1
gene 1 11 22 -0.729696 0 49 -0.729696 1
gene 1 12 22 -0.674042 0 50 -0.674042 1
gene 1 13 22 -0.643512 0 51 -0.643512 1
gene 1 14 22 0.863175 0 52 0.863175 1
gene 1 15 22 0.452199 0 53 0.452199 1
gene 1 16 22 0.371517 0 54 0.371517 1
gene 1 17 22 0.707495 0 55 0.707495 1
gene 1 18 22 0.90658 0 56 0.90658 1
gene 1 19 22 -0.239867 0 57 -0.239867 1
gene 1 1 23 0.0769608 0 58 0.0769608 1
gene 1 2 23 -0.388039 0 59 -0.388039 1
gene 1 3 23 -0.249988 0 60 -0.249988 1
gene 1 4 23 -0.343564 0 61 -0.343564 1
gene 1 5 23 0.339749 0 62 0.339749 1
gene 1 6 23 0.821593 0 63 0.821593 1
gene 1 7 23 -0.389577 0 64 -0.389577 1
gene 1 8 23 0.529068 0 65 0.529068 1
gene 1 9 23 -0.160672 0 66 -0.160672 1
gene 1 10 23 1.10216 0 67 1.10216 1
gene 1 11 23 -2.16093 0 68 -2.16093 1
gene 1 12 23 0.443118 0 69 0.443118 1
gene 1 13 23 -1.50032 0 70 -1.50032 1
gene 1 14 23 -0.209095 0 71 -0.209095 1
gene 1 15 23 -0.0613666 0 72 -0.0613666 1
gene 1 16 23 0.572007 0 73 0.572007 1
gene 1 17 23 1.09142 0 74 1.09142 0
gene 1 18 23 0.383059 0 75 0.383059 1
gene 1 19 23 -1.76317 0 76 -1.76317 1
gene 1 8 24 1.00378 0 77 1.00378 0
gene 1 24 20 0.39699 0 78 0.39699 1
gene 1 15 26 0.64527 0 85 0.64527 1
gene 1 26 20 0.486535 0 86 0.486535 1
gene 1 22 20 2.46437 0 87 2.46437 1
gene 1 2 24 -0.565065 0 91 -0.565065 1
gene 1 8 28 0.306181 0 93 0.306181 1
gene 1 28 24 -0.454252 0 94 -0.454252 1
gene 1 6 24 0.376421 0 96 0.376421 1
gene 1 16 26 0.531253 0 99 0.531253 1
gene 1 13 24 0.226226 0 100 0.226226 1
gene 1 23 24 -0.00225172 0 113 -0.00225172 1
gene 1 13 32 -0.0818707 0 116 -0.0818707 1
gene 1 32 21 -0.322535 0 117 -0.322535 1
gene 1 10 37 0.315515 0 129 0.315515 1
gene 1 37 20 -0.102342 0 130 -0.102342 1
gene 1 17 39 0.20243 0 134 0.20243 1
gene 1 39 23 0.620744 0 135 0.620744 1
gene 1 15 43 -0.114301 0 150 -0.114301 1
gene 1 43 21 0.434176 0 151 0.434176 1
gene 1 3 43 -0.234575 0 153 -0.234575 1
gene 1 8 32 -0.313121 0 154 -0.313121 1
gene 1 2 39 0.143017 0 178 0.143017 1
gene 1 6 53 -0.0645257 0 191 -0.0645257 1
gene 1 53 22 0.787177 0 192 0.787177 1
gene 1 15 24 -0.352059 0 275 -0.352059 1
gene 1 32 32 -0.0612401 1 283 -0.0612401 1
gene 1 2 75 1 0 301 1 1
gene 1 75 21 0.338208 0 302 0.338208 1
gene 1 11 26 0.602552 0 317 0.602552 1
genomeend 285
genomestart 290
trait 1 0.536398 0.324603 0.277354 0.0167842 0.791012 0.0716232 0.290245 0.55344 
node 1 1 1 1 0
node 2 1 1 1 0
node 3 1 1 1 0
node 4 1 1 1 0
node 5 1 1 1 0
node 6 1 1 1 0
node 7 1 1 1 0
node 8 1 1 1 0
node 9 1 1 1 0
node 10 1 1 1 0
node 11 1 1 1 0
node 12 1 1 1 0
node 13 1 1 1 0
node 14 1 1 1 0
node 15 1 1 1 0
node 16 1 1 1 0
node 17 1 1 1 0
node 18 1 1 1 0
node 19 1 1 3 0
node 20 1 0 2 0
node 21 1 0 2 0
node 22 1 0 2 0
node 23 1 0 2 0
node 24 1 0 0 0
node 26 1 0 0 0
node 28 1 0 0 0
node 32 1 0 0 0
node 37 1 0 0 0
node 39 1 0 0 0
node 43 1 0 0 0
node 53 1 0 0 0
node 75 1 0 0 0
gene 1 1 20 -0.285888 0 1 -0.285888 1
gene 1 2 20 0.408471 0 2 0.408471 1
gene 1 3 20 0.398842 0 3 0.398842 1
gene 1 4 20 -0.460469 0 4 -0.460469 1
gene 1 5 20 0.4273 0 5 0.4273 1
gene 1 6 20 -0.360778 0 6 -0.360778 1
gene 1 7 20 0.898164 0 7 0.898164 1
gene 1 8 20 1.00238 0 8 1.00238 0
gene 1 9 20 0.941392 0 9 0.941392 1
gene 1 10 20 -0.327785 0 10 -0.327785 0
gene 1 11 20 -0.241558 0 11 -0.241558 1
gene 1 12 20 -0.432513 0 12 -0.432513 1
gene 1 13 20 0.28377 0 13 0.28377 1
gene 1 14 20 0.306446 0 14 0.306446 1
gene 1 15 20 -0.371271 0 15 -0.371271 1
gene 1 16 20 -0.681294 0 16 -0.681294 1
gene 1 17 20 -0.111598 0 17 -0.111598 1
gene 1 18 20 -0.118468 0 18 -0.118468 1
gene 1 19 20 -0.786084 0 19 -0.786084 1
gene 1 1 21 -0.16964 0 20 -0.16964 1
gene 1 2 21 0.411733 0 21 0.411733 0
gene 1 3 21 1.51307 0 22 1.51307 1
gene 1 4 21 0.878729 0 23 0.878729 1
gene 1 5 21 0.828107 0 24 0.828107 1
gene 1 6 21 -0.811603 0 25 -0.811603 1
gene 1 7 21 -0.270107 0 26 -0.270107 1
gene 1 8 21 0.229757 0 27 0.229757 1
gene 1 9 21 0.194385 0 28 0.194385 1
gene 1 10 21 0.242196 0 29 0.242196 1
gene 1 11 21 1.14664 0 30 1.14664 1
gene 1 12 21 0.554722 0 31 0.554722 1
gene 1 13 21 0.0177728 0 32 0.0177728 0
gene 1 14 21 -0.324478 0 33 -0.324478 1
gene 1 15 21 0.629744 0 34 0.629744 0
gene 1 16 21 0.11403 0 35 0.11403 1
gene 1 17 21 0.0552702 0 36 0.0552702 1
gene 1 18 21 -0.697984 0 37 -0.697984 1
gene 1 19 21 0.57209 0 38 0.57209 1
gene 1 1 22 0.73279 0 39 0.73279 1
gene 1 2 22 -0.371598 0 40 -0.371598 1
gene 1 3 22 1.29533 0 41 1.29533 1
gene 1 4 22 0.473275 0 42 0.473275 1
gene 1 5 22 0.126928 0 43 0.126928 1
gene 1 6 22 -0.522228 0 44 -0.522228 0
gene 1 7 22 -0.269769 0 45 -0.269769 1
gene 1 8 22 -0.00816044 0 46 -0.00816044 1
gene 1 9 22 -0.321615 0 47 -0.321615 1
gene 1 10 22 -0.25704 0 48 -0.25704 1
gene 1 11 22 -0.120722 0 49 -0.120722 1
gene 1 12 22 0.287966 0 50 0.287966 1
gene 1 13 22 -0.386609 0 51 -0.386609 1
gene 1 14 22 0.712522 0 52 0.712522 1
gene 1 15 22 0.115103 0 53 0.115103 1
gene 1 16 22 0.776562 0 54 0.776562 1
gene 1 17 22 0.216501 0 55 0.216501 1
gene 1 18 22 0.438492 0 56 0.438492 1
gene 1 19 22 -0.450217 0 57 -0.450217 1
gene 1 1 23 -0.124398 0 58 -0.124398 1
gene 1 2 23 -0.286889 0 59 -0.286889 1
gene 1 3 23 0.618695 0 60 0.618695 1
gene 1 4 23 0.974589 0 61 0.974589 1
gene 1 5 23 0.768246 0 62 0.768246 1
gene 1 6 23 0.417094 0 63 0.417094 1
gene 1 7 23 -0.13652 0 64 -0.13652 1
gene 1 8 23 0.0450642 0 65 0.0450642 1
gene 1 9 23 0.831029 0 66 0.831029 1
gene 1 10 23 0.636746 0 67 0.636746 1
gene 1 11 23 -0.651559 0 68 -0.651559 1
gene 1 12 23 0.69257 0 69 0.69257 1
gene 1 13 23 0.0609454 0 70 0.0609454 1
gene 1 14 23 -0.783768 0 71 -0.783768 1
gene 1 15 23 0.166145 0 72 0.166145 1
gene 1 16 23 0.380008 0 73 0.380008 1
gene 1 17 23 0.656825 0 74 0.656825 0
gene 1 18 23 0.687075 0 75 0.687075 1
gene 1 19 23 -1.84013 0 76 -1.84013 1
gene 1 8 24 0.273565 0 77 0.273565 0
gene 1 24 20 -0.0747657 0 78 -0.0747657 1
gene 1 15 26 0.153907 0 85 0.153907 1
gene 1 26 20 0.16924 0 86 0.16924 1
gene 1 22 20 2.29987 0 87 2.29987 1
gene 1 2 24 0.0143906 0 91 0.0143906 1
gene 1 8 28 -0.141747 0 93 -0.141747 1
gene 1 28 24 -0.294726 0 94 -0.294726 1
gene 1 6 24 -0.115763 0 96 -0.115763 1
gene 1 16 26 0.531253 0 99 0.531253 1
gene 1 13 24 -0.125328 0 100 -0.125328 1
gene 1 23 24 -0.123869 0 113 -0.123869 1
gene 1 13 32 0.289659 0 116 0.289659 1
gene 1 32 21 -0.160724 0 117 -0.160724 1
gene 1 10 37 0.630526 0 129 0.630526 1
gene 1 37 20 -0.283288 0 130 -0.283288 1
gene 1 17 39 -0.161963 0 134 -0.161963 1
gene 1 39 23 0.507517 0 135 0.507517 1
gene 1 15 43 0.437018 0 150 0.437018 1
gene 1 43 21 0.278863 0 151 0.278863 1
gene 1 3 43 0.124928 0 153 0.124928 1
gene 1 8 32 -0.313121 0 154 -0.313121 1
gene 1 2 39 0.143017 0 178 0.143017 1
gene 1 6 53 0.12192 0 191 0.12192 1
gene 1 53 22 0.551675 0 192 0.551675 1
gene 1 15 24 -0.237563 0 275 -0.237563 1
gene 1 32 32 -0.854194 1 283 -0.854194 1
gene 1 2 75 1 0 301 1 1
gene 1 75 21 -0.333829 0 302 -0.333829 1
gene 1 11 26 0.861839 0 317 0.861839 1
genomeend 290
genomestart 292
trait 1 0.536398 0.324603 0.277354 0.0167842 0.791012 0.0716232 0.290245 0.55344 
node 1 1 1 1 0
node 2 1 1 1 0
node 3 1 1 1 0
node 4 1 1 1 0
node 5 1 1 1 0
node 6 1 1 1 0
node 7 1 1 1 0
node 8 1 1 1 0
node 9 1 1 1 0
node 10 1 1 1 0
node 11 1 1 1 0
node 12 1 1 1 0
node 13 1 1 1 0
node 14 1 1 1 0
node 15 1 1 1 0
node 16 1 1 1 0
node 17 1 1 1 0
node 18 1 1 1 0
node 19 1 1 3 0
node 20 1 0 2 0
node 21 1 0 2 0
node 22 1 0 2 0
node 23 1 0 2 0
node 24 1 0 0 0
node 26 1 0 0 0
node 28 1 0 0 0
node 32 1 0 0 0
node 37 1 0 0 0
node 39 1 0 0 0
node 43 1 0 0 0
node 53 1 0 0 0
node 75 1 0 0 0
gene 1 1 20 0.085057 0 1 0.085057 1
gene 1 2 20 0.395474 0 2 0.395474 1
gene 1 3 20 0.87166 0 3 0.87166 1
gene 1 4 20 -0.38577 0 4 -0.38577 1
gene 1 5 20 0.0168366 0 5 0.0168366 1
gene 1 6 20 -0.112526 0 6 -0.112526 1
gene 1 7 20 1.11562 0 7 1.11562 1
gene 1 8 20 0.991293 0 8 0.991293 0
gene 1 9 20 0.646214 0 9 0.646214 1
gene 1 10 20 -0.344822 0 10 -0.344822 0
gene 1 11 20 -0.676501 0 11 -0.676501 1
gene 1 12 20 -0.693058 0 12 -0.693058 1
gene 1 13 20 0.236223 0 13 0.236223 1
gene 1 14 20 0.00134733 0 14 0.00134733 1
gene 1 15 20 -0.220247 0 15 -0.220247 1
gene 1 16 20 -0.932813 0 16 -0.932813 1
gene 1 17 20 -0.0559184 0 17 -0.0559184 1
gene 1 18 20 -0.568224 0 18 -0.568224 1
gene 1 19 20 -0.453192 0 19 -0.453192 1
gene 1 1 21 -0.159895 0 20 -0.159895 1
gene 1 2 21 0.110719 0 21 0.110719 0
gene 1 3 21 1.18071 0 22 1.18071 1
gene 1 4 21 1.31118 0 23 1.31118 1
gene 1 5 21 1.08977 0 24 1.08977 1
gene 1 6 21 -0.518448 0 25 -0.518448 1
gene 1 7 21 -0.133805 0 26 -0.133805 1
gene 1 8 21 0.169213 0 27 0.169213 1
gene 1 9 21 0.0272897 0 28 0.0272897 1
gene 1 10 21 0.542608 0 29 0.542608 1
gene 1 11 21 1.43635 0 30 1.43635 1
gene 1 12 21 0.390204 0 31 0.390204 1
gene 1 13 21 0.0471627 0 32 0.0471627 0
gene 1 14 21 -0.497132 0 33 -0.497132 1
gene 1 15 21 0.915692 0 34 0.915692 0
gene 1 16 21 -0.216313 0 35 -0.216313 1
gene 1 17 21 0.45772 0 36 0.45772 1
gene 1 18 21 -0.766507 0 37 -0.766507 1
gene 1 19 21 0.669491 0 38 0.669491 1
gene 1 1 22 1.05056 0 39 1.05056 1
gene 1 2 22 -0.354075 0 40 -0.354075 1
gene 1 3 22 1.37838 0 41 1.37838 1
gene 1 4 22 0.0876916 0 42 0.0876916 1
gene 1 5 22 -0.206287 0 43 -0.206287 1
gene 1 6 22 -0.130055 0 44 -0.130055 0
gene 1 7 22 -0.720045 0 45 -0.720045 1
gene 1 8 22 -0.399245 0 46 -0.399245 1
gene 1 9 22 -0.381386 0 47 -0.381386 1
gene 1 10 22 -0.163325 0 48 -0.163325 1
gene 1 11 22 -0.515033 0 49 -0.515033 1
gene 1 12 22 -0.160198 0 50 -0.160198 1
gene 1 13 22 -0.471184 0 51 -0.471184 1
gene 1 14 22 0.647461 0 52 0.647461 1
gene 1 15 22 0.0479671 0 53 0.0479671 1
gene 1 16 22 1.15941 0 54 1.15941 1
gene 1 17 22 0.252062 0 55 0.252062 1
gene 1 18 22 0.601548 0 56 0.601548 1
gene 1 19 22 -0.681248 0 57 -0.681248 1
gene 1 1 23 -0.424895 0 58 -0.424895 1
gene 1 2 23 -0.0464868 0 59 -0.0464868 1
gene 1 3 23 0.149519 0 60 0.149519 1
gene 1 4 23 0.786201 0 61 0.786201 1
gene 1 5 23 0.546996 0 62 0.546996 1
gene 1 6 23 0.899385 0 63 0.899385 1
gene 1 7 23 0.125118 0 64 0.125118 1
gene 1 8 23 0.190332 0 65 0.190332 1
gene 1 9 23 0.414982 0 66 0.414982 1
gene 1 10 23 0.362773 0 67 0.362773 1
gene 1 11 23 -0.187612 0 68 -0.187612 1
gene 1 12 23 0.890425 0 69 0.890425 1
gene 1 13 23 -0.0446834 0 70 -0.0446834 1
gene 1 14 23 -0.534217 0 71 -0.534217 1
gene 1 15 23 -0.108356 0 72 -0.108356 1
gene 1 16 23 0.797127 0 73 0.797127 1
gene 1 17 23 0.541893 0 74 0.541893 0
gene 1 18 23 0.210088 0 75 0.210088 1
gene 1 19 23 -1.76987 0 76 -1.76987 1
gene 1 8 24 -0.0430694 0 77 -0.0430694 0
gene 1 24 20 -0.370149 0 78 -0.370149 1
gene 1 15 26 0.229857 0 85 0.229857 1
gene 1 26 20 0.424111 0 86 0.424111 1
gene 1 22 20 1.95377 0 87 1.95377 1
gene 1 2 24 -0.272682 0 91 -0.272682 1
gene 1 8 28 -0.320987 0 93 -0.320987 1
gene 1 28 24 -0.433411 0 94 -0.433411 1
gene 1 6 24 0.0937399 0 96 0.0937399 1
gene 1 16 26 0.531253 0 99 0.531253 1
gene 1 13 24 -0.168155 0 100 -0.168155 1
gene 1 23 24 -0.372313 0 113 -0.372313 1
gene 1 13 32 0.289659 0 116 0.289659 1
gene 1 32 21 0.0175115 0 117 0.0175115 1
gene 1 10 37 0.0352788 0 129 0.0352788 1
gene 1 37 20 0.15294 0 130 0.15294 1
gene 1 17 39 0.048947 0 134 0.048947 1
gene 1 39 23 0.508798 0 135 0.508798 1
gene 1 15 43 0.437018 0 150 0.437018 1
gene 1 43 21 0.0791189 0 151 0.0791189 1
gene 1 3 43 0.124928 0 153 0.124928 1
gene 1 8 32 0.459049 0 154 0.459049 1
gene 1 2 39 0.143017 0 178 0.143017 1
gene 1 6 53 0.436923 0 191 0.436923 1
gene 1 53 22 -0.212825 0 192 -0.212825 1
gene 1 15 24 -0.168974 0 275 -0.168974 1
gene 1 32 32 -1.11304 1 283 -1.11304 1
gene 1 2 75 1 0 301 1 1
gene 1 75 21 -0.237051 0 302 -0.237051 1
gene 1 11 26 0.861839 0 317 0.861839 1
genomeend 292
genomestart 293
trait 1 0.536398 0.324603 0.277354 0.0167842 0.791012 0.0716232 0.290245 0.55344 
node 1 1 1 1 0
node 2 1 1 1 0
node 3 1 1 1 0
node 4 1 1 1 0
node 5 1 1 1 0
node 6 1 1 1 0
node 7 1 1 1 0
node 8 1 1 1 0
node 9 1 1 1 0
node 10 1 1 1 0
node 11 1 1 1 0
node 12 1 1 1 0
node 13 1 1 1 0
node 14 1 1 1 0
node 15 1 1 1 0
node 16 1 1 1 0
node 17 1 1 1 0
node 18 1 1 1 0
node 19 1 1 3 0
node 20 1 0 2 0
node 21 1 0 2 0
node 22 1 0 2 0
node 23 1 0 2 0
node 24 1 0 0 0
node 26 1 0 0 0
node 28 1 0 0 0
node 32 1 0 0 0
node 37 1 0 0 0
node 39 1 0 0 0
node 43 1 0 0 0
node 53 1 0 0 0
node 75 1 0 0 0
gene 1 1 20 -0.617106 0 1 -0.617106 1
gene 1 2 20 0.463763 0 2 0.463763 1
gene 1 3 20 0.356487 0 3 0.356487 1
gene 1 4 20 -0.743314 0 4 -0.743314 1
gene 1 5 20 0.0878865 0 5 0.0878865 1
gene 1 6 20 -0.60306 0 6 -0.60306 1
gene 1 7 20 0.481814 0 7 0.481814 1
gene 1 8 20 0.523878 0 8 0.523878 0
gene 1 9 20 0.721561 0 9 0.721561 1
gene 1 10 20 -0.637141 0 10 -0.637141 0
gene 1 11 20 -0.521413 0 11 -0.521413 1
gene 1 12 20 -0.404128 0 12 -0.404128 1
gene 1 13 20 0.733185 0 13 0.733185 1
gene 1 14 20 0.490489 0 14 0.490489 1
gene 1 15 20 -0.13828 0 15 -0.13828 1
gene 1 16 20 -0.819567 0 16 -0.819567 1
gene 1 17 20 -0.365189 0 17 -0.365189 1
gene 1 18 20 -0.131015 0 18 -0.131015 1
gene 1 19 20 -1.04752 0 19 -1.04752 1
gene 1 1 21 0.0977763 0 20 0.0977763 1
gene 1 2 21 0.824121 0 21 0.824121 0
gene 1 3 21 1.69665 0 22 1.69665 1
gene 1 4 21 0.736965 0 23 0.736965 1
gene 1 5 21 0.555604 0 24 0.555604 1
gene 1 6 21 -0.495416 0 25 -0.495416 1
gene 1 7 21 -0.0889262 0 26 -0.0889262 1
gene 1 8 21 0.375266 0 27 0.375266 1
gene 1 9 21 0.500773 0 28 0.500773 1
gene 1 10 21 0.72351 0 29 0.72351 1
gene 1 11 21 1.48637 0 30 1.48637 1
gene 1 12 21 0.969425 0 31 0.969425 1
gene 1 13 21 -0.244349 0 32 -0.244349 0
gene 1 14 21 -0.13526 0 33 -0.13526 1
gene 1 15 21 1.10972 0 34 1.10972 0
gene 1 16 21 0.216236 0 35 0.216236 1
gene 1 17 21 0.495009 0 36 0.495009 1
gene 1 18 21 -0.764159 0 37 -0.764159 1
gene 1 19 21 0.653023 0 38 0.653023 1
gene 1 1 22 0.814817 0 39 0.814817 1
gene 1 2 22 -0.828617 0 40 -0.828617 1
gene 1 3 22 1.26289 0 41 1.26289 1
gene 1 4 22 0.329314 0 42 0.329314 1
gene 1 5 22 0.0217885 0 43 0.0217885 1
gene 1 6 22 -0.0944469 0 44 -0.0944469 0
gene 1 7 22 -0.283835 0 45 -0.283835 1
gene 1 8 22 0.254951 0 46 0.254951 1
gene 1 9 22 -0.0510628 0 47 -0.0510628 1
gene 1 10 22 0.0893339 0 48 0.0893339 1
gene 1 11 22 0.276971 0 49 0.276971 1
gene 1 12 22 0.614312 0 50 0.614312 1
gene 1 13 22 -0.198505 0 51 -0.198505 1
gene 1 14 22 0.95796 0 52 0.95796 1
gene 1 15 22 0.0198219 0 53 0.0198219 1
gene 1 16 22 1.14686 0 54 1.14686 1
gene 1 17 22 0.697717 0 55 0.697717 1
gene 1 18 22 -0.0423061 0 56 -0.0423061 1
gene 1 19 22 -0.304092 0 57 -0.304092 1
gene 1 1 23 -0.107872 0 58 -0.107872 1
gene 1 2 23 -0.426354 0 59 -0.426354 1
gene 1 3 23 0.891341 0 60 0.891341 1
gene 1 4 23 0.972847 0 61 0.972847 1
gene 1 5 23 0.366391 0 62 0.366391 1
gene 1 6 23 0.443265 0 63 0.443265 1
gene 1 7 23 -0.074161 0 64 -0.074161 1
gene 1 8 23 0.40497 0 65 0.40497 1
gene 1 9 23 1.07381 0 66 1.07381 1
gene 1 10 23 0.652113 0 67 0.652113 1
gene 1 11 23 -0.273982 0 68 -0.273982 1
gene 1 12 23 0.496947 0 69 0.496947 1
gene 1 13 23 -0.135507 0 70 -0.135507 1
gene 1 14 23 -0.706775 0 71 -0.706775 1
gene 1 15 23 0.558443 0 72 0.558443 1
gene 1 16 23 -0.0378968 0 73 -0.0378968 1
gene 1 17 23 0.337408 0 74 0.337408 0
gene 1 18 23 0.828951 0 75 0.828951 1
gene 1 19 23 -1.60935 0 76 -1.60935 1
gene 1 8 24 -0.170632 0 77 -0.170632 0
gene 1 24 20 -0.314208 0 78 -0.314208 1
gene 1 15 26 0.495985 0 85 0.495985 1
gene 1 26 20 0.343518 0 86 0.343518 1
gene 1 22 20 2.46246 0 87 2.46246 1
gene 1 2 24 0.311763 0 91 0.311763 1
gene 1 8 28 -0.147738 0 93 -0.147738 1
gene 1 28 24 -0.257078 0 94 -0.257078 1
gene 1 6 24 0.222536 0 96 0.222536 1
gene 1 16 26 0.0972103 0 99 0.0972103 1
gene 1 13 24 -0.249942 0 100 -0.249942 1
gene 1 23 24 0.0860162 0 113 0.0860162 1
gene 1 13 32 0.289659 0 116 0.289659 1
gene 1 32 21 -0.656355 0 117 -0.656355 1
gene 1 10 37 0.630526 0 129 0.630526 1
gene 1 37 20 -0.283288 0 130 -0.283288 1
gene 1 17 39 -0.161963 0 134 -0.161963 1
gene 1 39 23 0.507517 0 135 0.507517 1
gene 1 15 43 -0.214541 0 150 -0.214541 1
gene 1 43 21 0.278863 0 151 0.278863 1
gene 1 3 43 0.415615 0 153 0.415615 1
gene 1 8 32 -0.543103 0 154 -0.543103 1
gene 1 2 39 0.441658 0 178 0.441658 1
gene 1 6 53 0.402524 0 191 0.402524 1
gene 1 53 22 0.252124 0 192 0.252124 1
gene 1 15 24 -0.202008 0 275 -0.202008 1
gene 1 32 32 -0.400588 1 283 -0.400588 1
gene 1 2 75 1.49912 0 301 1.49912 1
gene 1 75 21 -0.333829 0 302 -0.333829 1
gene 1 11 26 0.55451 0 317 0.55451 1
genomeend 293
genomestart 302
trait 1 0.536398 0.324603 0.277354 0.0167842 0.791012 0.0716232 0.290245 0.55344 
node 1 1 1 1 0
node 2 1 1 1 0
node 3 1 1 1 0
node 4 1 1 1 0
node 5 1 1 1 0
node 6 1 1 1 0
node 7 1 1 1 0
node 8 1 1 1 0
node 9 1 1 1 0
node 10 1 1 1 0
node 11 1 1 1 0
node 12 1 1 1 0
node 13 1 1 1 0
node 14 1 1 1 0
node 15 1 1 1 0
node 16 1 1 1 0
node 17 1 1 1 0
node 18 1 1 1 0
node 19 1 1 3 0
node 20 1 0 2 0
node 21 1 0 2 0
node 22 1 0 2 0
node 23 1 0 2 0
node 24 1 0 0 0
node 26 1 0 0 0
node 28 1 0 0 0
node 32 1 0 0 0
node 37 1 0 0 0
node 39 1 0 0 0
node 43 1 0 0 0
node 53 1 0 0 0
node 75 1 0 0 0
gene 1 1 20 -0.63994 0 1 -0.63994 1
gene 1 2 20 0.576446 0 2 0.576446 1
gene 1 3 20 0.417638 0 3 0.417638 1
gene 1 4 20 -0.238947 0 4 -0.238947 1
gene 1 5 20 0.482763 0 5 0.482763 1
gene 1 6 20 -0.0962717 0 6 -0.0962717 1
gene 1 7 20 1.04021 0 7 1.04021 1
gene 1 8 20 0.542321 0 8 0.542321 0
gene 1 9 20 0.799462 0 9 0.799462 1
gene 1 10 20 -0.564024 0 10 -0.564024 0
gene 1 11 20 0.167105 0 11 0.167105 1
gene 1 12 20 -0.237725 0 12 -0.237725 1
gene 1 13 20 -0.195903 0 13 -0.195903 1
gene 1 14 20 0.533677 0 14 0.533677 1
gene 1 15 20 0.00742118 0 15 0.00742118 1
gene 1 16 20 -0.233113 0 16 -0.233113 1
gene 1 17 20 -0.504892 0 17 -0.504892 1
gene 1 18 20 0.0793941 0 18 0.0793941 1
gene 1 19 20 -0.820057 0 19 -0.820057 1
gene 1 1 21 -0.0640151 0 20 -0.0640151 1
gene 1 2 21 0.633795 0 21 0.633795 1
gene 1 3 21 1.31185 0 22 1.31185 1
gene 1 4 21 0.706933 0 23 0.706933 1
gene 1 5 21 1.19969 0 24 1.19969 1
gene 1 6 21 -1.13648 0 25 -1.13648 1
gene 1 7 21 -0.224451 0 26 -0.224451 1
gene 1 8 21 0.24758 0 27 0.24758 1
gene 1 9 21 0.325332 0 28 0.325332 1
gene 1 10 21 0.692951 0 29 0.692951 1
gene 1 11 21 0.905208 0 30 0.905208 1
gene 1 12 21 0.541349 0 31 0.541349 1
gene 1 13 21 0.304794 0 32 0.304794 0
gene 1 14 21 -0.317625 0 33 -0.317625 1
gene 1 15 21 0.502935 0 34 0.502935 0
gene 1 16 21 0.137076 0 35 0.137076 1
gene 1 17 21 0.258187 0 36 0.258187 1
gene 1 18 21 -0.778226 0 37 -0.778226 1
gene 1 19 21 0.727848 0 38 0.727848 1
gene 1 1 22 0.64424 0 39 0.64424 1
gene 1 2 22 -0.576573 0 40 -0.576573 1
gene 1 3 22 1.24754 0 41 1.24754 1
gene 1 4 22 0.265604 0 42 0.265604 1
gene 1 5 22 0.536658 0 43 0.536658 1
gene 1 6 22 -0.515457 0 44 -0.515457 1
gene 1 7 22 -0.474113 0 45 -0.474113 1
gene 1 8 22 -0.301421 0 46 -0.301421 1
gene 1 9 22 0.0730027 0 47 0.0730027 1
gene 1 10 22 -0.402472 0 48 -0.402472 1
gene 1 11 22 -0.27443 0 49 -0.27443 1
gene 1 12 22 -0.19807 0 50 -0.19807 1
gene 1 13 22 -0.618556 0 51 -0.618556 1
gene 1 14 22 1.19288 0 52 1.19288 1
gene 1 15 22 -0.022938 0 53 -0.022938 1
gene 1 16 22 0.711945 0 54 0.711945 1
gene 1 17 22 0.589238 0 55 0.589238 1
gene 1 18 22 0.763166 0 56 0.763166 1
gene 1 19 22 -0.520895 0 57 -0.520895 1
gene 1 1 23 0.199405 0 58 0.199405 1
gene 1 2 23 0.0368822 0 59 0.0368822 1
gene 1 3 23 0.663181 0 60 0.663181 1
gene 1 4 23 0.758724 0 61 0.758724 1
gene 1 5 23 0.563183 0 62 0.563183 1
gene 1 6 23 0.585339 0 63 0.585339 1
gene 1 7 23 0.273309 0 64 0.273309 1
gene 1 8 23 -0.115619 0 65 -0.115619 1
gene 1 9 23 0.727606 0 66 0.727606 1
gene 1 10 23 0.476391 0 67 0.476391 1
gene 1 11 23 -0.743726 0 68 -0.743726 1
gene 1 12 23 0.297526 0 69 0.297526 1
gene 1 13 23 0.30516 0 70 0.30516 1
gene 1 14 23 -1.03183 0 71 -1.03183 1
gene 1 15 23 -0.0346373 0 72 -0.0346373 1
gene 1 16 23 0.25722 0 73 0.25722 1
gene 1 17 23 0.601986 0 74 0.601986 0
gene 1 18 23 0.674302 0 75 0.674302 1
gene 1 19 23 -1.70715 0 76 -1.70715 1
gene 1 8 24 0.0298527 0 77 0.0298527 0
gene 1 24 20 0.21786 0 78 0.21786 1
gene 1 15 26 0.547524 0 85 0.547524 1
gene 1 26 20 -0.177472 0 86 -0.177472 1
gene 1 22 20 2.59029 0 87 2.59029 1
gene 1 2 24 0.221061 0 91 0.221061 1
gene 1 8 28 -0.43437 0 93 -0.43437 1
gene 1 28 24 -0.311288 0 94 -0.311288 1
gene 1 6 24 -0.300587 0 96 -0.300587 1
gene 1 16 26 -0.0271536 0 99 -0.0271536 1
gene 1 13 24 -0.125328 0 100 -0.125328 1
gene 1 23 24 -0.16075 0 113 -0.16075 1
gene 1 13 32 0.216811 0 116 0.216811 1
gene 1 32 21 0.171483 0 117 0.171483 1
gene 1 10 37 -0.223068 0 129 -0.223068 1
gene 1 37 20 -0.283288 0 130 -0.283288 1
gene 1 17 39 0.0628568 0 134 0.0628568 1
gene 1 39 23 0.710957 0 135 0.710957 1
gene 1 15 43 0.563197 0 150 0.563197 1
gene 1 43 21 -0.35199 0 151 -0.35199 1
gene 1 3 43 -0.278673 0 153 -0.278673 1
gene 1 8 32 -0.313121 0 154 -0.313121 1
gene 1 2 39 0.0680501 0 178 0.0680501 1
gene 1 6 53 -0.0261065 0 191 -0.0261065 1
gene 1 53 22 0.830363 0 192 0.830363 1
gene 1 15 24 -0.0504618 0 275 -0.0504618 1
gene 1 32 32 -0.532589 1 283 -0.532589 1
gene 1 2 75 1.37989 0 301 1.37989 1
gene 1 75 21 -0.237313 0 302 -0.237313 1
gene 1 11 26 0.488651 0 317 0.488651 1
genomeend 302
genomestart 303
trait 1 0 0.196466 0.0227695 0.96922 1 0.174425 0.0751885 0 
node 1 1 1 1 0
node 2 1 1 1 0
node 3 1 1 1 0
node 4 1 1 1 0
node 5 1 1 1 0
node 6 1 1 1 0
node 7 1 1 1 0
node 8 1 1 1 0
node 9 1 1 1 0
node 10 1 1 1 0
node 11 1 1 1 0
node 12 1 1 1 0
node 13 1 1 1 0
node 14 1 1 1 0
node 15 1 1 1 0
node 16 1 1 1 0
node 17 1 1 1 0
node 18 1 1 1 0
node 19 1 1 3 0
node 20 1 0 2 0
node 21 1 0 2 0
node 22 1 0 2 0
node 23 1 0 2 0
node 24 1 0 0 0
node 26 1 0 0 0
node 28 1 0 0 0
node 32 1 0 0 0
node 34 1 0 0 0
node 36 1 0 0 0
node 37 1 0 0 0
node 39 1 0 0 0
node 43 1 0 0 0
node 46 1 0 0 0
node 53 1 0 0 0
node 54 1 0 0 0
node 60 1 0 0 0
node 66 1 0 0 0
node 71 1 0 0 0
gene 1 1 20 -0.0990214 0 1 -0.0990214 1
gene 1 2 20 -0.792314 0 2 -0.792314 1
gene 1 3 20 -0.532043 0 3 -0.532043 1
gene 1 4 20 0.272137 0 4 0.272137 1
gene 1 5 20 -0.490509 0 5 -0.490509 1
gene 1 6 20 -0.544949 0 6 -0.544949 1
gene 1 7 20 0.234206 0 7 0.234206 1
gene 1 8 20 0.326067 0 8 0.326067 0
gene 1 9 20 0.165478 0 9 0.165478 1
gene 1 10 20 -0.686273 0 10 -0.686273 1
gene 1 11 20 -0.194418 0 11 -0.194418 0
gene 1 12 20 0.955115 0 12 0.955115 1
gene 1 13 20 -0.207551 0 13 -0.207551 1
gene 1 14 20 -0.171772 0 14 -0.171772 1
gene 1 15 20 0.043502 0 15 0.043502 1
gene 1 16 20 0.464346 0 16 0.464346 1
gene 1 17 20 0.0591929 0 17 0.0591929 1
gene 1 18 20 1.70398 0 18 1.70398 1
gene 1 19 20 0.207268 0 19 0.207268 1
gene 1 1 21 0.0816797 0 20 0.0816797 1
gene 1 2 21 -0.356034 0 21 -0.356034 1
gene 1 3 21 2.68691 0 22 2.68691 1
gene 1 4 21 0.405899 0 23 0.405899 1
gene 1 5 21 0.333509 0 24 0.333509 1
gene 1 6 21 -0.0439046 0 25 -0.0439046 1
gene 1 7 21 0.674543 0 26 0.674543 1
gene 1 8 21 0.427464 0 27 0.427464 1
gene 1 9 21 -0.307634 0 28 -0.307634 1
gene 1 10 21 -0.140226 0 29 -0.140226 1
gene 1 11 21 2.43371 0 30 2.43371 0
gene 1 12 21 -0.936385 0 31 -0.936385 1
gene 1 13 21 -0.152571 0 32 -0.152571 1
gene 1 14 21 -0.295236 0 33 -0.295236 1
gene 1 15 21 -0.415831 0 34 -0.415831 1
gene 1 16 21 0.0156501 0 35 0.0156501 1
gene 1 17 21 0.777632 0 36 0.777632 1
gene 1 18 21 -0.0471728 0 37 -0.0471728 1
gene 1 19 21 0.0190767 0 38 0.0190767 1
gene 1 1 22 -0.245675 0 39 -0.245675 1
gene 1 2 22 -0.117358 0 40 -0.117358 1
gene 1 3 22 0.0575785 0 41 0.0575785 1
gene 1 4 22 -0.511671 0 42 -0.511671 1
gene 1 5 22 0.28677 0 43 0.28677 1
gene 1 6 22 -0.334824 0 44 -0.334824 1
gene 1 7 22 -0.48259 0 45 -0.48259 1
gene 1 8 22 -0.431922 0 46 -0.431922 1
gene 1 9 22 -1.12429 0 47 -1.12429 1
gene 1 10 22 -0.347394 0 48 -0.347394 1
gene 1 11 22 0.795974 0 49 0.795974 1
gene 1 12 22 0.381925 0 50 0.381925 1
gene 1 13 22 0.0118888 0 51 0.0118888 1
gene 1 14 22 0.391243 0 52 0.391243 1
gene 1 15 22 -0.440548 0 53 -0.440548 1
gene 1 16 22 0.200205 0 54 0.200205 1
gene 1 17 22 -0.241423 0 55 -0.241423 0
gene 1 18 22 -0.18395 0 56 -0.18395 1
gene 1 19 22 -0.0554132 0 57 -0.0554132 1
gene 1 1 23 -0.861323 0 58 -0.861323 1
gene 1 2 23 0.903705 0 59 0.903705 1
gene 1 3 23 0.803456 0 60 0.803456 1
gene 1 4 23 0.363928 0 61 0.363928 1
gene 1 5 23 -0.0955949 0 62 -0.0955949 1
gene 1 6 23 1.00263 0 63 1.00263 1
gene 1 7 23 -0.127731 0 64 -0.127731 1
gene 1 8 23 -0.783862 0 65 -0.783862 1
gene 1 9 23 0.320115 0 66 0.320115 1
gene 1 10 23 0.150264 0 67 0.150264 1
gene 1 11 23 -0.0754083 0 68 -0.0754083 1
gene 1 12 23 -0.428395 0 69 -0.428395 1
gene 1 13 23 -0.0201294 0 70 -0.0201294 1
gene 1 14 23 0.588754 0 71 0.588754 1
gene 1 15 23 0.626873 0 72 0.626873 1
gene 1 16 23 0.625815 0 73 0.625815 1
gene 1 17 23 -0.289476 0 74 -0.289476 0
gene 1 18 23 0.528608 0 75 0.528608 1
gene 1 19 23 0.144634 0 76 0.144634 1
gene 1 8 24 1.38725 0 77 1.38725 0
gene 1 24 20 -0.197636 0 78 -0.197636 1
gene 1 15 26 -0.203921 0 85 -0.203921 1
gene 1 26 20 -0.0682022 0 86 -0.0682022 1
gene 1 22 20 -0.708692 0 87 -0.708692 1
gene 1 2 24 -0.907528 0 91 -0.907528 1
gene 1 8 28 0.6673 0 93 0.6673 0
gene 1 28 24 -1.0041 0 94 -1.0041 1
gene 1 6 24 0.135784 0 96 0.135784 1
gene 1 16 26 0.679933 0 99 0.679933 1
gene 1 13 24 -0.333538 0 100 -0.333538 1
gene 1 23 24 -0.814099 0 113 -0.814099 1
gene 1 13 32 -0.259172 0 116 -0.259172 1
gene 1 32 21 0.108608 0 117 0.108608 1
gene 1 11 34 0.0378037 0 122 0.0378037 1
gene 1 34 21 -0.415937 0 123 -0.415937 1
gene 1 9 36 0.301211 0 127 0.301211 1
gene 1 36 20 0.0446933 0 128 0.0446933 1
gene 1 10 37 -0.201983 0 129 -0.201983 1
gene 1 37 20 0.960779 0 130 0.960779 1
gene 1 17 39 0.665891 0 134 0.665891 1
gene 1 39 23 -0.109315 0 135 -0.109315 1
gene 1 24 37 -0.509185 0 140 -0.509185 1
gene 1 19 24 0.0873954 0 144 0.0873954 1
gene 1 15 43 -0.814428 0 150 -0.814428 1
gene 1 43 21 0.408816 0 151 0.408816 1
