genomestart 420
trait 1 0 0 0 0 0 0 0 0 
node 1 1 1 1 0
node 2 1 1 1 0
node 3 1 1 1 0
node 4 1 1 1 0
node 5 1 1 1 0
node 6 1 1 1 0
node 7 1 1 1 0
node 8 1 1 1 0
node 9 1 1 1 0
node 10 1 1 1 0
node 11 1 1 1 0
node 12 1 1 1 0
node 13 1 1 1 0
node 14 1 1 1 0
node 15 1 1 1 0
node 16 1 1 1 0
node 17 1 1 1 0
node 18 1 1 1 0
node 19 1 1 3 0
node 20 1 0 2 0
node 21 1 0 2 0
node 22 1 0 2 0
node 23 1 0 2 0
node 24 1 0 0 0
node 26 1 0 0 0
gene 1 1 20 -1.23638 0 1 -1.23638 1
gene 1 2 20 0.0178557 0 2 0.0178557 1
gene 1 3 20 0.439693 0 3 0.439693 1
gene 1 4 20 0.0942282 0 4 0.0942282 1
gene 1 5 20 -0.244903 0 5 -0.244903 1
gene 1 6 20 0.293683 0 6 0.293683 1
gene 1 7 20 -0.784152 0 7 -0.784152 1
gene 1 8 20 -0.609278 0 8 -0.609278 0
gene 1 9 20 -0.0336662 0 9 -0.0336662 1
gene 1 10 20 -0.488597 0 10 -0.488597 1
gene 1 11 20 0.327906 0 11 0.327906 1
gene 1 12 20 -0.33226 0 12 -0.33226 1
gene 1 13 20 -0.270562 0 13 -0.270562 1
gene 1 14 20 0.516925 0 14 0.516925 1
gene 1 15 20 0.20198 0 15 0.20198 0
gene 1 16 20 0.681939 0 16 0.681939 1
gene 1 17 20 -0.544968 0 17 -0.544968 1
gene 1 18 20 1.56374 0 18 1.56374 1
gene 1 19 20 1.06554 0 19 1.06554 1
gene 1 1 21 0.962934 0 20 0.962934 1
gene 1 2 21 0.427441 0 21 0.427441 1
gene 1 3 21 1.0731 0 22 1.0731 1
gene 1 4 21 0.544346 0 23 0.544346 1
gene 1 5 21 -0.116934 0 24 -0.116934 1
gene 1 6 21 -0.282282 0 25 -0.282282 1
gene 1 7 21 -0.597037 0 26 -0.597037 1
gene 1 8 21 -0.817828 0 27 -0.817828 1
gene 1 9 21 -0.987526 0 28 -0.987526 1
gene 1 10 21 1.9423 0 29 1.9423 1
gene 1 11 21 0.10567 0 30 0.10567 1
gene 1 12 21 0.25838 0 31 0.25838 1
gene 1 13 21 0.136248 0 32 0.136248 1
gene 1 14 21 -0.470908 0 33 -0.470908 1
gene 1 15 21 -0.757979 0 34 -0.757979 1
gene 1 16 21 0.761646 0 35 0.761646 1
gene 1 17 21 -0.266569 0 36 -0.266569 1
gene 1 18 21 0.291386 0 37 0.291386 1
gene 1 19 21 0.233561 0 38 0.233561 1
gene 1 1 22 0.514022 0 39 0.514022 1
gene 1 2 22 -1.07227 0 40 -1.07227 1
gene 1 3 22 -0.145761 0 41 -0.145761 1
gene 1 4 22 0.00274994 0 42 0.00274994 1
gene 1 5 22 -0.616237 0 43 -0.616237 1
gene 1 6 22 0.13042 0 44 0.13042 1
gene 1 7 22 1.07428 0 45 1.07428 1
gene 1 8 22 -0.392931 0 46 -0.392931 1
gene 1 9 22 -0.0593248 0 47 -0.0593248 1
gene 1 10 22 0.392169 0 48 0.392169 1
gene 1 11 22 0.349365 0 49 0.349365 1
gene 1 12 22 0.371142 0 50 0.371142 1
gene 1 13 22 0.273414 0 51 0.273414 1
gene 1 14 22 -1.20134 0 52 -1.20134 1
gene 1 15 22 -0.0526815 0 53 -0.0526815 1
gene 1 16 22 1.12697 0 54 1.12697 1
gene 1 17 22 1.23918 0 55 1.23918 1
gene 1 18 22 0.464937 0 56 0.464937 1
gene 1 19 22 -0.88442 0 57 -0.88442 1
gene 1 1 23 0.404176 0 58 0.404176 1
gene 1 2 23 0.610234 0 59 0.610234 1
gene 1 3 23 0.150916 0 60 0.150916 1
gene 1 4 23 -0.116044 0 61 -0.116044 1
gene 1 5 23 0.256067 0 62 0.256067 1
gene 1 6 23 0.844835 0 63 0.844835 1
gene 1 7 23 -0.336751 0 64 -0.336751 1
gene 1 8 23 -0.0570739 0 65 -0.0570739 1
gene 1 9 23 -0.0499748 0 66 -0.0499748 1
gene 1 10 23 0.301646 0 67 0.301646 1
gene 1 11 23 -0.511314 0 68 -0.511314 1
gene 1 12 23 0.0670964 0 69 0.0670964 1
gene 1 13 23 0.447373 0 70 0.447373 1
gene 1 14 23 -0.700781 0 71 -0.700781 1
gene 1 15 23 -0.426579 0 72 -0.426579 1
gene 1 16 23 0.0763034 0 73 0.0763034 1
gene 1 17 23 -0.825862 0 74 -0.825862 1
gene 1 18 23 -0.0212477 0 75 -0.0212477 1
gene 1 19 23 0.220517 0 76 0.220517 1
gene 1 8 24 -0.0323655 0 77 -0.0323655 1
gene 1 24 20 0.596302 0 78 0.596302 1
gene 1 15 26 0.779471 0 85 0.779471 1
gene 1 26 20 0.897958 0 86 0.897958 1
gene 1 22 20 0.483063 0 87 0.483063 1
gene 1 2 24 -0.0622733 0 91 -0.0622733 1
gene 1 6 24 0.323847 0 96 0.323847 1
genomeend 420
genomestart 607
trait 1 0 0.699358 0.153422 0 0.670232 0 0 0 
node 1 1 1 1 0
node 2 1 1 1 0
node 3 1 1 1 0
node 4 1 1 1 0
node 5 1 1 1 0
node 6 1 1 1 0
node 7 1 1 1 0
node 8 1 1 1 0
node 9 1 1 1 0
node 10 1 1 1 0
node 11 1 1 1 0
node 12 1 1 1 0
node 13 1 1 1 0
node 14 1 1 1 0
node 15 1 1 1 0
node 16 1 1 1 0
node 17 1 1 1 0
node 18 1 1 1 0
node 19 1 1 3 0
node 20 1 0 2 0
node 21 1 0 2 0
node 22 1 0 2 0
node 23 1 0 2 0
node 24 1 0 0 0
node 26 1 0 0 0
node 34 1 0 0 0
gene 1 1 20 -0.142797 0 1 -0.142797 1
gene 1 2 20 0.0178557 0 2 0.0178557 1
gene 1 3 20 0.706494 0 3 0.706494 1
gene 1 4 20 -0.454493 0 4 -0.454493 1
gene 1 5 20 0.4259 0 5 0.4259 1
gene 1 6 20 -0.649256 0 6 -0.649256 1
gene 1 7 20 -0.909912 0 7 -0.909912 1
gene 1 8 20 -0.609278 0 8 -0.609278 0
gene 1 9 20 -0.0336662 0 9 -0.0336662 1
gene 1 10 20 -1.06107 0 10 -1.06107 1
gene 1 11 20 0.327906 0 11 0.327906 1
gene 1 12 20 -0.33226 0 12 -0.33226 1
gene 1 13 20 -0.270562 0 13 -0.270562 1
gene 1 14 20 0.0975047 0 14 0.0975047 1
gene 1 15 20 0.20198 0 15 0.20198 0
gene 1 16 20 0.681939 0 16 0.681939 1
gene 1 17 20 0.0672092 0 17 0.0672092 1
gene 1 18 20 0.0602458 0 18 0.0602458 1
gene 1 19 20 1.46644 0 19 1.46644 1
gene 1 1 21 1.23003 0 20 1.23003 1
gene 1 2 21 0.427441 0 21 0.427441 1
gene 1 3 21 1.0731 0 22 1.0731 1
gene 1 4 21 -0.0762524 0 23 -0.0762524 1
gene 1 5 21 -0.116934 0 24 -0.116934 1
gene 1 6 21 -0.282282 0 25 -0.282282 1
gene 1 7 21 -0.597037 0 26 -0.597037 1
gene 1 8 21 -0.817828 0 27 -0.817828 1
gene 1 9 21 -0.987526 0 28 -0.987526 1
gene 1 10 21 0.662279 0 29 0.662279 1
gene 1 11 21 0.10567 0 30 0.10567 0
gene 1 12 21 -1.18387 0 31 -1.18387 1
gene 1 13 21 -0.34511 0 32 -0.34511 1
gene 1 14 21 -0.470908 0 33 -0.470908 1
gene 1 15 21 -0.757979 0 34 -0.757979 1
gene 1 16 21 0.215295 0 35 0.215295 1
gene 1 17 21 -0.266569 0 36 -0.266569 1
gene 1 18 21 0.58885 0 37 0.58885 1
gene 1 19 21 0.233561 0 38 0.233561 1
gene 1 1 22 0.514022 0 39 0.514022 1
gene 1 2 22 -0.3751 0 40 -0.3751 1
gene 1 3 22 -0.292397 0 41 -0.292397 1
gene 1 4 22 0.00274994 0 42 0.00274994 1
gene 1 5 22 -0.616237 0 43 -0.616237 1
gene 1 6 22 0.386548 0 44 0.386548 1
gene 1 7 22 -0.135077 0 45 -0.135077 1
gene 1 8 22 -1.2709 0 46 -1.2709 1
gene 1 9 22 -0.0593248 0 47 -0.0593248 1
gene 1 10 22 0.392169 0 48 0.392169 1
gene 1 11 22 -0.714096 0 49 -0.714096 1
gene 1 12 22 0.371142 0 50 0.371142 1
gene 1 13 22 0.273414 0 51 0.273414 1
gene 1 14 22 -1.20134 0 52 -1.20134 1
gene 1 15 22 0.340664 0 53 0.340664 1
gene 1 16 22 -0.224943 0 54 -0.224943 1
gene 1 17 22 1.23918 0 55 1.23918 1
gene 1 18 22 -0.724346 0 56 -0.724346 1
gene 1 19 22 0.103957 0 57 0.103957 1
gene 1 1 23 0.404176 0 58 0.404176 1
gene 1 2 23 0.610234 0 59 0.610234 1
gene 1 3 23 0.150916 0 60 0.150916 1
gene 1 4 23 -0.116044 0 61 -0.116044 1
gene 1 5 23 0.256067 0 62 0.256067 1
gene 1 6 23 0.420304 0 63 0.420304 1
gene 1 7 23 -0.336751 0 64 -0.336751 1
gene 1 8 23 -0.0570739 0 65 -0.0570739 1
gene 1 9 23 -0.0499748 0 66 -0.0499748 1
gene 1 10 23 -0.447426 0 67 -0.447426 1
gene 1 11 23 -0.0653135 0 68 -0.0653135 1
gene 1 12 23 -0.596501 0 69 -0.596501 1
gene 1 13 23 0.447373 0 70 0.447373 1
gene 1 14 23 -0.459644 0 71 -0.459644 1
gene 1 15 23 -0.426579 0 72 -0.426579 1
gene 1 16 23 0.0763034 0 73 0.0763034 1
gene 1 17 23 -0.825862 0 74 -0.825862 1
gene 1 18 23 -0.0212477 0 75 -0.0212477 1
gene 1 19 23 0.220517 0 76 0.220517 1
gene 1 8 24 -0.0323655 0 77 -0.0323655 1
gene 1 24 20 0.0216765 0 78 0.0216765 1
gene 1 15 26 0.779471 0 85 0.779471 1
gene 1 26 20 0.897958 0 86 0.897958 1
gene 1 2 24 0.144536 0 91 0.144536 1
gene 1 11 34 1 0 122 0 1
gene 1 34 21 0.0317009 0 123 0 1
genomeend 607
genomestart 662
trait 1 0 0 0 0 0 0 0 0 
node 1 1 1 1 0
node 2 1 1 1 0
node 3 1 1 1 0
node 4 1 1 1 0
node 5 1 1 1 0
node 6 1 1 1 0
node 7 1 1 1 0
node 8 1 1 1 0
node 9 1 1 1 0
node 10 1 1 1 0
node 11 1 1 1 0
node 12 1 1 1 0
node 13 1 1 1 0
node 14 1 1 1 0
node 15 1 1 1 0
node 16 1 1 1 0
node 17 1 1 1 0
node 18 1 1 1 0
node 19 1 1 3 0
node 20 1 0 2 0
node 21 1 0 2 0
node 22 1 0 2 0
node 23 1 0 2 0
node 24 1 0 0 0
node 32 1 0 0 0
gene 1 1 20 -2.00325 0 1 -2.00325 1
gene 1 2 20 0.32054 0 2 0.32054 1
gene 1 3 20 1.60989 0 3 1.60989 1
gene 1 4 20 -0.24409 0 4 -0.24409 1
gene 1 5 20 0.660446 0 5 0.660446 1
gene 1 6 20 -0.103764 0 6 -0.103764 1
gene 1 7 20 -0.654396 0 7 -0.654396 1
gene 1 8 20 0.968864 0 8 0.968864 0
gene 1 9 20 0.60091 0 9 0.60091 1
gene 1 10 20 -0.778405 0 10 -0.778405 1
gene 1 11 20 1.34579 0 11 1.34579 1
gene 1 12 20 0.85174 0 12 0.85174 1
gene 1 13 20 0.377456 0 13 0.377456 1
gene 1 14 20 1.61325 0 14 1.61325 1
gene 1 15 20 0.377403 0 15 0.377403 1
gene 1 16 20 0.269584 0 16 0.269584 1
gene 1 17 20 -0.872466 0 17 -0.872466 1
gene 1 18 20 0.775751 0 18 0.775751 1
gene 1 19 20 0.586149 0 19 0.586149 1
gene 1 1 21 1.29285 0 20 1.29285 1
gene 1 2 21 0.0967611 0 21 0.0967611 1
gene 1 3 21 1.34696 0 22 1.34696 1
gene 1 4 21 1.27594 0 23 1.27594 1
gene 1 5 21 0.956201 0 24 0.956201 1
gene 1 6 21 0.484553 0 25 0.484553 1
gene 1 7 21 1.0374 0 26 1.0374 1
gene 1 8 21 -1.43025 0 27 -1.43025 1
gene 1 9 21 -0.739655 0 28 -0.739655 1
gene 1 10 21 2.59467 0 29 2.59467 1
gene 1 11 21 0.362679 0 30 0.362679 1
gene 1 12 21 -0.635566 0 31 -0.635566 1
gene 1 13 21 -0.62752 0 32 -0.62752 0
gene 1 14 21 -0.178564 0 33 -0.178564 1
gene 1 15 21 0.41239 0 34 0.41239 1
gene 1 16 21 0.208637 0 35 0.208637 1
gene 1 17 21 -0.693443 0 36 -0.693443 1
gene 1 18 21 1.08143 0 37 1.08143 1
gene 1 19 21 -0.0457634 0 38 -0.0457634 1
gene 1 1 22 1.60793 0 39 1.60793 1
gene 1 2 22 -1.43201 0 40 -1.43201 1
gene 1 3 22 0.662511 0 41 0.662511 1
gene 1 4 22 0.0118218 0 42 0.0118218 1
gene 1 5 22 -0.567041 0 43 -0.567041 1
gene 1 6 22 -0.110617 0 44 -0.110617 1
gene 1 7 22 1.79234 0 45 1.79234 1
gene 1 8 22 0.232782 0 46 0.232782 1
gene 1 9 22 0.472386 0 47 0.472386 1
gene 1 10 22 1.8157 0 48 1.8157 1
gene 1 11 22 -0.29505 0 49 -0.29505 1
gene 1 12 22 0.423353 0 50 0.423353 1
gene 1 13 22 -0.259341 0 51 -0.259341 1
gene 1 14 22 0.395831 0 52 0.395831 1
gene 1 15 22 -0.509917 0 53 -0.509917 1
gene 1 16 22 0.71802 0 54 0.71802 1
gene 1 17 22 0.546855 0 55 0.546855 1
gene 1 18 22 -0.579466 0 56 -0.579466 1
gene 1 19 22 -0.813677 0 57 -0.813677 1
gene 1 1 23 -0.120216 0 58 -0.120216 1
gene 1 2 23 -1.05865 0 59 -1.05865 1
gene 1 3 23 0.142497 0 60 0.142497 1
gene 1 4 23 -0.0126754 0 61 -0.0126754 1
gene 1 5 23 -0.779234 0 62 -0.779234 1
gene 1 6 23 1.5273 0 63 1.5273 1
gene 1 7 23 -0.120847 0 64 -0.120847 1
gene 1 8 23 0.356276 0 65 0.356276 1
gene 1 9 23 0.428079 0 66 0.428079 1
gene 1 10 23 0.128463 0 67 0.128463 1
gene 1 11 23 -0.0580617 0 68 -0.0580617 1
gene 1 12 23 -0.474876 0 69 -0.474876 1
gene 1 13 23 0.566752 0 70 0.566752 1
gene 1 14 23 0.217771 0 71 0.217771 1
gene 1 15 23 0.356196 0 72 0.356196 1
gene 1 16 23 0.526861 0 73 0.526861 1
gene 1 17 23 0.224319 0 74 0.224319 1
gene 1 18 23 0.0350565 0 75 0.0350565 1
gene 1 19 23 0.0851286 0 76 0.0851286 1
gene 1 8 24 0.346459 0 77 0.346459 1
gene 1 24 20 0.953509 0 78 0.953509 1
gene 1 22 20 0.0315698 0 87 0.0315698 1
gene 1 2 24 -0.409181 0 91 -0.409181 1
gene 1 6 24 -0.112365 0 96 -0.112365 1
gene 1 23 24 0.445317 0 113 0.445317 1
gene 1 13 32 0.0585209 0 116 0.0585209 1
gene 1 32 21 0.240957 0 117 0.240957 1
genomeend 662
genomestart 670
trait 1 0 0.0431116 0 0 0 0 0 0.287905 
node 1 1 1 1 0
node 2 1 1 1 0
node 3 1 1 1 0
node 4 1 1 1 0
node 5 1 1 1 0
node 6 1 1 1 0
node 7 1 1 1 0
node 8 1 1 1 0
node 9 1 1 1 0
node 10 1 1 1 0
node 11 1 1 1 0
node 12 1 1 1 0
node 13 1 1 1 0
node 14 1 1 1 0
node 15 1 1 1 0
node 16 1 1 1 0
node 17 1 1 1 0
node 18 1 1 1 0
node 19 1 1 3 0
node 20 1 0 2 0
node 21 1 0 2 0
node 22 1 0 2 0
node 23 1 0 2 0
node 24 1 0 0 0
node 32 1 0 0 0
gene 1 1 20 -2.53921 0 1 -2.53921 1
gene 1 2 20 -0.475807 0 2 -0.475807 1
gene 1 3 20 1.20847 0 3 1.20847 1
gene 1 4 20 0.132201 0 4 0.132201 1
gene 1 5 20 0.0986804 0 5 0.0986804 1
gene 1 6 20 0.0553527 0 6 0.0553527 1
gene 1 7 20 -0.158535 0 7 -0.158535 1
gene 1 8 20 0.517273 0 8 0.517273 0
gene 1 9 20 1.13547 0 9 1.13547 1
gene 1 10 20 -0.516198 0 10 -0.516198 1
gene 1 11 20 1.93855 0 11 1.93855 1
gene 1 12 20 0.91461 0 12 0.91461 1
gene 1 13 20 0.294782 0 13 0.294782 1
gene 1 14 20 0.986115 0 14 0.986115 1
gene 1 15 20 0.15005 0 15 0.15005 1
gene 1 16 20 -0.378893 0 16 -0.378893 1
gene 1 17 20 0.026745 0 17 0.026745 1
gene 1 18 20 0.373349 0 18 0.373349 1
gene 1 19 20 1.39484 0 19 1.39484 1
gene 1 1 21 0.0737942 0 20 0.0737942 1
gene 1 2 21 0.37582 0 21 0.37582 1
gene 1 3 21 1.68158 0 22 1.68158 1
gene 1 4 21 1.09427 0 23 1.09427 1
gene 1 5 21 0.759211 0 24 0.759211 1
gene 1 6 21 0.807832 0 25 0.807832 1
gene 1 7 21 1.25598 0 26 1.25598 1
gene 1 8 21 -1.81736 0 27 -1.81736 1
gene 1 9 21 -0.340534 0 28 -0.340534 1
gene 1 10 21 2.8444 0 29 2.8444 1
gene 1 11 21 -0.236946 0 30 -0.236946 1
gene 1 12 21 -1.0024 0 31 -1.0024 1
gene 1 13 21 -0.390886 0 32 -0.390886 0
gene 1 14 21 -0.380324 0 33 -0.380324 1
gene 1 15 21 1.01678 0 34 1.01678 1
gene 1 16 21 0.540518 0 35 0.540518 1
gene 1 17 21 -1.33285 0 36 -1.33285 1
gene 1 18 21 0.479261 0 37 0.479261 1
gene 1 19 21 0.00781372 0 38 0.00781372 1
gene 1 1 22 0.850966 0 39 0.850966 1
gene 1 2 22 0.336143 0 40 0.336143 1
gene 1 3 22 0.90696 0 41 0.90696 1
gene 1 4 22 0.477999 0 42 0.477999 1
gene 1 5 22 -0.231237 0 43 -0.231237 1
gene 1 6 22 -0.38346 0 44 -0.38346 1
gene 1 7 22 2.1556 0 45 2.1556 1
gene 1 8 22 -0.205926 0 46 -0.205926 1
gene 1 9 22 1.31703 0 47 1.31703 1
gene 1 10 22 1.77509 0 48 1.77509 1
gene 1 11 22 -0.0813605 0 49 -0.0813605 1
gene 1 12 22 0.669917 0 50 0.669917 1
gene 1 13 22 -0.538495 0 51 -0.538495 1
gene 1 14 22 0.491505 0 52 0.491505 1
gene 1 15 22 -0.933863 0 53 -0.933863 1
gene 1 16 22 1.0817 0 54 1.0817 1
gene 1 17 22 1.22686 0 55 1.22686 1
gene 1 18 22 0.230124 0 56 0.230124 1
gene 1 19 22 -1.34739 0 57 -1.34739 1
gene 1 1 23 -0.811051 0 58 -0.811051 1
gene 1 2 23 -1.50715 0 59 -1.50715 1
gene 1 3 23 -0.274301 0 60 -0.274301 1
gene 1 4 23 0.7105 0 61 0.7105 1
gene 1 5 23 0.00296126 0 62 0.00296126 1
gene 1 6 23 1.97177 0 63 1.97177 1
gene 1 7 23 -0.9068 0 64 -0.9068 1
gene 1 8 23 -0.161457 0 65 -0.161457 1
gene 1 9 23 0.538864 0 66 0.538864 1
gene 1 10 23 1.14201 0 67 1.14201 1
gene 1 11 23 0.190956 0 68 0.190956 1
gene 1 12 23 -0.337876 0 69 -0.337876 1
gene 1 13 23 0.440887 0 70 0.440887 1
gene 1 14 23 0.470769 0 71 0.470769 1
gene 1 15 23 -0.364353 0 72 -0.364353 1
gene 1 16 23 -0.155151 0 73 -0.155151 1
gene 1 17 23 -0.0731868 0 74 -0.0731868 1
gene 1 18 23 -0.208942 0 75 -0.208942 1
gene 1 19 23 -0.130351 0 76 -0.130351 1
gene 1 8 24 0.371556 0 77 0.371556 1
gene 1 24 20 0.197481 0 78 0.197481 1
gene 1 22 20 1.10169 0 87 1.10169 1
gene 1 2 24 -0.734338 0 91 -0.734338 1
gene 1 6 24 -0.126988 0 96 -0.126988 1
gene 1 23 24 0.330324 0 113 0.330324 1
gene 1 13 32 -0.30991 0 116 -0.30991 1
gene 1 32 21 0.563715 0 117 0.563715 1
genomeend 670
genomestart 693
trait 1 0 0.524519 0.227755 0 0.502674 0.0148439 0 0 
node 1 1 1 1 0
node 2 1 1 1 0
node 3 1 1 1 0
node 4 1 1 1 0
node 5 1 1 1 0
node 6 1 1 1 0
node 7 1 1 1 0
node 8 1 1 1 0
node 9 1 1 1 0
node 10 1 1 1 0
node 11 1 1 1 0
node 12 1 1 1 0
node 13 1 1 1 0
node 14 1 1 1 0
node 15 1 1 1 0
node 16 1 1 1 0
node 17 1 1 1 0
node 18 1 1 1 0
node 19 1 1 3 0
node 20 1 0 2 0
node 21 1 0 2 0
node 22 1 0 2 0
node 23 1 0 2 0
node 24 1 0 0 0
node 26 1 0 0 0
node 34 1 0 0 0
gene 1 1 20 -0.681199 0 1 -0.681199 1
gene 1 2 20 -0.0949902 0 2 -0.0949902 1
gene 1 3 20 0.515706 0 3 0.515706 1
gene 1 4 20 -0.706117 0 4 -0.706117 1
gene 1 5 20 0.0859861 0 5 0.0859861 1
gene 1 6 20 -0.572623 0 6 -0.572623 1
gene 1 7 20 -0.543983 0 7 -0.543983 1
gene 1 8 20 -0.709114 0 8 -0.709114 0
gene 1 9 20 0.0656206 0 9 0.0656206 1
gene 1 10 20 -0.904985 0 10 -0.904985 1
gene 1 11 20 0.846469 0 11 0.846469 1
gene 1 12 20 -1.28652 0 12 -1.28652 1
gene 1 13 20 -0.257902 0 13 -0.257902 1
gene 1 14 20 0.0205861 0 14 0.0205861 1
gene 1 15 20 0.0236556 0 15 0.0236556 0
gene 1 16 20 1.13891 0 16 1.13891 1
gene 1 17 20 0.507537 0 17 0.507537 1
gene 1 18 20 0.130265 0 18 0.130265 1
gene 1 19 20 0.72218 0 19 0.72218 1
gene 1 1 21 1.25568 0 20 1.25568 1
gene 1 2 21 0.0562923 0 21 0.0562923 1
gene 1 3 21 1.06697 0 22 1.06697 1
gene 1 4 21 0.0414539 0 23 0.0414539 1
gene 1 5 21 0.416352 0 24 0.416352 1
gene 1 6 21 0.595571 0 25 0.595571 1
gene 1 7 21 -0.802978 0 26 -0.802978 1
gene 1 8 21 -1.50389 0 27 -1.50389 1
gene 1 9 21 -0.559864 0 28 -0.559864 1
gene 1 10 21 0.595097 0 29 0.595097 1
gene 1 11 21 -0.0251691 0 30 -0.0251691 0
gene 1 12 21 -0.434727 0 31 -0.434727 1
gene 1 13 21 -0.812656 0 32 -0.812656 1
gene 1 14 21 -0.251745 0 33 -0.251745 1
gene 1 15 21 -1.38402 0 34 -1.38402 1
gene 1 16 21 0.0599946 0 35 0.0599946 1
gene 1 17 21 -0.286649 0 36 -0.286649 1
gene 1 18 21 0.384216 0 37 0.384216 1
gene 1 19 21 0.0280237 0 38 0.0280237 1
gene 1 1 22 0.564717 0 39 0.564717 1
gene 1 2 22 -0.52517 0 40 -0.52517 1
gene 1 3 22 -0.411304 0 41 -0.411304 1
gene 1 4 22 -0.268796 0 42 -0.268796 1
gene 1 5 22 -0.503974 0 43 -0.503974 1
gene 1 6 22 -0.193577 0 44 -0.193577 1
gene 1 7 22 -0.403094 0 45 -0.403094 1
gene 1 8 22 -1.09246 0 46 -1.09246 1
gene 1 9 22 0.560579 0 47 0.560579 1
gene 1 10 22 1.03067 0 48 1.03067 1
gene 1 11 22 -1.28041 0 49 -1.28041 1
gene 1 12 22 0.544742 0 50 0.544742 1
gene 1 13 22 0.244077 0 51 0.244077 1
gene 1 14 22 -1.8507 0 52 -1.8507 1
gene 1 15 22 0.675431 0 53 0.675431 1
gene 1 16 22 0.190827 0 54 0.190827 1
gene 1 17 22 1.4374 0 55 1.4374 1
gene 1 18 22 -0.856977 0 56 -0.856977 1
gene 1 19 22 -0.391647 0 57 -0.391647 1
gene 1 1 23 0.172139 0 58 0.172139 1
gene 1 2 23 1.08303 0 59 1.08303 1
gene 1 3 23 -0.0708349 0 60 -0.0708349 1
gene 1 4 23 0.275737 0 61 0.275737 1
gene 1 5 23 0.433631 0 62 0.433631 1
gene 1 6 23 0.963911 0 63 0.963911 1
gene 1 7 23 -0.826024 0 64 -0.826024 1
gene 1 8 23 -0.492516 0 65 -0.492516 1
gene 1 9 23 0.143469 0 66 0.143469 1
gene 1 10 23 -0.979138 0 67 -0.979138 1
gene 1 11 23 -0.489539 0 68 -0.489539 1
gene 1 12 23 -0.218495 0 69 -0.218495 1
gene 1 13 23 0.447373 0 70 0.447373 1
gene 1 14 23 -0.00741221 0 71 -0.00741221 1
gene 1 15 23 0.208269 0 72 0.208269 1
gene 1 16 23 -0.150447 0 73 -0.150447 1
gene 1 17 23 -0.753028 0 74 -0.753028 1
gene 1 18 23 -0.0938192 0 75 -0.0938192 1
gene 1 19 23 0.171457 0 76 0.171457 1
gene 1 8 24 -0.314757 0 77 -0.314757 1
gene 1 24 20 0.36233 0 78 0.36233 1
gene 1 15 26 0.47198 0 85 0.47198 1
gene 1 26 20 0.0331952 0 86 0.0331952 1
gene 1 22 20 0.229245 0 87 0.229245 1
gene 1 2 24 -0.186234 0 91 -0.186234 1
gene 1 6 24 0.99947 0 96 0.99947 1
gene 1 11 34 1 0 122 1 1
gene 1 34 21 0.492991 0 123 0.492991 1
genomeend 693
genomestart 759
trait 1 0 0.349679 0.0767112 0.0121988 0.388932 0.0410314 0 0 
node 1 1 1 1 0
node 2 1 1 1 0
node 3 1 1 1 0
node 4 1 1 1 0
node 5 1 1 1 0
node 6 1 1 1 0
node 7 1 1 1 0
node 8 1 1 1 0
node 9 1 1 1 0
node 10 1 1 1 0
node 11 1 1 1 0
node 12 1 1 1 0
node 13 1 1 1 0
node 14 1 1 1 0
node 15 1 1 1 0
node 16 1 1 1 0
node 17 1 1 1 0
node 18 1 1 1 0
node 19 1 1 3 0
node 20 1 0 2 0
node 21 1 0 2 0
node 22 1 0 2 0
node 23 1 0 2 0
node 24 1 0 0 0
node 26 1 0 0 0
node 34 1 0 0 0
node 36 1 0 0 0
gene 1 1 20 -0.366152 0 1 -0.366152 1
gene 1 2 20 -0.130386 0 2 -0.130386 1
gene 1 3 20 0.947309 0 3 0.947309 1
gene 1 4 20 -0.23118 0 4 -0.23118 1
gene 1 5 20 0.0138836 0 5 0.0138836 1
gene 1 6 20 0.457335 0 6 0.457335 1
gene 1 7 20 -0.226216 0 7 -0.226216 1
gene 1 8 20 -0.128355 0 8 -0.128355 0
gene 1 9 20 -0.790524 0 9 -0.790524 0
gene 1 10 20 -0.302233 0 10 -0.302233 1
gene 1 11 20 0.685369 0 11 0.685369 1
gene 1 12 20 0.494883 0 12 0.494883 1
gene 1 13 20 -0.0360795 0 13 -0.0360795 1
gene 1 14 20 0.815819 0 14 0.815819 1
gene 1 15 20 0.64851 0 15 0.64851 0
gene 1 16 20 0.469656 0 16 0.469656 1
gene 1 17 20 -0.725693 0 17 -0.725693 1
gene 1 18 20 0.975038 0 18 0.975038 1
gene 1 19 20 1.14848 0 19 1.14848 1
gene 1 1 21 1.05793 0 20 1.05793 1
gene 1 2 21 0.353176 0 21 0.353176 1
gene 1 3 21 -0.0764807 0 22 -0.0764807 1
gene 1 4 21 -0.0645628 0 23 -0.0645628 1
gene 1 5 21 0.317176 0 24 0.317176 1
gene 1 6 21 -0.490603 0 25 -0.490603 1
gene 1 7 21 -1.20134 0 26 -1.20134 1
gene 1 8 21 -0.586699 0 27 -0.586699 1
gene 1 9 21 -1.18577 0 28 -1.18577 1
gene 1 10 21 1.71885 0 29 1.71885 1
gene 1 11 21 0.108667 0 30 0.108667 0
gene 1 12 21 -0.70814 0 31 -0.70814 1
gene 1 13 21 -0.0775581 0 32 -0.0775581 1
gene 1 14 21 -0.321984 0 33 -0.321984 1
gene 1 15 21 -0.50538 0 34 -0.50538 1
gene 1 16 21 0.562464 0 35 0.562464 1
gene 1 17 21 0.0311572 0 36 0.0311572 1
gene 1 18 21 0.501034 0 37 0.501034 1
gene 1 19 21 0.285755 0 38 0.285755 1
gene 1 1 22 0.598155 0 39 0.598155 1
gene 1 2 22 -0.908167 0 40 -0.908167 1
gene 1 3 22 0.180316 0 41 0.180316 1
gene 1 4 22 -0.116094 0 42 -0.116094 1
gene 1 5 22 -0.830908 0 43 -0.830908 1
gene 1 6 22 0.413008 0 44 0.413008 1
gene 1 7 22 0.553923 0 45 0.553923 1
gene 1 8 22 -0.787315 0 46 -0.787315 1
gene 1 9 22 -0.272131 0 47 -0.272131 1
gene 1 10 22 0.262295 0 48 0.262295 1
gene 1 11 22 0.00129916 0 49 0.00129916 1
gene 1 12 22 0.187801 0 50 0.187801 1
gene 1 13 22 -0.343034 0 51 -0.343034 1
gene 1 14 22 0.203635 0 52 0.203635 1
gene 1 15 22 0.0478082 0 53 0.0478082 1
gene 1 16 22 0.438624 0 54 0.438624 1
gene 1 17 22 -0.402543 0 55 -0.402543 1
gene 1 18 22 -1.0633 0 56 -1.0633 1
gene 1 19 22 0.475999 0 57 0.475999 1
gene 1 1 23 0.189611 0 58 0.189611 1
gene 1 2 23 -0.0339916 0 59 -0.0339916 1
gene 1 3 23 0.446385 0 60 0.446385 1
gene 1 4 23 0.0673905 0 61 0.0673905 1
gene 1 5 23 0.993744 0 62 0.993744 1
gene 1 6 23 0.531067 0 63 0.531067 1
gene 1 7 23 0.03618 0 64 0.03618 1
gene 1 8 23 -0.217348 0 65 -0.217348 1
gene 1 9 23 0.26955 0 66 0.26955 1
gene 1 10 23 -0.461277 0 67 -0.461277 1
gene 1 11 23 -0.15631 0 68 -0.15631 1
gene 1 12 23 -0.825833 0 69 -0.825833 1
gene 1 13 23 0.704723 0 70 0.704723 1
gene 1 14 23 -0.413726 0 71 -0.413726 1
gene 1 15 23 0.496869 0 72 0.496869 1
gene 1 16 23 -0.0317396 0 73 -0.0317396 1
gene 1 17 23 -0.960956 0 74 -0.960956 1
gene 1 18 23 0.335358 0 75 0.335358 1
gene 1 19 23 0.147613 0 76 0.147613 1
gene 1 8 24 0.456726 0 77 0.456726 1
gene 1 24 20 -0.352738 0 78 -0.352738 1
gene 1 15 26 -0.0848513 0 85 -0.0848513 1
gene 1 26 20 1.16775 0 86 1.16775 1
gene 1 22 20 0.325182 0 87 0.325182 1
gene 1 2 24 -0.125355 0 91 -0.125355 1
gene 1 6 24 0.669047 0 96 0.669047 1
gene 1 16 26 0.211077 0 99 0.211077 1
gene 1 13 24 -0.453991 0 100 -0.453991 1
gene 1 11 34 0.439583 0 122 0.439583 1
gene 1 34 21 0.14308 0 123 0.14308 1
gene 1 9 36 1.29534 0 127 1.29534 1
gene 1 36 20 0.261492 0 128 0.261492 1
genomeend 759
genomestart 760
trait 1 0 0 0.450751 0 0 0.0593757 0 0 
node 1 1 1 1 0
node 2 1 1 1 0
node 3 1 1 1 0
node 4 1 1 1 0
node 5 1 1 1 0
node 6 1 1 1 0
node 7 1 1 1 0
node 8 1 1 1 0
node 9 1 1 1 0
node 10 1 1 1 0
node 11 1 1 1 0
node 12 1 1 1 0
node 13 1 1 1 0
node 14 1 1 1 0
node 15 1 1 1 0
node 16 1 1 1 0
node 17 1 1 1 0
node 18 1 1 1 0
node 19 1 1 3 0
node 20 1 0 2 0
node 21 1 0 2 0
node 22 1 0 2 0
node 23 1 0 2 0
node 24 1 0 0 0
node 26 1 0 0 0
node 37 1 0 0 0
gene 1 1 20 0.724805 0 1 0.724805 1
gene 1 2 20 0.0363226 0 2 0.0363226 1
gene 1 3 20 0.140978 0 3 0.140978 1
gene 1 4 20 -0.402723 0 4 -0.402723 1
gene 1 5 20 -0.83487 0 5 -0.83487 1
gene 1 6 20 0.470121 0 6 0.470121 1
gene 1 7 20 -0.633115 0 7 -0.633115 1
gene 1 8 20 -0.252203 0 8 -0.252203 0
gene 1 9 20 -0.864635 0 9 -0.864635 1
gene 1 10 20 -1.127 0 10 -1.127 0
gene 1 11 20 0.151514 0 11 0.151514 1
gene 1 12 20 -1.00003 0 12 -1.00003 1
gene 1 13 20 -0.32767 0 13 -0.32767 1
gene 1 14 20 -0.0173883 0 14 -0.0173883 1
gene 1 15 20 0.687942 0 15 0.687942 0
gene 1 16 20 0.335292 0 16 0.335292 1
gene 1 17 20 0.515965 0 17 0.515965 1
gene 1 18 20 1.97922 0 18 1.97922 1
gene 1 19 20 0.985274 0 19 0.985274 1
gene 1 1 21 0.18231 0 20 0.18231 1
gene 1 2 21 -0.189543 0 21 -0.189543 1
gene 1 3 21 1.19423 0 22 1.19423 1
gene 1 4 21 0.0324783 0 23 0.0324783 1
gene 1 5 21 1.21611 0 24 1.21611 1
gene 1 6 21 -0.61597 0 25 -0.61597 1
gene 1 7 21 -0.885772 0 26 -0.885772 1
gene 1 8 21 -1.33848 0 27 -1.33848 1
gene 1 9 21 -1.75004 0 28 -1.75004 1
gene 1 10 21 1.57175 0 29 1.57175 1
gene 1 11 21 -0.348584 0 30 -0.348584 1
gene 1 12 21 0.288065 0 31 0.288065 1
gene 1 13 21 -0.891974 0 32 -0.891974 1
gene 1 14 21 0.0443696 0 33 0.0443696 1
gene 1 15 21 -0.60361 0 34 -0.60361 1
gene 1 16 21 0.449472 0 35 0.449472 1
gene 1 17 21 -1.07076 0 36 -1.07076 1
gene 1 18 21 0.132479 0 37 0.132479 1
gene 1 19 21 0.369713 0 38 0.369713 1
gene 1 1 22 0.555901 0 39 0.555901 1
gene 1 2 22 -0.114574 0 40 -0.114574 1
gene 1 3 22 -0.9737 0 41 -0.9737 1
gene 1 4 22 -0.204557 0 42 -0.204557 1
gene 1 5 22 0.381032 0 43 0.381032 1
gene 1 6 22 0.225864 0 44 0.225864 1
gene 1 7 22 -0.927076 0 45 -0.927076 1
gene 1 8 22 -0.592704 0 46 -0.592704 1
gene 1 9 22 -0.574892 0 47 -0.574892 1
gene 1 10 22 0.299507 0 48 0.299507 1
gene 1 11 22 -1.23005 0 49 -1.23005 1
gene 1 12 22 0.787595 0 50 0.787595 1
gene 1 13 22 0.171831 0 51 0.171831 1
gene 1 14 22 -0.531577 0 52 -0.531577 1
gene 1 15 22 -0.0868799 0 53 -0.0868799 1
gene 1 16 22 -0.0499804 0 54 -0.0499804 1
gene 1 17 22 1.06303 0 55 1.06303 1
gene 1 18 22 -0.0746961 0 56 -0.0746961 1
gene 1 19 22 -0.933618 0 57 -0.933618 1
gene 1 1 23 0.594894 0 58 0.594894 1
gene 1 2 23 -0.375934 0 59 -0.375934 1
gene 1 3 23 0.863071 0 60 0.863071 1
gene 1 4 23 -0.533759 0 61 -0.533759 1
gene 1 5 23 0.155748 0 62 0.155748 1
gene 1 6 23 0.805826 0 63 0.805826 1
gene 1 7 23 0.164653 0 64 0.164653 1
gene 1 8 23 -0.0145584 0 65 -0.0145584 1
gene 1 9 23 0.0137663 0 66 0.0137663 1
gene 1 10 23 0.352781 0 67 0.352781 1
gene 1 11 23 -0.543159 0 68 -0.543159 1
gene 1 12 23 -0.118681 0 69 -0.118681 1
gene 1 13 23 0.750541 0 70 0.750541 1
gene 1 14 23 0.0178165 0 71 0.0178165 1
gene 1 15 23 -0.107601 0 72 -0.107601 1
gene 1 16 23 0.297666 0 73 0.297666 1
gene 1 17 23 -0.362506 0 74 -0.362506 1
gene 1 18 23 -0.302232 0 75 -0.302232 1
gene 1 19 23 0.0986879 0 76 0.0986879 1
gene 1 8 24 -0.251318 0 77 -0.251318 1
gene 1 24 20 0.471586 0 78 0.471586 1
gene 1 15 26 0.119692 0 85 0.119692 1
gene 1 26 20 0.185395 0 86 0.185395 1
gene 1 22 20 0.483063 0 87 0.483063 1
gene 1 2 24 0.234143 0 91 0.234143 1
gene 1 6 24 0.726821 0 96 0.726821 1
gene 1 10 37 -0.566734 0 129 -0.566734 1
gene 1 37 20 -0.49227 0 130 -0.49227 1
genomeend 760
genomestart 761
trait 1 0 0 0 0 0 0 0 0 
node 1 1 1 1 0
node 2 1 1 1 0
node 3 1 1 1 0
node 4 1 1 1 0
node 5 1 1 1 0
node 6 1 1 1 0
node 7 1 1 1 0
node 8 1 1 1 0
node 9 1 1 1 0
node 10 1 1 1 0
node 11 1 1 1 0
node 12 1 1 1 0
node 13 1 1 1 0
node 14 1 1 1 0
node 15 1 1 1 0
node 16 1 1 1 0
node 17 1 1 1 0
node 18 1 1 1 0
node 19 1 1 3 0
node 20 1 0 2 0
node 21 1 0 2 0
node 22 1 0 2 0
node 23 1 0 2 0
node 24 1 0 0 0
node 32 1 0 0 0
node 39 1 0 0 0
gene 1 1 20 -1.44852 0 1 -1.44852 1
gene 1 2 20 1.02574 0 2 1.02574 1
gene 1 3 20 1.14547 0 3 1.14547 1
gene 1 4 20 0.0061795 0 4 0.0061795 1
gene 1 5 20 -0.179839 0 5 -0.179839 1
gene 1 6 20 -0.0400138 0 6 -0.0400138 1
gene 1 7 20 -1.24462 0 7 -1.24462 1
gene 1 8 20 0.360685 0 8 0.360685 1
gene 1 9 20 0.810491 0 9 0.810491 1
gene 1 10 20 -0.471525 0 10 -0.471525 1
gene 1 11 20 1.13422 0 11 1.13422 1
gene 1 12 20 1.06594 0 12 1.06594 1
gene 1 13 20 0.0584025 0 13 0.0584025 1
gene 1 14 20 0.507575 0 14 0.507575 1
gene 1 15 20 1.00856 0 15 1.00856 1
gene 1 16 20 0.697652 0 16 0.697652 1
gene 1 17 20 0.0756834 0 17 0.0756834 1
gene 1 18 20 2.01463 0 18 2.01463 1
gene 1 19 20 0.918003 0 19 0.918003 1
gene 1 1 21 1.21491 0 20 1.21491 1
gene 1 2 21 0.274357 0 21 0.274357 1
gene 1 3 21 0.350813 0 22 0.350813 1
gene 1 4 21 1.20871 0 23 1.20871 1
gene 1 5 21 0.263824 0 24 0.263824 1
gene 1 6 21 0.776718 0 25 0.776718 1
gene 1 7 21 1.09896 0 26 1.09896 1
gene 1 8 21 -0.795816 0 27 -0.795816 1
gene 1 9 21 -0.625428 0 28 -0.625428 1
gene 1 10 21 3 0 29 3 1
gene 1 11 21 -0.12631 0 30 -0.12631 1
gene 1 12 21 -0.524003 0 31 -0.524003 1
gene 1 13 21 -0.455486 0 32 -0.455486 0
gene 1 14 21 -0.777628 0 33 -0.777628 1
gene 1 15 21 0.771307 0 34 0.771307 1
gene 1 16 21 1.07642 0 35 1.07642 1
gene 1 17 21 -0.745261 0 36 -0.745261 1
gene 1 18 21 0.200196 0 37 0.200196 1
gene 1 19 21 0.175531 0 38 0.175531 1
gene 1 1 22 1.75889 0 39 1.75889 1
gene 1 2 22 -0.831742 0 40 -0.831742 1
gene 1 3 22 0.0016043 0 41 0.0016043 1
gene 1 4 22 0.349542 0 42 0.349542 1
gene 1 5 22 0.332597 0 43 0.332597 1
gene 1 6 22 0.657298 0 44 0.657298 1
gene 1 7 22 0.421812 0 45 0.421812 1
gene 1 8 22 -0.349625 0 46 -0.349625 1
gene 1 9 22 0.107364 0 47 0.107364 1
gene 1 10 22 1.01084 0 48 1.01084 1
gene 1 11 22 -0.262464 0 49 -0.262464 1
gene 1 12 22 1.5165 0 50 1.5165 1
gene 1 13 22 -0.243046 0 51 -0.243046 1
gene 1 14 22 0.230246 0 52 0.230246 1
gene 1 15 22 -0.591364 0 53 -0.591364 1
gene 1 16 22 1.91138 0 54 1.91138 1
gene 1 17 22 0.187745 0 55 0.187745 1
gene 1 18 22 -0.103964 0 56 -0.103964 1
gene 1 19 22 -0.947466 0 57 -0.947466 1
gene 1 1 23 -0.349914 0 58 -0.349914 1
gene 1 2 23 -0.589895 0 59 -0.589895 1
gene 1 3 23 0.677031 0 60 0.677031 1
gene 1 4 23 0.0763115 0 61 0.0763115 1
gene 1 5 23 0.0311175 0 62 0.0311175 1
gene 1 6 23 1.25352 0 63 1.25352 1
gene 1 7 23 -0.0163779 0 64 -0.0163779 1
gene 1 8 23 0.00342066 0 65 0.00342066 1
gene 1 9 23 -0.158872 0 66 -0.158872 1
gene 1 10 23 -0.246497 0 67 -0.246497 1
gene 1 11 23 -0.87231 0 68 -0.87231 1
gene 1 12 23 0.407459 0 69 0.407459 1
gene 1 13 23 0.0762895 0 70 0.0762895 1
gene 1 14 23 -0.332359 0 71 -0.332359 1
gene 1 15 23 0.383584 0 72 0.383584 1
gene 1 16 23 -0.503717 0 73 -0.503717 1
gene 1 17 23 0.19826 0 74 0.19826 1
gene 1 18 23 0.101263 0 75 0.101263 1
gene 1 19 23 0.260262 0 76 0.260262 1
gene 1 8 24 -0.447352 0 77 -0.447352 1
gene 1 24 20 -0.102027 0 78 -0.102027 1
gene 1 22 20 0.65127 0 87 0.65127 1
gene 1 2 24 -0.290458 0 91 -0.290458 1
gene 1 6 24 -0.0940014 0 96 -0.0940014 1
gene 1 23 24 0.978463 0 113 0.978463 1
gene 1 13 32 0.664373 0 116 0.664373 1
gene 1 32 21 -0.0814749 0 117 -0.0814749 1
gene 1 17 39 1.18364 0 134 1.18364 1
gene 1 39 23 0.0664182 0 135 0.0664182 1
genomeend 761
genomestart 779
trait 1 0 0 0.450751 0 0 0.0593757 0 0 
node 1 1 1 1 0
node 2 1 1 1 0
node 3 1 1 1 0
node 4 1 1 1 0
node 5 1 1 1 0
node 6 1 1 1 0
node 7 1 1 1 0
node 8 1 1 1 0
node 9 1 1 1 0
node 10 1 1 1 0
node 11 1 1 1 0
node 12 1 1 1 0
node 13 1 1 1 0
node 14 1 1 1 0
node 15 1 1 1 0
node 16 1 1 1 0
node 17 1 1 1 0
node 18 1 1 1 0
node 19 1 1 3 0
node 20 1 0 2 0
node 21 1 0 2 0
node 22 1 0 2 0
node 23 1 0 2 0
node 24 1 0 0 0
node 26 1 0 0 0
node 37 1 0 0 0
gene 1 1 20 0.330525 0 1 0.330525 1
gene 1 2 20 0.412438 0 2 0.412438 1
gene 1 3 20 0.0488896 0 3 0.0488896 1
gene 1 4 20 0.226167 0 4 0.226167 1
gene 1 5 20 -0.291062 0 5 -0.291062 1
gene 1 6 20 0.407028 0 6 0.407028 1
gene 1 7 20 -0.827266 0 7 -0.827266 1
gene 1 8 20 -1.47946 0 8 -1.47946 0
gene 1 9 20 -0.716503 0 9 -0.716503 1
gene 1 10 20 -0.601753 0 10 -0.601753 0
gene 1 11 20 0.2001 0 11 0.2001 1
gene 1 12 20 0.343463 0 12 0.343463 1
gene 1 13 20 -0.538644 0 13 -0.538644 1
gene 1 14 20 -0.504624 0 14 -0.504624 1
gene 1 15 20 -0.403482 0 15 -0.403482 0
gene 1 16 20 0.713365 0 16 0.713365 1
gene 1 17 20 0.578186 0 17 0.578186 1
gene 1 18 20 2.23663 0 18 2.23663 1
gene 1 19 20 1.07045 0 19 1.07045 1
gene 1 1 21 0.557632 0 20 0.557632 1
gene 1 2 21 0.0915627 0 21 0.0915627 1
gene 1 3 21 0.731696 0 22 0.731696 1
gene 1 4 21 0.312465 0 23 0.312465 1
gene 1 5 21 0.758234 0 24 0.758234 1
gene 1 6 21 0.0685878 0 25 0.0685878 1
gene 1 7 21 -0.944073 0 26 -0.944073 1
gene 1 8 21 0.0848264 0 27 0.0848264 1
gene 1 9 21 -0.741196 0 28 -0.741196 1
gene 1 10 21 1.44132 0 29 1.44132 1
gene 1 11 21 0.275578 0 30 0.275578 1
gene 1 12 21 -0.220806 0 31 -0.220806 1
gene 1 13 21 -0.0113205 0 32 -0.0113205 1
gene 1 14 21 -0.59282 0 33 -0.59282 1
gene 1 15 21 -0.740139 0 34 -0.740139 1
gene 1 16 21 0.538774 0 35 0.538774 1
gene 1 17 21 0.130103 0 36 0.130103 1
gene 1 18 21 0.478817 0 37 0.478817 1
gene 1 19 21 0.188974 0 38 0.188974 1
gene 1 1 22 0.322165 0 39 0.322165 1
gene 1 2 22 0.417335 0 40 0.417335 1
gene 1 3 22 -0.219067 0 41 -0.219067 1
gene 1 4 22 0.264538 0 42 0.264538 1
gene 1 5 22 -0.0891023 0 43 -0.0891023 1
gene 1 6 22 0.631507 0 44 0.631507 1
gene 1 7 22 -1.39016 0 45 -1.39016 1
gene 1 8 22 -0.846508 0 46 -0.846508 1
gene 1 9 22 0.0786966 0 47 0.0786966 1
gene 1 10 22 0.841197 0 48 0.841197 1
gene 1 11 22 -1.53715 0 49 -1.53715 1
gene 1 12 22 -0.112749 0 50 -0.112749 1
gene 1 13 22 -0.754671 0 51 -0.754671 1
gene 1 14 22 -0.955781 0 52 -0.955781 1
gene 1 15 22 0.278528 0 53 0.278528 1
gene 1 16 22 -0.420515 0 54 -0.420515 1
gene 1 17 22 2.35337 0 55 2.35337 1
gene 1 18 22 0.832688 0 56 0.832688 1
gene 1 19 22 -0.229242 0 57 -0.229242 1
gene 1 1 23 0.412728 0 58 0.412728 1
gene 1 2 23 -0.519874 0 59 -0.519874 1
gene 1 3 23 -0.438816 0 60 -0.438816 1
gene 1 4 23 0.0604135 0 61 0.0604135 1
gene 1 5 23 -0.179992 0 62 -0.179992 1
gene 1 6 23 1.19047 0 63 1.19047 1
gene 1 7 23 -0.627186 0 64 -0.627186 1
gene 1 8 23 -0.337748 0 65 -0.337748 1
gene 1 9 23 0.672222 0 66 0.672222 1
gene 1 10 23 0.220082 0 67 0.220082 1
gene 1 11 23 -0.537894 0 68 -0.537894 1
gene 1 12 23 -0.0157852 0 69 -0.0157852 1
gene 1 13 23 0.447373 0 70 0.447373 1
gene 1 14 23 0.0378973 0 71 0.0378973 1
gene 1 15 23 -0.283731 0 72 -0.283731 1
gene 1 16 23 -0.15251 0 73 -0.15251 1
gene 1 17 23 -0.495851 0 74 -0.495851 1
gene 1 18 23 0.292881 0 75 0.292881 1
gene 1 19 23 0.445718 0 76 0.445718 1
gene 1 8 24 0.230242 0 77 0.230242 1
gene 1 24 20 0.748981 0 78 0.748981 1
gene 1 15 26 0.779471 0 85 0.779471 1
gene 1 26 20 0.618263 0 86 0.618263 1
gene 1 22 20 0.853916 0 87 0.853916 1
gene 1 2 24 0.335021 0 91 0.335021 1
gene 1 6 24 0.849839 0 96 0.849839 1
gene 1 10 37 -0.0956277 0 129 -0.0956277 1
gene 1 37 20 -0.146579 0 130 -0.146579 1
genomeend 779
genomestart 806
trait 1 0 0.598123 0 0 0 0 0 0 
node 1 1 1 1 0
node 2 1 1 1 0
node 3 1 1 1 0
node 4 1 1 1 0
node 5 1 1 1 0
node 6 1 1 1 0
node 7 1 1 1 0
node 8 1 1 1 0
node 9 1 1 1 0
node 10 1 1 1 0
node 11 1 1 1 0
node 12 1 1 1 0
node 13 1 1 1 0
node 14 1 1 1 0
node 15 1 1 1 0
node 16 1 1 1 0
node 17 1 1 1 0
node 18 1 1 1 0
node 19 1 1 3 0
node 20 1 0 2 0
node 21 1 0 2 0
node 22 1 0 2 0
node 23 1 0 2 0
node 24 1 0 0 0
node 32 1 0 0 0
node 39 1 0 0 0
gene 1 1 20 -0.344814 0 1 -0.344814 1
gene 1 2 20 0.486229 0 2 0.486229 1
gene 1 3 20 0.102902 0 3 0.102902 1
gene 1 4 20 -0.611094 0 4 -0.611094 1
gene 1 5 20 0.226336 0 5 0.226336 1
gene 1 6 20 0.545352 0 6 0.545352 1
gene 1 7 20 0.20175 0 7 0.20175 1
gene 1 8 20 0.8101 0 8 0.8101 1
gene 1 9 20 0.317999 0 9 0.317999 1
gene 1 10 20 -0.837614 0 10 -0.837614 1
gene 1 11 20 1.89151 0 11 1.89151 1
gene 1 12 20 -0.00694049 0 12 -0.00694049 1
gene 1 13 20 -0.190233 0 13 -0.190233 1
gene 1 14 20 -0.446906 0 14 -0.446906 1
gene 1 15 20 -0.596364 0 15 -0.596364 1
gene 1 16 20 0.912015 0 16 0.912015 1
gene 1 17 20 -0.197667 0 17 -0.197667 1
gene 1 18 20 0.051427 0 18 0.051427 1
gene 1 19 20 0.763313 0 19 0.763313 1
gene 1 1 21 1.04771 0 20 1.04771 1
gene 1 2 21 -0.0197594 0 21 -0.0197594 1
gene 1 3 21 0.179544 0 22 0.179544 1
gene 1 4 21 0.354911 0 23 0.354911 1
gene 1 5 21 -0.523155 0 24 -0.523155 1
gene 1 6 21 0.624777 0 25 0.624777 1
gene 1 7 21 1.22396 0 26 1.22396 1
gene 1 8 21 -0.543772 0 27 -0.543772 1
gene 1 9 21 -0.211558 0 28 -0.211558 1
gene 1 10 21 2.09931 0 29 2.09931 1
gene 1 11 21 0.609518 0 30 0.609518 1
gene 1 12 21 0.0911394 0 31 0.0911394 1
gene 1 13 21 -0.476766 0 32 -0.476766 0
gene 1 14 21 -0.681564 0 33 -0.681564 1
gene 1 15 21 1.60934 0 34 1.60934 1
gene 1 16 21 0.0504079 0 35 0.0504079 1
gene 1 17 21 -0.426188 0 36 -0.426188 1
gene 1 18 21 1.37042 0 37 1.37042 1
gene 1 19 21 0.316862 0 38 0.316862 1
gene 1 1 22 0.0404423 0 39 0.0404423 1
gene 1 2 22 -0.0237456 0 40 -0.0237456 1
gene 1 3 22 0.34029 0 41 0.34029 1
gene 1 4 22 0.806581 0 42 0.806581 1
gene 1 5 22 1.13733 0 43 1.13733 1
gene 1 6 22 -0.294632 0 44 -0.294632 1
gene 1 7 22 0.221936 0 45 0.221936 1
gene 1 8 22 -0.514545 0 46 -0.514545 1
gene 1 9 22 0.660999 0 47 0.660999 1
gene 1 10 22 1.58164 0 48 1.58164 1
gene 1 11 22 -0.222409 0 49 -0.222409 1
gene 1 12 22 -0.31358 0 50 -0.31358 1
gene 1 13 22 -0.366661 0 51 -0.366661 1
gene 1 14 22 0.169786 0 52 0.169786 1
gene 1 15 22 0.00460866 0 53 0.00460866 1
gene 1 16 22 1.19047 0 54 1.19047 1
gene 1 17 22 -0.0126746 0 55 -0.0126746 1
gene 1 18 22 -0.698816 0 56 -0.698816 1
gene 1 19 22 -0.495011 0 57 -0.495011 1
gene 1 1 23 -0.0303531 0 58 -0.0303531 1
gene 1 2 23 -2.18476 0 59 -2.18476 1
gene 1 3 23 0.212834 0 60 0.212834 1
gene 1 4 23 0.591756 0 61 0.591756 1
gene 1 5 23 0.35507 0 62 0.35507 1
gene 1 6 23 -0.0927615 0 63 -0.0927615 1
gene 1 7 23 -0.340932 0 64 -0.340932 1
gene 1 8 23 0.296721 0 65 0.296721 1
gene 1 9 23 -0.201506 0 66 -0.201506 1
gene 1 10 23 -1.2901 0 67 -1.2901 1
gene 1 11 23 -0.814004 0 68 -0.814004 1
gene 1 12 23 0.134692 0 69 0.134692 1
gene 1 13 23 -0.279733 0 70 -0.279733 1
gene 1 14 23 -0.983477 0 71 -0.983477 1
gene 1 15 23 -0.0872521 0 72 -0.0872521 1
gene 1 16 23 -0.331854 0 73 -0.331854 1
gene 1 17 23 -0.283736 0 74 -0.283736 0
gene 1 18 23 0.373343 0 75 0.373343 1
gene 1 19 23 -0.363812 0 76 -0.363812 1
gene 1 8 24 0.130112 0 77 0.130112 1
gene 1 24 20 -0.154292 0 78 -0.154292 1
gene 1 22 20 0.259791 0 87 0.259791 1
gene 1 2 24 -0.146258 0 91 -0.146258 1
gene 1 6 24 -0.0364455 0 96 -0.0364455 1
gene 1 23 24 0.29259 0 113 0.29259 1
gene 1 13 32 0.111683 0 116 0.111683 1
gene 1 32 21 -0.22979 0 117 -0.22979 1
gene 1 17 39 0.484427 0 134 0.484427 1
gene 1 39 23 -0.334737 0 135 -0.334737 1
genomeend 806
genomestart 813
trait 1 0 0 0.366235 0.0101657 0 0.0824356 0 0 
node 1 1 1 1 0
node 2 1 1 1 0
node 3 1 1 1 0
node 4 1 1 1 0
node 5 1 1 1 0
node 6 1 1 1 0
node 7 1 1 1 0
node 8 1 1 1 0
node 9 1 1 1 0
node 10 1 1 1 0
node 11 1 1 1 0
node 12 1 1 1 0
node 13 1 1 1 0
node 14 1 1 1 0
node 15 1 1 1 0
node 16 1 1 1 0
node 17 1 1 1 0
node 18 1 1 1 0
node 19 1 1 3 0
node 20 1 0 2 0
node 21 1 0 2 0
node 22 1 0 2 0
node 23 1 0 2 0
node 24 1 0 0 0
node 26 1 0 0 0
node 37 1 0 0 0
gene 1 1 20 0.485154 0 1 0.485154 1
gene 1 2 20 0.710074 0 2 0.710074 1
gene 1 3 20 0.655076 0 3 0.655076 1
gene 1 4 20 0.0732716 0 4 0.0732716 1
gene 1 5 20 -0.712941 0 5 -0.712941 1
gene 1 6 20 0.427036 0 6 0.427036 1
gene 1 7 20 -1.04211 0 7 -1.04211 1
gene 1 8 20 -1.07339 0 8 -1.07339 0
gene 1 9 20 -0.846703 0 9 -0.846703 1
gene 1 10 20 -0.284113 0 10 -0.284113 0
gene 1 11 20 0.519044 0 11 0.519044 1
gene 1 12 20 -0.0682481 0 12 -0.0682481 1
gene 1 13 20 -0.444273 0 13 -0.444273 1
gene 1 14 20 -0.188647 0 14 -0.188647 1
gene 1 15 20 -0.324222 0 15 -0.324222 0
gene 1 16 20 0.763007 0 16 0.763007 1
gene 1 17 20 0.191107 0 17 0.191107 1
gene 1 18 20 1.59309 0 18 1.59309 1
gene 1 19 20 1.12871 0 19 1.12871 1
gene 1 1 21 0.138588 0 20 0.138588 1
gene 1 2 21 -0.32859 0 21 -0.32859 1
gene 1 3 21 0.725311 0 22 0.725311 1
gene 1 4 21 0.427326 0 23 0.427326 1
gene 1 5 21 0.587173 0 24 0.587173 1
gene 1 6 21 -0.299437 0 25 -0.299437 1
gene 1 7 21 -0.725172 0 26 -0.725172 1
gene 1 8 21 -0.197443 0 27 -0.197443 1
gene 1 9 21 -0.664672 0 28 -0.664672 1
gene 1 10 21 1.12786 0 29 1.12786 1
gene 1 11 21 0.139832 0 30 0.139832 1
gene 1 12 21 -0.17785 0 31 -0.17785 1
gene 1 13 21 -0.030002 0 32 -0.030002 1
gene 1 14 21 -0.67416 0 33 -0.67416 1
gene 1 15 21 -0.474919 0 34 -0.474919 1
gene 1 16 21 0.706294 0 35 0.706294 1
gene 1 17 21 -0.311059 0 36 -0.311059 1
gene 1 18 21 0.629193 0 37 0.629193 1
gene 1 19 21 0.186742 0 38 0.186742 1
gene 1 1 22 0.0468483 0 39 0.0468483 1
gene 1 2 22 0.306223 0 40 0.306223 1
gene 1 3 22 -0.137438 0 41 -0.137438 1
gene 1 4 22 0.00905493 0 42 0.00905493 1
gene 1 5 22 -0.169803 0 43 -0.169803 1
gene 1 6 22 0.216528 0 44 0.216528 1
gene 1 7 22 -0.688401 0 45 -0.688401 1
gene 1 8 22 -1.00838 0 46 -1.00838 1
gene 1 9 22 0.054312 0 47 0.054312 1
gene 1 10 22 0.691516 0 48 0.691516 1
gene 1 11 22 -0.897912 0 49 -0.897912 1
gene 1 12 22 0.045128 0 50 0.045128 1
gene 1 13 22 -0.569687 0 51 -0.569687 1
gene 1 14 22 -1.17402 0 52 -1.17402 1
gene 1 15 22 0.590142 0 53 0.590142 1
gene 1 16 22 -0.47025 0 54 -0.47025 1
gene 1 17 22 1.673 0 55 1.673 1
gene 1 18 22 0.621374 0 56 0.621374 1
gene 1 19 22 -0.542422 0 57 -0.542422 1
gene 1 1 23 0.273302 0 58 0.273302 1
gene 1 2 23 -0.688418 0 59 -0.688418 1
gene 1 3 23 -0.356376 0 60 -0.356376 1
gene 1 4 23 0.379034 0 61 0.379034 1
gene 1 5 23 -0.938135 0 62 -0.938135 1
gene 1 6 23 1.06138 0 63 1.06138 1
gene 1 7 23 -0.0306999 0 64 -0.0306999 1
gene 1 8 23 0.0424423 0 65 0.0424423 1
gene 1 9 23 0.228789 0 66 0.228789 1
gene 1 10 23 -0.0939955 0 67 -0.0939955 1
gene 1 11 23 -0.882375 0 68 -0.882375 1
gene 1 12 23 -0.178505 0 69 -0.178505 1
gene 1 13 23 0.242629 0 70 0.242629 1
gene 1 14 23 -0.180336 0 71 -0.180336 1
gene 1 15 23 -0.391998 0 72 -0.391998 1
gene 1 16 23 -0.45323 0 73 -0.45323 1
gene 1 17 23 -0.130266 0 74 -0.130266 1
gene 1 18 23 0.0214042 0 75 0.0214042 1
gene 1 19 23 0.145584 0 76 0.145584 1
gene 1 8 24 0.0340435 0 77 0.0340435 1
gene 1 24 20 0.0710716 0 78 0.0710716 1
gene 1 15 26 0.706594 0 85 0.706594 1
gene 1 26 20 0.243952 0 86 0.243952 1
gene 1 22 20 0.680221 0 87 0.680221 1
gene 1 2 24 -0.0254767 0 91 -0.0254767 1
gene 1 6 24 0.638621 0 96 0.638621 1
gene 1 16 26 0.424309 0 99 0.424309 1
gene 1 13 24 -0.315359 0 100 -0.315359 1
gene 1 10 37 0.593201 0 129 0.593201 1
gene 1 37 20 -0.146579 0 130 -0.146579 1
genomeend 813
genomestart 824
trait 1 0 0.0215558 0 0.0325302 0 0.109417 0 0.143953 
node 1 1 1 1 0
node 2 1 1 1 0
node 3 1 1 1 0
node 4 1 1 1 0
node 5 1 1 1 0
node 6 1 1 1 0
node 7 1 1 1 0
node 8 1 1 1 0
node 9 1 1 1 0
node 10 1 1 1 0
node 11 1 1 1 0
node 12 1 1 1 0
node 13 1 1 1 0
node 14 1 1 1 0
node 15 1 1 1 0
node 16 1 1 1 0
node 17 1 1 1 0
node 18 1 1 1 0
node 19 1 1 3 0
node 20 1 0 2 0
node 21 1 0 2 0
node 22 1 0 2 0
node 23 1 0 2 0
node 24 1 0 0 0
node 26 1 0 0 0
node 32 1 0 0 0
gene 1 1 20 0.147342 0 1 0.147342 1
gene 1 2 20 -0.244585 0 2 -0.244585 1
gene 1 3 20 -0.397732 0 3 -0.397732 1
gene 1 4 20 -0.539311 0 4 -0.539311 1
gene 1 5 20 0.0485521 0 5 0.0485521 1
gene 1 6 20 -0.300936 0 6 -0.300936 1
gene 1 7 20 0.204531 0 7 0.204531 1
gene 1 8 20 0.142786 0 8 0.142786 1
gene 1 9 20 0.189429 0 9 0.189429 1
gene 1 10 20 -0.616816 0 10 -0.616816 1
gene 1 11 20 1.03987 0 11 1.03987 1
gene 1 12 20 0.252562 0 12 0.252562 1
gene 1 13 20 -0.0214015 0 13 -0.0214015 1
gene 1 14 20 0.261974 0 14 0.261974 1
gene 1 15 20 -0.526933 0 15 -0.526933 0
gene 1 16 20 -0.0818236 0 16 -0.0818236 1
gene 1 17 20 0.302999 0 17 0.302999 1
gene 1 18 20 -0.382292 0 18 -0.382292 1
gene 1 19 20 1.23133 0 19 1.23133 1
gene 1 1 21 -0.407293 0 20 -0.407293 1
gene 1 2 21 -0.0248069 0 21 -0.0248069 1
gene 1 3 21 0.930309 0 22 0.930309 1
gene 1 4 21 0.358401 0 23 0.358401 1
gene 1 5 21 0.730186 0 24 0.730186 1
gene 1 6 21 0.437185 0 25 0.437185 1
gene 1 7 21 0.707272 0 26 0.707272 1
gene 1 8 21 -1.16598 0 27 -1.16598 1
gene 1 9 21 -0.782366 0 28 -0.782366 1
gene 1 10 21 2.37114 0 29 2.37114 1
gene 1 11 21 0.30615 0 30 0.30615 1
gene 1 12 21 -0.487433 0 31 -0.487433 1
gene 1 13 21 -0.681033 0 32 -0.681033 0
gene 1 14 21 -0.858235 0 33 -0.858235 1
gene 1 15 21 0.227618 0 34 0.227618 1
gene 1 16 21 0.69415 0 35 0.69415 1
gene 1 17 21 -0.957393 0 36 -0.957393 1
gene 1 18 21 -0.222239 0 37 -0.222239 1
gene 1 19 21 -0.142763 0 38 -0.142763 1
gene 1 1 22 -0.286506 0 39 -0.286506 1
gene 1 2 22 -0.0630564 0 40 -0.0630564 1
gene 1 3 22 0.247687 0 41 0.247687 1
gene 1 4 22 -0.249653 0 42 -0.249653 1
gene 1 5 22 -0.598255 0 43 -0.598255 1
gene 1 6 22 -0.499241 0 44 -0.499241 1
gene 1 7 22 1.43448 0 45 1.43448 1
gene 1 8 22 -0.162055 0 46 -0.162055 1
gene 1 9 22 0.702054 0 47 0.702054 1
gene 1 10 22 1.0075 0 48 1.0075 1
gene 1 11 22 -0.752455 0 49 -0.752455 1
gene 1 12 22 -0.160248 0 50 -0.160248 1
gene 1 13 22 0.421295 0 51 0.421295 1
gene 1 14 22 0.576144 0 52 0.576144 1
gene 1 15 22 0.397665 0 53 0.397665 1
gene 1 16 22 0.674723 0 54 0.674723 1
gene 1 17 22 0.807318 0 55 0.807318 1
gene 1 18 22 -0.315809 0 56 -0.315809 1
gene 1 19 22 -0.412498 0 57 -0.412498 1
gene 1 1 23 -0.365389 0 58 -0.365389 1
gene 1 2 23 -1.27274 0 59 -1.27274 1
gene 1 3 23 -0.0480567 0 60 -0.0480567 1
gene 1 4 23 0.109002 0 61 0.109002 1
gene 1 5 23 1.00975 0 62 1.00975 1
gene 1 6 23 0.852615 0 63 0.852615 1
gene 1 7 23 -0.662967 0 64 -0.662967 1
gene 1 8 23 -0.246391 0 65 -0.246391 1
gene 1 9 23 0.88694 0 66 0.88694 1
gene 1 10 23 0.703559 0 67 0.703559 1
gene 1 11 23 0.101857 0 68 0.101857 1
gene 1 12 23 -0.167357 0 69 -0.167357 1
gene 1 13 23 0.746473 0 70 0.746473 1
gene 1 14 23 0.610013 0 71 0.610013 1
gene 1 15 23 0.23328 0 72 0.23328 1
gene 1 16 23 -0.394619 0 73 -0.394619 1
gene 1 17 23 0.252416 0 74 0.252416 1
gene 1 18 23 0.623292 0 75 0.623292 1
gene 1 19 23 -0.28678 0 76 -0.28678 1
gene 1 8 24 0.593168 0 77 0.593168 1
gene 1 24 20 0.0627709 0 78 0.0627709 1
gene 1 15 26 -0.163068 0 85 -0.163068 1
gene 1 26 20 0.429184 0 86 0.429184 1
gene 1 22 20 0.873828 0 87 0.873828 1
gene 1 2 24 0.501395 0 91 0.501395 1
gene 1 6 24 -0.138371 0 96 -0.138371 1
gene 1 16 26 -0.405581 0 99 -0.405581 1
gene 1 13 24 -0.639002 0 100 -0.639002 1
gene 1 23 24 -0.109004 0 113 -0.109004 1
gene 1 13 32 -0.713709 0 116 -0.713709 1
gene 1 32 21 0.236406 0 117 0.236406 1
genomeend 824
genomestart 836
trait 1 0 0 0.112688 0 0 0.0148439 0 0 
node 1 1 1 1 0
node 2 1 1 1 0
node 3 1 1 1 0
node 4 1 1 1 0
node 5 1 1 1 0
node 6 1 1 1 0
node 7 1 1 1 0
node 8 1 1 1 0
node 9 1 1 1 0
node 10 1 1 1 0
node 11 1 1 1 0
node 12 1 1 1 0
node 13 1 1 1 0
node 14 1 1 1 0
node 15 1 1 1 0
node 16 1 1 1 0
node 17 1 1 1 0
node 18 1 1 1 0
node 19 1 1 3 0
node 20 1 0 2 0
node 21 1 0 2 0
node 22 1 0 2 0
node 23 1 0 2 0
node 24 1 0 0 0
node 26 1 0 0 0
node 37 1 0 0 0
gene 1 1 20 -0.612156 0 1 -0.612156 1
gene 1 2 20 0.0178557 0 2 0.0178557 1
gene 1 3 20 0.439693 0 3 0.439693 1
gene 1 4 20 0.0942282 0 4 0.0942282 1
gene 1 5 20 -0.301174 0 5 -0.301174 1
gene 1 6 20 0.293683 0 6 0.293683 1
gene 1 7 20 -0.784152 0 7 -0.784152 1
gene 1 8 20 -0.609278 0 8 -0.609278 0
gene 1 9 20 -0.0336662 0 9 -0.0336662 1
gene 1 10 20 -0.488597 0 10 -0.488597 0
gene 1 11 20 0.327906 0 11 0.327906 1
gene 1 12 20 -0.33226 0 12 -0.33226 1
gene 1 13 20 -0.270562 0 13 -0.270562 1
gene 1 14 20 0.516925 0 14 0.516925 1
gene 1 15 20 0.20198 0 15 0.20198 0
gene 1 16 20 0.681939 0 16 0.681939 1
gene 1 17 20 -0.0751324 0 17 -0.0751324 1
gene 1 18 20 1.56374 0 18 1.56374 1
gene 1 19 20 1.06554 0 19 1.06554 1
gene 1 1 21 0.962934 0 20 0.962934 1
gene 1 2 21 0.427441 0 21 0.427441 1
gene 1 3 21 1.0731 0 22 1.0731 1
gene 1 4 21 0.544346 0 23 0.544346 1
gene 1 5 21 0.510729 0 24 0.510729 1
gene 1 6 21 -0.282282 0 25 -0.282282 1
gene 1 7 21 -0.597037 0 26 -0.597037 1
gene 1 8 21 -0.817828 0 27 -0.817828 1
gene 1 9 21 -0.987526 0 28 -0.987526 1
gene 1 10 21 1.57232 0 29 1.57232 1
gene 1 11 21 0.10567 0 30 0.10567 1
gene 1 12 21 0.25838 0 31 0.25838 1
gene 1 13 21 0.136248 0 32 0.136248 1
gene 1 14 21 -0.470908 0 33 -0.470908 1
gene 1 15 21 -0.757979 0 34 -0.757979 1
gene 1 16 21 0.761646 0 35 0.761646 1
gene 1 17 21 -0.266569 0 36 -0.266569 1
gene 1 18 21 0.291386 0 37 0.291386 1
gene 1 19 21 0.233561 0 38 0.233561 1
gene 1 1 22 0.514022 0 39 0.514022 1
gene 1 2 22 -0.594418 0 40 -0.594418 1
gene 1 3 22 -0.371283 0 41 -0.371283 1
gene 1 4 22 0.00274994 0 42 0.00274994 1
gene 1 5 22 -0.616237 0 43 -0.616237 1
gene 1 6 22 0.13042 0 44 0.13042 1
gene 1 7 22 1.07428 0 45 1.07428 1
gene 1 8 22 -0.392931 0 46 -0.392931 1
gene 1 9 22 -0.0593248 0 47 -0.0593248 1
gene 1 10 22 0.392169 0 48 0.392169 1
gene 1 11 22 0.349365 0 49 0.349365 1
gene 1 12 22 0.264619 0 50 0.264619 1
gene 1 13 22 0.273414 0 51 0.273414 1
gene 1 14 22 -1.20134 0 52 -1.20134 1
gene 1 15 22 0.0428671 0 53 0.0428671 1
gene 1 16 22 0.525179 0 54 0.525179 1
gene 1 17 22 1.23918 0 55 1.23918 1
gene 1 18 22 0.464937 0 56 0.464937 1
gene 1 19 22 -0.88442 0 57 -0.88442 1
gene 1 1 23 0.404176 0 58 0.404176 1
gene 1 2 23 0.164217 0 59 0.164217 1
gene 1 3 23 0.150916 0 60 0.150916 1
gene 1 4 23 -0.116044 0 61 -0.116044 1
gene 1 5 23 0.256067 0 62 0.256067 1
gene 1 6 23 0.844835 0 63 0.844835 1
gene 1 7 23 -0.336751 0 64 -0.336751 1
gene 1 8 23 -0.0570739 0 65 -0.0570739 1
gene 1 9 23 0.0823489 0 66 0.0823489 1
gene 1 10 23 0.301646 0 67 0.301646 1
gene 1 11 23 -0.511314 0 68 -0.511314 1
gene 1 12 23 0.0670964 0 69 0.0670964 1
gene 1 13 23 0.447373 0 70 0.447373 1
gene 1 14 23 -0.356378 0 71 -0.356378 1
gene 1 15 23 -0.26709 0 72 -0.26709 1
gene 1 16 23 -0.134901 0 73 -0.134901 1
gene 1 17 23 -0.825862 0 74 -0.825862 1
gene 1 18 23 -0.0212477 0 75 -0.0212477 1
gene 1 19 23 0.220517 0 76 0.220517 1
gene 1 8 24 -0.0323655 0 77 -0.0323655 1
gene 1 24 20 0.596302 0 78 0.596302 1
gene 1 15 26 0.779471 0 85 0.779471 1
gene 1 26 20 0.897958 0 86 0.897958 1
gene 1 22 20 0.483063 0 87 0.483063 1
gene 1 2 24 -0.105212 0 91 -0.105212 1
gene 1 6 24 0.323847 0 96 0.323847 1
gene 1 10 37 1 0 129 0 1
gene 1 37 20 -0.146579 0 130 0 1
gene 1 24 37 0.98799 0 140 0.98799 1
genomeend 836
genomestart 855
trait 1 0 0.0107779 0.183118 0.021348 0 0.0959263 0 0.0719763 
node 1 1 1 1 0
node 2 1 1 1 0
node 3 1 1 1 0
node 4 1 1 1 0
node 5 1 1 1 0
node 6 1 1 1 0
node 7 1 1 1 0
node 8 1 1 1 0
node 9 1 1 1 0
node 10 1 1 1 0
node 11 1 1 1 0
node 12 1 1 1 0
node 13 1 1 1 0
node 14 1 1 1 0
node 15 1 1 1 0
node 16 1 1 1 0
node 17 1 1 1 0
node 18 1 1 1 0
node 19 1 1 3 0
node 20 1 0 2 0
node 21 1 0 2 0
node 22 1 0 2 0
node 23 1 0 2 0
node 24 1 0 0 0
node 26 1 0 0 0
node 32 1 0 0 0
node 37 1 0 0 0
gene 1 1 20 -0.43775 0 1 -0.43775 1
gene 1 2 20 -0.0163026 0 2 -0.0163026 1
gene 1 3 20 0.644754 0 3 0.644754 1
gene 1 4 20 -0.564867 0 4 -0.564867 1
gene 1 5 20 -0.367211 0 5 -0.367211 1
gene 1 6 20 0.0716498 0 6 0.0716498 1
gene 1 7 20 -0.146207 0 7 -0.146207 1
gene 1 8 20 -0.862551 0 8 -0.862551 0
gene 1 9 20 -0.507563 0 9 -0.507563 1
gene 1 10 20 -0.761204 0 10 -0.761204 0
gene 1 11 20 0.714233 0 11 0.714233 1
gene 1 12 20 -0.220424 0 12 -0.220424 1
gene 1 13 20 -0.586384 0 13 -0.586384 1
gene 1 14 20 -0.575558 0 14 -0.575558 1
gene 1 15 20 0.169341 0 15 0.169341 0
gene 1 16 20 0.651268 0 16 0.651268 1
gene 1 17 20 0.699331 0 17 0.699331 1
gene 1 18 20 1.57342 0 18 1.57342 1
gene 1 19 20 0.76996 0 19 0.76996 1
gene 1 1 21 -0.522791 0 20 -0.522791 1
gene 1 2 21 -0.607461 0 21 -0.607461 1
gene 1 3 21 0.146694 0 22 0.146694 1
gene 1 4 21 0.374821 0 23 0.374821 1
gene 1 5 21 1.38475 0 24 1.38475 1
gene 1 6 21 0.263351 0 25 0.263351 1
gene 1 7 21 0.314856 0 26 0.314856 1
gene 1 8 21 -0.887263 0 27 -0.887263 1
gene 1 9 21 -1.21163 0 28 -1.21163 1
gene 1 10 21 1.76728 0 29 1.76728 1
gene 1 11 21 0.420567 0 30 0.420567 1
gene 1 12 21 -0.627878 0 31 -0.627878 1
gene 1 13 21 -0.229195 0 32 -0.229195 0
gene 1 14 21 -0.898197 0 33 -0.898197 1
gene 1 15 21 -0.851343 0 34 -0.851343 1
gene 1 16 21 0.205419 0 35 0.205419 1
gene 1 17 21 -0.395538 0 36 -0.395538 1
gene 1 18 21 0.100362 0 37 0.100362 1
gene 1 19 21 0.369429 0 38 0.369429 1
gene 1 1 22 0.334354 0 39 0.334354 1
gene 1 2 22 -0.223718 0 40 -0.223718 1
gene 1 3 22 0.313683 0 41 0.313683 1
gene 1 4 22 -0.410587 0 42 -0.410587 1
gene 1 5 22 -0.0702343 0 43 -0.0702343 1
gene 1 6 22 -0.0886045 0 44 -0.0886045 1
gene 1 7 22 0.125886 0 45 0.125886 1
gene 1 8 22 -0.872903 0 46 -0.872903 1
gene 1 9 22 0.0213348 0 47 0.0213348 1
gene 1 10 22 0.775365 0 48 0.775365 1
gene 1 11 22 -1.09163 0 49 -1.09163 1
gene 1 12 22 0.643026 0 50 0.643026 1
gene 1 13 22 -0.605328 0 51 -0.605328 1
gene 1 14 22 -0.873608 0 52 -0.873608 1
gene 1 15 22 -0.461743 0 53 -0.461743 1
gene 1 16 22 -0.148975 0 54 -0.148975 1
gene 1 17 22 1.20512 0 55 1.20512 1
gene 1 18 22 0.461541 0 56 0.461541 1
gene 1 19 22 -0.970417 0 57 -0.970417 1
gene 1 1 23 0.418026 0 58 0.418026 1
gene 1 2 23 -1.00066 0 59 -1.00066 1
gene 1 3 23 -0.252182 0 60 -0.252182 1
gene 1 4 23 -0.289198 0 61 -0.289198 1
gene 1 5 23 0.12038 0 62 0.12038 1
gene 1 6 23 1.50533 0 63 1.50533 1
gene 1 7 23 -0.0516397 0 64 -0.0516397 1
gene 1 8 23 -0.483076 0 65 -0.483076 1
gene 1 9 23 -0.210689 0 66 -0.210689 1
gene 1 10 23 1.03182 0 67 1.03182 1
gene 1 11 23 -0.293398 0 68 -0.293398 1
gene 1 12 23 -0.17719 0 69 -0.17719 1
gene 1 13 23 0.26243 0 70 0.26243 1
gene 1 14 23 -0.121201 0 71 -0.121201 1
gene 1 15 23 -0.19341 0 72 -0.19341 1
gene 1 16 23 -0.310085 0 73 -0.310085 1
gene 1 17 23 -0.296939 0 74 -0.296939 1
gene 1 18 23 0.0802657 0 75 0.0802657 1
gene 1 19 23 -0.202598 0 76 -0.202598 1
gene 1 8 24 0.327227 0 77 0.327227 1
gene 1 24 20 -0.244117 0 78 -0.244117 1
gene 1 15 26 0.188264 0 85 0.188264 1
gene 1 26 20 0.434304 0 86 0.434304 1
gene 1 22 20 0.528773 0 87 0.528773 1
gene 1 2 24 0.018186 0 91 0.018186 1
gene 1 6 24 0.40386 0 96 0.40386 1
gene 1 16 26 0.0965964 0 99 0.0965964 1
gene 1 13 24 -0.494375 0 100 -0.494375 1
gene 1 23 24 -0.356447 0 113 -0.356447 1
gene 1 13 32 -0.162061 0 116 -0.162061 1
gene 1 32 21 -0.478516 0 117 -0.478516 1
gene 1 10 37 0.799404 0 129 0.799404 1
gene 1 37 20 0.230994 0 130 0.230994 1
genomeend 855
genomestart 856
trait 1 0 0.17484 0.263731 0.00609942 0.194466 0.0502036 0 0 
node 1 1 1 1 0
node 2 1 1 1 0
node 3 1 1 1 0
node 4 1 1 1 0
node 5 1 1 1 0
node 6 1 1 1 0
node 7 1 1 1 0
node 8 1 1 1 0
node 9 1 1 1 0
node 10 1 1 1 0
node 11 1 1 1 0
node 12 1 1 1 0
node 13 1 1 1 0
node 14 1 1 1 0
node 15 1 1 1 0
node 16 1 1 1 0
node 17 1 1 1 0
node 18 1 1 1 0
node 19 1 1 3 0
node 20 1 0 2 0
node 21 1 0 2 0
node 22 1 0 2 0
node 23 1 0 2 0
node 24 1 0 0 0
node 26 1 0 0 0
node 34 1 0 0 0
node 36 1 0 0 0
node 37 1 0 0 0
gene 1 1 20 -0.202049 0 1 -0.202049 1
gene 1 2 20 0.0377859 0 2 0.0377859 1
gene 1 3 20 0.834486 0 3 0.834486 1
gene 1 4 20 0.0343973 0 4 0.0343973 1
gene 1 5 20 0.0532914 0 5 0.0532914 1
gene 1 6 20 0.0120737 0 6 0.0120737 1
gene 1 7 20 -0.410839 0 7 -0.410839 1
gene 1 8 20 -0.51859 0 8 -0.51859 0
gene 1 9 20 -0.456812 0 9 -0.456812 0
gene 1 10 20 -0.428893 0 10 -0.428893 1
gene 1 11 20 0.335552 0 11 0.335552 1
gene 1 12 20 0.18584 0 12 0.18584 1
gene 1 13 20 -0.458557 0 13 -0.458557 1
gene 1 14 20 -0.753421 0 14 -0.753421 1
gene 1 15 20 0.599013 0 15 0.599013 0
gene 1 16 20 0.774402 0 16 0.774402 1
gene 1 17 20 -1.07406 0 17 -1.07406 1
gene 1 18 20 2.38754 0 18 2.38754 1
gene 1 19 20 0.715526 0 19 0.715526 1
gene 1 1 21 1.34718 0 20 1.34718 1
gene 1 2 21 -0.115141 0 21 -0.115141 1
gene 1 3 21 0.384293 0 22 0.384293 1
gene 1 4 21 0.597127 0 23 0.597127 1
gene 1 5 21 0.734357 0 24 0.734357 1
gene 1 6 21 -0.0649105 0 25 -0.0649105 1
gene 1 7 21 -1.62449 0 26 -1.62449 1
gene 1 8 21 -0.902047 0 27 -0.902047 1
gene 1 9 21 -1.1196 0 28 -1.1196 1
gene 1 10 21 1.941 0 29 1.941 1
gene 1 11 21 0.293953 0 30 0.293953 1
gene 1 12 21 -0.48274 0 31 -0.48274 1
gene 1 13 21 0.201209 0 32 0.201209 1
gene 1 14 21 -0.0707092 0 33 -0.0707092 1
gene 1 15 21 -0.816118 0 34 -0.816118 1
gene 1 16 21 0.145969 0 35 0.145969 1
gene 1 17 21 0.164057 0 36 0.164057 1
gene 1 18 21 0.965095 0 37 0.965095 1
gene 1 19 21 0.0838542 0 38 0.0838542 1
gene 1 1 22 0.120417 0 39 0.120417 1
gene 1 2 22 0.163912 0 40 0.163912 1
gene 1 3 22 -0.309346 0 41 -0.309346 1
gene 1 4 22 -0.562669 0 42 -0.562669 1
gene 1 5 22 -0.499934 0 43 -0.499934 1
gene 1 6 22 0.643432 0 44 0.643432 1
gene 1 7 22 -1.24899 0 45 -1.24899 1
gene 1 8 22 -0.405968 0 46 -0.405968 1
gene 1 9 22 -0.576271 0 47 -0.576271 1
gene 1 10 22 1.20665 0 48 1.20665 1
gene 1 11 22 -1.4545 0 49 -1.4545 1
gene 1 12 22 0.148394 0 50 0.148394 1
gene 1 13 22 -0.623661 0 51 -0.623661 1
gene 1 14 22 0.207029 0 52 0.207029 1
gene 1 15 22 -0.338897 0 53 -0.338897 1
gene 1 16 22 -0.0578599 0 54 -0.0578599 1
gene 1 17 22 2.06105 0 55 2.06105 1
gene 1 18 22 1.2904 0 56 1.2904 1
gene 1 19 22 0.392004 0 57 0.392004 1
gene 1 1 23 -0.223133 0 58 -0.223133 1
gene 1 2 23 -0.279877 0 59 -0.279877 1
gene 1 3 23 0.597534 0 60 0.597534 1
gene 1 4 23 0.100628 0 61 0.100628 1
gene 1 5 23 -0.370615 0 62 -0.370615 1
gene 1 6 23 0.0786543 0 63 0.0786543 1
gene 1 7 23 0.298652 0 64 0.298652 1
gene 1 8 23 0.245995 0 65 0.245995 1
gene 1 9 23 0.458026 0 66 0.458026 1
gene 1 10 23 0.0461858 0 67 0.0461858 1
gene 1 11 23 0.278625 0 68 0.278625 1
gene 1 12 23 0.466851 0 69 0.466851 1
gene 1 13 23 0.434234 0 70 0.434234 1
gene 1 14 23 -0.708641 0 71 -0.708641 1
gene 1 15 23 0.626129 0 72 0.626129 1
gene 1 16 23 -0.434493 0 73 -0.434493 1
gene 1 17 23 -0.960956 0 74 -0.960956 1
gene 1 18 23 -0.164444 0 75 -0.164444 1
gene 1 19 23 -0.0309678 0 76 -0.0309678 1
gene 1 8 24 0.38455 0 77 0.38455 1
gene 1 24 20 -0.352738 0 78 -0.352738 1
gene 1 15 26 0.343742 0 85 0.343742 1
gene 1 26 20 1.40296 0 86 1.40296 1
gene 1 22 20 0.602065 0 87 0.602065 1
gene 1 2 24 0.335021 0 91 0.335021 1
gene 1 6 24 0.403676 0 96 0.403676 1
gene 1 16 26 0.211077 0 99 0.211077 1
gene 1 13 24 0.490748 0 100 0.490748 1
gene 1 11 34 0.644078 0 122 0.644078 1
gene 1 34 21 -0.433743 0 123 -0.433743 1
gene 1 9 36 -0.446025 0 127 -0.446025 1
gene 1 36 20 0.261492 0 128 0.261492 1
gene 1 10 37 0.292557 0 129 0.292557 1
gene 1 37 20 -0.623457 0 130 -0.623457 1
genomeend 856
genomestart 859
trait 1 0 0 0 0 0 0 0 0 
node 1 1 1 1 0
node 2 1 1 1 0
node 3 1 1 1 0
node 4 1 1 1 0
node 5 1 1 1 0
node 6 1 1 1 0
node 7 1 1 1 0
node 8 1 1 1 0
node 9 1 1 1 0
node 10 1 1 1 0
node 11 1 1 1 0
node 12 1 1 1 0
node 13 1 1 1 0
node 14 1 1 1 0
node 15 1 1 1 0
node 16 1 1 1 0
node 17 1 1 1 0
node 18 1 1 1 0
node 19 1 1 3 0
node 20 1 0 2 0
node 21 1 0 2 0
node 22 1 0 2 0
node 23 1 0 2 0
node 24 1 0 0 0
node 32 1 0 0 0
node 39 1 0 0 0
gene 1 1 20 -1.78326 0 1 -1.78326 1
gene 1 2 20 0.792451 0 2 0.792451 1
gene 1 3 20 1.44828 0 3 1.44828 1
gene 1 4 20 -0.0450329 0 4 -0.0450329 1
gene 1 5 20 0.262108 0 5 0.262108 1
gene 1 6 20 -0.234546 0 6 -0.234546 1
gene 1 7 20 -0.863814 0 7 -0.863814 1
gene 1 8 20 0.583789 0 8 0.583789 1
gene 1 9 20 0.778506 0 9 0.778506 1
gene 1 10 20 -0.762827 0 10 -0.762827 1
gene 1 11 20 1.2778 0 11 1.2778 1
gene 1 12 20 0.92257 0 12 0.92257 1
gene 1 13 20 0.253754 0 13 0.253754 1
gene 1 14 20 0.917535 0 14 0.917535 1
gene 1 15 20 0.94177 0 15 0.94177 1
gene 1 16 20 0.734978 0 16 0.734978 1
gene 1 17 20 -0.249459 0 17 -0.249459 1
gene 1 18 20 1.59188 0 18 1.59188 1
gene 1 19 20 0.668971 0 19 0.668971 1
gene 1 1 21 1.04067 0 20 1.04067 1
gene 1 2 21 0.183303 0 21 0.183303 1
gene 1 3 21 0.676798 0 22 0.676798 1
gene 1 4 21 0.98222 0 23 0.98222 1
gene 1 5 21 0.506886 0 24 0.506886 1
gene 1 6 21 0.836028 0 25 0.836028 1
gene 1 7 21 1.16183 0 26 1.16183 1
gene 1 8 21 -1.12356 0 27 -1.12356 1
gene 1 9 21 -0.765368 0 28 -0.765368 1
gene 1 10 21 2.93102 0 29 2.93102 1
gene 1 11 21 -0.133943 0 30 -0.133943 1
gene 1 12 21 -0.584592 0 31 -0.584592 1
gene 1 13 21 -0.563032 0 32 -0.563032 0
gene 1 14 21 -0.822077 0 33 -0.822077 1
gene 1 15 21 0.912849 0 34 0.912849 1
gene 1 16 21 0.994882 0 35 0.994882 1
gene 1 17 21 -0.947846 0 36 -0.947846 1
gene 1 18 21 0.19996 0 37 0.19996 1
gene 1 19 21 0.296297 0 38 0.296297 1
gene 1 1 22 1.73387 0 39 1.73387 1
gene 1 2 22 -1.11867 0 40 -1.11867 1
gene 1 3 22 0.101087 0 41 0.101087 1
gene 1 4 22 0.0558179 0 42 0.0558179 1
gene 1 5 22 -0.0365724 0 43 -0.0365724 1
gene 1 6 22 0.390034 0 44 0.390034 1
gene 1 7 22 0.787915 0 45 0.787915 1
gene 1 8 22 -0.433467 0 46 -0.433467 1
gene 1 9 22 0.0219348 0 47 0.0219348 1
gene 1 10 22 1.37361 0 48 1.37361 1
gene 1 11 22 -0.165996 0 49 -0.165996 1
gene 1 12 22 1.43428 0 50 1.43428 1
gene 1 13 22 -0.0444484 0 51 -0.0444484 1
gene 1 14 22 0.050281 0 52 0.050281 1
gene 1 15 22 -0.659786 0 53 -0.659786 1
gene 1 16 22 1.83713 0 54 1.83713 1
gene 1 17 22 0.142727 0 55 0.142727 1
gene 1 18 22 -0.230549 0 56 -0.230549 1
gene 1 19 22 -0.790292 0 57 -0.790292 1
gene 1 1 23 -0.153652 0 58 -0.153652 1
gene 1 2 23 -0.794386 0 59 -0.794386 1
gene 1 3 23 0.412726 0 60 0.412726 1
gene 1 4 23 -0.104793 0 61 -0.104793 1
gene 1 5 23 -0.0417004 0 62 -0.0417004 1
gene 1 6 23 1.32496 0 63 1.32496 1
gene 1 7 23 0.0636552 0 64 0.0636552 1
gene 1 8 23 0.287706 0 65 0.287706 1
gene 1 9 23 0.13713 0 66 0.13713 1
gene 1 10 23 -0.357147 0 67 -0.357147 1
gene 1 11 23 -0.478845 0 68 -0.478845 1
gene 1 12 23 0.380725 0 69 0.380725 1
gene 1 13 23 0.301604 0 70 0.301604 1
gene 1 14 23 -0.194826 0 71 -0.194826 1
gene 1 15 23 0.424582 0 72 0.424582 1
gene 1 16 23 -0.455451 0 73 -0.455451 1
gene 1 17 23 0.204775 0 74 0.204775 1
gene 1 18 23 0.0306145 0 75 0.0306145 1
gene 1 19 23 0.145156 0 76 0.145156 1
gene 1 8 24 -0.248899 0 77 -0.248899 1
gene 1 24 20 0.222527 0 78 0.222527 1
gene 1 22 20 0.733151 0 87 0.733151 1
gene 1 2 24 -0.320139 0 91 -0.320139 1
gene 1 6 24 -0.294691 0 96 -0.294691 1
gene 1 23 24 0.727698 0 113 0.727698 1
gene 1 13 32 0.51291 0 116 0.51291 1
gene 1 32 21 -0.000866912 0 117 -0.000866912 1
gene 1 17 39 0.740254 0 134 0.740254 1
gene 1 39 23 -0.156212 0 135 -0.156212 1
genomeend 859
genomestart 860
trait 1 0 0 0.450751 0 0 0.0593757 0 0 
node 1 1 1 1 0
node 2 1 1 1 0
node 3 1 1 1 0
node 4 1 1 1 0
node 5 1 1 1 0
node 6 1 1 1 0
node 7 1 1 1 0
node 8 1 1 1 0
node 9 1 1 1 0
node 10 1 1 1 0
node 11 1 1 1 0
node 12 1 1 1 0
node 13 1 1 1 0
node 14 1 1 1 0
node 15 1 1 1 0
node 16 1 1 1 0
node 17 1 1 1 0
node 18 1 1 1 0
node 19 1 1 3 0
node 20 1 0 2 0
node 21 1 0 2 0
node 22 1 0 2 0
node 23 1 0 2 0
node 24 1 0 0 0
node 26 1 0 0 0
node 37 1 0 0 0
gene 1 1 20 0.472966 0 1 0.472966 1
gene 1 2 20 -0.363045 0 2 -0.363045 1
gene 1 3 20 0.318498 0 3 0.318498 1
gene 1 4 20 0.170543 0 4 0.170543 1
gene 1 5 20 -0.745126 0 5 -0.745126 1
gene 1 6 20 0.666659 0 6 0.666659 1
gene 1 7 20 -0.739738 0 7 -0.739738 1
gene 1 8 20 -0.697556 0 8 -0.697556 0
gene 1 9 20 -0.694462 0 9 -0.694462 1
gene 1 10 20 -0.969548 0 10 -0.969548 0
gene 1 11 20 0.631739 0 11 0.631739 1
gene 1 12 20 -0.502778 0 12 -0.502778 1
gene 1 13 20 -0.409159 0 13 -0.409159 1
gene 1 14 20 -0.188307 0 14 -0.188307 1
gene 1 15 20 1.09328 0 15 1.09328 0
gene 1 16 20 0.616641 0 16 0.616641 1
gene 1 17 20 0.770119 0 17 0.770119 1
gene 1 18 20 1.67087 0 18 1.67087 1
gene 1 19 20 1.19332 0 19 1.19332 1
gene 1 1 21 -0.100344 0 20 -0.100344 1
gene 1 2 21 -0.764488 0 21 -0.764488 1
gene 1 3 21 1.34871 0 22 1.34871 1
gene 1 4 21 0.512672 0 23 0.512672 1
gene 1 5 21 0.919824 0 24 0.919824 1
gene 1 6 21 -0.0700559 0 25 -0.0700559 1
gene 1 7 21 -0.464401 0 26 -0.464401 1
gene 1 8 21 -1.18126 0 27 -1.18126 1
gene 1 9 21 -2.23195 0 28 -2.23195 1
gene 1 10 21 0.819419 0 29 0.819419 1
gene 1 11 21 -0.392196 0 30 -0.392196 1
gene 1 12 21 0.304165 0 31 0.304165 1
gene 1 13 21 -0.746718 0 32 -0.746718 1
gene 1 14 21 -0.317765 0 33 -0.317765 1
gene 1 15 21 -0.140523 0 34 -0.140523 1
gene 1 16 21 0.336537 0 35 0.336537 1
gene 1 17 21 -0.489525 0 36 -0.489525 1
gene 1 18 21 -0.0354501 0 37 -0.0354501 1
gene 1 19 21 0.181024 0 38 0.181024 1
gene 1 1 22 0.801154 0 39 0.801154 1
gene 1 2 22 -0.277861 0 40 -0.277861 1
gene 1 3 22 -0.842585 0 41 -0.842585 1
gene 1 4 22 -0.0094913 0 42 -0.0094913 1
gene 1 5 22 -0.0921203 0 43 -0.0921203 1
gene 1 6 22 0.608125 0 44 0.608125 1
gene 1 7 22 -0.740119 0 45 -0.740119 1
gene 1 8 22 -0.700917 0 46 -0.700917 1
gene 1 9 22 -0.769198 0 47 -0.769198 1
gene 1 10 22 -0.0171754 0 48 -0.0171754 1
gene 1 11 22 -1.40771 0 49 -1.40771 1
gene 1 12 22 0.474369 0 50 0.474369 1
gene 1 13 22 0.174313 0 51 0.174313 1
gene 1 14 22 -0.446515 0 52 -0.446515 1
gene 1 15 22 0.262252 0 53 0.262252 1
gene 1 16 22 0.252429 0 54 0.252429 1
gene 1 17 22 1.19871 0 55 1.19871 1
gene 1 18 22 0.276119 0 56 0.276119 1
gene 1 19 22 0.0946017 0 57 0.0946017 1
gene 1 1 23 0.623716 0 58 0.623716 1
gene 1 2 23 -0.777586 0 59 -0.777586 1
gene 1 3 23 0.11853 0 60 0.11853 1
gene 1 4 23 0.137196 0 61 0.137196 1
gene 1 5 23 0.263644 0 62 0.263644 1
gene 1 6 23 0.593965 0 63 0.593965 1
gene 1 7 23 0.151644 0 64 0.151644 1
gene 1 8 23 -0.346359 0 65 -0.346359 1
gene 1 9 23 0.277518 0 66 0.277518 1
gene 1 10 23 0.337052 0 67 0.337052 1
gene 1 11 23 -0.760218 0 68 -0.760218 1
gene 1 12 23 0.375403 0 69 0.375403 1
gene 1 13 23 -0.096184 0 70 -0.096184 1
gene 1 14 23 0.0178165 0 71 0.0178165 1
gene 1 15 23 0.212658 0 72 0.212658 1
gene 1 16 23 -0.346105 0 73 -0.346105 1
gene 1 17 23 -0.362506 0 74 -0.362506 1
gene 1 18 23 -0.0113542 0 75 -0.0113542 1
gene 1 19 23 -0.0436356 0 76 -0.0436356 1
gene 1 8 24 0.380453 0 77 0.380453 1
gene 1 24 20 0.11355 0 78 0.11355 1
gene 1 15 26 0.472139 0 85 0.472139 1
gene 1 26 20 0.100435 0 86 0.100435 1
gene 1 22 20 0.483063 0 87 0.483063 1
gene 1 2 24 0.0638796 0 91 0.0638796 1
gene 1 6 24 -0.0147103 0 96 -0.0147103 1
gene 1 10 37 -0.481992 0 129 -0.481992 1
gene 1 37 20 -0.49227 0 130 -0.49227 1
gene 1 24 37 0.81994 0 140 0.81994 1
genomeend 860
genomestart 864
trait 1 0 0.699358 0.153422 0 0.670232 0 0 0 
node 1 1 1 1 0
node 2 1 1 1 0
node 3 1 1 1 0
node 4 1 1 1 0
node 5 1 1 1 0
node 6 1 1 1 0
node 7 1 1 1 0
node 8 1 1 1 0
node 9 1 1 1 0
node 10 1 1 1 0
node 11 1 1 1 0
node 12 1 1 1 0
node 13 1 1 1 0
node 14 1 1 1 0
node 15 1 1 1 0
node 16 1 1 1 0
node 17 1 1 1 0
node 18 1 1 1 0
node 19 1 1 3 0
node 20 1 0 2 0
node 21 1 0 2 0
node 22 1 0 2 0
node 23 1 0 2 0
node 24 1 0 0 0
node 26 1 0 0 0
node 34 1 0 0 0
gene 1 1 20 -0.587682 0 1 -0.587682 1
gene 1 2 20 0.0178557 0 2 0.0178557 1
gene 1 3 20 0.493498 0 3 0.493498 1
gene 1 4 20 -0.454493 0 4 -0.454493 1
gene 1 5 20 0.830758 0 5 0.830758 1
gene 1 6 20 -0.820347 0 6 -0.820347 1
gene 1 7 20 -0.909912 0 7 -0.909912 1
gene 1 8 20 -0.609278 0 8 -0.609278 0
gene 1 9 20 -0.0336662 0 9 -0.0336662 1
gene 1 10 20 -1.06107 0 10 -1.06107 1
gene 1 11 20 0.327906 0 11 0.327906 1
gene 1 12 20 -0.196406 0 12 -0.196406 1
gene 1 13 20 -0.270562 0 13 -0.270562 1
gene 1 14 20 0.0975047 0 14 0.0975047 1
gene 1 15 20 0.0531712 0 15 0.0531712 0
gene 1 16 20 0.450006 0 16 0.450006 1
gene 1 17 20 0.0672092 0 17 0.0672092 1
gene 1 18 20 0.327945 0 18 0.327945 1
gene 1 19 20 1.46644 0 19 1.46644 1
gene 1 1 21 1.54986 0 20 1.54986 1
gene 1 2 21 0.427441 0 21 0.427441 1
gene 1 3 21 1.21723 0 22 1.21723 1
gene 1 4 21 -0.0762524 0 23 -0.0762524 1
gene 1 5 21 -0.0132959 0 24 -0.0132959 1
gene 1 6 21 0.0357629 0 25 0.0357629 1
gene 1 7 21 -0.705934 0 26 -0.705934 1
gene 1 8 21 -0.817828 0 27 -0.817828 1
gene 1 9 21 -0.987526 0 28 -0.987526 1
gene 1 10 21 0.662279 0 29 0.662279 1
gene 1 11 21 0.10567 0 30 0.10567 0
gene 1 12 21 -1.2875 0 31 -1.2875 1
gene 1 13 21 -0.658159 0 32 -0.658159 1
gene 1 14 21 -0.470908 0 33 -0.470908 1
gene 1 15 21 -0.757979 0 34 -0.757979 1
gene 1 16 21 0.215295 0 35 0.215295 1
gene 1 17 21 0.185667 0 36 0.185667 1
gene 1 18 21 0.476574 0 37 0.476574 1
gene 1 19 21 0.233561 0 38 0.233561 1
gene 1 1 22 0.960414 0 39 0.960414 1
gene 1 2 22 -0.826131 0 40 -0.826131 1
gene 1 3 22 -0.196294 0 41 -0.196294 1
gene 1 4 22 0.447856 0 42 0.447856 1
gene 1 5 22 -0.7746 0 43 -0.7746 1
gene 1 6 22 -0.0555759 0 44 -0.0555759 1
gene 1 7 22 -0.00120906 0 45 -0.00120906 1
gene 1 8 22 -1.2709 0 46 -1.2709 1
gene 1 9 22 -0.0593248 0 47 -0.0593248 1
gene 1 10 22 0.392169 0 48 0.392169 1
gene 1 11 22 -0.714096 0 49 -0.714096 1
gene 1 12 22 0.54742 0 50 0.54742 1
gene 1 13 22 0.273414 0 51 0.273414 1
gene 1 14 22 -1.44467 0 52 -1.44467 1
gene 1 15 22 0.43469 0 53 0.43469 1
gene 1 16 22 -0.334785 0 54 -0.334785 1
gene 1 17 22 1.23918 0 55 1.23918 1
gene 1 18 22 -0.984669 0 56 -0.984669 1
gene 1 19 22 0.103957 0 57 0.103957 1
gene 1 1 23 0.404176 0 58 0.404176 1
gene 1 2 23 0.610234 0 59 0.610234 1
gene 1 3 23 0.323078 0 60 0.323078 1
gene 1 4 23 -0.131247 0 61 -0.131247 1
gene 1 5 23 0.256067 0 62 0.256067 1
gene 1 6 23 0.420304 0 63 0.420304 1
gene 1 7 23 -0.336751 0 64 -0.336751 1
gene 1 8 23 0.174069 0 65 0.174069 1
gene 1 9 23 -0.0499748 0 66 -0.0499748 1
gene 1 10 23 -0.447426 0 67 -0.447426 1
gene 1 11 23 0.433339 0 68 0.433339 1
gene 1 12 23 -0.596501 0 69 -0.596501 1
gene 1 13 23 0.447373 0 70 0.447373 1
gene 1 14 23 -0.459644 0 71 -0.459644 1
gene 1 15 23 -0.426579 0 72 -0.426579 1
gene 1 16 23 0.325226 0 73 0.325226 1
gene 1 17 23 -0.825862 0 74 -0.825862 1
gene 1 18 23 -0.0212477 0 75 -0.0212477 1
gene 1 19 23 0.43353 0 76 0.43353 1
gene 1 8 24 -0.0377818 0 77 -0.0377818 1
gene 1 24 20 -0.185583 0 78 -0.185583 1
gene 1 15 26 1.09811 0 85 1.09811 1
gene 1 26 20 -0.229185 0 86 -0.229185 1
gene 1 2 24 0.144536 0 91 0.144536 1
gene 1 11 34 1 0 122 0 1
gene 1 34 21 0.0317009 0 123 0.0317009 1
genomeend 864
genomestart 866
trait 1 0 0.0107779 0 0.0162651 0 0.0547086 0 0.0719763 
node 1 1 1 1 0
node 2 1 1 1 0
node 3 1 1 1 0
node 4 1 1 1 0
node 5 1 1 1 0
node 6 1 1 1 0
node 7 1 1 1 0
node 8 1 1 1 0
node 9 1 1 1 0
node 10 1 1 1 0
node 11 1 1 1 0
node 12 1 1 1 0
node 13 1 1 1 0
node 14 1 1 1 0
node 15 1 1 1 0
node 16 1 1 1 0
node 17 1 1 1 0
node 18 1 1 1 0
node 19 1 1 3 0
node 20 1 0 2 0
node 21 1 0 2 0
node 22 1 0 2 0
node 23 1 0 2 0
node 24 1 0 0 0
node 26 1 0 0 0
node 32 1 0 0 0
gene 1 1 20 -1.45384 0 1 -1.45384 1
gene 1 2 20 0.229704 0 2 0.229704 1
gene 1 3 20 0.590041 0 3 0.590041 1
gene 1 4 20 -0.554531 0 4 -0.554531 1
gene 1 5 20 0.227914 0 5 0.227914 1
gene 1 6 20 0.115905 0 6 0.115905 1
gene 1 7 20 0.0634717 0 7 0.0634717 1
gene 1 8 20 0.416296 0 8 0.416296 1
gene 1 9 20 -0.0774673 0 9 -0.0774673 1
gene 1 10 20 -0.36136 0 10 -0.36136 1
gene 1 11 20 0.177092 0 11 0.177092 1
gene 1 12 20 0.366644 0 12 0.366644 1
gene 1 13 20 0.0947542 0 13 0.0947542 1
gene 1 14 20 0.848722 0 14 0.848722 1
gene 1 15 20 0.0936503 0 15 0.0936503 0
gene 1 16 20 -0.468304 0 16 -0.468304 1
gene 1 17 20 0.477756 0 17 0.477756 1
gene 1 18 20 -0.56881 0 18 -0.56881 1
gene 1 19 20 0.837848 0 19 0.837848 1
gene 1 1 21 0.955681 0 20 0.955681 1
gene 1 2 21 -0.516643 0 21 -0.516643 1
gene 1 3 21 0.944727 0 22 0.944727 1
gene 1 4 21 -0.00878114 0 23 -0.00878114 1
gene 1 5 21 0.794103 0 24 0.794103 1
gene 1 6 21 0.485264 0 25 0.485264 1
gene 1 7 21 0.533086 0 26 0.533086 1
gene 1 8 21 -1.17055 0 27 -1.17055 1
gene 1 9 21 -0.938264 0 28 -0.938264 1
gene 1 10 21 1.464 0 29 1.464 1
gene 1 11 21 -0.0927967 0 30 -0.0927967 1
gene 1 12 21 -0.935764 0 31 -0.935764 1
gene 1 13 21 0.247324 0 32 0.247324 0
gene 1 14 21 -0.802372 0 33 -0.802372 1
gene 1 15 21 -0.390601 0 34 -0.390601 1
gene 1 16 21 0.848999 0 35 0.848999 1
gene 1 17 21 -1.4563 0 36 -1.4563 1
gene 1 18 21 -0.0902225 0 37 -0.0902225 1
gene 1 19 21 0.275216 0 38 0.275216 1
gene 1 1 22 -0.425259 0 39 -0.425259 1
gene 1 2 22 -0.449709 0 40 -0.449709 1
gene 1 3 22 -0.604806 0 41 -0.604806 1
gene 1 4 22 -0.319694 0 42 -0.319694 1
gene 1 5 22 -0.947771 0 43 -0.947771 1
gene 1 6 22 0.174125 0 44 0.174125 1
gene 1 7 22 1.465 0 45 1.465 1
gene 1 8 22 -0.0570276 0 46 -0.0570276 1
gene 1 9 22 0.379272 0 47 0.379272 1
gene 1 10 22 0.816914 0 48 0.816914 1
gene 1 11 22 -0.122498 0 49 -0.122498 1
gene 1 12 22 -0.615229 0 50 -0.615229 1
gene 1 13 22 0.729746 0 51 0.729746 1
gene 1 14 22 0.567923 0 52 0.567923 1
gene 1 15 22 0.480957 0 53 0.480957 1
gene 1 16 22 1.17391 0 54 1.17391 1
gene 1 17 22 1.15954 0 55 1.15954 1
gene 1 18 22 0.640018 0 56 0.640018 1
gene 1 19 22 -0.412323 0 57 -0.412323 1
gene 1 1 23 0.901567 0 58 0.901567 1
gene 1 2 23 0.703406 0 59 0.703406 1
gene 1 3 23 0.0784896 0 60 0.0784896 1
gene 1 4 23 0.345781 0 61 0.345781 1
gene 1 5 23 0.229185 0 62 0.229185 1
gene 1 6 23 1.03906 0 63 1.03906 1
gene 1 7 23 -1.00225 0 64 -1.00225 1
gene 1 8 23 -0.702187 0 65 -0.702187 1
gene 1 9 23 -0.117953 0 66 -0.117953 1
gene 1 10 23 1.18468 0 67 1.18468 1
gene 1 11 23 -0.248504 0 68 -0.248504 1
gene 1 12 23 0.0314677 0 69 0.0314677 1
gene 1 13 23 0.736793 0 70 0.736793 1
gene 1 14 23 -0.935436 0 71 -0.935436 1
gene 1 15 23 -0.102368 0 72 -0.102368 1
gene 1 16 23 -0.343941 0 73 -0.343941 1
gene 1 17 23 0.303539 0 74 0.303539 1
gene 1 18 23 -0.0212477 0 75 -0.0212477 1
gene 1 19 23 -0.697626 0 76 -0.697626 1
gene 1 8 24 0.593168 0 77 0.593168 1
gene 1 24 20 0.0627709 0 78 0.0627709 1
gene 1 15 26 0.0495523 0 85 0.0495523 1
gene 1 26 20 0.429184 0 86 0.429184 1
gene 1 22 20 0.528185 0 87 0.528185 1
gene 1 2 24 0.419419 0 91 0.419419 1
gene 1 6 24 0.103684 0 96 0.103684 1
gene 1 16 26 0.379753 0 99 0.379753 1
gene 1 13 24 -0.639002 0 100 -0.639002 1
gene 1 23 24 -0.497612 0 113 -0.497612 1
gene 1 13 32 -0.696966 0 116 -0.696966 1
gene 1 32 21 0.236406 0 117 0.236406 1
genomeend 866
genomestart 868
trait 1 0 0.0107779 0 0.0162651 0 0.0547086 0 0.0719763 
node 1 1 1 1 0
node 2 1 1 1 0
node 3 1 1 1 0
node 4 1 1 1 0
node 5 1 1 1 0
node 6 1 1 1 0
node 7 1 1 1 0
node 8 1 1 1 0
node 9 1 1 1 0
node 10 1 1 1 0
node 11 1 1 1 0
node 12 1 1 1 0
node 13 1 1 1 0
node 14 1 1 1 0
node 15 1 1 1 0
node 16 1 1 1 0
node 17 1 1 1 0
node 18 1 1 1 0
node 19 1 1 3 0
node 20 1 0 2 0
node 21 1 0 2 0
node 22 1 0 2 0
node 23 1 0 2 0
node 24 1 0 0 0
node 26 1 0 0 0
node 32 1 0 0 0
gene 1 1 20 -1.23638 0 1 -1.23638 1
gene 1 2 20 0.0178557 0 2 0.0178557 1
gene 1 3 20 0.439693 0 3 0.439693 1
gene 1 4 20 0.0942282 0 4 0.0942282 1
gene 1 5 20 0.541183 0 5 0.541183 1
gene 1 6 20 0.0718882 0 6 0.0718882 1
gene 1 7 20 -0.784152 0 7 -0.784152 1
gene 1 8 20 -0.609278 0 8 -0.609278 0
gene 1 9 20 -0.0336662 0 9 -0.0336662 1
gene 1 10 20 -0.906712 0 10 -0.906712 1
gene 1 11 20 0.812736 0 11 0.812736 1
gene 1 12 20 0.0644065 0 12 0.0644065 1
gene 1 13 20 -0.270562 0 13 -0.270562 1
gene 1 14 20 0.516925 0 14 0.516925 1
gene 1 15 20 0.20198 0 15 0.20198 0
gene 1 16 20 0.681939 0 16 0.681939 1
gene 1 17 20 0.16066 0 17 0.16066 1
gene 1 18 20 1.56374 0 18 1.56374 1
gene 1 19 20 1.06554 0 19 1.06554 1
gene 1 1 21 0.962934 0 20 0.962934 1
gene 1 2 21 -0.252991 0 21 -0.252991 1
gene 1 3 21 1.0731 0 22 1.0731 1
gene 1 4 21 0.415396 0 23 0.415396 1
gene 1 5 21 1.10061 0 24 1.10061 1
gene 1 6 21 0.437185 0 25 0.437185 1
gene 1 7 21 0.782399 0 26 0.782399 1
gene 1 8 21 -0.817828 0 27 -0.817828 1
gene 1 9 21 -0.704132 0 28 -0.704132 1
gene 1 10 21 1.9423 0 29 1.9423 1
gene 1 11 21 0.10567 0 30 0.10567 1
gene 1 12 21 -0.27892 0 31 -0.27892 1
gene 1 13 21 -0.818929 0 32 -0.818929 0
gene 1 14 21 -0.52739 0 33 -0.52739 1
gene 1 15 21 -0.757979 0 34 -0.757979 1
gene 1 16 21 0.257834 0 35 0.257834 1
gene 1 17 21 -0.266569 0 36 -0.266569 1
gene 1 18 21 0.150875 0 37 0.150875 1
gene 1 19 21 0.233561 0 38 0.233561 1
gene 1 1 22 0.514022 0 39 0.514022 1
gene 1 2 22 0.189646 0 40 0.189646 1
gene 1 3 22 0.336838 0 41 0.336838 1
gene 1 4 22 0.00274994 0 42 0.00274994 1
gene 1 5 22 -0.315845 0 43 -0.315845 1
gene 1 6 22 0.13042 0 44 0.13042 1
gene 1 7 22 1.07428 0 45 1.07428 1
gene 1 8 22 0.0961547 0 46 0.0961547 1
gene 1 9 22 0.225875 0 47 0.225875 1
gene 1 10 22 1.0075 0 48 1.0075 1
gene 1 11 22 0.349365 0 49 0.349365 1
gene 1 12 22 0.00740634 0 50 0.00740634 1
gene 1 13 22 -0.506665 0 51 -0.506665 1
gene 1 14 22 0.193909 0 52 0.193909 1
gene 1 15 22 -0.546438 0 53 -0.546438 1
gene 1 16 22 1.12697 0 54 1.12697 1
gene 1 17 22 1.23918 0 55 1.23918 1
gene 1 18 22 0.464937 0 56 0.464937 1
gene 1 19 22 -0.88442 0 57 -0.88442 1
gene 1 1 23 0.404176 0 58 0.404176 1
gene 1 2 23 -1.17592 0 59 -1.17592 1
gene 1 3 23 0.150916 0 60 0.150916 1
gene 1 4 23 -0.0298283 0 61 -0.0298283 1
gene 1 5 23 0.256067 0 62 0.256067 1
gene 1 6 23 1.24199 0 63 1.24199 1
gene 1 7 23 -0.662967 0 64 -0.662967 1
gene 1 8 23 -0.347985 0 65 -0.347985 1
gene 1 9 23 -0.0499748 0 66 -0.0499748 1
gene 1 10 23 0.78688 0 67 0.78688 1
gene 1 11 23 -0.511314 0 68 -0.511314 1
gene 1 12 23 -0.392052 0 69 -0.392052 1
gene 1 13 23 0.447373 0 70 0.447373 1
gene 1 14 23 -0.700781 0 71 -0.700781 1
gene 1 15 23 -0.426579 0 72 -0.426579 1
gene 1 16 23 0.0763034 0 73 0.0763034 1
gene 1 17 23 -0.825862 0 74 -0.825862 1
gene 1 18 23 0.139127 0 75 0.139127 1
gene 1 19 23 -0.28678 0 76 -0.28678 1
gene 1 8 24 0.48972 0 77 0.48972 1
gene 1 24 20 0.596302 0 78 0.596302 1
gene 1 15 26 -0.370682 0 85 -0.370682 1
gene 1 26 20 -0.00828385 0 86 -0.00828385 1
gene 1 22 20 0.873828 0 87 0.873828 1
gene 1 2 24 -0.0622733 0 91 -0.0622733 1
gene 1 6 24 0.436241 0 96 0.436241 1
gene 1 16 26 -0.405581 0 99 -0.405581 1
gene 1 13 24 -0.639002 0 100 -0.639002 1
gene 1 23 24 -0.109004 0 113 -0.109004 1
gene 1 13 32 -0.30991 0 116 -0.30991 1
gene 1 32 21 0.237485 0 117 0.237485 1
genomeend 868
genomestart 871
trait 1 0 0 0.281719 0 0 0.0371098 0 0 
node 1 1 1 1 0
node 2 1 1 1 0
node 3 1 1 1 0
node 4 1 1 1 0
node 5 1 1 1 0
node 6 1 1 1 0
node 7 1 1 1 0
node 8 1 1 1 0
node 9 1 1 1 0
node 10 1 1 1 0
node 11 1 1 1 0
node 12 1 1 1 0
node 13 1 1 1 0
node 14 1 1 1 0
node 15 1 1 1 0
node 16 1 1 1 0
node 17 1 1 1 0
node 18 1 1 1 0
node 19 1 1 3 0
node 20 1 0 2 0
node 21 1 0 2 0
node 22 1 0 2 0
node 23 1 0 2 0
node 24 1 0 0 0
node 26 1 0 0 0
node 37 1 0 0 0
gene 1 1 20 0.0533725 0 1 0.0533725 1
gene 1 2 20 -0.00837049 0 2 -0.00837049 1
gene 1 3 20 0.547676 0 3 0.547676 1
gene 1 4 20 0.482587 0 4 0.482587 1
gene 1 5 20 -0.698955 0 5 -0.698955 1
gene 1 6 20 0.451393 0 6 0.451393 1
gene 1 7 20 -1.24328 0 7 -1.24328 1
gene 1 8 20 -0.209706 0 8 -0.209706 0
gene 1 9 20 -0.209985 0 9 -0.209985 1
gene 1 10 20 -0.946256 0 10 -0.946256 0
gene 1 11 20 0.624142 0 11 0.624142 1
gene 1 12 20 -0.659767 0 12 -0.659767 1
gene 1 13 20 -0.221171 0 13 -0.221171 1
gene 1 14 20 -0.785573 0 14 -0.785573 1
gene 1 15 20 0.247677 0 15 0.247677 0
gene 1 16 20 1.02933 0 16 1.02933 1
gene 1 17 20 0.102007 0 17 0.102007 1
gene 1 18 20 1.93035 0 18 1.93035 1
gene 1 19 20 1.12669 0 19 1.12669 1
gene 1 1 21 1.33241 0 20 1.33241 1
gene 1 2 21 0.0308222 0 21 0.0308222 1
gene 1 3 21 1.08169 0 22 1.08169 1
gene 1 4 21 0.642079 0 23 0.642079 1
gene 1 5 21 1.26306 0 24 1.26306 1
gene 1 6 21 0.0482817 0 25 0.0482817 1
gene 1 7 21 -0.998183 0 26 -0.998183 1
gene 1 8 21 -0.507208 0 27 -0.507208 1
gene 1 9 21 -1.04897 0 28 -1.04897 1
gene 1 10 21 1.56469 0 29 1.56469 1
gene 1 11 21 0.119102 0 30 0.119102 1
gene 1 12 21 0.548609 0 31 0.548609 1
gene 1 13 21 0.172587 0 32 0.172587 1
gene 1 14 21 0.0422634 0 33 0.0422634 1
gene 1 15 21 -0.981508 0 34 -0.981508 1
gene 1 16 21 0.275437 0 35 0.275437 1
gene 1 17 21 0.100962 0 36 0.100962 1
gene 1 18 21 0.527648 0 37 0.527648 1
gene 1 19 21 -0.0728418 0 38 -0.0728418 1
gene 1 1 22 0.725154 0 39 0.725154 1
gene 1 2 22 -1.00953 0 40 -1.00953 1
gene 1 3 22 0.119429 0 41 0.119429 1
gene 1 4 22 -0.471199 0 42 -0.471199 1
gene 1 5 22 -0.493136 0 43 -0.493136 1
gene 1 6 22 0.0808151 0 44 0.0808151 1
gene 1 7 22 -1.01127 0 45 -1.01127 1
gene 1 8 22 0.121419 0 46 0.121419 1
gene 1 9 22 -0.481766 0 47 -0.481766 1
gene 1 10 22 0.547068 0 48 0.547068 1
gene 1 11 22 0.821399 0 49 0.821399 1
gene 1 12 22 0.635258 0 50 0.635258 1
gene 1 13 22 0.581722 0 51 0.581722 1
gene 1 14 22 -1.36498 0 52 -1.36498 1
gene 1 15 22 0.530651 0 53 0.530651 1
gene 1 16 22 0.776519 0 54 0.776519 1
gene 1 17 22 1.49948 0 55 1.49948 1
gene 1 18 22 0.552935 0 56 0.552935 1
gene 1 19 22 -0.806398 0 57 -0.806398 1
gene 1 1 23 0.415317 0 58 0.415317 1
gene 1 2 23 -0.0202995 0 59 -0.0202995 1
gene 1 3 23 0.498741 0 60 0.498741 1
gene 1 4 23 -0.40243 0 61 -0.40243 1
gene 1 5 23 -0.346211 0 62 -0.346211 1
gene 1 6 23 0.832107 0 63 0.832107 1
gene 1 7 23 0.130922 0 64 0.130922 1
gene 1 8 23 -0.321696 0 65 -0.321696 1
gene 1 9 23 -0.62812 0 66 -0.62812 1
gene 1 10 23 -0.419784 0 67 -0.419784 1
gene 1 11 23 -0.310454 0 68 -0.310454 1
gene 1 12 23 -0.161733 0 69 -0.161733 1
gene 1 13 23 0.466389 0 70 0.466389 1
gene 1 14 23 -0.696835 0 71 -0.696835 1
gene 1 15 23 -0.499533 0 72 -0.499533 1
gene 1 16 23 0.0822234 0 73 0.0822234 1
gene 1 17 23 -1.06532 0 74 -1.06532 1
gene 1 18 23 -0.557693 0 75 -0.557693 1
gene 1 19 23 -0.470322 0 76 -0.470322 1
gene 1 8 24 -0.131682 0 77 -0.131682 1
gene 1 24 20 0.285196 0 78 0.285196 1
gene 1 15 26 0.119692 0 85 0.119692 1
gene 1 26 20 1.18851 0 86 1.18851 1
gene 1 22 20 0.358486 0 87 0.358486 1
gene 1 2 24 0.21839 0 91 0.21839 1
gene 1 6 24 0.495748 0 96 0.495748 1
gene 1 10 37 -0.379289 0 129 -0.379289 1
gene 1 37 20 0.343211 0 130 0.343211 1
gene 1 24 37 0.96822 0 140 0.96822 1
genomeend 871
genomestart 872
trait 1 0 0 0 0 0 0 0 0 
node 1 1 1 1 0
node 2 1 1 1 0
node 3 1 1 1 0
node 4 1 1 1 0
node 5 1 1 1 0
node 6 1 1 1 0
node 7 1 1 1 0
node 8 1 1 1 0
node 9 1 1 1 0
node 10 1 1 1 0
node 11 1 1 1 0
node 12 1 1 1 0
node 13 1 1 1 0
node 14 1 1 1 0
node 15 1 1 1 0
node 16 1 1 1 0
node 17 1 1 1 0
node 18 1 1 1 0
node 19 1 1 3 0
node 20 1 0 2 0
node 21 1 0 2 0
node 22 1 0 2 0
node 23 1 0 2 0
node 24 1 0 0 0
node 32 1 0 0 0
node 39 1 0 0 0
gene 1 1 20 -1.17371 0 1 -1.17371 1
gene 1 2 20 0.610097 0 2 0.610097 1
gene 1 3 20 1.61756 0 3 1.61756 1
gene 1 4 20 -0.0214162 0 4 -0.0214162 1
gene 1 5 20 0.233366 0 5 0.233366 1
gene 1 6 20 -0.0400138 0 6 -0.0400138 1
gene 1 7 20 -0.7817 0 7 -0.7817 1
gene 1 8 20 0.693253 0 8 0.693253 1
gene 1 9 20 1.21899 0 9 1.21899 1
gene 1 10 20 -0.723722 0 10 -0.723722 1
gene 1 11 20 1.15707 0 11 1.15707 1
gene 1 12 20 1.30104 0 12 1.30104 1
gene 1 13 20 0.0286786 0 13 0.0286786 1
gene 1 14 20 0.0689305 0 14 0.0689305 1
gene 1 15 20 -0.491925 0 15 -0.491925 1
gene 1 16 20 0.256013 0 16 0.256013 1
gene 1 17 20 -0.0159861 0 17 -0.0159861 1
gene 1 18 20 1.56655 0 18 1.56655 1
gene 1 19 20 0.918003 0 19 0.918003 1
gene 1 1 21 -0.131146 0 20 -0.131146 1
gene 1 2 21 0.274357 0 21 0.274357 1
gene 1 3 21 0.350813 0 22 0.350813 1
gene 1 4 21 1.25089 0 23 1.25089 1
gene 1 5 21 0.0171434 0 24 0.0171434 1
gene 1 6 21 -0.256288 0 25 -0.256288 1
gene 1 7 21 1.50389 0 26 1.50389 1
gene 1 8 21 -0.795816 0 27 -0.795816 1
gene 1 9 21 -0.435749 0 28 -0.435749 1
gene 1 10 21 0.336977 0 29 0.336977 1
gene 1 11 21 0.10021 0 30 0.10021 1
gene 1 12 21 -0.277957 0 31 -0.277957 1
gene 1 13 21 -0.625838 0 32 -0.625838 0
gene 1 14 21 -0.951543 0 33 -0.951543 1
gene 1 15 21 0.931297 0 34 0.931297 1
gene 1 16 21 1.10307 0 35 1.10307 1
gene 1 17 21 -0.18496 0 36 -0.18496 1
gene 1 18 21 0.200196 0 37 0.200196 1
gene 1 19 21 0.261316 0 38 0.261316 1
gene 1 1 22 2.05214 0 39 2.05214 1
gene 1 2 22 -1.01379 0 40 -1.01379 1
gene 1 3 22 0.0016043 0 41 0.0016043 1
gene 1 4 22 0.680399 0 42 0.680399 1
gene 1 5 22 0.361282 0 43 0.361282 1
gene 1 6 22 0.657298 0 44 0.657298 1
gene 1 7 22 0.433554 0 45 0.433554 1
gene 1 8 22 0.00251021 0 46 0.00251021 1
gene 1 9 22 0.388519 0 47 0.388519 1
gene 1 10 22 1.20015 0 48 1.20015 1
gene 1 11 22 -0.675651 0 49 -0.675651 1
gene 1 12 22 1.53262 0 50 1.53262 1
gene 1 13 22 -0.410329 0 51 -0.410329 1
gene 1 14 22 0.256349 0 52 0.256349 1
gene 1 15 22 -0.261836 0 53 -0.261836 1
gene 1 16 22 0.0873794 0 54 0.0873794 1
gene 1 17 22 0.453481 0 55 0.453481 1
gene 1 18 22 -0.422152 0 56 -0.422152 1
gene 1 19 22 -0.726569 0 57 -0.726569 1
gene 1 1 23 0.316792 0 58 0.316792 1
gene 1 2 23 -0.504288 0 59 -0.504288 1
gene 1 3 23 -0.447346 0 60 -0.447346 1
gene 1 4 23 0.1886 0 61 0.1886 1
gene 1 5 23 0.192478 0 62 0.192478 1
gene 1 6 23 0.287566 0 63 0.287566 1
gene 1 7 23 -0.306948 0 64 -0.306948 1
gene 1 8 23 0.00342066 0 65 0.00342066 1
gene 1 9 23 0.127322 0 66 0.127322 1
gene 1 10 23 -0.522301 0 67 -0.522301 1
gene 1 11 23 -0.7613 0 68 -0.7613 1
gene 1 12 23 0.328263 0 69 0.328263 1
gene 1 13 23 -0.277056 0 70 -0.277056 1
gene 1 14 23 -0.262205 0 71 -0.262205 1
gene 1 15 23 0.299769 0 72 0.299769 1
gene 1 16 23 -0.528327 0 73 -0.528327 1
gene 1 17 23 0.695005 0 74 0.695005 1
gene 1 18 23 0.101263 0 75 0.101263 1
gene 1 19 23 0.31461 0 76 0.31461 1
gene 1 8 24 -0.0306492 0 77 -0.0306492 1
gene 1 24 20 0.237086 0 78 0.237086 1
gene 1 22 20 0.472555 0 87 0.472555 1
gene 1 2 24 -0.0412375 0 91 -0.0412375 1
gene 1 6 24 -0.42914 0 96 -0.42914 1
gene 1 23 24 1.32733 0 113 1.32733 1
gene 1 13 32 0.664373 0 116 0.664373 1
gene 1 32 21 0.0778849 0 117 0.0778849 1
gene 1 17 39 1.2329 0 134 1.2329 1
gene 1 39 23 -0.259878 0 135 -0.259878 1
genomeend 872
genomestart 873
trait 1 0 0 0.450751 0 0 0.0593757 0 0 
node 1 1 1 1 0
node 2 1 1 1 0
node 3 1 1 1 0
node 4 1 1 1 0
node 5 1 1 1 0
node 6 1 1 1 0
node 7 1 1 1 0
node 8 1 1 1 0
node 9 1 1 1 0
node 10 1 1 1 0
node 11 1 1 1 0
node 12 1 1 1 0
node 13 1 1 1 0
node 14 1 1 1 0
node 15 1 1 1 0
node 16 1 1 1 0
node 17 1 1 1 0
node 18 1 1 1 0
node 19 1 1 3 0
node 20 1 0 2 0
node 21 1 0 2 0
node 22 1 0 2 0
node 23 1 0 2 0
node 24 1 0 0 0
node 26 1 0 0 0
node 37 1 0 0 0
gene 1 1 20 0.512854 0 1 0.512854 1
gene 1 2 20 0.0706748 0 2 0.0706748 1
gene 1 3 20 0.298318 0 3 0.298318 1
gene 1 4 20 0.0454741 0 4 0.0454741 1
gene 1 5 20 -0.195695 0 5 -0.195695 1
gene 1 6 20 -0.0529708 0 6 -0.0529708 1
gene 1 7 20 -0.734282 0 7 -0.734282 1
gene 1 8 20 -1.17612 0 8 -1.17612 1
gene 1 9 20 -0.946113 0 9 -0.946113 1
gene 1 10 20 -0.734631 0 10 -0.734631 0
gene 1 11 20 0.30281 0 11 0.30281 1
gene 1 12 20 -0.0623718 0 12 -0.0623718 1
gene 1 13 20 -0.511598 0 13 -0.511598 1
gene 1 14 20 -0.789897 0 14 -0.789897 1
gene 1 15 20 0.375992 0 15 0.375992 0
gene 1 16 20 0.440257 0 16 0.440257 1
gene 1 17 20 0.311844 0 17 0.311844 1
gene 1 18 20 2.28983 0 18 2.28983 1
gene 1 19 20 0.9117 0 19 0.9117 1
gene 1 1 21 0.697361 0 20 0.697361 1
gene 1 2 21 -0.60515 0 21 -0.60515 1
gene 1 3 21 0.737732 0 22 0.737732 1
gene 1 4 21 0.789727 0 23 0.789727 1
gene 1 5 21 0.708815 0 24 0.708815 1
gene 1 6 21 0.22689 0 25 0.22689 1
gene 1 7 21 -1.09935 0 26 -1.09935 1
gene 1 8 21 -0.274849 0 27 -0.274849 1
gene 1 9 21 -1.09082 0 28 -1.09082 1
gene 1 10 21 1.8013 0 29 1.8013 1
gene 1 11 21 0.421925 0 30 0.421925 1
gene 1 12 21 -0.0602138 0 31 -0.0602138 1
gene 1 13 21 -0.250383 0 32 -0.250383 1
gene 1 14 21 -0.548605 0 33 -0.548605 1
gene 1 15 21 -0.588902 0 34 -0.588902 1
gene 1 16 21 0.1738 0 35 0.1738 1
gene 1 17 21 0.37332 0 36 0.37332 1
gene 1 18 21 0.645529 0 37 0.645529 1
gene 1 19 21 -0.148752 0 38 -0.148752 1
gene 1 1 22 0.278996 0 39 0.278996 1
gene 1 2 22 0.36321 0 40 0.36321 1
gene 1 3 22 -0.637752 0 41 -0.637752 1
gene 1 4 22 -0.00558574 0 42 -0.00558574 1
gene 1 5 22 0.0901795 0 43 0.0901795 1
gene 1 6 22 0.997051 0 44 0.997051 1
gene 1 7 22 -0.865323 0 45 -0.865323 1
gene 1 8 22 -0.485884 0 46 -0.485884 1
gene 1 9 22 0.445106 0 47 0.445106 1
gene 1 10 22 0.17275 0 48 0.17275 1
gene 1 11 22 -1.52522 0 49 -1.52522 1
gene 1 12 22 -0.345192 0 50 -0.345192 1
gene 1 13 22 -0.19426 0 51 -0.19426 1
gene 1 14 22 -1.25492 0 52 -1.25492 1
gene 1 15 22 -0.0199549 0 53 -0.0199549 1
gene 1 16 22 -0.356393 0 54 -0.356393 1
gene 1 17 22 1.52984 0 55 1.52984 1
gene 1 18 22 0.340396 0 56 0.340396 1
gene 1 19 22 -0.183184 0 57 -0.183184 1
gene 1 1 23 0.378738 0 58 0.378738 1
gene 1 2 23 -0.209492 0 59 -0.209492 1
gene 1 3 23 0.183016 0 60 0.183016 1
gene 1 4 23 -0.496914 0 61 -0.496914 1
gene 1 5 23 -0.119651 0 62 -0.119651 1
gene 1 6 23 1.02796 0 63 1.02796 1
gene 1 7 23 -0.145653 0 64 -0.145653 1
gene 1 8 23 -0.423958 0 65 -0.423958 1
gene 1 9 23 0.56598 0 66 0.56598 1
gene 1 10 23 0.511534 0 67 0.511534 1
gene 1 11 23 -0.414314 0 68 -0.414314 1
gene 1 12 23 0.134619 0 69 0.134619 1
gene 1 13 23 -0.177668 0 70 -0.177668 1
gene 1 14 23 0.0594272 0 71 0.0594272 1
gene 1 15 23 0.203024 0 72 0.203024 1
gene 1 16 23 -0.249307 0 73 -0.249307 1
gene 1 17 23 -0.660857 0 74 -0.660857 1
gene 1 18 23 0.135817 0 75 0.135817 1
gene 1 19 23 0.189023 0 76 0.189023 1
gene 1 8 24 0.260644 0 77 0.260644 1
gene 1 24 20 0.672641 0 78 0.672641 1
gene 1 15 26 0.779471 0 85 0.779471 1
gene 1 26 20 0.876441 0 86 0.876441 1
gene 1 22 20 0.66849 0 87 0.66849 1
gene 1 2 24 0.0934347 0 91 0.0934347 1
gene 1 6 24 0.924654 0 96 0.924654 1
gene 1 10 37 0.203179 0 129 0.203179 1
gene 1 37 20 -0.152335 0 130 -0.152335 1
gene 1 24 37 1.14457 0 140 1.14457 1
genomeend 873
genomestart 878
trait 1 0 0.0107779 0 0.0162651 0 0.0547086 0 0.0719763 
node 1 1 1 1 0
node 2 1 1 1 0
node 3 1 1 1 0
node 4 1 1 1 0
node 5 1 1 1 0
node 6 1 1 1 0
node 7 1 1 1 0
node 8 1 1 1 0
node 9 1 1 1 0
node 10 1 1 1 0
node 11 1 1 1 0
node 12 1 1 1 0
node 13 1 1 1 0
node 14 1 1 1 0
node 15 1 1 1 0
node 16 1 1 1 0
node 17 1 1 1 0
node 18 1 1 1 0
node 19 1 1 3 0
node 20 1 0 2 0
node 21 1 0 2 0
node 22 1 0 2 0
node 23 1 0 2 0
node 24 1 0 0 0
node 26 1 0 0 0
node 32 1 0 0 0
gene 1 1 20 -0.783995 0 1 -0.783995 1
gene 1 2 20 -0.380689 0 2 -0.380689 1
gene 1 3 20 0.417218 0 3 0.417218 1
gene 1 4 20 -0.0625667 0 4 -0.0625667 1
gene 1 5 20 0.286809 0 5 0.286809 1
gene 1 6 20 0.893755 0 6 0.893755 1
gene 1 7 20 0.299031 0 7 0.299031 1
gene 1 8 20 -0.43337 0 8 -0.43337 1
gene 1 9 20 0.142561 0 9 0.142561 1
gene 1 10 20 -0.254903 0 10 -0.254903 1
gene 1 11 20 0.0923143 0 11 0.0923143 1
gene 1 12 20 0.0416265 0 12 0.0416265 1
gene 1 13 20 -0.455231 0 13 -0.455231 1
gene 1 14 20 0.379796 0 14 0.379796 1
gene 1 15 20 -0.332743 0 15 -0.332743 0
gene 1 16 20 0.746991 0 16 0.746991 1
gene 1 17 20 -0.00565349 0 17 -0.00565349 1
gene 1 18 20 0.937429 0 18 0.937429 1
gene 1 19 20 0.826233 0 19 0.826233 1
gene 1 1 21 0.227826 0 20 0.227826 1
gene 1 2 21 -0.203531 0 21 -0.203531 1
gene 1 3 21 1.04979 0 22 1.04979 1
gene 1 4 21 -0.0166998 0 23 -0.0166998 1
gene 1 5 21 0.357682 0 24 0.357682 1
gene 1 6 21 0.530709 0 25 0.530709 1
gene 1 7 21 0.549299 0 26 0.549299 1
gene 1 8 21 -1.04815 0 27 -1.04815 1
gene 1 9 21 -0.776647 0 28 -0.776647 1
gene 1 10 21 2.03144 0 29 2.03144 1
gene 1 11 21 -0.0999861 0 30 -0.0999861 1
gene 1 12 21 -0.50289 0 31 -0.50289 1
gene 1 13 21 -0.526642 0 32 -0.526642 1
gene 1 14 21 -0.337437 0 33 -0.337437 1
gene 1 15 21 -0.181931 0 34 -0.181931 1
gene 1 16 21 0.519981 0 35 0.519981 1
gene 1 17 21 -0.510599 0 36 -0.510599 1
gene 1 18 21 0.318919 0 37 0.318919 1
gene 1 19 21 -0.0015747 0 38 -0.0015747 1
gene 1 1 22 -0.172788 0 39 -0.172788 1
gene 1 2 22 -0.960707 0 40 -0.960707 1
gene 1 3 22 -0.131548 0 41 -0.131548 1
gene 1 4 22 -0.335526 0 42 -0.335526 1
gene 1 5 22 -0.0700971 0 43 -0.0700971 1
gene 1 6 22 -0.59756 0 44 -0.59756 1
gene 1 7 22 0.953099 0 45 0.953099 1
gene 1 8 22 -0.78217 0 46 -0.78217 1
gene 1 9 22 0.500675 0 47 0.500675 1
gene 1 10 22 0.575456 0 48 0.575456 1
gene 1 11 22 -0.181303 0 49 -0.181303 1
gene 1 12 22 0.722478 0 50 0.722478 1
gene 1 13 22 0.253325 0 51 0.253325 1
gene 1 14 22 -1.00094 0 52 -1.00094 1
gene 1 15 22 -0.541327 0 53 -0.541327 1
gene 1 16 22 0.762377 0 54 0.762377 1
gene 1 17 22 0.70031 0 55 0.70031 1
gene 1 18 22 0.621683 0 56 0.621683 1
gene 1 19 22 -0.585178 0 57 -0.585178 1
gene 1 1 23 0.0181034 0 58 0.0181034 1
gene 1 2 23 -0.296555 0 59 -0.296555 1
gene 1 3 23 0.439881 0 60 0.439881 1
gene 1 4 23 -0.599024 0 61 -0.599024 1
gene 1 5 23 0.33381 0 62 0.33381 1
gene 1 6 23 1.38595 0 63 1.38595 1
gene 1 7 23 -0.302694 0 64 -0.302694 1
gene 1 8 23 -0.02277 0 65 -0.02277 1
gene 1 9 23 0.467075 0 66 0.467075 1
gene 1 10 23 0.375052 0 67 0.375052 1
gene 1 11 23 -0.592676 0 68 -0.592676 1
gene 1 12 23 -0.482687 0 69 -0.482687 1
gene 1 13 23 0.669052 0 70 0.669052 1
gene 1 14 23 0.350484 0 71 0.350484 1
gene 1 15 23 -0.389006 0 72 -0.389006 1
gene 1 16 23 -0.0679813 0 73 -0.0679813 1
gene 1 17 23 -0.842436 0 74 -0.842436 1
gene 1 18 23 0.0589397 0 75 0.0589397 1
gene 1 19 23 0.0633816 0 76 0.0633816 1
gene 1 8 24 0.638015 0 77 0.638015 1
gene 1 24 20 0.729997 0 78 0.729997 1
gene 1 15 26 -0.228793 0 85 -0.228793 1
gene 1 26 20 0.907294 0 86 0.907294 1
gene 1 22 20 0.678446 0 87 0.678446 1
gene 1 2 24 0.0478018 0 91 0.0478018 1
gene 1 6 24 0.171944 0 96 0.171944 1
gene 1 16 26 -0.231116 0 99 -0.231116 1
gene 1 13 24 -0.735715 0 100 -0.735715 1
gene 1 23 24 -0.260209 0 113 -0.260209 1
gene 1 13 32 0.187304 0 116 0.187304 1
gene 1 32 21 0.515991 0 117 0.515991 1
genomeend 878
genomestart 879
trait 1 0 0 0 0 0 0 0 0 
node 1 1 1 1 0
node 2 1 1 1 0
node 3 1 1 1 0
node 4 1 1 1 0
node 5 1 1 1 0
node 6 1 1 1 0
node 7 1 1 1 0
node 8 1 1 1 0
node 9 1 1 1 0
node 10 1 1 1 0
node 11 1 1 1 0
node 12 1 1 1 0
node 13 1 1 1 0
node 14 1 1 1 0
node 15 1 1 1 0
node 16 1 1 1 0
node 17 1 1 1 0
node 18 1 1 1 0
node 19 1 1 3 0
node 20 1 0 2 0
node 21 1 0 2 0
node 22 1 0 2 0
node 23 1 0 2 0
node 24 1 0 0 0
node 32 1 0 0 0
node 39 1 0 0 0
gene 1 1 20 -1.44852 0 1 -1.44852 1
gene 1 2 20 1.02574 0 2 1.02574 1
gene 1 3 20 1.14547 0 3 1.14547 1
gene 1 4 20 0.0061795 0 4 0.0061795 1
gene 1 5 20 -0.179839 0 5 -0.179839 1
gene 1 6 20 -0.0400138 0 6 -0.0400138 1
gene 1 7 20 -1.24462 0 7 -1.24462 1
gene 1 8 20 0.360685 0 8 0.360685 1
gene 1 9 20 0.810491 0 9 0.810491 1
gene 1 10 20 -0.471525 0 10 -0.471525 1
gene 1 11 20 1.13422 0 11 1.13422 1
gene 1 12 20 1.06594 0 12 1.06594 1
gene 1 13 20 0.0584025 0 13 0.0584025 1
gene 1 14 20 0.507575 0 14 0.507575 1
gene 1 15 20 1.00856 0 15 1.00856 1
gene 1 16 20 0.697652 0 16 0.697652 1
gene 1 17 20 0.0756834 0 17 0.0756834 1
gene 1 18 20 2.01463 0 18 2.01463 1
gene 1 19 20 0.918003 0 19 0.918003 1
gene 1 1 21 1.21491 0 20 1.21491 1
gene 1 2 21 0.274357 0 21 0.274357 1
gene 1 3 21 0.350813 0 22 0.350813 1
gene 1 4 21 1.20871 0 23 1.20871 1
gene 1 5 21 0.263824 0 24 0.263824 1
gene 1 6 21 0.776718 0 25 0.776718 1
gene 1 7 21 1.09896 0 26 1.09896 1
gene 1 8 21 -0.795816 0 27 -0.795816 1
gene 1 9 21 -0.625428 0 28 -0.625428 1
gene 1 10 21 3 0 29 3 1
gene 1 11 21 -0.12631 0 30 -0.12631 1
gene 1 12 21 -0.524003 0 31 -0.524003 1
gene 1 13 21 -0.455486 0 32 -0.455486 0
gene 1 14 21 -0.777628 0 33 -0.777628 1
gene 1 15 21 0.771307 0 34 0.771307 1
gene 1 16 21 1.07642 0 35 1.07642 1
gene 1 17 21 -0.745261 0 36 -0.745261 1
gene 1 18 21 0.200196 0 37 0.200196 1
gene 1 19 21 0.175531 0 38 0.175531 1
gene 1 1 22 1.75889 0 39 1.75889 1
gene 1 2 22 -0.831742 0 40 -0.831742 1
gene 1 3 22 0.0016043 0 41 0.0016043 1
gene 1 4 22 0.349542 0 42 0.349542 1
gene 1 5 22 0.332597 0 43 0.332597 1
gene 1 6 22 0.657298 0 44 0.657298 1
gene 1 7 22 0.421812 0 45 0.421812 1
gene 1 8 22 -0.349625 0 46 -0.349625 1
gene 1 9 22 0.107364 0 47 0.107364 1
gene 1 10 22 1.01084 0 48 1.01084 1
gene 1 11 22 -0.262464 0 49 -0.262464 1
gene 1 12 22 1.5165 0 50 1.5165 1
gene 1 13 22 -0.243046 0 51 -0.243046 1
gene 1 14 22 0.230246 0 52 0.230246 1
gene 1 15 22 -0.591364 0 53 -0.591364 1
gene 1 16 22 1.91138 0 54 1.91138 1
gene 1 17 22 0.187745 0 55 0.187745 1
gene 1 18 22 -0.103964 0 56 -0.103964 1
gene 1 19 22 -0.947466 0 57 -0.947466 1
gene 1 1 23 -0.349914 0 58 -0.349914 1
gene 1 2 23 -0.589895 0 59 -0.589895 1
gene 1 3 23 0.677031 0 60 0.677031 1
gene 1 4 23 0.0763115 0 61 0.0763115 1
gene 1 5 23 0.0311175 0 62 0.0311175 1
gene 1 6 23 1.25352 0 63 1.25352 1
gene 1 7 23 -0.0163779 0 64 -0.0163779 1
gene 1 8 23 0.00342066 0 65 0.00342066 1
gene 1 9 23 -0.158872 0 66 -0.158872 1
gene 1 10 23 -0.246497 0 67 -0.246497 1
gene 1 11 23 -0.87231 0 68 -0.87231 1
gene 1 12 23 0.407459 0 69 0.407459 1
gene 1 13 23 0.0762895 0 70 0.0762895 1
gene 1 14 23 -0.332359 0 71 -0.332359 1
gene 1 15 23 0.383584 0 72 0.383584 1
gene 1 16 23 -0.503717 0 73 -0.503717 1
gene 1 17 23 0.19826 0 74 0.19826 1
gene 1 18 23 0.101263 0 75 0.101263 1
gene 1 19 23 0.260262 0 76 0.260262 1
gene 1 8 24 -0.447352 0 77 -0.447352 1
gene 1 24 20 -0.102027 0 78 -0.102027 1
gene 1 22 20 0.65127 0 87 0.65127 1
gene 1 2 24 -0.290458 0 91 -0.290458 1
gene 1 6 24 -0.0940014 0 96 -0.0940014 1
gene 1 23 24 0.978463 0 113 0.978463 1
gene 1 13 32 0.664373 0 116 0.664373 1
gene 1 32 21 -0.0814749 0 117 -0.0814749 1
gene 1 17 39 1.18364 0 134 1.18364 1
gene 1 39 23 0.0664182 0 135 0.0664182 1
genomeend 879
genomestart 880
trait 1 0 0.0215558 0 0.0325302 0 0.109417 0 0.143953 
node 1 1 1 1 0
node 2 1 1 1 0
node 3 1 1 1 0
node 4 1 1 1 0
node 5 1 1 1 0
node 6 1 1 1 0
node 7 1 1 1 0
node 8 1 1 1 0
node 9 1 1 1 0
node 10 1 1 1 0
node 11 1 1 1 0
node 12 1 1 1 0
node 13 1 1 1 0
node 14 1 1 1 0
node 15 1 1 1 0
node 16 1 1 1 0
node 17 1 1 1 0
node 18 1 1 1 0
node 19 1 1 3 0
node 20 1 0 2 0
node 21 1 0 2 0
node 22 1 0 2 0
node 23 1 0 2 0
node 24 1 0 0 0
node 26 1 0 0 0
node 32 1 0 0 0
gene 1 1 20 -1.29544 0 1 -1.29544 1
gene 1 2 20 -0.197314 0 2 -0.197314 1
gene 1 3 20 -0.12615 0 3 -0.12615 1
gene 1 4 20 -0.326781 0 4 -0.326781 1
gene 1 5 20 0.0975757 0 5 0.0975757 1
gene 1 6 20 0.276765 0 6 0.276765 1
gene 1 7 20 0.250831 0 7 0.250831 1
gene 1 8 20 0.111469 0 8 0.111469 1
gene 1 9 20 0.280896 0 9 0.280896 1
gene 1 10 20 0.306244 0 10 0.306244 1
gene 1 11 20 0.248612 0 11 0.248612 1
gene 1 12 20 0.454269 0 12 0.454269 1
gene 1 13 20 -1.03263 0 13 -1.03263 1
gene 1 14 20 -0.333616 0 14 -0.333616 1
gene 1 15 20 -1.01749 0 15 -1.01749 0
gene 1 16 20 1.19069 0 16 1.19069 1
gene 1 17 20 -0.183796 0 17 -0.183796 1
gene 1 18 20 0.189968 0 18 0.189968 1
gene 1 19 20 1.49656 0 19 1.49656 1
gene 1 1 21 0.469724 0 20 0.469724 1
gene 1 2 21 0.250149 0 21 0.250149 1
gene 1 3 21 1.22609 0 22 1.22609 1
gene 1 4 21 0.334954 0 23 0.334954 1
gene 1 5 21 0.983888 0 24 0.983888 1
gene 1 6 21 1.13203 0 25 1.13203 1
gene 1 7 21 0.398032 0 26 0.398032 1
gene 1 8 21 -1.41376 0 27 -1.41376 1
gene 1 9 21 -0.487722 0 28 -0.487722 1
gene 1 10 21 1.90096 0 29 1.90096 1
gene 1 11 21 -0.0987769 0 30 -0.0987769 1
gene 1 12 21 -0.653607 0 31 -0.653607 1
gene 1 13 21 0.187366 0 32 0.187366 0
gene 1 14 21 -0.538803 0 33 -0.538803 1
gene 1 15 21 -0.642767 0 34 -0.642767 1
gene 1 16 21 0.535564 0 35 0.535564 1
gene 1 17 21 -0.31652 0 36 -0.31652 1
gene 1 18 21 -0.0218472 0 37 -0.0218472 1
gene 1 19 21 -0.169657 0 38 -0.169657 1
gene 1 1 22 -0.518775 0 39 -0.518775 1
gene 1 2 22 0.0841974 0 40 0.0841974 1
gene 1 3 22 -0.12742 0 41 -0.12742 1
gene 1 4 22 -0.317634 0 42 -0.317634 1
gene 1 5 22 -0.568491 0 43 -0.568491 1
gene 1 6 22 -0.762464 0 44 -0.762464 1
gene 1 7 22 1.83105 0 45 1.83105 1
gene 1 8 22 0.518308 0 46 0.518308 1
gene 1 9 22 -0.107817 0 47 -0.107817 1
gene 1 10 22 -0.196254 0 48 -0.196254 1
gene 1 11 22 -0.318929 0 49 -0.318929 1
gene 1 12 22 0.131653 0 50 0.131653 1
gene 1 13 22 -0.148149 0 51 -0.148149 1
gene 1 14 22 0.0679883 0 52 0.0679883 1
gene 1 15 22 0.456451 0 53 0.456451 1
gene 1 16 22 0.631802 0 54 0.631802 1
gene 1 17 22 0.136932 0 55 0.136932 1
gene 1 18 22 0.0146083 0 56 0.0146083 1
gene 1 19 22 -0.580323 0 57 -0.580323 1
gene 1 1 23 0.329795 0 58 0.329795 1
gene 1 2 23 -1.38915 0 59 -1.38915 1
gene 1 3 23 -0.029906 0 60 -0.029906 1
gene 1 4 23 0.548422 0 61 0.548422 1
gene 1 5 23 0.775575 0 62 0.775575 1
gene 1 6 23 -0.747138 0 63 -0.747138 1
gene 1 7 23 0.0319947 0 64 0.0319947 1
gene 1 8 23 -0.415671 0 65 -0.415671 1
gene 1 9 23 0.983738 0 66 0.983738 1
gene 1 10 23 0.540469 0 67 0.540469 1
gene 1 11 23 -0.276075 0 68 -0.276075 1
gene 1 12 23 -0.132224 0 69 -0.132224 1
gene 1 13 23 0.710101 0 70 0.710101 1
gene 1 14 23 -0.428759 0 71 -0.428759 1
gene 1 15 23 -0.0152305 0 72 -0.0152305 1
gene 1 16 23 -0.414732 0 73 -0.414732 1
gene 1 17 23 -0.216578 0 74 -0.216578 1
gene 1 18 23 0.813833 0 75 0.813833 1
gene 1 19 23 0.348065 0 76 0.348065 1
gene 1 8 24 0.318877 0 77 0.318877 1
gene 1 24 20 -0.408221 0 78 -0.408221 1
gene 1 15 26 -1.28081 0 85 -1.28081 1
gene 1 26 20 0.67066 0 86 0.67066 1
gene 1 22 20 1.47451 0 87 1.47451 1
gene 1 2 24 0.481174 0 91 0.481174 1
gene 1 6 24 0.0144922 0 96 0.0144922 1
gene 1 16 26 0.321846 0 99 0.321846 1
gene 1 13 24 -0.435242 0 100 -0.435242 1
gene 1 23 24 0.369761 0 113 0.369761 1
gene 1 13 32 -0.122598 0 116 -0.122598 1
gene 1 32 21 0.265784 0 117 0.265784 1
genomeend 880
genomestart 881
trait 1 0 0.699358 0.153422 0 0.670232 0 0 0 
node 1 1 1 1 0
node 2 1 1 1 0
node 3 1 1 1 0
node 4 1 1 1 0
node 5 1 1 1 0
node 6 1 1 1 0
node 7 1 1 1 0
node 8 1 1 1 0
node 9 1 1 1 0
node 10 1 1 1 0
node 11 1 1 1 0
node 12 1 1 1 0
node 13 1 1 1 0
node 14 1 1 1 0
node 15 1 1 1 0
node 16 1 1 1 0
node 17 1 1 1 0
node 18 1 1 1 0
node 19 1 1 3 0
node 20 1 0 2 0
node 21 1 0 2 0
node 22 1 0 2 0
node 23 1 0 2 0
node 24 1 0 0 0
node 26 1 0 0 0
node 34 1 0 0 0
gene 1 1 20 -0.549748 0 1 -0.549748 1
gene 1 2 20 0.181786 0 2 0.181786 1
gene 1 3 20 0.482966 0 3 0.482966 1
gene 1 4 20 -0.211627 0 4 -0.211627 1
gene 1 5 20 -0.0203098 0 5 -0.0203098 1
gene 1 6 20 -0.908844 0 6 -0.908844 1
gene 1 7 20 -1.28086 0 7 -1.28086 1
gene 1 8 20 -0.46669 0 8 -0.46669 0
gene 1 9 20 -0.0336662 0 9 -0.0336662 1
gene 1 10 20 -0.803476 0 10 -0.803476 1
gene 1 11 20 0.720663 0 11 0.720663 1
gene 1 12 20 -0.33226 0 12 -0.33226 1
gene 1 13 20 0.0404252 0 13 0.0404252 1
gene 1 14 20 0.181359 0 14 0.181359 1
gene 1 15 20 0.0793058 0 15 0.0793058 0
gene 1 16 20 0.367107 0 16 0.367107 1
gene 1 17 20 0.472504 0 17 0.472504 1
gene 1 18 20 0.337072 0 18 0.337072 1
gene 1 19 20 1.23166 0 19 1.23166 1
gene 1 1 21 1.23003 0 20 1.23003 1
gene 1 2 21 0.314101 0 21 0.314101 1
gene 1 3 21 1.05718 0 22 1.05718 1
gene 1 4 21 0.0439935 0 23 0.0439935 1
gene 1 5 21 0.135528 0 24 0.135528 1
gene 1 6 21 -0.278643 0 25 -0.278643 1
gene 1 7 21 -0.579321 0 26 -0.579321 1
gene 1 8 21 -1.22166 0 27 -1.22166 1
gene 1 9 21 -0.663781 0 28 -0.663781 1
gene 1 10 21 0.62451 0 29 0.62451 1
gene 1 11 21 0.236115 0 30 0.236115 0
gene 1 12 21 -1.18387 0 31 -1.18387 1
gene 1 13 21 0.0726656 0 32 0.0726656 1
gene 1 14 21 -0.122836 0 33 -0.122836 1
gene 1 15 21 -0.943232 0 34 -0.943232 1
gene 1 16 21 0.106569 0 35 0.106569 1
gene 1 17 21 0.141717 0 36 0.141717 1
gene 1 18 21 -0.0781102 0 37 -0.0781102 1
