genomestart 2052
trait 1 0 0 0 0.543104 1 0 0 1 
node 1 1 1 1 0
node 2 1 1 1 0
node 3 1 1 1 0
node 4 1 1 1 0
node 5 1 1 1 0
node 6 1 1 1 0
node 7 1 1 1 0
node 8 1 1 1 0
node 9 1 1 1 0
node 10 1 1 1 0
node 11 1 1 1 0
node 12 1 1 1 0
node 13 1 1 1 0
node 14 1 1 1 0
node 15 1 1 1 0
node 16 1 1 1 0
node 17 1 1 1 0
node 18 1 1 1 0
node 19 1 1 3 0
node 20 1 0 2 0
node 21 1 0 2 0
node 22 1 0 2 0
node 23 1 0 2 0
node 24 1 0 0 0
node 26 1 0 0 0
node 28 1 0 0 0
node 32 1 0 0 0
node 37 1 0 0 0
node 39 1 0 0 0
node 43 1 0 0 0
node 53 1 0 0 0
gene 1 1 20 -0.298112 0 1 -0.298112 1
gene 1 2 20 0.0654881 0 2 0.0654881 1
gene 1 3 20 1.41057 0 3 1.41057 1
gene 1 4 20 0.260678 0 4 0.260678 1
gene 1 5 20 0.469294 0 5 0.469294 1
gene 1 6 20 -1.28912 0 6 -1.28912 1
gene 1 7 20 0.489106 0 7 0.489106 1
gene 1 8 20 -0.605022 0 8 -0.605022 0
gene 1 9 20 0.176119 0 9 0.176119 1
gene 1 10 20 -0.0243454 0 10 -0.0243454 0
gene 1 11 20 0.0560218 0 11 0.0560218 1
gene 1 12 20 1.72608 0 12 1.72608 1
gene 1 13 20 1.24317 0 13 1.24317 1
gene 1 14 20 0.836577 0 14 0.836577 1
gene 1 15 20 -0.0875576 0 15 -0.0875576 1
gene 1 16 20 0.359956 0 16 0.359956 1
gene 1 17 20 0.0161653 0 17 0.0161653 1
gene 1 18 20 -0.04301 0 18 -0.04301 1
gene 1 19 20 0.461181 0 19 0.461181 1
gene 1 1 21 0.034311 0 20 0.034311 1
gene 1 2 21 1.27008 0 21 1.27008 1
gene 1 3 21 2.41739 0 22 2.41739 1
gene 1 4 21 1.47761 0 23 1.47761 1
gene 1 5 21 0.218311 0 24 0.218311 1
gene 1 6 21 2.0311 0 25 2.0311 1
gene 1 7 21 0.3695 0 26 0.3695 1
gene 1 8 21 -0.418637 0 27 -0.418637 1
gene 1 9 21 -0.108228 0 28 -0.108228 1
gene 1 10 21 -0.0293267 0 29 -0.0293267 1
gene 1 11 21 1.00755 0 30 1.00755 1
gene 1 12 21 0.56949 0 31 0.56949 1
gene 1 13 21 0.0569629 0 32 0.0569629 1
gene 1 14 21 -1.24611 0 33 -1.24611 1
gene 1 15 21 0.521264 0 34 0.521264 0
gene 1 16 21 -0.376046 0 35 -0.376046 1
gene 1 17 21 0.437773 0 36 0.437773 1
gene 1 18 21 -0.314882 0 37 -0.314882 1
gene 1 19 21 -0.928665 0 38 -0.928665 1
gene 1 1 22 1.03329 0 39 1.03329 1
gene 1 2 22 -0.717434 0 40 -0.717434 1
gene 1 3 22 0.4109 0 41 0.4109 1
gene 1 4 22 1.29302 0 42 1.29302 1
gene 1 5 22 -1.09314 0 43 -1.09314 1
gene 1 6 22 -0.0939318 0 44 -0.0939318 0
gene 1 7 22 -0.0407466 0 45 -0.0407466 1
gene 1 8 22 -0.0331167 0 46 -0.0331167 1
gene 1 9 22 -0.221174 0 47 -0.221174 1
gene 1 10 22 -0.29103 0 48 -0.29103 1
gene 1 11 22 0.343306 0 49 0.343306 1
gene 1 12 22 -0.423711 0 50 -0.423711 1
gene 1 13 22 0.362364 0 51 0.362364 1
gene 1 14 22 -0.0140664 0 52 -0.0140664 1
gene 1 15 22 0.980523 0 53 0.980523 1
gene 1 16 22 0.251906 0 54 0.251906 1
gene 1 17 22 0.451232 0 55 0.451232 1
gene 1 18 22 0.0541481 0 56 0.0541481 1
gene 1 19 22 0.501641 0 57 0.501641 1
gene 1 1 23 -0.235835 0 58 -0.235835 1
gene 1 2 23 -0.0281296 0 59 -0.0281296 1
gene 1 3 23 -1.09267 0 60 -1.09267 1
gene 1 4 23 -0.428779 0 61 -0.428779 1
gene 1 5 23 0.22714 0 62 0.22714 1
gene 1 6 23 -0.681773 0 63 -0.681773 1
gene 1 7 23 -0.0798613 0 64 -0.0798613 1
gene 1 8 23 -0.592154 0 65 -0.592154 1
gene 1 9 23 -0.447327 0 66 -0.447327 1
gene 1 10 23 0.987178 0 67 0.987178 1
gene 1 11 23 -3 0 68 -3 1
gene 1 12 23 0.410981 0 69 0.410981 1
gene 1 13 23 -1.15319 0 70 -1.15319 1
gene 1 14 23 -0.289093 0 71 -0.289093 1
gene 1 15 23 -0.637286 0 72 -0.637286 1
gene 1 16 23 -0.057386 0 73 -0.057386 1
gene 1 17 23 0.333147 0 74 0.333147 0
gene 1 18 23 0.650993 0 75 0.650993 1
gene 1 19 23 -1.50425 0 76 -1.50425 1
gene 1 8 24 0.813298 0 77 0.813298 1
gene 1 24 20 -0.162681 0 78 -0.162681 1
gene 1 15 26 -0.105196 0 85 -0.105196 1
gene 1 26 20 -0.294956 0 86 -0.294956 1
gene 1 22 20 1.65019 0 87 1.65019 1
gene 1 2 24 0.0771112 0 91 0.0771112 1
gene 1 8 28 0.380997 0 93 0.380997 1
gene 1 28 24 -0.602407 0 94 -0.602407 1
gene 1 6 24 0.113956 0 96 0.113956 1
gene 1 16 26 -0.352497 0 99 -0.352497 1
gene 1 13 24 0.321038 0 100 0.321038 1
gene 1 23 24 0.825436 0 113 0.825436 1
gene 1 13 32 0.243995 0 116 0.243995 1
gene 1 32 21 0.283789 0 117 0.283789 1
gene 1 10 37 -0.0272632 0 129 -0.0272632 1
gene 1 37 20 0.626049 0 130 0.626049 1
gene 1 17 39 -0.141294 0 134 -0.141294 1
gene 1 39 23 0.104945 0 135 0.104945 1
gene 1 15 43 -0.242917 0 150 -0.242917 1
gene 1 43 21 -0.103497 0 151 -0.103497 1
gene 1 3 43 -0.126405 0 153 -0.126405 1
gene 1 8 32 -0.271535 0 154 -0.271535 1
gene 1 2 39 -0.0934781 0 178 -0.0934781 1
gene 1 6 53 1.69026 0 191 1.69026 1
gene 1 53 22 -0.194374 0 192 -0.194374 1
genomeend 2052
genomestart 2053
trait 1 0 0.0791226 0.0228897 0.229325 0.561468 0 0 0.219298 
node 1 1 1 1 0
node 2 1 1 1 0
node 3 1 1 1 0
node 4 1 1 1 0
node 5 1 1 1 0
node 6 1 1 1 0
node 7 1 1 1 0
node 8 1 1 1 0
node 9 1 1 1 0
node 10 1 1 1 0
node 11 1 1 1 0
node 12 1 1 1 0
node 13 1 1 1 0
node 14 1 1 1 0
node 15 1 1 1 0
node 16 1 1 1 0
node 17 1 1 1 0
node 18 1 1 1 0
node 19 1 1 3 0
node 20 1 0 2 0
node 21 1 0 2 0
node 22 1 0 2 0
node 23 1 0 2 0
node 24 1 0 0 0
node 26 1 0 0 0
node 28 1 0 0 0
node 32 1 0 0 0
node 37 1 0 0 0
node 39 1 0 0 0
node 43 1 0 0 0
node 53 1 0 0 0
gene 1 1 20 -0.246304 0 1 -0.246304 1
gene 1 2 20 0.19297 0 2 0.19297 1
gene 1 3 20 0.844828 0 3 0.844828 1
gene 1 4 20 -0.488398 0 4 -0.488398 1
gene 1 5 20 0.0924877 0 5 0.0924877 1
gene 1 6 20 -1.35488 0 6 -1.35488 1
gene 1 7 20 0.668685 0 7 0.668685 1
gene 1 8 20 0.10501 0 8 0.10501 0
gene 1 9 20 0.202404 0 9 0.202404 1
gene 1 10 20 -0.846267 0 10 -0.846267 0
gene 1 11 20 0.343226 0 11 0.343226 1
gene 1 12 20 1.01019 0 12 1.01019 1
gene 1 13 20 0.977749 0 13 0.977749 1
gene 1 14 20 1.33121 0 14 1.33121 1
gene 1 15 20 -0.640563 0 15 -0.640563 1
gene 1 16 20 1.34222 0 16 1.34222 1
gene 1 17 20 0.318036 0 17 0.318036 1
gene 1 18 20 0.459658 0 18 0.459658 1
gene 1 19 20 0.246866 0 19 0.246866 1
gene 1 1 21 0.208231 0 20 0.208231 1
gene 1 2 21 0.444035 0 21 0.444035 1
gene 1 3 21 2.83545 0 22 2.83545 1
gene 1 4 21 1.41916 0 23 1.41916 1
gene 1 5 21 0.528229 0 24 0.528229 1
gene 1 6 21 1.45904 0 25 1.45904 1
gene 1 7 21 0.739108 0 26 0.739108 1
gene 1 8 21 0.31402 0 27 0.31402 1
gene 1 9 21 0.221279 0 28 0.221279 1
gene 1 10 21 -0.636092 0 29 -0.636092 1
gene 1 11 21 0.398868 0 30 0.398868 1
gene 1 12 21 0.402235 0 31 0.402235 1
gene 1 13 21 -0.625128 0 32 -0.625128 0
gene 1 14 21 -1.62375 0 33 -1.62375 1
gene 1 15 21 1.4049 0 34 1.4049 0
gene 1 16 21 -0.591461 0 35 -0.591461 1
gene 1 17 21 0.397552 0 36 0.397552 1
gene 1 18 21 0.163392 0 37 0.163392 1
gene 1 19 21 -0.892623 0 38 -0.892623 1
gene 1 1 22 0.972412 0 39 0.972412 1
gene 1 2 22 -0.129715 0 40 -0.129715 1
gene 1 3 22 -0.153193 0 41 -0.153193 1
gene 1 4 22 0.760258 0 42 0.760258 1
gene 1 5 22 -0.52952 0 43 -0.52952 1
gene 1 6 22 0.344231 0 44 0.344231 0
gene 1 7 22 0.690061 0 45 0.690061 1
gene 1 8 22 -0.550388 0 46 -0.550388 1
gene 1 9 22 0.0261429 0 47 0.0261429 1
gene 1 10 22 -0.439737 0 48 -0.439737 1
gene 1 11 22 0.126722 0 49 0.126722 1
gene 1 12 22 0.681994 0 50 0.681994 1
gene 1 13 22 -0.594476 0 51 -0.594476 1
gene 1 14 22 0.230606 0 52 0.230606 1
gene 1 15 22 0.789779 0 53 0.789779 1
gene 1 16 22 0.72318 0 54 0.72318 1
gene 1 17 22 0.858622 0 55 0.858622 1
gene 1 18 22 0.453536 0 56 0.453536 1
gene 1 19 22 0.45464 0 57 0.45464 1
gene 1 1 23 0.249748 0 58 0.249748 1
gene 1 2 23 1.65065 0 59 1.65065 1
gene 1 3 23 -2.10344 0 60 -2.10344 1
gene 1 4 23 -0.50251 0 61 -0.50251 1
gene 1 5 23 -0.627003 0 62 -0.627003 1
gene 1 6 23 1.14085 0 63 1.14085 1
gene 1 7 23 0.408011 0 64 0.408011 1
gene 1 8 23 -0.367014 0 65 -0.367014 1
gene 1 9 23 -0.632922 0 66 -0.632922 1
gene 1 10 23 1.46643 0 67 1.46643 1
gene 1 11 23 -2.43853 0 68 -2.43853 1
gene 1 12 23 1.22531 0 69 1.22531 1
gene 1 13 23 -0.246603 0 70 -0.246603 1
gene 1 14 23 -0.668847 0 71 -0.668847 1
gene 1 15 23 0.197397 0 72 0.197397 1
gene 1 16 23 -0.290035 0 73 -0.290035 1
gene 1 17 23 -0.774489 0 74 -0.774489 0
gene 1 18 23 0.953019 0 75 0.953019 1
gene 1 19 23 -0.888429 0 76 -0.888429 1
gene 1 8 24 0.400151 0 77 0.400151 0
gene 1 24 20 0.00540481 0 78 0.00540481 1
gene 1 15 26 0.796269 0 85 0.796269 1
gene 1 26 20 -0.0548819 0 86 -0.0548819 1
gene 1 22 20 1.83509 0 87 1.83509 1
gene 1 2 24 -0.0225193 0 91 -0.0225193 1
gene 1 8 28 0.4928 0 93 0.4928 1
gene 1 28 24 -0.369488 0 94 -0.369488 1
gene 1 6 24 0.700575 0 96 0.700575 1
gene 1 16 26 -0.445149 0 99 -0.445149 1
gene 1 13 24 -0.408419 0 100 -0.408419 1
gene 1 23 24 0.228259 0 113 0.228259 1
gene 1 13 32 -0.322712 0 116 -0.322712 1
gene 1 32 21 0.206741 0 117 0.206741 1
gene 1 10 37 0.264342 0 129 0.264342 1
gene 1 37 20 0.478249 0 130 0.478249 1
gene 1 17 39 -0.0854328 0 134 -0.0854328 1
gene 1 39 23 0.340735 0 135 0.340735 1
gene 1 15 43 -0.510883 0 150 -0.510883 1
gene 1 43 21 0.0460972 0 151 0.0460972 1
gene 1 3 43 0.556469 0 153 0.556469 1
gene 1 8 32 -0.427049 0 154 -0.427049 1
gene 1 2 39 -0.45663 0 178 -0.45663 1
gene 1 6 53 1.01343 0 191 1.01343 1
gene 1 53 22 -0.302345 0 192 -0.302345 1
genomeend 2053
genomestart 2054
trait 1 0.82852 0 0.450751 0 0 0 0 0 
node 1 1 1 1 0
node 2 1 1 1 0
node 3 1 1 1 0
node 4 1 1 1 0
node 5 1 1 1 0
node 6 1 1 1 0
node 7 1 1 1 0
node 8 1 1 1 0
node 9 1 1 1 0
node 10 1 1 1 0
node 11 1 1 1 0
node 12 1 1 1 0
node 13 1 1 1 0
node 14 1 1 1 0
node 15 1 1 1 0
node 16 1 1 1 0
node 17 1 1 1 0
node 18 1 1 1 0
node 19 1 1 3 0
node 20 1 0 2 0
node 21 1 0 2 0
node 22 1 0 2 0
node 23 1 0 2 0
node 24 1 0 0 0
node 26 1 0 0 0
node 37 1 0 0 0
node 46 1 0 0 0
gene 1 1 20 0.155749 0 1 0.155749 1
gene 1 2 20 0.407334 0 2 0.407334 1
gene 1 3 20 0.190282 0 3 0.190282 1
gene 1 4 20 0.484509 0 4 0.484509 1
gene 1 5 20 -0.627888 0 5 -0.627888 1
gene 1 6 20 0.809179 0 6 0.809179 1
gene 1 7 20 0.249456 0 7 0.249456 1
gene 1 8 20 -0.172866 0 8 -0.172866 1
gene 1 9 20 1.18912 0 9 1.18912 1
gene 1 10 20 -1.68802 0 10 -1.68802 0
gene 1 11 20 0.266663 0 11 0.266663 1
gene 1 12 20 -0.106376 0 12 -0.106376 1
gene 1 13 20 0.194786 0 13 0.194786 1
gene 1 14 20 0.0764864 0 14 0.0764864 1
gene 1 15 20 -0.418502 0 15 -0.418502 1
gene 1 16 20 -0.371821 0 16 -0.371821 1
gene 1 17 20 2.22604 0 17 2.22604 1
gene 1 18 20 0.790082 0 18 0.790082 1
gene 1 19 20 0.921853 0 19 0.921853 1
gene 1 1 21 -0.870536 0 20 -0.870536 1
gene 1 2 21 -0.202709 0 21 -0.202709 1
gene 1 3 21 -0.602073 0 22 -0.602073 1
gene 1 4 21 0.0852303 0 23 0.0852303 1
gene 1 5 21 0.625219 0 24 0.625219 1
gene 1 6 21 0.445041 0 25 0.445041 1
gene 1 7 21 0.217662 0 26 0.217662 1
gene 1 8 21 -1.82596 0 27 -1.82596 1
gene 1 9 21 0.228092 0 28 0.228092 1
gene 1 10 21 0.96673 0 29 0.96673 1
gene 1 11 21 0.805616 0 30 0.805616 1
gene 1 12 21 -0.645321 0 31 -0.645321 1
gene 1 13 21 -1.48593 0 32 -1.48593 1
gene 1 14 21 -0.471856 0 33 -0.471856 1
gene 1 15 21 0.917297 0 34 0.917297 1
gene 1 16 21 -0.0169079 0 35 -0.0169079 1
gene 1 17 21 0.199926 0 36 0.199926 1
gene 1 18 21 0.0841166 0 37 0.0841166 1
gene 1 19 21 0.217332 0 38 0.217332 1
gene 1 1 22 -0.0170524 0 39 -0.0170524 1
gene 1 2 22 0.033678 0 40 0.033678 1
gene 1 3 22 0.0903626 0 41 0.0903626 1
gene 1 4 22 0.0845175 0 42 0.0845175 1
gene 1 5 22 0.423135 0 43 0.423135 1
gene 1 6 22 0.174635 0 44 0.174635 1
gene 1 7 22 -0.48467 0 45 -0.48467 1
gene 1 8 22 -0.370706 0 46 -0.370706 1
gene 1 9 22 -0.418332 0 47 -0.418332 1
gene 1 10 22 -0.592261 0 48 -0.592261 1
gene 1 11 22 -2.85582 0 49 -2.85582 1
gene 1 12 22 1.58324 0 50 1.58324 1
gene 1 13 22 0.160591 0 51 0.160591 1
gene 1 14 22 -1.04179 0 52 -1.04179 1
gene 1 15 22 0.214267 0 53 0.214267 1
gene 1 16 22 -0.157208 0 54 -0.157208 1
gene 1 17 22 0.0174613 0 55 0.0174613 1
gene 1 18 22 0.611452 0 56 0.611452 1
gene 1 19 22 -0.127885 0 57 -0.127885 1
gene 1 1 23 -0.170986 0 58 -0.170986 1
gene 1 2 23 -0.0696044 0 59 -0.0696044 1
gene 1 3 23 -0.280598 0 60 -0.280598 1
gene 1 4 23 0.409126 0 61 0.409126 1
gene 1 5 23 0.337362 0 62 0.337362 1
gene 1 6 23 -0.221632 0 63 -0.221632 1
gene 1 7 23 -0.494795 0 64 -0.494795 1
gene 1 8 23 -0.221972 0 65 -0.221972 1
gene 1 9 23 -0.0568374 0 66 -0.0568374 1
gene 1 10 23 -0.0827565 0 67 -0.0827565 1
gene 1 11 23 -0.22523 0 68 -0.22523 1
gene 1 12 23 -0.336463 0 69 -0.336463 1
gene 1 13 23 0.70088 0 70 0.70088 1
gene 1 14 23 -0.298632 0 71 -0.298632 1
gene 1 15 23 -0.496783 0 72 -0.496783 1
gene 1 16 23 -0.228463 0 73 -0.228463 1
gene 1 17 23 0.33099 0 74 0.33099 1
gene 1 18 23 0.402169 0 75 0.402169 1
gene 1 19 23 0.337989 0 76 0.337989 1
gene 1 8 24 -0.506923 0 77 -0.506923 1
gene 1 24 20 -0.495643 0 78 -0.495643 1
gene 1 15 26 -0.517766 0 85 -0.517766 1
gene 1 26 20 0.331825 0 86 0.331825 1
gene 1 22 20 -0.264859 0 87 -0.264859 1
gene 1 2 24 -0.479549 0 91 -0.479549 1
gene 1 6 24 0.42397 0 96 0.42397 1
gene 1 10 37 -1.02529 0 129 -1.02529 1
gene 1 37 20 0.0748638 0 130 0.0748638 1
gene 1 24 37 -0.809995 0 140 -0.809995 1
gene 1 11 46 0.0893704 0 161 0.0893704 1
gene 1 46 20 -0.158326 0 162 -0.158326 1
genomeend 2054
genomestart 2060
trait 1 0 0.459091 0.300627 0.00121512 0.538741 0.0278606 0.213869 0.00281157 
node 1 1 1 1 0
node 2 1 1 1 0
node 3 1 1 1 0
node 4 1 1 1 0
node 5 1 1 1 0
node 6 1 1 1 0
node 7 1 1 1 0
node 8 1 1 1 0
node 9 1 1 1 0
node 10 1 1 1 0
node 11 1 1 1 0
node 12 1 1 1 0
node 13 1 1 1 0
node 14 1 1 1 0
node 15 1 1 1 0
node 16 1 1 1 0
node 17 1 1 1 0
node 18 1 1 1 0
node 19 1 1 3 0
node 20 1 0 2 0
node 21 1 0 2 0
node 22 1 0 2 0
node 23 1 0 2 0
node 24 1 0 0 0
node 26 1 0 0 0
node 32 1 0 0 0
node 34 1 0 0 0
node 36 1 0 0 0
node 37 1 0 0 0
node 39 1 0 0 0
node 46 1 0 0 0
node 54 1 0 0 0
gene 1 1 20 0.0858233 0 1 0.0858233 1
gene 1 2 20 0.0407008 0 2 0.0407008 1
gene 1 3 20 -0.0114547 0 3 -0.0114547 1
gene 1 4 20 2.01956 0 4 2.01956 1
gene 1 5 20 0.601743 0 5 0.601743 1
gene 1 6 20 1.81036 0 6 1.81036 1
gene 1 7 20 0.614583 0 7 0.614583 1
gene 1 8 20 0.00639255 0 8 0.00639255 0
gene 1 9 20 -0.216466 0 9 -0.216466 0
gene 1 10 20 -0.236863 0 10 -0.236863 0
gene 1 11 20 1.25176 0 11 1.25176 0
gene 1 12 20 -0.0808637 0 12 -0.0808637 1
gene 1 13 20 -0.391292 0 13 -0.391292 1
gene 1 14 20 -0.0944607 0 14 -0.0944607 1
gene 1 15 20 0.0288052 0 15 0.0288052 0
gene 1 16 20 0.308497 0 16 0.308497 1
gene 1 17 20 -0.836968 0 17 -0.836968 1
gene 1 18 20 1.30105 0 18 1.30105 1
gene 1 19 20 0.126796 0 19 0.126796 1
gene 1 1 21 1.11345 0 20 1.11345 1
gene 1 2 21 -0.608574 0 21 -0.608574 1
gene 1 3 21 -0.555313 0 22 -0.555313 1
gene 1 4 21 0.0433804 0 23 0.0433804 1
gene 1 5 21 0.489096 0 24 0.489096 1
gene 1 6 21 0.696101 0 25 0.696101 1
gene 1 7 21 -1.45515 0 26 -1.45515 1
gene 1 8 21 -0.847437 0 27 -0.847437 1
gene 1 9 21 -3 0 28 -3 1
gene 1 10 21 2.57512 0 29 2.57512 1
gene 1 11 21 0.326075 0 30 0.326075 0
gene 1 12 21 -0.979725 0 31 -0.979725 1
gene 1 13 21 -0.808319 0 32 -0.808319 1
gene 1 14 21 0.262695 0 33 0.262695 1
gene 1 15 21 -0.828578 0 34 -0.828578 1
gene 1 16 21 0.982339 0 35 0.982339 1
gene 1 17 21 0.491247 0 36 0.491247 1
gene 1 18 21 0.401606 0 37 0.401606 1
gene 1 19 21 -0.0914355 0 38 -0.0914355 1
gene 1 1 22 1.31425 0 39 1.31425 1
gene 1 2 22 -1.35999 0 40 -1.35999 1
gene 1 3 22 0.562658 0 41 0.562658 1
gene 1 4 22 0.0198267 0 42 0.0198267 1
gene 1 5 22 0.536031 0 43 0.536031 1
gene 1 6 22 -0.423631 0 44 -0.423631 1
gene 1 7 22 -0.469051 0 45 -0.469051 1
gene 1 8 22 -0.229237 0 46 -0.229237 1
gene 1 9 22 -1.26178 0 47 -1.26178 1
gene 1 10 22 0.331884 0 48 0.331884 1
gene 1 11 22 -0.720257 0 49 -0.720257 1
gene 1 12 22 0.845449 0 50 0.845449 1
gene 1 13 22 0.323171 0 51 0.323171 1
gene 1 14 22 0.0911115 0 52 0.0911115 1
gene 1 15 22 0.323196 0 53 0.323196 1
gene 1 16 22 -0.152575 0 54 -0.152575 1
gene 1 17 22 -1.31966 0 55 -1.31966 1
gene 1 18 22 -0.143132 0 56 -0.143132 1
gene 1 19 22 0.0167938 0 57 0.0167938 1
gene 1 1 23 0.0365845 0 58 0.0365845 1
gene 1 2 23 0.660341 0 59 0.660341 1
gene 1 3 23 -0.0777679 0 60 -0.0777679 1
gene 1 4 23 0.335453 0 61 0.335453 1
gene 1 5 23 -1.51804 0 62 -1.51804 1
gene 1 6 23 1.09804 0 63 1.09804 1
gene 1 7 23 -0.249155 0 64 -0.249155 1
gene 1 8 23 -0.226575 0 65 -0.226575 1
gene 1 9 23 -0.132622 0 66 -0.132622 1
gene 1 10 23 -1.07324 0 67 -1.07324 1
gene 1 11 23 -0.0285543 0 68 -0.0285543 1
gene 1 12 23 0.278348 0 69 0.278348 1
gene 1 13 23 -0.506177 0 70 -0.506177 1
gene 1 14 23 -0.74301 0 71 -0.74301 1
gene 1 15 23 0.593202 0 72 0.593202 1
gene 1 16 23 -0.499407 0 73 -0.499407 1
gene 1 17 23 -1.40529 0 74 -1.40529 1
gene 1 18 23 0.236666 0 75 0.236666 1
gene 1 19 23 0.674189 0 76 0.674189 1
gene 1 8 24 1.2354 0 77 1.2354 1
gene 1 24 20 0.826983 0 78 0.826983 1
gene 1 15 26 -0.471895 0 85 -0.471895 1
gene 1 26 20 1.43078 0 86 1.43078 1
gene 1 22 20 0.788998 0 87 0.788998 1
gene 1 2 24 0.688917 0 91 0.688917 1
gene 1 6 24 -0.609593 0 96 -0.609593 1
gene 1 16 26 -0.289456 0 99 -0.289456 1
gene 1 13 24 0.234893 0 100 0.234893 1
gene 1 23 24 -0.172637 0 113 -0.172637 1
gene 1 13 32 -0.110651 0 116 -0.110651 1
gene 1 32 21 -0.064291 0 117 -0.064291 1
gene 1 11 34 0.310317 0 122 0.310317 1
gene 1 34 21 -0.304314 0 123 -0.304314 1
gene 1 9 36 0.461423 0 127 0.461423 1
gene 1 36 20 0.416331 0 128 0.416331 1
gene 1 10 37 -0.300273 0 129 -0.300273 1
gene 1 37 20 0.292545 0 130 0.292545 1
gene 1 17 39 0.175717 0 134 0.175717 1
gene 1 39 23 0.404698 0 135 0.404698 1
gene 1 24 37 0.0159457 0 140 0.0159457 1
gene 1 19 24 -0.133707 0 144 -0.133707 1
gene 1 11 46 0.438433 0 161 0.438433 1
gene 1 46 20 -0.239335 0 162 -0.239335 1
gene 1 39 34 0.297191 0 193 0.297191 1
gene 1 16 54 0.608767 0 194 0.608767 1
gene 1 54 26 -0.0374052 0 195 -0.0374052 1
genomeend 2060
genomestart 2062
trait 1 0 0.264377 0.338431 0.00182268 0.308112 0.0417909 0.106934 0.00140579 
node 1 1 1 1 0
node 2 1 1 1 0
node 3 1 1 1 0
node 4 1 1 1 0
node 5 1 1 1 0
node 6 1 1 1 0
node 7 1 1 1 0
node 8 1 1 1 0
node 9 1 1 1 0
node 10 1 1 1 0
node 11 1 1 1 0
node 12 1 1 1 0
node 13 1 1 1 0
node 14 1 1 1 0
node 15 1 1 1 0
node 16 1 1 1 0
node 17 1 1 1 0
node 18 1 1 1 0
node 19 1 1 3 0
node 20 1 0 2 0
node 21 1 0 2 0
node 22 1 0 2 0
node 23 1 0 2 0
node 24 1 0 0 0
node 26 1 0 0 0
node 32 1 0 0 0
node 34 1 0 0 0
node 36 1 0 0 0
node 37 1 0 0 0
node 39 1 0 0 0
node 46 1 0 0 0
node 54 1 0 0 0
gene 1 1 20 0.316694 0 1 0.316694 1
gene 1 2 20 -1.02605 0 2 -1.02605 1
gene 1 3 20 -0.258758 0 3 -0.258758 1
gene 1 4 20 1.54971 0 4 1.54971 1
gene 1 5 20 0.445154 0 5 0.445154 1
gene 1 6 20 1.02172 0 6 1.02172 1
gene 1 7 20 -0.166652 0 7 -0.166652 1
gene 1 8 20 0.0579904 0 8 0.0579904 1
gene 1 9 20 0.056021 0 9 0.056021 0
gene 1 10 20 0.387923 0 10 0.387923 0
gene 1 11 20 1.2795 0 11 1.2795 1
gene 1 12 20 0.101988 0 12 0.101988 1
gene 1 13 20 -0.6801 0 13 -0.6801 1
gene 1 14 20 0.241169 0 14 0.241169 1
gene 1 15 20 0.262498 0 15 0.262498 1
gene 1 16 20 0.244381 0 16 0.244381 1
gene 1 17 20 -0.613576 0 17 -0.613576 1
gene 1 18 20 -0.290738 0 18 -0.290738 1
gene 1 19 20 0.846586 0 19 0.846586 1
gene 1 1 21 0.977272 0 20 0.977272 1
gene 1 2 21 -0.569527 0 21 -0.569527 1
gene 1 3 21 -0.40981 0 22 -0.40981 1
gene 1 4 21 0.232784 0 23 0.232784 1
gene 1 5 21 0.133158 0 24 0.133158 1
gene 1 6 21 0.775781 0 25 0.775781 1
gene 1 7 21 -1.60128 0 26 -1.60128 1
gene 1 8 21 -2.44319 0 27 -2.44319 1
gene 1 9 21 -3 0 28 -3 1
gene 1 10 21 2.82509 0 29 2.82509 1
gene 1 11 21 0.494643 0 30 0.494643 0
gene 1 12 21 -1.303 0 31 -1.303 1
gene 1 13 21 -0.742211 0 32 -0.742211 1
gene 1 14 21 0.358096 0 33 0.358096 1
gene 1 15 21 -0.644893 0 34 -0.644893 1
gene 1 16 21 0.631793 0 35 0.631793 1
gene 1 17 21 0.715812 0 36 0.715812 1
gene 1 18 21 0.185989 0 37 0.185989 1
gene 1 19 21 -0.102656 0 38 -0.102656 1
gene 1 1 22 1.44074 0 39 1.44074 1
gene 1 2 22 -0.719759 0 40 -0.719759 1
gene 1 3 22 0.629626 0 41 0.629626 1
gene 1 4 22 0.135644 0 42 0.135644 1
gene 1 5 22 0.158718 0 43 0.158718 1
gene 1 6 22 0.350165 0 44 0.350165 1
gene 1 7 22 -0.256508 0 45 -0.256508 1
gene 1 8 22 -0.184868 0 46 -0.184868 1
gene 1 9 22 -1.33882 0 47 -1.33882 1
gene 1 10 22 0.348506 0 48 0.348506 1
gene 1 11 22 -0.655855 0 49 -0.655855 1
gene 1 12 22 1.47295 0 50 1.47295 1
gene 1 13 22 -0.0668395 0 51 -0.0668395 1
gene 1 14 22 -0.929948 0 52 -0.929948 1
gene 1 15 22 0.331077 0 53 0.331077 1
gene 1 16 22 -0.290787 0 54 -0.290787 1
gene 1 17 22 -1.15431 0 55 -1.15431 1
gene 1 18 22 -0.303314 0 56 -0.303314 1
gene 1 19 22 0.315782 0 57 0.315782 1
gene 1 1 23 0.116725 0 58 0.116725 1
gene 1 2 23 -0.0993579 0 59 -0.0993579 1
gene 1 3 23 -0.117066 0 60 -0.117066 1
gene 1 4 23 0.258023 0 61 0.258023 1
gene 1 5 23 0.431367 0 62 0.431367 1
gene 1 6 23 0.919234 0 63 0.919234 1
gene 1 7 23 -0.161118 0 64 -0.161118 1
gene 1 8 23 -0.45442 0 65 -0.45442 1
gene 1 9 23 1.16391 0 66 1.16391 1
gene 1 10 23 -0.420023 0 67 -0.420023 1
gene 1 11 23 0.0795467 0 68 0.0795467 1
gene 1 12 23 0.489297 0 69 0.489297 1
gene 1 13 23 -0.130763 0 70 -0.130763 1
gene 1 14 23 -0.544935 0 71 -0.544935 1
gene 1 15 23 0.420388 0 72 0.420388 1
gene 1 16 23 -0.577847 0 73 -0.577847 1
gene 1 17 23 -1.20769 0 74 -1.20769 1
gene 1 18 23 0.216355 0 75 0.216355 1
gene 1 19 23 0.649201 0 76 0.649201 1
gene 1 8 24 1.07215 0 77 1.07215 1
gene 1 24 20 -0.193577 0 78 -0.193577 1
gene 1 15 26 -0.292045 0 85 -0.292045 1
gene 1 26 20 1.23206 0 86 1.23206 1
gene 1 22 20 0.936728 0 87 0.936728 1
gene 1 2 24 0.479455 0 91 0.479455 1
gene 1 6 24 0.5077 0 96 0.5077 1
gene 1 16 26 0.0722161 0 99 0.0722161 1
gene 1 13 24 0.234893 0 100 0.234893 1
gene 1 23 24 -0.172637 0 113 -0.172637 1
gene 1 13 32 -0.110651 0 116 -0.110651 1
gene 1 32 21 0.184178 0 117 0.184178 1
gene 1 11 34 -0.460227 0 122 -0.460227 1
gene 1 34 21 -0.357179 0 123 -0.357179 1
gene 1 9 36 0.461423 0 127 0.461423 1
gene 1 36 20 0.514987 0 128 0.514987 1
gene 1 10 37 -0.0269701 0 129 -0.0269701 1
gene 1 37 20 0.292545 0 130 0.292545 1
gene 1 17 39 0.175717 0 134 0.175717 1
gene 1 39 23 0.562744 0 135 0.562744 1
gene 1 24 37 -0.209129 0 140 -0.209129 1
gene 1 19 24 -0.336507 0 144 -0.336507 1
gene 1 11 46 -0.266243 0 161 -0.266243 1
gene 1 46 20 -0.239335 0 162 -0.239335 1
gene 1 39 34 0.449566 0 193 0.449566 1
gene 1 16 54 0.824129 0 194 0.824129 1
gene 1 54 26 0.204293 0 195 0.204293 1
gene 1 18 32 0.1163 0 213 0.1163 1
genomeend 2062
genomestart 2063
trait 1 0 0.0395613 0.0228897 0.229325 0.780734 0 0 0.333245 
node 1 1 1 1 0
node 2 1 1 1 0
node 3 1 1 1 0
node 4 1 1 1 0
node 5 1 1 1 0
node 6 1 1 1 0
node 7 1 1 1 0
node 8 1 1 1 0
node 9 1 1 1 0
node 10 1 1 1 0
node 11 1 1 1 0
node 12 1 1 1 0
node 13 1 1 1 0
node 14 1 1 1 0
node 15 1 1 1 0
node 16 1 1 1 0
node 17 1 1 1 0
node 18 1 1 1 0
node 19 1 1 3 0
node 20 1 0 2 0
node 21 1 0 2 0
node 22 1 0 2 0
node 23 1 0 2 0
node 24 1 0 0 0
node 26 1 0 0 0
node 28 1 0 0 0
node 32 1 0 0 0
node 37 1 0 0 0
node 39 1 0 0 0
node 43 1 0 0 0
node 53 1 0 0 0
node 60 1 0 0 0
gene 1 1 20 -0.0450208 0 1 -0.0450208 1
gene 1 2 20 -0.110307 0 2 -0.110307 1
gene 1 3 20 1.44678 0 3 1.44678 1
gene 1 4 20 -0.439034 0 4 -0.439034 1
gene 1 5 20 -0.733783 0 5 -0.733783 1
gene 1 6 20 -0.90461 0 6 -0.90461 1
gene 1 7 20 0.498948 0 7 0.498948 1
gene 1 8 20 -0.370753 0 8 -0.370753 0
gene 1 9 20 0.0533113 0 9 0.0533113 1
gene 1 10 20 -0.588558 0 10 -0.588558 0
gene 1 11 20 0.585745 0 11 0.585745 1
gene 1 12 20 0.963428 0 12 0.963428 1
gene 1 13 20 0.460954 0 13 0.460954 1
gene 1 14 20 0.331933 0 14 0.331933 1
gene 1 15 20 -0.165738 0 15 -0.165738 1
gene 1 16 20 0.991276 0 16 0.991276 1
gene 1 17 20 -0.0921412 0 17 -0.0921412 1
gene 1 18 20 0.515803 0 18 0.515803 1
gene 1 19 20 -0.22387 0 19 -0.22387 1
gene 1 1 21 0.453837 0 20 0.453837 1
gene 1 2 21 0.0661069 0 21 0.0661069 1
gene 1 3 21 2.48672 0 22 2.48672 1
gene 1 4 21 1.08943 0 23 1.08943 1
gene 1 5 21 1.02862 0 24 1.02862 1
gene 1 6 21 1.45354 0 25 1.45354 1
gene 1 7 21 0.740966 0 26 0.740966 1
gene 1 8 21 -0.114777 0 27 -0.114777 1
gene 1 9 21 -0.64777 0 28 -0.64777 1
gene 1 10 21 -0.170402 0 29 -0.170402 1
gene 1 11 21 0.895612 0 30 0.895612 1
gene 1 12 21 0.268473 0 31 0.268473 1
gene 1 13 21 -0.97793 0 32 -0.97793 0
gene 1 14 21 -2.22387 0 33 -2.22387 1
gene 1 15 21 0.919152 0 34 0.919152 0
gene 1 16 21 -0.254727 0 35 -0.254727 1
gene 1 17 21 -0.748422 0 36 -0.748422 1
gene 1 18 21 0.0464782 0 37 0.0464782 1
gene 1 19 21 -0.850767 0 38 -0.850767 1
gene 1 1 22 0.949106 0 39 0.949106 1
gene 1 2 22 0.261443 0 40 0.261443 1
gene 1 3 22 0.582735 0 41 0.582735 1
gene 1 4 22 0.40287 0 42 0.40287 1
gene 1 5 22 0.0735138 0 43 0.0735138 1
gene 1 6 22 -0.0332698 0 44 -0.0332698 0
gene 1 7 22 -0.391486 0 45 -0.391486 1
gene 1 8 22 -0.792675 0 46 -0.792675 1
gene 1 9 22 0.262947 0 47 0.262947 1
gene 1 10 22 0.199437 0 48 0.199437 1
gene 1 11 22 0.407299 0 49 0.407299 1
gene 1 12 22 1.26292 0 50 1.26292 1
gene 1 13 22 -0.225841 0 51 -0.225841 1
gene 1 14 22 0.324726 0 52 0.324726 1
gene 1 15 22 0.428027 0 53 0.428027 1
gene 1 16 22 0.3716 0 54 0.3716 1
gene 1 17 22 0.471188 0 55 0.471188 0
gene 1 18 22 0.462752 0 56 0.462752 1
gene 1 19 22 0.584058 0 57 0.584058 1
gene 1 1 23 0.639013 0 58 0.639013 1
gene 1 2 23 1.22514 0 59 1.22514 1
gene 1 3 23 -2.19465 0 60 -2.19465 1
gene 1 4 23 -0.0270874 0 61 -0.0270874 1
gene 1 5 23 -0.168625 0 62 -0.168625 1
gene 1 6 23 0.624887 0 63 0.624887 1
gene 1 7 23 0.541256 0 64 0.541256 1
gene 1 8 23 0.0396946 0 65 0.0396946 1
gene 1 9 23 -0.49556 0 66 -0.49556 1
gene 1 10 23 1.42965 0 67 1.42965 1
gene 1 11 23 -2.88613 0 68 -2.88613 1
gene 1 12 23 1.51236 0 69 1.51236 1
gene 1 13 23 -0.336235 0 70 -0.336235 1
gene 1 14 23 -0.472697 0 71 -0.472697 1
gene 1 15 23 -0.907742 0 72 -0.907742 1
gene 1 16 23 0.496951 0 73 0.496951 1
gene 1 17 23 -0.683628 0 74 -0.683628 0
gene 1 18 23 0.355378 0 75 0.355378 1
gene 1 19 23 -1.27965 0 76 -1.27965 1
gene 1 8 24 0.540323 0 77 0.540323 0
gene 1 24 20 0.464173 0 78 0.464173 1
gene 1 15 26 0.858806 0 85 0.858806 1
gene 1 26 20 -0.0808757 0 86 -0.0808757 1
gene 1 22 20 2.1397 0 87 2.1397 1
gene 1 2 24 -0.437621 0 91 -0.437621 1
gene 1 8 28 0.420938 0 93 0.420938 1
gene 1 28 24 -0.00391951 0 94 -0.00391951 1
gene 1 6 24 0.86224 0 96 0.86224 1
gene 1 16 26 -0.251603 0 99 -0.251603 1
gene 1 13 24 -0.354431 0 100 -0.354431 1
gene 1 23 24 0.386658 0 113 0.386658 1
gene 1 13 32 0.384658 0 116 0.384658 1
gene 1 32 21 0.206741 0 117 0.206741 1
gene 1 10 37 0.264342 0 129 0.264342 1
gene 1 37 20 0.611631 0 130 0.611631 1
gene 1 17 39 -0.0854328 0 134 -0.0854328 1
gene 1 39 23 -0.0134566 0 135 -0.0134566 1
gene 1 15 43 -0.302169 0 150 -0.302169 1
gene 1 43 21 0.309479 0 151 0.309479 1
gene 1 3 43 0.529748 0 153 0.529748 1
gene 1 8 32 -0.0629767 0 154 -0.0629767 1
gene 1 2 39 -0.0497778 0 178 -0.0497778 1
gene 1 6 53 1.49324 0 191 1.49324 1
gene 1 53 22 -0.550218 0 192 -0.550218 1
gene 1 17 60 1 0 217 0 1
gene 1 60 22 0.141356 0 218 0 1
genomeend 2063
genomestart 2064
trait 1 0 0.459091 0.300627 0.00121512 0.538741 0.0278606 0.213869 0.00281157 
node 1 1 1 1 0
node 2 1 1 1 0
node 3 1 1 1 0
node 4 1 1 1 0
node 5 1 1 1 0
node 6 1 1 1 0
node 7 1 1 1 0
node 8 1 1 1 0
node 9 1 1 1 0
node 10 1 1 1 0
node 11 1 1 1 0
node 12 1 1 1 0
node 13 1 1 1 0
node 14 1 1 1 0
node 15 1 1 1 0
node 16 1 1 1 0
node 17 1 1 1 0
node 18 1 1 1 0
node 19 1 1 3 0
node 20 1 0 2 0
node 21 1 0 2 0
node 22 1 0 2 0
node 23 1 0 2 0
node 24 1 0 0 0
node 26 1 0 0 0
node 32 1 0 0 0
node 34 1 0 0 0
node 36 1 0 0 0
node 37 1 0 0 0
node 39 1 0 0 0
node 46 1 0 0 0
node 54 1 0 0 0
gene 1 1 20 0.00483654 0 1 0.00483654 1
gene 1 2 20 -0.0606947 0 2 -0.0606947 1
gene 1 3 20 0.235848 0 3 0.235848 1
gene 1 4 20 2.20065 0 4 2.20065 1
gene 1 5 20 0.758332 0 5 0.758332 1
gene 1 6 20 1.87175 0 6 1.87175 1
gene 1 7 20 0.853249 0 7 0.853249 1
gene 1 8 20 -0.0452053 0 8 -0.0452053 0
gene 1 9 20 -0.279191 0 9 -0.279191 0
gene 1 10 20 -0.397353 0 10 -0.397353 1
gene 1 11 20 1.22558 0 11 1.22558 0
gene 1 12 20 -0.263716 0 12 -0.263716 1
gene 1 13 20 -0.404259 0 13 -0.404259 1
gene 1 14 20 -0.176473 0 14 -0.176473 1
gene 1 15 20 -0.0431924 0 15 -0.0431924 0
gene 1 16 20 0.513939 0 16 0.513939 1
gene 1 17 20 -1.06036 0 17 -1.06036 1
gene 1 18 20 1.38751 0 18 1.38751 1
gene 1 19 20 0.0896829 0 19 0.0896829 1
gene 1 1 21 1.24963 0 20 1.24963 1
gene 1 2 21 -0.378403 0 21 -0.378403 1
gene 1 3 21 -0.700815 0 22 -0.700815 1
gene 1 4 21 -0.146024 0 23 -0.146024 1
gene 1 5 21 0.407782 0 24 0.407782 1
gene 1 6 21 0.61642 0 25 0.61642 1
gene 1 7 21 -1.30902 0 26 -1.30902 1
gene 1 8 21 -1.0691 0 27 -1.0691 1
gene 1 9 21 -3 0 28 -3 1
gene 1 10 21 2.32516 0 29 2.32516 1
gene 1 11 21 0.157507 0 30 0.157507 0
gene 1 12 21 -0.784401 0 31 -0.784401 1
gene 1 13 21 -0.874426 0 32 -0.874426 1
gene 1 14 21 0.167294 0 33 0.167294 1
gene 1 15 21 -1.01226 0 34 -1.01226 1
gene 1 16 21 0.977403 0 35 0.977403 1
gene 1 17 21 0.266681 0 36 0.266681 1
gene 1 18 21 0.617222 0 37 0.617222 1
gene 1 19 21 -0.0802155 0 38 -0.0802155 1
gene 1 1 22 1.18777 0 39 1.18777 1
gene 1 2 22 -1.57179 0 40 -1.57179 1
gene 1 3 22 0.49569 0 41 0.49569 1
gene 1 4 22 -0.0959908 0 42 -0.0959908 1
gene 1 5 22 0.520646 0 43 0.520646 1
gene 1 6 22 -0.533894 0 44 -0.533894 1
gene 1 7 22 -0.681593 0 45 -0.681593 1
gene 1 8 22 -0.273606 0 46 -0.273606 1
gene 1 9 22 -1.22348 0 47 -1.22348 1
gene 1 10 22 0.569249 0 48 0.569249 1
gene 1 11 22 -0.784658 0 49 -0.784658 1
gene 1 12 22 0.984663 0 50 0.984663 1
gene 1 13 22 0.404664 0 51 0.404664 1
gene 1 14 22 0.0769201 0 52 0.0769201 1
gene 1 15 22 0.315315 0 53 0.315315 1
gene 1 16 22 -0.0143617 0 54 -0.0143617 1
gene 1 17 22 -1.23595 0 55 -1.23595 1
gene 1 18 22 0.0170502 0 56 0.0170502 1
gene 1 19 22 0.260904 0 57 0.260904 1
gene 1 1 23 -0.0435559 0 58 -0.0435559 1
gene 1 2 23 0.663365 0 59 0.663365 1
gene 1 3 23 -0.174845 0 60 -0.174845 1
gene 1 4 23 0.412884 0 61 0.412884 1
gene 1 5 23 -1.74328 0 62 -1.74328 1
gene 1 6 23 1.27685 0 63 1.27685 1
gene 1 7 23 -0.0890379 0 64 -0.0890379 1
gene 1 8 23 0.00126941 0 65 0.00126941 1
gene 1 9 23 -0.252951 0 66 -0.252951 1
gene 1 10 23 -1.15027 0 67 -1.15027 1
gene 1 11 23 -0.136655 0 68 -0.136655 1
gene 1 12 23 0.34038 0 69 0.34038 1
gene 1 13 23 -0.453136 0 70 -0.453136 1
gene 1 14 23 -0.941086 0 71 -0.941086 1
gene 1 15 23 0.766017 0 72 0.766017 1
gene 1 16 23 -0.420967 0 73 -0.420967 1
gene 1 17 23 -1.58149 0 74 -1.58149 1
gene 1 18 23 0.256977 0 75 0.256977 1
gene 1 19 23 0.699178 0 76 0.699178 1
gene 1 8 24 1.39865 0 77 1.39865 1
gene 1 24 20 1.06163 0 78 1.06163 1
gene 1 15 26 -0.651745 0 85 -0.651745 1
gene 1 26 20 1.62949 0 86 1.62949 1
gene 1 22 20 0.641269 0 87 0.641269 1
gene 1 2 24 0.89838 0 91 0.89838 1
gene 1 6 24 -0.651375 0 96 -0.651375 1
gene 1 16 26 -0.289456 0 99 -0.289456 1
gene 1 13 24 0.234893 0 100 0.234893 1
gene 1 23 24 -0.172637 0 113 -0.172637 1
gene 1 13 32 -0.110651 0 116 -0.110651 1
gene 1 32 21 -0.31276 0 117 -0.31276 1
gene 1 11 34 0.491407 0 122 0.491407 1
gene 1 34 21 -0.304314 0 123 -0.304314 1
gene 1 9 36 0.461423 0 127 0.461423 1
gene 1 36 20 0.317676 0 128 0.317676 1
gene 1 10 37 -0.300273 0 129 -0.300273 1
gene 1 37 20 0.292545 0 130 0.292545 1
gene 1 17 39 0.175717 0 134 0.175717 1
gene 1 39 23 0.246652 0 135 0.246652 1
gene 1 24 37 0.32099 0 140 0.32099 1
gene 1 19 24 -0.332135 0 144 -0.332135 1
gene 1 11 46 0.378423 0 161 0.378423 1
gene 1 46 20 -0.239335 0 162 -0.239335 1
gene 1 39 34 0.144817 0 193 0.144817 1
gene 1 16 54 0.393404 0 194 0.393404 1
gene 1 54 26 -0.279103 0 195 -0.279103 1
genomeend 2064
genomestart 2065
trait 1 0.175362 0 0.63447 0.00121512 1 0.0278606 0.213869 0.452451 
node 1 1 1 1 0
node 2 1 1 1 0
node 3 1 1 1 0
node 4 1 1 1 0
node 5 1 1 1 0
node 6 1 1 1 0
node 7 1 1 1 0
node 8 1 1 1 0
node 9 1 1 1 0
node 10 1 1 1 0
node 11 1 1 1 0
node 12 1 1 1 0
node 13 1 1 1 0
node 14 1 1 1 0
node 15 1 1 1 0
node 16 1 1 1 0
node 17 1 1 1 0
node 18 1 1 1 0
node 19 1 1 3 0
node 20 1 0 2 0
node 21 1 0 2 0
node 22 1 0 2 0
node 23 1 0 2 0
node 24 1 0 0 0
node 26 1 0 0 0
node 32 1 0 0 0
node 34 1 0 0 0
node 36 1 0 0 0
node 37 1 0 0 0
node 39 1 0 0 0
node 46 1 0 0 0
node 54 1 0 0 0
gene 1 1 20 0.604553 0 1 0.604553 1
gene 1 2 20 0.124649 0 2 0.124649 1
gene 1 3 20 -0.307738 0 3 -0.307738 1
gene 1 4 20 2.11874 0 4 2.11874 1
gene 1 5 20 0.655077 0 5 0.655077 1
gene 1 6 20 1.71658 0 6 1.71658 1
gene 1 7 20 -0.110133 0 7 -0.110133 1
gene 1 8 20 -0.415318 0 8 -0.415318 0
gene 1 9 20 -0.491961 0 9 -0.491961 0
gene 1 10 20 0.138422 0 10 0.138422 1
gene 1 11 20 1.42173 0 11 1.42173 1
gene 1 12 20 0.0718694 0 12 0.0718694 1
gene 1 13 20 -0.209238 0 13 -0.209238 1
gene 1 14 20 -0.176767 0 14 -0.176767 1
gene 1 15 20 0.475215 0 15 0.475215 0
gene 1 16 20 -0.171 0 16 -0.171 1
gene 1 17 20 -0.294865 0 17 -0.294865 1
gene 1 18 20 1.39223 0 18 1.39223 1
gene 1 19 20 0.398791 0 19 0.398791 1
gene 1 1 21 0.970657 0 20 0.970657 1
gene 1 2 21 -0.674071 0 21 -0.674071 1
gene 1 3 21 -0.8842 0 22 -0.8842 1
gene 1 4 21 0.458464 0 23 0.458464 1
gene 1 5 21 0.997865 0 24 0.997865 1
gene 1 6 21 0.485022 0 25 0.485022 1
gene 1 7 21 -1.43946 0 26 -1.43946 1
gene 1 8 21 -1.06917 0 27 -1.06917 1
gene 1 9 21 -3 0 28 -3 1
gene 1 10 21 2.73948 0 29 2.73948 1
gene 1 11 21 0.806177 0 30 0.806177 0
gene 1 12 21 -0.877445 0 31 -0.877445 1
gene 1 13 21 -0.789009 0 32 -0.789009 1
gene 1 14 21 0.415209 0 33 0.415209 1
gene 1 15 21 -0.936582 0 34 -0.936582 1
gene 1 16 21 0.566562 0 35 0.566562 1
gene 1 17 21 0.511984 0 36 0.511984 1
gene 1 18 21 0.432901 0 37 0.432901 1
gene 1 19 21 -0.510566 0 38 -0.510566 1
gene 1 1 22 1.88167 0 39 1.88167 1
gene 1 2 22 -0.943518 0 40 -0.943518 1
gene 1 3 22 0.751771 0 41 0.751771 1
gene 1 4 22 0.477151 0 42 0.477151 1
gene 1 5 22 0.370296 0 43 0.370296 1
gene 1 6 22 -0.602861 0 44 -0.602861 1
gene 1 7 22 0.126004 0 45 0.126004 1
gene 1 8 22 0.0399993 0 46 0.0399993 1
gene 1 9 22 -1.40433 0 47 -1.40433 1
gene 1 10 22 -0.0931463 0 48 -0.0931463 1
gene 1 11 22 -0.469762 0 49 -0.469762 1
gene 1 12 22 0.515329 0 50 0.515329 1
gene 1 13 22 -0.0180778 0 51 -0.0180778 1
gene 1 14 22 0.550282 0 52 0.550282 1
gene 1 15 22 -0.0428033 0 53 -0.0428033 1
gene 1 16 22 -0.710322 0 54 -0.710322 1
gene 1 17 22 -1.12384 0 55 -1.12384 1
gene 1 18 22 -0.41702 0 56 -0.41702 1
gene 1 19 22 -0.22588 0 57 -0.22588 1
gene 1 1 23 -0.363201 0 58 -0.363201 1
gene 1 2 23 0.237369 0 59 0.237369 1
gene 1 3 23 -0.0272565 0 60 -0.0272565 1
gene 1 4 23 0.690338 0 61 0.690338 1
gene 1 5 23 -1.49724 0 62 -1.49724 1
gene 1 6 23 0.436602 0 63 0.436602 1
gene 1 7 23 0.0825949 0 64 0.0825949 1
gene 1 8 23 -0.711559 0 65 -0.711559 1
gene 1 9 23 0.343458 0 66 0.343458 1
gene 1 10 23 -1.34307 0 67 -1.34307 1
gene 1 11 23 -0.390808 0 68 -0.390808 1
gene 1 12 23 -0.255935 0 69 -0.255935 1
gene 1 13 23 -0.496503 0 70 -0.496503 1
gene 1 14 23 -0.246659 0 71 -0.246659 1
gene 1 15 23 0.894616 0 72 0.894616 1
gene 1 16 23 -1.06761 0 73 -1.06761 1
gene 1 17 23 -1.18661 0 74 -1.18661 1
gene 1 18 23 0.594306 0 75 0.594306 1
gene 1 19 23 0.803036 0 76 0.803036 1
gene 1 8 24 1.46484 0 77 1.46484 1
gene 1 24 20 0.896471 0 78 0.896471 1
gene 1 15 26 0.141855 0 85 0.141855 1
gene 1 26 20 1.36188 0 86 1.36188 1
gene 1 22 20 1.41693 0 87 1.41693 1
gene 1 2 24 0.0852277 0 91 0.0852277 1
gene 1 6 24 -0.695049 0 96 -0.695049 1
gene 1 16 26 -0.212196 0 99 -0.212196 1
gene 1 13 24 -0.443438 0 100 -0.443438 1
gene 1 23 24 -0.459022 0 113 -0.459022 1
gene 1 13 32 -0.37137 0 116 -0.37137 1
gene 1 32 21 0.0800499 0 117 0.0800499 1
gene 1 11 34 0.129228 0 122 0.129228 1
gene 1 34 21 0.27146 0 123 0.27146 1
gene 1 9 36 0.461423 0 127 0.461423 1
gene 1 36 20 0.0932618 0 128 0.0932618 1
gene 1 10 37 -0.300273 0 129 -0.300273 1
gene 1 37 20 0.067445 0 130 0.067445 1
gene 1 17 39 0.591275 0 134 0.591275 1
gene 1 39 23 -0.44978 0 135 -0.44978 1
gene 1 24 37 -0.468053 0 140 -0.468053 1
gene 1 19 24 0.0647215 0 144 0.0647215 1
gene 1 11 46 0.402098 0 161 0.402098 1
gene 1 46 20 0.15006 0 162 0.15006 1
gene 1 39 34 0.776334 0 193 0.776334 1
gene 1 16 54 1.19817 0 194 1.19817 1
gene 1 54 26 -0.204082 0 195 -0.204082 1
genomeend 2065
genomestart 2066
trait 1 0 0.361734 0.319529 0.0015189 0.423427 0.0348257 0.160402 0.00210868 
node 1 1 1 1 0
node 2 1 1 1 0
node 3 1 1 1 0
node 4 1 1 1 0
node 5 1 1 1 0
node 6 1 1 1 0
node 7 1 1 1 0
node 8 1 1 1 0
node 9 1 1 1 0
node 10 1 1 1 0
node 11 1 1 1 0
node 12 1 1 1 0
node 13 1 1 1 0
node 14 1 1 1 0
node 15 1 1 1 0
node 16 1 1 1 0
node 17 1 1 1 0
node 18 1 1 1 0
node 19 1 1 3 0
node 20 1 0 2 0
node 21 1 0 2 0
node 22 1 0 2 0
node 23 1 0 2 0
node 24 1 0 0 0
node 26 1 0 0 0
node 32 1 0 0 0
node 34 1 0 0 0
node 36 1 0 0 0
node 37 1 0 0 0
node 39 1 0 0 0
node 46 1 0 0 0
node 54 1 0 0 0
gene 1 1 20 0.160765 0 1 0.160765 1
gene 1 2 20 -0.543371 0 2 -0.543371 1
gene 1 3 20 -0.0114547 0 3 -0.0114547 1
gene 1 4 20 1.87518 0 4 1.87518 1
gene 1 5 20 0.601743 0 5 0.601743 1
gene 1 6 20 1.44674 0 6 1.44674 1
gene 1 7 20 0.343298 0 7 0.343298 1
gene 1 8 20 0.00639255 0 8 0.00639255 1
gene 1 9 20 -0.111585 0 9 -0.111585 0
gene 1 10 20 -0.00471515 0 10 -0.00471515 0
gene 1 11 20 1.25254 0 11 1.25254 1
gene 1 12 20 -0.0808637 0 12 -0.0808637 1
gene 1 13 20 -0.54218 0 13 -0.54218 1
gene 1 14 20 0.0323483 0 14 0.0323483 1
gene 1 15 20 0.109653 0 15 0.109653 0
gene 1 16 20 0.37916 0 16 0.37916 1
gene 1 17 20 -0.836968 0 17 -0.836968 1
gene 1 18 20 0.548385 0 18 0.548385 1
gene 1 19 20 0.468135 0 19 0.468135 1
gene 1 1 21 1.11345 0 20 1.11345 1
gene 1 2 21 -0.473965 0 21 -0.473965 1
gene 1 3 21 -0.555313 0 22 -0.555313 1
gene 1 4 21 0.0433804 0 23 0.0433804 1
gene 1 5 21 0.27047 0 24 0.27047 1
gene 1 6 21 0.696101 0 25 0.696101 1
gene 1 7 21 -1.45515 0 26 -1.45515 1
gene 1 8 21 -1.75615 0 27 -1.75615 1
gene 1 9 21 -3 0 28 -3 1
gene 1 10 21 2.57512 0 29 2.57512 1
gene 1 11 21 0.326075 0 30 0.326075 0
gene 1 12 21 -1.0437 0 31 -1.0437 1
gene 1 13 21 -0.808319 0 32 -0.808319 1
gene 1 14 21 0.262695 0 33 0.262695 1
gene 1 15 21 -0.828578 0 34 -0.828578 1
gene 1 16 21 0.804598 0 35 0.804598 1
gene 1 17 21 0.491247 0 36 0.491247 1
gene 1 18 21 0.401606 0 37 0.401606 1
gene 1 19 21 -0.0914355 0 38 -0.0914355 1
gene 1 1 22 1.31425 0 39 1.31425 1
gene 1 2 22 -1.14577 0 40 -1.14577 1
gene 1 3 22 0.562658 0 41 0.562658 1
gene 1 4 22 0.0198267 0 42 0.0198267 1
gene 1 5 22 0.339682 0 43 0.339682 1
gene 1 6 22 -0.0918645 0 44 -0.0918645 1
gene 1 7 22 -0.469051 0 45 -0.469051 1
gene 1 8 22 -0.229237 0 46 -0.229237 1
gene 1 9 22 -1.28115 0 47 -1.28115 1
gene 1 10 22 0.458877 0 48 0.458877 1
gene 1 11 22 -0.720257 0 49 -0.720257 1
gene 1 12 22 1.22881 0 50 1.22881 1
gene 1 13 22 0.168912 0 51 0.168912 1
gene 1 14 22 -0.426514 0 52 -0.426514 1
gene 1 15 22 0.323196 0 53 0.323196 1
gene 1 16 22 -0.152575 0 54 -0.152575 1
gene 1 17 22 -1.19513 0 55 -1.19513 1
gene 1 18 22 -0.143132 0 56 -0.143132 1
gene 1 19 22 0.288343 0 57 0.288343 1
gene 1 1 23 0.0365845 0 58 0.0365845 1
gene 1 2 23 0.282004 0 59 0.282004 1
gene 1 3 23 -0.145956 0 60 -0.145956 1
gene 1 4 23 0.335453 0 61 0.335453 1
gene 1 5 23 -0.655957 0 62 -0.655957 1
gene 1 6 23 1.09804 0 63 1.09804 1
gene 1 7 23 -0.125078 0 64 -0.125078 1
gene 1 8 23 -0.226575 0 65 -0.226575 1
gene 1 9 23 0.455479 0 66 0.455479 1
gene 1 10 23 -0.785147 0 67 -0.785147 1
gene 1 11 23 -0.0285543 0 68 -0.0285543 1
gene 1 12 23 0.414839 0 69 0.414839 1
gene 1 13 23 -0.291949 0 70 -0.291949 1
gene 1 14 23 -0.74301 0 71 -0.74301 1
gene 1 15 23 0.593202 0 72 0.593202 1
gene 1 16 23 -0.499407 0 73 -0.499407 1
gene 1 17 23 -1.39459 0 74 -1.39459 1
gene 1 18 23 0.236666 0 75 0.236666 1
gene 1 19 23 0.674189 0 76 0.674189 1
gene 1 8 24 1.2354 0 77 1.2354 1
gene 1 24 20 0.434028 0 78 0.434028 1
gene 1 15 26 -0.471895 0 85 -0.471895 1
gene 1 26 20 1.43078 0 86 1.43078 1
gene 1 22 20 0.788998 0 87 0.788998 1
gene 1 2 24 0.688917 0 91 0.688917 1
gene 1 6 24 -0.0718374 0 96 -0.0718374 1
gene 1 16 26 -0.10862 0 99 -0.10862 1
gene 1 13 24 0.234893 0 100 0.234893 1
gene 1 23 24 -0.172637 0 113 -0.172637 1
gene 1 13 32 -0.110651 0 116 -0.110651 1
gene 1 32 21 -0.064291 0 117 -0.064291 1
gene 1 11 34 0.0155897 0 122 0.0155897 1
gene 1 34 21 -0.330747 0 123 -0.330747 1
gene 1 9 36 0.461423 0 127 0.461423 1
gene 1 36 20 0.416331 0 128 0.416331 1
gene 1 10 37 -0.163622 0 129 -0.163622 1
gene 1 37 20 0.292545 0 130 0.292545 1
gene 1 17 39 0.175717 0 134 0.175717 1
gene 1 39 23 0.404698 0 135 0.404698 1
gene 1 24 37 0.0559303 0 140 0.0559303 1
gene 1 19 24 -0.334321 0 144 -0.334321 1
gene 1 11 46 0.0560904 0 161 0.0560904 1
gene 1 46 20 -0.239335 0 162 -0.239335 1
gene 1 39 34 0.297191 0 193 0.297191 1
gene 1 16 54 0.608767 0 194 0.608767 1
gene 1 54 26 -0.0374052 0 195 -0.0374052 1
gene 1 18 32 0.1163 0 213 0.1163 1
genomeend 2066
genomestart 2067
trait 1 0 0.361734 0.319529 0.0015189 0.423427 0.0348257 0.160402 0.00210868 
node 1 1 1 1 0
node 2 1 1 1 0
node 3 1 1 1 0
node 4 1 1 1 0
node 5 1 1 1 0
node 6 1 1 1 0
node 7 1 1 1 0
node 8 1 1 1 0
node 9 1 1 1 0
node 10 1 1 1 0
node 11 1 1 1 0
node 12 1 1 1 0
node 13 1 1 1 0
node 14 1 1 1 0
node 15 1 1 1 0
node 16 1 1 1 0
node 17 1 1 1 0
node 18 1 1 1 0
node 19 1 1 3 0
node 20 1 0 2 0
node 21 1 0 2 0
node 22 1 0 2 0
node 23 1 0 2 0
node 24 1 0 0 0
node 26 1 0 0 0
node 32 1 0 0 0
node 34 1 0 0 0
node 36 1 0 0 0
node 37 1 0 0 0
node 39 1 0 0 0
node 46 1 0 0 0
node 54 1 0 0 0
gene 1 1 20 -0.469336 0 1 -0.469336 1
gene 1 2 20 -1.26925 0 2 -1.26925 1
gene 1 3 20 0.172149 0 3 0.172149 1
gene 1 4 20 1.84316 0 4 1.84316 1
gene 1 5 20 0.0594596 0 5 0.0594596 1
gene 1 6 20 1.67738 0 6 1.67738 1
gene 1 7 20 0.196741 0 7 0.196741 1
gene 1 8 20 -0.123552 0 8 -0.123552 0
gene 1 9 20 0.435519 0 9 0.435519 0
gene 1 10 20 0.165631 0 10 0.165631 0
gene 1 11 20 0.882093 0 11 0.882093 0
gene 1 12 20 0.295706 0 12 0.295706 1
gene 1 13 20 -0.300278 0 13 -0.300278 1
gene 1 14 20 0.115184 0 14 0.115184 1
gene 1 15 20 0.231661 0 15 0.231661 0
gene 1 16 20 -0.220023 0 16 -0.220023 1
gene 1 17 20 -0.613576 0 17 -0.613576 1
gene 1 18 20 1.46604 0 18 1.46604 1
gene 1 19 20 0.0860882 0 19 0.0860882 1
gene 1 1 21 -0.142769 0 20 -0.142769 1
gene 1 2 21 -0.804732 0 21 -0.804732 1
gene 1 3 21 -0.686478 0 22 -0.686478 1
gene 1 4 21 0.0541414 0 23 0.0541414 1
gene 1 5 21 0.509821 0 24 0.509821 1
gene 1 6 21 -0.248384 0 25 -0.248384 1
gene 1 7 21 -1.31154 0 26 -1.31154 1
gene 1 8 21 -0.725962 0 27 -0.725962 1
gene 1 9 21 -3 0 28 -3 1
gene 1 10 21 3 0 29 3 1
gene 1 11 21 0.0882568 0 30 0.0882568 0
gene 1 12 21 -1.01426 0 31 -1.01426 1
gene 1 13 21 -0.453215 0 32 -0.453215 1
gene 1 14 21 0.414438 0 33 0.414438 1
gene 1 15 21 -0.88205 0 34 -0.88205 1
gene 1 16 21 -0.24399 0 35 -0.24399 1
gene 1 17 21 1.18833 0 36 1.18833 1
gene 1 18 21 0.212154 0 37 0.212154 1
gene 1 19 21 -0.450828 0 38 -0.450828 1
gene 1 1 22 1.44074 0 39 1.44074 1
gene 1 2 22 -1.63999 0 40 -1.63999 1
gene 1 3 22 1.02739 0 41 1.02739 1
gene 1 4 22 -0.273897 0 42 -0.273897 1
gene 1 5 22 -0.208861 0 43 -0.208861 1
gene 1 6 22 0.024106 0 44 0.024106 1
gene 1 7 22 -0.174598 0 45 -0.174598 1
gene 1 8 22 -0.299368 0 46 -0.299368 1
gene 1 9 22 -1.56666 0 47 -1.56666 1
gene 1 10 22 0.0818572 0 48 0.0818572 1
gene 1 11 22 -1.07417 0 49 -1.07417 1
gene 1 12 22 0.706235 0 50 0.706235 1
gene 1 13 22 -0.0924759 0 51 -0.0924759 1
gene 1 14 22 0.254118 0 52 0.254118 1
gene 1 15 22 0.296763 0 53 0.296763 1
gene 1 16 22 -0.00626515 0 54 -0.00626515 1
gene 1 17 22 -1.8578 0 55 -1.8578 1
gene 1 18 22 -0.718362 0 56 -0.718362 1
gene 1 19 22 -0.227317 0 57 -0.227317 1
gene 1 1 23 0.0243349 0 58 0.0243349 1
gene 1 2 23 0.0826245 0 59 0.0826245 1
gene 1 3 23 -0.257407 0 60 -0.257407 1
gene 1 4 23 0.258023 0 61 0.258023 1
gene 1 5 23 -0.931529 0 62 -0.931529 1
gene 1 6 23 1.33313 0 63 1.33313 1
gene 1 7 23 -0.740129 0 64 -0.740129 1
gene 1 8 23 -0.15288 0 65 -0.15288 1
gene 1 9 23 0.86789 0 66 0.86789 1
gene 1 10 23 -0.139626 0 67 -0.139626 1
gene 1 11 23 0.335925 0 68 0.335925 1
gene 1 12 23 0.253184 0 69 0.253184 1
gene 1 13 23 -0.457042 0 70 -0.457042 1
gene 1 14 23 -0.957068 0 71 -0.957068 1
gene 1 15 23 0.212581 0 72 0.212581 1
gene 1 16 23 -0.380187 0 73 -0.380187 1
gene 1 17 23 -0.834864 0 74 -0.834864 1
gene 1 18 23 0.380589 0 75 0.380589 1
gene 1 19 23 1.07276 0 76 1.07276 1
gene 1 8 24 0.62661 0 77 0.62661 1
gene 1 24 20 -0.323758 0 78 -0.323758 1
gene 1 15 26 -0.589652 0 85 -0.589652 1
gene 1 26 20 1.5943 0 86 1.5943 1
gene 1 22 20 1.28137 0 87 1.28137 1
gene 1 2 24 -0.230533 0 91 -0.230533 1
gene 1 6 24 -0.372988 0 96 -0.372988 1
gene 1 16 26 0.489792 0 99 0.489792 1
gene 1 13 24 0.165147 0 100 0.165147 1
gene 1 23 24 -0.0474975 0 113 -0.0474975 1
gene 1 13 32 -0.493805 0 116 -0.493805 1
gene 1 32 21 -0.278637 0 117 -0.278637 1
gene 1 11 34 -0.145899 0 122 -0.145899 1
gene 1 34 21 0.0291876 0 123 0.0291876 1
gene 1 9 36 0.644527 0 127 0.644527 1
gene 1 36 20 0.514987 0 128 0.514987 1
gene 1 10 37 -0.0269701 0 129 -0.0269701 1
gene 1 37 20 0.718105 0 130 0.718105 1
gene 1 17 39 0.415781 0 134 0.415781 1
gene 1 39 23 0.562744 0 135 0.562744 1
gene 1 24 37 -0.209129 0 140 -0.209129 1
gene 1 19 24 0.0258604 0 144 0.0258604 1
gene 1 11 46 0.0563385 0 161 0.0563385 1
gene 1 46 20 -0.275414 0 162 -0.275414 1
gene 1 39 34 -0.00492946 0 193 -0.00492946 1
gene 1 16 54 1.10707 0 194 1.10707 1
gene 1 54 26 0.557632 0 195 0.557632 1
gene 1 18 32 0.289722 0 213 0.289722 1
genomeend 2067
genomestart 2068
trait 1 0 0.264377 0.338431 0.00182268 0.308112 0.0417909 0.106934 0.00140579 
node 1 1 1 1 0
node 2 1 1 1 0
node 3 1 1 1 0
node 4 1 1 1 0
node 5 1 1 1 0
node 6 1 1 1 0
node 7 1 1 1 0
node 8 1 1 1 0
node 9 1 1 1 0
node 10 1 1 1 0
node 11 1 1 1 0
node 12 1 1 1 0
node 13 1 1 1 0
node 14 1 1 1 0
node 15 1 1 1 0
node 16 1 1 1 0
node 17 1 1 1 0
node 18 1 1 1 0
node 19 1 1 3 0
node 20 1 0 2 0
node 21 1 0 2 0
node 22 1 0 2 0
node 23 1 0 2 0
node 24 1 0 0 0
node 26 1 0 0 0
node 32 1 0 0 0
node 34 1 0 0 0
node 36 1 0 0 0
node 37 1 0 0 0
node 39 1 0 0 0
node 46 1 0 0 0
node 54 1 0 0 0
gene 1 1 20 0.332775 0 1 0.332775 1
gene 1 2 20 -0.665732 0 2 -0.665732 1
gene 1 3 20 -0.706954 0 3 -0.706954 1
gene 1 4 20 1.73613 0 4 1.73613 1
gene 1 5 20 0.311529 0 5 0.311529 1
gene 1 6 20 1.02172 0 6 1.02172 1
gene 1 7 20 0.485673 0 7 0.485673 1
gene 1 8 20 -0.235614 0 8 -0.235614 0
gene 1 9 20 0.056021 0 9 0.056021 0
gene 1 10 20 0.843456 0 10 0.843456 0
gene 1 11 20 1.19244 0 11 1.19244 0
gene 1 12 20 0.419909 0 12 0.419909 1
gene 1 13 20 -0.6801 0 13 -0.6801 1
gene 1 14 20 0.0223786 0 14 0.0223786 1
gene 1 15 20 0.222349 0 15 0.222349 0
gene 1 16 20 -0.219008 0 16 -0.219008 1
gene 1 17 20 -1.03737 0 17 -1.03737 1
gene 1 18 20 0.191715 0 18 0.191715 1
gene 1 19 20 0.351999 0 19 0.351999 1
gene 1 1 21 1.35133 0 20 1.35133 1
gene 1 2 21 -0.292006 0 21 -0.292006 1
gene 1 3 21 -0.111439 0 22 -0.111439 1
gene 1 4 21 0.114567 0 23 0.114567 1
gene 1 5 21 0.498934 0 24 0.498934 1
gene 1 6 21 -0.320945 0 25 -0.320945 1
gene 1 7 21 -1.90939 0 26 -1.90939 1
gene 1 8 21 -2.47867 0 27 -2.47867 1
gene 1 9 21 -0.421367 0 28 -0.421367 1
gene 1 10 21 0.301384 0 29 0.301384 1
gene 1 11 21 0.681283 0 30 0.681283 0
gene 1 12 21 -0.986494 0 31 -0.986494 1
gene 1 13 21 -0.742211 0 32 -0.742211 1
gene 1 14 21 0.712771 0 33 0.712771 1
gene 1 15 21 0.247292 0 34 0.247292 1
gene 1 16 21 0.262409 0 35 0.262409 1
gene 1 17 21 0.89066 0 36 0.89066 1
gene 1 18 21 0.0255597 0 37 0.0255597 1
gene 1 19 21 -0.500482 0 38 -0.500482 1
gene 1 1 22 1.44074 0 39 1.44074 1
gene 1 2 22 -0.719759 0 40 -0.719759 1
gene 1 3 22 0.18718 0 41 0.18718 1
gene 1 4 22 -0.148313 0 42 -0.148313 1
gene 1 5 22 0.390698 0 43 0.390698 1
gene 1 6 22 0.629113 0 44 0.629113 1
gene 1 7 22 -0.306811 0 45 -0.306811 1
gene 1 8 22 0.272505 0 46 0.272505 1
gene 1 9 22 -1.50131 0 47 -1.50131 1
gene 1 10 22 -0.0598029 0 48 -0.0598029 1
gene 1 11 22 0.460443 0 49 0.460443 1
gene 1 12 22 1.63777 0 50 1.63777 1
gene 1 13 22 -0.3741 0 51 -0.3741 1
gene 1 14 22 -0.929948 0 52 -0.929948 1
gene 1 15 22 0.804031 0 53 0.804031 1
gene 1 16 22 -0.690799 0 54 -0.690799 1
gene 1 17 22 -1.26582 0 55 -1.26582 1
gene 1 18 22 0.130136 0 56 0.130136 1
gene 1 19 22 0.315782 0 57 0.315782 1
gene 1 1 23 0.154784 0 58 0.154784 1
gene 1 2 23 -0.0813465 0 59 -0.0813465 1
gene 1 3 23 0.0893435 0 60 0.0893435 1
gene 1 4 23 0.258023 0 61 0.258023 1
gene 1 5 23 0.449968 0 62 0.449968 1
gene 1 6 23 0.879109 0 63 0.879109 1
gene 1 7 23 -0.338838 0 64 -0.338838 1
gene 1 8 23 0.287495 0 65 0.287495 1
gene 1 9 23 -0.119336 0 66 -0.119336 1
gene 1 10 23 -0.149805 0 67 -0.149805 1
gene 1 11 23 0.0409801 0 68 0.0409801 1
gene 1 12 23 -0.461224 0 69 -0.461224 1
gene 1 13 23 0.22039 0 70 0.22039 1
gene 1 14 23 -0.982469 0 71 -0.982469 1
gene 1 15 23 0.411614 0 72 0.411614 1
gene 1 16 23 -0.577847 0 73 -0.577847 1
gene 1 17 23 -1.28144 0 74 -1.28144 1
gene 1 18 23 0.424959 0 75 0.424959 1
gene 1 19 23 0.419965 0 76 0.419965 1
gene 1 8 24 1.07215 0 77 1.07215 1
gene 1 24 20 0.00137477 0 78 0.00137477 1
gene 1 15 26 -0.474197 0 85 -0.474197 1
gene 1 26 20 0.308514 0 86 0.308514 1
gene 1 22 20 0.622699 0 87 0.622699 1
gene 1 2 24 -0.110759 0 91 -0.110759 1
gene 1 6 24 0.387856 0 96 0.387856 1
gene 1 16 26 -0.278281 0 99 -0.278281 1
gene 1 13 24 0.150329 0 100 0.150329 1
gene 1 23 24 0.169717 0 113 0.169717 1
gene 1 13 32 0.325225 0 116 0.325225 1
gene 1 32 21 0.185919 0 117 0.185919 1
gene 1 11 34 -0.65135 0 122 -0.65135 1
gene 1 34 21 -0.281989 0 123 -0.281989 1
gene 1 9 36 0.27022 0 127 0.27022 1
gene 1 36 20 0.494513 0 128 0.494513 1
gene 1 10 37 -0.486829 0 129 -0.486829 1
gene 1 37 20 0.581748 0 130 0.581748 1
gene 1 17 39 0.279389 0 134 0.279389 1
gene 1 39 23 -0.285782 0 135 -0.285782 1
gene 1 24 37 -0.000485629 0 140 -0.000485629 1
gene 1 19 24 0.281116 0 144 0.281116 1
gene 1 11 46 -0.184356 0 161 -0.184356 1
gene 1 46 20 -0.239335 0 162 -0.239335 1
gene 1 39 34 0.0181149 0 193 0.0181149 1
gene 1 16 54 1.29162 0 194 1.29162 1
gene 1 54 26 0.204293 0 195 0.204293 1
gene 1 18 32 0.1163 0 213 0.1163 1
genomeend 2068
genomestart 2069
trait 1 0 0 0.450751 0 0 0.0593757 0 0 
node 1 1 1 1 0
node 2 1 1 1 0
node 3 1 1 1 0
node 4 1 1 1 0
node 5 1 1 1 0
node 6 1 1 1 0
node 7 1 1 1 0
node 8 1 1 1 0
node 9 1 1 1 0
node 10 1 1 1 0
node 11 1 1 1 0
node 12 1 1 1 0
node 13 1 1 1 0
node 14 1 1 1 0
node 15 1 1 1 0
node 16 1 1 1 0
node 17 1 1 1 0
node 18 1 1 1 0
node 19 1 1 3 0
node 20 1 0 2 0
node 21 1 0 2 0
node 22 1 0 2 0
node 23 1 0 2 0
node 24 1 0 0 0
node 26 1 0 0 0
node 37 1 0 0 0
node 46 1 0 0 0
gene 1 1 20 -0.0016444 0 1 -0.0016444 1
gene 1 2 20 1.06541 0 2 1.06541 1
gene 1 3 20 -0.00121654 0 3 -0.00121654 1
gene 1 4 20 2.05219 0 4 2.05219 1
gene 1 5 20 -0.371352 0 5 -0.371352 1
gene 1 6 20 2.33847 0 6 2.33847 1
gene 1 7 20 -0.455276 0 7 -0.455276 1
gene 1 8 20 0.638694 0 8 0.638694 1
gene 1 9 20 -0.35977 0 9 -0.35977 1
gene 1 10 20 -1.45526 0 10 -1.45526 0
gene 1 11 20 0.221546 0 11 0.221546 1
gene 1 12 20 0.0741295 0 12 0.0741295 1
gene 1 13 20 -0.493922 0 13 -0.493922 1
gene 1 14 20 -0.652336 0 14 -0.652336 1
gene 1 15 20 -1.43845 0 15 -1.43845 1
gene 1 16 20 0.471483 0 16 0.471483 1
gene 1 17 20 1.92343 0 17 1.92343 1
gene 1 18 20 0.730008 0 18 0.730008 1
gene 1 19 20 0.0804421 0 19 0.0804421 1
gene 1 1 21 -0.326591 0 20 -0.326591 1
gene 1 2 21 0.176352 0 21 0.176352 1
gene 1 3 21 -1.08597 0 22 -1.08597 1
gene 1 4 21 -0.375887 0 23 -0.375887 1
gene 1 5 21 -0.15656 0 24 -0.15656 1
gene 1 6 21 0.228075 0 25 0.228075 1
gene 1 7 21 -1.28357 0 26 -1.28357 1
gene 1 8 21 -1.0727 0 27 -1.0727 1
gene 1 9 21 -3 0 28 -3 1
gene 1 10 21 1.27907 0 29 1.27907 1
gene 1 11 21 -0.0285028 0 30 -0.0285028 1
gene 1 12 21 -1.10764 0 31 -1.10764 1
gene 1 13 21 -1.81921 0 32 -1.81921 1
gene 1 14 21 0.046811 0 33 0.046811 1
gene 1 15 21 1.04213 0 34 1.04213 1
gene 1 16 21 -0.0197571 0 35 -0.0197571 1
gene 1 17 21 -0.0298133 0 36 -0.0298133 1
gene 1 18 21 -0.185914 0 37 -0.185914 1
gene 1 19 21 0.098506 0 38 0.098506 1
gene 1 1 22 0.77975 0 39 0.77975 1
gene 1 2 22 0.336063 0 40 0.336063 1
gene 1 3 22 0.056313 0 41 0.056313 1
gene 1 4 22 0.793955 0 42 0.793955 1
gene 1 5 22 0.440034 0 43 0.440034 1
gene 1 6 22 -0.242357 0 44 -0.242357 1
gene 1 7 22 0.415338 0 45 0.415338 1
gene 1 8 22 0.35016 0 46 0.35016 1
gene 1 9 22 -0.375573 0 47 -0.375573 1
gene 1 10 22 -0.429114 0 48 -0.429114 1
gene 1 11 22 -2.4204 0 49 -2.4204 1
gene 1 12 22 0.0578395 0 50 0.0578395 1
gene 1 13 22 0.273831 0 51 0.273831 1
gene 1 14 22 0.302926 0 52 0.302926 1
gene 1 15 22 0.35708 0 53 0.35708 1
gene 1 16 22 0.595177 0 54 0.595177 1
gene 1 17 22 1.21666 0 55 1.21666 1
gene 1 18 22 -0.649388 0 56 -0.649388 1
gene 1 19 22 -0.429439 0 57 -0.429439 1
gene 1 1 23 0.732731 0 58 0.732731 1
gene 1 2 23 0.521919 0 59 0.521919 1
gene 1 3 23 -0.333701 0 60 -0.333701 1
gene 1 4 23 0.775811 0 61 0.775811 1
gene 1 5 23 0.0871037 0 62 0.0871037 1
gene 1 6 23 -0.489152 0 63 -0.489152 1
gene 1 7 23 -1.0085 0 64 -1.0085 1
gene 1 8 23 1.13732 0 65 1.13732 1
gene 1 9 23 -0.35253 0 66 -0.35253 1
gene 1 10 23 0.237307 0 67 0.237307 1
gene 1 11 23 -1.0161 0 68 -1.0161 1
gene 1 12 23 -0.519845 0 69 -0.519845 1
gene 1 13 23 -0.467624 0 70 -0.467624 1
gene 1 14 23 0.0965775 0 71 0.0965775 1
gene 1 15 23 -0.385525 0 72 -0.385525 1
gene 1 16 23 0.197916 0 73 0.197916 1
gene 1 17 23 0.082622 0 74 0.082622 1
gene 1 18 23 0.267048 0 75 0.267048 1
gene 1 19 23 0.0752489 0 76 0.0752489 1
gene 1 8 24 0.625675 0 77 0.625675 1
gene 1 24 20 -0.903293 0 78 -0.903293 1
gene 1 15 26 -0.31138 0 85 -0.31138 1
gene 1 26 20 0.424451 0 86 0.424451 1
gene 1 22 20 0.454338 0 87 0.454338 1
gene 1 2 24 0.362791 0 91 0.362791 1
gene 1 6 24 0.401184 0 96 0.401184 1
gene 1 10 37 -0.904163 0 129 -0.904163 1
gene 1 37 20 0.343609 0 130 0.343609 1
gene 1 24 37 0.28752 0 140 0.28752 1
gene 1 11 46 0.419035 0 161 0.419035 1
gene 1 46 20 -0.017105 0 162 -0.017105 1
genomeend 2069
genomestart 2070
trait 1 0 0.361734 0.319529 0.0015189 0.423427 0.0348257 0.160402 0.00210868 
node 1 1 1 1 0
node 2 1 1 1 0
node 3 1 1 1 0
node 4 1 1 1 0
node 5 1 1 1 0
node 6 1 1 1 0
node 7 1 1 1 0
node 8 1 1 1 0
node 9 1 1 1 0
node 10 1 1 1 0
node 11 1 1 1 0
node 12 1 1 1 0
node 13 1 1 1 0
node 14 1 1 1 0
node 15 1 1 1 0
node 16 1 1 1 0
node 17 1 1 1 0
node 18 1 1 1 0
node 19 1 1 3 0
node 20 1 0 2 0
node 21 1 0 2 0
node 22 1 0 2 0
node 23 1 0 2 0
node 24 1 0 0 0
node 26 1 0 0 0
node 32 1 0 0 0
node 34 1 0 0 0
node 36 1 0 0 0
node 37 1 0 0 0
node 39 1 0 0 0
node 46 1 0 0 0
node 54 1 0 0 0
gene 1 1 20 0.701976 0 1 0.701976 1
gene 1 2 20 0.0505601 0 2 0.0505601 1
gene 1 3 20 0.195863 0 3 0.195863 1
gene 1 4 20 1.27838 0 4 1.27838 1
gene 1 5 20 0.624647 0 5 0.624647 1
gene 1 6 20 1.77682 0 6 1.77682 1
gene 1 7 20 -0.236709 0 7 -0.236709 1
gene 1 8 20 -0.270625 0 8 -0.270625 0
gene 1 9 20 -0.102929 0 9 -0.102929 0
gene 1 10 20 -0.304555 0 10 -0.304555 1
gene 1 11 20 1.23622 0 11 1.23622 0
gene 1 12 20 0.221593 0 12 0.221593 1
gene 1 13 20 -0.275961 0 13 -0.275961 1
gene 1 14 20 0.061685 0 14 0.061685 1
gene 1 15 20 -0.118325 0 15 -0.118325 0
gene 1 16 20 0.14854 0 16 0.14854 1
gene 1 17 20 -0.307952 0 17 -0.307952 1
gene 1 18 20 0.37036 0 18 0.37036 1
gene 1 19 20 0.886436 0 19 0.886436 1
gene 1 1 21 1.02824 0 20 1.02824 1
gene 1 2 21 -0.80734 0 21 -0.80734 1
gene 1 3 21 -0.431996 0 22 -0.431996 1
gene 1 4 21 -0.0330554 0 23 -0.0330554 1
gene 1 5 21 0.670862 0 24 0.670862 1
gene 1 6 21 0.787967 0 25 0.787967 1
gene 1 7 21 -1.29935 0 26 -1.29935 1
gene 1 8 21 -1.59683 0 27 -1.59683 1
gene 1 9 21 -3 0 28 -3 1
gene 1 10 21 2.77206 0 29 2.77206 1
gene 1 11 21 0.431962 0 30 0.431962 0
gene 1 12 21 -1.29068 0 31 -1.29068 1
gene 1 13 21 -0.305214 0 32 -0.305214 1
gene 1 14 21 0.307687 0 33 0.307687 1
gene 1 15 21 -0.647533 0 34 -0.647533 1
gene 1 16 21 0.793871 0 35 0.793871 1
gene 1 17 21 0.374771 0 36 0.374771 1
gene 1 18 21 -0.215443 0 37 -0.215443 1
gene 1 19 21 -0.0351425 0 38 -0.0351425 1
gene 1 1 22 1.551 0 39 1.551 1
gene 1 2 22 -0.65924 0 40 -0.65924 1
gene 1 3 22 0.520758 0 41 0.520758 1
gene 1 4 22 0.337096 0 42 0.337096 1
gene 1 5 22 0.75753 0 43 0.75753 1
gene 1 6 22 -0.100755 0 44 -0.100755 1
gene 1 7 22 -0.252892 0 45 -0.252892 1
gene 1 8 22 -0.0256612 0 46 -0.0256612 1
gene 1 9 22 -1.14717 0 47 -1.14717 1
gene 1 10 22 0.65783 0 48 0.65783 1
gene 1 11 22 -0.699762 0 49 -0.699762 1
gene 1 12 22 1.23424 0 50 1.23424 1
gene 1 13 22 -0.338034 0 51 -0.338034 1
gene 1 14 22 -0.224285 0 52 -0.224285 1
gene 1 15 22 0.362977 0 53 0.362977 1
gene 1 16 22 0.0823846 0 54 0.0823846 1
gene 1 17 22 -1.19275 0 55 -1.19275 1
gene 1 18 22 -0.621444 0 56 -0.621444 1
gene 1 19 22 -0.00545793 0 57 -0.00545793 1
gene 1 1 23 0.252179 0 58 0.252179 1
gene 1 2 23 0.569409 0 59 0.569409 1
gene 1 3 23 0.371901 0 60 0.371901 1
gene 1 4 23 0.238159 0 61 0.238159 1
gene 1 5 23 -0.0165939 0 62 -0.0165939 1
gene 1 6 23 0.479362 0 63 0.479362 1
gene 1 7 23 -0.782022 0 64 -0.782022 1
gene 1 8 23 -0.207667 0 65 -0.207667 1
gene 1 9 23 0.389142 0 66 0.389142 1
gene 1 10 23 -0.552299 0 67 -0.552299 1
gene 1 11 23 0.366576 0 68 0.366576 1
gene 1 12 23 0.587311 0 69 0.587311 1
gene 1 13 23 -0.842563 0 70 -0.842563 1
gene 1 14 23 -0.18266 0 71 -0.18266 1
gene 1 15 23 0.107835 0 72 0.107835 1
gene 1 16 23 -0.383499 0 73 -0.383499 1
gene 1 17 23 -0.907115 0 74 -0.907115 1
gene 1 18 23 -0.235919 0 75 -0.235919 1
gene 1 19 23 0.592695 0 76 0.592695 1
gene 1 8 24 1.04892 0 77 1.04892 1
gene 1 24 20 0.674934 0 78 0.674934 1
gene 1 15 26 -0.422458 0 85 -0.422458 1
gene 1 26 20 0.880306 0 86 0.880306 1
gene 1 22 20 0.497391 0 87 0.497391 1
gene 1 2 24 0.826245 0 91 0.826245 1
gene 1 6 24 0.411294 0 96 0.411294 1
gene 1 16 26 0.38745 0 99 0.38745 1
gene 1 13 24 0.234893 0 100 0.234893 1
gene 1 23 24 -0.392543 0 113 -0.392543 1
gene 1 13 32 0.259619 0 116 0.259619 1
gene 1 32 21 0.184178 0 117 0.184178 1
gene 1 11 34 -0.173475 0 122 -0.173475 1
gene 1 34 21 -0.330747 0 123 -0.330747 1
gene 1 9 36 0.0515792 0 127 0.0515792 1
gene 1 36 20 0.738928 0 128 0.738928 1
gene 1 10 37 -0.245882 0 129 -0.245882 1
gene 1 37 20 -0.256172 0 130 -0.256172 1
gene 1 17 39 -0.22382 0 134 -0.22382 1
gene 1 39 23 1.0117 0 135 1.0117 1
gene 1 24 37 -0.249114 0 140 -0.249114 1
gene 1 19 24 -0.182248 0 144 -0.182248 1
gene 1 11 46 -0.23402 0 161 -0.23402 1
gene 1 46 20 -0.239335 0 162 -0.239335 1
gene 1 39 34 0.449566 0 193 0.449566 1
gene 1 16 54 1.06097 0 194 1.06097 1
gene 1 54 26 0.101473 0 195 0.101473 1
gene 1 18 32 0.489207 0 213 0.489207 1
genomeend 2070
genomestart 2071
trait 1 0 0.0791226 0.0228897 0.229325 0.561468 0 0 0.219298 
node 1 1 1 1 0
node 2 1 1 1 0
node 3 1 1 1 0
node 4 1 1 1 0
node 5 1 1 1 0
node 6 1 1 1 0
node 7 1 1 1 0
node 8 1 1 1 0
node 9 1 1 1 0
node 10 1 1 1 0
node 11 1 1 1 0
node 12 1 1 1 0
node 13 1 1 1 0
node 14 1 1 1 0
node 15 1 1 1 0
node 16 1 1 1 0
node 17 1 1 1 0
node 18 1 1 1 0
node 19 1 1 3 0
node 20 1 0 2 0
node 21 1 0 2 0
node 22 1 0 2 0
node 23 1 0 2 0
node 24 1 0 0 0
node 26 1 0 0 0
node 28 1 0 0 0
node 32 1 0 0 0
node 37 1 0 0 0
node 39 1 0 0 0
node 43 1 0 0 0
node 53 1 0 0 0
gene 1 1 20 0.0606126 0 1 0.0606126 1
gene 1 2 20 0.147182 0 2 0.147182 1
gene 1 3 20 0.950019 0 3 0.950019 1
gene 1 4 20 0.205872 0 4 0.205872 1
gene 1 5 20 0.0857607 0 5 0.0857607 1
gene 1 6 20 -0.90461 0 6 -0.90461 1
gene 1 7 20 0.455876 0 7 0.455876 1
gene 1 8 20 0.123705 0 8 0.123705 0
gene 1 9 20 0.601103 0 9 0.601103 1
gene 1 10 20 -0.562739 0 10 -0.562739 0
gene 1 11 20 0.426489 0 11 0.426489 1
gene 1 12 20 1.10693 0 12 1.10693 1
gene 1 13 20 1.46768 0 13 1.46768 1
gene 1 14 20 0.331933 0 14 0.331933 1
gene 1 15 20 -0.165738 0 15 -0.165738 1
gene 1 16 20 1.10055 0 16 1.10055 1
gene 1 17 20 -0.0921412 0 17 -0.0921412 1
gene 1 18 20 0.256741 0 18 0.256741 1
gene 1 19 20 -0.202167 0 19 -0.202167 1
gene 1 1 21 0.159774 0 20 0.159774 1
gene 1 2 21 0.627303 0 21 0.627303 1
gene 1 3 21 0.577696 0 22 0.577696 1
gene 1 4 21 1.46191 0 23 1.46191 1
gene 1 5 21 1.02862 0 24 1.02862 1
gene 1 6 21 1.29085 0 25 1.29085 1
gene 1 7 21 0.579573 0 26 0.579573 1
gene 1 8 21 0.518829 0 27 0.518829 1
gene 1 9 21 0.0977543 0 28 0.0977543 1
gene 1 10 21 -0.697054 0 29 -0.697054 1
gene 1 11 21 0.895612 0 30 0.895612 1
gene 1 12 21 0.429646 0 31 0.429646 1
gene 1 13 21 -0.97793 0 32 -0.97793 0
gene 1 14 21 -1.21952 0 33 -1.21952 1
gene 1 15 21 0.919152 0 34 0.919152 0
gene 1 16 21 -0.256267 0 35 -0.256267 1
gene 1 17 21 0.237447 0 36 0.237447 1
gene 1 18 21 0.17154 0 37 0.17154 1
gene 1 19 21 -0.738204 0 38 -0.738204 1
gene 1 1 22 0.591487 0 39 0.591487 1
gene 1 2 22 0.261443 0 40 0.261443 1
gene 1 3 22 -0.0748592 0 41 -0.0748592 1
gene 1 4 22 0.627628 0 42 0.627628 1
gene 1 5 22 -0.424126 0 43 -0.424126 1
gene 1 6 22 -0.0422296 0 44 -0.0422296 0
gene 1 7 22 0.709686 0 45 0.709686 1
gene 1 8 22 -0.544966 0 46 -0.544966 1
gene 1 9 22 0.258312 0 47 0.258312 1
gene 1 10 22 -0.233517 0 48 -0.233517 1
gene 1 11 22 0.407299 0 49 0.407299 1
gene 1 12 22 -0.457135 0 50 -0.457135 1
gene 1 13 22 -0.176723 0 51 -0.176723 1
gene 1 14 22 0.0517941 0 52 0.0517941 1
gene 1 15 22 0.639765 0 53 0.639765 1
gene 1 16 22 0.3716 0 54 0.3716 1
gene 1 17 22 0.669055 0 55 0.669055 1
gene 1 18 22 0.462752 0 56 0.462752 1
gene 1 19 22 -0.122936 0 57 -0.122936 1
gene 1 1 23 0.217674 0 58 0.217674 1
gene 1 2 23 1.12575 0 59 1.12575 1
gene 1 3 23 0.192281 0 60 0.192281 1
gene 1 4 23 -0.398155 0 61 -0.398155 1
gene 1 5 23 -0.118753 0 62 -0.118753 1
gene 1 6 23 0.673427 0 63 0.673427 1
gene 1 7 23 0.780355 0 64 0.780355 1
gene 1 8 23 -0.507572 0 65 -0.507572 1
gene 1 9 23 -0.0648889 0 66 -0.0648889 1
gene 1 10 23 1.3145 0 67 1.3145 1
gene 1 11 23 -1.46081 0 68 -1.46081 1
gene 1 12 23 1.51236 0 69 1.51236 1
gene 1 13 23 -0.553924 0 70 -0.553924 1
gene 1 14 23 -0.472697 0 71 -0.472697 1
gene 1 15 23 -0.907742 0 72 -0.907742 1
gene 1 16 23 0.605964 0 73 0.605964 1
gene 1 17 23 0.34187 0 74 0.34187 0
gene 1 18 23 0.791498 0 75 0.791498 1
gene 1 19 23 -0.868468 0 76 -0.868468 1
gene 1 8 24 0.540323 0 77 0.540323 0
gene 1 24 20 -0.243933 0 78 -0.243933 1
gene 1 15 26 0.858806 0 85 0.858806 1
gene 1 26 20 -0.0808757 0 86 -0.0808757 1
gene 1 22 20 2.65517 0 87 2.65517 1
gene 1 2 24 0.022996 0 91 0.022996 1
gene 1 8 28 0.437349 0 93 0.437349 1
gene 1 28 24 -0.00391951 0 94 -0.00391951 1
gene 1 6 24 1.07263 0 96 1.07263 1
gene 1 16 26 -0.160476 0 99 -0.160476 1
gene 1 13 24 -0.910929 0 100 -0.910929 1
gene 1 23 24 0.228259 0 113 0.228259 1
gene 1 13 32 -0.322712 0 116 -0.322712 1
gene 1 32 21 0.206741 0 117 0.206741 1
gene 1 10 37 -0.08582 0 129 -0.08582 1
gene 1 37 20 0.441432 0 130 0.441432 1
gene 1 17 39 -0.0854328 0 134 -0.0854328 1
gene 1 39 23 0.55876 0 135 0.55876 1
gene 1 15 43 0.197136 0 150 0.197136 1
gene 1 43 21 0.309479 0 151 0.309479 1
gene 1 3 43 0.105797 0 153 0.105797 1
gene 1 8 32 -0.0641358 0 154 -0.0641358 1
gene 1 2 39 0.180468 0 178 0.180468 1
gene 1 6 53 0.887071 0 191 0.887071 1
gene 1 53 22 -0.0208695 0 192 -0.0208695 1
genomeend 2071
genomestart 2072
trait 1 0 0 0.450751 0 0 0.0593757 0 0 
node 1 1 1 1 0
node 2 1 1 1 0
node 3 1 1 1 0
node 4 1 1 1 0
node 5 1 1 1 0
node 6 1 1 1 0
node 7 1 1 1 0
node 8 1 1 1 0
node 9 1 1 1 0
node 10 1 1 1 0
node 11 1 1 1 0
node 12 1 1 1 0
node 13 1 1 1 0
node 14 1 1 1 0
node 15 1 1 1 0
node 16 1 1 1 0
node 17 1 1 1 0
node 18 1 1 1 0
node 19 1 1 3 0
node 20 1 0 2 0
node 21 1 0 2 0
node 22 1 0 2 0
node 23 1 0 2 0
node 24 1 0 0 0
node 26 1 0 0 0
node 37 1 0 0 0
node 46 1 0 0 0
gene 1 1 20 0.157025 0 1 0.157025 1
gene 1 2 20 0.687429 0 2 0.687429 1
gene 1 3 20 -0.246259 0 3 -0.246259 1
gene 1 4 20 2.34916 0 4 2.34916 1
gene 1 5 20 -0.626656 0 5 -0.626656 1
gene 1 6 20 1.93315 0 6 1.93315 1
gene 1 7 20 -0.11907 0 7 -0.11907 1
gene 1 8 20 0.847156 0 8 0.847156 1
gene 1 9 20 0.64232 0 9 0.64232 1
gene 1 10 20 -1.42191 0 10 -1.42191 0
gene 1 11 20 0.197929 0 11 0.197929 1
gene 1 12 20 0.341386 0 12 0.341386 1
gene 1 13 20 -0.352311 0 13 -0.352311 1
gene 1 14 20 -0.320505 0 14 -0.320505 1
gene 1 15 20 -1.31522 0 15 -1.31522 1
gene 1 16 20 0.204108 0 16 0.204108 1
gene 1 17 20 2.33045 0 17 2.33045 1
gene 1 18 20 1.1586 0 18 1.1586 1
gene 1 19 20 1.22747 0 19 1.22747 1
gene 1 1 21 -0.402996 0 20 -0.402996 1
gene 1 2 21 -0.140616 0 21 -0.140616 1
gene 1 3 21 -0.625045 0 22 -0.625045 1
gene 1 4 21 -0.471792 0 23 -0.471792 1
gene 1 5 21 -0.0632355 0 24 -0.0632355 1
gene 1 6 21 0.345531 0 25 0.345531 1
gene 1 7 21 -0.849313 0 26 -0.849313 1
gene 1 8 21 -1.60788 0 27 -1.60788 1
gene 1 9 21 -2.91981 0 28 -2.91981 1
gene 1 10 21 1.72343 0 29 1.72343 1
gene 1 11 21 -0.0285028 0 30 -0.0285028 1
gene 1 12 21 -1.08317 0 31 -1.08317 1
gene 1 13 21 -1.81921 0 32 -1.81921 1
gene 1 14 21 -0.417772 0 33 -0.417772 1
gene 1 15 21 0.738176 0 34 0.738176 1
gene 1 16 21 0.271869 0 35 0.271869 1
gene 1 17 21 0.633358 0 36 0.633358 1
gene 1 18 21 -0.581054 0 37 -0.581054 1
gene 1 19 21 0.0678741 0 38 0.0678741 1
gene 1 1 22 0.623571 0 39 0.623571 1
gene 1 2 22 0.0557036 0 40 0.0557036 1
gene 1 3 22 0.056313 0 41 0.056313 1
gene 1 4 22 0.328018 0 42 0.328018 1
gene 1 5 22 -0.165884 0 43 -0.165884 1
gene 1 6 22 -0.00366894 0 44 -0.00366894 1
gene 1 7 22 0.122539 0 45 0.122539 1
gene 1 8 22 -0.0312001 0 46 -0.0312001 1
gene 1 9 22 -1.16117 0 47 -1.16117 1
gene 1 10 22 -0.0798978 0 48 -0.0798978 1
gene 1 11 22 -2.70708 0 49 -2.70708 1
gene 1 12 22 1.12549 0 50 1.12549 1
gene 1 13 22 -0.0310557 0 51 -0.0310557 1
gene 1 14 22 -0.931601 0 52 -0.931601 1
gene 1 15 22 0.245558 0 53 0.245558 1
gene 1 16 22 -0.0977924 0 54 -0.0977924 1
gene 1 17 22 0.901855 0 55 0.901855 1
gene 1 18 22 0.196061 0 56 0.196061 1
gene 1 19 22 0.1101 0 57 0.1101 1
gene 1 1 23 0.958096 0 58 0.958096 1
gene 1 2 23 0.371367 0 59 0.371367 1
gene 1 3 23 -0.0675109 0 60 -0.0675109 1
gene 1 4 23 0.855115 0 61 0.855115 1
gene 1 5 23 -0.636564 0 62 -0.636564 1
gene 1 6 23 -0.180334 0 63 -0.180334 1
gene 1 7 23 -1.03274 0 64 -1.03274 1
gene 1 8 23 0.679813 0 65 0.679813 1
gene 1 9 23 0.0680272 0 66 0.0680272 1
gene 1 10 23 0.0707862 0 67 0.0707862 1
gene 1 11 23 -0.657742 0 68 -0.657742 1
gene 1 12 23 -0.519845 0 69 -0.519845 1
gene 1 13 23 0.0829788 0 70 0.0829788 1
gene 1 14 23 0.216759 0 71 0.216759 1
gene 1 15 23 -0.385525 0 72 -0.385525 1
gene 1 16 23 0.0125173 0 73 0.0125173 1
gene 1 17 23 -0.622689 0 74 -0.622689 1
gene 1 18 23 0.416761 0 75 0.416761 1
gene 1 19 23 -0.398229 0 76 -0.398229 1
gene 1 8 24 0.3071 0 77 0.3071 1
gene 1 24 20 -0.482231 0 78 -0.482231 1
gene 1 15 26 -0.3607 0 85 -0.3607 1
gene 1 26 20 0.307423 0 86 0.307423 1
gene 1 22 20 0.438789 0 87 0.438789 1
gene 1 2 24 -0.277813 0 91 -0.277813 1
gene 1 6 24 -0.342825 0 96 -0.342825 1
gene 1 10 37 -0.903165 0 129 -0.903165 1
gene 1 37 20 0.000868556 0 130 0.000868556 1
gene 1 24 37 -0.375458 0 140 -0.375458 1
gene 1 11 46 -0.0552553 0 161 -0.0552553 1
gene 1 46 20 -0.0612772 0 162 -0.0612772 1
genomeend 2072
genomestart 2073
trait 1 0 0.459091 0.300627 0.00121512 0.538741 0.0278606 0.213869 0.00281157 
node 1 1 1 1 0
node 2 1 1 1 0
node 3 1 1 1 0
node 4 1 1 1 0
node 5 1 1 1 0
node 6 1 1 1 0
node 7 1 1 1 0
node 8 1 1 1 0
node 9 1 1 1 0
node 10 1 1 1 0
node 11 1 1 1 0
node 12 1 1 1 0
node 13 1 1 1 0
node 14 1 1 1 0
node 15 1 1 1 0
node 16 1 1 1 0
node 17 1 1 1 0
node 18 1 1 1 0
node 19 1 1 3 0
node 20 1 0 2 0
node 21 1 0 2 0
node 22 1 0 2 0
node 23 1 0 2 0
node 24 1 0 0 0
node 26 1 0 0 0
node 32 1 0 0 0
node 34 1 0 0 0
node 36 1 0 0 0
node 37 1 0 0 0
node 39 1 0 0 0
node 46 1 0 0 0
node 54 1 0 0 0
gene 1 1 20 0.230422 0 1 0.230422 1
gene 1 2 20 0.520062 0 2 0.520062 1
gene 1 3 20 0.278925 0 3 0.278925 1
gene 1 4 20 1.97586 0 4 1.97586 1
gene 1 5 20 0.877895 0 5 0.877895 1
gene 1 6 20 2.17931 0 6 2.17931 1
gene 1 7 20 0.87515 0 7 0.87515 1
gene 1 8 20 -0.222598 0 8 -0.222598 1
gene 1 9 20 -0.594602 0 9 -0.594602 0
gene 1 10 20 -0.110451 0 10 -0.110451 0
gene 1 11 20 1.82098 0 11 1.82098 0
gene 1 12 20 -0.00871465 0 12 -0.00871465 1
gene 1 13 20 -0.457138 0 13 -0.457138 1
gene 1 14 20 -0.0977439 0 14 -0.0977439 1
gene 1 15 20 -0.340565 0 15 -0.340565 0
gene 1 16 20 0.357922 0 16 0.357922 1
gene 1 17 20 -1.25607 0 17 -1.25607 1
gene 1 18 20 1.09412 0 18 1.09412 1
gene 1 19 20 -0.017222 0 19 -0.017222 1
gene 1 1 21 0.506739 0 20 0.506739 1
gene 1 2 21 -0.636828 0 21 -0.636828 1
gene 1 3 21 0.0555123 0 22 0.0555123 1
gene 1 4 21 -0.232834 0 23 -0.232834 1
gene 1 5 21 0.879556 0 24 0.879556 1
gene 1 6 21 0.370525 0 25 0.370525 1
gene 1 7 21 -1.29188 0 26 -1.29188 1
gene 1 8 21 -1.33013 0 27 -1.33013 1
gene 1 9 21 -3 0 28 -3 1
gene 1 10 21 2.99186 0 29 2.99186 1
gene 1 11 21 0.691077 0 30 0.691077 0
gene 1 12 21 -0.575344 0 31 -0.575344 1
gene 1 13 21 -0.0835885 0 32 -0.0835885 1
gene 1 14 21 -0.175559 0 33 -0.175559 1
gene 1 15 21 -0.755778 0 34 -0.755778 1
gene 1 16 21 0.373238 0 35 0.373238 1
gene 1 17 21 0.548937 0 36 0.548937 1
gene 1 18 21 0.126659 0 37 0.126659 1
gene 1 19 21 -0.408948 0 38 -0.408948 1
gene 1 1 22 1.05354 0 39 1.05354 1
gene 1 2 22 -1.47941 0 40 -1.47941 1
gene 1 3 22 1.01376 0 41 1.01376 1
gene 1 4 22 -0.540724 0 42 -0.540724 1
gene 1 5 22 0.147951 0 43 0.147951 1
gene 1 6 22 -0.920044 0 44 -0.920044 1
gene 1 7 22 -0.330437 0 45 -0.330437 1
gene 1 8 22 -0.461809 0 46 -0.461809 1
gene 1 9 22 -0.902244 0 47 -0.902244 1
gene 1 10 22 0.232692 0 48 0.232692 1
gene 1 11 22 -0.140091 0 49 -0.140091 1
gene 1 12 22 1.22089 0 50 1.22089 1
gene 1 13 22 -0.355549 0 51 -0.355549 1
gene 1 14 22 0.21322 0 52 0.21322 1
gene 1 15 22 0.425422 0 53 0.425422 1
gene 1 16 22 -0.564942 0 54 -0.564942 1
gene 1 17 22 -1.4558 0 55 -1.4558 1
gene 1 18 22 0.060757 0 56 0.060757 1
gene 1 19 22 0.200814 0 57 0.200814 1
gene 1 1 23 0.186832 0 58 0.186832 1
gene 1 2 23 1.08265 0 59 1.08265 1
gene 1 3 23 -0.591772 0 60 -0.591772 1
gene 1 4 23 0.0215073 0 61 0.0215073 1
gene 1 5 23 -1.17375 0 62 -1.17375 1
gene 1 6 23 1.35957 0 63 1.35957 1
gene 1 7 23 -0.187266 0 64 -0.187266 1
gene 1 8 23 0.279054 0 65 0.279054 1
gene 1 9 23 -0.424261 0 66 -0.424261 1
gene 1 10 23 -0.721603 0 67 -0.721603 1
gene 1 11 23 -0.347409 0 68 -0.347409 1
gene 1 12 23 0.474973 0 69 0.474973 1
gene 1 13 23 -0.95255 0 70 -0.95255 1
gene 1 14 23 -0.399451 0 71 -0.399451 1
gene 1 15 23 0.767738 0 72 0.767738 1
gene 1 16 23 -0.863119 0 73 -0.863119 1
gene 1 17 23 -1.06966 0 74 -1.06966 1
gene 1 18 23 -0.104293 0 75 -0.104293 1
gene 1 19 23 0.128631 0 76 0.128631 1
gene 1 8 24 1.27552 0 77 1.27552 1
gene 1 24 20 1.51023 0 78 1.51023 1
gene 1 15 26 -0.598069 0 85 -0.598069 1
gene 1 26 20 1.31809 0 86 1.31809 1
gene 1 22 20 0.537438 0 87 0.537438 1
gene 1 2 24 0.286201 0 91 0.286201 1
gene 1 6 24 -1.00774 0 96 -1.00774 1
gene 1 16 26 -0.233943 0 99 -0.233943 1
gene 1 13 24 0.234893 0 100 0.234893 1
gene 1 23 24 -0.172637 0 113 -0.172637 1
gene 1 13 32 -0.039907 0 116 -0.039907 1
gene 1 32 21 0.341041 0 117 0.341041 1
gene 1 11 34 -0.451156 0 122 -0.451156 1
gene 1 34 21 0.298936 0 123 0.298936 1
gene 1 9 36 0.0102404 0 127 0.0102404 1
gene 1 36 20 0.416331 0 128 0.416331 1
gene 1 10 37 -0.294122 0 129 -0.294122 1
gene 1 37 20 0.101613 0 130 0.101613 1
gene 1 17 39 0.403454 0 134 0.403454 1
gene 1 39 23 0.329125 0 135 0.329125 1
gene 1 24 37 0.303348 0 140 0.303348 1
gene 1 19 24 -0.44925 0 144 -0.44925 1
gene 1 11 46 0.688219 0 161 0.688219 1
gene 1 46 20 -0.140671 0 162 -0.140671 1
gene 1 39 34 0.380634 0 193 0.380634 1
gene 1 16 54 -0.0511769 0 194 -0.0511769 1
gene 1 54 26 -0.417237 0 195 -0.417237 1
genomeend 2073
genomestart 2074
trait 1 0 0 0.450751 0 0 0.0593757 0 0 
node 1 1 1 1 0
node 2 1 1 1 0
node 3 1 1 1 0
node 4 1 1 1 0
node 5 1 1 1 0
node 6 1 1 1 0
node 7 1 1 1 0
node 8 1 1 1 0
node 9 1 1 1 0
node 10 1 1 1 0
node 11 1 1 1 0
node 12 1 1 1 0
node 13 1 1 1 0
node 14 1 1 1 0
node 15 1 1 1 0
node 16 1 1 1 0
node 17 1 1 1 0
node 18 1 1 1 0
node 19 1 1 3 0
node 20 1 0 2 0
node 21 1 0 2 0
node 22 1 0 2 0
node 23 1 0 2 0
node 24 1 0 0 0
node 26 1 0 0 0
node 37 1 0 0 0
node 46 1 0 0 0
gene 1 1 20 -0.149787 0 1 -0.149787 1
gene 1 2 20 0.294905 0 2 0.294905 1
gene 1 3 20 -1.41677 0 3 -1.41677 1
gene 1 4 20 2.00427 0 4 2.00427 1
gene 1 5 20 -1.26297 0 5 -1.26297 1
gene 1 6 20 1.05446 0 6 1.05446 1
gene 1 7 20 0.0106763 0 7 0.0106763 1
gene 1 8 20 1.02504 0 8 1.02504 1
gene 1 9 20 0.355301 0 9 0.355301 1
gene 1 10 20 -1.33449 0 10 -1.33449 0
gene 1 11 20 -0.766362 0 11 -0.766362 1
gene 1 12 20 0.702402 0 12 0.702402 1
gene 1 13 20 -0.403817 0 13 -0.403817 1
gene 1 14 20 -0.475642 0 14 -0.475642 1
gene 1 15 20 -0.69044 0 15 -0.69044 1
gene 1 16 20 0.268326 0 16 0.268326 1
gene 1 17 20 2.89235 0 17 2.89235 1
gene 1 18 20 0.614326 0 18 0.614326 1
gene 1 19 20 1.35654 0 19 1.35654 1
gene 1 1 21 -0.0925135 0 20 -0.0925135 1
gene 1 2 21 -0.0578416 0 21 -0.0578416 1
gene 1 3 21 -1.03205 0 22 -1.03205 1
gene 1 4 21 -0.305929 0 23 -0.305929 1
gene 1 5 21 0.433149 0 24 0.433149 1
gene 1 6 21 0.717871 0 25 0.717871 1
gene 1 7 21 -1.32542 0 26 -1.32542 1
gene 1 8 21 -1.86898 0 27 -1.86898 1
gene 1 9 21 -3 0 28 -3 1
gene 1 10 21 2.2108 0 29 2.2108 1
gene 1 11 21 0.147071 0 30 0.147071 1
gene 1 12 21 -0.968013 0 31 -0.968013 1
gene 1 13 21 -1.72521 0 32 -1.72521 1
gene 1 14 21 -0.233043 0 33 -0.233043 1
gene 1 15 21 0.375798 0 34 0.375798 1
gene 1 16 21 0.166805 0 35 0.166805 1
gene 1 17 21 0.355256 0 36 0.355256 1
gene 1 18 21 -1.3926 0 37 -1.3926 1
gene 1 19 21 0.125372 0 38 0.125372 1
gene 1 1 22 -0.146292 0 39 -0.146292 1
gene 1 2 22 -1.03633 0 40 -1.03633 1
gene 1 3 22 0.257336 0 41 0.257336 1
gene 1 4 22 0.0690496 0 42 0.0690496 1
gene 1 5 22 0.767328 0 43 0.767328 1
gene 1 6 22 -0.924124 0 44 -0.924124 1
gene 1 7 22 -0.287984 0 45 -0.287984 1
gene 1 8 22 0.279453 0 46 0.279453 1
gene 1 9 22 -1.07667 0 47 -1.07667 1
gene 1 10 22 0.0340866 0 48 0.0340866 1
gene 1 11 22 -2.72388 0 49 -2.72388 1
gene 1 12 22 2.40936 0 50 2.40936 1
gene 1 13 22 0.263567 0 51 0.263567 1
gene 1 14 22 -0.267376 0 52 -0.267376 1
gene 1 15 22 0.231807 0 53 0.231807 1
gene 1 16 22 0.110593 0 54 0.110593 1
gene 1 17 22 1.00826 0 55 1.00826 1
gene 1 18 22 -0.0690737 0 56 -0.0690737 1
gene 1 19 22 0.155642 0 57 0.155642 1
gene 1 1 23 0.598764 0 58 0.598764 1
gene 1 2 23 0.6366 0 59 0.6366 1
gene 1 3 23 -0.760992 0 60 -0.760992 1
gene 1 4 23 1.22233 0 61 1.22233 1
gene 1 5 23 -1.39787 0 62 -1.39787 1
gene 1 6 23 0.118505 0 63 0.118505 1
gene 1 7 23 -0.309264 0 64 -0.309264 1
gene 1 8 23 0.647467 0 65 0.647467 1
gene 1 9 23 -0.409875 0 66 -0.409875 1
gene 1 10 23 0.0315982 0 67 0.0315982 1
gene 1 11 23 -0.260543 0 68 -0.260543 1
gene 1 12 23 -0.799237 0 69 -0.799237 1
gene 1 13 23 0.353796 0 70 0.353796 1
gene 1 14 23 0.458144 0 71 0.458144 1
gene 1 15 23 -0.819334 0 72 -0.819334 1
gene 1 16 23 -0.0316566 0 73 -0.0316566 1
gene 1 17 23 -0.606248 0 74 -0.606248 1
gene 1 18 23 0.416761 0 75 0.416761 1
gene 1 19 23 -0.398229 0 76 -0.398229 1
gene 1 8 24 0.240778 0 77 0.240778 1
gene 1 24 20 0.0984881 0 78 0.0984881 1
gene 1 15 26 -0.732419 0 85 -0.732419 1
gene 1 26 20 0.0606613 0 86 0.0606613 1
gene 1 22 20 0.267344 0 87 0.267344 1
gene 1 2 24 -0.277813 0 91 -0.277813 1
gene 1 6 24 0.435285 0 96 0.435285 1
gene 1 10 37 -0.644561 0 129 -0.644561 1
gene 1 37 20 0.260365 0 130 0.260365 1
gene 1 24 37 -0.0139907 0 140 -0.0139907 1
gene 1 11 46 -0.0552553 0 161 -0.0552553 1
gene 1 46 20 0.201631 0 162 0.201631 1
genomeend 2074
genomestart 2075
trait 1 0 0.0395613 0.0228897 0.229325 0.780734 0 0 0.333245 
node 1 1 1 1 0
node 2 1 1 1 0
node 3 1 1 1 0
node 4 1 1 1 0
node 5 1 1 1 0
node 6 1 1 1 0
node 7 1 1 1 0
node 8 1 1 1 0
node 9 1 1 1 0
node 10 1 1 1 0
node 11 1 1 1 0
node 12 1 1 1 0
node 13 1 1 1 0
node 14 1 1 1 0
node 15 1 1 1 0
node 16 1 1 1 0
node 17 1 1 1 0
node 18 1 1 1 0
node 19 1 1 3 0
node 20 1 0 2 0
node 21 1 0 2 0
node 22 1 0 2 0
node 23 1 0 2 0
node 24 1 0 0 0
node 26 1 0 0 0
node 28 1 0 0 0
node 32 1 0 0 0
node 37 1 0 0 0
node 39 1 0 0 0
node 43 1 0 0 0
node 53 1 0 0 0
gene 1 1 20 -0.417867 0 1 -0.417867 1
gene 1 2 20 0.0656103 0 2 0.0656103 1
gene 1 3 20 1.31026 0 3 1.31026 1
gene 1 4 20 -0.108652 0 4 -0.108652 1
gene 1 5 20 -0.00889571 0 5 -0.00889571 1
gene 1 6 20 0.341941 0 6 0.341941 1
gene 1 7 20 0.935734 0 7 0.935734 1
gene 1 8 20 -0.0473436 0 8 -0.0473436 0
gene 1 9 20 -0.00665851 0 9 -0.00665851 1
gene 1 10 20 0.146379 0 10 0.146379 0
gene 1 11 20 0.869931 0 11 0.869931 1
gene 1 12 20 1.80783 0 12 1.80783 1
gene 1 13 20 0.781194 0 13 0.781194 1
gene 1 14 20 1.96804 0 14 1.96804 1
gene 1 15 20 -0.205748 0 15 -0.205748 1
gene 1 16 20 1.29028 0 16 1.29028 1
gene 1 17 20 0.508789 0 17 0.508789 1
gene 1 18 20 0.302234 0 18 0.302234 1
gene 1 19 20 0.558278 0 19 0.558278 1
gene 1 1 21 0.301525 0 20 0.301525 1
gene 1 2 21 -0.390139 0 21 -0.390139 1
gene 1 3 21 2.16824 0 22 2.16824 1
gene 1 4 21 0.393339 0 23 0.393339 1
gene 1 5 21 0.788042 0 24 0.788042 1
gene 1 6 21 0.170155 0 25 0.170155 1
gene 1 7 21 0.376341 0 26 0.376341 1
gene 1 8 21 0.195879 0 27 0.195879 1
gene 1 9 21 0.220995 0 28 0.220995 1
gene 1 10 21 -0.675372 0 29 -0.675372 1
gene 1 11 21 -0.0174487 0 30 -0.0174487 1
gene 1 12 21 0.792351 0 31 0.792351 1
gene 1 13 21 -0.966101 0 32 -0.966101 0
gene 1 14 21 -2.27497 0 33 -2.27497 1
gene 1 15 21 1.73915 0 34 1.73915 0
gene 1 16 21 -0.25087 0 35 -0.25087 1
gene 1 17 21 0.91113 0 36 0.91113 1
gene 1 18 21 0.0673076 0 37 0.0673076 1
gene 1 19 21 -0.892571 0 38 -0.892571 1
gene 1 1 22 0.300141 0 39 0.300141 1
gene 1 2 22 0.296718 0 40 0.296718 1
gene 1 3 22 -0.10301 0 41 -0.10301 1
gene 1 4 22 1.07542 0 42 1.07542 1
gene 1 5 22 -0.671097 0 43 -0.671097 1
gene 1 6 22 0.536716 0 44 0.536716 0
gene 1 7 22 -0.0477982 0 45 -0.0477982 1
gene 1 8 22 -0.389017 0 46 -0.389017 1
gene 1 9 22 -0.147316 0 47 -0.147316 1
gene 1 10 22 -0.482815 0 48 -0.482815 1
gene 1 11 22 0.0672678 0 49 0.0672678 1
gene 1 12 22 1.13914 0 50 1.13914 1
gene 1 13 22 0.525901 0 51 0.525901 1
gene 1 14 22 -0.216949 0 52 -0.216949 1
gene 1 15 22 0.769754 0 53 0.769754 1
gene 1 16 22 1.66882 0 54 1.66882 1
gene 1 17 22 1.15948 0 55 1.15948 1
gene 1 18 22 0.325262 0 56 0.325262 1
gene 1 19 22 0.584058 0 57 0.584058 1
gene 1 1 23 0.732777 0 58 0.732777 1
gene 1 2 23 0.00564531 0 59 0.00564531 1
gene 1 3 23 -3 0 60 -3 1
gene 1 4 23 -0.874074 0 61 -0.874074 1
gene 1 5 23 0.243451 0 62 0.243451 1
gene 1 6 23 0.90983 0 63 0.90983 1
gene 1 7 23 0.0723321 0 64 0.0723321 1
gene 1 8 23 -0.149223 0 65 -0.149223 1
gene 1 9 23 -0.693247 0 66 -0.693247 1
gene 1 10 23 1.9265 0 67 1.9265 1
gene 1 11 23 -1.56844 0 68 -1.56844 1
gene 1 12 23 -0.0376639 0 69 -0.0376639 1
gene 1 13 23 -0.892311 0 70 -0.892311 1
gene 1 14 23 -1.52726 0 71 -1.52726 1
gene 1 15 23 0.211704 0 72 0.211704 1
gene 1 16 23 0.247606 0 73 0.247606 1
gene 1 17 23 -0.0158056 0 74 -0.0158056 0
gene 1 18 23 0.236371 0 75 0.236371 1
gene 1 19 23 0.449753 0 76 0.449753 1
gene 1 8 24 0.214887 0 77 0.214887 0
gene 1 24 20 -1.17723 0 78 -1.17723 1
gene 1 15 26 2.04093 0 85 2.04093 1
gene 1 26 20 -0.158344 0 86 -0.158344 1
gene 1 22 20 2.22777 0 87 2.22777 1
gene 1 2 24 0.629886 0 91 0.629886 1
gene 1 8 28 -0.468253 0 93 -0.468253 1
gene 1 28 24 0.528917 0 94 0.528917 1
gene 1 6 24 0.497791 0 96 0.497791 1
gene 1 16 26 -0.173033 0 99 -0.173033 1
gene 1 13 24 -0.569579 0 100 -0.569579 1
gene 1 23 24 0.532048 0 113 0.532048 1
gene 1 13 32 -0.11003 0 116 -0.11003 1
gene 1 32 21 0.478253 0 117 0.478253 1
gene 1 10 37 0.487994 0 129 0.487994 1
gene 1 37 20 0.0272692 0 130 0.0272692 1
gene 1 17 39 0.152329 0 134 0.152329 1
gene 1 39 23 -0.139023 0 135 -0.139023 1
gene 1 15 43 -1.25579 0 150 -1.25579 1
gene 1 43 21 0.401683 0 151 0.401683 1
gene 1 3 43 0.350873 0 153 0.350873 1
gene 1 8 32 -0.417761 0 154 -0.417761 1
gene 1 2 39 0.192215 0 178 0.192215 1
gene 1 6 53 1.49869 0 191 1.49869 1
gene 1 53 22 0.390904 0 192 0.390904 1
genomeend 2075
genomestart 2076
trait 1 0 0 0.450751 0 0 0.0593757 0 0 
node 1 1 1 1 0
node 2 1 1 1 0
node 3 1 1 1 0
node 4 1 1 1 0
node 5 1 1 1 0
node 6 1 1 1 0
node 7 1 1 1 0
node 8 1 1 1 0
node 9 1 1 1 0
node 10 1 1 1 0
node 11 1 1 1 0
node 12 1 1 1 0
node 13 1 1 1 0
node 14 1 1 1 0
node 15 1 1 1 0
node 16 1 1 1 0
node 17 1 1 1 0
node 18 1 1 1 0
node 19 1 1 3 0
node 20 1 0 2 0
node 21 1 0 2 0
node 22 1 0 2 0
node 23 1 0 2 0
node 24 1 0 0 0
node 26 1 0 0 0
node 26 1 0 0 0
node 37 1 0 0 0
node 46 1 0 0 0
gene 1 1 20 0.316719 0 1 0.316719 1
gene 1 2 20 0.687429 0 2 0.687429 1
gene 1 3 20 -0.246259 0 3 -0.246259 1
gene 1 4 20 2.01467 0 4 2.01467 1
gene 1 5 20 -0.869422 0 5 -0.869422 1
gene 1 6 20 1.93315 0 6 1.93315 1
gene 1 7 20 -0.11907 0 7 -0.11907 1
gene 1 8 20 0.847156 0 8 0.847156 1
gene 1 9 20 0.64232 0 9 0.64232 1
gene 1 10 20 -1.42191 0 10 -1.42191 0
gene 1 11 20 -0.345433 0 11 -0.345433 1
gene 1 12 20 0.341386 0 12 0.341386 1
gene 1 13 20 -0.352311 0 13 -0.352311 1
gene 1 14 20 -0.320505 0 14 -0.320505 1
gene 1 15 20 -1.31522 0 15 -1.31522 0
gene 1 16 20 0.204108 0 16 0.204108 1
gene 1 17 20 2.33045 0 17 2.33045 1
gene 1 18 20 1.1586 0 18 1.1586 1
gene 1 19 20 1.07236 0 19 1.07236 1
gene 1 1 21 -0.434668 0 20 -0.434668 1
gene 1 2 21 -0.140616 0 21 -0.140616 1
gene 1 3 21 -0.625045 0 22 -0.625045 1
gene 1 4 21 -0.471792 0 23 -0.471792 1
gene 1 5 21 -0.0632355 0 24 -0.0632355 1
gene 1 6 21 0.345531 0 25 0.345531 1
gene 1 7 21 -1.09422 0 26 -1.09422 1
gene 1 8 21 -1.60788 0 27 -1.60788 1
gene 1 9 21 -3 0 28 -3 1
gene 1 10 21 1.72343 0 29 1.72343 1
gene 1 11 21 -0.0285028 0 30 -0.0285028 1
gene 1 12 21 -1.08317 0 31 -1.08317 1
gene 1 13 21 -1.81921 0 32 -1.81921 1
gene 1 14 21 -0.417772 0 33 -0.417772 1
gene 1 15 21 0.738176 0 34 0.738176 1
gene 1 16 21 0.271869 0 35 0.271869 1
gene 1 17 21 0.633358 0 36 0.633358 1
gene 1 18 21 -0.581054 0 37 -0.581054 1
gene 1 19 21 0.362235 0 38 0.362235 1
gene 1 1 22 0.31959 0 39 0.31959 1
gene 1 2 22 0.0557036 0 40 0.0557036 1
gene 1 3 22 0.056313 0 41 0.056313 1
gene 1 4 22 0.328018 0 42 0.328018 1
gene 1 5 22 -0.165884 0 43 -0.165884 1
gene 1 6 22 -0.871778 0 44 -0.871778 1
gene 1 7 22 0.122539 0 45 0.122539 1
gene 1 8 22 -0.0312001 0 46 -0.0312001 1
gene 1 9 22 -0.691633 0 47 -0.691633 1
gene 1 10 22 -0.0798978 0 48 -0.0798978 1
gene 1 11 22 -2.70708 0 49 -2.70708 1
gene 1 12 22 1.12549 0 50 1.12549 1
gene 1 13 22 -0.0310557 0 51 -0.0310557 1
gene 1 14 22 -0.577426 0 52 -0.577426 1
gene 1 15 22 0.245558 0 53 0.245558 1
gene 1 16 22 -0.0977924 0 54 -0.0977924 1
gene 1 17 22 1.15535 0 55 1.15535 1
gene 1 18 22 -0.499932 0 56 -0.499932 1
gene 1 19 22 0.1101 0 57 0.1101 1
gene 1 1 23 0.732731 0 58 0.732731 1
gene 1 2 23 0.371367 0 59 0.371367 1
gene 1 3 23 -0.0675109 0 60 -0.0675109 1
gene 1 4 23 0.775811 0 61 0.775811 1
gene 1 5 23 -0.636564 0 62 -0.636564 1
gene 1 6 23 -0.180334 0 63 -0.180334 1
gene 1 7 23 -1.03274 0 64 -1.03274 1
gene 1 8 23 0.679813 0 65 0.679813 1
gene 1 9 23 0.0680272 0 66 0.0680272 1
gene 1 10 23 0.237307 0 67 0.237307 1
gene 1 11 23 -0.647577 0 68 -0.647577 1
gene 1 12 23 -0.519845 0 69 -0.519845 1
gene 1 13 23 0.0829788 0 70 0.0829788 1
gene 1 14 23 0.216759 0 71 0.216759 1
gene 1 15 23 -0.385525 0 72 -0.385525 1
gene 1 16 23 0.0125173 0 73 0.0125173 1
gene 1 17 23 -0.622689 0 74 -0.622689 1
gene 1 18 23 0.416761 0 75 0.416761 1
gene 1 19 23 -0.398229 0 76 -0.398229 1
gene 1 8 24 0.3071 0 77 0.3071 1
gene 1 24 20 -0.482231 0 78 -0.482231 1
gene 1 15 26 1 0 85 0 1
gene 1 15 26 -0.3607 0 85 -0.3607 1
gene 1 26 20 -0.394566 0 86 0 1
gene 1 26 20 0.307423 0 86 0.307423 1
gene 1 22 20 0.438789 0 87 0.438789 1
gene 1 2 24 -0.277813 0 91 -0.277813 1
gene 1 6 24 0.337122 0 96 0.337122 1
gene 1 10 37 -0.903165 0 129 -0.903165 1
gene 1 37 20 0.000868556 0 130 0.000868556 1
gene 1 24 37 -0.375458 0 140 -0.375458 1
gene 1 11 46 -0.0552553 0 161 -0.0552553 1
gene 1 46 20 -0.0612772 0 162 -0.0612772 1
genomeend 2076
genomestart 2077
trait 1 0 0.0395613 0.0114448 0.386215 0.780734 0 0 0.609649 
node 1 1 1 1 0
node 2 1 1 1 0
node 3 1 1 1 0
node 4 1 1 1 0
node 5 1 1 1 0
node 6 1 1 1 0
node 7 1 1 1 0
node 8 1 1 1 0
node 9 1 1 1 0
node 10 1 1 1 0
node 11 1 1 1 0
node 12 1 1 1 0
node 13 1 1 1 0
node 14 1 1 1 0
node 15 1 1 1 0
node 16 1 1 1 0
node 17 1 1 1 0
node 18 1 1 1 0
node 19 1 1 3 0
node 20 1 0 2 0
node 21 1 0 2 0
node 22 1 0 2 0
node 23 1 0 2 0
node 24 1 0 0 0
node 26 1 0 0 0
node 28 1 0 0 0
node 32 1 0 0 0
node 37 1 0 0 0
node 39 1 0 0 0
node 43 1 0 0 0
node 53 1 0 0 0
gene 1 1 20 -0.152058 0 1 -0.152058 1
gene 1 2 20 -0.107484 0 2 -0.107484 1
gene 1 3 20 1.56292 0 3 1.56292 1
gene 1 4 20 0.0383404 0 4 0.0383404 1
gene 1 5 20 0.507711 0 5 0.507711 1
gene 1 6 20 -0.885458 0 6 -0.885458 1
gene 1 7 20 0.505223 0 7 0.505223 1
gene 1 8 20 -0.0733976 0 8 -0.0733976 0
gene 1 9 20 0.0243612 0 9 0.0243612 1
gene 1 10 20 -0.389137 0 10 -0.389137 0
gene 1 11 20 0.208533 0 11 0.208533 1
gene 1 12 20 1.28607 0 12 1.28607 1
gene 1 13 20 1.29745 0 13 1.29745 1
gene 1 14 20 0.716282 0 14 0.716282 1
gene 1 15 20 -0.193583 0 15 -0.193583 1
gene 1 16 20 0.521688 0 16 0.521688 1
gene 1 17 20 -0.147942 0 17 -0.147942 1
gene 1 18 20 0.382007 0 18 0.382007 1
gene 1 19 20 0.0671046 0 19 0.0671046 1
gene 1 1 21 0.326217 0 20 0.326217 1
gene 1 2 21 0.461162 0 21 0.461162 1
gene 1 3 21 2.35636 0 22 2.35636 1
gene 1 4 21 1.24045 0 23 1.24045 1
gene 1 5 21 0.621336 0 24 0.621336 1
gene 1 6 21 1.39223 0 25 1.39223 1
gene 1 7 21 0.546472 0 26 0.546472 1
gene 1 8 21 -0.360109 0 27 -0.360109 1
gene 1 9 21 -0.560166 0 28 -0.560166 1
gene 1 10 21 -0.571613 0 29 -0.571613 1
gene 1 11 21 0.569782 0 30 0.569782 1
gene 1 12 21 0.256051 0 31 0.256051 1
gene 1 13 21 -0.27663 0 32 -0.27663 0
gene 1 14 21 -1.31876 0 33 -1.31876 1
gene 1 15 21 0.932294 0 34 0.932294 0
gene 1 16 21 -0.457804 0 35 -0.457804 1
gene 1 17 21 0.349027 0 36 0.349027 1
gene 1 18 21 -0.274406 0 37 -0.274406 1
gene 1 19 21 -0.691689 0 38 -0.691689 1
gene 1 1 22 0.793351 0 39 0.793351 1
gene 1 2 22 -0.612816 0 40 -0.612816 1
gene 1 3 22 0.206851 0 41 0.206851 1
gene 1 4 22 0.389053 0 42 0.389053 1
gene 1 5 22 -0.431205 0 43 -0.431205 1
gene 1 6 22 0.312434 0 44 0.312434 0
gene 1 7 22 0.198542 0 45 0.198542 1
gene 1 8 22 -0.232407 0 46 -0.232407 1
gene 1 9 22 -0.362283 0 47 -0.362283 1
gene 1 10 22 -0.24255 0 48 -0.24255 1
gene 1 11 22 0.126387 0 49 0.126387 1
gene 1 12 22 0.287907 0 50 0.287907 1
gene 1 13 22 0.000652089 0 51 0.000652089 1
gene 1 14 22 0.0471954 0 52 0.0471954 1
gene 1 15 22 0.697697 0 53 0.697697 1
gene 1 16 22 0.652279 0 54 0.652279 1
gene 1 17 22 0.479025 0 55 0.479025 1
gene 1 18 22 0.310504 0 56 0.310504 1
gene 1 19 22 0.560516 0 57 0.560516 1
gene 1 1 23 -0.00210612 0 58 -0.00210612 1
gene 1 2 23 1.07569 0 59 1.07569 1
gene 1 3 23 -1.74473 0 60 -1.74473 1
gene 1 4 23 -0.351443 0 61 -0.351443 1
gene 1 5 23 -0.272071 0 62 -0.272071 1
gene 1 6 23 -0.112814 0 63 -0.112814 1
gene 1 7 23 0.138181 0 64 0.138181 1
gene 1 8 23 -0.642155 0 65 -0.642155 1
gene 1 9 23 -0.0308607 0 66 -0.0308607 1
gene 1 10 23 1.0353 0 67 1.0353 1
gene 1 11 23 -2.70861 0 68 -2.70861 1
gene 1 12 23 0.545907 0 69 0.545907 1
gene 1 13 23 -1.02868 0 70 -1.02868 1
gene 1 14 23 -0.464479 0 71 -0.464479 1
gene 1 15 23 -0.557867 0 72 -0.557867 1
gene 1 16 23 0.127073 0 73 0.127073 1
gene 1 17 23 -0.0347688 0 74 -0.0347688 0
gene 1 18 23 0.730991 0 75 0.730991 1
gene 1 19 23 -0.935535 0 76 -0.935535 1
gene 1 8 24 0.835695 0 77 0.835695 1
gene 1 24 20 0.219524 0 78 0.219524 1
gene 1 15 26 -0.116392 0 85 -0.116392 1
gene 1 26 20 -0.119209 0 86 -0.119209 1
gene 1 22 20 1.51722 0 87 1.51722 1
gene 1 2 24 0.131271 0 91 0.131271 1
gene 1 8 28 0.434943 0 93 0.434943 1
gene 1 28 24 -0.455961 0 94 -0.455961 1
gene 1 6 24 0.406622 0 96 0.406622 1
gene 1 16 26 -0.408662 0 99 -0.408662 1
gene 1 13 24 0.291829 0 100 0.291829 1
gene 1 23 24 0.527485 0 113 0.527485 1
gene 1 13 32 -0.269568 0 116 -0.269568 1
gene 1 32 21 0.460887 0 117 0.460887 1
gene 1 10 37 0.0315154 0 129 0.0315154 1
gene 1 37 20 0.2586 0 130 0.2586 1
gene 1 17 39 -0.119277 0 134 -0.119277 1
gene 1 39 23 0.236678 0 135 0.236678 1
gene 1 15 43 -0.148733 0 150 -0.148733 1
gene 1 43 21 -0.123695 0 151 -0.123695 1
gene 1 3 43 -0.180456 0 153 -0.180456 1
gene 1 8 32 -0.11737 0 154 -0.11737 1
gene 1 2 39 -0.118261 0 178 -0.118261 1
gene 1 6 53 1.27587 0 191 1.27587 1
gene 1 53 22 -0.180488 0 192 -0.180488 1
gene 1 6 43 1.24688 0 210 1.24688 1
genomeend 2077
genomestart 2078
trait 1 0 0 0.450751 0 0 0.0593757 0 0 
node 1 1 1 1 0
node 2 1 1 1 0
node 3 1 1 1 0
node 4 1 1 1 0
node 5 1 1 1 0
node 6 1 1 1 0
node 7 1 1 1 0
node 8 1 1 1 0
node 9 1 1 1 0
node 10 1 1 1 0
node 11 1 1 1 0
node 12 1 1 1 0
node 13 1 1 1 0
node 14 1 1 1 0
node 15 1 1 1 0
node 16 1 1 1 0
node 17 1 1 1 0
node 18 1 1 1 0
node 19 1 1 3 0
node 20 1 0 2 0
node 21 1 0 2 0
node 22 1 0 2 0
node 23 1 0 2 0
node 24 1 0 0 0
node 26 1 0 0 0
node 31 1 0 0 0
node 37 1 0 0 0
node 46 1 0 0 0
gene 1 1 20 0.818462 0 1 0.818462 1
gene 1 2 20 0.295298 0 2 0.295298 1
gene 1 3 20 -0.245786 0 3 -0.245786 0
gene 1 4 20 1.23426 0 4 1.23426 1
gene 1 5 20 0.245472 0 5 0.245472 1
gene 1 6 20 1.36726 0 6 1.36726 1
gene 1 7 20 -0.192466 0 7 -0.192466 1
gene 1 8 20 0.116798 0 8 0.116798 1
gene 1 9 20 0.0142906 0 9 0.0142906 1
gene 1 10 20 -1.52769 0 10 -1.52769 0
gene 1 11 20 0.763377 0 11 0.763377 1
gene 1 12 20 1.00263 0 12 1.00263 1
gene 1 13 20 -0.613309 0 13 -0.613309 1
gene 1 14 20 -0.39728 0 14 -0.39728 1
gene 1 15 20 0.0604185 0 15 0.0604185 1
gene 1 16 20 -0.360741 0 16 -0.360741 1
gene 1 17 20 2.67068 0 17 2.67068 1
gene 1 18 20 0.795182 0 18 0.795182 1
gene 1 19 20 1.5109 0 19 1.5109 1
gene 1 1 21 -1.12825 0 20 -1.12825 1
gene 1 2 21 -0.163208 0 21 -0.163208 1
gene 1 3 21 -0.34651 0 22 -0.34651 1
gene 1 4 21 -0.171032 0 23 -0.171032 1
gene 1 5 21 0.734965 0 24 0.734965 1
gene 1 6 21 0.439699 0 25 0.439699 1
gene 1 7 21 -0.0754946 0 26 -0.0754946 1
gene 1 8 21 -0.384698 0 27 -0.384698 1
gene 1 9 21 -3 0 28 -3 1
gene 1 10 21 1.51715 0 29 1.51715 1
gene 1 11 21 0.333949 0 30 0.333949 1
gene 1 12 21 -0.637844 0 31 -0.637844 1
gene 1 13 21 -2.1532 0 32 -2.1532 1
gene 1 14 21 -0.0704576 0 33 -0.0704576 1
gene 1 15 21 1.31239 0 34 1.31239 1
gene 1 16 21 0.012021 0 35 0.012021 1
gene 1 17 21 -0.159486 0 36 -0.159486 1
gene 1 18 21 -0.885925 0 37 -0.885925 1
gene 1 19 21 0.531174 0 38 0.531174 1
gene 1 1 22 0.606078 0 39 0.606078 1
gene 1 2 22 0.465523 0 40 0.465523 1
gene 1 3 22 -0.346488 0 41 -0.346488 1
gene 1 4 22 0.645872 0 42 0.645872 1
gene 1 5 22 0.440207 0 43 0.440207 1
gene 1 6 22 -0.056972 0 44 -0.056972 1
gene 1 7 22 -0.615733 0 45 -0.615733 1
gene 1 8 22 -0.633445 0 46 -0.633445 1
gene 1 9 22 -1.07144 0 47 -1.07144 1
gene 1 10 22 0.242347 0 48 0.242347 1
gene 1 11 22 -1.13653 0 49 -1.13653 1
gene 1 12 22 0.747256 0 50 0.747256 1
gene 1 13 22 -0.641383 0 51 -0.641383 1
gene 1 14 22 -0.662075 0 52 -0.662075 1
gene 1 15 22 -0.0166083 0 53 -0.0166083 1
gene 1 16 22 -0.206816 0 54 -0.206816 1
gene 1 17 22 1.00992 0 55 1.00992 1
gene 1 18 22 0.586273 0 56 0.586273 1
gene 1 19 22 -0.226599 0 57 -0.226599 1
gene 1 1 23 0.432422 0 58 0.432422 1
gene 1 2 23 -0.852249 0 59 -0.852249 1
gene 1 3 23 -0.463125 0 60 -0.463125 1
gene 1 4 23 0.304088 0 61 0.304088 1
gene 1 5 23 -0.965376 0 62 -0.965376 1
gene 1 6 23 0.60946 0 63 0.60946 1
gene 1 7 23 -0.42836 0 64 -0.42836 1
gene 1 8 23 0.407357 0 65 0.407357 1
gene 1 9 23 0.831857 0 66 0.831857 1
gene 1 10 23 0.178227 0 67 0.178227 1
gene 1 11 23 -0.216692 0 68 -0.216692 1
gene 1 12 23 -0.0478746 0 69 -0.0478746 1
gene 1 13 23 0.523366 0 70 0.523366 1
gene 1 14 23 -0.00583593 0 71 -0.00583593 1
gene 1 15 23 -0.582837 0 72 -0.582837 1
gene 1 16 23 0.243538 0 73 0.243538 1
gene 1 17 23 -0.315305 0 74 -0.315305 1
gene 1 18 23 0.0335156 0 75 0.0335156 1
gene 1 19 23 0.284025 0 76 0.284025 1
gene 1 8 24 -0.101077 0 77 -0.101077 1
gene 1 24 20 -0.0198084 0 78 -0.0198084 1
gene 1 15 26 -0.367942 0 85 -0.367942 1
gene 1 26 20 -0.0662368 0 86 -0.0662368 1
gene 1 22 20 0.278734 0 87 0.278734 1
gene 1 2 24 -0.598422 0 91 -0.598422 1
gene 1 6 24 0.387363 0 96 0.387363 1
gene 1 3 31 1 0 114 0 1
gene 1 31 20 -0.0737358 0 115 0 1
gene 1 10 37 -0.0858972 0 129 -0.0858972 1
gene 1 37 20 -0.180303 0 130 -0.180303 1
gene 1 24 37 -0.189545 0 140 -0.189545 1
gene 1 11 46 -0.153864 0 161 -0.153864 1
gene 1 46 20 -0.237267 0 162 -0.237267 1
genomeend 2078
genomestart 2079
trait 1 0 0.459091 0.300627 0.00121512 0.538741 0.0278606 0.213869 0.00281157 
node 1 1 1 1 0
node 2 1 1 1 0
node 3 1 1 1 0
node 4 1 1 1 0
node 5 1 1 1 0
node 6 1 1 1 0
node 7 1 1 1 0
node 8 1 1 1 0
node 9 1 1 1 0
node 10 1 1 1 0
node 11 1 1 1 0
node 12 1 1 1 0
node 13 1 1 1 0
node 14 1 1 1 0
node 15 1 1 1 0
node 16 1 1 1 0
node 17 1 1 1 0
node 18 1 1 1 0
node 19 1 1 3 0
node 20 1 0 2 0
node 21 1 0 2 0
node 22 1 0 2 0
node 23 1 0 2 0
node 24 1 0 0 0
node 26 1 0 0 0
node 32 1 0 0 0
node 34 1 0 0 0
node 36 1 0 0 0
node 37 1 0 0 0
node 39 1 0 0 0
node 46 1 0 0 0
node 54 1 0 0 0
gene 1 1 20 -0.273268 0 1 -0.273268 1
gene 1 2 20 0.0224445 0 2 0.0224445 1
gene 1 3 20 -0.589457 0 3 -0.589457 1
gene 1 4 20 2.25074 0 4 2.25074 1
gene 1 5 20 0.768005 0 5 0.768005 1
gene 1 6 20 -0.382509 0 6 -0.382509 1
gene 1 7 20 0.38282 0 7 0.38282 1
gene 1 8 20 -0.119625 0 8 -0.119625 0
gene 1 9 20 0.173266 0 9 0.173266 0
gene 1 10 20 -0.0763733 0 10 -0.0763733 1
gene 1 11 20 1.55691 0 11 1.55691 1
gene 1 12 20 -0.338704 0 12 -0.338704 1
gene 1 13 20 -0.244481 0 13 -0.244481 1
gene 1 14 20 -0.255759 0 14 -0.255759 1
gene 1 15 20 0.0235799 0 15 0.0235799 1
gene 1 16 20 0.266531 0 16 0.266531 1
gene 1 17 20 -0.621696 0 17 -0.621696 1
gene 1 18 20 1.64439 0 18 1.64439 1
gene 1 19 20 0.163908 0 19 0.163908 1
gene 1 1 21 1.11173 0 20 1.11173 1
gene 1 2 21 -1.1337 0 21 -1.1337 1
gene 1 3 21 -0.841935 0 22 -0.841935 1
gene 1 4 21 -0.130673 0 23 -0.130673 1
gene 1 5 21 0.944933 0 24 0.944933 1
gene 1 6 21 -0.206149 0 25 -0.206149 1
gene 1 7 21 -2.00103 0 26 -2.00103 1
gene 1 8 21 -0.988965 0 27 -0.988965 1
gene 1 9 21 -2.71508 0 28 -2.71508 1
gene 1 10 21 0.398017 0 29 0.398017 1
gene 1 11 21 0.60585 0 30 0.60585 0
gene 1 12 21 -1.47012 0 31 -1.47012 1
gene 1 13 21 -0.311049 0 32 -0.311049 1
gene 1 14 21 0.358096 0 33 0.358096 1
gene 1 15 21 -0.453365 0 34 -0.453365 1
gene 1 16 21 1.24702 0 35 1.24702 1
gene 1 17 21 0.912092 0 36 0.912092 1
gene 1 18 21 0.679209 0 37 0.679209 1
gene 1 19 21 -0.363694 0 38 -0.363694 1
gene 1 1 22 1.13827 0 39 1.13827 1
gene 1 2 22 -1.4317 0 40 -1.4317 1
gene 1 3 22 0.629626 0 41 0.629626 1
gene 1 4 22 0.598179 0 42 0.598179 1
gene 1 5 22 0.0669061 0 43 0.0669061 1
gene 1 6 22 -0.629818 0 44 -0.629818 1
gene 1 7 22 -0.377123 0 45 -0.377123 1
gene 1 8 22 -0.473125 0 46 -0.473125 1
gene 1 9 22 -1.64868 0 47 -1.64868 1
gene 1 10 22 0.587974 0 48 0.587974 1
gene 1 11 22 -0.339439 0 49 -0.339439 1
gene 1 12 22 1.07399 0 50 1.07399 1
gene 1 13 22 0.295321 0 51 0.295321 1
gene 1 14 22 0.0657837 0 52 0.0657837 1
gene 1 15 22 0.0553135 0 53 0.0553135 1
gene 1 16 22 -0.164377 0 54 -0.164377 1
gene 1 17 22 -1.31103 0 55 -1.31103 1
gene 1 18 22 -0.665342 0 56 -0.665342 1
gene 1 19 22 -0.320057 0 57 -0.320057 1
gene 1 1 23 0.494533 0 58 0.494533 1
gene 1 2 23 0.899928 0 59 0.899928 1
gene 1 3 23 -0.366992 0 60 -0.366992 1
gene 1 4 23 0.252833 0 61 0.252833 1
gene 1 5 23 -1.1174 0 62 -1.1174 1
gene 1 6 23 1.32437 0 63 1.32437 1
gene 1 7 23 0.209934 0 64 0.209934 1
gene 1 8 23 0.00365274 0 65 0.00365274 1
gene 1 9 23 0.0350002 0 66 0.0350002 1
gene 1 10 23 -0.862023 0 67 -0.862023 1
gene 1 11 23 -0.0633377 0 68 -0.0633377 1
gene 1 12 23 0.480625 0 69 0.480625 1
gene 1 13 23 -0.807731 0 70 -0.807731 1
gene 1 14 23 -0.197074 0 71 -0.197074 1
gene 1 15 23 0.842828 0 72 0.842828 1
gene 1 16 23 -0.567752 0 73 -0.567752 1
gene 1 17 23 -1.22909 0 74 -1.22909 1
gene 1 18 23 -0.193202 0 75 -0.193202 1
gene 1 19 23 0.756183 0 76 0.756183 1
gene 1 8 24 1.17106 0 77 1.17106 1
gene 1 24 20 0.890424 0 78 0.890424 1
gene 1 15 26 -0.461241 0 85 -0.461241 1
gene 1 26 20 1.17548 0 86 1.17548 1
gene 1 22 20 0.923434 0 87 0.923434 1
gene 1 2 24 0.598358 0 91 0.598358 1
gene 1 6 24 -0.567812 0 96 -0.567812 1
gene 1 16 26 -0.289456 0 99 -0.289456 1
gene 1 13 24 -0.226448 0 100 -0.226448 1
gene 1 23 24 0.343712 0 113 0.343712 1
gene 1 13 32 0.112698 0 116 0.112698 1
gene 1 32 21 0.10278 0 117 0.10278 1
gene 1 11 34 -0.199746 0 122 -0.199746 1
gene 1 34 21 0.43112 0 123 0.43112 1
gene 1 9 36 0.915884 0 127 0.915884 1
gene 1 36 20 0.514987 0 128 0.514987 1
gene 1 10 37 -0.300273 0 129 -0.300273 1
gene 1 37 20 -0.411475 0 130 -0.411475 1
gene 1 17 39 0.510859 0 134 0.510859 1
gene 1 39 23 0.812163 0 135 0.812163 1
gene 1 24 37 -0.507651 0 140 -0.507651 1
gene 1 19 24 0.180871 0 144 0.180871 1
gene 1 11 46 -0.485515 0 161 -0.485515 1
gene 1 46 20 -0.415258 0 162 -0.415258 1
gene 1 39 34 0.202418 0 193 0.202418 1
gene 1 16 54 0.795539 0 194 0.795539 1
gene 1 54 26 0.458193 0 195 0.458193 1
genomeend 2079
genomestart 2080
trait 1 0.82852 0 0.450751 0 0 0 0 0 
node 1 1 1 1 0
node 2 1 1 1 0
node 3 1 1 1 0
node 4 1 1 1 0
node 5 1 1 1 0
node 6 1 1 1 0
node 7 1 1 1 0
node 8 1 1 1 0
node 9 1 1 1 0
node 10 1 1 1 0
node 11 1 1 1 0
node 12 1 1 1 0
node 13 1 1 1 0
node 14 1 1 1 0
node 15 1 1 1 0
node 16 1 1 1 0
node 17 1 1 1 0
node 18 1 1 1 0
node 19 1 1 3 0
node 20 1 0 2 0
node 21 1 0 2 0
node 22 1 0 2 0
node 23 1 0 2 0
node 24 1 0 0 0
node 26 1 0 0 0
node 37 1 0 0 0
node 46 1 0 0 0
gene 1 1 20 0.00580731 0 1 0.00580731 1
gene 1 2 20 -0.0547648 0 2 -0.0547648 1
gene 1 3 20 0.161021 0 3 0.161021 1
gene 1 4 20 0.132084 0 4 0.132084 1
gene 1 5 20 -0.23103 0 5 -0.23103 1
gene 1 6 20 0.354656 0 6 0.354656 1
gene 1 7 20 -0.159738 0 7 -0.159738 1
gene 1 8 20 -0.261913 0 8 -0.261913 1
gene 1 9 20 1.29766 0 9 1.29766 1
gene 1 10 20 -1.43094 0 10 -1.43094 0
gene 1 11 20 0.286913 0 11 0.286913 1
gene 1 12 20 0.261072 0 12 0.261072 1
gene 1 13 20 -0.17435 0 13 -0.17435 1
gene 1 14 20 -0.0797388 0 14 -0.0797388 1
gene 1 15 20 -0.147305 0 15 -0.147305 1
gene 1 16 20 -0.174685 0 16 -0.174685 1
gene 1 17 20 2.19191 0 17 2.19191 1
gene 1 18 20 1.20587 0 18 1.20587 1
gene 1 19 20 0.566179 0 19 0.566179 1
gene 1 1 21 -0.744918 0 20 -0.744918 1
gene 1 2 21 0.164046 0 21 0.164046 1
gene 1 3 21 -0.991495 0 22 -0.991495 1
gene 1 4 21 0.320658 0 23 0.320658 1
gene 1 5 21 1.06208 0 24 1.06208 1
gene 1 6 21 0.425893 0 25 0.425893 1
gene 1 7 21 0.597336 0 26 0.597336 1
gene 1 8 21 -1.45307 0 27 -1.45307 1
gene 1 9 21 -0.106188 0 28 -0.106188 1
gene 1 10 21 1.26085 0 29 1.26085 1
gene 1 11 21 1.20445 0 30 1.20445 1
gene 1 12 21 -0.564765 0 31 -0.564765 1
gene 1 13 21 -1.44394 0 32 -1.44394 1
gene 1 14 21 -0.0543375 0 33 -0.0543375 1
gene 1 15 21 0.774985 0 34 0.774985 1
gene 1 16 21 -0.492001 0 35 -0.492001 1
gene 1 17 21 0.398415 0 36 0.398415 1
gene 1 18 21 -0.373591 0 37 -0.373591 1
gene 1 19 21 0.253528 0 38 0.253528 1
gene 1 1 22 0.172346 0 39 0.172346 1
gene 1 2 22 0.0617998 0 40 0.0617998 1
gene 1 3 22 -0.375885 0 41 -0.375885 1
gene 1 4 22 0.503019 0 42 0.503019 1
gene 1 5 22 0.615721 0 43 0.615721 1
gene 1 6 22 0.060107 0 44 0.060107 1
gene 1 7 22 -0.545824 0 45 -0.545824 1
gene 1 8 22 0.115471 0 46 0.115471 1
gene 1 9 22 -0.144623 0 47 -0.144623 1
gene 1 10 22 -0.262909 0 48 -0.262909 1
gene 1 11 22 -2.87579 0 49 -2.87579 1
gene 1 12 22 1.2315 0 50 1.2315 1
gene 1 13 22 -0.167651 0 51 -0.167651 1
gene 1 14 22 -0.854649 0 52 -0.854649 1
gene 1 15 22 -0.188142 0 53 -0.188142 1
gene 1 16 22 -0.606865 0 54 -0.606865 1
gene 1 17 22 -0.426754 0 55 -0.426754 1
gene 1 18 22 0.965128 0 56 0.965128 1
gene 1 19 22 0.10962 0 57 0.10962 1
gene 1 1 23 -0.532181 0 58 -0.532181 1
gene 1 2 23 0.306989 0 59 0.306989 1
gene 1 3 23 0.108411 0 60 0.108411 1
gene 1 4 23 0.0170968 0 61 0.0170968 1
gene 1 5 23 0.372646 0 62 0.372646 1
gene 1 6 23 -0.625466 0 63 -0.625466 1
gene 1 7 23 -0.943609 0 64 -0.943609 1
gene 1 8 23 -0.625323 0 65 -0.625323 1
gene 1 9 23 -0.26731 0 66 -0.26731 1
gene 1 10 23 -0.403043 0 67 -0.403043 1
gene 1 11 23 -0.329465 0 68 -0.329465 1
gene 1 12 23 0.136223 0 69 0.136223 1
gene 1 13 23 0.87073 0 70 0.87073 1
gene 1 14 23 -0.683768 0 71 -0.683768 1
gene 1 15 23 0.428443 0 72 0.428443 1
gene 1 16 23 0.0159227 0 73 0.0159227 1
gene 1 17 23 0.33099 0 74 0.33099 1
gene 1 18 23 0.253884 0 75 0.253884 1
gene 1 19 23 0.337989 0 76 0.337989 1
gene 1 8 24 -0.311149 0 77 -0.311149 1
gene 1 24 20 -0.478657 0 78 -0.478657 1
gene 1 15 26 0.463032 0 85 0.463032 1
gene 1 26 20 0.331825 0 86 0.331825 1
gene 1 22 20 -0.582783 0 87 -0.582783 1
gene 1 2 24 -0.0208418 0 91 -0.0208418 1
gene 1 6 24 0.42397 0 96 0.42397 1
gene 1 10 37 -0.770428 0 129 -0.770428 1
gene 1 37 20 0.0748638 0 130 0.0748638 1
gene 1 24 37 -0.625396 0 140 -0.625396 1
gene 1 11 46 0.0893704 0 161 0.0893704 1
gene 1 46 20 -0.64621 0 162 -0.64621 1
genomeend 2080
genomestart 2081
trait 1 0 0.059342 0 1 0.671101 0 0 0.414474 
node 1 1 1 1 0
node 2 1 1 1 0
node 3 1 1 1 0
node 4 1 1 1 0
node 5 1 1 1 0
node 6 1 1 1 0
node 7 1 1 1 0
node 8 1 1 1 0
node 9 1 1 1 0
node 10 1 1 1 0
node 11 1 1 1 0
node 12 1 1 1 0
node 13 1 1 1 0
node 14 1 1 1 0
node 15 1 1 1 0
node 16 1 1 1 0
node 17 1 1 1 0
node 18 1 1 1 0
node 19 1 1 3 0
node 20 1 0 2 0
node 21 1 0 2 0
node 22 1 0 2 0
