genomestart 2060
trait 1 0 0.459091 0.300627 0.00121512 0.538741 0.0278606 0.213869 0.00281157 
node 1 1 1 1 0
node 2 1 1 1 0
node 3 1 1 1 0
node 4 1 1 1 0
node 5 1 1 1 0
node 6 1 1 1 0
node 7 1 1 1 0
node 8 1 1 1 0
node 9 1 1 1 0
node 10 1 1 1 0
node 11 1 1 1 0
node 12 1 1 1 0
node 13 1 1 1 0
node 14 1 1 1 0
node 15 1 1 1 0
node 16 1 1 1 0
node 17 1 1 1 0
node 18 1 1 1 0
node 19 1 1 3 0
node 20 1 0 2 0
node 21 1 0 2 0
node 22 1 0 2 0
node 23 1 0 2 0
node 24 1 0 0 0
node 26 1 0 0 0
node 32 1 0 0 0
node 34 1 0 0 0
node 36 1 0 0 0
node 37 1 0 0 0
node 39 1 0 0 0
node 46 1 0 0 0
node 54 1 0 0 0
gene 1 1 20 0.0858233 0 1 0.0858233 1
gene 1 2 20 0.0407008 0 2 0.0407008 1
gene 1 3 20 -0.0114547 0 3 -0.0114547 1
gene 1 4 20 2.01956 0 4 2.01956 1
gene 1 5 20 0.601743 0 5 0.601743 1
gene 1 6 20 1.81036 0 6 1.81036 1
gene 1 7 20 0.614583 0 7 0.614583 1
gene 1 8 20 0.00639255 0 8 0.00639255 0
gene 1 9 20 -0.216466 0 9 -0.216466 0
gene 1 10 20 -0.236863 0 10 -0.236863 0
gene 1 11 20 1.25176 0 11 1.25176 0
gene 1 12 20 -0.0808637 0 12 -0.0808637 1
gene 1 13 20 -0.391292 0 13 -0.391292 1
gene 1 14 20 -0.0944607 0 14 -0.0944607 1
gene 1 15 20 0.0288052 0 15 0.0288052 0
gene 1 16 20 0.308497 0 16 0.308497 1
gene 1 17 20 -0.836968 0 17 -0.836968 1
gene 1 18 20 1.30105 0 18 1.30105 1
gene 1 19 20 0.126796 0 19 0.126796 1
gene 1 1 21 1.11345 0 20 1.11345 1
gene 1 2 21 -0.608574 0 21 -0.608574 1
gene 1 3 21 -0.555313 0 22 -0.555313 1
gene 1 4 21 0.0433804 0 23 0.0433804 1
gene 1 5 21 0.489096 0 24 0.489096 1
gene 1 6 21 0.696101 0 25 0.696101 1
gene 1 7 21 -1.45515 0 26 -1.45515 1
gene 1 8 21 -0.847437 0 27 -0.847437 1
gene 1 9 21 -3 0 28 -3 1
gene 1 10 21 2.57512 0 29 2.57512 1
gene 1 11 21 0.326075 0 30 0.326075 0
gene 1 12 21 -0.979725 0 31 -0.979725 1
gene 1 13 21 -0.808319 0 32 -0.808319 1
gene 1 14 21 0.262695 0 33 0.262695 1
gene 1 15 21 -0.828578 0 34 -0.828578 1
gene 1 16 21 0.982339 0 35 0.982339 1
gene 1 17 21 0.491247 0 36 0.491247 1
gene 1 18 21 0.401606 0 37 0.401606 1
gene 1 19 21 -0.0914355 0 38 -0.0914355 1
gene 1 1 22 1.31425 0 39 1.31425 1
gene 1 2 22 -1.35999 0 40 -1.35999 1
gene 1 3 22 0.562658 0 41 0.562658 1
gene 1 4 22 0.0198267 0 42 0.0198267 1
gene 1 5 22 0.536031 0 43 0.536031 1
gene 1 6 22 -0.423631 0 44 -0.423631 1
gene 1 7 22 -0.469051 0 45 -0.469051 1
gene 1 8 22 -0.229237 0 46 -0.229237 1
gene 1 9 22 -1.26178 0 47 -1.26178 1
gene 1 10 22 0.331884 0 48 0.331884 1
gene 1 11 22 -0.720257 0 49 -0.720257 1
gene 1 12 22 0.845449 0 50 0.845449 1
gene 1 13 22 0.323171 0 51 0.323171 1
gene 1 14 22 0.0911115 0 52 0.0911115 1
gene 1 15 22 0.323196 0 53 0.323196 1
gene 1 16 22 -0.152575 0 54 -0.152575 1
gene 1 17 22 -1.31966 0 55 -1.31966 1
gene 1 18 22 -0.143132 0 56 -0.143132 1
gene 1 19 22 0.0167938 0 57 0.0167938 1
gene 1 1 23 0.0365845 0 58 0.0365845 1
gene 1 2 23 0.660341 0 59 0.660341 1
gene 1 3 23 -0.0777679 0 60 -0.0777679 1
gene 1 4 23 0.335453 0 61 0.335453 1
gene 1 5 23 -1.51804 0 62 -1.51804 1
gene 1 6 23 1.09804 0 63 1.09804 1
gene 1 7 23 -0.249155 0 64 -0.249155 1
gene 1 8 23 -0.226575 0 65 -0.226575 1
gene 1 9 23 -0.132622 0 66 -0.132622 1
gene 1 10 23 -1.07324 0 67 -1.07324 1
gene 1 11 23 -0.0285543 0 68 -0.0285543 1
gene 1 12 23 0.278348 0 69 0.278348 1
gene 1 13 23 -0.506177 0 70 -0.506177 1
gene 1 14 23 -0.74301 0 71 -0.74301 1
gene 1 15 23 0.593202 0 72 0.593202 1
gene 1 16 23 -0.499407 0 73 -0.499407 1
gene 1 17 23 -1.40529 0 74 -1.40529 1
gene 1 18 23 0.236666 0 75 0.236666 1
gene 1 19 23 0.674189 0 76 0.674189 1
gene 1 8 24 1.2354 0 77 1.2354 1
gene 1 24 20 0.826983 0 78 0.826983 1
gene 1 15 26 -0.471895 0 85 -0.471895 1
gene 1 26 20 1.43078 0 86 1.43078 1
gene 1 22 20 0.788998 0 87 0.788998 1
gene 1 2 24 0.688917 0 91 0.688917 1
gene 1 6 24 -0.609593 0 96 -0.609593 1
gene 1 16 26 -0.289456 0 99 -0.289456 1
gene 1 13 24 0.234893 0 100 0.234893 1
gene 1 23 24 -0.172637 0 113 -0.172637 1
gene 1 13 32 -0.110651 0 116 -0.110651 1
gene 1 32 21 -0.064291 0 117 -0.064291 1
gene 1 11 34 0.310317 0 122 0.310317 1
gene 1 34 21 -0.304314 0 123 -0.304314 1
gene 1 9 36 0.461423 0 127 0.461423 1
gene 1 36 20 0.416331 0 128 0.416331 1
gene 1 10 37 -0.300273 0 129 -0.300273 1
gene 1 37 20 0.292545 0 130 0.292545 1
gene 1 17 39 0.175717 0 134 0.175717 1
gene 1 39 23 0.404698 0 135 0.404698 1
gene 1 24 37 0.0159457 0 140 0.0159457 1
gene 1 19 24 -0.133707 0 144 -0.133707 1
gene 1 11 46 0.438433 0 161 0.438433 1
gene 1 46 20 -0.239335 0 162 -0.239335 1
gene 1 39 34 0.297191 0 193 0.297191 1
gene 1 16 54 0.608767 0 194 0.608767 1
gene 1 54 26 -0.0374052 0 195 -0.0374052 1
genomeend 2060
genomestart 2062
trait 1 0 0.264377 0.338431 0.00182268 0.308112 0.0417909 0.106934 0.00140579 
node 1 1 1 1 0
node 2 1 1 1 0
node 3 1 1 1 0
node 4 1 1 1 0
node 5 1 1 1 0
node 6 1 1 1 0
node 7 1 1 1 0
node 8 1 1 1 0
node 9 1 1 1 0
node 10 1 1 1 0
node 11 1 1 1 0
node 12 1 1 1 0
node 13 1 1 1 0
node 14 1 1 1 0
node 15 1 1 1 0
node 16 1 1 1 0
node 17 1 1 1 0
node 18 1 1 1 0
node 19 1 1 3 0
node 20 1 0 2 0
node 21 1 0 2 0
node 22 1 0 2 0
node 23 1 0 2 0
node 24 1 0 0 0
node 26 1 0 0 0
node 32 1 0 0 0
node 34 1 0 0 0
node 36 1 0 0 0
node 37 1 0 0 0
node 39 1 0 0 0
node 46 1 0 0 0
node 54 1 0 0 0
gene 1 1 20 0.316694 0 1 0.316694 1
gene 1 2 20 -1.02605 0 2 -1.02605 1
gene 1 3 20 -0.258758 0 3 -0.258758 1
gene 1 4 20 1.54971 0 4 1.54971 1
gene 1 5 20 0.445154 0 5 0.445154 1
gene 1 6 20 1.02172 0 6 1.02172 1
gene 1 7 20 -0.166652 0 7 -0.166652 1
gene 1 8 20 0.0579904 0 8 0.0579904 1
gene 1 9 20 0.056021 0 9 0.056021 0
gene 1 10 20 0.387923 0 10 0.387923 0
gene 1 11 20 1.2795 0 11 1.2795 1
gene 1 12 20 0.101988 0 12 0.101988 1
gene 1 13 20 -0.6801 0 13 -0.6801 1
gene 1 14 20 0.241169 0 14 0.241169 1
gene 1 15 20 0.262498 0 15 0.262498 1
gene 1 16 20 0.244381 0 16 0.244381 1
gene 1 17 20 -0.613576 0 17 -0.613576 1
gene 1 18 20 -0.290738 0 18 -0.290738 1
gene 1 19 20 0.846586 0 19 0.846586 1
gene 1 1 21 0.977272 0 20 0.977272 1
gene 1 2 21 -0.569527 0 21 -0.569527 1
gene 1 3 21 -0.40981 0 22 -0.40981 1
gene 1 4 21 0.232784 0 23 0.232784 1
gene 1 5 21 0.133158 0 24 0.133158 1
gene 1 6 21 0.775781 0 25 0.775781 1
gene 1 7 21 -1.60128 0 26 -1.60128 1
gene 1 8 21 -2.44319 0 27 -2.44319 1
gene 1 9 21 -3 0 28 -3 1
gene 1 10 21 2.82509 0 29 2.82509 1
gene 1 11 21 0.494643 0 30 0.494643 0
gene 1 12 21 -1.303 0 31 -1.303 1
gene 1 13 21 -0.742211 0 32 -0.742211 1
gene 1 14 21 0.358096 0 33 0.358096 1
gene 1 15 21 -0.644893 0 34 -0.644893 1
gene 1 16 21 0.631793 0 35 0.631793 1
gene 1 17 21 0.715812 0 36 0.715812 1
gene 1 18 21 0.185989 0 37 0.185989 1
gene 1 19 21 -0.102656 0 38 -0.102656 1
gene 1 1 22 1.44074 0 39 1.44074 1
gene 1 2 22 -0.719759 0 40 -0.719759 1
gene 1 3 22 0.629626 0 41 0.629626 1
gene 1 4 22 0.135644 0 42 0.135644 1
gene 1 5 22 0.158718 0 43 0.158718 1
gene 1 6 22 0.350165 0 44 0.350165 1
gene 1 7 22 -0.256508 0 45 -0.256508 1
gene 1 8 22 -0.184868 0 46 -0.184868 1
gene 1 9 22 -1.33882 0 47 -1.33882 1
gene 1 10 22 0.348506 0 48 0.348506 1
gene 1 11 22 -0.655855 0 49 -0.655855 1
gene 1 12 22 1.47295 0 50 1.47295 1
gene 1 13 22 -0.0668395 0 51 -0.0668395 1
gene 1 14 22 -0.929948 0 52 -0.929948 1
gene 1 15 22 0.331077 0 53 0.331077 1
gene 1 16 22 -0.290787 0 54 -0.290787 1
gene 1 17 22 -1.15431 0 55 -1.15431 1
gene 1 18 22 -0.303314 0 56 -0.303314 1
gene 1 19 22 0.315782 0 57 0.315782 1
gene 1 1 23 0.116725 0 58 0.116725 1
gene 1 2 23 -0.0993579 0 59 -0.0993579 1
gene 1 3 23 -0.117066 0 60 -0.117066 1
gene 1 4 23 0.258023 0 61 0.258023 1
gene 1 5 23 0.431367 0 62 0.431367 1
gene 1 6 23 0.919234 0 63 0.919234 1
gene 1 7 23 -0.161118 0 64 -0.161118 1
gene 1 8 23 -0.45442 0 65 -0.45442 1
gene 1 9 23 1.16391 0 66 1.16391 1
gene 1 10 23 -0.420023 0 67 -0.420023 1
gene 1 11 23 0.0795467 0 68 0.0795467 1
gene 1 12 23 0.489297 0 69 0.489297 1
gene 1 13 23 -0.130763 0 70 -0.130763 1
gene 1 14 23 -0.544935 0 71 -0.544935 1
gene 1 15 23 0.420388 0 72 0.420388 1
gene 1 16 23 -0.577847 0 73 -0.577847 1
gene 1 17 23 -1.20769 0 74 -1.20769 1
gene 1 18 23 0.216355 0 75 0.216355 1
gene 1 19 23 0.649201 0 76 0.649201 1
gene 1 8 24 1.07215 0 77 1.07215 1
gene 1 24 20 -0.193577 0 78 -0.193577 1
gene 1 15 26 -0.292045 0 85 -0.292045 1
gene 1 26 20 1.23206 0 86 1.23206 1
gene 1 22 20 0.936728 0 87 0.936728 1
gene 1 2 24 0.479455 0 91 0.479455 1
gene 1 6 24 0.5077 0 96 0.5077 1
gene 1 16 26 0.0722161 0 99 0.0722161 1
gene 1 13 24 0.234893 0 100 0.234893 1
gene 1 23 24 -0.172637 0 113 -0.172637 1
gene 1 13 32 -0.110651 0 116 -0.110651 1
gene 1 32 21 0.184178 0 117 0.184178 1
gene 1 11 34 -0.460227 0 122 -0.460227 1
gene 1 34 21 -0.357179 0 123 -0.357179 1
gene 1 9 36 0.461423 0 127 0.461423 1
gene 1 36 20 0.514987 0 128 0.514987 1
gene 1 10 37 -0.0269701 0 129 -0.0269701 1
gene 1 37 20 0.292545 0 130 0.292545 1
gene 1 17 39 0.175717 0 134 0.175717 1
gene 1 39 23 0.562744 0 135 0.562744 1
gene 1 24 37 -0.209129 0 140 -0.209129 1
gene 1 19 24 -0.336507 0 144 -0.336507 1
gene 1 11 46 -0.266243 0 161 -0.266243 1
gene 1 46 20 -0.239335 0 162 -0.239335 1
gene 1 39 34 0.449566 0 193 0.449566 1
gene 1 16 54 0.824129 0 194 0.824129 1
gene 1 54 26 0.204293 0 195 0.204293 1
gene 1 18 32 0.1163 0 213 0.1163 1
genomeend 2062
genomestart 2063
trait 1 0 0.0395613 0.0228897 0.229325 0.780734 0 0 0.333245 
node 1 1 1 1 0
node 2 1 1 1 0
node 3 1 1 1 0
node 4 1 1 1 0
node 5 1 1 1 0
node 6 1 1 1 0
node 7 1 1 1 0
node 8 1 1 1 0
node 9 1 1 1 0
node 10 1 1 1 0
node 11 1 1 1 0
node 12 1 1 1 0
node 13 1 1 1 0
node 14 1 1 1 0
node 15 1 1 1 0
node 16 1 1 1 0
node 17 1 1 1 0
node 18 1 1 1 0
node 19 1 1 3 0
node 20 1 0 2 0
node 21 1 0 2 0
node 22 1 0 2 0
node 23 1 0 2 0
node 24 1 0 0 0
node 26 1 0 0 0
node 28 1 0 0 0
node 32 1 0 0 0
node 37 1 0 0 0
node 39 1 0 0 0
node 43 1 0 0 0
node 53 1 0 0 0
node 60 1 0 0 0
gene 1 1 20 -0.0450208 0 1 -0.0450208 1
gene 1 2 20 -0.110307 0 2 -0.110307 1
gene 1 3 20 1.44678 0 3 1.44678 1
gene 1 4 20 -0.439034 0 4 -0.439034 1
gene 1 5 20 -0.733783 0 5 -0.733783 1
gene 1 6 20 -0.90461 0 6 -0.90461 1
gene 1 7 20 0.498948 0 7 0.498948 1
gene 1 8 20 -0.370753 0 8 -0.370753 0
gene 1 9 20 0.0533113 0 9 0.0533113 1
gene 1 10 20 -0.588558 0 10 -0.588558 0
gene 1 11 20 0.585745 0 11 0.585745 1
gene 1 12 20 0.963428 0 12 0.963428 1
gene 1 13 20 0.460954 0 13 0.460954 1
gene 1 14 20 0.331933 0 14 0.331933 1
gene 1 15 20 -0.165738 0 15 -0.165738 1
gene 1 16 20 0.991276 0 16 0.991276 1
gene 1 17 20 -0.0921412 0 17 -0.0921412 1
gene 1 18 20 0.515803 0 18 0.515803 1
gene 1 19 20 -0.22387 0 19 -0.22387 1
gene 1 1 21 0.453837 0 20 0.453837 1
gene 1 2 21 0.0661069 0 21 0.0661069 1
gene 1 3 21 2.48672 0 22 2.48672 1
gene 1 4 21 1.08943 0 23 1.08943 1
gene 1 5 21 1.02862 0 24 1.02862 1
gene 1 6 21 1.45354 0 25 1.45354 1
gene 1 7 21 0.740966 0 26 0.740966 1
gene 1 8 21 -0.114777 0 27 -0.114777 1
gene 1 9 21 -0.64777 0 28 -0.64777 1
gene 1 10 21 -0.170402 0 29 -0.170402 1
gene 1 11 21 0.895612 0 30 0.895612 1
gene 1 12 21 0.268473 0 31 0.268473 1
gene 1 13 21 -0.97793 0 32 -0.97793 0
gene 1 14 21 -2.22387 0 33 -2.22387 1
gene 1 15 21 0.919152 0 34 0.919152 0
gene 1 16 21 -0.254727 0 35 -0.254727 1
gene 1 17 21 -0.748422 0 36 -0.748422 1
gene 1 18 21 0.0464782 0 37 0.0464782 1
gene 1 19 21 -0.850767 0 38 -0.850767 1
gene 1 1 22 0.949106 0 39 0.949106 1
gene 1 2 22 0.261443 0 40 0.261443 1
gene 1 3 22 0.582735 0 41 0.582735 1
gene 1 4 22 0.40287 0 42 0.40287 1
gene 1 5 22 0.0735138 0 43 0.0735138 1
gene 1 6 22 -0.0332698 0 44 -0.0332698 0
gene 1 7 22 -0.391486 0 45 -0.391486 1
gene 1 8 22 -0.792675 0 46 -0.792675 1
gene 1 9 22 0.262947 0 47 0.262947 1
gene 1 10 22 0.199437 0 48 0.199437 1
gene 1 11 22 0.407299 0 49 0.407299 1
gene 1 12 22 1.26292 0 50 1.26292 1
gene 1 13 22 -0.225841 0 51 -0.225841 1
gene 1 14 22 0.324726 0 52 0.324726 1
gene 1 15 22 0.428027 0 53 0.428027 1
gene 1 16 22 0.3716 0 54 0.3716 1
gene 1 17 22 0.471188 0 55 0.471188 0
gene 1 18 22 0.462752 0 56 0.462752 1
gene 1 19 22 0.584058 0 57 0.584058 1
gene 1 1 23 0.639013 0 58 0.639013 1
gene 1 2 23 1.22514 0 59 1.22514 1
gene 1 3 23 -2.19465 0 60 -2.19465 1
gene 1 4 23 -0.0270874 0 61 -0.0270874 1
gene 1 5 23 -0.168625 0 62 -0.168625 1
gene 1 6 23 0.624887 0 63 0.624887 1
gene 1 7 23 0.541256 0 64 0.541256 1
gene 1 8 23 0.0396946 0 65 0.0396946 1
gene 1 9 23 -0.49556 0 66 -0.49556 1
gene 1 10 23 1.42965 0 67 1.42965 1
gene 1 11 23 -2.88613 0 68 -2.88613 1
gene 1 12 23 1.51236 0 69 1.51236 1
gene 1 13 23 -0.336235 0 70 -0.336235 1
gene 1 14 23 -0.472697 0 71 -0.472697 1
gene 1 15 23 -0.907742 0 72 -0.907742 1
gene 1 16 23 0.496951 0 73 0.496951 1
gene 1 17 23 -0.683628 0 74 -0.683628 0
gene 1 18 23 0.355378 0 75 0.355378 1
gene 1 19 23 -1.27965 0 76 -1.27965 1
gene 1 8 24 0.540323 0 77 0.540323 0
gene 1 24 20 0.464173 0 78 0.464173 1
gene 1 15 26 0.858806 0 85 0.858806 1
gene 1 26 20 -0.0808757 0 86 -0.0808757 1
gene 1 22 20 2.1397 0 87 2.1397 1
gene 1 2 24 -0.437621 0 91 -0.437621 1
gene 1 8 28 0.420938 0 93 0.420938 1
gene 1 28 24 -0.00391951 0 94 -0.00391951 1
gene 1 6 24 0.86224 0 96 0.86224 1
gene 1 16 26 -0.251603 0 99 -0.251603 1
gene 1 13 24 -0.354431 0 100 -0.354431 1
gene 1 23 24 0.386658 0 113 0.386658 1
gene 1 13 32 0.384658 0 116 0.384658 1
gene 1 32 21 0.206741 0 117 0.206741 1
gene 1 10 37 0.264342 0 129 0.264342 1
gene 1 37 20 0.611631 0 130 0.611631 1
gene 1 17 39 -0.0854328 0 134 -0.0854328 1
gene 1 39 23 -0.0134566 0 135 -0.0134566 1
gene 1 15 43 -0.302169 0 150 -0.302169 1
gene 1 43 21 0.309479 0 151 0.309479 1
gene 1 3 43 0.529748 0 153 0.529748 1
gene 1 8 32 -0.0629767 0 154 -0.0629767 1
gene 1 2 39 -0.0497778 0 178 -0.0497778 1
gene 1 6 53 1.49324 0 191 1.49324 1
gene 1 53 22 -0.550218 0 192 -0.550218 1
gene 1 17 60 1 0 217 0 1
gene 1 60 22 0.141356 0 218 0 1
genomeend 2063
genomestart 2064
trait 1 0 0.459091 0.300627 0.00121512 0.538741 0.0278606 0.213869 0.00281157 
node 1 1 1 1 0
node 2 1 1 1 0
node 3 1 1 1 0
node 4 1 1 1 0
node 5 1 1 1 0
node 6 1 1 1 0
node 7 1 1 1 0
node 8 1 1 1 0
node 9 1 1 1 0
node 10 1 1 1 0
node 11 1 1 1 0
node 12 1 1 1 0
node 13 1 1 1 0
node 14 1 1 1 0
node 15 1 1 1 0
node 16 1 1 1 0
node 17 1 1 1 0
node 18 1 1 1 0
node 19 1 1 3 0
node 20 1 0 2 0
node 21 1 0 2 0
node 22 1 0 2 0
node 23 1 0 2 0
node 24 1 0 0 0
node 26 1 0 0 0
node 32 1 0 0 0
node 34 1 0 0 0
node 36 1 0 0 0
node 37 1 0 0 0
node 39 1 0 0 0
node 46 1 0 0 0
node 54 1 0 0 0
gene 1 1 20 0.00483654 0 1 0.00483654 1
gene 1 2 20 -0.0606947 0 2 -0.0606947 1
gene 1 3 20 0.235848 0 3 0.235848 1
gene 1 4 20 2.20065 0 4 2.20065 1
gene 1 5 20 0.758332 0 5 0.758332 1
gene 1 6 20 1.87175 0 6 1.87175 1
gene 1 7 20 0.853249 0 7 0.853249 1
gene 1 8 20 -0.0452053 0 8 -0.0452053 0
gene 1 9 20 -0.279191 0 9 -0.279191 0
gene 1 10 20 -0.397353 0 10 -0.397353 1
gene 1 11 20 1.22558 0 11 1.22558 0
gene 1 12 20 -0.263716 0 12 -0.263716 1
gene 1 13 20 -0.404259 0 13 -0.404259 1
gene 1 14 20 -0.176473 0 14 -0.176473 1
gene 1 15 20 -0.0431924 0 15 -0.0431924 0
gene 1 16 20 0.513939 0 16 0.513939 1
gene 1 17 20 -1.06036 0 17 -1.06036 1
gene 1 18 20 1.38751 0 18 1.38751 1
gene 1 19 20 0.0896829 0 19 0.0896829 1
gene 1 1 21 1.24963 0 20 1.24963 1
gene 1 2 21 -0.378403 0 21 -0.378403 1
gene 1 3 21 -0.700815 0 22 -0.700815 1
gene 1 4 21 -0.146024 0 23 -0.146024 1
gene 1 5 21 0.407782 0 24 0.407782 1
gene 1 6 21 0.61642 0 25 0.61642 1
gene 1 7 21 -1.30902 0 26 -1.30902 1
gene 1 8 21 -1.0691 0 27 -1.0691 1
gene 1 9 21 -3 0 28 -3 1
gene 1 10 21 2.32516 0 29 2.32516 1
gene 1 11 21 0.157507 0 30 0.157507 0
gene 1 12 21 -0.784401 0 31 -0.784401 1
gene 1 13 21 -0.874426 0 32 -0.874426 1
gene 1 14 21 0.167294 0 33 0.167294 1
gene 1 15 21 -1.01226 0 34 -1.01226 1
gene 1 16 21 0.977403 0 35 0.977403 1
gene 1 17 21 0.266681 0 36 0.266681 1
gene 1 18 21 0.617222 0 37 0.617222 1
gene 1 19 21 -0.0802155 0 38 -0.0802155 1
gene 1 1 22 1.18777 0 39 1.18777 1
gene 1 2 22 -1.57179 0 40 -1.57179 1
gene 1 3 22 0.49569 0 41 0.49569 1
gene 1 4 22 -0.0959908 0 42 -0.0959908 1
gene 1 5 22 0.520646 0 43 0.520646 1
gene 1 6 22 -0.533894 0 44 -0.533894 1
gene 1 7 22 -0.681593 0 45 -0.681593 1
gene 1 8 22 -0.273606 0 46 -0.273606 1
gene 1 9 22 -1.22348 0 47 -1.22348 1
gene 1 10 22 0.569249 0 48 0.569249 1
gene 1 11 22 -0.784658 0 49 -0.784658 1
gene 1 12 22 0.984663 0 50 0.984663 1
gene 1 13 22 0.404664 0 51 0.404664 1
gene 1 14 22 0.0769201 0 52 0.0769201 1
gene 1 15 22 0.315315 0 53 0.315315 1
gene 1 16 22 -0.0143617 0 54 -0.0143617 1
gene 1 17 22 -1.23595 0 55 -1.23595 1
gene 1 18 22 0.0170502 0 56 0.0170502 1
gene 1 19 22 0.260904 0 57 0.260904 1
gene 1 1 23 -0.0435559 0 58 -0.0435559 1
gene 1 2 23 0.663365 0 59 0.663365 1
gene 1 3 23 -0.174845 0 60 -0.174845 1
gene 1 4 23 0.412884 0 61 0.412884 1
gene 1 5 23 -1.74328 0 62 -1.74328 1
gene 1 6 23 1.27685 0 63 1.27685 1
gene 1 7 23 -0.0890379 0 64 -0.0890379 1
gene 1 8 23 0.00126941 0 65 0.00126941 1
gene 1 9 23 -0.252951 0 66 -0.252951 1
gene 1 10 23 -1.15027 0 67 -1.15027 1
gene 1 11 23 -0.136655 0 68 -0.136655 1
gene 1 12 23 0.34038 0 69 0.34038 1
gene 1 13 23 -0.453136 0 70 -0.453136 1
gene 1 14 23 -0.941086 0 71 -0.941086 1
gene 1 15 23 0.766017 0 72 0.766017 1
gene 1 16 23 -0.420967 0 73 -0.420967 1
gene 1 17 23 -1.58149 0 74 -1.58149 1
gene 1 18 23 0.256977 0 75 0.256977 1
gene 1 19 23 0.699178 0 76 0.699178 1
gene 1 8 24 1.39865 0 77 1.39865 1
gene 1 24 20 1.06163 0 78 1.06163 1
gene 1 15 26 -0.651745 0 85 -0.651745 1
gene 1 26 20 1.62949 0 86 1.62949 1
gene 1 22 20 0.641269 0 87 0.641269 1
gene 1 2 24 0.89838 0 91 0.89838 1
gene 1 6 24 -0.651375 0 96 -0.651375 1
gene 1 16 26 -0.289456 0 99 -0.289456 1
gene 1 13 24 0.234893 0 100 0.234893 1
gene 1 23 24 -0.172637 0 113 -0.172637 1
gene 1 13 32 -0.110651 0 116 -0.110651 1
gene 1 32 21 -0.31276 0 117 -0.31276 1
gene 1 11 34 0.491407 0 122 0.491407 1
gene 1 34 21 -0.304314 0 123 -0.304314 1
gene 1 9 36 0.461423 0 127 0.461423 1
gene 1 36 20 0.317676 0 128 0.317676 1
gene 1 10 37 -0.300273 0 129 -0.300273 1
gene 1 37 20 0.292545 0 130 0.292545 1
gene 1 17 39 0.175717 0 134 0.175717 1
gene 1 39 23 0.246652 0 135 0.246652 1
gene 1 24 37 0.32099 0 140 0.32099 1
gene 1 19 24 -0.332135 0 144 -0.332135 1
gene 1 11 46 0.378423 0 161 0.378423 1
gene 1 46 20 -0.239335 0 162 -0.239335 1
gene 1 39 34 0.144817 0 193 0.144817 1
gene 1 16 54 0.393404 0 194 0.393404 1
gene 1 54 26 -0.279103 0 195 -0.279103 1
genomeend 2064
genomestart 2065
trait 1 0.175362 0 0.63447 0.00121512 1 0.0278606 0.213869 0.452451 
node 1 1 1 1 0
node 2 1 1 1 0
node 3 1 1 1 0
node 4 1 1 1 0
node 5 1 1 1 0
node 6 1 1 1 0
node 7 1 1 1 0
node 8 1 1 1 0
node 9 1 1 1 0
node 10 1 1 1 0
node 11 1 1 1 0
node 12 1 1 1 0
node 13 1 1 1 0
node 14 1 1 1 0
node 15 1 1 1 0
node 16 1 1 1 0
node 17 1 1 1 0
node 18 1 1 1 0
node 19 1 1 3 0
node 20 1 0 2 0
node 21 1 0 2 0
node 22 1 0 2 0
node 23 1 0 2 0
node 24 1 0 0 0
node 26 1 0 0 0
node 32 1 0 0 0
node 34 1 0 0 0
node 36 1 0 0 0
node 37 1 0 0 0
node 39 1 0 0 0
node 46 1 0 0 0
node 54 1 0 0 0
gene 1 1 20 0.604553 0 1 0.604553 1
gene 1 2 20 0.124649 0 2 0.124649 1
gene 1 3 20 -0.307738 0 3 -0.307738 1
gene 1 4 20 2.11874 0 4 2.11874 1
gene 1 5 20 0.655077 0 5 0.655077 1
gene 1 6 20 1.71658 0 6 1.71658 1
gene 1 7 20 -0.110133 0 7 -0.110133 1
gene 1 8 20 -0.415318 0 8 -0.415318 0
gene 1 9 20 -0.491961 0 9 -0.491961 0
gene 1 10 20 0.138422 0 10 0.138422 1
gene 1 11 20 1.42173 0 11 1.42173 1
gene 1 12 20 0.0718694 0 12 0.0718694 1
gene 1 13 20 -0.209238 0 13 -0.209238 1
gene 1 14 20 -0.176767 0 14 -0.176767 1
gene 1 15 20 0.475215 0 15 0.475215 0
gene 1 16 20 -0.171 0 16 -0.171 1
gene 1 17 20 -0.294865 0 17 -0.294865 1
gene 1 18 20 1.39223 0 18 1.39223 1
gene 1 19 20 0.398791 0 19 0.398791 1
gene 1 1 21 0.970657 0 20 0.970657 1
gene 1 2 21 -0.674071 0 21 -0.674071 1
gene 1 3 21 -0.8842 0 22 -0.8842 1
gene 1 4 21 0.458464 0 23 0.458464 1
gene 1 5 21 0.997865 0 24 0.997865 1
gene 1 6 21 0.485022 0 25 0.485022 1
gene 1 7 21 -1.43946 0 26 -1.43946 1
gene 1 8 21 -1.06917 0 27 -1.06917 1
gene 1 9 21 -3 0 28 -3 1
gene 1 10 21 2.73948 0 29 2.73948 1
gene 1 11 21 0.806177 0 30 0.806177 0
gene 1 12 21 -0.877445 0 31 -0.877445 1
gene 1 13 21 -0.789009 0 32 -0.789009 1
gene 1 14 21 0.415209 0 33 0.415209 1
gene 1 15 21 -0.936582 0 34 -0.936582 1
gene 1 16 21 0.566562 0 35 0.566562 1
gene 1 17 21 0.511984 0 36 0.511984 1
gene 1 18 21 0.432901 0 37 0.432901 1
gene 1 19 21 -0.510566 0 38 -0.510566 1
gene 1 1 22 1.88167 0 39 1.88167 1
gene 1 2 22 -0.943518 0 40 -0.943518 1
gene 1 3 22 0.751771 0 41 0.751771 1
gene 1 4 22 0.477151 0 42 0.477151 1
gene 1 5 22 0.370296 0 43 0.370296 1
gene 1 6 22 -0.602861 0 44 -0.602861 1
gene 1 7 22 0.126004 0 45 0.126004 1
gene 1 8 22 0.0399993 0 46 0.0399993 1
gene 1 9 22 -1.40433 0 47 -1.40433 1
gene 1 10 22 -0.0931463 0 48 -0.0931463 1
gene 1 11 22 -0.469762 0 49 -0.469762 1
gene 1 12 22 0.515329 0 50 0.515329 1
gene 1 13 22 -0.0180778 0 51 -0.0180778 1
gene 1 14 22 0.550282 0 52 0.550282 1
gene 1 15 22 -0.0428033 0 53 -0.0428033 1
gene 1 16 22 -0.710322 0 54 -0.710322 1
gene 1 17 22 -1.12384 0 55 -1.12384 1
gene 1 18 22 -0.41702 0 56 -0.41702 1
gene 1 19 22 -0.22588 0 57 -0.22588 1
gene 1 1 23 -0.363201 0 58 -0.363201 1
gene 1 2 23 0.237369 0 59 0.237369 1
gene 1 3 23 -0.0272565 0 60 -0.0272565 1
gene 1 4 23 0.690338 0 61 0.690338 1
gene 1 5 23 -1.49724 0 62 -1.49724 1
gene 1 6 23 0.436602 0 63 0.436602 1
gene 1 7 23 0.0825949 0 64 0.0825949 1
gene 1 8 23 -0.711559 0 65 -0.711559 1
gene 1 9 23 0.343458 0 66 0.343458 1
gene 1 10 23 -1.34307 0 67 -1.34307 1
gene 1 11 23 -0.390808 0 68 -0.390808 1
gene 1 12 23 -0.255935 0 69 -0.255935 1
gene 1 13 23 -0.496503 0 70 -0.496503 1
gene 1 14 23 -0.246659 0 71 -0.246659 1
gene 1 15 23 0.894616 0 72 0.894616 1
gene 1 16 23 -1.06761 0 73 -1.06761 1
gene 1 17 23 -1.18661 0 74 -1.18661 1
gene 1 18 23 0.594306 0 75 0.594306 1
gene 1 19 23 0.803036 0 76 0.803036 1
gene 1 8 24 1.46484 0 77 1.46484 1
gene 1 24 20 0.896471 0 78 0.896471 1
gene 1 15 26 0.141855 0 85 0.141855 1
gene 1 26 20 1.36188 0 86 1.36188 1
gene 1 22 20 1.41693 0 87 1.41693 1
gene 1 2 24 0.0852277 0 91 0.0852277 1
gene 1 6 24 -0.695049 0 96 -0.695049 1
gene 1 16 26 -0.212196 0 99 -0.212196 1
gene 1 13 24 -0.443438 0 100 -0.443438 1
gene 1 23 24 -0.459022 0 113 -0.459022 1
gene 1 13 32 -0.37137 0 116 -0.37137 1
gene 1 32 21 0.0800499 0 117 0.0800499 1
gene 1 11 34 0.129228 0 122 0.129228 1
gene 1 34 21 0.27146 0 123 0.27146 1
gene 1 9 36 0.461423 0 127 0.461423 1
gene 1 36 20 0.0932618 0 128 0.0932618 1
gene 1 10 37 -0.300273 0 129 -0.300273 1
gene 1 37 20 0.067445 0 130 0.067445 1
gene 1 17 39 0.591275 0 134 0.591275 1
gene 1 39 23 -0.44978 0 135 -0.44978 1
gene 1 24 37 -0.468053 0 140 -0.468053 1
gene 1 19 24 0.0647215 0 144 0.0647215 1
gene 1 11 46 0.402098 0 161 0.402098 1
gene 1 46 20 0.15006 0 162 0.15006 1
gene 1 39 34 0.776334 0 193 0.776334 1
gene 1 16 54 1.19817 0 194 1.19817 1
gene 1 54 26 -0.204082 0 195 -0.204082 1
genomeend 2065
genomestart 2066
trait 1 0 0.361734 0.319529 0.0015189 0.423427 0.0348257 0.160402 0.00210868 
node 1 1 1 1 0
node 2 1 1 1 0
node 3 1 1 1 0
node 4 1 1 1 0
node 5 1 1 1 0
node 6 1 1 1 0
node 7 1 1 1 0
node 8 1 1 1 0
node 9 1 1 1 0
node 10 1 1 1 0
node 11 1 1 1 0
node 12 1 1 1 0
node 13 1 1 1 0
node 14 1 1 1 0
node 15 1 1 1 0
node 16 1 1 1 0
node 17 1 1 1 0
node 18 1 1 1 0
node 19 1 1 3 0
node 20 1 0 2 0
node 21 1 0 2 0
node 22 1 0 2 0
node 23 1 0 2 0
node 24 1 0 0 0
node 26 1 0 0 0
node 32 1 0 0 0
node 34 1 0 0 0
node 36 1 0 0 0
node 37 1 0 0 0
node 39 1 0 0 0
node 46 1 0 0 0
node 54 1 0 0 0
gene 1 1 20 0.160765 0 1 0.160765 1
gene 1 2 20 -0.543371 0 2 -0.543371 1
gene 1 3 20 -0.0114547 0 3 -0.0114547 1
gene 1 4 20 1.87518 0 4 1.87518 1
gene 1 5 20 0.601743 0 5 0.601743 1
gene 1 6 20 1.44674 0 6 1.44674 1
gene 1 7 20 0.343298 0 7 0.343298 1
gene 1 8 20 0.00639255 0 8 0.00639255 1
gene 1 9 20 -0.111585 0 9 -0.111585 0
gene 1 10 20 -0.00471515 0 10 -0.00471515 0
gene 1 11 20 1.25254 0 11 1.25254 1
gene 1 12 20 -0.0808637 0 12 -0.0808637 1
gene 1 13 20 -0.54218 0 13 -0.54218 1
gene 1 14 20 0.0323483 0 14 0.0323483 1
gene 1 15 20 0.109653 0 15 0.109653 0
gene 1 16 20 0.37916 0 16 0.37916 1
gene 1 17 20 -0.836968 0 17 -0.836968 1
gene 1 18 20 0.548385 0 18 0.548385 1
gene 1 19 20 0.468135 0 19 0.468135 1
gene 1 1 21 1.11345 0 20 1.11345 1
gene 1 2 21 -0.473965 0 21 -0.473965 1
gene 1 3 21 -0.555313 0 22 -0.555313 1
gene 1 4 21 0.0433804 0 23 0.0433804 1
gene 1 5 21 0.27047 0 24 0.27047 1
gene 1 6 21 0.696101 0 25 0.696101 1
gene 1 7 21 -1.45515 0 26 -1.45515 1
gene 1 8 21 -1.75615 0 27 -1.75615 1
gene 1 9 21 -3 0 28 -3 1
gene 1 10 21 2.57512 0 29 2.57512 1
gene 1 11 21 0.326075 0 30 0.326075 0
gene 1 12 21 -1.0437 0 31 -1.0437 1
gene 1 13 21 -0.808319 0 32 -0.808319 1
gene 1 14 21 0.262695 0 33 0.262695 1
gene 1 15 21 -0.828578 0 34 -0.828578 1
gene 1 16 21 0.804598 0 35 0.804598 1
gene 1 17 21 0.491247 0 36 0.491247 1
gene 1 18 21 0.401606 0 37 0.401606 1
gene 1 19 21 -0.0914355 0 38 -0.0914355 1
gene 1 1 22 1.31425 0 39 1.31425 1
gene 1 2 22 -1.14577 0 40 -1.14577 1
gene 1 3 22 0.562658 0 41 0.562658 1
gene 1 4 22 0.0198267 0 42 0.0198267 1
gene 1 5 22 0.339682 0 43 0.339682 1
gene 1 6 22 -0.0918645 0 44 -0.0918645 1
gene 1 7 22 -0.469051 0 45 -0.469051 1
gene 1 8 22 -0.229237 0 46 -0.229237 1
gene 1 9 22 -1.28115 0 47 -1.28115 1
gene 1 10 22 0.458877 0 48 0.458877 1
gene 1 11 22 -0.720257 0 49 -0.720257 1
gene 1 12 22 1.22881 0 50 1.22881 1
gene 1 13 22 0.168912 0 51 0.168912 1
gene 1 14 22 -0.426514 0 52 -0.426514 1
gene 1 15 22 0.323196 0 53 0.323196 1
gene 1 16 22 -0.152575 0 54 -0.152575 1
gene 1 17 22 -1.19513 0 55 -1.19513 1
gene 1 18 22 -0.143132 0 56 -0.143132 1
gene 1 19 22 0.288343 0 57 0.288343 1
gene 1 1 23 0.0365845 0 58 0.0365845 1
gene 1 2 23 0.282004 0 59 0.282004 1
gene 1 3 23 -0.145956 0 60 -0.145956 1
gene 1 4 23 0.335453 0 61 0.335453 1
gene 1 5 23 -0.655957 0 62 -0.655957 1
gene 1 6 23 1.09804 0 63 1.09804 1
gene 1 7 23 -0.125078 0 64 -0.125078 1
gene 1 8 23 -0.226575 0 65 -0.226575 1
gene 1 9 23 0.455479 0 66 0.455479 1
gene 1 10 23 -0.785147 0 67 -0.785147 1
gene 1 11 23 -0.0285543 0 68 -0.0285543 1
gene 1 12 23 0.414839 0 69 0.414839 1
gene 1 13 23 -0.291949 0 70 -0.291949 1
gene 1 14 23 -0.74301 0 71 -0.74301 1
gene 1 15 23 0.593202 0 72 0.593202 1
gene 1 16 23 -0.499407 0 73 -0.499407 1
gene 1 17 23 -1.39459 0 74 -1.39459 1
gene 1 18 23 0.236666 0 75 0.236666 1
gene 1 19 23 0.674189 0 76 0.674189 1
gene 1 8 24 1.2354 0 77 1.2354 1
gene 1 24 20 0.434028 0 78 0.434028 1
gene 1 15 26 -0.471895 0 85 -0.471895 1
gene 1 26 20 1.43078 0 86 1.43078 1
gene 1 22 20 0.788998 0 87 0.788998 1
gene 1 2 24 0.688917 0 91 0.688917 1
gene 1 6 24 -0.0718374 0 96 -0.0718374 1
gene 1 16 26 -0.10862 0 99 -0.10862 1
gene 1 13 24 0.234893 0 100 0.234893 1
gene 1 23 24 -0.172637 0 113 -0.172637 1
gene 1 13 32 -0.110651 0 116 -0.110651 1
gene 1 32 21 -0.064291 0 117 -0.064291 1
gene 1 11 34 0.0155897 0 122 0.0155897 1
gene 1 34 21 -0.330747 0 123 -0.330747 1
gene 1 9 36 0.461423 0 127 0.461423 1
gene 1 36 20 0.416331 0 128 0.416331 1
gene 1 10 37 -0.163622 0 129 -0.163622 1
gene 1 37 20 0.292545 0 130 0.292545 1
gene 1 17 39 0.175717 0 134 0.175717 1
gene 1 39 23 0.404698 0 135 0.404698 1
gene 1 24 37 0.0559303 0 140 0.0559303 1
gene 1 19 24 -0.334321 0 144 -0.334321 1
gene 1 11 46 0.0560904 0 161 0.0560904 1
gene 1 46 20 -0.239335 0 162 -0.239335 1
gene 1 39 34 0.297191 0 193 0.297191 1
gene 1 16 54 0.608767 0 194 0.608767 1
gene 1 54 26 -0.0374052 0 195 -0.0374052 1
gene 1 18 32 0.1163 0 213 0.1163 1
genomeend 2066
genomestart 2069
trait 1 0 0 0.450751 0 0 0.0593757 0 0 
node 1 1 1 1 0
node 2 1 1 1 0
node 3 1 1 1 0
node 4 1 1 1 0
node 5 1 1 1 0
node 6 1 1 1 0
node 7 1 1 1 0
node 8 1 1 1 0
node 9 1 1 1 0
node 10 1 1 1 0
node 11 1 1 1 0
node 12 1 1 1 0
node 13 1 1 1 0
node 14 1 1 1 0
node 15 1 1 1 0
node 16 1 1 1 0
node 17 1 1 1 0
node 18 1 1 1 0
node 19 1 1 3 0
node 20 1 0 2 0
node 21 1 0 2 0
node 22 1 0 2 0
node 23 1 0 2 0
node 24 1 0 0 0
node 26 1 0 0 0
node 37 1 0 0 0
node 46 1 0 0 0
gene 1 1 20 -0.0016444 0 1 -0.0016444 1
gene 1 2 20 1.06541 0 2 1.06541 1
gene 1 3 20 -0.00121654 0 3 -0.00121654 1
gene 1 4 20 2.05219 0 4 2.05219 1
gene 1 5 20 -0.371352 0 5 -0.371352 1
gene 1 6 20 2.33847 0 6 2.33847 1
gene 1 7 20 -0.455276 0 7 -0.455276 1
gene 1 8 20 0.638694 0 8 0.638694 1
gene 1 9 20 -0.35977 0 9 -0.35977 1
gene 1 10 20 -1.45526 0 10 -1.45526 0
gene 1 11 20 0.221546 0 11 0.221546 1
gene 1 12 20 0.0741295 0 12 0.0741295 1
gene 1 13 20 -0.493922 0 13 -0.493922 1
gene 1 14 20 -0.652336 0 14 -0.652336 1
gene 1 15 20 -1.43845 0 15 -1.43845 1
gene 1 16 20 0.471483 0 16 0.471483 1
gene 1 17 20 1.92343 0 17 1.92343 1
gene 1 18 20 0.730008 0 18 0.730008 1
gene 1 19 20 0.0804421 0 19 0.0804421 1
gene 1 1 21 -0.326591 0 20 -0.326591 1
gene 1 2 21 0.176352 0 21 0.176352 1
gene 1 3 21 -1.08597 0 22 -1.08597 1
gene 1 4 21 -0.375887 0 23 -0.375887 1
gene 1 5 21 -0.15656 0 24 -0.15656 1
gene 1 6 21 0.228075 0 25 0.228075 1
gene 1 7 21 -1.28357 0 26 -1.28357 1
gene 1 8 21 -1.0727 0 27 -1.0727 1
gene 1 9 21 -3 0 28 -3 1
gene 1 10 21 1.27907 0 29 1.27907 1
gene 1 11 21 -0.0285028 0 30 -0.0285028 1
gene 1 12 21 -1.10764 0 31 -1.10764 1
gene 1 13 21 -1.81921 0 32 -1.81921 1
gene 1 14 21 0.046811 0 33 0.046811 1
gene 1 15 21 1.04213 0 34 1.04213 1
gene 1 16 21 -0.0197571 0 35 -0.0197571 1
gene 1 17 21 -0.0298133 0 36 -0.0298133 1
gene 1 18 21 -0.185914 0 37 -0.185914 1
gene 1 19 21 0.098506 0 38 0.098506 1
gene 1 1 22 0.77975 0 39 0.77975 1
gene 1 2 22 0.336063 0 40 0.336063 1
gene 1 3 22 0.056313 0 41 0.056313 1
gene 1 4 22 0.793955 0 42 0.793955 1
gene 1 5 22 0.440034 0 43 0.440034 1
gene 1 6 22 -0.242357 0 44 -0.242357 1
gene 1 7 22 0.415338 0 45 0.415338 1
gene 1 8 22 0.35016 0 46 0.35016 1
gene 1 9 22 -0.375573 0 47 -0.375573 1
gene 1 10 22 -0.429114 0 48 -0.429114 1
gene 1 11 22 -2.4204 0 49 -2.4204 1
gene 1 12 22 0.0578395 0 50 0.0578395 1
gene 1 13 22 0.273831 0 51 0.273831 1
gene 1 14 22 0.302926 0 52 0.302926 1
gene 1 15 22 0.35708 0 53 0.35708 1
gene 1 16 22 0.595177 0 54 0.595177 1
gene 1 17 22 1.21666 0 55 1.21666 1
gene 1 18 22 -0.649388 0 56 -0.649388 1
gene 1 19 22 -0.429439 0 57 -0.429439 1
gene 1 1 23 0.732731 0 58 0.732731 1
gene 1 2 23 0.521919 0 59 0.521919 1
gene 1 3 23 -0.333701 0 60 -0.333701 1
gene 1 4 23 0.775811 0 61 0.775811 1
gene 1 5 23 0.0871037 0 62 0.0871037 1
gene 1 6 23 -0.489152 0 63 -0.489152 1
gene 1 7 23 -1.0085 0 64 -1.0085 1
gene 1 8 23 1.13732 0 65 1.13732 1
gene 1 9 23 -0.35253 0 66 -0.35253 1
gene 1 10 23 0.237307 0 67 0.237307 1
gene 1 11 23 -1.0161 0 68 -1.0161 1
gene 1 12 23 -0.519845 0 69 -0.519845 1
gene 1 13 23 -0.467624 0 70 -0.467624 1
gene 1 14 23 0.0965775 0 71 0.0965775 1
gene 1 15 23 -0.385525 0 72 -0.385525 1
gene 1 16 23 0.197916 0 73 0.197916 1
gene 1 17 23 0.082622 0 74 0.082622 1
gene 1 18 23 0.267048 0 75 0.267048 1
gene 1 19 23 0.0752489 0 76 0.0752489 1
gene 1 8 24 0.625675 0 77 0.625675 1
gene 1 24 20 -0.903293 0 78 -0.903293 1
gene 1 15 26 -0.31138 0 85 -0.31138 1
gene 1 26 20 0.424451 0 86 0.424451 1
gene 1 22 20 0.454338 0 87 0.454338 1
gene 1 2 24 0.362791 0 91 0.362791 1
gene 1 6 24 0.401184 0 96 0.401184 1
gene 1 10 37 -0.904163 0 129 -0.904163 1
gene 1 37 20 0.343609 0 130 0.343609 1
gene 1 24 37 0.28752 0 140 0.28752 1
gene 1 11 46 0.419035 0 161 0.419035 1
gene 1 46 20 -0.017105 0 162 -0.017105 1
genomeend 2069
genomestart 2070
trait 1 0 0.361734 0.319529 0.0015189 0.423427 0.0348257 0.160402 0.00210868 
node 1 1 1 1 0
node 2 1 1 1 0
node 3 1 1 1 0
node 4 1 1 1 0
node 5 1 1 1 0
node 6 1 1 1 0
node 7 1 1 1 0
node 8 1 1 1 0
node 9 1 1 1 0
node 10 1 1 1 0
node 11 1 1 1 0
node 12 1 1 1 0
node 13 1 1 1 0
node 14 1 1 1 0
node 15 1 1 1 0
node 16 1 1 1 0
node 17 1 1 1 0
node 18 1 1 1 0
node 19 1 1 3 0
node 20 1 0 2 0
node 21 1 0 2 0
node 22 1 0 2 0
node 23 1 0 2 0
node 24 1 0 0 0
node 26 1 0 0 0
node 32 1 0 0 0
node 34 1 0 0 0
node 36 1 0 0 0
node 37 1 0 0 0
node 39 1 0 0 0
node 46 1 0 0 0
node 54 1 0 0 0
gene 1 1 20 0.701976 0 1 0.701976 1
gene 1 2 20 0.0505601 0 2 0.0505601 1
gene 1 3 20 0.195863 0 3 0.195863 1
gene 1 4 20 1.27838 0 4 1.27838 1
gene 1 5 20 0.624647 0 5 0.624647 1
gene 1 6 20 1.77682 0 6 1.77682 1
gene 1 7 20 -0.236709 0 7 -0.236709 1
gene 1 8 20 -0.270625 0 8 -0.270625 0
gene 1 9 20 -0.102929 0 9 -0.102929 0
gene 1 10 20 -0.304555 0 10 -0.304555 1
gene 1 11 20 1.23622 0 11 1.23622 0
gene 1 12 20 0.221593 0 12 0.221593 1
gene 1 13 20 -0.275961 0 13 -0.275961 1
gene 1 14 20 0.061685 0 14 0.061685 1
gene 1 15 20 -0.118325 0 15 -0.118325 0
gene 1 16 20 0.14854 0 16 0.14854 1
gene 1 17 20 -0.307952 0 17 -0.307952 1
gene 1 18 20 0.37036 0 18 0.37036 1
gene 1 19 20 0.886436 0 19 0.886436 1
gene 1 1 21 1.02824 0 20 1.02824 1
gene 1 2 21 -0.80734 0 21 -0.80734 1
gene 1 3 21 -0.431996 0 22 -0.431996 1
gene 1 4 21 -0.0330554 0 23 -0.0330554 1
gene 1 5 21 0.670862 0 24 0.670862 1
gene 1 6 21 0.787967 0 25 0.787967 1
gene 1 7 21 -1.29935 0 26 -1.29935 1
gene 1 8 21 -1.59683 0 27 -1.59683 1
gene 1 9 21 -3 0 28 -3 1
gene 1 10 21 2.77206 0 29 2.77206 1
gene 1 11 21 0.431962 0 30 0.431962 0
gene 1 12 21 -1.29068 0 31 -1.29068 1
gene 1 13 21 -0.305214 0 32 -0.305214 1
gene 1 14 21 0.307687 0 33 0.307687 1
gene 1 15 21 -0.647533 0 34 -0.647533 1
gene 1 16 21 0.793871 0 35 0.793871 1
gene 1 17 21 0.374771 0 36 0.374771 1
gene 1 18 21 -0.215443 0 37 -0.215443 1
gene 1 19 21 -0.0351425 0 38 -0.0351425 1
gene 1 1 22 1.551 0 39 1.551 1
gene 1 2 22 -0.65924 0 40 -0.65924 1
gene 1 3 22 0.520758 0 41 0.520758 1
gene 1 4 22 0.337096 0 42 0.337096 1
gene 1 5 22 0.75753 0 43 0.75753 1
gene 1 6 22 -0.100755 0 44 -0.100755 1
gene 1 7 22 -0.252892 0 45 -0.252892 1
gene 1 8 22 -0.0256612 0 46 -0.0256612 1
gene 1 9 22 -1.14717 0 47 -1.14717 1
gene 1 10 22 0.65783 0 48 0.65783 1
gene 1 11 22 -0.699762 0 49 -0.699762 1
gene 1 12 22 1.23424 0 50 1.23424 1
gene 1 13 22 -0.338034 0 51 -0.338034 1
gene 1 14 22 -0.224285 0 52 -0.224285 1
gene 1 15 22 0.362977 0 53 0.362977 1
gene 1 16 22 0.0823846 0 54 0.0823846 1
gene 1 17 22 -1.19275 0 55 -1.19275 1
gene 1 18 22 -0.621444 0 56 -0.621444 1
gene 1 19 22 -0.00545793 0 57 -0.00545793 1
gene 1 1 23 0.252179 0 58 0.252179 1
gene 1 2 23 0.569409 0 59 0.569409 1
gene 1 3 23 0.371901 0 60 0.371901 1
gene 1 4 23 0.238159 0 61 0.238159 1
gene 1 5 23 -0.0165939 0 62 -0.0165939 1
gene 1 6 23 0.479362 0 63 0.479362 1
gene 1 7 23 -0.782022 0 64 -0.782022 1
gene 1 8 23 -0.207667 0 65 -0.207667 1
gene 1 9 23 0.389142 0 66 0.389142 1
gene 1 10 23 -0.552299 0 67 -0.552299 1
gene 1 11 23 0.366576 0 68 0.366576 1
gene 1 12 23 0.587311 0 69 0.587311 1
gene 1 13 23 -0.842563 0 70 -0.842563 1
gene 1 14 23 -0.18266 0 71 -0.18266 1
gene 1 15 23 0.107835 0 72 0.107835 1
gene 1 16 23 -0.383499 0 73 -0.383499 1
gene 1 17 23 -0.907115 0 74 -0.907115 1
gene 1 18 23 -0.235919 0 75 -0.235919 1
gene 1 19 23 0.592695 0 76 0.592695 1
gene 1 8 24 1.04892 0 77 1.04892 1
gene 1 24 20 0.674934 0 78 0.674934 1
gene 1 15 26 -0.422458 0 85 -0.422458 1
gene 1 26 20 0.880306 0 86 0.880306 1
gene 1 22 20 0.497391 0 87 0.497391 1
gene 1 2 24 0.826245 0 91 0.826245 1
gene 1 6 24 0.411294 0 96 0.411294 1
gene 1 16 26 0.38745 0 99 0.38745 1
gene 1 13 24 0.234893 0 100 0.234893 1
gene 1 23 24 -0.392543 0 113 -0.392543 1
gene 1 13 32 0.259619 0 116 0.259619 1
gene 1 32 21 0.184178 0 117 0.184178 1
gene 1 11 34 -0.173475 0 122 -0.173475 1
gene 1 34 21 -0.330747 0 123 -0.330747 1
gene 1 9 36 0.0515792 0 127 0.0515792 1
gene 1 36 20 0.738928 0 128 0.738928 1
gene 1 10 37 -0.245882 0 129 -0.245882 1
gene 1 37 20 -0.256172 0 130 -0.256172 1
gene 1 17 39 -0.22382 0 134 -0.22382 1
gene 1 39 23 1.0117 0 135 1.0117 1
gene 1 24 37 -0.249114 0 140 -0.249114 1
gene 1 19 24 -0.182248 0 144 -0.182248 1
gene 1 11 46 -0.23402 0 161 -0.23402 1
gene 1 46 20 -0.239335 0 162 -0.239335 1
gene 1 39 34 0.449566 0 193 0.449566 1
gene 1 16 54 1.06097 0 194 1.06097 1
gene 1 54 26 0.101473 0 195 0.101473 1
gene 1 18 32 0.489207 0 213 0.489207 1
genomeend 2070
genomestart 2072
trait 1 0 0 0.450751 0 0 0.0593757 0 0 
node 1 1 1 1 0
node 2 1 1 1 0
node 3 1 1 1 0
node 4 1 1 1 0
node 5 1 1 1 0
node 6 1 1 1 0
node 7 1 1 1 0
node 8 1 1 1 0
node 9 1 1 1 0
node 10 1 1 1 0
node 11 1 1 1 0
node 12 1 1 1 0
node 13 1 1 1 0
node 14 1 1 1 0
node 15 1 1 1 0
node 16 1 1 1 0
node 17 1 1 1 0
node 18 1 1 1 0
node 19 1 1 3 0
node 20 1 0 2 0
node 21 1 0 2 0
node 22 1 0 2 0
node 23 1 0 2 0
node 24 1 0 0 0
node 26 1 0 0 0
node 37 1 0 0 0
node 46 1 0 0 0
gene 1 1 20 0.157025 0 1 0.157025 1
gene 1 2 20 0.687429 0 2 0.687429 1
gene 1 3 20 -0.246259 0 3 -0.246259 1
gene 1 4 20 2.34916 0 4 2.34916 1
gene 1 5 20 -0.626656 0 5 -0.626656 1
gene 1 6 20 1.93315 0 6 1.93315 1
gene 1 7 20 -0.11907 0 7 -0.11907 1
gene 1 8 20 0.847156 0 8 0.847156 1
gene 1 9 20 0.64232 0 9 0.64232 1
gene 1 10 20 -1.42191 0 10 -1.42191 0
gene 1 11 20 0.197929 0 11 0.197929 1
gene 1 12 20 0.341386 0 12 0.341386 1
gene 1 13 20 -0.352311 0 13 -0.352311 1
gene 1 14 20 -0.320505 0 14 -0.320505 1
gene 1 15 20 -1.31522 0 15 -1.31522 1
gene 1 16 20 0.204108 0 16 0.204108 1
gene 1 17 20 2.33045 0 17 2.33045 1
gene 1 18 20 1.1586 0 18 1.1586 1
gene 1 19 20 1.22747 0 19 1.22747 1
gene 1 1 21 -0.402996 0 20 -0.402996 1
gene 1 2 21 -0.140616 0 21 -0.140616 1
gene 1 3 21 -0.625045 0 22 -0.625045 1
gene 1 4 21 -0.471792 0 23 -0.471792 1
gene 1 5 21 -0.0632355 0 24 -0.0632355 1
gene 1 6 21 0.345531 0 25 0.345531 1
gene 1 7 21 -0.849313 0 26 -0.849313 1
gene 1 8 21 -1.60788 0 27 -1.60788 1
gene 1 9 21 -2.91981 0 28 -2.91981 1
gene 1 10 21 1.72343 0 29 1.72343 1
gene 1 11 21 -0.0285028 0 30 -0.0285028 1
gene 1 12 21 -1.08317 0 31 -1.08317 1
gene 1 13 21 -1.81921 0 32 -1.81921 1
gene 1 14 21 -0.417772 0 33 -0.417772 1
gene 1 15 21 0.738176 0 34 0.738176 1
gene 1 16 21 0.271869 0 35 0.271869 1
gene 1 17 21 0.633358 0 36 0.633358 1
gene 1 18 21 -0.581054 0 37 -0.581054 1
gene 1 19 21 0.0678741 0 38 0.0678741 1
gene 1 1 22 0.623571 0 39 0.623571 1
gene 1 2 22 0.0557036 0 40 0.0557036 1
gene 1 3 22 0.056313 0 41 0.056313 1
gene 1 4 22 0.328018 0 42 0.328018 1
gene 1 5 22 -0.165884 0 43 -0.165884 1
gene 1 6 22 -0.00366894 0 44 -0.00366894 1
gene 1 7 22 0.122539 0 45 0.122539 1
gene 1 8 22 -0.0312001 0 46 -0.0312001 1
gene 1 9 22 -1.16117 0 47 -1.16117 1
gene 1 10 22 -0.0798978 0 48 -0.0798978 1
gene 1 11 22 -2.70708 0 49 -2.70708 1
gene 1 12 22 1.12549 0 50 1.12549 1
gene 1 13 22 -0.0310557 0 51 -0.0310557 1
gene 1 14 22 -0.931601 0 52 -0.931601 1
gene 1 15 22 0.245558 0 53 0.245558 1
gene 1 16 22 -0.0977924 0 54 -0.0977924 1
gene 1 17 22 0.901855 0 55 0.901855 1
gene 1 18 22 0.196061 0 56 0.196061 1
gene 1 19 22 0.1101 0 57 0.1101 1
gene 1 1 23 0.958096 0 58 0.958096 1
gene 1 2 23 0.371367 0 59 0.371367 1
gene 1 3 23 -0.0675109 0 60 -0.0675109 1
gene 1 4 23 0.855115 0 61 0.855115 1
gene 1 5 23 -0.636564 0 62 -0.636564 1
gene 1 6 23 -0.180334 0 63 -0.180334 1
gene 1 7 23 -1.03274 0 64 -1.03274 1
gene 1 8 23 0.679813 0 65 0.679813 1
gene 1 9 23 0.0680272 0 66 0.0680272 1
gene 1 10 23 0.0707862 0 67 0.0707862 1
gene 1 11 23 -0.657742 0 68 -0.657742 1
gene 1 12 23 -0.519845 0 69 -0.519845 1
gene 1 13 23 0.0829788 0 70 0.0829788 1
gene 1 14 23 0.216759 0 71 0.216759 1
gene 1 15 23 -0.385525 0 72 -0.385525 1
gene 1 16 23 0.0125173 0 73 0.0125173 1
gene 1 17 23 -0.622689 0 74 -0.622689 1
gene 1 18 23 0.416761 0 75 0.416761 1
gene 1 19 23 -0.398229 0 76 -0.398229 1
gene 1 8 24 0.3071 0 77 0.3071 1
gene 1 24 20 -0.482231 0 78 -0.482231 1
gene 1 15 26 -0.3607 0 85 -0.3607 1
gene 1 26 20 0.307423 0 86 0.307423 1
gene 1 22 20 0.438789 0 87 0.438789 1
gene 1 2 24 -0.277813 0 91 -0.277813 1
gene 1 6 24 -0.342825 0 96 -0.342825 1
gene 1 10 37 -0.903165 0 129 -0.903165 1
gene 1 37 20 0.000868556 0 130 0.000868556 1
gene 1 24 37 -0.375458 0 140 -0.375458 1
gene 1 11 46 -0.0552553 0 161 -0.0552553 1
gene 1 46 20 -0.0612772 0 162 -0.0612772 1
genomeend 2072
genomestart 2074
trait 1 0 0 0.450751 0 0 0.0593757 0 0 
node 1 1 1 1 0
node 2 1 1 1 0
node 3 1 1 1 0
node 4 1 1 1 0
node 5 1 1 1 0
node 6 1 1 1 0
node 7 1 1 1 0
node 8 1 1 1 0
node 9 1 1 1 0
node 10 1 1 1 0
node 11 1 1 1 0
node 12 1 1 1 0
node 13 1 1 1 0
node 14 1 1 1 0
node 15 1 1 1 0
node 16 1 1 1 0
node 17 1 1 1 0
node 18 1 1 1 0
node 19 1 1 3 0
node 20 1 0 2 0
node 21 1 0 2 0
node 22 1 0 2 0
node 23 1 0 2 0
node 24 1 0 0 0
node 26 1 0 0 0
node 37 1 0 0 0
node 46 1 0 0 0
gene 1 1 20 -0.149787 0 1 -0.149787 1
gene 1 2 20 0.294905 0 2 0.294905 1
gene 1 3 20 -1.41677 0 3 -1.41677 1
gene 1 4 20 2.00427 0 4 2.00427 1
gene 1 5 20 -1.26297 0 5 -1.26297 1
gene 1 6 20 1.05446 0 6 1.05446 1
gene 1 7 20 0.0106763 0 7 0.0106763 1
gene 1 8 20 1.02504 0 8 1.02504 1
gene 1 9 20 0.355301 0 9 0.355301 1
gene 1 10 20 -1.33449 0 10 -1.33449 0
gene 1 11 20 -0.766362 0 11 -0.766362 1
gene 1 12 20 0.702402 0 12 0.702402 1
gene 1 13 20 -0.403817 0 13 -0.403817 1
gene 1 14 20 -0.475642 0 14 -0.475642 1
gene 1 15 20 -0.69044 0 15 -0.69044 1
gene 1 16 20 0.268326 0 16 0.268326 1
gene 1 17 20 2.89235 0 17 2.89235 1
gene 1 18 20 0.614326 0 18 0.614326 1
gene 1 19 20 1.35654 0 19 1.35654 1
gene 1 1 21 -0.0925135 0 20 -0.0925135 1
gene 1 2 21 -0.0578416 0 21 -0.0578416 1
gene 1 3 21 -1.03205 0 22 -1.03205 1
gene 1 4 21 -0.305929 0 23 -0.305929 1
gene 1 5 21 0.433149 0 24 0.433149 1
gene 1 6 21 0.717871 0 25 0.717871 1
gene 1 7 21 -1.32542 0 26 -1.32542 1
gene 1 8 21 -1.86898 0 27 -1.86898 1
gene 1 9 21 -3 0 28 -3 1
gene 1 10 21 2.2108 0 29 2.2108 1
gene 1 11 21 0.147071 0 30 0.147071 1
gene 1 12 21 -0.968013 0 31 -0.968013 1
gene 1 13 21 -1.72521 0 32 -1.72521 1
gene 1 14 21 -0.233043 0 33 -0.233043 1
gene 1 15 21 0.375798 0 34 0.375798 1
gene 1 16 21 0.166805 0 35 0.166805 1
gene 1 17 21 0.355256 0 36 0.355256 1
gene 1 18 21 -1.3926 0 37 -1.3926 1
gene 1 19 21 0.125372 0 38 0.125372 1
gene 1 1 22 -0.146292 0 39 -0.146292 1
gene 1 2 22 -1.03633 0 40 -1.03633 1
gene 1 3 22 0.257336 0 41 0.257336 1
gene 1 4 22 0.0690496 0 42 0.0690496 1
gene 1 5 22 0.767328 0 43 0.767328 1
gene 1 6 22 -0.924124 0 44 -0.924124 1
gene 1 7 22 -0.287984 0 45 -0.287984 1
gene 1 8 22 0.279453 0 46 0.279453 1
gene 1 9 22 -1.07667 0 47 -1.07667 1
gene 1 10 22 0.0340866 0 48 0.0340866 1
gene 1 11 22 -2.72388 0 49 -2.72388 1
gene 1 12 22 2.40936 0 50 2.40936 1
gene 1 13 22 0.263567 0 51 0.263567 1
gene 1 14 22 -0.267376 0 52 -0.267376 1
gene 1 15 22 0.231807 0 53 0.231807 1
gene 1 16 22 0.110593 0 54 0.110593 1
gene 1 17 22 1.00826 0 55 1.00826 1
gene 1 18 22 -0.0690737 0 56 -0.0690737 1
gene 1 19 22 0.155642 0 57 0.155642 1
gene 1 1 23 0.598764 0 58 0.598764 1
gene 1 2 23 0.6366 0 59 0.6366 1
gene 1 3 23 -0.760992 0 60 -0.760992 1
gene 1 4 23 1.22233 0 61 1.22233 1
gene 1 5 23 -1.39787 0 62 -1.39787 1
gene 1 6 23 0.118505 0 63 0.118505 1
gene 1 7 23 -0.309264 0 64 -0.309264 1
gene 1 8 23 0.647467 0 65 0.647467 1
gene 1 9 23 -0.409875 0 66 -0.409875 1
gene 1 10 23 0.0315982 0 67 0.0315982 1
gene 1 11 23 -0.260543 0 68 -0.260543 1
gene 1 12 23 -0.799237 0 69 -0.799237 1
gene 1 13 23 0.353796 0 70 0.353796 1
gene 1 14 23 0.458144 0 71 0.458144 1
gene 1 15 23 -0.819334 0 72 -0.819334 1
gene 1 16 23 -0.0316566 0 73 -0.0316566 1
gene 1 17 23 -0.606248 0 74 -0.606248 1
gene 1 18 23 0.416761 0 75 0.416761 1
gene 1 19 23 -0.398229 0 76 -0.398229 1
gene 1 8 24 0.240778 0 77 0.240778 1
gene 1 24 20 0.0984881 0 78 0.0984881 1
gene 1 15 26 -0.732419 0 85 -0.732419 1
gene 1 26 20 0.0606613 0 86 0.0606613 1
gene 1 22 20 0.267344 0 87 0.267344 1
gene 1 2 24 -0.277813 0 91 -0.277813 1
gene 1 6 24 0.435285 0 96 0.435285 1
gene 1 10 37 -0.644561 0 129 -0.644561 1
gene 1 37 20 0.260365 0 130 0.260365 1
gene 1 24 37 -0.0139907 0 140 -0.0139907 1
gene 1 11 46 -0.0552553 0 161 -0.0552553 1
gene 1 46 20 0.201631 0 162 0.201631 1
genomeend 2074
genomestart 2075
trait 1 0 0.0395613 0.0228897 0.229325 0.780734 0 0 0.333245 
node 1 1 1 1 0
node 2 1 1 1 0
node 3 1 1 1 0
node 4 1 1 1 0
node 5 1 1 1 0
node 6 1 1 1 0
node 7 1 1 1 0
node 8 1 1 1 0
node 9 1 1 1 0
node 10 1 1 1 0
node 11 1 1 1 0
node 12 1 1 1 0
node 13 1 1 1 0
node 14 1 1 1 0
node 15 1 1 1 0
node 16 1 1 1 0
node 17 1 1 1 0
node 18 1 1 1 0
node 19 1 1 3 0
node 20 1 0 2 0
node 21 1 0 2 0
node 22 1 0 2 0
node 23 1 0 2 0
node 24 1 0 0 0
node 26 1 0 0 0
node 28 1 0 0 0
node 32 1 0 0 0
node 37 1 0 0 0
node 39 1 0 0 0
node 43 1 0 0 0
node 53 1 0 0 0
gene 1 1 20 -0.417867 0 1 -0.417867 1
gene 1 2 20 0.0656103 0 2 0.0656103 1
gene 1 3 20 1.31026 0 3 1.31026 1
gene 1 4 20 -0.108652 0 4 -0.108652 1
gene 1 5 20 -0.00889571 0 5 -0.00889571 1
gene 1 6 20 0.341941 0 6 0.341941 1
gene 1 7 20 0.935734 0 7 0.935734 1
gene 1 8 20 -0.0473436 0 8 -0.0473436 0
gene 1 9 20 -0.00665851 0 9 -0.00665851 1
gene 1 10 20 0.146379 0 10 0.146379 0
gene 1 11 20 0.869931 0 11 0.869931 1
gene 1 12 20 1.80783 0 12 1.80783 1
gene 1 13 20 0.781194 0 13 0.781194 1
gene 1 14 20 1.96804 0 14 1.96804 1
gene 1 15 20 -0.205748 0 15 -0.205748 1
gene 1 16 20 1.29028 0 16 1.29028 1
gene 1 17 20 0.508789 0 17 0.508789 1
gene 1 18 20 0.302234 0 18 0.302234 1
gene 1 19 20 0.558278 0 19 0.558278 1
gene 1 1 21 0.301525 0 20 0.301525 1
gene 1 2 21 -0.390139 0 21 -0.390139 1
gene 1 3 21 2.16824 0 22 2.16824 1
gene 1 4 21 0.393339 0 23 0.393339 1
gene 1 5 21 0.788042 0 24 0.788042 1
gene 1 6 21 0.170155 0 25 0.170155 1
gene 1 7 21 0.376341 0 26 0.376341 1
gene 1 8 21 0.195879 0 27 0.195879 1
gene 1 9 21 0.220995 0 28 0.220995 1
gene 1 10 21 -0.675372 0 29 -0.675372 1
gene 1 11 21 -0.0174487 0 30 -0.0174487 1
gene 1 12 21 0.792351 0 31 0.792351 1
gene 1 13 21 -0.966101 0 32 -0.966101 0
gene 1 14 21 -2.27497 0 33 -2.27497 1
gene 1 15 21 1.73915 0 34 1.73915 0
gene 1 16 21 -0.25087 0 35 -0.25087 1
gene 1 17 21 0.91113 0 36 0.91113 1
gene 1 18 21 0.0673076 0 37 0.0673076 1
gene 1 19 21 -0.892571 0 38 -0.892571 1
gene 1 1 22 0.300141 0 39 0.300141 1
gene 1 2 22 0.296718 0 40 0.296718 1
gene 1 3 22 -0.10301 0 41 -0.10301 1
gene 1 4 22 1.07542 0 42 1.07542 1
gene 1 5 22 -0.671097 0 43 -0.671097 1
gene 1 6 22 0.536716 0 44 0.536716 0
gene 1 7 22 -0.0477982 0 45 -0.0477982 1
gene 1 8 22 -0.389017 0 46 -0.389017 1
gene 1 9 22 -0.147316 0 47 -0.147316 1
gene 1 10 22 -0.482815 0 48 -0.482815 1
gene 1 11 22 0.0672678 0 49 0.0672678 1
gene 1 12 22 1.13914 0 50 1.13914 1
gene 1 13 22 0.525901 0 51 0.525901 1
gene 1 14 22 -0.216949 0 52 -0.216949 1
gene 1 15 22 0.769754 0 53 0.769754 1
gene 1 16 22 1.66882 0 54 1.66882 1
gene 1 17 22 1.15948 0 55 1.15948 1
gene 1 18 22 0.325262 0 56 0.325262 1
gene 1 19 22 0.584058 0 57 0.584058 1
gene 1 1 23 0.732777 0 58 0.732777 1
gene 1 2 23 0.00564531 0 59 0.00564531 1
gene 1 3 23 -3 0 60 -3 1
gene 1 4 23 -0.874074 0 61 -0.874074 1
gene 1 5 23 0.243451 0 62 0.243451 1
gene 1 6 23 0.90983 0 63 0.90983 1
gene 1 7 23 0.0723321 0 64 0.0723321 1
gene 1 8 23 -0.149223 0 65 -0.149223 1
gene 1 9 23 -0.693247 0 66 -0.693247 1
gene 1 10 23 1.9265 0 67 1.9265 1
gene 1 11 23 -1.56844 0 68 -1.56844 1
gene 1 12 23 -0.0376639 0 69 -0.0376639 1
gene 1 13 23 -0.892311 0 70 -0.892311 1
gene 1 14 23 -1.52726 0 71 -1.52726 1
gene 1 15 23 0.211704 0 72 0.211704 1
gene 1 16 23 0.247606 0 73 0.247606 1
gene 1 17 23 -0.0158056 0 74 -0.0158056 0
gene 1 18 23 0.236371 0 75 0.236371 1
gene 1 19 23 0.449753 0 76 0.449753 1
gene 1 8 24 0.214887 0 77 0.214887 0
gene 1 24 20 -1.17723 0 78 -1.17723 1
gene 1 15 26 2.04093 0 85 2.04093 1
gene 1 26 20 -0.158344 0 86 -0.158344 1
gene 1 22 20 2.22777 0 87 2.22777 1
gene 1 2 24 0.629886 0 91 0.629886 1
gene 1 8 28 -0.468253 0 93 -0.468253 1
gene 1 28 24 0.528917 0 94 0.528917 1
gene 1 6 24 0.497791 0 96 0.497791 1
gene 1 16 26 -0.173033 0 99 -0.173033 1
gene 1 13 24 -0.569579 0 100 -0.569579 1
gene 1 23 24 0.532048 0 113 0.532048 1
gene 1 13 32 -0.11003 0 116 -0.11003 1
gene 1 32 21 0.478253 0 117 0.478253 1
gene 1 10 37 0.487994 0 129 0.487994 1
gene 1 37 20 0.0272692 0 130 0.0272692 1
gene 1 17 39 0.152329 0 134 0.152329 1
gene 1 39 23 -0.139023 0 135 -0.139023 1
gene 1 15 43 -1.25579 0 150 -1.25579 1
gene 1 43 21 0.401683 0 151 0.401683 1
gene 1 3 43 0.350873 0 153 0.350873 1
gene 1 8 32 -0.417761 0 154 -0.417761 1
gene 1 2 39 0.192215 0 178 0.192215 1
gene 1 6 53 1.49869 0 191 1.49869 1
gene 1 53 22 0.390904 0 192 0.390904 1
genomeend 2075
genomestart 2076
trait 1 0 0 0.450751 0 0 0.0593757 0 0 
node 1 1 1 1 0
node 2 1 1 1 0
node 3 1 1 1 0
node 4 1 1 1 0
node 5 1 1 1 0
node 6 1 1 1 0
node 7 1 1 1 0
node 8 1 1 1 0
node 9 1 1 1 0
node 10 1 1 1 0
node 11 1 1 1 0
node 12 1 1 1 0
node 13 1 1 1 0
node 14 1 1 1 0
node 15 1 1 1 0
node 16 1 1 1 0
node 17 1 1 1 0
node 18 1 1 1 0
node 19 1 1 3 0
node 20 1 0 2 0
node 21 1 0 2 0
node 22 1 0 2 0
node 23 1 0 2 0
node 24 1 0 0 0
node 26 1 0 0 0
node 26 1 0 0 0
node 37 1 0 0 0
node 46 1 0 0 0
gene 1 1 20 0.316719 0 1 0.316719 1
gene 1 2 20 0.687429 0 2 0.687429 1
gene 1 3 20 -0.246259 0 3 -0.246259 1
gene 1 4 20 2.01467 0 4 2.01467 1
gene 1 5 20 -0.869422 0 5 -0.869422 1
gene 1 6 20 1.93315 0 6 1.93315 1
gene 1 7 20 -0.11907 0 7 -0.11907 1
gene 1 8 20 0.847156 0 8 0.847156 1
gene 1 9 20 0.64232 0 9 0.64232 1
gene 1 10 20 -1.42191 0 10 -1.42191 0
gene 1 11 20 -0.345433 0 11 -0.345433 1
gene 1 12 20 0.341386 0 12 0.341386 1
gene 1 13 20 -0.352311 0 13 -0.352311 1
gene 1 14 20 -0.320505 0 14 -0.320505 1
gene 1 15 20 -1.31522 0 15 -1.31522 0
gene 1 16 20 0.204108 0 16 0.204108 1
gene 1 17 20 2.33045 0 17 2.33045 1
gene 1 18 20 1.1586 0 18 1.1586 1
gene 1 19 20 1.07236 0 19 1.07236 1
gene 1 1 21 -0.434668 0 20 -0.434668 1
gene 1 2 21 -0.140616 0 21 -0.140616 1
gene 1 3 21 -0.625045 0 22 -0.625045 1
gene 1 4 21 -0.471792 0 23 -0.471792 1
gene 1 5 21 -0.0632355 0 24 -0.0632355 1
gene 1 6 21 0.345531 0 25 0.345531 1
gene 1 7 21 -1.09422 0 26 -1.09422 1
gene 1 8 21 -1.60788 0 27 -1.60788 1
gene 1 9 21 -3 0 28 -3 1
gene 1 10 21 1.72343 0 29 1.72343 1
gene 1 11 21 -0.0285028 0 30 -0.0285028 1
gene 1 12 21 -1.08317 0 31 -1.08317 1
gene 1 13 21 -1.81921 0 32 -1.81921 1
gene 1 14 21 -0.417772 0 33 -0.417772 1
gene 1 15 21 0.738176 0 34 0.738176 1
gene 1 16 21 0.271869 0 35 0.271869 1
gene 1 17 21 0.633358 0 36 0.633358 1
gene 1 18 21 -0.581054 0 37 -0.581054 1
gene 1 19 21 0.362235 0 38 0.362235 1
gene 1 1 22 0.31959 0 39 0.31959 1
gene 1 2 22 0.0557036 0 40 0.0557036 1
gene 1 3 22 0.056313 0 41 0.056313 1
gene 1 4 22 0.328018 0 42 0.328018 1
gene 1 5 22 -0.165884 0 43 -0.165884 1
gene 1 6 22 -0.871778 0 44 -0.871778 1
gene 1 7 22 0.122539 0 45 0.122539 1
gene 1 8 22 -0.0312001 0 46 -0.0312001 1
gene 1 9 22 -0.691633 0 47 -0.691633 1
gene 1 10 22 -0.0798978 0 48 -0.0798978 1
gene 1 11 22 -2.70708 0 49 -2.70708 1
gene 1 12 22 1.12549 0 50 1.12549 1
gene 1 13 22 -0.0310557 0 51 -0.0310557 1
gene 1 14 22 -0.577426 0 52 -0.577426 1
gene 1 15 22 0.245558 0 53 0.245558 1
gene 1 16 22 -0.0977924 0 54 -0.0977924 1
gene 1 17 22 1.15535 0 55 1.15535 1
gene 1 18 22 -0.499932 0 56 -0.499932 1
gene 1 19 22 0.1101 0 57 0.1101 1
gene 1 1 23 0.732731 0 58 0.732731 1
gene 1 2 23 0.371367 0 59 0.371367 1
gene 1 3 23 -0.0675109 0 60 -0.0675109 1
gene 1 4 23 0.775811 0 61 0.775811 1
gene 1 5 23 -0.636564 0 62 -0.636564 1
gene 1 6 23 -0.180334 0 63 -0.180334 1
gene 1 7 23 -1.03274 0 64 -1.03274 1
gene 1 8 23 0.679813 0 65 0.679813 1
gene 1 9 23 0.0680272 0 66 0.0680272 1
gene 1 10 23 0.237307 0 67 0.237307 1
gene 1 11 23 -0.647577 0 68 -0.647577 1
gene 1 12 23 -0.519845 0 69 -0.519845 1
gene 1 13 23 0.0829788 0 70 0.0829788 1
gene 1 14 23 0.216759 0 71 0.216759 1
gene 1 15 23 -0.385525 0 72 -0.385525 1
gene 1 16 23 0.0125173 0 73 0.0125173 1
gene 1 17 23 -0.622689 0 74 -0.622689 1
gene 1 18 23 0.416761 0 75 0.416761 1
gene 1 19 23 -0.398229 0 76 -0.398229 1
gene 1 8 24 0.3071 0 77 0.3071 1
gene 1 24 20 -0.482231 0 78 -0.482231 1
gene 1 15 26 1 0 85 0 1
gene 1 15 26 -0.3607 0 85 -0.3607 1
gene 1 26 20 -0.394566 0 86 0 1
gene 1 26 20 0.307423 0 86 0.307423 1
gene 1 22 20 0.438789 0 87 0.438789 1
gene 1 2 24 -0.277813 0 91 -0.277813 1
gene 1 6 24 0.337122 0 96 0.337122 1
gene 1 10 37 -0.903165 0 129 -0.903165 1
gene 1 37 20 0.000868556 0 130 0.000868556 1
gene 1 24 37 -0.375458 0 140 -0.375458 1
gene 1 11 46 -0.0552553 0 161 -0.0552553 1
gene 1 46 20 -0.0612772 0 162 -0.0612772 1
genomeend 2076
genomestart 2077
trait 1 0 0.0395613 0.0114448 0.386215 0.780734 0 0 0.609649 
node 1 1 1 1 0
node 2 1 1 1 0
node 3 1 1 1 0
node 4 1 1 1 0
node 5 1 1 1 0
node 6 1 1 1 0
node 7 1 1 1 0
node 8 1 1 1 0
node 9 1 1 1 0
node 10 1 1 1 0
node 11 1 1 1 0
node 12 1 1 1 0
node 13 1 1 1 0
node 14 1 1 1 0
node 15 1 1 1 0
node 16 1 1 1 0
node 17 1 1 1 0
node 18 1 1 1 0
node 19 1 1 3 0
node 20 1 0 2 0
node 21 1 0 2 0
node 22 1 0 2 0
node 23 1 0 2 0
node 24 1 0 0 0
node 26 1 0 0 0
node 28 1 0 0 0
node 32 1 0 0 0
node 37 1 0 0 0
node 39 1 0 0 0
node 43 1 0 0 0
node 53 1 0 0 0
gene 1 1 20 -0.152058 0 1 -0.152058 1
gene 1 2 20 -0.107484 0 2 -0.107484 1
gene 1 3 20 1.56292 0 3 1.56292 1
gene 1 4 20 0.0383404 0 4 0.0383404 1
gene 1 5 20 0.507711 0 5 0.507711 1
gene 1 6 20 -0.885458 0 6 -0.885458 1
gene 1 7 20 0.505223 0 7 0.505223 1
gene 1 8 20 -0.0733976 0 8 -0.0733976 0
gene 1 9 20 0.0243612 0 9 0.0243612 1
gene 1 10 20 -0.389137 0 10 -0.389137 0
gene 1 11 20 0.208533 0 11 0.208533 1
gene 1 12 20 1.28607 0 12 1.28607 1
gene 1 13 20 1.29745 0 13 1.29745 1
gene 1 14 20 0.716282 0 14 0.716282 1
gene 1 15 20 -0.193583 0 15 -0.193583 1
gene 1 16 20 0.521688 0 16 0.521688 1
gene 1 17 20 -0.147942 0 17 -0.147942 1
gene 1 18 20 0.382007 0 18 0.382007 1
gene 1 19 20 0.0671046 0 19 0.0671046 1
gene 1 1 21 0.326217 0 20 0.326217 1
gene 1 2 21 0.461162 0 21 0.461162 1
gene 1 3 21 2.35636 0 22 2.35636 1
gene 1 4 21 1.24045 0 23 1.24045 1
gene 1 5 21 0.621336 0 24 0.621336 1
gene 1 6 21 1.39223 0 25 1.39223 1
gene 1 7 21 0.546472 0 26 0.546472 1
gene 1 8 21 -0.360109 0 27 -0.360109 1
gene 1 9 21 -0.560166 0 28 -0.560166 1
gene 1 10 21 -0.571613 0 29 -0.571613 1
gene 1 11 21 0.569782 0 30 0.569782 1
gene 1 12 21 0.256051 0 31 0.256051 1
gene 1 13 21 -0.27663 0 32 -0.27663 0
gene 1 14 21 -1.31876 0 33 -1.31876 1
gene 1 15 21 0.932294 0 34 0.932294 0
gene 1 16 21 -0.457804 0 35 -0.457804 1
gene 1 17 21 0.349027 0 36 0.349027 1
gene 1 18 21 -0.274406 0 37 -0.274406 1
gene 1 19 21 -0.691689 0 38 -0.691689 1
gene 1 1 22 0.793351 0 39 0.793351 1
gene 1 2 22 -0.612816 0 40 -0.612816 1
gene 1 3 22 0.206851 0 41 0.206851 1
gene 1 4 22 0.389053 0 42 0.389053 1
gene 1 5 22 -0.431205 0 43 -0.431205 1
gene 1 6 22 0.312434 0 44 0.312434 0
gene 1 7 22 0.198542 0 45 0.198542 1
gene 1 8 22 -0.232407 0 46 -0.232407 1
gene 1 9 22 -0.362283 0 47 -0.362283 1
gene 1 10 22 -0.24255 0 48 -0.24255 1
gene 1 11 22 0.126387 0 49 0.126387 1
gene 1 12 22 0.287907 0 50 0.287907 1
gene 1 13 22 0.000652089 0 51 0.000652089 1
gene 1 14 22 0.0471954 0 52 0.0471954 1
gene 1 15 22 0.697697 0 53 0.697697 1
gene 1 16 22 0.652279 0 54 0.652279 1
gene 1 17 22 0.479025 0 55 0.479025 1
gene 1 18 22 0.310504 0 56 0.310504 1
gene 1 19 22 0.560516 0 57 0.560516 1
gene 1 1 23 -0.00210612 0 58 -0.00210612 1
gene 1 2 23 1.07569 0 59 1.07569 1
gene 1 3 23 -1.74473 0 60 -1.74473 1
gene 1 4 23 -0.351443 0 61 -0.351443 1
gene 1 5 23 -0.272071 0 62 -0.272071 1
gene 1 6 23 -0.112814 0 63 -0.112814 1
gene 1 7 23 0.138181 0 64 0.138181 1
gene 1 8 23 -0.642155 0 65 -0.642155 1
gene 1 9 23 -0.0308607 0 66 -0.0308607 1
gene 1 10 23 1.0353 0 67 1.0353 1
gene 1 11 23 -2.70861 0 68 -2.70861 1
gene 1 12 23 0.545907 0 69 0.545907 1
gene 1 13 23 -1.02868 0 70 -1.02868 1
gene 1 14 23 -0.464479 0 71 -0.464479 1
gene 1 15 23 -0.557867 0 72 -0.557867 1
gene 1 16 23 0.127073 0 73 0.127073 1
gene 1 17 23 -0.0347688 0 74 -0.0347688 0
gene 1 18 23 0.730991 0 75 0.730991 1
gene 1 19 23 -0.935535 0 76 -0.935535 1
gene 1 8 24 0.835695 0 77 0.835695 1
gene 1 24 20 0.219524 0 78 0.219524 1
gene 1 15 26 -0.116392 0 85 -0.116392 1
gene 1 26 20 -0.119209 0 86 -0.119209 1
gene 1 22 20 1.51722 0 87 1.51722 1
gene 1 2 24 0.131271 0 91 0.131271 1
gene 1 8 28 0.434943 0 93 0.434943 1
gene 1 28 24 -0.455961 0 94 -0.455961 1
gene 1 6 24 0.406622 0 96 0.406622 1
gene 1 16 26 -0.408662 0 99 -0.408662 1
gene 1 13 24 0.291829 0 100 0.291829 1
gene 1 23 24 0.527485 0 113 0.527485 1
gene 1 13 32 -0.269568 0 116 -0.269568 1
gene 1 32 21 0.460887 0 117 0.460887 1
gene 1 10 37 0.0315154 0 129 0.0315154 1
gene 1 37 20 0.2586 0 130 0.2586 1
gene 1 17 39 -0.119277 0 134 -0.119277 1
gene 1 39 23 0.236678 0 135 0.236678 1
gene 1 15 43 -0.148733 0 150 -0.148733 1
gene 1 43 21 -0.123695 0 151 -0.123695 1
gene 1 3 43 -0.180456 0 153 -0.180456 1
gene 1 8 32 -0.11737 0 154 -0.11737 1
gene 1 2 39 -0.118261 0 178 -0.118261 1
gene 1 6 53 1.27587 0 191 1.27587 1
gene 1 53 22 -0.180488 0 192 -0.180488 1
gene 1 6 43 1.24688 0 210 1.24688 1
genomeend 2077
genomestart 2078
trait 1 0 0 0.450751 0 0 0.0593757 0 0 
node 1 1 1 1 0
node 2 1 1 1 0
node 3 1 1 1 0
node 4 1 1 1 0
node 5 1 1 1 0
node 6 1 1 1 0
node 7 1 1 1 0
node 8 1 1 1 0
node 9 1 1 1 0
node 10 1 1 1 0
node 11 1 1 1 0
node 12 1 1 1 0
node 13 1 1 1 0
node 14 1 1 1 0
node 15 1 1 1 0
node 16 1 1 1 0
node 17 1 1 1 0
node 18 1 1 1 0
node 19 1 1 3 0
node 20 1 0 2 0
node 21 1 0 2 0
node 22 1 0 2 0
node 23 1 0 2 0
node 24 1 0 0 0
node 26 1 0 0 0
node 31 1 0 0 0
node 37 1 0 0 0
node 46 1 0 0 0
gene 1 1 20 0.818462 0 1 0.818462 1
gene 1 2 20 0.295298 0 2 0.295298 1
gene 1 3 20 -0.245786 0 3 -0.245786 0
gene 1 4 20 1.23426 0 4 1.23426 1
gene 1 5 20 0.245472 0 5 0.245472 1
gene 1 6 20 1.36726 0 6 1.36726 1
gene 1 7 20 -0.192466 0 7 -0.192466 1
gene 1 8 20 0.116798 0 8 0.116798 1
gene 1 9 20 0.0142906 0 9 0.0142906 1
gene 1 10 20 -1.52769 0 10 -1.52769 0
gene 1 11 20 0.763377 0 11 0.763377 1
gene 1 12 20 1.00263 0 12 1.00263 1
gene 1 13 20 -0.613309 0 13 -0.613309 1
gene 1 14 20 -0.39728 0 14 -0.39728 1
gene 1 15 20 0.0604185 0 15 0.0604185 1
gene 1 16 20 -0.360741 0 16 -0.360741 1
gene 1 17 20 2.67068 0 17 2.67068 1
gene 1 18 20 0.795182 0 18 0.795182 1
gene 1 19 20 1.5109 0 19 1.5109 1
gene 1 1 21 -1.12825 0 20 -1.12825 1
gene 1 2 21 -0.163208 0 21 -0.163208 1
gene 1 3 21 -0.34651 0 22 -0.34651 1
gene 1 4 21 -0.171032 0 23 -0.171032 1
gene 1 5 21 0.734965 0 24 0.734965 1
gene 1 6 21 0.439699 0 25 0.439699 1
gene 1 7 21 -0.0754946 0 26 -0.0754946 1
gene 1 8 21 -0.384698 0 27 -0.384698 1
gene 1 9 21 -3 0 28 -3 1
gene 1 10 21 1.51715 0 29 1.51715 1
gene 1 11 21 0.333949 0 30 0.333949 1
gene 1 12 21 -0.637844 0 31 -0.637844 1
gene 1 13 21 -2.1532 0 32 -2.1532 1
gene 1 14 21 -0.0704576 0 33 -0.0704576 1
gene 1 15 21 1.31239 0 34 1.31239 1
gene 1 16 21 0.012021 0 35 0.012021 1
gene 1 17 21 -0.159486 0 36 -0.159486 1
gene 1 18 21 -0.885925 0 37 -0.885925 1
gene 1 19 21 0.531174 0 38 0.531174 1
gene 1 1 22 0.606078 0 39 0.606078 1
gene 1 2 22 0.465523 0 40 0.465523 1
gene 1 3 22 -0.346488 0 41 -0.346488 1
gene 1 4 22 0.645872 0 42 0.645872 1
gene 1 5 22 0.440207 0 43 0.440207 1
gene 1 6 22 -0.056972 0 44 -0.056972 1
gene 1 7 22 -0.615733 0 45 -0.615733 1
gene 1 8 22 -0.633445 0 46 -0.633445 1
gene 1 9 22 -1.07144 0 47 -1.07144 1
gene 1 10 22 0.242347 0 48 0.242347 1
gene 1 11 22 -1.13653 0 49 -1.13653 1
gene 1 12 22 0.747256 0 50 0.747256 1
gene 1 13 22 -0.641383 0 51 -0.641383 1
gene 1 14 22 -0.662075 0 52 -0.662075 1
gene 1 15 22 -0.0166083 0 53 -0.0166083 1
gene 1 16 22 -0.206816 0 54 -0.206816 1
gene 1 17 22 1.00992 0 55 1.00992 1
gene 1 18 22 0.586273 0 56 0.586273 1
gene 1 19 22 -0.226599 0 57 -0.226599 1
gene 1 1 23 0.432422 0 58 0.432422 1
gene 1 2 23 -0.852249 0 59 -0.852249 1
gene 1 3 23 -0.463125 0 60 -0.463125 1
gene 1 4 23 0.304088 0 61 0.304088 1
gene 1 5 23 -0.965376 0 62 -0.965376 1
gene 1 6 23 0.60946 0 63 0.60946 1
gene 1 7 23 -0.42836 0 64 -0.42836 1
gene 1 8 23 0.407357 0 65 0.407357 1
gene 1 9 23 0.831857 0 66 0.831857 1
gene 1 10 23 0.178227 0 67 0.178227 1
gene 1 11 23 -0.216692 0 68 -0.216692 1
gene 1 12 23 -0.0478746 0 69 -0.0478746 1
gene 1 13 23 0.523366 0 70 0.523366 1
gene 1 14 23 -0.00583593 0 71 -0.00583593 1
gene 1 15 23 -0.582837 0 72 -0.582837 1
gene 1 16 23 0.243538 0 73 0.243538 1
gene 1 17 23 -0.315305 0 74 -0.315305 1
gene 1 18 23 0.0335156 0 75 0.0335156 1
gene 1 19 23 0.284025 0 76 0.284025 1
gene 1 8 24 -0.101077 0 77 -0.101077 1
gene 1 24 20 -0.0198084 0 78 -0.0198084 1
gene 1 15 26 -0.367942 0 85 -0.367942 1
gene 1 26 20 -0.0662368 0 86 -0.0662368 1
gene 1 22 20 0.278734 0 87 0.278734 1
gene 1 2 24 -0.598422 0 91 -0.598422 1
gene 1 6 24 0.387363 0 96 0.387363 1
gene 1 3 31 1 0 114 0 1
gene 1 31 20 -0.0737358 0 115 0 1
gene 1 10 37 -0.0858972 0 129 -0.0858972 1
gene 1 37 20 -0.180303 0 130 -0.180303 1
gene 1 24 37 -0.189545 0 140 -0.189545 1
gene 1 11 46 -0.153864 0 161 -0.153864 1
gene 1 46 20 -0.237267 0 162 -0.237267 1
genomeend 2078
genomestart 2081
trait 1 0 0.059342 0 1 0.671101 0 0 0.414474 
node 1 1 1 1 0
node 2 1 1 1 0
node 3 1 1 1 0
node 4 1 1 1 0
node 5 1 1 1 0
node 6 1 1 1 0
node 7 1 1 1 0
node 8 1 1 1 0
node 9 1 1 1 0
node 10 1 1 1 0
node 11 1 1 1 0
node 12 1 1 1 0
node 13 1 1 1 0
node 14 1 1 1 0
node 15 1 1 1 0
node 16 1 1 1 0
node 17 1 1 1 0
node 18 1 1 1 0
node 19 1 1 3 0
node 20 1 0 2 0
node 21 1 0 2 0
node 22 1 0 2 0
node 23 1 0 2 0
node 24 1 0 0 0
node 26 1 0 0 0
node 28 1 0 0 0
node 32 1 0 0 0
node 37 1 0 0 0
node 39 1 0 0 0
node 43 1 0 0 0
node 53 1 0 0 0
gene 1 1 20 -0.83153 0 1 -0.83153 1
gene 1 2 20 -0.00867477 0 2 -0.00867477 1
gene 1 3 20 1.02325 0 3 1.02325 1
gene 1 4 20 0.142519 0 4 0.142519 1
gene 1 5 20 0.771813 0 5 0.771813 1
gene 1 6 20 -1.11733 0 6 -1.11733 1
gene 1 7 20 0.459482 0 7 0.459482 1
gene 1 8 20 -0.178078 0 8 -0.178078 0
gene 1 9 20 0.248595 0 9 0.248595 1
gene 1 10 20 -1.08615 0 10 -1.08615 0
gene 1 11 20 0.621623 0 11 0.621623 1
gene 1 12 20 1.14329 0 12 1.14329 1
gene 1 13 20 0.925185 0 13 0.925185 1
gene 1 14 20 1.002 0 14 1.002 1
gene 1 15 20 0.179642 0 15 0.179642 1
gene 1 16 20 0.920043 0 16 0.920043 1
gene 1 17 20 0.192789 0 17 0.192789 1
gene 1 18 20 -0.0958515 0 18 -0.0958515 1
gene 1 19 20 -0.202621 0 19 -0.202621 1
gene 1 1 21 0.244202 0 20 0.244202 1
gene 1 2 21 0.680972 0 21 0.680972 1
gene 1 3 21 2.56905 0 22 2.56905 1
gene 1 4 21 1.85523 0 23 1.85523 1
gene 1 5 21 1.43531 0 24 1.43531 1
gene 1 6 21 1.14478 0 25 1.14478 1
gene 1 7 21 0.0883886 0 26 0.0883886 1
gene 1 8 21 0.415621 0 27 0.415621 1
gene 1 9 21 -0.0906831 0 28 -0.0906831 1
gene 1 10 21 -1.23418 0 29 -1.23418 1
gene 1 11 21 0.62785 0 30 0.62785 1
gene 1 12 21 0.225039 0 31 0.225039 1
gene 1 13 21 -0.706536 0 32 -0.706536 0
gene 1 14 21 -0.764958 0 33 -0.764958 1
gene 1 15 21 0.753183 0 34 0.753183 0
gene 1 16 21 -0.256355 0 35 -0.256355 1
gene 1 17 21 -0.261655 0 36 -0.261655 1
gene 1 18 21 -1.0958 0 37 -1.0958 1
gene 1 19 21 0.119664 0 38 0.119664 1
gene 1 1 22 0.694354 0 39 0.694354 1
gene 1 2 22 -0.171258 0 40 -0.171258 1
gene 1 3 22 0.40968 0 41 0.40968 1
gene 1 4 22 0.985067 0 42 0.985067 1
gene 1 5 22 -0.29672 0 43 -0.29672 1
gene 1 6 22 -0.13223 0 44 -0.13223 0
gene 1 7 22 -0.275986 0 45 -0.275986 1
gene 1 8 22 -0.659488 0 46 -0.659488 1
gene 1 9 22 -0.101186 0 47 -0.101186 1
gene 1 10 22 -0.496625 0 48 -0.496625 1
gene 1 11 22 0.389158 0 49 0.389158 1
gene 1 12 22 0.318858 0 50 0.318858 1
gene 1 13 22 -0.645257 0 51 -0.645257 1
gene 1 14 22 0.666169 0 52 0.666169 1
gene 1 15 22 0.429153 0 53 0.429153 1
gene 1 16 22 0.393532 0 54 0.393532 1
gene 1 17 22 0.149927 0 55 0.149927 1
gene 1 18 22 0.0125475 0 56 0.0125475 1
gene 1 19 22 -0.569735 0 57 -0.569735 1
gene 1 1 23 -0.385561 0 58 -0.385561 1
gene 1 2 23 0.94868 0 59 0.94868 1
gene 1 3 23 0.130766 0 60 0.130766 1
gene 1 4 23 0.0529379 0 61 0.0529379 1
gene 1 5 23 -0.200244 0 62 -0.200244 1
gene 1 6 23 0.573283 0 63 0.573283 1
gene 1 7 23 -0.144559 0 64 -0.144559 1
gene 1 8 23 -0.401657 0 65 -0.401657 1
gene 1 9 23 0.199427 0 66 0.199427 1
gene 1 10 23 1.67114 0 67 1.67114 1
gene 1 11 23 -3 0 68 -3 1
gene 1 12 23 0.0962184 0 69 0.0962184 1
gene 1 13 23 0.131205 0 70 0.131205 1
gene 1 14 23 -1.23379 0 71 -1.23379 1
gene 1 15 23 -1.26198 0 72 -1.26198 1
gene 1 16 23 0.807726 0 73 0.807726 1
gene 1 17 23 -0.129308 0 74 -0.129308 0
gene 1 18 23 0.766794 0 75 0.766794 1
gene 1 19 23 -1.14649 0 76 -1.14649 1
gene 1 8 24 0.565412 0 77 0.565412 0
gene 1 24 20 -0.152018 0 78 -0.152018 1
gene 1 15 26 1.24575 0 85 1.24575 1
gene 1 26 20 0.182383 0 86 0.182383 1
gene 1 22 20 1.23699 0 87 1.23699 1
gene 1 2 24 0.0354706 0 91 0.0354706 1
gene 1 8 28 -0.413928 0 93 -0.413928 1
gene 1 28 24 -0.24391 0 94 -0.24391 1
gene 1 6 24 0.427412 0 96 0.427412 1
gene 1 16 26 -0.0365539 0 99 -0.0365539 1
gene 1 13 24 -0.910929 0 100 -0.910929 1
gene 1 23 24 0.738356 0 113 0.738356 1
gene 1 13 32 -0.222284 0 116 -0.222284 1
gene 1 32 21 0.206741 0 117 0.206741 1
gene 1 10 37 0.212335 0 129 0.212335 1
gene 1 37 20 0.644277 0 130 0.644277 1
gene 1 17 39 -0.356633 0 134 -0.356633 1
gene 1 39 23 0.246218 0 135 0.246218 1
gene 1 15 43 0.168298 0 150 0.168298 1
gene 1 43 21 -0.137268 0 151 -0.137268 1
gene 1 3 43 0.43915 0 153 0.43915 1
gene 1 8 32 0.171322 0 154 0.171322 1
gene 1 2 39 0.0129385 0 178 0.0129385 1
gene 1 6 53 0.392793 0 191 0.392793 1
gene 1 53 22 0.172737 0 192 0.172737 1
genomeend 2081
genomestart 2082
trait 1 0 0.0395613 0.0114448 0.386215 0.780734 0 0 0.609649 
node 1 1 1 1 0
node 2 1 1 1 0
node 3 1 1 1 0
node 4 1 1 1 0
node 5 1 1 1 0
node 6 1 1 1 0
node 7 1 1 1 0
node 8 1 1 1 0
node 9 1 1 1 0
node 10 1 1 1 0
node 11 1 1 1 0
node 12 1 1 1 0
node 13 1 1 1 0
node 14 1 1 1 0
node 15 1 1 1 0
node 16 1 1 1 0
node 17 1 1 1 0
node 18 1 1 1 0
node 19 1 1 3 0
node 20 1 0 2 0
node 21 1 0 2 0
node 22 1 0 2 0
node 23 1 0 2 0
node 24 1 0 0 0
node 26 1 0 0 0
node 28 1 0 0 0
node 32 1 0 0 0
node 37 1 0 0 0
node 39 1 0 0 0
node 43 1 0 0 0
node 53 1 0 0 0
gene 1 1 20 -0.0532655 0 1 -0.0532655 1
gene 1 2 20 0.128413 0 2 0.128413 1
gene 1 3 20 1.30796 0 3 1.30796 1
gene 1 4 20 -0.179052 0 4 -0.179052 1
gene 1 5 20 0.166971 0 5 0.166971 1
gene 1 6 20 -0.86342 0 6 -0.86342 1
gene 1 7 20 0.526992 0 7 0.526992 1
gene 1 8 20 -0.265753 0 8 -0.265753 0
gene 1 9 20 0.664529 0 9 0.664529 1
gene 1 10 20 -0.75072 0 10 -0.75072 0
gene 1 11 20 0.415545 0 11 0.415545 1
gene 1 12 20 1.30726 0 12 1.30726 1
gene 1 13 20 0.970088 0 13 0.970088 1
gene 1 14 20 0.252708 0 14 0.252708 1
gene 1 15 20 -0.247416 0 15 -0.247416 1
gene 1 16 20 1.16399 0 16 1.16399 1
gene 1 17 20 -0.00879342 0 17 -0.00879342 1
gene 1 18 20 0.172727 0 18 0.172727 1
gene 1 19 20 -0.156432 0 19 -0.156432 1
gene 1 1 21 0.0623601 0 20 0.0623601 1
gene 1 2 21 1.08844 0 21 1.08844 1
gene 1 3 21 2.74408 0 22 2.74408 1
gene 1 4 21 1.03284 0 23 1.03284 1
gene 1 5 21 1.45292 0 24 1.45292 1
gene 1 6 21 2.30351 0 25 2.30351 1
gene 1 7 21 0.435921 0 26 0.435921 1
gene 1 8 21 0.015108 0 27 0.015108 1
gene 1 9 21 0.484292 0 28 0.484292 1
gene 1 10 21 -0.396793 0 29 -0.396793 1
gene 1 11 21 1.17975 0 30 1.17975 1
gene 1 12 21 0.741026 0 31 0.741026 1
gene 1 13 21 -1.4172 0 32 -1.4172 0
gene 1 14 21 -0.155669 0 33 -0.155669 1
gene 1 15 21 0.525936 0 34 0.525936 0
gene 1 16 21 -0.366426 0 35 -0.366426 1
gene 1 17 21 -0.611741 0 36 -0.611741 1
gene 1 18 21 -0.410497 0 37 -0.410497 1
gene 1 19 21 -0.303653 0 38 -0.303653 1
gene 1 1 22 1.2904 0 39 1.2904 1
gene 1 2 22 -0.602201 0 40 -0.602201 1
gene 1 3 22 0.315188 0 41 0.315188 1
gene 1 4 22 0.895269 0 42 0.895269 1
gene 1 5 22 -0.652747 0 43 -0.652747 1
gene 1 6 22 0.36764 0 44 0.36764 0
gene 1 7 22 -0.0356857 0 45 -0.0356857 1
gene 1 8 22 -0.136229 0 46 -0.136229 1
gene 1 9 22 0.408059 0 47 0.408059 1
gene 1 10 22 0.0687489 0 48 0.0687489 1
gene 1 11 22 0.208164 0 49 0.208164 1
gene 1 12 22 -0.0412683 0 50 -0.0412683 1
gene 1 13 22 -0.700534 0 51 -0.700534 1
gene 1 14 22 0.289906 0 52 0.289906 1
gene 1 15 22 0.840463 0 53 0.840463 1
gene 1 16 22 0.250542 0 54 0.250542 1
gene 1 17 22 0.758476 0 55 0.758476 1
gene 1 18 22 0.442654 0 56 0.442654 1
gene 1 19 22 0.246251 0 57 0.246251 1
gene 1 1 23 -0.158553 0 58 -0.158553 1
gene 1 2 23 -0.291026 0 59 -0.291026 1
gene 1 3 23 -1.4506 0 60 -1.4506 1
gene 1 4 23 0.0849655 0 61 0.0849655 1
gene 1 5 23 -0.418225 0 62 -0.418225 1
gene 1 6 23 0.257163 0 63 0.257163 1
gene 1 7 23 0.59006 0 64 0.59006 1
gene 1 8 23 -1.05333 0 65 -1.05333 1
gene 1 9 23 -0.251926 0 66 -0.251926 1
gene 1 10 23 -0.338404 0 67 -0.338404 1
gene 1 11 23 -2.77485 0 68 -2.77485 1
gene 1 12 23 1.10548 0 69 1.10548 1
gene 1 13 23 0.0297424 0 70 0.0297424 1
gene 1 14 23 -0.557481 0 71 -0.557481 1
gene 1 15 23 -0.752441 0 72 -0.752441 1
gene 1 16 23 0.702586 0 73 0.702586 1
gene 1 17 23 -0.0631046 0 74 -0.0631046 0
gene 1 18 23 1.1321 0 75 1.1321 1
gene 1 19 23 -1.69483 0 76 -1.69483 1
gene 1 8 24 0.795152 0 77 0.795152 0
gene 1 24 20 -0.384336 0 78 -0.384336 1
gene 1 15 26 -0.76185 0 85 -0.76185 1
gene 1 26 20 -0.301772 0 86 -0.301772 1
gene 1 22 20 1.86691 0 87 1.86691 1
gene 1 2 24 0.0771112 0 91 0.0771112 1
gene 1 8 28 -0.459564 0 93 -0.459564 1
gene 1 28 24 -0.288417 0 94 -0.288417 1
gene 1 6 24 -0.440033 0 96 -0.440033 1
gene 1 16 26 -0.160476 0 99 -0.160476 1
gene 1 13 24 -0.867417 0 100 -0.867417 1
gene 1 23 24 0.1596 0 113 0.1596 1
gene 1 13 32 -0.322712 0 116 -0.322712 1
gene 1 32 21 0.398734 0 117 0.398734 1
gene 1 10 37 0.489781 0 129 0.489781 1
gene 1 37 20 0.155692 0 130 0.155692 1
gene 1 17 39 0.34706 0 134 0.34706 1
gene 1 39 23 0.381664 0 135 0.381664 1
gene 1 15 43 0.227942 0 150 0.227942 1
gene 1 43 21 -0.137268 0 151 -0.137268 1
gene 1 3 43 0.102903 0 153 0.102903 1
gene 1 8 32 0.104837 0 154 0.104837 1
gene 1 2 39 0.46874 0 178 0.46874 1
gene 1 6 53 0.441027 0 191 0.441027 1
gene 1 53 22 0.230054 0 192 0.230054 1
genomeend 2082
genomestart 2084
trait 1 0 0.264377 0.338431 0.00182268 0.308112 0.0417909 0.106934 0.00140579 
node 1 1 1 1 0
node 2 1 1 1 0
node 3 1 1 1 0
node 4 1 1 1 0
node 5 1 1 1 0
node 6 1 1 1 0
node 7 1 1 1 0
node 8 1 1 1 0
node 9 1 1 1 0
node 10 1 1 1 0
node 11 1 1 1 0
node 12 1 1 1 0
node 13 1 1 1 0
node 14 1 1 1 0
node 15 1 1 1 0
node 16 1 1 1 0
node 17 1 1 1 0
node 18 1 1 1 0
node 19 1 1 3 0
node 20 1 0 2 0
node 21 1 0 2 0
node 22 1 0 2 0
node 23 1 0 2 0
node 24 1 0 0 0
node 26 1 0 0 0
node 32 1 0 0 0
node 34 1 0 0 0
node 36 1 0 0 0
node 37 1 0 0 0
node 39 1 0 0 0
node 46 1 0 0 0
node 54 1 0 0 0
gene 1 1 20 0.545847 0 1 0.545847 1
gene 1 2 20 -1.02605 0 2 -1.02605 1
gene 1 3 20 -0.428537 0 3 -0.428537 1
gene 1 4 20 0.858706 0 4 0.858706 1
gene 1 5 20 0.144906 0 5 0.144906 1
gene 1 6 20 1.24766 0 6 1.24766 1
gene 1 7 20 -0.251433 0 7 -0.251433 1
gene 1 8 20 0.151762 0 8 0.151762 0
gene 1 9 20 -0.0357887 0 9 -0.0357887 0
gene 1 10 20 0.350222 0 10 0.350222 1
gene 1 11 20 1.1309 0 11 1.1309 0
gene 1 12 20 0.345594 0 12 0.345594 1
gene 1 13 20 -0.6801 0 13 -0.6801 1
gene 1 14 20 0.0171801 0 14 0.0171801 1
gene 1 15 20 0.335407 0 15 0.335407 0
gene 1 16 20 0.244381 0 16 0.244381 1
gene 1 17 20 -0.486007 0 17 -0.486007 1
gene 1 18 20 -0.161076 0 18 -0.161076 1
gene 1 19 20 0.505247 0 19 0.505247 1
gene 1 1 21 0.49562 0 20 0.49562 1
gene 1 2 21 -0.748546 0 21 -0.748546 1
gene 1 3 21 -0.411502 0 22 -0.411502 1
gene 1 4 21 -0.0249665 0 23 -0.0249665 1
gene 1 5 21 0.209134 0 24 0.209134 1
gene 1 6 21 0.775781 0 25 0.775781 1
gene 1 7 21 -1.07083 0 26 -1.07083 1
gene 1 8 21 -1.52445 0 27 -1.52445 1
gene 1 9 21 -2.83242 0 28 -2.83242 1
gene 1 10 21 2.62096 0 29 2.62096 1
gene 1 11 21 0.604021 0 30 0.604021 1
gene 1 12 21 -0.52741 0 31 -0.52741 1
gene 1 13 21 -0.593962 0 32 -0.593962 1
gene 1 14 21 0.57936 0 33 0.57936 1
gene 1 15 21 -0.46229 0 34 -0.46229 1
gene 1 16 21 0.169476 0 35 0.169476 1
gene 1 17 21 0.654282 0 36 0.654282 1
gene 1 18 21 0.342273 0 37 0.342273 1
gene 1 19 21 -0.0706694 0 38 -0.0706694 1
gene 1 1 22 1.45939 0 39 1.45939 1
gene 1 2 22 -0.163563 0 40 -0.163563 1
gene 1 3 22 0.64583 0 41 0.64583 1
gene 1 4 22 0.645513 0 42 0.645513 1
gene 1 5 22 0.216652 0 43 0.216652 1
gene 1 6 22 0.00653917 0 44 0.00653917 1
gene 1 7 22 -0.279476 0 45 -0.279476 1
gene 1 8 22 -0.270647 0 46 -0.270647 1
gene 1 9 22 -1.17228 0 47 -1.17228 1
gene 1 10 22 0.117968 0 48 0.117968 1
gene 1 11 22 -0.496336 0 49 -0.496336 1
gene 1 12 22 0.974614 0 50 0.974614 1
gene 1 13 22 -0.208707 0 51 -0.208707 1
gene 1 14 22 -0.607529 0 52 -0.607529 1
gene 1 15 22 0.331967 0 53 0.331967 1
gene 1 16 22 -0.373013 0 54 -0.373013 1
gene 1 17 22 -1.07261 0 55 -1.07261 1
gene 1 18 22 -0.368107 0 56 -0.368107 1
gene 1 19 22 0.171706 0 57 0.171706 1
gene 1 1 23 0.116725 0 58 0.116725 1
gene 1 2 23 0.0538986 0 59 0.0538986 1
gene 1 3 23 0.0507991 0 60 0.0507991 1
gene 1 4 23 0.126293 0 61 0.126293 1
gene 1 5 23 -0.459227 0 62 -0.459227 1
gene 1 6 23 0.930554 0 63 0.930554 1
gene 1 7 23 -0.479019 0 64 -0.479019 1
gene 1 8 23 -0.158481 0 65 -0.158481 1
gene 1 9 23 0.981704 0 66 0.981704 1
gene 1 10 23 -0.853024 0 67 -0.853024 1
gene 1 11 23 0.0261349 0 68 0.0261349 1
gene 1 12 23 0.159236 0 69 0.159236 1
gene 1 13 23 -0.317019 0 70 -0.317019 1
gene 1 14 23 0.204532 0 71 0.204532 1
gene 1 15 23 0.495905 0 72 0.495905 1
gene 1 16 23 -0.46035 0 73 -0.46035 1
gene 1 17 23 -1.41329 0 74 -1.41329 1
gene 1 18 23 0.387564 0 75 0.387564 1
gene 1 19 23 0.326923 0 76 0.326923 1
gene 1 8 24 0.766979 0 77 0.766979 1
gene 1 24 20 -0.423544 0 78 -0.423544 1
gene 1 15 26 -0.302209 0 85 -0.302209 1
gene 1 26 20 1.02301 0 86 1.02301 1
gene 1 22 20 1.09265 0 87 1.09265 1
gene 1 2 24 0.479455 0 91 0.479455 1
gene 1 6 24 0.321819 0 96 0.321819 1
gene 1 16 26 -0.10862 0 99 -0.10862 1
gene 1 13 24 0.271644 0 100 0.271644 1
gene 1 23 24 0.0542265 0 113 0.0542265 1
gene 1 13 32 0.0872141 0 116 0.0872141 1
gene 1 32 21 0.0663666 0 117 0.0663666 1
gene 1 11 34 -0.233649 0 122 -0.233649 1
gene 1 34 21 -0.0361715 0 123 -0.0361715 1
gene 1 9 36 0.0715743 0 127 0.0715743 1
gene 1 36 20 0.574137 0 128 0.574137 1
gene 1 10 37 -0.084217 0 129 -0.084217 1
gene 1 37 20 0.193089 0 130 0.193089 1
gene 1 17 39 -0.0637648 0 134 -0.0637648 1
gene 1 39 23 0.419201 0 135 0.419201 1
gene 1 24 37 0.125551 0 140 0.125551 1
gene 1 19 24 -0.221644 0 144 -0.221644 1
gene 1 11 46 0.00615594 0 161 0.00615594 1
gene 1 46 20 -0.344869 0 162 -0.344869 1
gene 1 39 34 0.467578 0 193 0.467578 1
gene 1 16 54 0.848213 0 194 0.848213 1
gene 1 54 26 0.00689347 0 195 0.00689347 1
gene 1 18 32 0.1163 0 213 0.1163 1
genomeend 2084
genomestart 2085
trait 1 0 0 0.450751 0 0 0.0593757 0 0 
node 1 1 1 1 0
node 2 1 1 1 0
node 3 1 1 1 0
node 4 1 1 1 0
node 5 1 1 1 0
node 6 1 1 1 0
node 7 1 1 1 0
node 8 1 1 1 0
node 9 1 1 1 0
node 10 1 1 1 0
node 11 1 1 1 0
node 12 1 1 1 0
node 13 1 1 1 0
node 14 1 1 1 0
node 15 1 1 1 0
node 16 1 1 1 0
node 17 1 1 1 0
node 18 1 1 1 0
node 19 1 1 3 0
node 20 1 0 2 0
node 21 1 0 2 0
node 22 1 0 2 0
node 23 1 0 2 0
node 24 1 0 0 0
node 26 1 0 0 0
node 37 1 0 0 0
node 46 1 0 0 0
gene 1 1 20 0.818462 0 1 0.818462 1
gene 1 2 20 0.295298 0 2 0.295298 1
gene 1 3 20 -0.245786 0 3 -0.245786 1
gene 1 4 20 1.23426 0 4 1.23426 1
gene 1 5 20 0.245472 0 5 0.245472 1
gene 1 6 20 1.36726 0 6 1.36726 1
gene 1 7 20 -0.192466 0 7 -0.192466 1
gene 1 8 20 0.116798 0 8 0.116798 1
gene 1 9 20 0.0142906 0 9 0.0142906 1
gene 1 10 20 -1.52769 0 10 -1.52769 0
gene 1 11 20 0.763377 0 11 0.763377 1
gene 1 12 20 1.00263 0 12 1.00263 1
gene 1 13 20 -0.613309 0 13 -0.613309 1
gene 1 14 20 -0.39728 0 14 -0.39728 1
gene 1 15 20 0.0604185 0 15 0.0604185 1
gene 1 16 20 -0.360741 0 16 -0.360741 1
gene 1 17 20 2.67068 0 17 2.67068 1
gene 1 18 20 0.795182 0 18 0.795182 1
gene 1 19 20 1.5109 0 19 1.5109 1
gene 1 1 21 -1.12825 0 20 -1.12825 1
gene 1 2 21 -0.163208 0 21 -0.163208 1
gene 1 3 21 -0.34651 0 22 -0.34651 1
gene 1 4 21 -0.171032 0 23 -0.171032 1
gene 1 5 21 0.734965 0 24 0.734965 1
gene 1 6 21 0.439699 0 25 0.439699 1
gene 1 7 21 -0.0754946 0 26 -0.0754946 1
gene 1 8 21 -0.384698 0 27 -0.384698 1
gene 1 9 21 -3 0 28 -3 1
gene 1 10 21 1.51715 0 29 1.51715 1
gene 1 11 21 0.333949 0 30 0.333949 1
gene 1 12 21 -0.637844 0 31 -0.637844 1
gene 1 13 21 -2.1532 0 32 -2.1532 1
gene 1 14 21 -0.0704576 0 33 -0.0704576 1
gene 1 15 21 1.31239 0 34 1.31239 1
gene 1 16 21 0.012021 0 35 0.012021 1
gene 1 17 21 -0.159486 0 36 -0.159486 1
gene 1 18 21 -0.885925 0 37 -0.885925 1
gene 1 19 21 0.531174 0 38 0.531174 1
gene 1 1 22 0.606078 0 39 0.606078 1
gene 1 2 22 0.465523 0 40 0.465523 1
gene 1 3 22 -0.346488 0 41 -0.346488 1
gene 1 4 22 0.645872 0 42 0.645872 1
gene 1 5 22 0.440207 0 43 0.440207 1
gene 1 6 22 -0.056972 0 44 -0.056972 1
gene 1 7 22 -0.615733 0 45 -0.615733 1
gene 1 8 22 -0.633445 0 46 -0.633445 1
gene 1 9 22 -1.07144 0 47 -1.07144 1
gene 1 10 22 0.242347 0 48 0.242347 1
gene 1 11 22 -1.13653 0 49 -1.13653 1
gene 1 12 22 0.747256 0 50 0.747256 1
gene 1 13 22 -0.641383 0 51 -0.641383 1
gene 1 14 22 -0.662075 0 52 -0.662075 1
gene 1 15 22 -0.0166083 0 53 -0.0166083 1
gene 1 16 22 -0.206816 0 54 -0.206816 1
gene 1 17 22 1.00992 0 55 1.00992 1
gene 1 18 22 0.586273 0 56 0.586273 1
gene 1 19 22 -0.226599 0 57 -0.226599 1
gene 1 1 23 0.432422 0 58 0.432422 1
gene 1 2 23 -0.852249 0 59 -0.852249 1
gene 1 3 23 -0.463125 0 60 -0.463125 1
gene 1 4 23 0.304088 0 61 0.304088 1
gene 1 5 23 -0.965376 0 62 -0.965376 1
gene 1 6 23 0.60946 0 63 0.60946 1
gene 1 7 23 -0.42836 0 64 -0.42836 1
gene 1 8 23 0.407357 0 65 0.407357 1
gene 1 9 23 0.831857 0 66 0.831857 1
gene 1 10 23 0.178227 0 67 0.178227 1
gene 1 11 23 -0.216692 0 68 -0.216692 1
gene 1 12 23 -0.0478746 0 69 -0.0478746 1
gene 1 13 23 0.523366 0 70 0.523366 1
gene 1 14 23 -0.00583593 0 71 -0.00583593 1
gene 1 15 23 -0.582837 0 72 -0.582837 1
gene 1 16 23 0.243538 0 73 0.243538 1
gene 1 17 23 -0.315305 0 74 -0.315305 1
gene 1 18 23 0.0335156 0 75 0.0335156 1
gene 1 19 23 0.284025 0 76 0.284025 1
gene 1 8 24 -0.101077 0 77 -0.101077 1
gene 1 24 20 -0.0198084 0 78 -0.0198084 1
gene 1 15 26 -0.367942 0 85 -0.367942 1
gene 1 26 20 -0.0662368 0 86 -0.0662368 1
gene 1 22 20 0.278734 0 87 0.278734 1
gene 1 2 24 -0.598422 0 91 -0.598422 1
gene 1 6 24 0.387363 0 96 0.387363 1
gene 1 10 37 -0.0858972 0 129 -0.0858972 1
gene 1 37 20 -0.180303 0 130 -0.180303 1
gene 1 24 37 -0.189545 0 140 -0.189545 1
gene 1 11 46 -0.153864 0 161 -0.153864 1
gene 1 46 20 -0.237267 0 162 -0.237267 1
gene 1 24 22 -0.191805 0 219 -0.191805 1
genomeend 2085
genomestart 2086
trait 1 0 0.0791226 0.0228897 0.229325 0.561468 0 0 0.219298 
node 1 1 1 1 0
node 2 1 1 1 0
node 3 1 1 1 0
node 4 1 1 1 0
node 5 1 1 1 0
node 6 1 1 1 0
node 7 1 1 1 0
node 8 1 1 1 0
node 9 1 1 1 0
node 10 1 1 1 0
node 11 1 1 1 0
node 12 1 1 1 0
node 13 1 1 1 0
node 14 1 1 1 0
node 15 1 1 1 0
node 16 1 1 1 0
node 17 1 1 1 0
node 18 1 1 1 0
node 19 1 1 3 0
node 20 1 0 2 0
node 21 1 0 2 0
node 22 1 0 2 0
node 23 1 0 2 0
node 24 1 0 0 0
node 26 1 0 0 0
node 28 1 0 0 0
node 32 1 0 0 0
node 37 1 0 0 0
node 39 1 0 0 0
node 43 1 0 0 0
node 53 1 0 0 0
gene 1 1 20 -0.364516 0 1 -0.364516 1
gene 1 2 20 -0.110307 0 2 -0.110307 1
gene 1 3 20 1.44678 0 3 1.44678 1
gene 1 4 20 0.205872 0 4 0.205872 1
gene 1 5 20 0.0857607 0 5 0.0857607 1
gene 1 6 20 -0.90461 0 6 -0.90461 1
gene 1 7 20 0.498948 0 7 0.498948 1
gene 1 8 20 -0.370753 0 8 -0.370753 0
gene 1 9 20 0.601103 0 9 0.601103 1
gene 1 10 20 0.248201 0 10 0.248201 0
gene 1 11 20 0.426489 0 11 0.426489 1
gene 1 12 20 0.963428 0 12 0.963428 1
gene 1 13 20 1.46768 0 13 1.46768 1
gene 1 14 20 0.331933 0 14 0.331933 1
gene 1 15 20 -0.165738 0 15 -0.165738 1
gene 1 16 20 1.06411 0 16 1.06411 1
gene 1 17 20 -0.0921412 0 17 -0.0921412 1
gene 1 18 20 0.515803 0 18 0.515803 1
gene 1 19 20 -0.202167 0 19 -0.202167 1
gene 1 1 21 0.104268 0 20 0.104268 1
gene 1 2 21 0.0661069 0 21 0.0661069 1
gene 1 3 21 2.84378 0 22 2.84378 1
gene 1 4 21 1.09575 0 23 1.09575 1
gene 1 5 21 1.02862 0 24 1.02862 1
gene 1 6 21 1.6111 0 25 1.6111 1
gene 1 7 21 0.263078 0 26 0.263078 1
gene 1 8 21 -0.114777 0 27 -0.114777 1
gene 1 9 21 -0.64777 0 28 -0.64777 1
gene 1 10 21 -0.83548 0 29 -0.83548 1
gene 1 11 21 0.895612 0 30 0.895612 1
gene 1 12 21 0.268473 0 31 0.268473 1
gene 1 13 21 -0.97793 0 32 -0.97793 0
gene 1 14 21 -0.509516 0 33 -0.509516 1
gene 1 15 21 0.919152 0 34 0.919152 0
gene 1 16 21 -0.256267 0 35 -0.256267 1
gene 1 17 21 -0.748422 0 36 -0.748422 1
gene 1 18 21 -0.616101 0 37 -0.616101 1
gene 1 19 21 -0.738204 0 38 -0.738204 1
gene 1 1 22 0.949106 0 39 0.949106 1
gene 1 2 22 0.261443 0 40 0.261443 1
gene 1 3 22 0.582735 0 41 0.582735 1
gene 1 4 22 0.40287 0 42 0.40287 1
gene 1 5 22 -0.503729 0 43 -0.503729 1
gene 1 6 22 -0.0332698 0 44 -0.0332698 0
gene 1 7 22 -0.391486 0 45 -0.391486 1
gene 1 8 22 -0.544966 0 46 -0.544966 1
gene 1 9 22 0.262947 0 47 0.262947 1
gene 1 10 22 -0.233517 0 48 -0.233517 1
gene 1 11 22 0.407299 0 49 0.407299 1
gene 1 12 22 -0.457135 0 50 -0.457135 1
gene 1 13 22 -0.225841 0 51 -0.225841 1
gene 1 14 22 0.324726 0 52 0.324726 1
gene 1 15 22 0.428027 0 53 0.428027 1
gene 1 16 22 0.3716 0 54 0.3716 1
gene 1 17 22 0.471188 0 55 0.471188 1
gene 1 18 22 0.462752 0 56 0.462752 1
gene 1 19 22 -0.153608 0 57 -0.153608 1
gene 1 1 23 -0.476495 0 58 -0.476495 1
gene 1 2 23 1.22514 0 59 1.22514 1
gene 1 3 23 -2.47407 0 60 -2.47407 1
gene 1 4 23 -0.0270874 0 61 -0.0270874 1
gene 1 5 23 -0.0423328 0 62 -0.0423328 1
gene 1 6 23 0.673427 0 63 0.673427 1
gene 1 7 23 0.780355 0 64 0.780355 1
gene 1 8 23 0.0396946 0 65 0.0396946 1
gene 1 9 23 0.616094 0 66 0.616094 1
gene 1 10 23 0.137793 0 67 0.137793 1
gene 1 11 23 -2.88613 0 68 -2.88613 1
gene 1 12 23 1.51236 0 69 1.51236 1
gene 1 13 23 -0.336235 0 70 -0.336235 1
gene 1 14 23 -0.472697 0 71 -0.472697 1
gene 1 15 23 -0.907742 0 72 -0.907742 1
gene 1 16 23 0.605964 0 73 0.605964 1
gene 1 17 23 0.34187 0 74 0.34187 0
gene 1 18 23 1.26506 0 75 1.26506 1
gene 1 19 23 -1.27965 0 76 -1.27965 1
gene 1 8 24 0.540323 0 77 0.540323 0
gene 1 24 20 0.379149 0 78 0.379149 1
gene 1 15 26 0.858806 0 85 0.858806 1
gene 1 26 20 -0.0808757 0 86 -0.0808757 1
gene 1 22 20 1.40372 0 87 1.40372 1
gene 1 2 24 0.022996 0 91 0.022996 1
gene 1 8 28 0.0246957 0 93 0.0246957 1
gene 1 28 24 -0.00391951 0 94 -0.00391951 1
gene 1 6 24 1.07263 0 96 1.07263 1
gene 1 16 26 -0.160476 0 99 -0.160476 1
gene 1 13 24 -0.867417 0 100 -0.867417 1
gene 1 23 24 0.342159 0 113 0.342159 1
gene 1 13 32 -0.322712 0 116 -0.322712 1
gene 1 32 21 0.206741 0 117 0.206741 1
gene 1 10 37 0.0514507 0 129 0.0514507 1
gene 1 37 20 0.441432 0 130 0.441432 1
gene 1 17 39 -0.0854328 0 134 -0.0854328 1
gene 1 39 23 -0.0134566 0 135 -0.0134566 1
gene 1 15 43 -0.456742 0 150 -0.456742 1
gene 1 43 21 0.309479 0 151 0.309479 1
gene 1 3 43 0.0936186 0 153 0.0936186 1
gene 1 8 32 -0.0641358 0 154 -0.0641358 1
gene 1 2 39 0.180468 0 178 0.180468 1
gene 1 6 53 1.49324 0 191 1.49324 1
gene 1 53 22 -0.302345 0 192 -0.302345 1
genomeend 2086
genomestart 50
trait 1 0 0 0.450751 0 0 0.0593757 0 0 
node 1 1 1 1 0
node 2 1 1 1 0
node 3 1 1 1 0
node 4 1 1 1 0
node 5 1 1 1 0
node 6 1 1 1 0
node 7 1 1 1 0
node 8 1 1 1 0
node 9 1 1 1 0
node 10 1 1 1 0
node 11 1 1 1 0
node 12 1 1 1 0
node 13 1 1 1 0
node 14 1 1 1 0
node 15 1 1 1 0
node 16 1 1 1 0
node 17 1 1 1 0
node 18 1 1 1 0
node 19 1 1 3 0
node 20 1 0 2 0
node 21 1 0 2 0
node 22 1 0 2 0
node 23 1 0 2 0
node 24 1 0 0 0
node 26 1 0 0 0
node 37 1 0 0 0
node 46 1 0 0 0
gene 1 1 20 0.155577 0 1 0.155577 1
gene 1 2 20 1.12602 0 2 1.12602 1
gene 1 3 20 -0.0822849 0 3 -0.0822849 1
gene 1 4 20 2.29612 0 4 2.29612 1
gene 1 5 20 -0.321438 0 5 -0.321438 1
gene 1 6 20 1.93315 0 6 1.93315 1
gene 1 7 20 -0.609336 0 7 -0.609336 1
gene 1 8 20 1.33208 0 8 1.33208 1
gene 1 9 20 0.665534 0 9 0.665534 1
gene 1 10 20 -1.82185 0 10 -1.82185 0
gene 1 11 20 -0.178866 0 11 -0.178866 1
gene 1 12 20 -0.133777 0 12 -0.133777 1
gene 1 13 20 -0.371993 0 13 -0.371993 1
gene 1 14 20 0.0338818 0 14 0.0338818 1
gene 1 15 20 -0.998229 0 15 -0.998229 1
gene 1 16 20 0.204108 0 16 0.204108 1
gene 1 17 20 1.94553 0 17 1.94553 1
gene 1 18 20 1.37334 0 18 1.37334 1
gene 1 19 20 1.22747 0 19 1.22747 1
gene 1 1 21 -0.219615 0 20 -0.219615 1
gene 1 2 21 -0.6207 0 21 -0.6207 1
gene 1 3 21 -0.516776 0 22 -0.516776 1
gene 1 4 21 -0.518469 0 23 -0.518469 1
gene 1 5 21 0.381452 0 24 0.381452 1
gene 1 6 21 0.746295 0 25 0.746295 1
gene 1 7 21 0.0356471 0 26 0.0356471 1
gene 1 8 21 -2.02218 0 27 -2.02218 1
gene 1 9 21 -3 0 28 -3 1
gene 1 10 21 1.37365 0 29 1.37365 1
gene 1 11 21 -0.460009 0 30 -0.460009 1
gene 1 12 21 -0.680904 0 31 -0.680904 1
gene 1 13 21 -1.57918 0 32 -1.57918 1
gene 1 14 21 -0.417772 0 33 -0.417772 1
gene 1 15 21 0.871438 0 34 0.871438 1
gene 1 16 21 0.286579 0 35 0.286579 1
gene 1 17 21 0.542707 0 36 0.542707 1
gene 1 18 21 -0.793279 0 37 -0.793279 1
gene 1 19 21 -0.321952 0 38 -0.321952 1
gene 1 1 22 0.623571 0 39 0.623571 1
gene 1 2 22 0.434533 0 40 0.434533 1
gene 1 3 22 0.353296 0 41 0.353296 1
gene 1 4 22 0.225144 0 42 0.225144 1
gene 1 5 22 0.278948 0 43 0.278948 1
gene 1 6 22 0.128164 0 44 0.128164 1
gene 1 7 22 0.470228 0 45 0.470228 1
gene 1 8 22 -0.0580682 0 46 -0.0580682 1
gene 1 9 22 -1.16117 0 47 -1.16117 1
gene 1 10 22 0.231386 0 48 0.231386 1
gene 1 11 22 -2.40196 0 49 -2.40196 1
gene 1 12 22 1.28575 0 50 1.28575 1
gene 1 13 22 0.309996 0 51 0.309996 1
gene 1 14 22 -0.931601 0 52 -0.931601 1
gene 1 15 22 0.263476 0 53 0.263476 1
gene 1 16 22 0.0305694 0 54 0.0305694 1
gene 1 17 22 1.16252 0 55 1.16252 1
gene 1 18 22 -0.158027 0 56 -0.158027 1
gene 1 19 22 -0.380884 0 57 -0.380884 1
gene 1 1 23 0.853082 0 58 0.853082 1
gene 1 2 23 -0.33632 0 59 -0.33632 1
gene 1 3 23 0.224269 0 60 0.224269 1
gene 1 4 23 1.00505 0 61 1.00505 1
gene 1 5 23 -0.0569537 0 62 -0.0569537 1
gene 1 6 23 -0.0953186 0 63 -0.0953186 1
gene 1 7 23 -0.920921 0 64 -0.920921 1
gene 1 8 23 1.14108 0 65 1.14108 1
gene 1 9 23 0.0680272 0 66 0.0680272 1
gene 1 10 23 0.427955 0 67 0.427955 1
gene 1 11 23 -0.643424 0 68 -0.643424 1
gene 1 12 23 -0.617335 0 69 -0.617335 1
gene 1 13 23 0.178022 0 70 0.178022 1
gene 1 14 23 0.420678 0 71 0.420678 1
gene 1 15 23 -0.385525 0 72 -0.385525 1
gene 1 16 23 0.468584 0 73 0.468584 1
gene 1 17 23 -0.997021 0 74 -0.997021 1
gene 1 18 23 -0.0330734 0 75 -0.0330734 1
gene 1 19 23 -0.155069 0 76 -0.155069 1
gene 1 8 24 0.401924 0 77 0.401924 1
gene 1 24 20 -0.482231 0 78 -0.482231 1
gene 1 15 26 -0.174222 0 85 -0.174222 1
gene 1 26 20 0.542325 0 86 0.542325 1
gene 1 22 20 0.855907 0 87 0.855907 1
gene 1 2 24 -0.277813 0 91 -0.277813 1
gene 1 6 24 -0.342825 0 96 -0.342825 1
gene 1 10 37 -1.17836 0 129 -1.17836 1
gene 1 37 20 0.191489 0 130 0.191489 1
gene 1 24 37 -0.303215 0 140 -0.303215 1
gene 1 11 46 -0.0500733 0 161 -0.0500733 1
gene 1 46 20 -0.399013 0 162 -0.399013 1
genomeend 50
genomestart 51
trait 1 0 0 0.450751 0 0 0.0593757 0 0 
node 1 1 1 1 0
node 2 1 1 1 0
node 3 1 1 1 0
node 4 1 1 1 0
node 5 1 1 1 0
node 6 1 1 1 0
node 7 1 1 1 0
node 8 1 1 1 0
node 9 1 1 1 0
node 10 1 1 1 0
node 11 1 1 1 0
node 12 1 1 1 0
node 13 1 1 1 0
node 14 1 1 1 0
node 15 1 1 1 0
node 16 1 1 1 0
node 17 1 1 1 0
node 18 1 1 1 0
node 19 1 1 3 0
node 20 1 0 2 0
node 21 1 0 2 0
node 22 1 0 2 0
node 23 1 0 2 0
node 24 1 0 0 0
node 26 1 0 0 0
node 37 1 0 0 0
node 46 1 0 0 0
gene 1 1 20 0.481742 0 1 0.481742 1
gene 1 2 20 1.02044 0 2 1.02044 1
gene 1 3 20 -0.246259 0 3 -0.246259 1
gene 1 4 20 2.42783 0 4 2.42783 1
gene 1 5 20 0.00030151 0 5 0.00030151 1
gene 1 6 20 1.57172 0 6 1.57172 1
gene 1 7 20 -0.11907 0 7 -0.11907 1
gene 1 8 20 1.13271 0 8 1.13271 1
gene 1 9 20 0.469516 0 9 0.469516 1
gene 1 10 20 0.327354 0 10 0.327354 0
gene 1 11 20 0.197929 0 11 0.197929 1
gene 1 12 20 0.121056 0 12 0.121056 1
gene 1 13 20 -0.178224 0 13 -0.178224 1
gene 1 14 20 -0.589071 0 14 -0.589071 1
gene 1 15 20 -1.35393 0 15 -1.35393 1
gene 1 16 20 0.441022 0 16 0.441022 1
gene 1 17 20 1.94921 0 17 1.94921 1
gene 1 18 20 1.52366 0 18 1.52366 1
gene 1 19 20 0.925365 0 19 0.925365 1
gene 1 1 21 -0.90228 0 20 -0.90228 1
gene 1 2 21 0.0719069 0 21 0.0719069 1
gene 1 3 21 -0.232037 0 22 -0.232037 1
gene 1 4 21 -0.582009 0 23 -0.582009 1
gene 1 5 21 0.279488 0 24 0.279488 1
gene 1 6 21 0.691853 0 25 0.691853 1
gene 1 7 21 -0.849313 0 26 -0.849313 1
gene 1 8 21 0.460631 0 27 0.460631 1
gene 1 9 21 -3 0 28 -3 1
gene 1 10 21 0.263314 0 29 0.263314 1
gene 1 11 21 0.230177 0 30 0.230177 1
gene 1 12 21 -1.07368 0 31 -1.07368 1
gene 1 13 21 -1.36159 0 32 -1.36159 1
gene 1 14 21 0.0258372 0 33 0.0258372 1
gene 1 15 21 0.882096 0 34 0.882096 1
gene 1 16 21 0.760382 0 35 0.760382 1
gene 1 17 21 0.775092 0 36 0.775092 1
gene 1 18 21 -0.829708 0 37 -0.829708 1
gene 1 19 21 -0.187136 0 38 -0.187136 1
gene 1 1 22 0.750487 0 39 0.750487 1
gene 1 2 22 -0.442083 0 40 -0.442083 1
gene 1 3 22 0.0854725 0 41 0.0854725 1
gene 1 4 22 -0.338752 0 42 -0.338752 1
gene 1 5 22 0.256217 0 43 0.256217 1
gene 1 6 22 -0.245186 0 44 -0.245186 1
gene 1 7 22 -0.355046 0 45 -0.355046 1
gene 1 8 22 0.32299 0 46 0.32299 1
gene 1 9 22 -1.11483 0 47 -1.11483 1
gene 1 10 22 0.321232 0 48 0.321232 1
gene 1 11 22 -2.53805 0 49 -2.53805 1
gene 1 12 22 0.357533 0 50 0.357533 1
gene 1 13 22 0.250525 0 51 0.250525 1
gene 1 14 22 -1.09594 0 52 -1.09594 1
gene 1 15 22 0.391306 0 53 0.391306 1
gene 1 16 22 -0.0977924 0 54 -0.0977924 1
gene 1 17 22 0.0948353 0 55 0.0948353 1
gene 1 18 22 0.519155 0 56 0.519155 1
gene 1 19 22 0.101337 0 57 0.101337 1
gene 1 1 23 0.688994 0 58 0.688994 1
gene 1 2 23 0.0230576 0 59 0.0230576 1
gene 1 3 23 -0.489974 0 60 -0.489974 1
gene 1 4 23 0.855115 0 61 0.855115 1
gene 1 5 23 -1.0753 0 62 -1.0753 1
gene 1 6 23 0.280512 0 63 0.280512 1
gene 1 7 23 -0.655038 0 64 -0.655038 1
gene 1 8 23 0.679813 0 65 0.679813 1
gene 1 9 23 0.0680272 0 66 0.0680272 1
gene 1 10 23 0.167207 0 67 0.167207 1
gene 1 11 23 -0.657742 0 68 -0.657742 1
gene 1 12 23 -0.922484 0 69 -0.922484 1
gene 1 13 23 0.462554 0 70 0.462554 1
gene 1 14 23 -0.240669 0 71 -0.240669 1
gene 1 15 23 -0.547076 0 72 -0.547076 1
gene 1 16 23 -0.281362 0 73 -0.281362 1
gene 1 17 23 -0.131762 0 74 -0.131762 1
gene 1 18 23 -0.330676 0 75 -0.330676 1
gene 1 19 23 -0.718174 0 76 -0.718174 1
gene 1 8 24 -0.073942 0 77 -0.073942 1
gene 1 24 20 -0.482231 0 78 -0.482231 1
gene 1 15 26 -0.200229 0 85 -0.200229 1
gene 1 26 20 0.460815 0 86 0.460815 1
gene 1 22 20 0.103855 0 87 0.103855 1
gene 1 2 24 -0.126752 0 91 -0.126752 1
gene 1 6 24 -0.476448 0 96 -0.476448 1
gene 1 10 37 -1.05802 0 129 -1.05802 1
gene 1 37 20 -0.24554 0 130 -0.24554 1
gene 1 24 37 0.105413 0 140 0.105413 1
gene 1 11 46 -0.368481 0 161 -0.368481 1
gene 1 46 20 0.101308 0 162 0.101308 1
genomeend 51
genomestart 54
trait 1 0 0 0.450751 0 0 0.0593757 0 0 
node 1 1 1 1 0
node 2 1 1 1 0
node 3 1 1 1 0
node 4 1 1 1 0
node 5 1 1 1 0
node 6 1 1 1 0
node 7 1 1 1 0
node 8 1 1 1 0
node 9 1 1 1 0
node 10 1 1 1 0
node 11 1 1 1 0
node 12 1 1 1 0
node 13 1 1 1 0
node 14 1 1 1 0
node 15 1 1 1 0
node 16 1 1 1 0
node 17 1 1 1 0
node 18 1 1 1 0
node 19 1 1 3 0
node 20 1 0 2 0
node 21 1 0 2 0
node 22 1 0 2 0
node 23 1 0 2 0
node 24 1 0 0 0
node 26 1 0 0 0
node 37 1 0 0 0
node 46 1 0 0 0
gene 1 1 20 0.523443 0 1 0.523443 1
gene 1 2 20 0.141451 0 2 0.141451 1
gene 1 3 20 -0.105875 0 3 -0.105875 1
gene 1 4 20 2.09764 0 4 2.09764 1
gene 1 5 20 -0.864147 0 5 -0.864147 1
gene 1 6 20 2.1543 0 6 2.1543 1
gene 1 7 20 0.129799 0 7 0.129799 1
gene 1 8 20 0.636497 0 8 0.636497 1
gene 1 9 20 -0.280895 0 9 -0.280895 1
gene 1 10 20 -0.194649 0 10 -0.194649 0
gene 1 11 20 0.0798763 0 11 0.0798763 1
gene 1 12 20 0.341386 0 12 0.341386 1
gene 1 13 20 0.149416 0 13 0.149416 1
gene 1 14 20 -0.357403 0 14 -0.357403 1
gene 1 15 20 -0.0269115 0 15 -0.0269115 1
gene 1 16 20 0.370807 0 16 0.370807 1
gene 1 17 20 0.00648316 0 17 0.00648316 1
gene 1 18 20 0.095785 0 18 0.095785 1
gene 1 19 20 -0.406202 0 19 -0.406202 1
gene 1 1 21 -0.160459 0 20 -0.160459 1
gene 1 2 21 -0.474722 0 21 -0.474722 1
gene 1 3 21 -0.902456 0 22 -0.902456 1
gene 1 4 21 -0.959356 0 23 -0.959356 1
gene 1 5 21 0.325415 0 24 0.325415 1
gene 1 6 21 0.178619 0 25 0.178619 1
gene 1 7 21 -1.305 0 26 -1.305 1
gene 1 8 21 -1.25299 0 27 -1.25299 1
gene 1 9 21 -3 0 28 -3 1
gene 1 10 21 1.79483 0 29 1.79483 1
gene 1 11 21 -0.21253 0 30 -0.21253 1
gene 1 12 21 -1.05102 0 31 -1.05102 1
gene 1 13 21 -2.23663 0 32 -2.23663 1
gene 1 14 21 -0.426967 0 33 -0.426967 1
gene 1 15 21 0.672776 0 34 0.672776 1
gene 1 16 21 0.566006 0 35 0.566006 1
gene 1 17 21 0.00870555 0 36 0.00870555 1
gene 1 18 21 -0.441604 0 37 -0.441604 1
gene 1 19 21 0.362235 0 38 0.362235 1
gene 1 1 22 0.394456 0 39 0.394456 1
gene 1 2 22 -0.3189 0 40 -0.3189 1
gene 1 3 22 0.383963 0 41 0.383963 1
gene 1 4 22 -0.151756 0 42 -0.151756 1
gene 1 5 22 0.42516 0 43 0.42516 1
gene 1 6 22 -0.742036 0 44 -0.742036 1
gene 1 7 22 -0.0490359 0 45 -0.0490359 1
gene 1 8 22 0.661166 0 46 0.661166 1
gene 1 9 22 0.377336 0 47 0.377336 1
gene 1 10 22 -0.43918 0 48 -0.43918 1
gene 1 11 22 -2.30591 0 49 -2.30591 1
gene 1 12 22 1.22233 0 50 1.22233 1
gene 1 13 22 0.0295255 0 51 0.0295255 1
gene 1 14 22 -0.923652 0 52 -0.923652 1
gene 1 15 22 0.367463 0 53 0.367463 1
gene 1 16 22 0.612906 0 54 0.612906 1
gene 1 17 22 1.31767 0 55 1.31767 1
gene 1 18 22 -0.099268 0 56 -0.099268 1
gene 1 19 22 0.265305 0 57 0.265305 1
gene 1 1 23 0.599811 0 58 0.599811 1
gene 1 2 23 0.368368 0 59 0.368368 1
gene 1 3 23 -0.236978 0 60 -0.236978 1
gene 1 4 23 0.292278 0 61 0.292278 1
gene 1 5 23 -1.11959 0 62 -1.11959 1
gene 1 6 23 -0.170969 0 63 -0.170969 1
gene 1 7 23 -0.577072 0 64 -0.577072 1
gene 1 8 23 0.330971 0 65 0.330971 1
gene 1 9 23 -0.490808 0 66 -0.490808 1
gene 1 10 23 0.397956 0 67 0.397956 1
gene 1 11 23 -0.853344 0 68 -0.853344 1
gene 1 12 23 -0.519845 0 69 -0.519845 1
gene 1 13 23 0.16342 0 70 0.16342 1
gene 1 14 23 -0.0854988 0 71 -0.0854988 1
gene 1 15 23 -0.385525 0 72 -0.385525 1
gene 1 16 23 -0.220117 0 73 -0.220117 1
gene 1 17 23 -0.575417 0 74 -0.575417 1
gene 1 18 23 0.526574 0 75 0.526574 1
gene 1 19 23 -0.654978 0 76 -0.654978 1
gene 1 8 24 0.145881 0 77 0.145881 1
gene 1 24 20 -0.71713 0 78 -0.71713 1
gene 1 15 26 0.00304333 0 85 0.00304333 1
gene 1 26 20 0.632121 0 86 0.632121 1
gene 1 22 20 0.426193 0 87 0.426193 1
gene 1 2 24 0.0752954 0 91 0.0752954 1
gene 1 6 24 0.553156 0 96 0.553156 1
gene 1 10 37 -0.14744 0 129 -0.14744 1
gene 1 37 20 -0.157005 0 130 -0.157005 1
gene 1 24 37 0.0895874 0 140 0.0895874 1
gene 1 11 46 -0.407006 0 161 -0.407006 1
gene 1 46 20 -0.00545993 0 162 -0.00545993 1
genomeend 54
genomestart 55
trait 1 0 0 0.450751 0 0 0.0593757 0 0 
node 1 1 1 1 0
node 2 1 1 1 0
node 3 1 1 1 0
node 4 1 1 1 0
node 5 1 1 1 0
node 6 1 1 1 0
node 7 1 1 1 0
node 8 1 1 1 0
node 9 1 1 1 0
node 10 1 1 1 0
node 11 1 1 1 0
node 12 1 1 1 0
node 13 1 1 1 0
node 14 1 1 1 0
node 15 1 1 1 0
node 16 1 1 1 0
node 17 1 1 1 0
node 18 1 1 1 0
node 19 1 1 3 0
node 20 1 0 2 0
node 21 1 0 2 0
node 22 1 0 2 0
node 23 1 0 2 0
node 24 1 0 0 0
node 26 1 0 0 0
node 37 1 0 0 0
node 46 1 0 0 0
gene 1 1 20 0.493105 0 1 0.493105 1
gene 1 2 20 0.219749 0 2 0.219749 1
gene 1 3 20 -0.40633 0 3 -0.40633 1
gene 1 4 20 2.19787 0 4 2.19787 1
gene 1 5 20 -0.78082 0 5 -0.78082 1
gene 1 6 20 2.34308 0 6 2.34308 1
gene 1 7 20 -0.174332 0 7 -0.174332 1
gene 1 8 20 0.658554 0 8 0.658554 1
gene 1 9 20 0.912834 0 9 0.912834 1
gene 1 10 20 -1.25037 0 10 -1.25037 0
gene 1 11 20 -0.665785 0 11 -0.665785 1
gene 1 12 20 0.126734 0 12 0.126734 1
gene 1 13 20 0.434837 0 13 0.434837 1
gene 1 14 20 -0.502381 0 14 -0.502381 1
gene 1 15 20 -1.62248 0 15 -1.62248 1
gene 1 16 20 0.637569 0 16 0.637569 1
gene 1 17 20 2.8161 0 17 2.8161 1
gene 1 18 20 1.29203 0 18 1.29203 1
gene 1 19 20 0.720139 0 19 0.720139 1
gene 1 1 21 -0.0976765 0 20 -0.0976765 1
gene 1 2 21 -0.152503 0 21 -0.152503 1
gene 1 3 21 -0.195163 0 22 -0.195163 1
gene 1 4 21 -0.0660056 0 23 -0.0660056 1
gene 1 5 21 0.00996528 0 24 0.00996528 1
gene 1 6 21 -0.139286 0 25 -0.139286 1
gene 1 7 21 -0.742657 0 26 -0.742657 1
gene 1 8 21 -1.87362 0 27 -1.87362 1
gene 1 9 21 -2.80299 0 28 -2.80299 1
gene 1 10 21 1.4549 0 29 1.4549 1
gene 1 11 21 0.272921 0 30 0.272921 1
gene 1 12 21 -1.05217 0 31 -1.05217 1
gene 1 13 21 -1.70615 0 32 -1.70615 1
gene 1 14 21 -0.408872 0 33 -0.408872 1
gene 1 15 21 1.04926 0 34 1.04926 1
gene 1 16 21 -0.0462768 0 35 -0.0462768 1
gene 1 17 21 0.612454 0 36 0.612454 1
gene 1 18 21 -0.617306 0 37 -0.617306 1
gene 1 19 21 -0.0873245 0 38 -0.0873245 1
gene 1 1 22 -0.136023 0 39 -0.136023 1
gene 1 2 22 0.341125 0 40 0.341125 1
gene 1 3 22 -0.211973 0 41 -0.211973 1
gene 1 4 22 0.591512 0 42 0.591512 1
gene 1 5 22 0.587965 0 43 0.587965 1
gene 1 6 22 -0.478419 0 44 -0.478419 1
gene 1 7 22 0.402572 0 45 0.402572 1
gene 1 8 22 -0.119994 0 46 -0.119994 1
gene 1 9 22 -1.17785 0 47 -1.17785 1
gene 1 10 22 -0.178108 0 48 -0.178108 1
gene 1 11 22 -2.21861 0 49 -2.21861 1
gene 1 12 22 0.64055 0 50 0.64055 1
gene 1 13 22 -0.0651153 0 51 -0.0651153 1
gene 1 14 22 -0.188818 0 52 -0.188818 1
gene 1 15 22 -0.428652 0 53 -0.428652 1
gene 1 16 22 -0.18012 0 54 -0.18012 1
gene 1 17 22 1.29584 0 55 1.29584 1
gene 1 18 22 -0.675251 0 56 -0.675251 1
gene 1 19 22 -0.269706 0 57 -0.269706 1
gene 1 1 23 1.15499 0 58 1.15499 1
gene 1 2 23 0.491762 0 59 0.491762 1
gene 1 3 23 -0.472215 0 60 -0.472215 1
gene 1 4 23 1.01044 0 61 1.01044 1
gene 1 5 23 -0.760973 0 62 -0.760973 1
gene 1 6 23 -0.804336 0 63 -0.804336 1
gene 1 7 23 -1.46365 0 64 -1.46365 1
gene 1 8 23 0.907059 0 65 0.907059 1
gene 1 9 23 -0.187497 0 66 -0.187497 1
gene 1 10 23 0.391575 0 67 0.391575 1
gene 1 11 23 -1.13293 0 68 -1.13293 1
gene 1 12 23 -0.437112 0 69 -0.437112 1
gene 1 13 23 0.0838488 0 70 0.0838488 1
gene 1 14 23 0.445686 0 71 0.445686 1
gene 1 15 23 0.277661 0 72 0.277661 1
gene 1 16 23 0.0125173 0 73 0.0125173 1
gene 1 17 23 -0.486028 0 74 -0.486028 1
gene 1 18 23 0.416761 0 75 0.416761 1
gene 1 19 23 -0.211612 0 76 -0.211612 1
gene 1 8 24 0.950666 0 77 0.950666 1
gene 1 24 20 -0.587572 0 78 -0.587572 1
gene 1 15 26 -0.745249 0 85 -0.745249 1
gene 1 26 20 0.469801 0 86 0.469801 1
gene 1 22 20 0.256581 0 87 0.256581 1
gene 1 2 24 0.43745 0 91 0.43745 1
gene 1 6 24 -0.436058 0 96 -0.436058 1
gene 1 10 37 0.303487 0 129 0.303487 1
gene 1 37 20 -0.356815 0 130 -0.356815 1
gene 1 24 37 -0.375458 0 140 -0.375458 1
gene 1 11 46 -0.0552553 0 161 -0.0552553 1
gene 1 46 20 -0.0466189 0 162 -0.0466189 1
genomeend 55
genomestart 56
trait 1 0 0 0.450751 0 0 0.0593757 0 0 
node 1 1 1 1 0
node 2 1 1 1 0
node 3 1 1 1 0
node 4 1 1 1 0
node 5 1 1 1 0
node 6 1 1 1 0
node 7 1 1 1 0
node 8 1 1 1 0
node 9 1 1 1 0
node 10 1 1 1 0
node 11 1 1 1 0
node 12 1 1 1 0
node 13 1 1 1 0
node 14 1 1 1 0
node 15 1 1 1 0
node 16 1 1 1 0
node 17 1 1 1 0
node 18 1 1 1 0
node 19 1 1 3 0
node 20 1 0 2 0
node 21 1 0 2 0
node 22 1 0 2 0
node 23 1 0 2 0
node 24 1 0 0 0
node 26 1 0 0 0
node 37 1 0 0 0
node 46 1 0 0 0
gene 1 1 20 0.585492 0 1 0.585492 1
gene 1 2 20 0.644217 0 2 0.644217 1
gene 1 3 20 0.179125 0 3 0.179125 1
gene 1 4 20 2.51431 0 4 2.51431 1
gene 1 5 20 -0.906494 0 5 -0.906494 1
gene 1 6 20 1.67874 0 6 1.67874 1
gene 1 7 20 0.340721 0 7 0.340721 1
gene 1 8 20 1.18967 0 8 1.18967 1
gene 1 9 20 0.407926 0 9 0.407926 1
gene 1 10 20 -1.30771 0 10 -1.30771 0
gene 1 11 20 -0.398682 0 11 -0.398682 1
gene 1 12 20 0.114306 0 12 0.114306 1
gene 1 13 20 -0.377214 0 13 -0.377214 1
gene 1 14 20 -0.308754 0 14 -0.308754 1
gene 1 15 20 -1.80161 0 15 -1.80161 1
gene 1 16 20 0.0417441 0 16 0.0417441 1
gene 1 17 20 2.5659 0 17 2.5659 1
gene 1 18 20 1.09181 0 18 1.09181 1
gene 1 19 20 0.868472 0 19 0.868472 1
gene 1 1 21 -0.238637 0 20 -0.238637 1
gene 1 2 21 0.0183807 0 21 0.0183807 1
gene 1 3 21 -0.699338 0 22 -0.699338 1
gene 1 4 21 0.00404422 0 23 0.00404422 1
gene 1 5 21 0.326967 0 24 0.326967 1
gene 1 6 21 0.00191738 0 25 0.00191738 1
gene 1 7 21 -0.92528 0 26 -0.92528 1
gene 1 8 21 -1.19077 0 27 -1.19077 1
gene 1 9 21 -3 0 28 -3 1
gene 1 10 21 2.06806 0 29 2.06806 1
gene 1 11 21 0.263529 0 30 0.263529 1
gene 1 12 21 -0.616137 0 31 -0.616137 1
gene 1 13 21 -1.3709 0 32 -1.3709 1
gene 1 14 21 -0.301006 0 33 -0.301006 1
gene 1 15 21 0.784322 0 34 0.784322 1
gene 1 16 21 0.630488 0 35 0.630488 1
gene 1 17 21 -0.0870737 0 36 -0.0870737 1
gene 1 18 21 -0.830953 0 37 -0.830953 1
gene 1 19 21 0.45335 0 38 0.45335 1
gene 1 1 22 0.793074 0 39 0.793074 1
gene 1 2 22 0.291906 0 40 0.291906 1
gene 1 3 22 -0.215239 0 41 -0.215239 1
gene 1 4 22 0.254221 0 42 0.254221 1
gene 1 5 22 0.292158 0 43 0.292158 1
gene 1 6 22 -1.1811 0 44 -1.1811 1
gene 1 7 22 0.142943 0 45 0.142943 1
gene 1 8 22 -0.185461 0 46 -0.185461 1
gene 1 9 22 -0.948912 0 47 -0.948912 1
gene 1 10 22 -0.85753 0 48 -0.85753 1
gene 1 11 22 -2.68827 0 49 -2.68827 1
gene 1 12 22 1.30013 0 50 1.30013 1
gene 1 13 22 0.150091 0 51 0.150091 1
gene 1 14 22 -0.279664 0 52 -0.279664 1
gene 1 15 22 -0.363675 0 53 -0.363675 1
gene 1 16 22 0.0586539 0 54 0.0586539 1
gene 1 17 22 0.896616 0 55 0.896616 1
